Acciaiuoli::0.07739064,0.37971076,-0.04169435,0.4733372,-0.23877023,0.20424676,-0.25885472,-0.104569346,-0.2060989,-0.4395494,-0.07298479,0.27707082,0.14821628,0.21468659,0.23303361,0.17724979,0.2999663,-0.4683215,-0.023297472,-0.015837584,0.0126043875,-0.06766891,0.1495596,0.48473108,0.2535015,-0.36478755,0.19955465,-0.06550542,-0.121829554,0.1761547,-0.1374931,-0.14718495,-0.26146114,-0.024220683,0.0070722457,-0.21375398,0.3745068,0.08089385,-0.2976227,0.07941219,0.18980598,-0.1058975,-0.3365675,-0.22374833,-0.018807119,0.09319502,0.090659715,0.53348136,0.1442535,-0.2906062,0.31501538,-0.27314207,-0.16224815,-0.15460409,0.18560241,-0.18230331,0.020834252,-0.09358634,0.07903086,0.053347316,0.31718808,-0.29605058,-0.10694571,0.1685426,-0.0683782,-0.028465679,0.07975889,-0.18277667,-0.3849177,0.07324253,0.47288966,-0.0813117,-0.18593092,-0.18978678,0.30893883,0.1241507,0.3716887,-0.30718088,0.09633215,-0.13294275,0.13797852,0.17798704,-0.39266,0.13680635,-0.14041875,0.17701355,-0.29416147,-0.12627047,0.4973105,0.28434417,0.19631892,0.34098893,0.4289775,0.10231944,-0.032898996,-0.12819903,-0.15232937,0.11773419,0.021493781,-0.25481966
Medici::0.034541935,0.30306432,0.004475438,0.27139106,-0.13665281,0.12649445,-0.16640992,-0.014217435,-0.12332283,-0.29032144,-0.044741843,0.23991215,0.1192624,0.1043551,0.1352207,0.12470415,0.15769729,-0.39133713,-0.012308176,0.012503369,-0.021497918,-0.03479112,0.099035084,0.28704736,0.20372488,-0.25052056,0.1322501,0.012046058,-0.094408035,0.1124734,-0.07732498,-0.09240924,-0.17648484,-0.015926346,0.032278005,-0.19785483,0.25502673,0.036108695,-0.23441418,0.059524328,0.13685147,-0.04267833,-0.19513528,-0.15243512,0.059036355,0.0515126,0.025185753,0.3398889,0.097317845,-0.17835379,0.2704397,-0.16701719,-0.12222815,-0.1259005,0.1638266,-0.13622476,-0.011491912,-0.041801278,0.056691136,0.07398469,0.26303688,-0.1456862,-0.06091163,0.18126488,-0.06938897,0.031424623,0.017018335,-0.13087396,-0.28292575,0.047598675,0.2812251,-0.07281882,-0.13389619,-0.11839576,0.1853719,0.07954236,0.23497944,-0.23823488,0.052746486,-0.10892139,0.07086479,0.15212284,-0.24655448,0.08776515,-0.09870117,0.12293504,-0.25401852,-0.07352022,0.30544364,0.14604533,0.17703211,0.24728179,0.29204646,0.07165625,0.03124252,-0.09590378,-0.11351344,0.055503882,0.03179741,-0.20126845
Castellani::0.17916091,-0.004087447,0.031830076,-0.25359592,-0.02265352,0.3242838,-0.14664821,-0.048202522,0.14817515,0.110306926,-0.07320296,0.17555979,0.15111123,0.028180169,0.25272748,0.36813644,-0.20568985,-0.2691234,-0.36543265,-0.24587856,-0.23545206,0.20805117,0.10222364,-0.0152489785,0.31588414,-0.33019894,-0.12454131,-0.036066152,0.058757316,0.021105917,0.06915422,-0.18622403,0.087463744,-0.048844013,-0.101226866,0.04316696,0.2033292,-0.28088433,0.022564318,0.34975234,0.3681553,0.19761017,0.0968541,-0.2419954,0.17960407,0.028672684,-0.30574557,-0.10647444,0.24251297,-0.21448277,0.4419586,-0.1412128,-0.00871791,0.20850149,-0.16376798,0.14083678,-0.02314118,-0.051006645,-0.14506328,0.0720685,0.078872256,0.19360769,-0.047023445,0.099493064,-0.039833922,0.27266344,0.16119246,0.066918515,-0.20068684,-0.43210822,0.17182228,0.034711298,-0.05865742,-0.061913047,0.3116782,0.22395542,0.11658468,-0.507326,0.11501528,0.3720542,0.47800153,-0.04475994,-0.07785223,0.08150534,-0.054000773,0.15999083,-0.33062902,0.06267976,-0.07153829,-0.2047601,-0.07185743,0.20647582,0.34452596,0.24549711,0.006847345,-0.40602478,0.18811293,-0.102741435,-0.31685778,0.058247034
Peruzzi::0.17069182,-0.018510874,0.07744769,-0.35745037,0.12097209,0.2612386,-0.055648047,-0.00772603,0.17605259,0.29610324,-0.10834703,0.1929509,0.21092486,-0.06920465,0.26200882,0.33161396,-0.38998085,-0.35488158,-0.39736447,-0.21671174,-0.25377378,0.27282,0.028949039,-0.115731955,0.2992034,-0.34562737,-0.1402626,0.038527887,0.103322044,-0.03604161,0.08816896,-0.15902562,-0.013506511,-0.08491546,-0.0644309,0.07883866,0.12936357,-0.3420441,0.008036346,0.38597184,0.35265267,0.19165084,0.10763911,-0.23852493,0.26893356,-0.06342767,-0.37361532,-0.23846923,0.3184932,-0.21975099,0.45613366,-0.053069565,0.05468959,0.10838657,-0.13147584,0.16689014,-0.016318295,-0.071998,-0.21087828,0.11294892,0.12842153,0.24064717,-0.15013409,0.038814083,0.023719698,0.38576856,0.10739948,0.10121094,-0.12451782,-0.502464,0.07338011,-0.017690526,-0.059155494,-0.04114378,0.3050133,0.22115962,0.119064495,-0.46063682,0.14987975,0.34069553,0.3579292,-0.16619892,0.023167757,0.06527029,-0.047707334,0.20919296,-0.39864892,0.026836665,-0.2115133,-0.22351071,0.033642944,0.20063424,0.3344463,0.2941482,0.027051292,-0.40021268,0.20150302,-0.22673088,-0.41170502,0.09645559
Strozzi::0.121670775,-0.015700918,0.12996121,-0.3372162,0.19723912,0.2177629,-0.05016059,-0.04196431,0.21155736,0.24179421,-0.09559317,0.14504059,0.22832885,-0.113941245,0.21102437,0.2663928,-0.35142297,-0.42777884,-0.3666695,-0.17704076,-0.18969758,0.25649014,-0.06456775,-0.13735999,0.25484708,-0.29384303,-0.060342927,0.10914366,0.10815577,-0.007563887,0.032381877,-0.09272355,-0.079555616,-0.12589467,0.031510442,-0.003749005,0.08405148,-0.27595428,-0.023568531,0.28225127,0.35036975,0.08778632,0.059301414,-0.20763463,0.2350796,-0.019239752,-0.4077471,-0.23156859,0.35320723,-0.15099335,0.47756207,0.041679665,0.14680125,-0.02015792,-0.07762195,0.1491866,-0.081355035,-0.06369277,-0.11670088,0.09499378,0.16408952,0.17741239,-0.106143266,-0.028090978,0.002066352,0.4288206,0.0066356263,0.08086931,-0.089742444,-0.39161447,0.04827434,-0.03364777,-0.06714595,-0.0815954,0.21583742,0.2237306,0.12342432,-0.448479,0.2269268,0.20609273,0.27026623,-0.1773539,-0.0054531633,0.11425526,-0.0058237803,0.17178975,-0.4227602,-0.03870599,-0.19754016,-0.1405644,0.13332854,0.24615586,0.30021983,0.32441026,0.044066377,-0.33989394,0.11462861,-0.26386148,-0.29912454,0.11609685
Barbadori::0.17736885,0.1835363,0.00585151,0.121685974,-0.16237871,0.36929092,-0.19289479,-0.097644016,0.03132961,-0.18369848,-0.009649867,0.22810045,0.059203107,0.12115089,0.128156,0.2822836,0.09849652,-0.20836279,-0.19782637,-0.22410372,-0.10466317,-0.0100359,0.20521656,0.284048,0.28543058,-0.29526332,-0.12717524,-0.08846102,-0.0783035,0.08034275,0.013777169,-0.18622723,0.10721997,-0.029404726,-0.08486688,-0.071804,0.2737179,-0.1155072,-0.09699072,0.14997898,0.2620753,0.13181859,-0.058341198,-0.21105435,0.12693599,0.20131798,-0.12980321,0.21539879,0.055846866,-0.15021856,0.35512277,-0.21478899,-0.101877995,0.18072039,-0.059729625,0.04318412,-0.0697568,0.01785641,0.019791435,0.03488873,0.10857308,0.081975766,-0.0055735568,0.2168801,-0.1867666,0.059222393,0.1550347,-0.0315866,-0.3460903,-0.18459877,0.28157765,-0.0066747223,0.013727619,-0.08705566,0.28463235,0.14881243,0.21181428,-0.41398922,0.08078743,0.26268443,0.44798064,0.18023089,-0.18659694,0.16817905,-0.115541555,0.03536837,-0.12552154,0.08582623,0.24058208,-0.010695059,-0.025338346,0.25701725,0.36403558,0.06941518,0.023170551,-0.29525048,-0.021511007,0.06644072,-0.111413,-0.13047619
Ridolfi::0.04383758,0.189718,0.07047239,0.043034345,0.06909006,0.07138913,-0.078945525,-0.088484086,0.064816415,-0.10670688,-0.06784575,0.11425076,0.1933662,-0.059390716,0.12340911,0.103241935,-0.013835886,-0.48815796,-0.16084377,-0.015471462,0.024401521,0.11028626,-0.060237914,0.064436994,0.107511096,-0.25431323,0.17632486,0.10677649,-0.0057887393,0.107663065,-0.10117953,-0.030161155,-0.20147386,-0.15390608,0.08191312,-0.19888896,0.104918055,0.03137428,-0.16906744,0.039609026,0.20616783,-0.0958661,-0.20502578,-0.14805816,0.11258152,0.00758749,-0.20373255,0.10875055,0.2118782,-0.1293792,0.3867606,0.063016824,0.07717885,-0.26470876,0.13444734,-0.04941157,-0.03190719,-0.04845192,0.07302871,0.03500752,0.23847984,-0.1426567,-0.046304457,-0.022224573,-0.045490157,0.28209275,-0.08156494,-0.03259155,-0.18271913,0.010972972,0.17994553,-0.023283355,-0.13684113,-0.12150904,0.100621566,0.16040961,0.20822836,-0.30304566,0.22135924,-0.13804416,-0.013697929,-0.036785584,-0.18734826,0.10883712,-0.013428581,0.14711808,-0.31447396,-0.122503996,0.11691731,0.13505574,0.30302075,0.2887954,0.26075545,0.22194743,-0.01848649,-0.12829812,-0.0851912,-0.12149142,0.0056708753,-0.03215862
Tornabuoni::0.017226169,0.20475286,-0.0077899164,0.09893591,-0.017217835,-0.04877499,0.023579044,-0.0003448967,-0.114915855,-0.052949104,-0.11959191,0.17509511,0.18898964,-0.02037573,0.1886795,0.035888914,-0.06166186,-0.44964325,-0.07927725,0.08258005,0.016032526,0.11538969,0.008181316,0.08219445,0.04756028,-0.26537403,0.20379458,0.056287844,0.016845023,0.097976215,-0.07698585,-0.062459473,-0.3060805,-0.11304563,0.02861659,-0.15209782,0.11939329,0.035478354,-0.19620049,0.05112056,0.09231718,-0.10837306,-0.29002485,-0.14831913,0.14250128,-0.17171213,-0.091204144,0.11507379,0.13497807,-0.2689021,0.27671993,-0.021113686,0.011563971,-0.3221313,0.1930838,-0.11094498,0.118035235,-0.083322056,-0.0070573613,0.10254354,0.2880069,-0.22526659,-0.14108634,-5.947257e-05,0.08806621,0.19882976,-0.023745531,-0.080718,-0.19654708,0.008480586,0.14182131,-0.059963185,-0.19024974,-0.029217066,0.11220161,0.06652186,0.21594936,-0.13208626,0.13804096,-0.21115363,-0.18920909,-0.07023706,-0.17979918,-0.07568478,-0.033724617,0.25678864,-0.27429065,-0.13580045,0.11001528,0.10887967,0.28291833,0.17426911,0.19016008,0.1379694,-0.033368036,-0.059875622,-0.022005066,-0.10026784,-0.05171846,-0.015248303
Albizzi::0.04018147,0.31480643,-0.09526971,0.27709326,-0.029290348,0.02311358,-0.029635213,0.14456728,-0.29531002,0.030277435,-0.029903885,0.38579118,0.05505568,0.060705043,0.059038937,0.037100624,-0.08138494,-0.18425573,0.14562544,0.13062967,-0.1338053,-0.05157211,0.25025472,0.2814289,0.26862478,-0.2507649,-0.13055776,-0.061625417,-0.1617474,-0.052317414,0.092257924,-0.084485434,-0.19357707,0.15244037,-0.0073435125,0.06373037,0.22518134,-0.17690521,-0.2959635,0.1778998,-0.006934045,0.04865059,-0.08318146,-0.13361585,0.3499381,-0.093335435,0.20857307,0.18806255,-0.08898132,-0.2687233,0.11432742,-0.2868347,-0.24970378,-0.07249529,0.27485225,-0.0494885,-0.018840676,-0.015380502,-0.2208047,0.2834576,0.27586305,0.13330992,-0.27011234,0.37696043,-0.08185361,0.0028371667,0.01751986,-0.14931321,-0.2891924,-0.099327,-0.0046828585,-0.16383067,-0.0763971,0.07884184,0.3575485,-0.037750486,0.248265,0.096428946,-0.14461362,-0.012955723,-0.12894337,0.1510899,0.01343579,-0.08771414,-0.22192444,0.024782525,-0.23199731,0.028979616,0.13763136,-0.058310598,0.13393682,0.043485377,0.2020182,-0.06338562,0.19362582,0.016380515,-0.13427734,-0.11771297,-0.24628635,-0.2855427
Salviati::-0.078139015,0.20886755,0.07523181,0.3285227,-0.20277265,0.020143634,-0.30599856,0.091868594,-0.008044139,-0.5850195,-0.01410864,0.08061317,-0.024286365,0.1418537,0.111372024,0.17676231,0.31751236,-0.41964975,-0.024882073,0.06823736,-0.16152318,-0.18237667,-0.022404395,0.13197847,0.3781907,-0.08328119,0.3431052,0.030491062,-0.11725995,0.16631256,-0.1513278,0.029446304,-0.33683088,0.15660454,0.038855825,-0.19221161,0.3412333,-0.20826006,-0.24733973,0.27381316,0.44464397,-0.16341336,0.09068544,-0.050720382,-0.13511339,-0.23119695,0.25520235,0.44100973,0.5428793,-0.28250703,0.08484106,-0.292758,-0.17574939,-0.059702948,0.21034832,-0.06120978,-0.19302946,0.089750245,0.017261669,-0.021826237,0.36120892,-0.23110637,-0.029007733,0.0734385,0.20890212,-0.072748385,-0.13995144,-0.24940565,0.0992775,-0.031552188,0.3747695,-0.13438015,-0.26261914,-0.33938587,0.018302346,-0.08970013,0.14888631,-0.40687323,-0.12400543,-0.36608592,0.08997585,0.33606356,-0.08326008,0.15245135,-0.20344092,0.23665145,-0.6020717,-0.14479299,0.26711768,0.05910243,0.22934802,0.20767054,0.20445201,0.22166464,0.016950225,-0.048476573,0.011612723,0.16657329,0.13360001,-0.21451573
Pazzi::-0.11479829,0.17279756,0.17490247,0.23997983,-0.21876124,-0.040861584,-0.38939324,0.2007268,0.12534189,-0.7123373,-0.022430498,0.019746188,-0.06586083,0.10534237,0.12043929,0.25322375,0.34785393,-0.54117274,-0.08606937,0.07547827,-0.3137285,-0.22589073,-0.11561454,-0.017234784,0.53321934,-0.032519955,0.48383182,0.0965621,-0.09926285,0.1985591,-0.18963549,0.08602578,-0.40956676,0.22994812,0.051829565,-0.24538577,0.4092088,-0.37855136,-0.23771818,0.44180503,0.67996556,-0.20158453,0.2802775,-0.0045477995,-0.19432,-0.4053442,0.28203267,0.45930794,0.8492148,-0.3342943,0.07357078,-0.32860556,-0.1917486,-0.0096923215,0.2036574,-0.008929429,-0.30492252,0.16570486,-0.039671373,-0.06652696,0.4590506,-0.2451431,-0.009058921,0.023173612,0.36793125,-0.06328289,-0.2567323,-0.2929093,0.31927124,-0.108602725,0.43545255,-0.16139857,-0.35813832,-0.48006082,-0.08300212,-0.14786638,0.09773779,-0.60382795,-0.20101923,-0.50670785,0.13542446,0.41740948,0.02049338,0.18604106,-0.25650826,0.33771962,-0.8920252,-0.17736174,0.19592494,-0.06421111,0.28696948,0.20871674,0.1867969,0.37010047,0.015404393,-0.0831872,0.13434872,0.21561718,0.15433824,-0.19247542
Bischeri::0.07555297,-0.021830337,0.03256612,-0.31844875,0.18480144,0.053109933,0.065129094,0.1191982,0.036585577,0.42534825,-0.15233883,0.22281094,0.18796092,-0.12620872,0.22715475,0.20315057,-0.5068077,-0.32041842,-0.23532307,-0.018452356,-0.28300074,0.2681168,0.013482858,-0.19234093,0.2527224,-0.28171536,-0.10303491,0.0795989,0.10554654,-0.113188565,0.10582418,-0.0909807,-0.164571,-0.0073359865,-0.021257231,0.15618251,0.085461386,-0.3810604,-0.06934852,0.4040313,0.21586461,0.1376876,0.1244246,-0.18034238,0.3210865,-0.27944246,-0.22648975,-0.31347957,0.28560206,-0.28536543,0.30130577,-0.05183541,0.027272373,-0.028173847,-0.006427836,0.14271496,0.013343393,-0.0954482,-0.3174443,0.21444874,0.21381181,0.24739034,-0.2662804,0.0707122,0.15019132,0.3566703,0.039333604,0.05778079,-0.0279621,-0.47336397,-0.10305168,-0.097760625,-0.12186961,0.04390678,0.27491105,0.095396854,0.086509116,-0.18780623,0.028577019,0.16959332,0.034203127,-0.19127147,0.1488326,-0.10525472,-0.063054584,0.23652981,-0.4533112,-0.014322278,-0.32987764,-0.28811258,0.07958301,0.051202446,0.19161496,0.23733766,0.09788519,-0.23212038,0.19736983,-0.3191055,-0.4649441,0.08949242
Guadagni::0.022589382,0.16634652,-0.073905244,-0.011745681,0.03126343,-0.16888042,0.17287116,0.24924392,-0.2595617,0.29453462,-0.21181923,0.2874423,0.16940123,-0.0554133,0.21706448,0.0030502945,-0.3840084,-0.33328402,-0.009234373,0.19747184,-0.1668245,0.17454654,0.12690057,-0.06481328,0.12601268,-0.248978,0.058484558,0.06223317,0.027304545,-0.09112925,0.053105254,-0.030432401,-0.3781662,0.06410076,-0.035154782,0.09276225,0.112982504,-0.18738091,-0.21336909,0.26555845,-0.02521979,0.03078176,-0.1449699,-0.10604113,0.29904518,-0.4201646,0.05693029,-0.08552645,0.13458517,-0.43418714,0.07539816,-0.13125661,-0.13641739,-0.23832223,0.19511336,-0.092857406,0.18386894,-0.15195988,-0.31495208,0.24692431,0.33050796,-0.034624565,-0.3454091,0.14970732,0.258935,0.17124252,0.020401042,-0.08382758,-0.08112687,-0.21882652,-0.099043444,-0.18710679,-0.20625065,0.17169535,0.22802904,-0.03841075,0.13919851,0.10583514,-0.1183518,-0.1383922,-0.30737165,-0.1502838,0.07651165,-0.24785772,-0.10427472,0.32439485,-0.35828462,-0.06484423,-0.1445233,-0.13817924,0.19315338,-0.0602357,0.14164142,0.025314476,0.07594968,-0.038383428,0.13770819,-0.2127462,-0.34888184,-0.056453727
Ginori::0.047250025,0.48258644,-0.03311298,0.418955,0.041414868,0.086409315,-0.08049389,0.312111,-0.37906423,0.073360555,0.015703544,0.6103865,0.026586834,0.074099876,-0.041668996,0.03132132,-0.1474139,-0.2374481,0.2705419,0.1999364,-0.29380155,-0.16775507,0.38534743,0.3788974,0.5274469,-0.26292294,-0.29296502,-0.009075294,-0.30865452,-0.1589357,0.18939973,-0.03633558,-0.2339358,0.34615257,0.0568254,0.1123465,0.3200238,-0.4252672,-0.48534748,0.2842764,0.040791493,0.12305568,0.08301141,-0.13999231,0.5851115,-0.0696165,0.39114362,0.26133543,-0.068155006,-0.2854007,0.09791981,-0.44973403,-0.43192247,0.004450533,0.4343924,-0.041534908,-0.22727641,0.050817396,-0.35283563,0.45995554,0.4173223,0.3878016,-0.39134014,0.6883366,-0.17551386,-0.04768124,-0.094832025,-0.25649232,-0.30167785,-0.21299264,-0.09830376,-0.3499915,-0.041000642,0.09914036,0.5129217,-0.09277564,0.33263642,0.14685497,-0.343293,0.0024227956,-0.10862269,0.36638102,0.15664601,-0.005976371,-0.3928991,-0.091549635,-0.4043497,0.07347282,0.13422073,-0.16041172,0.19698602,0.0744151,0.29622477,-0.13648413,0.43504748,0.042832952,-0.25028583,-0.18058576,-0.363468,-0.55949616
Lamberteschi::0.07029422,0.065137565,-0.14184742,-0.16711526,-0.045594316,-0.26724133,0.23717064,0.27465066,-0.2922011,0.3692017,-0.35174656,0.25580555,0.21900022,-0.060378,0.40238327,0.089062475,-0.49996626,-0.4336791,-0.13387457,0.19001384,-0.18057042,0.35397246,0.107232116,-0.18082349,0.06945498,-0.34314147,0.18586616,0.053006407,0.13293545,-0.032154642,0.027677508,-0.11536829,-0.50221556,-0.004521444,-0.13820188,0.10455215,0.1326164,-0.20866999,-0.16507794,0.4270427,0.068236105,0.016300691,-0.20111263,-0.17062023,0.26200378,-0.6970571,-0.020584296,-0.16173632,0.279133,-0.6769076,0.12965763,-0.160831,-0.11078521,-0.32133752,0.14107761,-0.09886367,0.39237106,-0.22301483,-0.4198935,0.23576944,0.3992445,-0.1860352,-0.43746606,-0.024060268,0.49165356,0.2577204,0.1142038,-0.05804025,-0.04478935,-0.36489755,-0.025716038,-0.12386626,-0.33408996,0.1742798,0.26781294,-0.037609898,0.1417199,0.015714874,-0.07767023,-0.16994624,-0.3865344,-0.34541667,0.038460493,-0.43379334,-0.0752382,0.5893101,-0.49465135,-0.1348525,-0.26254213,-0.21335481,0.18299933,-0.10375723,0.119249165,0.13230708,-0.060150597,-0.12870373,0.3434611,-0.23181504,-0.47059327,0.14897552
