Acciaiuoli::-0.5545943,0.0610597,-0.5104458,0.5671553,0.22832145,0.6221428,-0.8928524,-0.1271226,-0.33384335,-0.37214926,0.2469883,0.5036787,-0.5772352,0.09785592,-0.3090191,0.37794665,0.53340346,0.29024285,0.2862999,0.97340167,-0.016303036,-0.26875386,-0.3638914,0.818124,0.24066986
Medici::-0.3216379,0.107498765,-0.24826866,0.30270988,0.04438631,0.3217469,-0.620648,-0.14124893,-0.12965877,-0.18948297,0.25321552,0.42533416,-0.31298143,0.04574639,-0.048880495,0.32057616,0.2971932,0.073266216,0.16447091,0.57547575,-0.11807184,-0.3651152,-0.16201404,0.52680004,0.2836506
Castellani::0.46542257,-0.11373093,0.17530933,0.14586523,0.031767268,-0.48997474,-0.26950827,0.14442118,-0.08894392,0.52963644,0.4847732,0.83319956,-0.4686226,-0.24666528,-0.20381266,0.47884995,-0.3909719,-0.5780866,-0.30804375,0.30281878,-0.43495557,-1.1345141,0.5634055,0.16002719,0.8367079
Peruzzi::0.55546,-0.29113704,0.10580417,0.0780026,0.1342808,-0.46242416,-0.1921013,-0.25224113,0.14084432,0.65505564,0.372906,0.7959038,-0.46659693,-0.28927875,-0.04795986,0.29118726,-0.23146309,-0.5732204,-0.3611269,0.076533906,-0.3337501,-1.1351981,0.6665105,0.18019195,0.7986478
Strozzi::0.52738214,-0.31317544,-0.074547715,0.14383274,0.18564534,-0.17177956,-0.31385067,-0.28332934,0.25973693,0.5158049,0.4585029,0.59224886,-0.42436084,0.03625262,-0.090222195,0.20051444,0.13143066,-0.42599028,-0.4706515,0.13076185,-0.27699435,-1.0441029,0.39696774,0.0043755416,0.83771706
Barbadori::-0.10742483,0.15203877,0.16888835,0.1519875,-0.20514348,-0.11426884,-0.5565867,0.37326998,-0.3779575,-0.025694557,0.56371635,0.6128964,-0.3610772,-0.14761195,-0.27770227,0.63792884,-0.27099022,-0.07898452,0.07373176,0.5932536,-0.31693292,-0.46253446,0.11280154,0.39609164,0.24259993
Ridolfi::0.013550325,-0.0758056,-0.44592488,0.35169038,0.22619337,0.46909454,-0.5236109,-0.3827684,0.25342423,0.06514562,0.24780458,0.23069544,-0.2952128,0.17197384,-0.013187569,0.044521827,0.5655955,-0.073937066,-0.20055446,0.39573336,-0.2483076,-0.5647062,-0.10897388,0.18437155,0.6416937
Tornabuoni::-0.15722647,-0.13257635,-0.30176598,0.20823455,0.13713615,0.5873898,-0.69966227,-0.49897817,0.2691618,0.030204078,0.15782523,0.4712746,-0.21718983,0.026117327,0.16209424,0.12646466,0.5216329,0.19236125,-0.063216716,0.4645565,-0.047809944,-0.29424885,0.0842421,0.35776308,0.309075
Albizzi::-0.034172792,-0.10669507,-0.12439508,0.43513873,0.14475936,-0.227304,-0.22818637,-0.41698143,-0.032032654,-0.09598755,-0.41410273,0.24215335,-0.5053948,-0.4871016,-0.2304275,0.3845331,0.13796054,0.4053585,0.38090307,0.4372492,0.5443164,-0.5687308,0.12252072,0.668613,0.028398162
Salviati::-0.71057975,0.41270044,-0.4182261,0.2965561,-0.14100243,-0.1642799,-0.015220695,-0.7982335,-0.15107481,-0.16324176,0.519652,0.33597678,-0.60443664,-0.098101616,0.32017568,0.041314088,0.19449785,-0.34961244,0.53816694,0.7775559,-0.6001525,-0.40054733,-0.32773066,1.1115191,-0.34137684
Pazzi::-0.8520934,0.4851729,-0.51547515,0.21049932,-0.14877714,-0.38011217,0.17187141,-1.10236,-0.16906935,-0.08348607,0.68534243,0.32663712,-0.7035066,-0.0339015,0.6273949,0.0076631643,0.115627974,-0.6208739,0.6263775,0.8028151,-0.8357296,-0.63390696,-0.38934174,1.3446089,-0.41752347
Bischeri::0.37122893,-0.3634102,0.028257066,0.018461801,0.21489212,-0.19422378,-0.18072124,-0.5985436,0.28044775,0.53977615,-0.05657143,0.75188845,-0.29134968,-0.36345127,0.13317624,0.058827955,0.006277244,-0.25816783,-0.23814404,-0.049920935,0.04112443,-0.70574206,0.6290645,0.2791517,0.58103454
Guadagni::-0.031229153,-0.22064003,-0.060687058,0.12647206,0.1211463,-0.09456163,-0.34640247,-0.7424516,0.1871915,0.26983887,-0.35363472,0.71559346,-0.19694969,-0.56757253,0.22507413,0.014859291,0.15634218,0.21511333,0.12057176,0.10464864,0.3551653,-0.30540925,0.57498205,0.5476692,0.20213608
Ginori::-0.14677,0.0693048,-0.33723563,0.7150165,0.16589253,-0.5951391,-0.09221554,-0.43763924,-0.19004792,-0.33383176,-0.58656496,0.05077072,-0.73127264,-0.67256904,-0.39419892,0.46606448,0.17604941,0.59190947,0.73479515,0.5878365,0.6953686,-0.7888952,0.027055033,0.93914205,0.007195924
Lamberteschi::-0.15497243,-0.38683465,-0.06836333,-0.02715948,0.119705886,-0.12445168,-0.5074018,-0.9472929,0.28949505,0.3910425,-0.4502653,1.167378,-0.22178952,-0.9453773,0.48059246,0.100581676,-0.029551262,0.3487632,0.19160208,0.25526252,0.4493035,-0.11091168,0.99937314,0.63002133,0.024186276
