Napoleon::0.386772,0.3874589,-0.12151263,-0.13154317,-0.66830826,0.49177116,0.23995313,0.50193745,0.089694746,0.19573067,-0.5333421,0.51494867,0.1805598,0.22643311,0.2548001,-0.31906736,-0.18198903,-0.18255302,-0.22969466,0.31391868,-0.28869745,0.057690624,0.17991543,-0.14059334,0.33023027,-0.42916375,0.12101581,-0.042349618,-0.810794,-0.21905759,0.27998853,-0.13808845,-0.036895115,-0.07259958,-0.19948877,0.10504506,-0.035518263,-0.42967817,0.2393841,0.39012548,0.028812192,0.19800274,0.40405735,-0.041479513,-0.3079679,-0.63670313,-0.060580764,-0.2108154,0.6425586,-0.6264739,-0.0818909,0.053888254,-0.31378576,0.1769054,-0.2822098,-0.5161259,-0.417748,-0.5859086,-0.036484864,-0.008488647,0.12633191,-0.49126166,-0.014652237,0.20957707,0.13832907,0.24073961,-0.34374014,0.04814166,0.18261112,-0.28525823,0.28071955,-0.4675823,0.09737082,-0.29416788,-0.10180178,0.09120569,-0.086880185,0.16158006,-0.47256216,-0.16728185,0.46284503,0.013345541,0.250103,0.21998918,-0.19257702,0.5066833,-0.43004918,0.40036505,0.3863301,0.13237424,-0.11736901,0.34965333,-0.037720777,-0.2772959,0.41889638,-0.14257333,0.165931,0.3738369,-0.3661122,-0.39874867
Myriel::0.047309488,0.30574492,-0.005881997,0.0044715367,-0.23443079,0.2084283,0.17451985,0.48755118,-0.2394227,0.21770132,-0.4496259,0.54996026,0.22668558,0.2955477,0.4197585,-0.3353721,-0.32217878,-0.19264533,-0.2725625,0.42781058,-0.5096232,-0.079494,0.47781962,-0.093454294,0.34230965,-0.32106027,0.18606097,0.026011538,-0.58311933,-0.49615124,0.22837064,0.027459664,-0.094781265,0.19230023,-0.3009934,0.19157846,0.079706304,-0.120025806,0.064904325,0.3631393,-0.1879755,0.2520104,0.17679915,-0.008930575,-0.023486674,-0.5581261,-0.07973179,-0.15850662,0.53847647,-0.39059764,-0.10483235,-0.070396736,-0.22904006,0.056239236,-0.105711415,-0.35415325,-0.2901833,-0.49752074,-0.25230584,-0.12837063,0.08768867,-0.3767118,-0.13427013,0.38611433,0.38036084,0.28098685,-0.0057571693,0.26268288,0.28975654,-0.059832852,0.054335944,-0.39836717,-0.0053903856,-0.16454552,0.15435101,0.023136023,0.25900978,0.26702896,-0.34617034,-0.29820508,0.21777213,0.07956643,0.34529066,0.17651191,-0.15051922,0.60017294,-0.57775164,0.31345987,0.3528185,0.067181155,0.14498916,0.13133255,0.08566143,-0.3357211,0.5041755,0.06189365,-0.040784895,0.14605638,-0.4487803,-0.20223433
MlleBaptistine::0.02541016,0.23740037,-0.16654593,-0.12586153,-0.1209249,0.40372774,0.32079,0.54455006,-0.11679111,0.11941466,-0.22769722,0.38114315,0.087614946,0.0037040492,0.34362543,-0.0545546,-0.02933763,-0.10548509,0.088609666,0.042964783,-0.26859924,-0.04666051,0.37467477,0.035601515,0.3847965,-0.24077702,0.16403235,0.04947003,-0.3579564,-0.33353683,-0.009217198,0.09862214,0.08701478,0.17794904,-0.09758455,-0.046097394,0.16515449,-0.1791791,0.22420844,0.07452758,-0.32741374,0.041382894,0.17854464,-0.18063827,-0.08672102,-0.30965185,-0.2263879,-0.34937355,0.4914229,-0.18118674,-0.060117535,-0.018331416,0.046708897,-0.04012939,-0.15719561,-0.1327743,-0.23327583,-0.5115952,-0.10363559,-0.04787476,-0.14087275,-0.1656754,-0.07586523,0.53215915,0.22821961,0.32841688,-0.13286935,0.14184313,0.027806409,-0.0053822226,0.14338401,-0.27618507,-0.026064264,-0.10460248,-0.011554246,0.077350974,-0.11412481,0.19511758,-0.08186033,0.12544385,0.23159713,0.1821147,0.045179505,0.11501473,-0.16677101,0.33176166,-0.27353644,0.1961842,0.2747144,-0.012695614,-0.21161236,0.35080913,-0.08697516,-0.35354188,0.25378633,0.18642148,-0.09464035,0.1585535,-0.5495169,-0.20558305
MmeMagloire::0.027496077,0.30033836,-0.26349223,-0.18680203,-0.12071391,0.29186255,0.2963134,0.42786315,-0.17194477,0.032420382,-0.28559542,0.41376942,0.19482191,0.01768538,0.4612238,-0.064225905,-0.013556576,-0.123252295,0.06430772,0.05267717,-0.2988384,-0.031962227,0.24364917,0.04988432,0.31870478,-0.31015038,0.11808189,0.06822947,-0.36052817,-0.30407473,0.013035043,0.0781334,0.08758731,0.09814062,-0.16046502,-0.07832795,0.12493956,-0.21388535,0.20113596,0.12106781,-0.2936686,0.05869954,0.22464827,-0.18218248,-0.107015766,-0.36097732,-0.24110256,-0.33833575,0.4794447,-0.16333815,-0.042105366,-0.04448644,-0.038351037,-0.025589101,-0.13360992,-0.15939733,-0.25861895,-0.565333,-0.123650014,-0.10070767,-0.08768043,-0.23703732,-0.10984843,0.4774243,0.2008426,0.30957326,-0.17620516,0.16164508,0.012971227,-0.01611677,0.1633061,-0.21324718,0.0036323515,-0.062064234,-0.034399785,0.04683767,-0.17015043,0.21314847,-0.15337388,0.00020374432,0.26422647,0.12459629,0.013181918,0.12260443,-0.094943084,0.49180412,-0.33291197,0.19038351,0.2777202,0.022723781,-0.22147027,0.38399127,-0.039958496,-0.33412185,0.30219296,0.14439395,-0.087602004,0.23481378,-0.5307387,-0.27235588
CountessDeLo::0.29380116,0.23337393,-0.2854255,0.15756087,-0.24903664,0.62099624,-0.056957178,0.38359058,-0.2576128,0.17684257,-0.47032407,0.64257514,0.24912095,0.24463211,0.24555543,-0.4082725,-0.31562096,0.09078698,-0.2246182,0.34598163,-0.45069146,-0.18268874,0.6720667,-0.038307413,0.39886862,-0.38508844,0.14190477,0.01643666,-0.66687584,-0.5775307,0.29456744,-0.10011343,0.062331043,5.1678806e-05,-0.40479046,0.3791179,-0.069981895,-0.072931126,0.12599678,0.50109977,-0.16597673,0.07410913,0.2365422,-0.0039979634,-0.035352264,-0.5424992,-0.41578028,-0.4306404,0.4435387,-0.36566198,-0.059628554,-0.19154094,-0.19496009,0.21334445,-0.1452924,-0.18211581,-0.49314559,-0.7468772,-0.30502114,-0.14787525,0.057838164,-0.40526333,-0.07377884,0.19059853,0.16684741,0.20342337,0.016123833,0.12639526,0.16086493,-0.1295481,0.104001924,-0.23854153,-0.122602515,0.0017661566,0.26348504,-0.1056406,0.3768705,0.32968867,-0.4123473,-0.45632842,0.2559995,0.24010576,0.5989825,0.04495019,-0.1062305,0.5435682,-0.49315903,0.3108426,0.5307371,0.18664339,0.15806615,0.22868307,-0.002201903,-0.24786787,0.44372442,0.031994212,-0.25961432,0.27406883,-0.3459473,-0.023774214
Geborand::0.14702696,0.33312812,-0.049936417,0.11126953,-0.43050438,0.558534,-0.0019117455,0.71120447,-0.28108597,0.20569105,-0.5583708,0.7316424,0.04128599,0.48254767,0.46720394,-0.35998902,-0.51239747,-0.08636352,-0.35507703,0.22910921,-0.13726203,-0.045939382,0.7816103,-0.23150463,0.28576794,-0.43959197,0.001329474,-0.16131034,-0.6481518,-0.5240492,0.1680414,-0.3157364,0.09331519,0.09619179,-0.40849173,0.4385454,0.12949316,-0.122361355,0.0280567,0.26052785,-0.0635545,0.30742255,0.40142065,-0.051444434,-0.21859951,-0.8262609,-0.454385,-0.38899654,0.73271376,-0.659634,-0.19000812,-0.33507985,-0.20596883,0.16517259,-0.31922618,-0.2798138,-0.48860875,-0.6388181,-0.2145066,-0.17320988,0.12145077,-0.6020709,-0.36559385,0.06835683,0.40373325,0.40210655,-0.0054525584,0.08936137,0.22544238,-0.054195087,0.08421343,-0.4780415,0.01449844,-0.20229612,0.09843707,-0.04544403,0.18036744,-0.03367196,-0.37706724,-0.5017153,0.32071266,0.07782176,0.4899456,0.40675166,-0.23056129,0.59753495,-0.38768443,0.30563354,0.39487964,0.23204511,0.43146014,0.13859847,-0.2604153,-0.20015076,0.5002734,-0.06268239,-0.0751645,0.2001027,-0.23019762,-0.14505412
Champtercier::0.19505727,0.3099332,-0.10310249,0.010437812,-0.24293151,0.5013143,0.28767335,0.955145,-0.29484677,-0.100785166,-0.68814963,0.4971915,0.34349784,0.2870184,0.494609,-0.37119037,-0.10090642,-0.14903383,-0.38774422,0.084108904,-0.5502373,0.11602198,0.8118469,0.15852584,0.41850203,-0.23155822,-0.18256412,-0.01638951,-0.74045247,-0.622996,0.20769595,-0.09344618,-0.14662576,-0.21171482,-0.11693104,0.17894295,-0.00491453,-0.092870526,0.35472524,0.4713396,-0.28197795,0.27319708,0.46443892,0.13988619,-0.08560478,-0.827594,-0.080464646,-0.043533232,1.002731,-0.30559075,-0.3286694,-0.259989,-0.23526447,0.14417827,-0.14272948,-0.27556425,-0.14904188,-0.5051369,-0.20196362,-0.16006462,0.1392143,-0.57983595,-0.19706713,0.27479136,0.56220365,0.2904944,-0.037045836,0.08067191,0.20883319,-0.2818155,-0.084961876,-0.13279112,-0.3528437,-0.13897221,0.14316438,-0.2430472,-0.17823862,0.3497381,-0.46559808,-0.42995235,0.21919365,0.21166204,0.5308133,0.38945383,0.06420588,0.45864722,-0.48050213,0.2714631,0.26966015,0.15803562,0.06765249,0.36923718,-0.025134005,-0.26405156,0.43837014,0.02681808,0.04347467,0.46715516,-0.43338776,-0.11460329
Cravatte::0.1275298,0.35376182,-0.283159,0.061330017,-0.5429292,0.35005903,0.049495332,0.79582345,-0.2164026,0.15837084,-0.39223772,0.7190483,0.12987445,0.39592147,0.45169726,-0.48428568,-0.27908826,-0.12586525,-0.22774312,0.18627016,-0.27413037,0.19417682,0.7150952,-0.16780888,0.47926608,-0.39330658,-0.20145306,-0.056106087,-0.7484353,-0.5426883,0.04910742,-0.10888474,0.018731754,-0.09728221,-0.42156136,0.20628002,0.31088388,-0.40199026,0.15979505,0.50616014,-0.06455604,0.46288016,0.22072557,-0.2485589,-0.21112527,-0.67823994,-0.40297568,-0.025092825,0.6616844,-0.64965826,-0.20655753,-0.09289854,-0.27718654,0.14668015,-0.124316216,-0.43003136,-0.22587729,-0.65495265,-0.28935644,-0.06838047,0.090716965,-0.35400584,-0.16887453,0.13268614,0.5321361,0.3456457,0.0017341883,0.085764274,0.2541704,-0.18317732,0.27719408,-0.36350754,0.08540094,-0.17459522,0.24908909,-0.14278325,0.20103723,0.052251674,-0.21416347,-0.47059605,0.057472806,0.16296363,0.4311662,-0.059450056,-0.42528728,0.6962814,-0.21842337,0.069159165,0.1987811,0.32409415,-0.026213393,0.09871928,-0.016549898,-0.28798565,0.46142784,0.09717696,-0.1852146,0.39860082,-0.31963187,-0.1623807
Count::0.3614063,0.41515616,-0.061892927,0.08751994,-0.44233313,0.2162212,-0.061784282,0.769737,-0.34450877,0.016891873,-0.4609809,0.6049293,0.27334332,0.40501982,0.45490867,-0.36171246,-0.40983853,-0.32382062,-0.018431991,0.42763752,-0.4457768,-0.20732673,0.3907574,0.054737095,0.45410222,-0.13686721,0.036933746,0.08122946,-0.8189374,-0.6215949,0.39776546,0.10987283,0.13480493,0.3039661,-0.64317966,-0.080979146,0.018693743,-0.3414398,0.29314113,0.2390028,-0.25563195,0.1282251,0.2177287,0.21302165,0.05661537,-0.654381,-0.3871723,-0.13973941,0.5022855,-0.56288254,-0.41352037,-0.51217014,-0.44982222,0.10173895,0.09072527,-0.13935174,-0.5515334,-0.4454371,-0.10909006,-0.13756326,-0.015293896,-0.37884232,-0.20458242,0.033935156,0.30532405,0.13584024,-0.13323237,0.12068884,-0.034957185,0.16264902,0.055762857,-0.33961523,0.09482897,0.10655401,0.436061,-0.29577664,-0.1854441,0.10296398,-0.42625347,-0.33101687,0.46299514,0.17730643,0.1711907,0.39992723,-0.05147189,0.7661087,-0.4730782,0.24795415,0.32168198,0.07977266,-0.1278301,0.38747758,-0.17907952,-0.29860637,0.17232703,0.08075487,0.054488078,0.6971851,-0.18543154,-0.31136554
OldMan::0.31958354,0.058815196,-0.18920214,0.08907739,-0.512819,0.27776295,-0.06891443,0.6605358,-0.18954803,0.28675038,-0.56956244,0.5467382,0.122717574,0.3028292,0.3055224,-0.6067834,-0.52151215,-0.061566077,-0.29297295,0.5161131,-0.31432596,0.12163804,0.5951666,0.026202973,0.39925396,-0.38108316,-0.0012875816,-0.10695726,-0.87219036,-0.4664328,0.5250633,-0.13554034,0.097816765,0.05369866,-0.43951288,0.15464948,-0.06629045,-0.12504262,0.2906232,0.30093282,-0.28727445,0.44452146,0.36617455,0.060682874,-0.22275715,-0.7484171,-0.4505686,0.011820306,0.71575004,-0.4618607,-0.18581346,-0.116148666,-0.2495192,0.24154249,-0.08455395,-0.29896694,-0.5022667,-0.4675321,-0.35907835,0.0047456375,-0.18801634,-0.3435693,0.092842124,0.0763226,0.31188357,0.14613238,0.23952469,0.19855675,0.17108113,-0.3037102,0.30076692,-0.37087145,0.13221544,-0.44053528,0.5337108,0.1360959,0.58118176,0.12631175,-0.2420621,-0.36033908,0.16905703,0.1137229,0.66085774,0.23772731,-0.23845296,0.5000614,-0.29620233,0.1632363,0.42634475,0.25917828,-0.11167188,0.006242918,0.051067747,-0.27176422,0.4031996,-0.106176175,-0.14485447,0.35624057,-0.26688558,-0.31869864
Valjean::-0.08356559,0.33929452,-0.10828307,-0.264254,-0.11370121,0.46547675,-0.2916375,0.22055316,-0.3776926,-0.14901927,-0.09715077,0.5375376,0.082721986,-0.06870344,0.10483685,0.03263214,-0.076750174,-0.24597459,0.06670505,-0.10821506,-0.031131515,-0.1443551,0.19686538,0.13447416,0.20459232,0.0047489926,-0.029047197,-0.038408525,0.067309305,-0.042160146,0.046562348,-0.21361077,-0.084807724,0.15635705,-0.14277144,-0.17069523,0.04997658,0.014525615,0.13615,0.0804624,-0.26269853,0.06847025,0.13545401,-0.093134634,-0.22737522,0.14133039,-0.1834504,-0.059681132,0.21739864,-0.0090863705,0.051469926,0.05940177,0.123171814,0.016816657,-0.08640151,-0.2283322,-0.15772659,-0.36519486,-0.104099184,0.0016310603,0.019748418,-0.035959158,-0.08513098,0.3483241,-0.020693349,0.1635391,0.122369125,0.031487808,-0.1584871,0.008610166,0.14316407,-0.18108933,0.15779392,-0.15366805,0.0714655,-0.0031215877,0.09622469,0.041383434,0.049675424,-0.02075623,0.19657321,-0.14124437,-0.08916462,0.06583138,0.01498116,0.15506245,-0.14499043,0.013416379,0.07656824,0.08887153,-0.08722537,0.11568118,0.15260747,-0.09522415,0.120774955,-0.004699538,-0.17112584,0.09007617,-0.2384434,-0.26441133
Labarre::-0.2049942,0.23878117,-0.010194943,-0.12743342,-0.06296599,0.22413243,-0.04508043,0.38233268,-0.32131645,0.17706464,0.053314373,0.5114891,0.04573359,-0.0031603712,0.09934902,0.10594936,-0.2766503,-0.36783865,0.08508305,-0.16972765,0.052430473,-0.013160139,0.43929616,0.20949306,0.07161407,-0.06796825,-0.2100159,-0.13294056,0.021927245,-0.024070736,0.034792025,-0.029148174,-0.090001896,0.2842316,-0.19336714,-0.30949914,-0.022896824,0.057053104,0.08595834,0.25083494,-0.10978138,0.03998465,0.17167959,-0.054053996,-0.18924573,-0.06674392,-0.25083354,0.010073752,0.3949893,0.1056522,-0.023862543,0.13214214,0.32618424,0.079057634,-0.10292606,-0.1969007,-0.30809388,-0.17501952,-0.13438588,-0.1711237,-0.007916273,-0.20117745,-0.1858473,0.37112954,0.059566233,0.12930278,0.13941063,0.096795365,-0.045204185,-0.046367757,0.13990852,-0.18329461,0.20379278,-0.40954414,0.055298183,-0.009386781,0.266207,0.04318619,0.16934267,0.037796,0.16853164,0.0038564347,-0.03451922,0.25969723,0.057912778,0.085437246,-0.4113175,0.09025027,0.23031041,0.13729464,-0.029563319,0.02195976,-0.090313524,-0.18804902,0.41996175,0.030663595,-0.21301265,-0.16887042,-0.41290647,-0.12251808
Marguerite::0.041612845,0.29137772,0.04251596,-0.31666955,-0.10163309,0.32713342,-0.24446584,0.07177743,-0.15773068,0.12544844,-0.08106202,0.4052107,0.0824698,0.15356262,-0.021386044,-0.08706616,-0.0005528034,-0.390081,-0.12264231,0.08758028,-0.26331374,0.011863501,0.043853655,0.22779039,0.09582457,-0.022308571,-0.29266194,0.29429454,-0.20446791,-0.050111055,0.029260447,0.17028707,0.1203941,-0.027454425,-0.16735192,-0.5775066,0.203643,-0.011623846,-0.08184029,0.18512559,-0.10076675,0.0333539,0.30161554,-0.04496069,-0.3061336,0.02668441,-0.14966491,0.21512245,0.003344616,0.0112552475,0.13085057,-0.06529211,0.13120586,0.013779189,-0.12251691,-0.34490213,-0.12574859,-0.0829709,-0.011368644,-0.107760586,-0.37188983,-0.09220483,-0.106571,0.093310356,-0.08320422,0.05161048,0.2723665,0.03144289,0.04673324,-0.050018143,0.1204318,-0.08575082,0.29909205,-0.12696087,0.14783297,0.109130025,0.23197374,0.10454063,0.22830911,0.28105524,0.109439395,-0.0027595493,-0.055013,-0.0062727947,-0.076651156,0.5444348,-0.186561,-0.07824888,-0.15093468,0.15080425,-0.16051202,0.030089712,-0.031350143,-0.29045135,0.30006567,0.04303349,-0.12459304,0.050019924,-0.452018,-0.34460703
MmeDeR::-0.14901929,0.35394052,-0.30448633,-0.27794853,-0.090157986,0.18019755,0.07805735,0.32957205,-0.30977875,0.025449714,-0.14859664,0.45526138,0.08270205,-0.01803589,0.28831404,-0.15737985,-0.17746624,-0.254524,-0.023667634,-0.05411284,0.054840267,0.27467817,0.2813198,0.11782597,0.15393536,-0.14729555,-0.25741237,-0.13896628,-0.07816542,-0.013670475,0.027812999,-0.058816984,-0.09186434,0.07002461,-0.27955875,-0.22713664,0.29217467,-0.10973145,0.05642016,0.24317276,-0.16535717,0.17255409,0.34294575,-0.21068856,-0.281812,-0.13645504,-0.31305587,-0.083975814,0.34149715,-0.06184896,0.06366944,0.13079323,0.27872777,0.043390322,-0.12530157,-0.3325713,-0.08604051,-0.4143125,-0.36962205,-0.12874153,-0.1468962,-0.09715278,-0.0755776,0.3285214,0.19149008,0.24850506,0.19807835,0.053602844,0.067735665,-0.09290934,0.08158461,-0.009388749,0.22613133,-0.30818373,0.009730359,0.118188195,0.30951977,0.14211366,0.26900154,0.0051143966,0.09836671,-0.31150082,0.12063693,-0.0532566,-0.12516832,0.2060315,-0.26544127,0.10476342,0.12355755,0.30169508,-0.09563984,-0.042741295,0.019230755,-0.2991311,0.4370917,0.08373404,-0.203598,-0.12905441,-0.41815943,-0.27608594
Isabeau::-0.15701298,0.277859,-0.053606067,-0.18240616,-0.03212206,0.2632931,-0.19732617,0.06493743,-0.23988903,0.1585868,0.037618496,0.5392496,-0.061702285,0.13651845,0.03817707,0.0026819375,-0.2262023,-0.3300908,-0.04316912,0.06064895,-0.08998987,-0.11619197,0.31678554,0.22389618,0.0034005481,-0.10249883,-0.1406467,-0.040155903,-0.023637135,-0.075038575,0.05575479,0.080140255,-0.014798396,0.2635817,-0.15493357,-0.16761549,0.1547326,0.025939869,-0.08444659,0.32260683,-0.011480977,0.24699084,0.1957792,-0.12428895,-0.2583724,-0.06741386,-0.26655635,-0.09234965,0.22163574,0.0602005,0.22275607,0.12483523,0.24377769,0.011613707,-0.20225184,-0.2423901,-0.37215412,-0.20978342,-0.1523671,-0.16682611,-0.17751397,-0.120058015,0.017409217,0.36660376,0.009758148,0.26673788,0.22871768,0.23187989,0.16912113,0.11627672,-0.034740508,-0.121094905,0.3186933,-0.37973052,0.106198646,0.10151768,0.39072755,0.06576113,0.31986353,0.19527401,0.18570958,-0.09410299,0.1323824,0.0041396655,-0.0064580534,0.14170554,-0.25254902,0.26330525,0.18880635,0.17950986,-0.04754406,0.05988738,-0.062196303,-0.24203494,0.49011207,0.107222594,-0.34573984,-0.14085068,-0.3373085,-0.14240636
Gervais::-0.12634867,0.30986473,0.05837317,-0.2209103,-0.008302593,0.26537248,-0.21569617,0.19090104,-0.29571027,0.16246697,-0.13380234,0.3762267,0.03804952,0.23143755,0.15303154,0.10432763,-0.29916063,-0.42282373,-0.066346064,0.22668512,-0.03919388,-0.069724254,0.1058843,0.19678721,0.07146414,0.014506045,-0.020130906,-0.0059333895,-0.10458987,-0.046348244,0.09576839,0.030715918,0.0686512,0.31016427,-0.2375308,-0.2433371,0.068414286,0.058055144,0.0046728314,0.06899985,-0.09312349,0.01298964,0.27044252,-0.075871356,-0.14781913,0.025469657,-0.15830544,-0.048410174,0.14194764,0.007445299,0.15824081,-0.08101736,0.15009123,-0.022439687,-0.19568689,-0.23194923,-0.24531038,-0.03952916,-0.11527857,-0.12134367,-0.2888553,-0.11583104,-0.052202336,0.32100508,-0.013801608,0.1390274,0.2237377,0.23706937,0.030448379,0.20589124,0.072088294,-0.054474536,0.23050183,-0.24377446,0.18599102,0.14300157,0.29907814,0.074750155,0.23163348,0.14883839,0.13048011,0.002927239,-0.07410558,0.12201833,-0.057783328,0.2893375,-0.4083987,0.0076509085,0.15689126,0.028664535,0.05499833,0.08888135,-0.060990267,-0.24045089,0.3040138,0.007612685,-0.17040628,0.078043915,-0.3208467,-0.23551832
Listolier::0.40127134,0.0953523,0.20852713,-0.29770204,-0.2862823,0.7058593,-0.089508414,0.124665104,-0.22022259,-0.06863473,-0.53800756,0.25590837,-0.025625238,0.27245435,-0.29412204,-0.30261874,0.0004870999,-0.05657844,-0.4318451,0.31104574,-0.63644993,-0.28339282,-0.07200195,0.18246259,0.43100476,0.34691945,-0.45878515,0.10680457,-0.52684736,-0.122021146,0.4623407,0.19137758,0.42800507,-0.16273999,-0.13219918,-0.38646537,0.4100511,-0.3346223,-0.12337427,0.061113596,0.004634961,0.0010047673,0.712664,-0.24043179,0.05811423,-0.2775858,0.14914481,0.27522078,0.247566,-0.14513525,0.24698621,-0.63828915,-0.2397911,0.07374671,0.07525308,-0.022708317,0.3889988,0.19993351,-0.31372404,-0.10979375,-0.72736263,0.38532075,-0.09198877,-0.100425534,-0.023457287,-0.36442292,0.22136535,-0.14851291,0.019700157,-0.33429226,-0.017675651,0.30313125,-0.09722867,-0.03693313,0.31880116,0.28688315,0.18532212,0.00738884,-0.041154753,0.20433642,0.017075352,-0.11906753,0.18535662,0.05560324,-0.215475,0.29381981,-0.14610398,-0.40403014,-0.05967176,0.3893975,-0.503568,0.009463815,0.12414744,-0.30811626,0.3042057,-0.029663047,0.20790327,-0.01096178,-0.23583551,-0.2801873
Tholomyes::0.2563788,0.05960208,0.22458142,-0.15056491,-0.120633684,0.6721619,-0.09112769,0.14413539,-0.25935754,-0.055663668,-0.40226477,0.22769226,-0.020055084,0.12864994,-0.43747535,-0.30382076,0.015010888,-0.007996441,-0.28360122,0.23745441,-0.578886,-0.3109035,0.06258179,0.16606128,0.33084577,0.34030706,-0.41914693,0.034294877,-0.37501958,-0.11444436,0.44583267,0.12526841,0.41124025,-0.056702252,0.005384315,-0.31500447,0.28012344,-0.22462851,-0.22631504,-0.0056139445,-0.04225921,-0.08277229,0.53918004,-0.19696656,0.0538875,-0.14547402,0.13823573,0.16752319,0.12208617,0.010562251,0.19124581,-0.4816055,-0.07185004,0.033739053,0.026259765,0.10691198,0.32995585,0.15161948,-0.3415106,-0.097246274,-0.5963988,0.42510307,-0.052703757,-0.039457604,-0.06494696,-0.41431397,0.19453263,-0.17676549,-0.019335173,-0.31224218,-0.08989522,0.38001263,-0.14709654,-0.14800592,0.2759419,0.25938237,0.26129425,0.0091130715,0.07857607,0.25799757,-0.00023478101,0.0044869524,0.1921364,0.11649476,-0.22724016,0.08188989,-0.13936472,-0.33005822,0.05451315,0.41838744,-0.4160351,0.03441268,0.17151925,-0.33225518,0.21201518,0.0074679675,0.21839769,-0.106283456,-0.25543818,-0.22013627
Fameuil::0.4809005,0.00728694,0.2006457,-0.3096576,-0.29820782,0.7198962,-0.080514655,0.20955583,-0.19537835,-0.03952272,-0.50010186,0.2829678,0.009337427,0.26013437,-0.3646839,-0.32481754,0.025846219,0.027011326,-0.406368,0.20349868,-0.59987,-0.31652632,0.01844271,0.17043959,0.44559264,0.3924607,-0.5016557,0.024451563,-0.5952493,-0.1724692,0.51790106,0.22331089,0.4600063,-0.16177861,-0.14205843,-0.4028543,0.36881062,-0.3436116,-0.13130914,0.13478637,-0.09337073,0.02015958,0.70048255,-0.17228533,0.049358673,-0.2902026,0.17095391,0.32815528,0.3759236,-0.14023209,0.10835478,-0.66595393,-0.207033,0.07907828,0.08344481,0.009778563,0.49857065,0.2004969,-0.33912864,-0.10480127,-0.75045824,0.35296443,-0.08475304,-0.06041807,0.026557356,-0.36400095,0.20259573,-0.15728913,-0.004187446,-0.4032266,-0.02741346,0.29166853,-0.05663966,-0.08974571,0.3239479,0.30348113,0.12070011,0.09930241,-0.0045217434,0.20619068,0.034477565,-0.13188183,0.1913466,0.11831845,-0.20639196,0.18290706,-0.10430024,-0.43798393,-0.019530855,0.41237885,-0.6313372,0.020740135,0.23260894,-0.36726317,0.26133013,-0.014339924,0.22069342,0.04577957,-0.29819134,-0.27356732
Blacheville::0.39814478,0.09262474,0.15937455,-0.3621755,-0.28796,0.664397,-0.11457751,0.11423269,-0.20137651,-0.1312404,-0.5403057,0.27993783,0.0058827554,0.29254743,-0.28719425,-0.3134756,0.111616194,-0.034511793,-0.41687542,0.24223849,-0.6914416,-0.26978904,-0.08775242,0.18819095,0.4392737,0.30489275,-0.48301932,0.08164624,-0.56265736,-0.15272124,0.44534117,0.20856112,0.4489307,-0.17260158,-0.07679277,-0.37201327,0.3973475,-0.37433863,-0.13684715,0.110894054,-0.013455154,0.09146263,0.6791398,-0.2351501,-0.023760837,-0.2908642,0.16555817,0.35351297,0.3741599,-0.103113376,0.21873192,-0.60473406,-0.24833259,0.046176918,0.06917256,-0.024161145,0.46003363,0.22086321,-0.27735403,-0.12112016,-0.6683041,0.36016282,-0.085820585,-0.063436136,0.049279563,-0.3137667,0.14633577,-0.07434941,0.06331729,-0.34490076,-0.016285522,0.2969243,-0.0433017,-0.097995125,0.3119398,0.29542875,0.15196058,0.01646586,-0.026587857,0.20792352,0.03628933,-0.158375,0.14121674,0.077488646,-0.2897472,0.2763755,-0.12026731,-0.39867622,-0.07514213,0.43384504,-0.6174521,0.03184205,0.25078544,-0.325999,0.33907676,-0.0056755226,0.20975915,0.03947146,-0.2699121,-0.33062175
Favourite::0.4417369,0.076061785,0.18876758,-0.28436366,-0.3032033,0.71085125,-0.10864031,0.15903491,-0.18508594,-0.066707835,-0.5464473,0.23569034,0.013848387,0.2887158,-0.28082573,-0.29605255,0.008156065,-0.04604349,-0.43915284,0.27629548,-0.6334115,-0.27753386,-0.025065258,0.19041474,0.46982053,0.35859588,-0.49183705,0.06345674,-0.5485078,-0.15113114,0.45333165,0.17124715,0.42305928,-0.2089654,-0.1663289,-0.41056675,0.38759556,-0.3445425,-0.07815429,0.10692178,-0.00845213,-0.033648584,0.7196981,-0.19733953,0.055475146,-0.31183547,0.17968792,0.32111287,0.3523162,-0.1513721,0.19330741,-0.6798472,-0.28306395,0.09465407,0.0702137,-0.053059854,0.48157698,0.20884681,-0.3057006,-0.1162133,-0.76238227,0.34641793,-0.089260496,-0.10132241,0.03253442,-0.36610207,0.22499545,-0.11171934,0.011926235,-0.33690277,-0.010288088,0.2880204,-0.119356304,-0.024927089,0.33064136,0.30069828,0.17541274,0.044091217,-0.047796413,0.1845012,0.006059046,-0.13215697,0.20503911,0.043066382,-0.23358522,0.24706951,-0.12728854,-0.41422403,-0.047802716,0.38312423,-0.5253319,-0.023869552,0.19375864,-0.3118049,0.26689076,-0.019178167,0.25132313,0.04391503,-0.27313176,-0.2944388
Dahlia::0.3652829,0.09888087,0.25308567,-0.2978597,-0.2655987,0.66245776,-0.028298633,0.16530915,-0.18499027,0.032840747,-0.47672078,0.272617,-0.06265571,0.25730428,-0.26428762,-0.25355142,-0.050923247,-0.12342292,-0.36900574,0.20724578,-0.55728346,-0.30172187,-0.064633586,0.18872802,0.44079247,0.30977896,-0.4952762,0.0586644,-0.51429,-0.112758555,0.39011988,0.22279531,0.4157767,-0.16023938,-0.13709427,-0.43230188,0.42097175,-0.2939946,-0.10949746,0.033532362,-0.032511983,-0.0017346584,0.6803086,-0.16939525,0.0016380516,-0.2343235,0.12710874,0.34941566,0.27171057,-0.08838958,0.17822334,-0.6318012,-0.1147015,0.0891923,0.047641292,-0.050043136,0.3896195,0.18964246,-0.2502007,-0.13167316,-0.71614724,0.31329826,-0.1267916,-0.096425824,-0.011334388,-0.3411042,0.19665784,-0.1844817,-0.05247511,-0.35736644,0.03529753,0.22647655,-0.09013829,-0.03863291,0.25505966,0.32040742,0.08219974,0.032338876,-0.009948719,0.22178623,0.01309223,-0.107418045,0.11102374,0.11058005,-0.16919485,0.2875403,-0.18850848,-0.43932974,-0.06703904,0.38551405,-0.5384586,0.023049306,0.10360776,-0.32883134,0.33920494,-0.024097057,0.20946592,-0.030060688,-0.31716403,-0.34046632
Zephine::0.3918469,0.04882576,0.20798862,-0.30261493,-0.27171326,0.6369529,-0.118342355,0.09877119,-0.14708543,-0.0316808,-0.50252044,0.26765838,0.00033591173,0.28197947,-0.29827794,-0.27341595,-0.01583423,-0.012859178,-0.43419704,0.28668636,-0.6073286,-0.28815377,-0.072322495,0.18165238,0.4021029,0.32212704,-0.3927851,0.1700248,-0.5695062,-0.12332622,0.4266053,0.18797904,0.4442304,-0.16056086,-0.1607945,-0.41641557,0.36164403,-0.2575919,-0.10656717,0.08280701,-0.08539865,-0.019450817,0.69351953,-0.15445964,0.044126745,-0.2767131,0.093284436,0.3068158,0.3354019,-0.18868805,0.17524143,-0.6595555,-0.19956484,0.11171047,0.027105432,-0.024476876,0.3683577,0.14876714,-0.24473761,-0.107916854,-0.7355583,0.31064352,-0.09464604,-0.09299199,-0.049370546,-0.3458139,0.2573255,-0.09140396,-0.0065299375,-0.312653,0.025855519,0.21632683,-0.055663716,-0.03009773,0.3418542,0.31495762,0.22436135,0.082443245,-0.05600161,0.18002221,0.06402009,-0.10776065,0.20778275,0.07272534,-0.17424884,0.35482717,-0.13753967,-0.4034233,-0.033878397,0.3091961,-0.51350224,0.050860535,0.20251177,-0.33185658,0.2946151,-0.015026601,0.14900032,0.07781086,-0.32035482,-0.3003936
Fantine::0.15644617,0.2062995,-0.10982206,-0.42242196,-0.2753042,0.24700591,-0.093549624,0.11546415,-0.14254138,0.018875763,-0.2521452,0.31035978,0.1031997,0.1492462,0.025306804,-0.021373847,0.03770048,-0.24295174,-0.24408725,-0.014167863,-0.3471623,0.058692962,-0.028675085,0.14914945,0.28141013,0.15869218,-0.32865295,0.009925136,-0.2470435,-0.020887613,0.14565594,0.20279057,0.18787624,-0.046449408,-0.16377266,-0.5049464,0.37795034,-0.289072,-0.0039320807,0.31540382,0.019379197,0.106081806,0.49179426,-0.23887947,-0.13347611,-0.107917674,0.09910592,0.33193257,0.29552352,-0.1813359,0.23541382,-0.31870613,-0.16890766,0.0370714,0.0054297396,-0.23104535,0.3716613,0.13291667,-0.22224268,-0.13140295,-0.53191656,0.22522709,-0.07192746,0.15661187,-0.021014677,-0.07120506,0.1140521,-0.102419384,-0.0008511877,-0.25344777,0.00734742,0.15024589,0.03742744,-0.0433669,0.1990911,0.19959575,0.045435514,0.048255615,0.044509854,0.2218667,-0.0007388629,-0.21890062,0.01629416,-0.13889672,-0.17200018,0.32410443,-0.14711751,-0.25837263,-0.20998366,0.2170313,-0.6010519,-0.03146093,0.19605267,-0.16236861,0.3098378,0.040055677,0.15987979,-0.006455138,-0.21139906,-0.299502
MmeThenardier::0.0484616,0.31127635,-0.28765303,-0.46470007,0.13963582,0.14129303,-0.113156095,0.0439931,-0.39639562,-0.2918119,-0.21810217,0.31941262,0.10969267,0.014429498,0.19478106,-0.038369644,0.09018777,-0.3749304,-0.12994383,-0.17003955,-0.14465044,-0.13501787,-0.08853412,0.15151815,0.15503025,0.05125796,-0.26583746,-0.18369928,-0.04219552,-0.03757192,0.18878765,-0.11602657,-0.10945562,-0.13475528,0.0427068,-0.050910212,0.014606868,-0.43416414,-0.032105464,0.16171181,0.25638616,0.021733016,0.43103325,-0.14601792,-0.1346556,-0.00760226,0.028318109,0.26906365,0.505439,0.19455728,0.16525169,-0.068193845,-0.009951038,0.05137698,0.053011645,-0.06868803,0.24719672,0.27040675,-0.1944949,-0.0063023074,0.04892308,-0.119097434,-0.36749855,0.3453329,0.22850747,0.07990773,0.03911928,0.23711945,0.0995455,-0.070245385,-0.16196312,0.2825899,0.29241136,-0.16006497,-0.10153796,-0.12476081,-0.08373334,-0.12991847,-0.0636713,-0.21058357,0.13215792,-0.38921222,-0.1355717,0.22026406,-0.13534953,0.03587071,-0.33062705,-0.35054788,-0.03991609,0.18631487,-0.011292732,0.07853285,0.18547699,-0.22093555,0.17909038,-0.086651534,-0.14584011,0.1941525,-0.13534613,-0.17293799
Thenardier::0.07188763,0.35365966,-0.15715472,-0.29459608,-0.004140238,0.2936178,-0.14573127,0.18041193,-0.21539004,-0.18920204,-0.067975216,0.31134462,0.25903556,-0.08380754,-0.121847026,0.05174413,0.21124811,-0.3898446,-0.0687317,-0.30910566,-0.16235787,0.0058740014,0.14367597,0.12970819,0.14702114,0.02273115,-0.3595869,0.057833742,-0.016632477,0.05209678,0.018811166,-0.14856914,-0.09008269,-0.20735975,0.08814206,-0.25620568,-0.15131809,-0.46770722,0.06405366,0.34017387,0.22590287,-0.26816538,0.31516287,-0.18678674,0.008979192,0.06827688,0.10905922,0.14526059,0.34851855,0.13960996,-0.0006413341,-0.021435028,-0.05522192,0.15611088,0.009520968,0.11541128,0.21368349,0.086764805,-0.1880496,0.01486121,0.0378495,0.0311992,-0.4125473,0.18912292,0.15614288,-0.055610508,0.0126148295,0.08834385,0.027838679,-0.1999683,-0.08263836,0.16323431,0.17713405,-0.1598965,-0.15743904,-0.19484788,-0.09444159,-0.215122,-0.111898445,-0.040995117,0.2849588,-0.011488899,-0.045662597,0.30557054,-0.13392809,0.028517455,-0.26100993,-0.218159,-0.0251968,0.14563622,0.08744655,0.25821593,0.20605128,-0.16518772,-0.031979427,-0.0509081,0.045891892,0.17196962,-0.19416697,-0.0042723273
Cosette::-0.118780926,0.29881805,-0.12862107,-0.12440244,0.19035438,0.6146246,-0.03786494,0.31797916,-0.42507,-0.2138452,-0.21582931,0.23561223,0.1662725,-0.05780913,-0.048581436,-0.017338814,0.00011306845,-0.23060666,-0.077890225,-0.00031006738,-0.31426096,-0.08629473,0.35829562,0.16919237,0.045359537,0.16610351,-0.059006304,-0.030328069,0.1831288,-0.09718901,0.2677964,-0.20772293,-0.0057513034,0.04263474,0.23870271,-0.052203964,-0.007196678,-0.20268685,-0.17632,0.035574086,0.08573573,-0.18882516,0.30468422,-0.31306362,0.006214568,0.05780334,0.07131212,-0.2997253,0.17511535,0.27405095,0.34055403,0.043118007,0.07875259,-0.004360029,-0.13765162,-0.025809284,0.12702148,-0.05226585,-0.35713708,0.0057756384,-0.2967479,0.085765585,-0.15794763,0.3418017,0.038719244,-0.092281744,0.18771096,-0.015461251,0.042945016,-0.11748277,-0.24783452,0.401048,-0.1657802,-0.20097728,0.060794577,-0.117636524,0.28354168,-0.042259805,0.047865037,0.14334852,0.058090877,-0.024304822,0.1346454,0.19524512,-0.10626004,-0.1782103,-0.32981992,-0.10180157,0.25732765,0.27649793,0.10366111,0.18068641,0.009126148,-0.32666734,0.104069345,-9.480576e-05,0.072409846,-0.12984428,-0.16580871,-0.104091205
Javert::-0.020091258,0.30528912,-0.04577436,-0.21444607,-0.12418513,0.45194554,-0.10753519,0.13266164,-0.4490888,-0.078191936,0.053873967,0.47484624,-0.009970403,-0.11523346,-0.003213552,-0.014224327,0.10217908,-0.46972284,0.029038154,-0.15734518,-0.08219499,-0.19418852,0.12498927,0.18541734,0.24951302,0.0803123,-0.2423902,-0.19976252,0.12859902,0.022414759,0.049167097,-0.06883994,-0.16899927,0.034187887,0.017513135,-0.2919811,0.10484655,-0.38858008,0.04381314,0.16836233,0.18560785,0.016015843,0.12592557,-0.31009004,-0.16846515,0.13516328,0.093720846,0.2293617,0.1319879,0.10886674,0.22574553,0.086642385,0.084226854,-0.053603657,0.06922681,-0.15152597,0.121239126,0.13488989,-0.1647767,0.017668765,0.044818558,0.07895385,-0.32261598,0.36067048,0.18571733,0.018105032,-0.020116523,-0.09555381,-0.029312314,-0.15384033,0.004740077,0.024562912,0.17890382,-0.24878915,-0.08728374,-0.13064875,-0.10542571,-0.1798646,0.08910794,-0.01772558,0.016789585,-0.10975689,-0.2020334,0.061220895,-0.1587809,0.09849572,-0.27167588,-0.21704374,-0.078091875,0.40057456,-0.11924039,0.07262107,0.008998731,-0.07043533,0.18534906,0.01112678,-0.00041814148,-0.011861815,-0.23924743,-0.07673792
Fauchelevent::0.14761005,0.1762773,-0.06446541,-0.2601623,-0.2552506,0.34273872,-0.22243309,0.5582777,-0.38076743,0.30638573,0.11350649,0.64775413,-0.27198207,0.09527897,-0.20719932,-0.10932041,-0.24691314,-0.3301792,0.09153238,-0.48339123,0.28374264,-0.11074628,0.72283554,-0.1120456,0.2943781,0.17044379,-0.2904485,-0.48315373,-0.061141994,-0.25943893,0.07576884,0.15747204,0.120058246,0.43262047,-0.1873902,0.054175552,0.33756188,-0.3232812,-0.06761398,0.34159738,-0.021208799,0.43127358,0.026037548,-0.09958732,-0.39728203,0.13865574,-0.38546437,0.20056786,0.3046725,-0.14857233,-0.11323763,0.021828663,0.51229715,0.00045883394,-0.010727978,-0.03633293,-0.076234825,0.007535521,-0.26880288,-0.15472789,0.010688446,0.07215252,-0.27194244,0.24321383,0.26054195,0.30740902,0.021770291,-0.24072027,-0.0017562187,-0.18294042,-0.124970146,-0.18227911,0.51418954,-0.42284924,0.15784524,-0.030871209,0.025189232,-0.12894848,0.26024213,0.11937776,0.2743536,-0.22503367,-0.085524574,0.2975969,-0.33925837,-0.27071142,-0.18527123,-0.15254186,-0.22013167,0.61792,-0.387789,-0.033680055,0.008574723,-0.3095322,0.3749408,0.16770095,-0.29587245,-0.24290006,0.01059696,-0.06749823
Bamatabois::0.2454012,0.06227371,0.03277967,-0.27241626,-0.22015046,0.4476343,0.105193734,0.3574913,-0.19179216,0.28767607,0.087897286,0.4091333,0.02349008,-0.071297616,-0.005904868,0.042072058,-0.16123703,-0.14487365,-0.017959498,0.027337354,-0.061761312,-0.40491346,0.19598734,0.25086972,0.2545577,0.36394385,-0.16441153,-0.33656988,-0.26819852,-0.12993085,0.41181788,0.18259345,-0.04388132,0.27425772,-0.2468935,-0.48602226,-0.12995012,-0.16450696,0.23061575,0.28291214,-0.1312647,0.11016822,0.24938424,0.015132299,-0.07468408,0.009407232,0.20362155,0.22656718,0.3906927,0.026724339,-0.025235873,0.048991296,-0.03195271,-0.03788506,-0.02859998,-0.29553288,0.005181465,0.04685587,-0.24744636,-0.15270971,-0.3438491,0.033619896,0.033900667,0.45936015,-0.006401653,0.0024463434,0.0051434627,-0.012596958,0.004276021,-0.1853576,0.12566438,-0.08660544,0.12194446,-0.39037356,0.26613465,0.21198916,-0.1328642,0.28308988,0.3410487,0.057199433,-0.06647496,-0.104579315,-0.0059217983,0.12395725,0.21165116,0.01039887,-0.3201625,-0.06130326,0.1393717,0.20726976,-0.5992847,-0.011363247,0.14069787,-0.23599339,0.12581113,0.028381849,-0.04288514,0.22966424,-0.58095104,-0.14874408
Perpetue::0.23764871,0.11986577,-0.26085,-0.399478,-0.4509095,0.416079,-0.09264883,-0.31664374,-0.20053023,-0.21325226,-0.14631799,0.19203103,-0.13137141,-0.31626385,-0.00128218,-0.3103312,0.2721373,0.08713442,-0.20358202,0.08075249,-0.20816787,0.085529886,-0.1333882,0.23245291,0.49979642,0.033685323,-0.6302602,-0.11606855,-0.2136598,0.14864366,-0.013190007,0.11118066,0.0794965,-0.12960573,-0.608493,-0.721853,0.3029893,-0.6788756,0.28119054,0.418476,0.23625375,-0.007316876,0.8320475,-0.46354714,-0.30772462,-0.016975889,0.19783802,0.46149415,0.17671444,-0.032218266,0.28126422,-0.2622472,-0.24678431,0.21879487,-0.01740063,-0.2957655,0.20691861,0.0036148399,-0.55251944,-0.11179704,-0.3887107,0.60817546,-0.18731986,0.30756915,0.03782242,-0.07553399,0.16944031,-0.23236671,-0.06420453,-0.4051929,0.14644873,0.073616154,0.3572986,0.014751674,0.072548136,0.361729,0.16686434,-0.21787925,0.2659033,-0.006275391,0.036258817,-0.48739153,-0.028711097,-0.35555157,-0.28839538,0.34763107,-0.16402648,-0.32799947,-0.37931705,0.36551797,-0.53829217,-0.17564106,0.21447407,0.029298272,0.37183124,0.042751774,-0.13174985,-0.33892354,-0.7476115,-0.21236315
Simplice::0.10374147,0.27877104,-0.32160103,-0.26667652,-0.28057632,0.29964238,0.018845176,-0.058889914,-0.22417451,-0.060509194,-0.17357546,0.23425877,-0.042965237,-0.24782981,0.17755175,-0.32881787,0.09627547,-0.06158854,-0.08380914,0.12142725,-0.17203292,0.18238847,-0.01774271,0.16035548,0.32387194,-0.09536957,-0.37652153,-0.14231709,-0.09951667,-0.032388218,0.035551738,0.068927065,-0.044420753,-0.030918075,-0.311007,-0.3845931,0.24150588,-0.47337496,0.16419849,0.28710926,0.16429657,0.12168149,0.4714102,-0.34412757,-0.35217318,0.005525567,0.029877836,0.17571673,-0.019694751,0.0045038443,0.28963897,0.025412781,-0.0900713,0.046926472,-0.08605105,-0.31234178,-0.049896,-0.14535913,-0.4417538,-0.07137123,-0.18288113,0.3504375,-0.047022697,0.2658218,-0.006418695,0.07227288,0.02352117,-0.27824554,0.030415524,-0.25819296,0.037566382,0.104171224,0.17709127,-0.039095894,0.07823377,0.19506545,0.095901676,-0.14495489,0.2696333,-0.037353657,-0.05961658,-0.30767846,0.0699707,-0.30071807,-0.22769287,0.356502,-0.17942707,-0.17339641,-0.2795552,0.36893263,-0.36725673,-0.054106034,0.08164799,-0.027636351,0.32134753,0.08560596,-0.13078606,-0.20576775,-0.49178094,-0.23941961
Scaufflaire::-0.14029193,0.29802012,-0.16355725,-0.28965583,-0.070160456,0.23161158,0.023664802,0.24280287,-0.27586967,0.22068825,-0.008859983,0.4183962,0.16183266,0.006175691,0.17811702,0.11956235,-0.10940637,-0.39107147,0.09084245,-0.13180327,-0.05744378,0.044557992,0.2747946,0.25614297,0.16892076,-0.21215138,-0.19708897,0.0406779,-0.023233943,-0.098916754,-0.07256139,0.10575816,-0.027281433,0.22078484,-0.20258498,-0.3588126,0.04801611,-0.09229511,0.13106245,0.37955207,-0.19071293,-0.03398483,0.22623861,-0.12816893,-0.19602291,0.06684039,-0.27757996,-0.010170235,0.32215607,0.19289683,0.0032041955,0.048194017,0.36382258,0.11365657,-0.25691506,-0.16398925,-0.23066556,-0.27825823,-0.19287139,-0.14297336,-0.09961237,-0.18683526,-0.145713,0.555243,0.009235959,0.25358677,0.1232552,0.113194965,-0.06127762,0.037816815,0.10580138,-0.20060433,0.18584332,-0.14014937,-0.053145997,0.06069278,0.08731816,0.13324046,0.2055488,0.1137928,0.2512041,0.03126326,-0.086365335,0.11206606,-0.021483894,0.30599427,-0.41007498,-0.019500224,0.18083021,-0.02715933,-0.08559477,0.26626155,-0.01515566,-0.2989877,0.37500048,0.05847572,-0.26063836,-0.06906308,-0.47571307,-0.17813753
Woman1::-0.17714512,0.46892264,0.019715099,-0.36323127,-0.0762358,0.27987126,0.16487156,0.21235566,-0.3650947,-0.014825292,-0.06003442,0.5534189,-0.052755363,-0.16957794,0.14016394,-0.024558643,-0.13367145,-0.3593206,-0.035944495,-0.27962413,-0.25479856,-0.36276022,0.019624809,0.08223472,0.08043461,0.042471606,-0.20192093,-0.11215611,0.15760432,-0.033453766,0.08684407,-0.050146606,-0.07836685,0.11613909,0.28682306,-0.21438824,0.13807094,-0.15100056,-0.20383039,0.023921056,0.25188664,0.3169671,0.14683092,-0.25467733,-0.2763253,0.075496286,-0.045729227,0.23278755,0.20433974,0.15118366,0.2536105,0.18466648,0.12286264,-0.024508744,-0.059058882,-0.19841534,-0.12806101,-0.04504767,0.00448021,-0.13992961,0.09824389,0.04006374,-0.35813826,0.31437212,-0.08267,-0.05070225,-0.16637121,-0.27670425,-0.010236564,-0.33212605,0.101154566,0.041095845,-0.048655834,-0.26610288,-0.097020365,-0.10397333,-0.19192551,-0.11515084,-0.09787532,-0.040789515,0.07832487,-0.16207269,-0.17002268,0.31633472,0.11841601,0.2478934,-0.42538542,-0.33029047,-0.1253891,0.39141226,-0.3766303,0.32800806,-0.10782788,-0.16915137,0.48603803,0.027495349,0.018780941,-0.065666884,-0.27552602,-0.33490154
Judge::0.1721021,0.019255497,0.0009859137,-0.19178851,-0.2162817,0.46250722,0.07450896,0.3286298,-0.2837176,0.29655996,0.16284597,0.4268491,0.0015692939,-0.10586762,0.057870902,0.084745385,-0.3268652,-0.09256907,0.07123331,0.039812006,0.04958867,-0.49193698,0.34418765,0.23454508,0.27180517,0.32485986,-0.1488165,-0.4360885,-0.26840073,-0.11256238,0.43502802,0.11081994,-0.060607046,0.39977098,-0.46525124,-0.44417554,-0.17611134,-0.1145757,0.2746653,0.3320282,-0.1558522,0.0813742,0.36129633,0.05669373,-0.007506597,-0.011455893,0.09991645,0.10116377,0.39040756,0.08044982,-0.10937592,0.015878119,0.007939436,0.09002424,-0.08015605,-0.26880932,-0.21369782,-0.030145554,-0.35920194,-0.13801827,-0.2940649,-0.0044502416,-0.006914155,0.5760548,-0.002573267,0.03916636,0.10447015,0.06367106,-0.041596845,-0.17818625,0.1529956,-0.20963648,0.1938649,-0.39205372,0.30533722,0.20537423,-0.029212672,0.2929618,0.36225468,-0.047390386,0.03258056,-0.0446044,0.025553321,0.19023547,0.3330644,0.001616884,-0.4013895,0.08201022,0.2955331,0.11470735,-0.4322149,-0.0810961,0.038677312,-0.20334665,0.14791071,-0.0083277775,-0.1520668,0.09333114,-0.6110844,-0.085370876
Champmathieu::0.13902715,0.049094338,0.039856274,-0.21814139,-0.20879681,0.3234593,0.17283985,0.3501881,-0.2005846,0.31097883,0.16608334,0.42919818,0.092706464,-0.073237665,0.05653985,0.090813495,-0.31893262,-0.08756168,0.031074518,0.06565079,-0.009330729,-0.4893978,0.30333468,0.2561248,0.17090398,0.28639883,-0.15232565,-0.34907597,-0.2925625,-0.07421519,0.43982968,0.12666461,-0.054419734,0.38352594,-0.3692193,-0.5078415,-0.28443474,-0.11176662,0.23964472,0.40207466,-0.115054004,0.08733429,0.34790015,0.07199372,-0.010620771,-0.0321982,0.17320357,0.16793735,0.51867616,0.07534072,-0.14981666,0.07717878,-0.026923751,0.08498175,-0.16344067,-0.3010763,-0.21036442,-0.027984224,-0.30198073,-0.18193339,-0.25469694,-0.07563097,-0.011429632,0.64286447,-0.0011425815,0.014945076,0.056950558,0.13788708,0.014788076,-0.16578625,0.14459695,-0.21912406,0.18249229,-0.47285232,0.2522412,0.20372544,-0.040217638,0.35513684,0.3583416,-0.034821134,0.08365008,-0.0074121687,0.004756813,0.2726461,0.37681696,0.03121645,-0.5026209,0.07440422,0.3466134,0.04458565,-0.4925917,0.040642735,0.09076607,-0.27415654,0.20190942,0.009789783,-0.10863025,0.18556167,-0.720095,-0.12250532
Brevet::0.14622562,0.04674163,0.0074965316,-0.12750538,-0.18921946,0.39194822,-0.016345054,0.37451908,-0.28722697,0.26114258,0.17255737,0.44702482,0.11821604,-0.026270533,0.100374155,0.091094285,-0.3698911,-0.13378786,0.036411583,0.11155889,0.06411071,-0.46575963,0.38603294,0.24933465,0.16521959,0.28312516,-0.17537801,-0.40961862,-0.25603303,-0.14849848,0.4385441,0.034908745,-0.12715963,0.37327847,-0.47345486,-0.43252283,-0.35879207,-0.07157332,0.2647863,0.40980294,-0.10143068,0.07079969,0.2638171,0.12914956,0.008879504,-0.0046342667,0.12601647,0.1260805,0.4107746,0.13225715,-0.16756842,0.04792204,-0.05810516,0.105440594,-0.10073089,-0.30186078,-0.21780954,-0.03891589,-0.333947,-0.14084694,-0.22642772,-0.14976469,0.0032970333,0.50842196,0.050233077,0.018312955,0.12781219,0.12826353,0.0010680632,-0.11747691,0.157299,-0.16633897,0.17596735,-0.39989713,0.33456305,0.11169877,0.014449597,0.3156995,0.33092627,-0.15678334,0.04684406,-0.0082833795,0.008241467,0.24416775,0.3811201,-0.008088145,-0.4509771,0.111472115,0.37544167,0.10957604,-0.29896194,-0.06315426,0.065493844,-0.1996149,0.11397143,-0.08245813,-0.10414751,0.20875779,-0.5233852,-0.061145373
Chenildieu::0.18414052,0.062397618,0.040614087,-0.19613151,-0.17222723,0.33171457,0.055838156,0.38610715,-0.30074114,0.3213741,0.14814846,0.49077073,0.06761272,-0.11025551,0.018411996,0.04668997,-0.36147007,-0.1223778,0.042153783,0.0154592125,0.0849851,-0.5587743,0.29819757,0.16269813,0.11063125,0.34618416,-0.080695614,-0.38893542,-0.22182962,-0.089941464,0.50808614,0.04824011,-0.09191997,0.44300458,-0.3028947,-0.38066873,-0.3263213,-0.12761688,0.15304509,0.3660426,-0.08885665,0.15343468,0.26413497,0.10587733,-0.012013113,0.050845098,0.10888391,0.18919533,0.43264183,0.063881956,-0.1540128,0.08022714,0.037076063,0.060268342,-0.11554983,-0.2699021,-0.23486723,0.019846532,-0.2940187,-0.07785605,-0.16629314,-0.14314993,-0.06165098,0.62211424,-0.023546692,0.04194095,0.0697036,0.047900807,0.02215728,-0.17912392,0.08528234,-0.20670223,0.25082782,-0.4755176,0.26205814,0.084208876,-0.081238404,0.32851067,0.28681052,-0.12105788,0.13131312,-0.04881713,-0.019881109,0.36257908,0.40973267,0.010453296,-0.48083666,-0.029842582,0.31069595,0.06917497,-0.4091766,0.08507766,0.04176351,-0.305063,0.15002185,-0.0060476027,-0.16552939,0.24787231,-0.60527045,-0.102727875
Cochepaille::0.17520809,0.006444058,-0.0031467648,-0.23081848,-0.20499894,0.31444395,0.030012337,0.28537843,-0.2792655,0.3001019,0.21221492,0.46833432,0.047918536,-0.12087678,0.037542403,0.065191805,-0.33253714,-0.101689264,0.019496733,0.010424801,0.100975566,-0.5108119,0.29712626,0.23442721,0.17869869,0.3862513,-0.2139149,-0.4447697,-0.2531986,-0.052502822,0.47874165,0.10169014,-0.08079208,0.4110247,-0.49556348,-0.5174117,-0.27646652,-0.15735844,0.25176227,0.4395401,-0.0702643,0.11445561,0.37698296,0.07075706,-0.024114344,0.04412387,0.13830222,0.26227596,0.4806161,0.084902145,-0.13311182,0.05490599,0.0019031237,0.10260184,-0.08242622,-0.29535073,-0.15805212,0.05715885,-0.38203776,-0.16163589,-0.2674784,-0.03387875,-0.059016302,0.59660435,0.0054608285,0.0014194028,0.13903767,0.11138392,0.0105444705,-0.19298486,0.110740826,-0.17348458,0.2980429,-0.46460548,0.30765676,0.15202825,0.01442698,0.31123906,0.3813725,-0.12402849,0.059335772,-0.14391592,0.000606026,0.24941248,0.38255134,-0.020444566,-0.4803529,-0.033483803,0.27033907,0.1200176,-0.46499947,-0.07500869,0.10510092,-0.21784352,0.1725998,-0.00899601,-0.18690377,0.15195642,-0.6706009,-0.08912456
Pontmercy::0.20257129,-0.034914203,-0.13080207,0.11744708,0.008339757,0.29512146,-0.035466425,0.24370044,-0.25791475,-0.30053467,-0.09862788,0.39820704,0.36012787,-0.4223831,-0.5793426,-0.13786578,0.13422816,0.2746204,-0.03914685,-0.37525868,-0.15860392,-0.2607508,0.52806824,-0.12660195,-0.062136002,0.16021247,-0.38018554,0.1384973,-0.13808098,0.11948972,0.2537115,-0.20197462,0.12002731,-0.17354737,0.10821038,-0.21672828,-0.32146317,-0.41465196,-0.27035862,0.37908056,0.14189976,-0.5186422,0.36619902,-0.27559108,0.29544035,-0.05677143,0.14392811,0.0016039745,0.453023,-0.098724335,-0.29692847,-0.24285358,-0.03411493,0.44504464,-0.06645592,0.5119427,0.16936755,-0.14830108,-0.43757373,0.1843625,0.19891165,0.21807809,-0.6810318,0.30150092,0.021047216,-0.4696943,0.198081,-0.20863904,-0.24194162,-0.58745563,-0.20741946,0.17197019,0.06614798,0.048156887,-0.23087554,-0.4335689,0.12455241,-0.076267354,-0.49444264,-0.3824289,0.67244154,0.23332842,0.058600355,0.63851535,0.13591464,-0.1936358,-0.15167998,-0.433463,0.24431455,-0.030469274,0.09097066,0.48328722,0.34401524,-0.31207305,-0.036585737,-0.09861146,0.012581592,-0.062621646,-0.35301787,0.27954954
Boulatruelle::0.047588564,0.15143284,-0.23830989,-0.18549502,-0.15380146,0.0234744,0.018528756,0.45236546,-0.16919334,-0.20026961,-0.26721764,0.36029148,0.41352978,0.098271914,-0.14721775,0.04959474,0.20759572,-0.31643412,-0.1046177,-0.48450127,-0.07822058,0.16008177,0.42504317,-0.12836795,0.18011655,-0.09161324,-0.4049631,-0.031552464,-0.23306243,-0.036717556,-0.057957344,-0.09673286,0.06129348,-0.32407013,0.13814881,-0.0965668,-0.08113866,-0.5282201,-0.04511744,0.46360257,0.18103835,-0.20349558,0.1746867,-0.17392538,-0.06387962,-0.16159643,0.0866524,0.20960104,0.7453259,-0.20719828,-0.275761,-0.11168305,-0.052678354,0.20911068,-0.055749677,0.13230714,0.51189214,0.16597222,-0.08951385,0.04334551,0.258924,-0.1623431,-0.6972404,0.13769013,0.44221798,-0.07119874,-0.053150713,0.03335154,-0.07102436,-0.3773499,-0.23770005,-0.0023366655,0.19140272,-0.06271528,-0.26847902,-0.4806168,-0.17677419,-0.18236347,-0.4223089,-0.18939507,0.410784,0.0558415,-0.05849199,0.52498907,-0.29072946,0.013909089,-0.3024833,-0.37166667,-0.033701167,0.17349878,0.029849837,0.31409866,0.28477773,-0.2741328,0.05494472,-0.050945465,0.22972457,0.17351428,-0.12145208,-0.07008683
Eponine::0.041970078,0.23717976,-0.07558281,-0.36265832,0.1066642,0.19378848,-0.34705213,-0.024662836,-0.23513901,-0.3461209,-0.057432182,0.14381814,0.11415707,0.031980865,-0.060994055,0.06998807,0.20044464,-0.35578436,-0.21120605,-0.22391862,-0.23668335,-0.055782653,0.06767384,0.21067923,0.20146133,0.059155837,-0.29802856,0.09957758,0.08531887,0.03571817,-0.053530015,-0.23649813,-0.13088635,-0.08549899,-0.08592136,-0.18437879,-0.081460014,-0.49578044,0.10129913,0.25324515,0.3524405,-0.2876633,0.39660215,-0.16486017,0.018267604,0.08663149,0.007611096,0.28505266,0.6188762,0.13042474,0.06507211,-0.17381181,-0.040059596,0.16823381,0.02014527,0.1120566,0.21942508,0.34199315,-0.10039243,-0.09464677,0.072786525,0.04239318,-0.48207366,0.22584167,0.29421756,0.021210028,0.13375255,0.39970183,0.0607029,0.0052993246,-0.12840572,0.087451756,0.2963029,-0.16164333,0.00512777,-0.101548806,0.2806305,-0.29599962,-0.032085724,-0.10157559,0.35945255,-0.2978099,-0.14377157,0.27812287,-0.3460175,-0.14825347,-0.3581066,-0.20327297,-5.4383418e-06,0.0055329385,0.20125674,0.053413674,0.2897997,-0.078735195,0.09302114,0.005744275,-0.1557199,0.06656717,-0.25785208,0.028017893
Anzelma::-0.10941964,0.25921604,-0.36838534,-0.4627974,0.13380906,-0.023690566,-0.2129103,0.021113243,-0.33336103,-0.49950063,-0.2919541,0.1608245,0.30288905,0.15472354,0.05157775,0.095416285,0.36870134,-0.23333979,-0.14646488,-0.24327774,-0.39887303,-0.07152882,0.040585015,0.2078708,0.05953204,0.0029638421,-0.21639444,-0.04895277,-0.06640442,-0.06686155,0.14564602,-0.18796948,0.09567123,-0.07927757,0.15112834,0.112994716,-0.16989492,-0.5211544,-0.081471086,0.38809568,0.23019758,-0.03974326,0.49143162,-0.20596384,-0.05367066,-0.12267467,0.11915623,0.28615585,0.84678054,0.32309723,0.14697643,-0.1021618,-0.16429575,0.12775052,-0.06483708,0.09466911,0.42332867,0.35013467,-0.21076404,-0.056511622,0.020003708,-0.04825277,-0.38746458,0.39893234,0.33978388,0.03663308,-0.031569034,0.567483,0.24621603,0.013733244,-0.24712917,0.3577811,0.24424617,-0.23932573,-0.003854933,-0.16322502,0.12899208,-0.19575253,-0.10825467,-0.18258803,0.24814413,-0.22824375,-0.14695486,0.35440642,-0.28449,-0.13104813,-0.34044808,-0.32503644,0.1231713,0.022335995,-0.093424685,0.19274639,0.46429136,-0.2378871,0.15655124,-0.02724259,-0.12595603,0.21280123,-0.074277766,-0.13510086
Woman2::-0.37394124,0.4503889,-0.10894479,-0.12949704,0.038869914,0.4820817,0.034596648,0.3192135,-0.4918189,-0.16692333,0.027973538,0.5118009,0.10053415,-0.0892073,-0.010565349,0.084652156,0.03599398,-0.46671167,0.099257275,-0.014227265,-0.44042024,-0.04019205,0.33692458,0.2587096,0.18319982,0.014570583,-0.21145459,-0.16377556,0.025235612,-0.08702804,0.17087415,0.056293298,-0.12237386,0.25111893,0.17833804,-0.35745633,0.04960709,-0.09445114,-0.15023132,0.1174795,0.0709894,-0.019942915,0.15817676,-0.32067993,-0.14810888,-0.052713845,0.19218312,-0.056146443,0.14540352,0.27981994,0.25528935,0.19472322,-0.041644953,-0.08744684,0.0329245,-0.06894101,-0.033172823,0.04939166,-0.30176333,-0.17677113,-0.007840567,0.1566457,-0.17757785,0.49266663,0.030454533,-0.12243473,-0.08453281,0.069558926,0.05465913,-0.17882994,-0.020370543,0.30145395,-0.12997499,-0.46319583,0.091151886,-0.0937476,0.09167752,-0.0913552,0.1439597,0.18887877,-0.13905464,0.17006746,-0.08733654,0.10069687,-0.16993362,0.105366364,-0.482038,0.180371,0.20110472,0.4105294,-0.19637275,0.03184929,0.07018627,-0.12699978,0.32876474,-0.07734329,0.25335342,-0.21867642,-0.26784164,-0.084007375
MotherInnocent::0.1848509,0.19611482,0.002074867,-0.26335752,-0.18095542,0.35214603,-0.14285451,0.49995112,-0.28801206,0.3401073,0.0661203,0.61161786,-0.2896603,0.16222464,-0.13700107,-0.1832717,-0.33066994,-0.32168093,0.07669198,-0.32924286,0.27366626,-0.1741801,0.5389254,-0.10698825,0.21900752,0.12895529,-0.121589586,-0.33997008,-0.20732269,-0.2938579,0.13294892,0.19432719,0.23306261,0.39519978,-0.17642826,0.09452612,0.5136489,-0.20569764,-0.2129468,0.17035982,-0.1391991,0.43744427,0.16379485,-0.021018507,-0.36743715,0.042291794,-0.50277734,0.070617884,0.24475549,-0.23689501,-0.05386437,-0.09405814,0.62636155,-0.082357064,-0.037647095,-0.12513755,-0.110910535,-0.10691717,-0.14280996,-0.059903942,-0.1963727,-0.05964691,-0.14497714,0.20156069,0.24913302,0.31092003,0.09141502,-0.15545028,-0.036959,-0.022753386,-0.10220833,-0.1916687,0.5690384,-0.32663614,0.14313611,0.076412335,0.077528074,0.014971607,0.29191998,0.2067134,0.30354288,-0.2195442,-0.013403553,0.2423566,-0.29237038,-0.18455817,-0.086809285,-0.080575325,-0.042960163,0.55212474,-0.25154766,0.04522081,-0.03322972,-0.42271444,0.3788617,0.18423255,-0.3359515,-0.11030236,-0.008307621,-0.18925425
Gribier::0.24038954,0.081088826,-0.00096764404,-0.2043631,-0.49736798,0.3894071,-0.27875566,0.6888785,-0.62445915,0.29217988,0.12854463,0.8882026,-0.30406693,0.16628398,-0.33492863,-0.2758719,-0.07667695,-0.27858225,0.07450462,-0.6640835,0.2352623,-0.14533412,0.9439071,-0.2014144,0.4252147,0.18272814,-0.5933956,-0.7704863,-0.1519523,-0.27173778,0.16860954,0.027604718,0.21266893,0.3953189,-0.36885852,-0.014155654,0.3727293,-0.6184515,-0.1594498,0.61074245,0.016517531,0.7010359,0.173505,-0.23647007,-0.5097405,0.044246618,-0.31849116,0.50480866,0.40591648,-0.16147283,-0.25065133,-0.059104495,0.3746626,0.026819346,0.15336117,0.061504174,0.12070072,0.19904138,-0.44363368,-0.17919189,0.12362815,0.2300431,-0.5195938,0.2207204,0.44393095,0.3110097,-0.035748057,-0.41521308,0.07545536,-0.5124987,-0.12654306,-0.14755897,0.6011589,-0.6191114,0.14889073,-0.11597698,-0.06880944,-0.33735844,0.21569026,0.03443585,0.14655598,-0.2901856,-0.09706277,0.3491641,-0.4718082,-0.3349224,-0.20020393,-0.3383874,-0.42856112,0.9596357,-0.7013685,-0.1730201,-0.11394675,-0.22472411,0.5467205,0.17026855,-0.17282663,-0.4113002,0.1037589,-0.08979122
MmeBurgon::0.20216623,-0.083088614,0.58098334,0.25512445,-0.5192973,0.7569999,-0.29826185,0.26664746,-0.32727274,0.14614914,-0.3099375,0.026123619,-0.34690532,0.52567333,0.024656225,0.19003052,-0.30456427,-0.20156084,0.06058642,0.22209439,0.034383696,-0.3628442,0.5501247,0.16838011,0.8499911,-0.20904902,-0.47386193,-0.45969316,-0.26379582,-0.25423568,-0.24834284,-0.119281285,0.3337045,0.30988982,-0.80279696,0.08359258,-0.05689337,-0.3315083,0.48460296,0.29943758,0.27732736,-0.19034865,0.68797624,-0.12041332,0.14995341,-0.16101488,0.16580921,0.3428255,0.3981988,0.26733175,-0.27835733,-0.76683146,-0.1973045,0.5517751,-0.2517481,0.11754416,-0.34972483,0.34639338,-0.20002033,0.035363637,0.114259444,0.23857675,-0.6911899,0.241989,0.38052616,-0.064064085,0.045684457,0.011728353,-0.20508537,-0.13601616,0.352964,-0.46477187,-0.10186779,0.25248745,0.10672292,0.23201178,-0.0242278,-0.618522,-0.33139247,-0.25993264,0.27695608,0.39903197,-0.49545202,0.55452824,-0.22882734,0.03642699,-0.41323984,-0.2813914,0.032618392,-0.11375292,0.29836622,-0.1268272,-0.49496284,0.23843093,0.44628027,-0.36267924,0.1987605,-0.6474117,0.08461194,-0.0023164614
Jondrette::0.3196983,-0.17752048,0.71645874,0.35495728,-0.68113554,1.0599884,-0.41998556,0.530717,-0.46545032,0.15550233,-0.50049067,0.16789134,-0.3332808,0.7827397,0.015102599,0.11689986,-0.4695129,-0.20799619,0.035685048,0.2851462,0.013128271,-0.40323877,0.85130626,0.20174041,1.1046157,-0.2735129,-0.76450354,-0.65069497,-0.4734197,-0.41873816,-0.18397258,-0.1178466,0.49058628,0.28644353,-1.0571034,0.06945231,0.018312436,-0.3539601,0.5360942,0.41430363,0.1672958,-0.1418564,0.89295775,-0.09939646,0.16334482,-0.3265523,0.15905716,0.43602282,0.58990633,0.32107267,-0.45821384,-1.0946964,-0.22030106,0.72928023,-0.30277506,0.16063507,-0.3214535,0.32734606,-0.3812722,0.0521476,0.06812267,0.24752392,-0.8074813,0.21547112,0.5195731,-0.098822504,0.1515975,-0.10112607,-0.33161274,-0.26994297,0.48221064,-0.50505984,-0.21153522,0.28703764,0.20544308,0.3020493,-0.015042039,-0.6853508,-0.3887019,-0.35998237,0.30659294,0.4659116,-0.5464347,0.72164476,-0.26558375,0.043919656,-0.44641504,-0.38195515,0.096925214,0.012397974,0.2718917,-0.19452189,-0.5717487,0.20244703,0.6244782,-0.52007437,0.33148393,-0.820628,0.17497107,-0.06955458
Gavroche::0.16934177,0.1051236,0.1259449,-0.07922155,-0.12565868,0.47694737,-0.16043797,-0.019678354,-0.09115777,-0.08022925,-0.004121471,0.1160888,-0.20027663,-0.07204468,-0.06518539,0.04151476,-0.0074720248,-0.20585963,0.020826887,-0.052848406,-0.14794193,-0.32243147,0.16260369,0.09545646,0.47867277,-0.009049374,-0.12924655,0.08944518,0.041956514,-0.07760009,-0.16273971,-0.025280112,-0.11561643,0.12236273,-0.07165713,-0.06622148,0.08473482,-0.33511138,0.1257858,0.06652457,0.44597182,-0.2594054,0.20833433,-0.17893618,0.0264788,0.15945134,-0.052893523,0.10149625,0.20678906,-0.044581763,0.111390166,-0.20005517,-0.037630677,0.1865598,-0.17050594,0.14689909,-0.42072698,0.22681375,0.10210735,0.040776502,0.27830216,0.27900106,-0.47051096,0.29051942,0.07309208,0.040118527,-0.041365903,-0.0012943379,-0.123944156,-0.10799854,-0.0019452687,-0.36715755,0.15754604,0.05252096,0.016520152,-0.012836146,0.033307143,-0.37926513,-0.0613162,-0.036422372,0.42293838,0.047551617,-0.27242622,0.26232666,-0.19034736,0.06951286,-0.28136283,-0.06826247,-0.12273811,-0.14984015,0.12810764,0.093462035,-0.1317837,0.08391736,0.25251514,0.005308953,-0.17776346,-0.2717573,-0.24199304,0.09451305
Gillenormand::-0.13047995,0.24267124,-0.16916333,-0.13714355,0.26770154,0.35469148,-0.039864786,0.08598771,-0.56718934,-0.075371765,-0.2839606,0.19625956,-0.16716453,-0.22783755,-0.042285275,-0.28173265,-0.24115244,0.12707593,-0.14933515,0.13999383,-0.065876804,-0.15697818,0.19748801,-0.007943051,0.107599236,0.046861943,0.0675341,-0.2086358,0.08407563,-0.01027434,0.32036984,-0.3603795,0.09941245,0.2931044,-0.1528019,0.26779732,0.029865026,-0.17024034,-0.07482725,-0.07141788,0.023057496,-0.15266314,0.5654894,-0.2015348,0.03487934,0.00077593554,-0.3277251,-0.28185177,0.13972099,0.043629482,0.22633187,-0.15169436,0.30885032,0.0793879,-0.107123695,0.27817526,-0.2356463,-0.09578884,-0.5355809,-0.05696061,-0.0979683,0.2582847,-0.14878976,0.40685448,-0.12571546,0.03560747,0.26095432,0.053280484,0.04149301,0.012998214,-0.24628769,0.3395905,0.07093545,-0.22331348,0.092259824,0.10060102,0.5715818,0.0078069163,0.088137835,-0.12050166,0.13916765,-0.20072459,0.33562347,0.15978092,-0.09650666,-0.14222383,-0.46574622,-0.20371108,0.22481275,0.0728604,0.25593644,0.10974761,-0.0540441,-0.19431168,0.2084631,0.121920936,-0.4819355,-0.19644831,-0.33852473,-0.020969562
Magnon::0.029066605,0.37158382,-0.2689938,-0.6011973,0.30994284,0.28584483,-0.21170163,0.029393772,-0.75235295,-0.2092513,-0.48574883,0.25269884,-0.05819654,-0.11226099,0.195129,-0.1227783,-0.31246322,-0.30065206,-0.3322472,-0.057079818,0.06275125,-0.1571719,-0.31282806,-0.075622134,0.13794996,0.30603075,0.1875584,-0.16493967,0.00095432246,0.15917738,0.5120624,-0.47518745,-0.044595733,0.10263422,-0.20327291,0.18550494,0.053095613,-0.35964686,0.069598615,-0.22022995,0.0007018356,-0.18244743,0.7703778,-0.22285753,0.18277302,0.083811514,-0.42355722,-0.09034694,0.3814035,-0.09710285,0.31470907,-0.34371683,0.33859658,0.12328858,0.06859616,0.1881893,0.06691888,0.070157245,-0.51654184,0.07350021,-0.23030637,-0.079120025,-0.4384304,0.40520674,-0.07309502,0.099576384,0.352351,0.25533393,0.03186674,0.0027787092,-0.2767789,0.42172804,0.3802203,-0.13703005,0.16407746,-0.040399723,0.37933257,-0.0456236,-0.17569086,-0.38545397,0.27585357,-0.66852427,0.2679412,0.3136365,-0.022784464,0.21544498,-0.7274418,-0.6611903,0.063431926,0.07146278,0.3196055,0.20451808,0.1285827,-0.30260116,0.097538866,0.023966255,-0.631625,0.25941104,-0.34610465,-0.098118864
MlleGillenormand::-0.07462587,0.11976671,-0.09437988,-0.026001362,0.2912247,0.5085022,-0.12956697,0.16254564,-0.45679483,-0.2389272,-0.12019677,0.39830586,0.09928678,-0.20645137,-0.23616657,-0.21864887,-0.1980945,0.11403899,-0.050304793,-0.14926681,-0.19537778,-0.2709081,0.50318474,0.03752552,-0.06424893,0.090863585,-0.26457313,-0.012452089,0.10869992,0.001219433,0.29239663,-0.22566319,0.1335846,0.009662345,-0.08940135,-0.1159316,0.0685144,0.060967684,-0.33121613,0.06696344,-0.13856101,-0.18361878,0.4267928,-0.18547685,0.13497622,-0.14639811,-0.287621,-0.39743397,0.18417111,0.21054772,0.01138105,-0.1284709,0.30153492,0.2162935,-0.08226889,0.21644676,-0.0884585,-0.39589134,-0.47678506,-0.06808428,-0.24468766,0.024296029,-0.19899492,0.22612256,-0.008260517,-0.17584465,0.4151053,0.0062511167,-0.08723948,-0.21730423,-0.16359127,0.27315423,0.06266995,-0.13942626,-0.022781016,-0.11402809,0.5308126,0.16174318,-0.05972207,0.026128726,0.3762874,-0.1045317,0.24718675,0.3235229,0.14582765,-0.22807713,-0.22360894,0.06330175,0.4435133,0.23241709,0.21518962,0.072625294,-0.02336672,-0.3615455,0.26274434,0.0011388937,-0.21972397,-0.38749182,-0.29247975,-0.0027838913
MmePontmercy::0.20942436,0.06819602,-0.18121795,0.16909724,0.09553726,0.6873156,-0.09070871,0.503587,-0.58645654,-0.3814596,-0.2907123,0.6892468,0.44085848,-0.42085543,-0.5680146,-0.342584,-0.1262332,0.30707043,-0.017629432,-0.34776285,-0.18023516,-0.30193684,0.8086901,-0.10267849,-0.08308592,0.14169434,-0.5277634,0.030691369,-0.14000829,0.027443489,0.4510535,-0.34302756,0.21861206,-0.24067552,0.024862384,-0.1485209,-0.15330079,-0.23428488,-0.4905039,0.4394777,-0.11340772,-0.51164144,0.5920378,-0.30649439,0.38367698,-0.24394146,-0.0884918,-0.2994314,0.42902195,-0.018152773,-0.30172995,-0.41168058,0.096273616,0.49935415,0.006850933,0.569697,0.1289521,-0.5522259,-0.7811497,0.2688879,-0.008474007,0.06824692,-0.6847984,0.41934103,-0.010856141,-0.4705836,0.5036677,-0.3145705,-0.31370658,-0.65641695,-0.2149398,0.3836929,-0.0054786904,-0.02123768,-0.2092712,-0.48189083,0.29244864,0.13581148,-0.5532617,-0.3426593,0.7277031,0.21200547,0.3338171,0.69191307,0.27303004,-0.18323928,-0.12885955,-0.36304718,0.5704175,0.12664904,0.26014522,0.5495273,0.17475905,-0.58536375,0.12749872,-0.11332266,-0.04626382,-0.20625578,-0.42407608,0.26673263
MlleVaubois::0.11205976,-0.049270816,0.069028765,0.14974736,0.2877078,0.828182,-0.10440051,0.2615041,-0.4746673,-0.21454188,-0.012778845,0.4234509,-0.035897728,-0.28917724,-0.40524375,-0.40524948,-0.40100163,0.37595725,-0.014774927,-0.15217559,-0.20994309,-0.64676595,0.98085976,0.031533804,-0.012162909,0.2424645,-0.47731027,-0.18052056,0.062343564,-0.18832786,0.40261817,-0.19522138,0.23153852,0.025290597,-0.2653653,-0.11965159,0.19857027,0.082297765,-0.5665059,0.18164778,-0.012303167,-0.14497748,0.6457402,-0.14964108,0.21264812,-0.31236228,-0.34398645,-0.5197864,0.21542594,0.29087436,-0.05227525,-0.18617463,0.32242918,0.34291667,-0.1193864,0.27029523,-0.25608215,-0.42295632,-0.6097766,-0.0915294,-0.42794567,0.119002864,-0.31262654,0.23195629,0.11882143,-0.2934286,0.63657236,-0.15359053,-0.16602542,-0.43812305,-0.23965785,0.15798141,0.13995871,-0.1595241,-0.004362481,-0.09959069,0.68977034,0.20962241,-0.063359834,0.04093055,0.5339624,-0.058476977,0.3486631,0.51790863,0.26860747,-0.53046286,-0.10080391,0.18452191,0.5777215,0.3829785,0.36120176,-0.052559674,-0.2963413,-0.47411463,0.4196859,-0.046333212,-0.24562871,-0.8001816,-0.34764022,0.059117235
LtGillenormand::-0.1838117,0.19051856,-0.10393903,-0.015912104,0.27620727,0.6406479,-0.07932574,0.09043365,-0.54247123,-0.29848462,-0.36957693,0.14651497,-0.014400323,-0.07037778,-0.1740801,-0.09612508,-0.10622263,-0.033158563,-0.08144412,0.05496248,-0.27361155,-0.23691815,0.3311653,0.064648315,0.14314412,0.14166655,-0.0839261,-0.089277364,0.22174628,0.04980855,0.32894298,-0.3984208,0.1866738,0.059147984,0.091438666,0.277519,0.026239319,-0.09685088,-0.17258471,-0.09354581,0.1108959,-0.3466913,0.48646158,-0.31966028,0.21729001,-0.01899401,-0.09801318,-0.43241155,0.15972742,0.27223063,0.3198919,-0.2101937,0.14712596,0.16159122,-0.18241522,0.27993876,-0.06346028,-0.09730222,-0.4811494,-0.004829877,-0.18262589,0.24704462,-0.21296638,0.3488695,-0.04626613,-0.18873839,0.28462213,0.16051435,0.059246004,-0.021921497,-0.32207474,0.43166205,-0.15618534,-0.17067713,0.06392887,-0.059806734,0.5411302,-0.10818666,-0.010643504,0.05774505,0.20948274,-0.013613905,0.26872677,0.23420072,-0.07901374,-0.2721068,-0.4295773,-0.12335988,0.39070556,0.054359507,0.2726383,0.0968429,-0.047305573,-0.24912028,0.13323824,0.07422849,-0.1990895,-0.3521226,-0.20522016,-0.017356703
Marius::-0.08191896,0.085832,0.07559512,-0.019775506,0.012590495,0.37078762,-0.16186707,0.00066844944,-0.31053707,-0.2160113,-0.14867717,0.12479493,-0.10405676,-0.10615942,-0.4195564,-0.0436615,0.037043482,0.14885001,-0.01484912,-0.00652414,-0.21810599,-0.28182626,0.20470044,-0.0068507516,0.1652571,0.09019507,-0.06789616,0.025704896,0.05136579,0.061133377,0.084813386,-0.1967092,0.26926512,0.23377156,-0.02659051,0.10445497,0.043342747,-0.14433923,-0.16172127,0.07331664,0.073019505,-0.28494194,0.3284659,-0.21015081,0.15752648,-0.030058376,-0.052328605,-0.06862185,0.18298519,-0.03651733,0.07076707,-0.29805163,0.047286287,0.1097401,-0.05384579,0.34637058,-0.037388608,0.04666697,-0.18680373,-0.004964535,-0.011969989,0.34952813,-0.31057343,0.32065937,-0.058558684,-0.14930646,0.10932028,0.10291975,-0.05681998,0.017853973,-0.15232736,0.09192805,0.04757054,-0.11226937,0.051555328,-0.041988317,0.34803948,-0.10689448,-0.08348848,0.1515657,0.2990884,0.075487375,0.056170445,0.21789724,-0.18432306,-0.20145774,-0.21109352,-0.099834755,0.19880064,-0.11739743,0.049163476,0.17276296,0.031231634,-0.1059277,0.13422723,0.1631773,-0.17539771,-0.26196706,-0.3376149,0.0750742
BaronessT::-0.08471357,0.17671792,-0.0019415063,-0.17563619,0.037512146,0.41785848,-0.17703658,-0.11037803,-0.49010727,-0.1476462,-0.25848448,-0.05013043,-0.23435532,-0.3369481,-0.3885012,-0.2538184,-0.048299145,0.3837981,-0.25504652,0.104854874,-0.23423035,-0.27009115,0.09397092,0.03929442,0.2543218,0.20497277,0.16323245,-0.051878724,0.08202387,0.10428114,0.27566877,-0.5385013,0.18594638,0.42017755,-0.254784,0.19654556,-0.17506054,-0.3807309,0.1732015,-0.043003958,0.09475235,-0.3830248,0.68277794,-0.26210448,0.19346713,0.1239036,-0.2289917,-0.065037884,0.20194852,-0.036943484,0.20156091,-0.25106144,0.18032213,0.17350274,-0.13078842,0.4542751,-0.15218234,-0.012747728,-0.46723378,-0.1658931,-0.17003796,0.63378155,-0.21580167,0.27023232,-0.1860026,-0.15617502,0.12515162,0.089174904,0.023243217,0.015938902,-0.20280333,0.19077305,0.037413824,-0.20259152,0.27917203,0.23063272,0.7842647,-0.18222964,0.080687314,-0.10913801,0.20253526,-0.233625,0.3576892,0.22293298,-0.20471679,-0.29351422,-0.55037713,-0.31800953,0.16110058,-0.031119283,0.11051767,0.105683,0.16941926,0.057883468,0.04385059,0.24252768,-0.4600919,-0.17924485,-0.49976787,0.028629418
Mabeuf::0.22382116,0.0635617,0.20028888,-0.03657176,-0.116811,0.48110664,-0.43750104,-0.07914359,-0.10872989,-0.262827,-0.010902141,0.069000594,-0.29518414,0.003670839,-0.47602397,-0.1630435,0.115841,0.12595452,-0.18948258,-0.017345658,-0.3634349,-0.48694095,0.3970273,-0.14538717,0.22618333,0.16361341,-0.038101785,0.13695319,0.0847611,-0.16216578,0.0005593193,-0.16554618,0.17930798,0.23455463,-0.08570329,0.27259207,-0.008110452,-0.3556261,-0.147079,0.18768063,0.52541,-0.08122647,0.2139673,-0.18474181,0.019094357,-0.025448373,-0.061642967,0.031554133,0.31750363,-0.09622761,0.122220114,-0.21918061,-0.20786317,0.15939178,-0.08058222,0.14595835,-0.20199792,0.21132052,0.01515788,-0.04672376,0.13019344,0.2556347,-0.39307025,0.22071151,0.1353873,0.028047651,0.034859024,0.21443959,0.20384037,0.055372775,-0.16199383,-0.09908691,0.26093304,-0.08924612,0.15008436,-0.12492684,0.42229408,-0.3858522,-0.18413888,0.09034231,0.531087,-0.075692885,0.025347555,0.24707599,-0.47216696,-0.34322515,-0.11905236,0.0010611083,-0.032464754,-0.029749228,0.1376279,0.14975782,-0.018414253,-0.047038488,0.17793234,0.24614812,-0.3121758,-0.2035315,-0.20529023,0.1897453
Enjolras::0.06610546,0.12157396,0.18961331,-0.0771594,-0.10730139,0.38390505,-0.21115793,-0.049280297,-0.12814234,-0.10014607,0.012399912,0.21619278,-0.11782011,-0.06609495,-0.2994139,0.061386652,0.19919908,-0.0038391189,-0.043697663,0.028743444,-0.3040539,-0.3871262,0.2808393,0.036092993,0.21569163,0.021776048,0.015471615,0.18764561,0.038633004,-0.037205722,-0.07771334,-0.1193015,0.19590022,0.33840713,-0.00600657,0.00045979716,-0.096800916,-0.32859865,-0.023283098,0.16999075,0.29198688,-0.0974301,0.07792947,-0.3453437,0.0064514917,0.097130045,-0.03197014,-0.018551568,0.22952469,-0.032042205,0.17902318,-0.0219418,-0.11386828,0.0246966,-0.0929423,0.26223764,-0.32999215,0.041883804,0.03843466,-0.11726981,0.1596863,0.39403328,-0.34589738,0.3437873,0.030626621,0.0019830128,-0.09833466,0.13827796,0.08397035,-0.06883096,0.014808267,-0.16303976,0.106636636,-0.23251626,0.11633841,0.035501324,0.3002522,-0.3129459,-0.13970467,0.14349854,0.49336395,0.20774567,-0.19003803,0.3248892,-0.28975254,-0.10185635,-0.24354902,-0.013428489,-0.0010511202,0.022291232,-0.03925756,0.3256061,0.041635554,-0.05826409,0.26667076,0.11404639,-0.14730372,-0.16967082,-0.2705749,0.10357734
Combeferre::0.19229858,0.03869669,0.18356,-0.015290129,-0.21039908,0.39801058,-0.23217328,-0.17223142,-0.078452155,-0.14444558,0.020056535,0.130992,-0.21222314,-0.08494475,-0.42606676,-0.040670246,0.23307428,0.22626838,-0.02329911,0.0026360615,-0.26310518,-0.5142173,0.27730012,-0.070366696,0.2173942,0.07162179,-0.02739268,0.14946358,-0.07961916,-0.027278135,-0.036252037,-0.10450864,0.32951206,0.2709814,-0.18511023,0.08127241,-0.06095413,-0.4232448,-0.038520087,0.2566443,0.32429197,-0.09062446,0.3170781,-0.31166837,0.06987414,-0.06492987,0.005761319,0.031043623,0.2253623,-0.080282226,0.07711627,-0.1542248,-0.22168088,0.19452794,-0.07731166,0.24968454,-0.29604238,0.04715533,-0.026040208,-0.055111777,0.07692773,0.41021436,-0.410333,0.29875326,0.061352264,-0.077180415,-0.079564534,0.14304397,0.13191195,-0.10491723,-0.0073020677,-0.23951599,0.27954933,-0.0813516,0.030567536,-0.007263534,0.24498576,-0.3205292,-0.31115317,0.06380005,0.5838802,0.20338552,-0.12421894,0.3174997,-0.2587469,-0.10397892,-0.06852298,-0.03057079,-0.040289897,-0.04574667,0.013506737,0.25474042,-0.030265274,-0.008959729,0.21198192,0.117839225,-0.24158713,-0.206866,-0.25426435,0.13066521
Prouvaire::0.1332248,-0.0074450863,0.13464685,-0.012658897,-0.26970112,0.4181874,-0.2659112,-0.23108901,-0.17541036,-0.15160236,0.02076146,0.18608946,-0.21409427,-0.12463847,-0.37634197,0.0167427,0.274053,0.20419449,0.04909622,0.032695197,-0.1355645,-0.503516,0.26560315,0.032090068,0.28583074,-0.010520775,-0.1160532,0.061884094,-0.041404966,0.07819638,-0.10487162,-0.14749077,0.33380815,0.34453848,-0.22367278,0.041846093,-0.11882935,-0.5098426,0.03783818,0.34973395,0.33703122,-0.10131975,0.31323916,-0.44590354,0.022308363,0.068920255,0.045633808,0.04869932,0.17045224,0.017598426,0.1345059,-0.108857274,-0.20805731,0.18779843,-0.15873073,0.30725697,-0.39728594,0.053223077,-0.11443308,-0.0060152295,0.17902137,0.55432767,-0.45138636,0.454147,0.064666644,-0.060505692,-0.09359332,0.11689016,0.08554396,-0.13636172,0.04659713,-0.2793344,0.30811265,-0.16001193,0.02162879,0.0686315,0.24051702,-0.41288915,-0.20632116,0.04327662,0.6442106,0.25663725,-0.30525476,0.35333753,-0.23100671,-0.08439616,-0.1052007,-0.035955187,-0.027119474,-0.01483199,-0.028495306,0.25331488,-0.012357533,0.026566273,0.3321407,0.0414146,-0.26306206,-0.32171574,-0.30734968,0.15548716
Feuilly::0.17236528,0.01471428,0.1762706,-0.0070535154,-0.21621606,0.39035347,-0.28837436,-0.16544189,-0.1572608,-0.10869671,0.01066861,0.19300331,-0.21367957,-0.06846221,-0.4134624,0.005836522,0.22272098,0.13526653,-0.042578116,-0.038085356,-0.16335906,-0.5079388,0.2995742,-0.032177877,0.2430131,0.073051795,-0.07507906,0.084491715,0.014492068,0.06263263,-0.06098865,-0.17445557,0.2920493,0.31328568,-0.13992427,0.1283239,-0.101973005,-0.5082211,-0.012575359,0.30430892,0.4230341,-0.12045284,0.23425959,-0.39047307,0.044050973,0.070654355,0.011340432,0.07915376,0.233753,-0.0817807,0.12786925,-0.11548956,-0.20217967,0.18260853,-0.12550987,0.28958106,-0.33505842,0.1203635,-0.050475873,-0.03212403,0.19255386,0.46538755,-0.47930518,0.3458825,0.05225508,-0.07850557,-0.08514718,0.10997805,0.15568887,-0.112407565,-0.011637373,-0.2302821,0.27499482,-0.17442854,0.064904235,-0.011535691,0.2962921,-0.401397,-0.23498423,0.05146409,0.6213387,0.18434167,-0.19650933,0.37080306,-0.24733952,-0.17557429,-0.11712905,-0.09827731,-0.0514513,-0.020839963,-0.005531856,0.23477209,0.00029609696,0.017095245,0.2562089,0.09656419,-0.2693336,-0.22806193,-0.26830268,0.1523783
Courfeyrac::0.12556282,0.04116615,0.1780314,-0.05618311,-0.17692444,0.47734687,-0.39685166,-0.13976553,-0.1677833,-0.239865,-0.013882404,0.11354036,-0.20413515,-0.017909989,-0.34982935,0.059478812,0.17490545,0.17687602,-0.059476875,0.027013073,-0.22719799,-0.5316814,0.30987984,0.011444043,0.267427,0.097611785,-0.043239255,0.06017621,0.043607105,-0.01578881,-0.044453062,-0.26037145,0.24598189,0.3291203,-0.20570529,0.17102736,-0.2171576,-0.37957153,0.09158314,0.26398358,0.35637668,-0.13584553,0.2891147,-0.27198523,0.08615384,0.037596144,0.036466222,0.02244441,0.33122033,0.035537206,0.08938378,-0.16413684,-0.2651379,0.18037157,-0.099965125,0.26339987,-0.30508712,0.12547602,-0.023822132,-0.06048237,0.14846274,0.39103982,-0.3646137,0.34762943,0.09165942,-0.0140509745,-0.039889205,0.26434466,0.126461,-0.0005678059,0.010126612,-0.17908871,0.19767693,-0.15130246,0.12792534,-0.0058559338,0.32263115,-0.37039852,-0.22488448,0.010425394,0.5409231,0.13977252,-0.15989658,0.3459549,-0.25309837,-0.25252298,-0.15833187,-0.023667932,0.032224163,-0.104315214,0.06389105,0.19557737,0.021091498,0.05072199,0.18454668,0.07591877,-0.25443783,-0.14905791,-0.20355752,0.14451908
Bahorel::0.15911643,0.06330544,0.28061,-0.03225354,-0.21916798,0.501108,-0.33891985,-0.13064782,-0.09351247,-0.16758104,-0.015522614,0.16092966,-0.23434603,-0.059667088,-0.43710375,0.0343856,0.15134287,0.14645974,-0.06674521,0.027517717,-0.28369147,-0.5356526,0.30124727,-0.05488801,0.28510326,0.090031326,-0.038210284,0.18800506,-0.0095681995,-0.03272206,-0.09001626,-0.17734626,0.30784816,0.32149008,-0.16135183,0.09292725,-0.08738063,-0.31202802,0.010156989,0.17466828,0.3125607,-0.13477138,0.19957124,-0.30158094,0.10467119,0.03711458,-0.03293268,-0.0034544256,0.20825332,-0.10992267,0.08992978,-0.21096557,-0.19308554,0.14970045,-0.07565262,0.3260678,-0.3338872,0.053830493,0.054856412,-0.06389941,0.13437353,0.43941087,-0.4107973,0.26869404,0.050919693,-0.062519975,-0.025584023,0.15042342,0.029992409,-0.091532774,0.03091552,-0.25505686,0.20308766,-0.10281596,0.12074172,-0.0024178682,0.3260738,-0.3828121,-0.30769467,0.085700214,0.62602603,0.24218763,-0.14876921,0.36069176,-0.31942198,-0.10718898,-0.14353116,-0.028790697,-0.027088135,-0.05279498,0.05771549,0.2953951,0.004408645,-0.010818487,0.22005805,0.084806584,-0.185787,-0.21052067,-0.24880941,0.15903257
Bossuet::0.059838407,0.07177512,0.21865124,0.0005294381,-0.18614492,0.38355395,-0.2921221,-0.15461928,-0.16370851,-0.11329524,0.047002565,0.23086002,-0.18852517,-0.082773045,-0.37304333,-0.029405631,0.15155023,0.12203551,0.019837514,0.033783693,-0.2710419,-0.46919802,0.27030593,-0.02085973,0.17784077,-0.020791547,-0.019813323,0.11829322,0.013230134,-0.045347165,-0.019630827,-0.13616216,0.2812043,0.3666112,-0.10242321,0.06928988,-0.085130155,-0.33623755,-0.104775295,0.25973412,0.28214532,0.017407995,0.21729541,-0.29306737,-0.03195564,0.030224763,-0.048973266,0.04195492,0.15780115,0.028980952,0.12477906,-0.071026936,-0.10005761,0.13004054,-0.106923364,0.22228329,-0.40461364,0.01775976,-0.04293485,-0.028953632,0.1804787,0.36795714,-0.37337604,0.3678835,0.008600239,-0.019232662,-0.0612706,0.12380196,0.10253824,-0.07353352,0.019813124,-0.20914336,0.23175915,-0.21001196,0.09957034,-0.0043772897,0.29013965,-0.31857285,-0.14945145,0.075929746,0.49687973,0.22106577,-0.14169964,0.32526502,-0.22329672,-0.06322918,-0.16862975,-0.0037754746,0.0030262512,0.014401348,-0.00470447,0.27575263,-0.017039413,-0.005765329,0.29409754,0.1080093,-0.2119101,-0.25793567,-0.27541316,0.08638522
Joly::0.13377589,0.070617266,0.18413858,-0.02092532,-0.12340392,0.42023546,-0.31404957,-0.1305659,-0.101548165,-0.15529823,0.04375457,0.21838692,-0.15402266,-0.08373465,-0.407184,0.004686296,0.16813646,0.08277747,-0.028536512,-0.012110197,-0.24778783,-0.4836004,0.3383418,-0.013064023,0.18317828,0.040976167,-0.071195595,0.2054852,0.027772138,-0.013108348,-0.064458534,-0.12726034,0.24697414,0.2739539,-0.0840273,0.04446884,-0.07922489,-0.36191162,-0.100479186,0.2618992,0.37140107,-0.1513675,0.22754258,-0.29926935,0.034397386,0.08608342,-0.036242303,-0.017619887,0.21640874,-0.01722136,0.1130164,-0.12146347,-0.11565867,0.19053435,-0.15230052,0.27514577,-0.38512087,0.047610123,-0.025918502,-0.02549327,0.15845796,0.3667417,-0.42385304,0.3447331,0.021692898,-0.05769296,0.008747659,0.14849147,0.08050777,-0.077367306,-0.033546004,-0.21981034,0.26877844,-0.14012744,0.042494632,-0.034431282,0.34337655,-0.35278857,-0.21222878,0.06902174,0.66603273,0.22312634,-0.15556337,0.37455615,-0.25412375,-0.14190501,-0.15070252,-0.011270419,0.015707243,-0.07172596,0.104930446,0.30163044,0.009966071,-0.06929384,0.25524577,0.09444832,-0.25325453,-0.24126406,-0.27437964,0.14800277
Grantaire::0.103431076,0.09294525,0.26105517,-0.02527085,-0.21333838,0.49087992,-0.2745793,-0.118336804,-0.1556582,-0.106109604,0.05685623,0.2738918,-0.25792235,-0.053994376,-0.33202484,0.09413655,0.1397863,0.062037785,0.050338116,0.034633353,-0.2437981,-0.58503336,0.31831276,-0.027132282,0.28614756,-0.009502769,0.0011657475,0.104461886,-0.006624911,-0.027441742,-0.11336373,-0.12656572,0.27691373,0.4489703,-0.156641,0.08132371,-0.101555,-0.35090435,0.00074602256,0.24021238,0.3538283,-0.063623495,0.16302651,-0.3745896,0.048728343,0.012689884,-0.03116923,-0.031594403,0.21968806,-0.05282371,0.13744053,-0.08594913,-0.21341668,0.116224125,-0.09234234,0.26735714,-0.5255534,0.031961255,0.06322636,-0.06721986,0.2606808,0.404613,-0.48094037,0.47739604,0.062467627,0.022334335,-0.13936245,0.19336621,0.09405455,-0.0760624,0.09414688,-0.33439198,0.23688433,-0.21739122,0.07722988,-0.016497914,0.22928514,-0.3694962,-0.28490302,0.117100954,0.6395568,0.31102863,-0.28736264,0.39946184,-0.23805274,-0.04384883,-0.19971001,0.098168224,0.027555214,-0.041703474,0.022027992,0.30257812,-0.10922967,-0.0022963916,0.36187792,0.06350693,-0.2134617,-0.25616333,-0.3215217,0.14462882
MotherPlutarch::0.37253162,0.19411288,0.14811316,0.005266374,-0.13229136,0.5588021,-0.5974491,0.037713733,-0.08438509,-0.473052,-0.21142504,0.052197576,-0.32225633,-0.032656472,-0.5533164,-0.5743569,0.119883984,0.2616557,-0.39352033,-0.032673165,-0.7490357,-0.3047578,0.57344365,-0.39013913,0.3298757,-0.072538555,0.0075572473,0.26109958,0.045825064,-0.5355301,0.0046030283,-0.23671335,0.19599633,0.1373656,-0.023990035,0.6012795,0.08977005,-0.5604202,-0.3043907,0.21277916,0.7593551,0.02368476,0.299465,-0.08041721,-0.12432445,-0.17185378,-0.2078493,0.054604366,0.45516586,-0.28132606,0.08479009,-0.36715254,-0.29958093,0.29518485,-0.0925128,0.10426511,-0.18655404,0.21921545,-0.08700749,0.061866764,0.3722868,0.16340686,-0.58058584,0.14852577,0.20558825,0.14061014,-0.012985378,0.12236356,0.2602601,0.042070616,-0.32005048,-0.002053544,0.24143042,0.11583384,0.19477172,-0.37174743,0.6330048,-0.590105,-0.3930608,-0.09061065,0.57758313,-0.21170802,0.36352694,0.22977634,-0.9813813,-0.29641703,-0.14781281,-0.106517896,-0.19801053,0.0035326662,0.34069854,0.2978055,0.06641093,-0.022532241,0.15979028,0.42538404,-0.34211615,-0.19160931,-0.23199353,0.16195303
Gueulemer::0.019517677,0.34619758,-0.033350658,-0.23204732,-0.06405182,0.30836478,-0.20078966,0.1650273,-0.27365062,-0.024630213,0.024081847,0.30568826,0.010468208,0.017493572,0.025907688,0.14019223,-0.09729916,-0.57579714,-0.122423455,-0.17009088,0.014262009,-0.08099105,0.20681956,0.16088453,0.20444709,0.08696839,-0.28492928,-0.07866733,0.09953368,0.06442859,-0.08444105,-0.16835023,-0.28067297,-0.04779975,-0.16017325,-0.30125695,-0.009111529,-0.31112823,0.14956622,0.26912075,0.41184533,-0.22303484,0.2531059,-0.17411177,-0.058623858,0.05553048,0.035198748,0.26497996,0.38190594,-0.030220797,0.11120101,0.01017345,0.0053710733,0.14976948,-0.041163474,-0.23146671,0.056994878,0.21346374,-0.05555586,-0.08268413,0.03637265,-0.1251186,-0.45905906,0.25342128,0.21599273,0.03558593,0.15597396,0.13762502,0.03944239,-0.016588647,-0.014429399,-0.059362374,0.2434646,-0.13703611,-0.086857975,-0.16377592,0.115773566,-0.22098598,-0.028611152,-0.103011884,0.15369098,-0.234512,-0.1152519,0.1266925,-0.13610546,0.016902305,-0.3735078,-0.16737655,-0.02001039,0.081843205,0.22817457,-0.0419685,-0.050071664,-0.06267084,0.1589925,-0.058096543,-0.095724866,0.046266936,-0.23031633,0.011975945
Babet::0.04392736,0.30231544,-0.097769976,-0.19641387,-0.08922534,0.25294703,-0.19238865,0.19123322,-0.22976844,-0.08819719,-0.06922524,0.29511747,0.11688692,0.10033065,0.12427937,0.16976379,0.027726622,-0.4986269,-0.088249005,-0.11035209,-0.05446707,0.010266891,0.19033949,0.20640016,0.23526569,0.027274461,-0.30581933,0.0040010777,0.009873509,0.048477918,-0.14821942,-0.11320715,-0.19998753,-0.09149784,-0.18080494,-0.27843612,-0.0023701482,-0.3151851,0.20618734,0.32465774,0.32619435,-0.28200823,0.20226565,-0.24019587,0.02644646,-0.03801047,0.09669544,0.21026577,0.4380669,-0.06491036,0.07982068,-0.09553729,-0.17367198,0.102799885,0.010462282,-0.14228792,0.12953588,0.12179667,-0.062020786,-0.099230334,0.040870238,-0.07691895,-0.41409177,0.23599273,0.28569943,0.019194087,0.07876655,0.20833236,0.04311169,0.0051231277,0.039094497,-0.014369955,0.13225396,-0.077850915,-0.06271794,-0.13369827,0.04488323,-0.20396997,-0.11727021,-0.096524924,0.20321526,-0.122183196,-0.20617369,0.072663344,-0.18089847,0.07460285,-0.29162583,-0.1289858,0.009213538,0.015113777,0.11860478,0.00060841214,0.044096112,-0.0746423,0.1617059,-0.060816966,-0.025638863,0.112379536,-0.21222575,0.07055024
Claquesous::-0.014514368,0.33694124,-0.1283648,-0.27911896,-0.069907226,0.110584415,-0.17317034,0.13091835,-0.23881294,-0.10419432,-0.050118975,0.38877022,0.12781614,0.04255135,0.033352662,0.13714416,0.013024373,-0.54208654,-0.16798885,-0.1466279,-0.09519705,-0.011800555,0.10527784,0.16715677,0.17693095,0.05751958,-0.28794166,0.09752832,-0.020701606,0.16354552,-0.09113729,-0.10892774,-0.25580126,-0.094661795,-0.07710188,-0.3454996,-0.008728591,-0.36934274,0.14233774,0.31671822,0.38751537,-0.27779782,0.1639082,-0.27268645,0.035998136,-0.0325946,0.015260352,0.23764011,0.52442306,-0.18850587,0.09873055,-0.0046845647,-0.10582186,0.078425646,0.03373299,-0.04739364,0.09500725,0.18520749,-0.0020820403,-0.12798293,0.112834685,-0.095619895,-0.45249653,0.24902052,0.27063563,0.015696207,0.06854238,0.30761528,0.07736735,-0.0068048146,-0.060115326,-0.039823614,0.2788163,-0.2175245,-0.1004944,-0.22455408,0.13438289,-0.18443696,-0.13587926,-0.10962507,0.30285856,-0.18587051,-0.1550782,0.1654377,-0.17269956,0.09300176,-0.41211674,-0.11087748,0.017664935,0.04410224,0.09655181,0.05939027,0.105541594,-0.11153504,0.23205641,-0.016649878,-0.0931237,0.1872055,-0.28141102,0.0651351
Montparnasse::0.013477834,0.29823405,-0.06778045,-0.16176988,-0.05726465,0.29337156,-0.10935092,0.23717959,-0.23423782,-0.025822975,-0.05540232,0.2526762,0.07957788,0.05855416,0.050094437,0.23196101,0.012696732,-0.5435596,-0.08025307,-0.10097472,-0.048797734,-0.059474275,0.24135418,0.2163828,0.26659116,0.083686724,-0.2586559,-0.016302574,0.034241065,0.035996936,-0.15325665,-0.08871732,-0.22842577,-0.053690024,-0.15387566,-0.2970224,-0.02808139,-0.32756367,0.2560643,0.28906393,0.35188514,-0.35884437,0.19431455,-0.26556072,0.059250817,-0.023042135,0.13278529,0.20193128,0.4678958,-0.08959612,0.11102972,-0.021642052,-0.13053507,0.10438554,-0.046613205,-0.16581866,0.11888094,0.23046204,-0.01147076,-0.09108841,-0.00035167456,-0.06489729,-0.45913145,0.34092394,0.29224113,0.025426092,0.1009641,0.2298955,0.033855535,0.019181302,-0.015348843,-0.0931088,0.16285905,-0.08454068,-0.117284946,-0.17458086,0.057239335,-0.20669243,-0.1056075,-0.04401082,0.164381,-0.026728658,-0.185452,0.09329722,-0.1919643,0.04662919,-0.34092963,-0.15290475,0.011878245,-0.054321468,0.16746688,-0.00095179304,-0.044720348,-0.08890358,0.13296904,-0.031605475,-0.047422905,0.11385613,-0.31039694,0.050395243
Toussaint::0.006817373,0.34489664,-0.22168839,0.00033641135,0.034204915,0.63457286,-0.010783542,0.4800047,-0.4408296,0.091682635,-0.09863392,0.39951956,0.11454557,-0.07916054,0.009466479,-0.07599009,-0.04313913,-0.47927815,0.05504676,0.050533198,-0.16995722,-0.15442619,0.6189327,0.3367795,0.20090123,0.13265325,-0.28757578,-0.19271208,0.21403512,-0.207096,0.14200848,-0.05397706,-0.21014078,0.055004966,0.20478879,-0.20621985,0.03467808,-0.3410763,-0.01713862,0.34928134,0.30365658,-0.14420256,0.06303344,-0.30183476,-0.14595567,0.1690421,0.14080454,-0.10154016,0.054663036,0.2122479,0.367202,0.23002885,0.09084515,-0.108978026,-0.31949273,-0.30879423,-0.004007472,0.044078976,-0.28941,0.036579106,-0.20596567,0.05980175,-0.08576408,0.501939,0.18950363,0.0511116,0.122700654,-0.18746893,0.09826024,-0.030665725,-0.30678323,0.18549728,-0.057738237,-0.20872517,-0.008659716,-0.15031542,0.076096125,-0.020276166,0.37421447,0.19038357,-0.04536644,0.09673981,0.033131294,-0.039098687,-0.15371203,-0.15116172,-0.2592368,-0.02361486,0.123416156,0.2847036,-0.027080866,0.050888684,-0.17332768,-0.34318405,0.1768147,0.10687181,0.0185899,-0.07367125,-0.24063286,-0.10588365
Child1::0.37455916,0.43081683,0.09052788,-0.008084663,-0.28246057,0.7479333,-0.0346209,0.12010686,-0.20708056,0.14584558,-0.06102212,0.18443426,-0.41493014,-0.25926676,-0.28932053,-0.036647197,-0.13646702,-0.3794045,-0.048708856,-0.01889886,-0.20303497,-0.6157978,0.27683985,-0.08569825,0.536137,0.2756318,0.1414935,0.12807338,-0.061965115,-0.21215326,-0.027648393,0.014122237,-0.13871166,0.13887654,-0.03482937,0.02357391,0.25545457,-0.61642396,0.08367329,0.09323748,0.78734934,-0.35584348,0.44349855,-0.2511445,0.092952676,0.04775036,0.014722481,0.20035368,-0.022355705,-0.47835764,0.34846607,-0.2292674,-0.08996679,0.2750007,-0.22444403,-0.10099933,-0.4068442,0.41506565,0.10258478,0.18328747,0.058319468,0.27804354,-0.7585416,0.38366774,0.0012011856,-0.09453939,-0.022145245,-0.28946602,-0.025326671,-0.14323868,-0.27593,-0.40472648,0.30207348,0.31674948,-0.058271658,-0.3687267,-0.09939725,-0.48365885,-0.37508738,-0.14853555,0.36995187,0.24197212,0.048294798,0.18137224,-0.2512873,0.37402955,-0.3302422,-0.41108125,-0.39386675,-0.19718437,0.3390027,0.2719016,-0.45985463,0.0726419,0.026826456,0.21874107,-0.30963624,0.027894191,-0.3393743,0.10134356
Child2::0.41480583,0.43057987,0.09596952,0.0054572336,-0.30617067,0.77696747,0.0034686415,0.24203712,-0.15480514,0.18975501,-0.03177915,0.23370649,-0.36954167,-0.26951894,-0.23706,-0.0402371,-0.18430525,-0.4199176,-0.015736122,-0.08949091,-0.16750681,-0.60200083,0.31594148,-0.07067521,0.6104269,0.25041676,0.15326017,0.13170248,-0.11042231,-0.26704967,-0.04442683,0.016046284,-0.21540406,0.09626658,-0.07936957,-0.055500727,0.25739312,-0.58793515,0.16844822,0.09094753,0.69343865,-0.37679622,0.38024256,-0.17282213,0.06367418,0.030548858,-0.035055503,0.20775355,0.08346647,-0.5679767,0.23348977,-0.20574722,-0.050270926,0.29038513,-0.21265797,-0.16209815,-0.4178247,0.30157375,0.1481439,0.16206262,0.08901918,0.16299878,-0.7625049,0.3487025,0.049385235,-0.04585382,-0.036601633,-0.29871404,-0.09254656,-0.16816884,-0.21754698,-0.56454885,0.28873596,0.34359324,-0.08660904,-0.3808711,-0.16954634,-0.42994106,-0.3980949,-0.1903425,0.42748526,0.25826275,0.0559225,0.21878172,-0.21699251,0.40705693,-0.3004257,-0.35237336,-0.35454124,-0.24551108,0.36225513,0.27599,-0.4252851,0.06507571,-0.017734636,0.21144895,-0.27294645,0.13134359,-0.39601833,0.08303924
Brujon::0.14353746,0.33334282,-0.024373464,-0.22850713,-0.0957079,0.2941055,-0.24497378,0.17943129,-0.209845,-0.08725623,-0.04771053,0.2752939,0.065991215,0.010357705,-0.06109784,0.20422576,0.04799494,-0.57639223,-0.18977371,-0.21252419,0.008631432,-0.05836451,0.18107508,0.14198166,0.3080787,0.12054568,-0.28169942,0.09881562,0.020099178,0.11663272,-0.19452904,-0.20972238,-0.29231113,-0.16196382,-0.22192428,-0.353292,-0.071090646,-0.46710387,0.3213738,0.31615043,0.45061544,-0.50725967,0.28310397,-0.21952014,0.092459165,0.051301252,0.06788149,0.31083778,0.54918385,-0.22114573,0.005986619,-0.15566224,-0.08789784,0.19709665,0.013669858,-0.062182613,0.17949207,0.26649722,0.04193015,-0.069339156,0.0875978,-0.078988045,-0.6183589,0.21516833,0.30454278,0.016572261,0.15286723,0.2259022,-0.026652757,0.0092981225,-0.04611935,-0.15018319,0.30722135,-0.01938544,-0.17969932,-0.24134229,0.07592734,-0.2913628,-0.22963011,-0.13323177,0.35283673,-0.16399404,-0.16690913,0.19725749,-0.25380138,0.020273648,-0.3910388,-0.2430131,-0.07109795,-0.08089136,0.3333181,0.05833559,0.020025998,-0.046380814,0.045869824,-0.035498016,-0.106471024,0.20358661,-0.30578917,0.103635155
MmeHucheloup::0.06750481,0.1488509,0.24926972,-0.028655782,-0.24605566,0.58875287,-0.38993293,-0.16391177,-0.1643831,-0.24732696,0.037750516,0.27483696,-0.16815339,-0.055207327,-0.2936798,0.1350955,0.1679546,0.0068434775,0.03810395,0.13876905,-0.36499044,-0.6254612,0.39660093,0.009699085,0.3247321,-0.018721374,-0.061103273,0.16899477,0.04837198,-0.08973002,-0.15270825,-0.18843755,0.19094914,0.36051932,-0.16153572,0.044611942,-0.18125866,-0.25773394,0.050732423,0.29943925,0.4221996,-0.10967321,0.09876139,-0.39530015,0.09164917,0.004748497,0.07410511,-0.06358221,0.2460579,0.018546537,0.19252288,-0.090951055,-0.29985476,0.09731133,-0.08902593,0.23753683,-0.46720493,0.009535676,0.08858572,-0.06452261,0.28373563,0.3471654,-0.4588465,0.46990615,0.15381312,0.03408476,-0.08090775,0.29246688,0.022505559,-0.02820751,0.067855954,-0.2995003,0.1861709,-0.14898072,0.07214101,-0.06203676,0.2495445,-0.4399441,-0.33390775,-0.0064464556,0.61955714,0.33943334,-0.3230698,0.32790416,-0.3071675,-0.0107418485,-0.2733218,0.09660557,0.030079812,-0.05037701,0.1424838,0.33481726,-0.054895345,0.013503169,0.35709158,0.03173922,-0.14624119,-0.31144118,-0.2615668,0.25546408
