Napoleon::0.01921143,0.20825365,-0.12364155,0.007362703,-0.0071686036,0.011265609,0.11765198,-0.16513006,-0.3356812,-0.13526163,-0.17906417,0.34978086,0.017548615,-0.052043296,-0.069474496,-0.30505762,0.078486994,-0.37652704,-0.33007094,0.24915054,-0.23263034,-0.32029834,0.028989738,0.27971,0.013572289,-0.02909839,0.20342098,0.44229645,0.47391644,-0.56456065,-0.22749327,-0.2763578,-0.048089992,-0.2476779,-0.14150277,0.2126014,-0.19697475,-0.19637184,0.0462539,0.06834197,0.09795184,-0.03386572,0.46148115,-0.34941474,-0.0064255493,0.1010067,-0.21568924,0.027268905,0.48196596,-0.12519751,0.22103894,-0.10942802,0.32968032,0.016585179,-0.15698875,-0.024439579,-0.18531299,0.17143136,-0.07389011,-0.27511376,0.016993579,0.007132174,-0.20129077,0.38884157,0.25889036,-0.16308816,0.36447474,0.07336324,-0.11909567,-0.043243572,-0.27272895,-0.41524306,-0.053131245,0.05283732,0.315245,-0.2783671,-0.18124141,0.22754626,0.11806435,-0.13892886,0.023950735,-0.15499903,-0.35567945,-0.09660732,-0.19069019,0.41303974,-0.5090933,0.21806796,-0.30493346,-0.20963088,-0.23656946,-0.07247334,-0.05578007,0.37227723,0.22760297,0.30944863,0.08677362,0.14353617,-0.3469675,0.07727019,-0.3595704,-0.40933862,-0.29014412,-0.22268058,0.015855936,0.06721559,0.17901911,-0.27313504,-0.12502223,0.1452417,0.03230179,0.24285878,0.12529835,-0.056824546,0.032315202,-0.03542551,0.18893318,-0.23599312,-0.27693743,-0.17833418,0.09760595,0.064739905,0.08034189,-0.20411615,-0.033858024,-0.062010203,-0.031291805,-0.047124628,-0.23638389,0.07829307,0.047319837,0.150576,-0.04012071,0.21360973,0.02611,-0.019004133,0.14226292,-0.39954993,0.121202104,-0.051661037,0.06500574,-0.05859385,0.07808753,-0.28496125,0.027260982,0.061712265,0.2782617,-0.060270682,0.36562422,-0.20562789,-0.47320414,-0.5689659,0.22453728,-0.06321323,0.16071673,-0.10036556,-0.11835746,0.28776905,0.28741595,0.07725997,0.10992802,-0.03121045,0.08704461,-0.19543934,0.18717737,0.050452013,0.19976874,-0.20171309,0.11111292,0.30536583,-0.19590275,0.46729538,0.19806294,-0.032924294,-0.07610181,-0.26415512,0.04402816,0.0071710637,0.039307263,0.33211404,-0.001438845,-0.06262713,-0.096261576,0.3373911,0.16004494,-0.049422327,0.0029420308,-0.32072264,-0.16292933,0.2566024,-0.7198442,-0.16771583,0.022433773,-0.011200495,-0.07411677,0.01500731,-0.042085815,-0.036679223,0.035556063,0.14669426
Myriel::-0.30516073,0.1482405,-0.06514391,0.21928442,-0.037022095,0.14376411,0.06647332,-0.10343218,-0.2070029,-0.070225574,-0.2062293,0.25768194,0.031066421,0.059058543,-0.033565536,-0.19841576,0.13569108,-0.36836967,-0.1508047,0.26922232,-0.28275418,0.03339922,-0.083297916,0.37084565,0.056082472,-0.08945379,0.21252222,0.42243642,0.28275192,-0.489377,-0.17578728,-0.1996271,-0.038237274,-0.21441416,0.05711525,0.29624182,0.03596101,-0.28119403,-0.06684317,0.04122712,0.030127173,0.046487086,0.4187086,-0.2827026,-0.1675665,0.021476876,-0.29717988,-0.0041357214,0.48881024,-0.075454965,0.1811182,-0.042459354,0.22618058,0.059092496,-0.13329256,0.026874064,-0.19482161,0.055116065,0.037122123,-0.08749127,0.040245377,0.011069478,-0.11929707,0.33810508,0.36615345,-0.11109384,0.2519803,-0.11856654,-0.08762384,-0.110905364,-0.35018256,-0.40473366,-0.018523777,-0.0763485,0.28614628,-0.32193282,-0.27181572,0.08189398,0.12238292,-0.11966295,-0.10815736,-0.10655598,-0.4587152,-0.14542086,-0.08858249,0.314811,-0.6198036,-0.05985564,-0.33163175,-0.27858436,-0.17575344,0.13849966,-0.03609765,0.28537795,0.20337401,0.2841655,0.13381055,0.30626443,-0.18854865,-0.1100626,-0.22270921,-0.42191806,-0.29790178,-0.05636157,-0.06382183,0.18194409,0.12726869,-0.3552075,-0.09738782,0.114709444,0.0053193485,0.1072,-0.018351294,0.24896647,0.21262251,-0.027063353,0.1161273,-0.32970777,-0.23664026,-0.051893074,0.043849204,0.08797359,0.10116429,-0.18898058,0.01022125,-0.17584471,-0.13857219,-0.08503283,-0.4257669,-0.046880543,0.04983814,0.23546617,-0.049077507,0.22490539,-0.089224696,-0.0052842633,-0.043819953,-0.45530632,0.13646653,-0.14010598,0.020650174,-0.0059718485,0.20686787,-0.3129004,-0.14061305,-0.03694208,0.19715199,-0.15198109,0.42910028,-0.013321974,-0.40694302,-0.4492508,0.10754759,-0.2981566,0.2597993,-0.017672265,-0.28810206,0.31698388,0.2953445,0.21389575,-0.13225763,-0.1759031,0.1590453,-0.24307205,0.31393987,0.07088096,0.10441371,-0.25519595,0.13552688,0.1403217,-0.10773792,0.2233813,0.25142923,-0.08813645,0.0033261434,-0.20174778,-0.001397963,-0.08537585,0.053435203,0.24535152,0.0024148163,0.026057933,-0.11554576,0.31477046,0.13678168,0.060919393,0.10527967,-0.11508658,-0.11211121,0.3418541,-0.59943014,-0.13670011,0.04366467,-0.034097034,0.07422021,-0.11786545,0.09827161,-0.019794643,0.17036876,0.13702472
MlleBaptistine::-0.07517714,0.34326905,-0.06558028,0.3239925,-0.13585019,0.12724622,0.037603796,0.043593183,-0.19364649,-0.1834362,-0.15060385,0.1991413,0.037923247,0.19799784,-0.055047587,-0.32689273,0.1384355,-0.3150566,-0.10589743,0.16699798,-0.24174984,0.06949434,0.12074579,0.18689594,0.046202693,0.044924464,0.03349449,0.26487967,0.15285748,-0.4901596,-0.10540523,-0.20441443,0.008848344,-0.050196204,0.12999828,0.24600333,-0.03672832,-0.32044274,-0.023356322,0.05117827,0.04856905,0.06393511,0.3970046,-0.28043652,-0.11225046,0.09262788,-0.15805797,-0.018890945,0.37313873,-0.102388024,0.06812264,-0.08918976,0.034110412,-0.032447807,-0.09855193,-0.026097402,-0.07567055,0.12273255,-0.107025966,-0.025908727,0.16114071,-0.061988477,-0.10022354,0.37330666,0.20765021,-0.09415706,0.18583307,-0.08810956,-0.11871679,0.008898919,-0.17164482,-0.23227188,0.059909206,-0.08800283,0.26548758,-0.34117562,-0.16253139,-0.06694117,0.06305152,-0.050886124,0.11353067,-0.19344734,-0.39547178,-0.19108729,-0.15372717,0.21190478,-0.35807833,-0.04182492,-0.093273155,-0.12179443,-0.07562049,0.20514241,0.05565507,0.024803108,0.08413861,0.21947639,-0.0015604352,0.24978967,0.025549779,-0.1079876,-0.12607686,-0.2760081,-0.087536,-0.07712642,-0.024631204,0.14073865,0.13703778,-0.18710874,-0.048192274,0.1691706,-0.12738527,0.14722943,0.0915388,0.15134087,0.15692152,-0.09850955,0.039395425,-0.28729966,-0.1126559,0.07669495,0.06580914,0.070049874,0.17016476,0.05794583,0.122894846,-0.23617043,-0.10539954,0.1882407,-0.1435404,-0.06146345,0.07063565,0.06583875,-0.055645496,0.023092933,-0.016769074,-0.0064787073,-0.040995505,-0.31347352,0.16951908,-0.115388334,-0.08076338,-0.041585606,0.14888303,-0.15709828,-0.19838436,0.08758052,-0.12802066,-0.14452834,0.3414517,0.028121823,-0.2699108,-0.3077268,0.07002529,-0.100927696,0.25275698,-0.049205843,-0.17546329,0.3227287,0.06597189,0.14392653,-0.037354212,-0.18006115,0.2138284,-0.19051704,0.090777695,0.054788187,0.015143152,-0.2487214,-0.05110031,0.099409744,-0.056827106,0.116246335,0.19090348,-0.046188958,0.037025735,-0.16319443,0.11486303,-0.11956808,0.10735546,0.10292108,0.12188285,0.015324617,-0.07170021,0.24790059,-0.016246503,0.059765767,-0.047818348,-0.047031775,-0.16726223,0.09378783,-0.324415,-0.07595505,0.063861735,-0.10073885,0.004795576,-0.08607108,0.003892878,0.019105516,0.07933514,0.23651935
MmeMagloire::0.010522163,0.2956647,-0.055448636,0.32529473,-0.08213655,0.16640668,0.00042875434,0.07927015,-0.17243351,-0.22122699,-0.114539154,0.16742961,0.061695382,0.27681485,-0.021869514,-0.29498312,0.07583426,-0.27168545,-0.101562746,0.12511526,-0.21135527,0.051946294,0.11192604,0.21458638,0.10722419,0.0027432493,0.031376656,0.2704307,0.07225335,-0.52575326,-0.07908741,-0.15019423,-0.058577057,-0.025537403,0.17900084,0.22583404,-0.01738063,-0.2455643,-0.0032939136,0.044925757,0.04616118,0.028347617,0.36954316,-0.27900985,-0.12799464,0.104166456,-0.1367817,-0.07388046,0.36079657,-0.1617347,0.0776089,-0.14463979,0.007753646,-0.07054631,-0.102625996,-0.007049713,-0.058876302,0.12379523,-0.15984167,-0.022453833,0.23405194,-0.06216682,-0.09786414,0.3959023,0.21183245,-0.16198243,0.15786214,-0.12781404,-0.12002802,-0.0033197703,-0.098292835,-0.22678849,0.023469297,-0.15904847,0.25105166,-0.38963288,-0.11719615,-0.14651251,0.06111776,-0.002785614,0.096543565,-0.22659256,-0.39441374,-0.19185515,-0.13803738,0.2920779,-0.34022033,-0.05751418,-0.021758437,-0.14742562,-0.03044349,0.26336056,0.12595518,0.14708927,0.02246015,0.1135033,0.048852887,0.24258338,0.12403674,-0.12587142,-0.16854015,-0.24254501,-0.10835861,-0.047726043,-0.047706395,0.187658,0.19072995,-0.1756533,-0.040625826,0.09633708,-0.12414809,0.07201991,0.12541571,0.18132696,0.13675551,-0.056851763,0.009872645,-0.33453926,-0.06731632,0.10486188,0.20525593,0.04174114,0.115747176,0.066507794,0.11553541,-0.17320159,-0.051603038,0.22210911,-0.12431804,-0.036225528,0.100928776,0.009593001,-0.08070017,0.011384709,0.027690543,-0.024678102,-0.028789327,-0.20986708,0.18515949,-0.10997217,-0.10225576,0.022904096,0.22227699,-0.15627217,-0.16463502,0.075513914,-0.15414745,-0.1448381,0.3731425,0.029542841,-0.2700812,-0.36050558,0.072013415,-0.13727456,0.2946598,-0.060979135,-0.12526877,0.30045,0.08405358,0.18471454,0.009552778,-0.20740187,0.25874168,-0.21790962,0.12966351,0.094732486,0.013427432,-0.25713134,-0.12591492,0.101918235,-0.061584316,0.096247,0.1741382,-0.14097598,-0.00815583,-0.28294757,0.14978634,-0.069983885,0.04962831,0.12949532,0.07357028,-0.06409472,-0.06868362,0.21337609,-0.02416914,0.10190847,-0.10551631,-0.04326171,-0.22826858,0.1247397,-0.35432053,-0.093314365,0.1053132,-0.1717156,-0.028815791,-0.1264741,0.0092681525,0.029758852,0.11190386,0.23055181
CountessDeLo::-0.21657236,0.09621967,-0.17784886,0.29435623,-0.017495433,-0.012645901,0.23510112,-0.035022642,-0.574824,-0.052988734,-0.20775273,0.25870076,-0.03298729,-0.08269217,-0.18728335,-0.4293594,0.32037145,-0.45151958,-0.28442356,0.2943045,-0.1701368,-0.054169975,0.012932275,0.3633381,-0.1362959,-0.049058933,0.28932756,0.40448904,0.33418742,-0.5711166,-0.33050784,-0.2538735,0.045424797,-0.31195435,-0.08140115,0.27778405,-0.26165685,-0.52878624,-0.088330634,0.05293088,0.13419525,0.007148635,0.35015467,-0.25108483,-0.09666145,-0.015794562,-0.44662836,-0.016793048,0.38780338,-0.23023756,0.211397,0.1512196,0.5787344,0.06286157,-0.27163965,0.054044396,-0.24225251,0.30321425,-0.043259718,-0.04540114,0.010256547,-0.09149863,-0.16645356,0.4273199,0.34221417,-0.14556105,0.3300778,-0.18057883,-0.014811121,0.065126635,-0.4063114,-0.3363785,-0.07532885,0.07484494,0.24882126,-0.375627,-0.36522642,0.19504073,0.1649565,-0.34196788,-0.17232744,-0.026583388,-0.31697476,-0.0967848,-0.28509796,0.46808332,-0.60811484,-0.02630753,-0.3856683,-0.17442416,-0.07734698,-0.09950896,-0.30584523,0.3739955,0.24892104,0.3677113,0.18139055,0.35541493,-0.22065598,0.094900936,-0.15107945,-0.4322346,-0.17925532,-0.13014619,-0.1575052,0.04895555,0.13982366,-0.43029064,-0.13874334,0.18669228,-0.022234542,0.11752978,0.010098795,0.06375614,0.15991753,-0.012673369,0.013945516,-0.32495046,-0.24850544,-0.12410644,-0.12596303,0.05558775,0.087203756,-0.15388867,-0.054999005,-0.323149,-0.17004329,-0.059477862,-0.3395319,-0.13420083,0.016902922,0.23654227,-0.13319746,0.22163294,-0.053788606,-0.08719716,-0.0006372429,-0.43358657,-0.060961623,-0.11070111,-0.15722132,0.03434078,0.103285484,-0.3821297,-0.16933662,-0.036473386,0.15672135,-0.0143591715,0.31700638,-0.038360596,-0.5153707,-0.49382317,0.037912197,-0.2538113,0.33487523,-0.014905931,-0.32049394,0.3600779,0.41375473,0.14183056,-0.16382398,-0.18188739,0.14863423,-0.23889591,0.2651447,-0.029106373,0.25619403,-0.13535935,0.0036435788,0.21121976,-0.11705701,0.37221333,0.35328758,0.035736807,0.053827755,-0.15719691,0.08279651,-0.123953454,0.0765144,0.35656607,-0.07554217,0.113889165,-0.054623436,0.26765713,0.008186459,0.0022666294,0.2635783,-0.12256463,-0.11277692,0.36694804,-0.6072617,-0.19641663,0.18499865,0.11617433,-0.038179766,-0.13274775,0.06653063,-0.06327722,0.15899536,0.07860578
Geborand::-0.09323033,0.30165592,-0.12396457,0.009070124,0.11209695,0.14545558,0.2202009,-0.23249784,-0.26288852,-0.17626455,-0.12555777,0.026524104,0.05206753,-0.12714912,-0.181897,-0.20373198,0.18708742,-0.5112499,-0.26631927,0.2586379,-0.2640372,-0.28286996,-0.105836056,0.47954854,0.07689234,-0.10142248,0.27948526,0.4076988,0.33001584,-0.5942406,-0.34893712,-0.28187785,0.043144535,-0.31392407,-0.1590495,0.42283022,-0.06830744,-0.289173,-0.12783973,-0.048037905,0.23264313,0.030118242,0.41449374,-0.21661432,-0.06667915,-0.11191392,-0.27642527,0.012022757,0.6516296,-0.07574457,0.25426772,0.08988789,0.46343252,0.046198763,-0.26154453,-0.020096041,-0.3064035,0.22942798,-0.17993714,-0.22860853,-0.0793143,-0.12824829,-0.14276621,0.501966,0.17205879,-0.11658793,0.18054213,-0.24688028,-0.06359764,0.03442075,-0.2963324,-0.41096416,-0.011341498,-0.061001394,0.21528567,-0.29024795,-0.36849767,0.112609595,0.25585765,-0.12595637,-0.2340464,-0.12973279,-0.5749569,-0.12361529,-0.10421854,0.43084708,-0.7039972,-0.013189313,-0.238382,-0.24650957,-0.0642464,0.023761708,-0.056715507,0.35275576,0.13197923,0.13999073,0.28980106,0.2629778,-0.2007431,-0.07343803,-0.2629599,-0.35545453,-0.2946965,-0.12868007,-0.12576994,0.35656142,0.20878965,-0.29236594,-0.07800024,0.08531121,0.006791623,0.028320506,-0.005138547,0.11441874,0.18834892,0.015861467,0.09493019,-0.3552313,-0.27629507,-0.28276515,0.10302654,-0.07414283,0.14454676,-0.26297528,-0.18863066,-0.045104455,0.017130313,-0.045761507,-0.20654348,-0.0229785,0.13373175,0.029515086,-0.013322758,0.1507127,0.13227908,-0.06364378,0.049642865,-0.30862868,0.03332501,-0.1851443,0.013742578,0.14006191,0.16603632,-0.41890773,0.04367994,-0.08974429,0.23800601,-0.24551316,0.46241802,-0.10536332,-0.42332494,-0.5277685,0.08994618,-0.454553,0.33709982,0.099716306,-0.14589104,0.32016468,0.33341593,0.26117134,0.01668784,-0.09086512,0.18024881,-0.30927572,0.2148984,0.011024593,-0.008217495,-0.3731232,0.14989522,0.1778594,-0.16438112,0.27986094,0.199691,-0.15041055,-0.019152563,-0.34745526,0.07715584,0.021950826,-0.03541192,0.28816187,-0.049509548,-0.15027139,-0.13146211,0.26712403,0.17136213,0.0543977,0.1546918,-0.070859924,-0.16875553,0.41135448,-0.5967536,-0.19306137,0.077032425,0.016632507,0.018761696,-0.04926682,0.059805598,-0.028165957,0.18392298,0.071917474
Champtercier::-0.28845328,0.3596526,-0.04903129,0.1274751,0.0457198,0.094352975,0.1745833,-0.05313473,-0.27244276,-0.18330754,-0.12036605,0.4003317,0.06523222,0.16012758,-0.034578774,-0.3681422,0.23680589,-0.5025962,-0.22167422,0.36829403,-0.27826297,-0.03835783,0.0066670235,0.3854845,0.008325532,0.031225441,0.32331613,0.49283615,0.23747292,-0.57827234,-0.25151262,-0.25957322,0.030172614,-0.1158701,0.033940695,0.5384754,-0.095374145,-0.40874854,0.013454668,-0.14861368,0.14276092,0.1408702,0.2886433,-0.3900152,-0.13371488,0.101256214,-0.2589659,0.0066164904,0.55125177,-0.016492123,0.05049071,-0.12175158,0.18932104,0.20381352,-0.050598245,-0.07717973,-0.23590294,0.18579073,-0.07987576,-0.08139546,-0.17114791,-0.079602726,-0.21350949,0.45297793,0.34015945,-0.08198861,0.27955845,-0.034154024,0.036619622,-0.0004901665,-0.28548333,-0.22994779,0.08952791,0.08104538,0.40835407,-0.4102752,-0.34702915,0.050051153,-0.0200649,-0.13868028,-0.06009393,-0.17611362,-0.61705744,-0.18280683,-0.1301271,0.32802847,-0.54151446,0.12847924,-0.2877985,-0.19649972,-0.1968874,0.07880818,-0.075034566,0.22056255,0.32314464,0.36947381,0.12604126,0.45023754,-0.038374946,-0.04281928,-0.14237182,-0.52449137,-0.2161424,-0.053007998,-0.13889898,0.15528281,0.1631262,-0.31706598,-0.025928402,0.18088262,0.014353487,0.090901345,-0.14305443,0.10075947,0.20098726,0.013173182,-0.01780643,-0.42853275,-0.1962916,0.0041956995,0.038617976,0.04932307,0.074323334,-0.10890159,0.14862885,-0.2114288,-0.069208615,0.068518765,-0.2309387,-0.16533254,0.13770036,0.27408516,-0.024636706,0.25941753,-0.17301701,0.040436745,0.110856585,-0.5559325,0.18493266,-0.14148133,-0.007511234,-0.023677858,0.029909348,-0.25491756,-0.012114889,-0.03894489,0.25946483,-0.12403372,0.3891185,-0.050249018,-0.37069082,-0.5686269,0.17734438,-0.113683544,0.08486617,-0.23223972,-0.4035716,0.3292337,0.3054316,0.1660541,-0.056849867,-0.10328481,0.06295672,-0.16121742,0.14173202,0.040969387,0.06777958,-0.1285404,0.09905554,0.17836635,-0.3462608,0.34392187,0.13505493,0.06960266,0.2217889,-0.10314994,0.13863204,-0.023433333,0.21422371,0.24236017,0.12650438,0.10778418,-0.07257151,0.3337752,0.058966503,-0.087738454,-0.022184113,-0.03938679,-0.08294114,0.3006195,-0.6752189,-0.106085844,0.1376356,0.05153636,0.06587725,-0.0332545,-0.051757555,0.01574777,0.1852723,0.15007377
Cravatte::-0.036940034,0.3697986,-0.14071512,0.06882554,-0.0036700852,0.072530285,0.27866802,-0.13340218,-0.37826726,-0.14958505,-0.1283891,0.1750727,-0.04264595,-0.084561594,-0.031083113,-0.2866052,0.06657165,-0.4843591,-0.36285585,0.3403124,-0.30407932,-0.13778701,0.1007235,0.38756052,0.017525183,-0.07675434,0.27272308,0.5299836,0.30997565,-0.646389,-0.31385958,-0.39457074,0.12441246,-0.27574065,-0.14033541,0.54649717,-0.097909614,-0.48665673,0.029192625,-0.060509603,0.24896063,0.088218465,0.3900472,-0.37438065,0.00024203787,-0.16607444,-0.347144,0.03500605,0.5283536,-0.09296449,0.07121997,0.10658653,0.56920654,0.026149657,-0.2652766,-0.052007575,-0.42722687,0.2362328,-0.18675414,-0.2473922,-0.091808334,-0.1500333,-0.40122238,0.59207445,0.2948329,-0.015181031,0.21786486,-0.25956923,0.035960104,0.08031029,-0.441273,-0.27459186,0.14225538,0.09337652,0.2884361,-0.46626303,-0.3899122,0.038440295,0.22268201,-0.2771688,-0.27034727,-0.05373189,-0.44056833,-0.28546458,-0.2046285,0.47362286,-0.57778096,0.09266948,-0.20676187,-0.23778507,-0.13767196,0.016166475,-0.112204544,0.12192398,0.25204802,0.41840184,0.15637502,0.22297588,-0.26790494,0.024529833,-0.2728297,-0.5548291,-0.36733204,-0.13422251,-0.18220548,0.26582262,0.114503875,-0.28446487,0.010911928,0.09268896,0.06065541,0.11795881,-0.032866005,0.08200997,0.2388645,0.07155582,0.05305338,-0.33279172,-0.1728549,-0.07085286,0.07217021,-0.08077408,0.15700105,-0.18716335,-0.08985348,-0.08915906,0.13512656,0.078190885,-0.21303181,-0.18354112,0.1862245,0.11596284,-0.043233514,0.18190448,-0.065932356,-0.048758294,0.008221693,-0.5098077,0.102212265,-0.18485461,-0.18694612,0.07489694,0.0691985,-0.4375202,-0.13947222,0.026737493,0.14015374,-0.11153126,0.48274493,-0.012014834,-0.4847237,-0.43362743,0.16165367,-0.25427848,0.23450212,0.062136162,-0.24087095,0.33544418,0.1934703,0.25218984,-0.18381467,-0.036386374,0.005142053,-0.2742124,0.12611866,0.010199701,0.059864797,-0.4533002,0.22860225,0.104233846,-0.19763823,0.3475224,0.2464264,-0.016391257,-0.04957884,-0.19344205,0.19181134,-0.066647574,-0.1581689,0.26645336,0.14629336,-0.09962607,-0.06957717,0.26713917,-0.0382263,-0.003040261,0.08120108,-0.16027111,-0.1724878,0.48564953,-0.5689734,-0.14712445,0.03248066,-0.104843274,0.1462225,0.0077126226,-0.16796856,0.020471785,0.17316338,0.0133744525
Count::-0.30721685,0.26897556,0.0055500916,0.23710133,0.012006777,0.16021693,0.22630635,-0.19968042,-0.3004779,-0.27408993,-0.014633732,0.13620901,0.122366376,0.072107986,-0.14564131,-0.35439074,0.29151627,-0.5108297,-0.1689841,0.24038106,-0.30219385,-0.08736919,-0.06960251,0.5032971,-0.09227832,0.07464147,0.35007486,0.6513677,0.41809982,-0.6963938,-0.45939133,-0.1698045,0.075325355,-0.175898,0.050852027,0.32778567,-0.1626238,-0.2909563,-0.10176095,-0.08018927,0.16288696,0.0430514,0.46534988,-0.1199297,-0.09916361,0.063983425,-0.23748559,0.04186089,0.60750747,0.037608366,0.06559011,-0.09356667,0.3758671,0.07575639,-0.21233816,-0.13439219,-0.16046958,0.22951533,-0.16312842,-0.27651477,-0.1187683,-0.16355252,-0.031734485,0.5613471,0.10590777,-0.226234,0.21964644,-0.1801893,-0.0762715,0.018040935,-0.32206208,-0.477346,0.057487447,0.031609338,0.36785996,-0.40272924,-0.29651383,0.20542979,0.3170104,-0.07868787,-0.13386007,-0.2103206,-0.61790794,-0.26359117,-0.21715802,0.2405265,-0.6048954,-0.016803257,-0.26564214,-0.36121923,-0.09230993,0.2942536,-0.016578345,0.2965045,0.20515874,0.38964295,0.26872307,0.26023078,-0.052950896,0.019018648,-0.2957926,-0.37546426,-0.09049691,-0.15301855,-0.06538906,0.18658084,0.24998254,-0.294772,-0.12679604,0.15599173,-0.07092955,0.026955483,-0.105701245,0.22606973,0.1793684,-0.014716137,0.25385645,-0.36720157,-0.18310782,-0.29815137,-0.033484966,-0.08878718,0.15821663,-0.2513823,0.035091445,-0.14488877,-0.03591926,-0.12979643,-0.2914503,0.017117754,-0.092069,0.040346745,-0.014655145,0.21769537,-0.17685585,-0.034566373,0.05972621,-0.47303936,-0.05388811,-0.31776446,0.001136103,0.10237894,0.20839581,-0.4712673,-0.06492313,-0.059837595,0.4071992,-0.18040644,0.42053944,0.017800132,-0.232658,-0.50392663,0.03988731,-0.41716066,0.25492507,-0.16025212,-0.27631137,0.3339364,0.4266025,0.22568305,-0.007144264,-0.15748554,0.14330526,-0.20547454,0.21421188,0.000979359,-0.089428745,-0.37573338,0.18348096,0.27346784,-0.32905132,0.21584353,0.2048102,0.008694553,0.15927315,-0.23742224,0.039428968,0.15827447,0.06376056,0.15245537,0.10876139,-0.023083776,-0.24152783,0.48837072,0.2630193,-0.036732044,0.07725146,-0.13116954,-0.16600557,0.40235165,-0.56494683,-0.07264808,0.052571613,0.108273596,0.21790421,-0.067341834,0.1594233,-0.053884,0.20705372,0.21090008
OldMan::-0.27483475,0.29586658,-0.09697123,0.17376818,0.023937909,0.16285188,0.21134311,-0.1188575,-0.35916898,-0.25396076,-0.06819222,0.28529662,0.09955879,0.09655421,-0.2157117,-0.43610585,0.17673256,-0.60473645,-0.22919793,0.19763646,-0.2168228,-0.20199566,-9.187588e-05,0.38647917,0.09849511,0.031061595,0.199755,0.5581874,0.46989942,-0.6681154,-0.38859186,-0.30875248,0.086624265,-0.31823668,0.01281408,0.23996611,-0.14695197,-0.37173265,-0.08356246,-0.024123058,0.09547777,0.034507547,0.57821256,-0.28281468,-0.14451031,0.094566844,-0.32356316,-0.020066818,0.6293831,-0.097285,0.01608241,-0.12525578,0.38060004,0.14182624,-0.22007182,-0.13008676,-0.12013436,0.19926888,-0.15648575,-0.154505,-0.07803982,0.015298962,-0.1194431,0.45982298,0.23871939,-0.05420862,0.35892493,-0.14559852,-0.26543373,-0.040795963,-0.50277865,-0.6942959,0.04621896,0.11714948,0.46370468,-0.3052373,-0.34283242,0.13821507,0.120565124,-0.20984152,0.054891314,-0.17161468,-0.42492995,-0.2655305,-0.08056635,0.23854952,-0.55284345,0.14600319,-0.35531986,-0.34095085,-0.186825,0.16429321,-0.0755478,0.30815074,0.23188767,0.34631193,0.08082234,0.3041747,-0.20533817,0.032144014,-0.31570923,-0.32363787,-0.18142569,-0.087264314,-0.07221752,0.030776577,0.33912322,-0.3873883,-0.12948485,0.09762115,-0.17462307,0.24602559,0.054688837,0.09043669,0.28794837,-0.19922064,0.23949718,-0.33271968,-0.26106012,-0.30208787,-0.19097956,-0.008159814,0.1332574,-0.2956715,-0.00073453435,-0.14459936,-0.043090917,0.08941551,-0.15428008,-0.0020339133,0.025519086,0.15174395,-0.043834697,0.25908813,-0.051157802,-0.055158146,0.009705505,-0.5519499,-0.11656647,-0.32634085,-0.0013905573,0.053716168,0.09229193,-0.46064484,-0.0146068605,-0.07775671,0.25464138,-0.31180942,0.36527458,-0.064287685,-0.4309787,-0.4027969,0.08206431,-0.30669278,0.3029851,-0.014789533,-0.23438907,0.29056674,0.35606462,0.029859113,-0.10268675,-0.0813057,0.17096451,-0.21405339,0.17027248,0.07399488,0.0034883888,-0.37166053,0.17698655,0.1494279,-0.32788616,0.30485153,0.06585777,-0.04358637,-0.07546603,-0.08994467,-0.029896166,-0.048882857,0.16908449,0.18268406,0.0020507986,-0.016692482,0.039136544,0.45594588,0.25431246,0.118075125,0.15362613,-0.06960057,-0.052553125,0.23944126,-0.66716224,-0.028180858,0.084852345,-0.035875086,0.12283059,-0.10152356,0.23749541,-0.11263263,0.07964926,0.23741914
Valjean::-0.027057724,0.20243424,-0.020654839,0.058691442,-0.050556514,0.13777907,-0.0086479625,0.058405265,-0.090837546,-0.06860511,-0.07354451,0.17308211,-0.030502882,0.10031741,-0.0038916545,-0.14242272,0.054434955,-0.24306029,-0.029584039,-0.038295716,-0.095464304,0.019064212,0.043328647,0.070395045,0.06228248,0.048443343,-0.06196711,0.047804054,0.020851346,-0.070545174,0.008497555,-0.1220374,-0.080998056,-0.121426575,-0.04671426,0.08520071,0.08078724,-0.1351038,-0.13413224,0.06079815,0.0976711,-0.016629022,0.20701885,-0.1684274,0.05348954,0.111888096,0.011450146,0.07619498,0.25389227,-0.12063767,-0.027121583,-0.1309916,-0.11331746,0.04820374,0.053947236,-0.06307847,0.12233353,0.068419375,-0.106276825,0.042601053,0.025569279,0.047214348,-0.086590014,0.14207846,0.08409791,-0.033291727,0.044875696,-0.054791722,-0.17873722,-0.005818294,0.0004039098,-0.16111326,0.119115844,-0.13687693,0.17874464,-0.17470075,-0.09265449,-0.18556996,-0.020980667,-0.055293784,0.13242868,-0.15014058,-0.07781417,-0.025065888,-0.19940215,0.063244954,-0.14679791,-0.08433582,0.15435086,0.048386976,-0.013074116,0.17196642,-0.17671254,-0.1414203,-0.0058924747,-0.026136706,-0.0014109312,0.32614246,0.1890029,-0.09636556,0.036948413,-0.18154983,-0.060199447,-0.018727535,-0.07839642,-0.035699334,0.1264632,-0.018830616,0.13026981,0.21193552,-0.13344285,0.2701973,-0.031212693,0.029911561,0.03301874,-0.11805714,-0.14663044,-0.38872647,-0.14065877,-0.027641166,-0.08875253,0.115817025,0.10926497,0.18644923,0.12121978,-0.28278452,-0.10283614,0.1756207,-0.27290428,-0.042827252,-0.05959069,0.09315845,-0.02784648,0.18931712,0.06449572,-0.21105255,-0.04206169,-0.13303444,0.11571823,0.010690036,-0.0017021291,-0.050320778,0.014458389,-0.014995155,0.007708281,0.1278003,-0.19199452,0.08073386,0.13973904,0.032841403,-0.049932946,-0.25808936,0.072662994,-0.10270091,0.07246075,0.06529566,-0.18835323,0.10894276,0.06699313,0.30257747,-0.0413583,-0.07365696,0.17056681,-0.12390661,-0.016051749,0.14546691,0.006548762,-0.070999846,-0.18659583,-0.08528374,0.017434333,0.005667503,0.03836966,0.012582565,0.1292074,-0.0064495965,0.09801362,-0.20288458,0.26471192,-0.00491503,0.0023997563,-0.013611928,0.01211915,-0.007588251,-0.0136922095,0.07410031,-0.08854399,0.1234502,0.057215028,-0.07009603,-0.12130339,-0.033720758,0.06890414,-0.04977795,0.05165661,-0.22658284,0.06260556,-0.0026693912,0.0043530776,0.14497277
Labarre::0.133995,0.1807264,-0.12319388,0.051298235,-0.017056348,-0.05138462,0.043642998,0.35570726,-0.31118554,-0.032239668,0.019857822,0.29078534,-0.043468833,0.35195252,0.029154906,-0.2236552,0.028067756,-0.3912342,0.11486551,-0.07187308,0.14053802,-0.029397462,0.09573182,-0.03718017,-0.005265913,-0.038881343,-0.03635971,0.17127728,0.04685898,-0.16990621,-0.16450754,-0.2894881,-0.08706529,-0.2048584,-0.08852017,0.18677135,0.10997597,-0.27394408,-0.2109859,-0.100565106,0.051784657,-0.058390237,0.19637237,-0.3686431,0.09642354,-0.021707192,-0.02020432,-0.091248624,0.31484616,-0.23409505,-0.14945042,-0.18067455,0.034068327,-0.0015540847,0.039583992,-0.06905623,0.1130416,0.019946847,-0.095884606,0.09847747,0.08726344,0.15715861,-0.1863801,0.1787381,0.16987002,0.06279325,0.15485795,0.04125827,-0.17480206,-0.032334138,-0.014476892,-0.20133725,0.25572076,-0.20376097,0.22998923,-0.1616365,-0.111831605,-0.17568816,-0.02450703,-0.032855753,0.01760952,-0.010608878,-0.06825644,-0.08998662,-0.25696257,0.09734118,-0.06362639,0.014877477,0.12789266,-0.03261933,-0.11336941,0.105334595,-0.13450179,-0.1955348,-0.052480858,-0.01894957,0.043746237,0.20389377,0.17731816,0.06652569,-0.008401087,-0.22310074,-0.11186913,-0.020009017,-0.19374914,-0.096452124,0.041846886,-0.05191872,0.08935653,0.1618084,-0.111104265,0.18620871,0.11532448,0.07900234,0.14671457,-0.13480006,0.004119192,-0.3420166,-0.036660556,0.04990778,-0.0098072905,0.08648439,0.057884265,0.17471963,0.09834296,-0.4422341,-0.01640813,0.22509584,-0.16418517,-0.022424195,0.035336584,0.0008159369,0.060642023,0.09274603,-0.057457704,-0.15966853,-0.13298312,-0.21459779,0.17816949,0.1410458,-0.08469336,-0.08527866,0.07319196,0.09837954,-0.1670708,0.063576326,-0.10073627,0.17843589,0.088472396,0.053360783,-0.096121795,-0.1381464,0.05287045,-0.029022684,0.283016,0.0190625,-0.103012055,0.132744,0.03012626,0.25009853,-0.007093429,-0.08983263,0.16754818,-0.05588749,0.08211692,0.13202448,0.009251284,-0.14440423,0.0033821473,-0.037753306,-0.015318541,0.0079285735,0.034475066,-0.026399119,0.20048499,-0.08935423,0.15972906,-0.14912353,0.20126763,-0.016126268,-0.064441204,-0.020601092,0.08824419,0.008770928,0.00146897,0.07427455,-0.07097666,0.021805745,0.16680513,0.14680658,-0.25778943,-0.13706805,0.047291342,-0.13206498,0.1312774,-0.24024606,0.2635795,0.14651915,0.075579606,0.11326459
Marguerite::-0.06334132,0.27747563,0.072118625,-0.0004896355,-0.049706828,0.017120253,0.10691132,0.35630193,-0.22817439,-0.089017205,0.0139948465,0.12278508,-0.00412632,0.2377273,-0.18683903,-0.44631508,0.035165064,-0.2688086,0.07670814,-0.13980055,0.07242827,0.09276418,-0.07672965,0.072449975,0.11393152,0.1146368,-0.1331941,0.15998377,-0.0034889162,0.005911207,0.0037287197,-0.19296339,0.00078778295,-0.25706044,0.020151759,0.003070804,-0.014145855,-0.18191889,-0.14410569,-0.08232088,-0.035647374,-0.074097,0.33107334,-0.0131402435,-0.019805055,0.076036304,-0.07433681,0.056608047,0.31723398,-0.23439941,-0.23651671,-0.06867523,-0.024304846,0.20826918,-0.04522608,-0.1142385,0.10810155,0.048567384,-0.06375728,0.10885441,-0.19361229,-0.096727476,-0.15221366,-0.0027567737,-0.015030641,0.030767066,-0.068106435,-0.22605315,-0.14096595,0.0759441,-0.19440423,-0.26244137,0.18403204,0.10504349,0.015021887,-0.18851238,-0.15229304,-0.27075678,-0.041470904,-0.11778365,0.06488194,-0.19924305,0.15347257,-0.024199454,0.022316571,0.08565199,-0.078958735,-0.021672228,-0.057735797,-0.042581517,0.018596262,0.2127055,-0.1857205,-0.10197729,0.0030470036,-0.09732015,0.008913874,0.3902323,0.21619777,-0.12775424,0.068982355,-0.047839098,-0.083541535,0.117483325,0.120544694,-0.122545,0.15703377,-0.14729615,0.08482168,0.12029031,-0.20385131,0.025267916,-0.11909711,-0.100540414,0.08886425,-0.16654217,-0.045955516,-0.27314228,-0.19646662,-0.011976447,-0.32117733,0.07208955,0.096778385,0.097955555,0.038138855,-0.1823943,-0.1031906,0.11418624,-0.24699596,-0.12179114,-0.040360227,0.098187305,0.024359224,0.16355051,0.05043693,-0.18965337,0.044846576,-0.032555744,0.029417189,-0.062020794,-0.08887022,0.107373714,0.12888673,-0.07990436,-0.004007344,-0.034491852,-0.14981417,-0.23781163,0.20813835,0.1492487,-0.062340114,0.010333372,-0.0745666,-0.1622012,0.030948106,0.0020760712,-0.04196635,-0.11758493,0.09974003,0.08473222,-0.05234963,-0.10172025,0.12846673,-0.036965646,-0.06345849,0.10827164,-0.05285507,-0.06314988,-0.20539333,-0.09580842,0.011108341,-0.008880277,-0.2060093,0.09681496,0.036871918,0.10465153,-0.025945341,-0.24050689,0.18244988,-0.03403132,-0.042071946,-0.015325378,0.18984418,-0.080486774,0.048302375,0.07068383,0.19912583,0.209082,0.06359519,0.009361191,-0.16990475,-0.08317132,0.2568816,-0.051784914,0.04910558,-0.32466674,0.32748812,-0.004273411,-0.09924269,0.17509124
MmeDeR::0.026837008,0.3401353,-0.02575479,0.15708642,-0.102635585,0.018995747,-0.059690148,0.31342268,-0.26568866,-0.07453695,-0.01580602,0.39215016,-0.033607922,0.37041587,0.042770725,-0.340766,0.11501432,-0.3301587,0.025333518,0.15980203,-0.017292311,-0.017550798,0.07034549,-0.017603014,-0.065705895,-0.07894515,-0.015041251,0.16924594,0.064183995,-0.21850382,-0.024258876,-0.1561468,-0.07568337,-0.111660056,-0.08537571,0.17674333,0.0479261,-0.236572,-0.1347022,-0.12029908,-0.013151879,-0.06607277,0.22389254,-0.30694085,0.029370964,0.05581998,0.09353487,-0.015722496,0.29996356,-0.23147935,-0.07100357,-0.18858126,-0.16199987,0.101475805,0.017267412,-0.03328869,0.05478809,-0.032578796,0.083263576,0.06314624,0.06661799,-0.033326633,-0.21891405,0.12518805,0.21185821,-0.037918914,0.11726862,0.015697049,-0.08541473,-0.019635646,0.08001004,-0.06054214,0.2193406,-0.044840403,0.1431326,-0.13900284,-0.13517056,-0.16282979,-0.09300309,-0.020048853,0.056518298,-0.1167247,-0.25756085,-0.13816513,-0.2547647,0.14812376,-0.1517613,0.045196313,-0.059586823,0.09139343,-0.11153908,0.08264151,-0.015509616,-0.06682675,0.047064148,-0.048914246,0.0062241848,0.21472271,0.20459852,-0.21040452,0.016591646,-0.18935469,-0.13476187,-0.07070477,0.0015556545,-0.07288591,0.11468427,-0.066111386,0.10406069,0.25081596,-0.06586362,0.16510078,0.047677804,0.052153166,0.010043286,-0.17211835,0.03196005,-0.24268813,-0.09106831,0.22622347,-0.01662596,0.2747708,0.1050154,0.0863057,0.10610567,-0.3976874,-0.12694243,0.14050058,-0.3009878,-0.09282741,0.03105534,0.1496386,0.10688602,0.037762485,0.04644658,-0.018041728,0.054191664,-0.23196137,0.34453887,0.11940735,-0.028123947,-0.17745939,0.098299704,0.1061899,-0.060742337,0.011574273,-0.08902518,0.08119763,0.20839305,-0.020365195,-0.1206875,-0.200083,0.09033422,0.07932146,0.079893135,-0.12174416,-0.08067771,0.15659407,-0.00024218677,0.27216926,0.10195231,-0.15274936,0.15338814,-0.12847473,0.10051147,0.09013539,0.15112159,-0.08898686,0.0054464117,0.1829357,0.029199373,0.11370844,-0.0131930495,0.053695545,0.16011858,-0.18844047,0.0816898,-0.19635233,0.18948573,0.035034675,-0.032331154,-0.019137934,0.07391436,0.047848217,0.049290672,-0.06252659,-0.08696094,-0.008050236,0.12298318,0.058094703,-0.22913834,-0.15301499,0.08652706,-0.08970346,-0.0747275,-0.1599788,0.09676176,0.09003879,0.043033075,0.14993411
Isabeau::0.10240463,0.3574755,0.0045947903,0.25671825,-0.15527165,0.20036142,-0.07963022,0.3864847,-0.27581415,-0.07573338,0.013184167,0.23611897,0.0058820103,0.41339967,0.022924729,-0.4217393,-0.0019979146,-0.42334148,-0.020512305,0.048863232,-0.01740324,-0.04332878,0.12912218,0.12278566,0.120917685,0.07390159,-0.12659289,0.27048284,0.02027916,-0.26870295,-0.018731035,-0.13871755,-0.07186473,-0.21300085,-0.02860329,0.089472674,0.21720132,-0.32286394,-0.113164715,0.0028541414,0.045618106,-0.027417472,0.2533122,-0.23909982,0.057575054,0.11693413,0.08550845,0.097105525,0.26288334,-0.2818562,-0.15327708,-0.23792894,-0.27107078,0.08010348,-0.014859494,-0.14548774,0.12010423,0.026681414,0.06472395,0.14134054,0.061465062,-0.0033933881,-0.15967794,0.11422742,0.14367224,-0.04612168,0.08215958,-0.10847056,-0.19940087,-0.09324973,-0.03011143,-0.16124,0.21306083,-0.13719496,0.20432553,-0.12646571,-0.12171136,-0.31008625,-0.08218644,-0.025825588,0.06054643,-0.059493575,-0.17873517,-0.21065743,-0.21561773,0.0008439442,-0.049502555,-0.1133556,-0.077856265,-0.028516222,-0.07029015,0.3463701,-0.075438045,-0.1102221,-0.03128293,-0.030184608,-0.076732434,0.25499755,0.18727222,-0.19547291,0.017749866,-0.08713323,-0.08357326,-0.031758722,-0.029696485,-0.11690541,0.19963664,-0.044587668,0.054826997,0.05183126,-0.18424849,0.23300608,0.03957341,0.15673879,0.15838248,-0.26312172,0.05670783,-0.26540914,-0.09348394,0.0445654,-0.10006659,0.196039,0.09541657,0.13654366,0.06955231,-0.3039271,-0.11869964,0.1284655,-0.3016715,0.00069061265,-0.042756874,0.12929165,0.17176282,0.09764337,0.08869654,-0.1360348,-0.1039258,-0.18592627,0.18691292,0.018187556,-0.036854923,-0.13757423,0.11883685,0.052423276,-0.027777009,0.04974199,-0.15455772,0.043029618,0.17749654,0.0924925,-0.10151158,-0.1305824,0.012354605,-0.060394548,0.09255771,0.12537354,-0.21504891,0.0964495,0.028080069,0.24350673,-0.05191414,-0.03923972,0.15720294,-0.15051217,0.051972542,0.150388,0.029032798,-0.21811119,0.050114535,-0.023618096,0.015172254,0.0090423515,-0.13394082,-0.09888174,-0.054597944,-0.05085958,0.034756284,-0.23052524,0.25200924,-0.10386347,-0.0633839,-0.07661226,0.16368937,0.08081515,0.067098886,0.124396876,-0.08489196,0.07450324,0.20580906,0.06184463,-0.22952023,0.040752213,0.006330814,-0.19815226,0.023723768,-0.2663573,0.16394016,0.086929545,0.039701756,0.12507743
Gervais::0.047896497,0.33849007,-0.0400882,0.07141716,-0.057371788,-0.022836937,0.010258255,0.30099308,-0.1809936,-0.10140567,-0.02436765,0.28436106,0.05178916,0.32484046,-0.019483242,-0.3025475,0.11723533,-0.2933953,0.07982292,0.110933244,0.055715095,0.0077213147,0.047069985,-0.032797985,0.024864469,-0.05388753,0.0034996385,0.11520545,0.003375682,-0.17366387,-0.041230675,-0.21966709,-0.014439936,-0.110738255,-0.03294686,0.19388705,0.07266843,-0.26394525,-0.20809707,-0.11531259,0.035925504,0.037647966,0.20958538,-0.25708255,0.06844497,0.0466065,0.06439045,-0.03461766,0.26342374,-0.13776647,-0.053881872,-0.15545857,-0.13125017,0.0351611,-0.0019578566,-0.052520104,0.04822877,0.050638773,0.0005417882,0.103498995,0.02865753,-0.004957461,-0.17269158,0.15209107,0.15667644,0.004472592,0.06916458,-0.036134806,-0.07990978,0.059096057,0.027624343,-0.10879799,0.2818293,-0.081393555,0.123329744,-0.20586671,-0.09110023,-0.17821169,-0.06839967,-0.0144740725,0.05925078,-0.14157172,-0.2998047,-0.119092554,-0.2297679,0.1263844,-0.12513739,0.033951886,0.027051138,0.10147634,-0.0912745,0.18320237,-0.11196812,-0.12509416,-0.002929891,-0.055227384,-0.0131809,0.280426,0.3436216,-0.15521093,0.017547034,-0.2246462,-0.1479551,-0.013750756,-0.048794366,-0.012480757,0.07344951,-0.061607055,0.17562282,0.2608846,-0.08927477,0.13592684,0.04198094,0.08012165,0.048378825,-0.18147883,-0.0039483327,-0.31762707,-0.07846022,0.12919474,-0.020822361,0.21736476,0.14096285,0.11843227,0.05673417,-0.3914674,-0.04076483,0.19185087,-0.23853712,-0.116120346,-0.0022335139,0.06505887,0.030294117,0.020435655,0.0039064134,-0.08487186,0.029372722,-0.19938965,0.31881437,0.039283693,-0.031464573,-0.10567306,0.09413422,0.09139956,-0.118669465,0.052688684,-0.15140325,-0.001136254,0.27030367,0.044804994,-0.12325275,-0.16707702,0.09303734,0.02769532,0.057399675,-0.086300276,-0.079094455,0.19143203,-0.008160819,0.3181744,0.022353558,-0.15362196,0.18957122,-0.19549893,0.09401915,0.08465078,0.09293259,-0.10703991,-0.10878199,0.14391181,0.051739983,0.010585122,0.037402313,0.028344808,0.19030124,-0.09770819,0.12679888,-0.19785784,0.22909401,0.027728146,0.01095335,-0.010465753,0.1057265,0.030320464,0.0059561133,0.014444709,-0.015246062,0.0847073,0.14915204,0.06184595,-0.122981705,-0.14719221,0.13278309,-0.078299664,-0.048818506,-0.16735473,0.14066322,0.0536981,0.06595249,0.12354651
Listolier::0.11839944,0.28331342,0.077552356,0.035124257,-0.1363609,-0.060895536,0.31488073,0.24716938,-0.39006367,0.051557083,-0.123616315,-0.16095506,-0.06277463,-0.27128342,-0.20784909,-0.45967534,0.031099753,-0.12831011,-0.24373394,-0.21984255,0.048506133,0.28452235,-0.07464281,0.13522857,0.21461403,0.43901515,-0.16088529,0.21023715,0.09923985,0.067287296,-0.030995239,-0.11807864,0.012369331,-0.3065511,-0.16089866,-0.111941546,-0.23892833,-0.14520426,0.054155562,0.13608055,0.2073634,-0.24142312,0.41635615,0.26316646,0.23924968,0.04490474,-0.0947813,0.15152954,0.2627877,-0.1361797,-0.2850058,-0.032987006,0.14871582,0.3181718,-0.16560753,0.05313417,-0.007720185,0.31419933,-0.14926642,-0.14156294,-0.41944292,-0.16391383,-0.22243603,-0.06054203,-0.095756136,-0.05872365,-0.23987067,-0.4123954,-0.004939234,0.029905705,-0.5907401,-0.31914994,0.17682911,0.2724037,-0.11327808,-0.2595668,-0.20799083,-0.15825476,0.20610516,-0.33169034,-0.08998319,-0.16147275,0.40332183,0.15904899,-0.0839783,0.33497137,-0.22536187,-0.064432055,-0.16149114,-0.27178684,0.11776439,0.15882644,-0.17172797,-0.015615837,-0.039525125,0.24186724,0.021639585,0.16522184,-0.078149185,-0.08029486,-0.24479453,-0.0844592,-0.102226935,0.0016619044,0.23990169,-0.21064013,0.019280175,-0.07166198,0.037616294,-0.077558294,-0.21512519,0.17124856,-0.21892442,-0.14153571,-0.11199557,0.11816302,0.08094617,-0.22691913,-0.13333748,-0.33044028,-0.43652517,-0.13636024,0.14351918,-0.022469558,-0.1848576,0.18887132,0.10272217,-0.17411807,-0.43196023,-0.078205734,-0.2703317,-0.018766943,0.0033256873,0.41247612,-0.18030366,-0.4228711,0.10289783,0.122381724,-0.12059104,-0.2653731,-0.2531162,0.2793277,0.3215495,-0.42919457,0.011107798,0.07985329,-0.017240934,-0.07328906,0.20740612,0.25268352,0.07991912,-0.07917043,-0.11673512,-0.40449595,-0.16732752,0.07658819,-0.029376877,-0.14928982,0.1608767,0.12153261,-0.19327147,-0.00960238,-0.13275126,0.05967446,-0.10490227,0.026522167,-0.028319325,-0.15478131,-0.38515833,0.12946542,0.24593687,0.15030989,-0.011529261,-0.07571008,-0.1690324,0.17080845,-0.019716837,0.00995658,-0.23502499,-0.032341056,-0.06701513,-0.15411928,0.037065867,-0.014976342,0.061723717,0.007286344,0.33569378,-0.14009091,-0.105950676,0.17707036,-0.07390485,-0.010804496,0.30221146,-0.13051616,0.18108222,-0.3145181,0.22975451,-0.0925178,-0.394186,-0.18780418
Tholomyes::0.16186236,0.14768179,0.14552651,-0.023503603,0.042607088,0.013864017,0.24045798,0.10894733,-0.23135665,-0.048133258,-0.019545134,-0.33420497,0.08872886,-0.1936952,-0.20299532,-0.2894794,-0.066377446,-0.11945689,-0.18759456,-0.28339058,0.1551237,0.1899582,-0.08769812,0.15908265,0.22456406,0.41520172,-0.12213463,0.2331409,0.029838335,0.10041652,-0.09597125,0.10894085,-0.03278324,-0.27731392,-0.118622884,-0.20685114,-0.09859123,0.008532366,-0.0715739,0.040984035,0.21599942,-0.24557832,0.24351808,0.33315715,0.2418796,0.0580021,-0.031412933,0.18087518,0.18731527,-0.021354072,-0.24255577,-0.07115071,0.1047236,0.23172213,-0.12574841,-0.08246378,0.057470683,0.30787638,-0.20413963,-0.16942254,-0.29378697,-0.12996092,-0.12243326,0.019193111,-0.15513895,-0.08286746,-0.2934908,-0.36443397,-0.05707284,0.0895954,-0.38910016,-0.31346765,0.11981152,0.22768608,-0.09644163,-0.19460525,-0.058877923,-0.1486413,0.13962245,-0.3239613,-0.06434724,-0.21660964,0.25575605,0.102686025,-0.07484573,0.1696891,-0.08157072,-0.09109774,-0.0043512494,-0.24558802,0.1583296,0.22231653,-0.09775355,0.0744353,-0.13782911,0.061194036,0.030398976,0.14849332,0.050724037,-0.081129275,-0.18131727,0.0027671708,-0.0473459,0.06358192,0.050368678,-0.20288092,0.13915652,0.02304317,0.07791058,-0.13824455,-0.20644635,0.13225153,-0.13295363,-0.015972862,-0.09983475,0.09786134,0.05076071,-0.23011656,-0.062225018,-0.3571743,-0.28565225,-0.123650946,0.07589306,-0.074366696,-0.25631028,0.19556591,0.13111658,-0.15723138,-0.35349554,-0.031098261,-0.25252083,-0.11012528,0.0076006833,0.32131657,-0.036660224,-0.39071903,0.078566164,0.12215919,-0.20901285,-0.2929726,-0.15607834,0.32387245,0.25831962,-0.36870965,0.07762185,0.050614174,0.039008383,0.032576274,0.20416005,0.19399929,0.07813737,-0.0497318,-0.14125706,-0.33364886,-0.07587734,0.06784616,0.10841106,-0.08802088,0.15035172,0.1927002,-0.21975307,-0.014294182,-0.1712872,-0.0026137726,0.013922437,0.069314785,-0.07067391,-0.0963456,-0.2905848,0.03016239,0.1718827,0.043521397,-0.08144592,-0.12645975,-0.14807597,0.059444938,-0.069154985,0.024002165,-0.1694753,-0.12247913,-0.1511568,-0.1773663,0.034632172,0.050120093,0.12802403,0.08761221,0.20456496,-0.11347703,0.039878294,0.12573084,0.081210166,0.03572579,0.271028,-0.10586848,0.10689742,-0.2958663,0.2422264,-0.16313437,-0.19084616,-0.21366507
Fameuil::0.14171122,0.297212,0.05806235,0.044023994,-0.11841003,0.009780229,0.34653962,0.18683034,-0.3717223,0.034263637,-0.13697463,-0.21155705,-0.030215431,-0.3071085,-0.23128322,-0.48468918,0.013776108,-0.17092603,-0.29999113,-0.21924391,0.043108955,0.24644326,-0.087168105,0.16839099,0.2872073,0.4593309,-0.1445549,0.20926094,0.083484426,0.05201914,-0.060666297,-0.14393395,0.030586595,-0.38319018,-0.1640365,-0.103944816,-0.20416461,-0.18534765,0.045691714,0.15245624,0.26104847,-0.21771666,0.416586,0.2913523,0.24711919,0.074261576,-0.1260961,0.15491036,0.2712988,-0.1296091,-0.30407286,-0.004658824,0.1560817,0.35079396,-0.18672578,0.03468772,-0.023763629,0.35318878,-0.17313528,-0.124542125,-0.47569713,-0.18007602,-0.22694796,-0.031645652,-0.113898225,-0.03712516,-0.2401001,-0.43783045,-0.038692676,0.047555808,-0.6762207,-0.41165498,0.17995556,0.33076817,-0.09294095,-0.27665228,-0.24445848,-0.17961366,0.18978475,-0.38506407,-0.11652471,-0.19496022,0.3874503,0.14409079,-0.06871162,0.359654,-0.2253701,-0.091725945,-0.19597682,-0.3074435,0.07837622,0.17821285,-0.15835463,0.02157786,-0.05785249,0.23613238,0.0044080666,0.18769842,-0.06939761,-0.08822519,-0.26155388,-0.10521675,-0.093766145,0.056127578,0.20041801,-0.21649782,0.080672875,-0.13049595,0.07995772,-0.1124896,-0.23187803,0.20757481,-0.2510493,-0.14504327,-0.073174804,0.11649939,0.07004092,-0.25581416,-0.13523236,-0.40505758,-0.45358494,-0.16404389,0.16118424,-0.038717747,-0.2355984,0.23919527,0.14437161,-0.13232562,-0.43302077,-0.08257341,-0.24597874,-0.013988883,0.013018713,0.45561302,-0.13721831,-0.47916186,0.102314405,0.122060366,-0.14271317,-0.3348328,-0.26241246,0.28862083,0.28483433,-0.47673145,0.05590872,0.056531724,-0.03954749,-0.14431709,0.25995657,0.26220363,0.019406915,-0.10747327,-0.12079374,-0.4412041,-0.19671826,0.12638956,-0.08354745,-0.1489859,0.23100775,0.11691649,-0.23332362,-0.0059980787,-0.15252003,0.006782775,-0.098911755,0.046885476,-0.05326669,-0.16957548,-0.40297216,0.11922756,0.22264156,0.1647377,-0.07024228,-0.12038676,-0.22524624,0.20782411,-0.0067061763,-0.004577069,-0.21607538,-0.055548612,-0.10188124,-0.19573392,0.1239647,0.004121138,0.09252615,0.04754204,0.38244388,-0.121872395,-0.11512299,0.1834799,-0.091781005,0.031395152,0.30716008,-0.15801379,0.15985483,-0.32757983,0.21592529,-0.12976445,-0.37841368,-0.21693534
Blacheville::0.14016645,0.23164017,0.06570194,0.02915459,-0.10823413,-0.019578725,0.33943602,0.24097772,-0.39992002,0.028204367,-0.101027496,-0.17622255,-0.02573132,-0.26148474,-0.21135634,-0.449697,0.011512484,-0.1473463,-0.26440343,-0.23573595,0.12205897,0.27345106,-0.06595226,0.119995385,0.25026274,0.43671548,-0.1326266,0.18643123,0.054680374,0.1262196,-0.042504765,-0.12822513,0.028325146,-0.35946932,-0.16044775,-0.12640633,-0.20888942,-0.16968797,0.03960428,0.09460659,0.2148401,-0.22844604,0.3399972,0.28934672,0.2678469,0.091966294,-0.119402125,0.13684091,0.2138606,-0.13536415,-0.32262757,-0.019639788,0.13794097,0.36032948,-0.14536685,0.050462812,0.0153427115,0.32215482,-0.13624905,-0.082486436,-0.45507926,-0.1499233,-0.22515993,-0.07429452,-0.09787284,-0.04723021,-0.2442184,-0.40426734,-0.020138063,0.065307796,-0.61390215,-0.34394488,0.17645842,0.3447035,-0.1162127,-0.25587463,-0.20389783,-0.19240166,0.14656958,-0.38032648,-0.123575985,-0.19276834,0.4042457,0.14194696,-0.07162557,0.31794128,-0.1634227,-0.08306421,-0.16901934,-0.2594814,0.07841844,0.13598113,-0.18085694,0.010418349,-0.061169326,0.18393119,0.0067947987,0.17817417,-0.0078040017,-0.062148776,-0.19610131,-0.10150635,-0.07918276,0.087622136,0.15771575,-0.2685191,0.06336227,-0.123554654,0.0985368,-0.09094184,-0.21624593,0.17381412,-0.21858944,-0.14047107,-0.09137244,0.115718916,0.043326203,-0.26419014,-0.087406665,-0.32995635,-0.43607953,-0.13948129,0.13182631,-0.04057328,-0.22719257,0.19721179,0.12954259,-0.11543368,-0.43083808,-0.11785938,-0.24915916,-0.0007305786,0.012467501,0.42761093,-0.15701342,-0.45186532,0.082226336,0.12342371,-0.14157146,-0.28763348,-0.26552495,0.26781943,0.24290301,-0.4004884,0.035967268,0.04507606,-0.058433905,-0.08285387,0.1834828,0.27686518,0.032254666,-0.047534917,-0.111523956,-0.38041702,-0.18229282,0.07570342,-0.048498888,-0.16401562,0.21309583,0.100726806,-0.22800255,-0.04167219,-0.16904452,0.036480904,-0.061868165,0.057992067,-0.009413217,-0.08806628,-0.38139054,0.11607703,0.21962965,0.12782857,-0.055672415,-0.08656833,-0.16531706,0.20362929,-0.005810816,-0.03766794,-0.18031274,-0.05131831,-0.122618645,-0.1462561,0.15105021,-0.045850318,0.07266702,0.03448039,0.3745954,-0.0846667,-0.05162874,0.15447237,-0.03396687,0.013662805,0.30509022,-0.15648499,0.12823822,-0.303836,0.22749433,-0.101835236,-0.3230524,-0.21153691
Favourite::0.16593178,0.28539756,0.029768318,0.044495888,-0.12483084,-0.004568186,0.3190484,0.19477056,-0.38097247,0.05255513,-0.14624369,-0.19438998,-0.03278044,-0.28633776,-0.19887924,-0.45080256,0.025568588,-0.15911703,-0.286548,-0.19597447,0.069537394,0.23647983,-0.075498134,0.137084,0.2785621,0.43973058,-0.175165,0.15526617,0.06890205,0.07957804,-0.06995119,-0.14469284,0.026326953,-0.37939623,-0.19642515,-0.090007074,-0.1846156,-0.18707104,0.040683053,0.17846818,0.26806885,-0.20734592,0.3780554,0.27815926,0.26919714,0.06502935,-0.09730048,0.122471824,0.25288853,-0.1324208,-0.30508462,-0.016460242,0.1171309,0.33084995,-0.16246232,0.049975313,0.0024205882,0.3529545,-0.16465838,-0.09963979,-0.4551592,-0.15213625,-0.22230418,-0.054248493,-0.09966678,-0.029275311,-0.22826448,-0.39984676,-0.028524568,0.02646827,-0.6313957,-0.3751415,0.1780323,0.29061177,-0.089580804,-0.24187459,-0.24036928,-0.17157373,0.18080337,-0.35701552,-0.112299114,-0.1580717,0.3855733,0.16232756,-0.10701563,0.34974772,-0.21626769,-0.09186102,-0.18869087,-0.27615914,0.06608748,0.14517398,-0.1395169,0.017257174,-0.082941934,0.21530683,-0.0044047902,0.157153,-0.06346566,-0.084307514,-0.24053508,-0.09043712,-0.09887807,0.047159407,0.18065657,-0.22688644,0.054748192,-0.10984132,0.089533895,-0.10148486,-0.22834365,0.21049438,-0.23993453,-0.15666416,-0.09699433,0.11127738,0.074860826,-0.23017119,-0.11880755,-0.39731264,-0.44233623,-0.12626122,0.16339035,-0.01659677,-0.21946333,0.20271572,0.13283145,-0.1334192,-0.4315158,-0.05314972,-0.2334981,0.0056493185,0.012935988,0.44649383,-0.14755951,-0.4971569,0.08761011,0.14392528,-0.12124049,-0.29222697,-0.25299862,0.25642565,0.27584714,-0.4323959,0.061372492,0.05129328,-0.034189392,-0.11089508,0.20568268,0.24585448,0.045904476,-0.124448106,-0.10781251,-0.42181823,-0.20999879,0.14008991,-0.09412474,-0.15701489,0.2192379,0.14232752,-0.21195427,-0.0016520387,-0.13986164,0.02057276,-0.11084381,0.04500989,-0.0302123,-0.1549924,-0.39988473,0.14185911,0.24704635,0.16604179,-0.059507202,-0.13088644,-0.21277626,0.20304213,0.012196433,0.008319272,-0.19874866,-0.058505487,-0.12854029,-0.19772731,0.13491076,-0.024803622,0.10440702,0.038714454,0.3624823,-0.116128005,-0.09154238,0.17230463,-0.08983984,0.025754234,0.28937855,-0.14277698,0.13542858,-0.33093697,0.21629757,-0.11944359,-0.38190496,-0.22236128
Dahlia::0.14693002,0.2548379,0.0601906,-0.035392106,-0.1082227,-0.028534515,0.31609538,0.19466484,-0.34392527,0.0456017,-0.121159986,-0.17946628,-0.03356704,-0.25765043,-0.21891512,-0.43547973,-0.006667723,-0.14848089,-0.23734559,-0.23967868,0.08581409,0.24469265,-0.086461134,0.12195872,0.26966038,0.43662375,-0.1777395,0.19633248,0.10027778,0.12674825,-0.046628743,-0.105519086,0.008618723,-0.3840904,-0.17744957,-0.15399972,-0.18184742,-0.115219295,0.037816383,0.0991283,0.20498866,-0.2269565,0.37537986,0.28194216,0.25673595,0.07632097,-0.09721317,0.14712927,0.27626345,-0.12041611,-0.32420453,-0.02068224,0.13819554,0.34431016,-0.13726373,0.026268773,0.04255161,0.30167565,-0.13890179,-0.12428747,-0.46516445,-0.15709712,-0.21756288,-0.074694514,-0.116665855,-0.024881018,-0.22698298,-0.35217014,-0.079108804,0.05377277,-0.6073883,-0.38267794,0.19220372,0.3251607,-0.11829364,-0.2142703,-0.19745113,-0.14808965,0.16033638,-0.37473902,-0.098085985,-0.20516604,0.39897338,0.16713873,-0.060743775,0.28930706,-0.18001752,-0.06584155,-0.17503227,-0.26206446,0.042930756,0.1274998,-0.1284556,-0.03547212,-0.07174153,0.18813127,0.0036129563,0.1602899,-0.07448679,-0.06130493,-0.20217936,-0.07352061,-0.081233814,0.05113843,0.18366101,-0.24499702,0.0763021,-0.11511672,0.08049311,-0.094663136,-0.24699567,0.20091683,-0.21254164,-0.16557354,-0.06915394,0.13103333,0.09217044,-0.22566894,-0.12692076,-0.38107765,-0.440774,-0.1463128,0.14182372,-0.044454366,-0.23023959,0.21102923,0.13140573,-0.1458033,-0.41867608,-0.059485093,-0.22349223,-0.008931606,0.042398144,0.45472825,-0.13245924,-0.45850486,0.09951251,0.07965096,-0.12289932,-0.27391273,-0.24759461,0.25698966,0.26373392,-0.4271386,0.047694527,0.056237858,-0.03369114,-0.091027126,0.21572652,0.2546212,0.023550687,-0.03840666,-0.10848923,-0.37506697,-0.15840672,0.08833052,-0.0025459032,-0.15584059,0.18226251,0.0950992,-0.20053343,-0.027134994,-0.19873665,0.07787994,-0.07766961,0.051742826,-0.028532583,-0.1018815,-0.33859426,0.11606395,0.22725442,0.14223751,-0.067431614,-0.08688705,-0.18048121,0.1938009,-0.026375253,-0.0014961255,-0.19093001,-0.0558275,-0.12179242,-0.17789313,0.104630895,-0.010452022,0.11404005,0.007827611,0.35741916,-0.1591118,-0.063974276,0.1591101,-0.06408646,-0.0016156906,0.27575696,-0.17526498,0.13583142,-0.30441436,0.23737831,-0.1082653,-0.37155896,-0.21664695
Zephine::0.14169075,0.2578922,-0.0010429271,0.02304587,-0.10017307,-0.05323683,0.34849483,0.20550545,-0.4003357,0.032126285,-0.15584551,-0.18931565,-0.018630425,-0.28388956,-0.2623006,-0.44532672,0.03432901,-0.16122921,-0.22522895,-0.27395397,0.09241964,0.2575018,-0.080177404,0.13671808,0.24884091,0.43917763,-0.17134054,0.21641067,0.14634553,0.045918383,-0.0806903,-0.14537534,0.019511228,-0.38546947,-0.16325444,-0.19759133,-0.27440006,-0.13461824,0.0011210579,0.1759121,0.21760377,-0.2445323,0.46348977,0.3026428,0.24362534,0.027103791,-0.11094397,0.119867265,0.32360741,-0.15286276,-0.28059655,0.014985724,0.22322747,0.2737958,-0.17344387,0.03652542,0.046290636,0.34520665,-0.20039238,-0.14282349,-0.39911574,-0.14945517,-0.18038787,-0.0374773,-0.1653515,-0.0521957,-0.22194183,-0.41125822,-0.08567552,0.03985972,-0.6503007,-0.4572182,0.17764874,0.27981013,-0.07991555,-0.23795606,-0.21281132,-0.12691166,0.225681,-0.36986026,-0.085850954,-0.18693882,0.43957886,0.17631103,-0.074332654,0.3765821,-0.23648952,-0.060281914,-0.15258388,-0.27631372,0.104635864,0.15679383,-0.15540618,0.015145655,-0.069826014,0.20906836,0.015098353,0.16108064,-0.07772288,-0.02643625,-0.28001812,-0.05644619,-0.071362,0.024550486,0.21119867,-0.2398287,0.08860584,-0.12449288,0.025786383,-0.10289885,-0.30176377,0.21044432,-0.1742886,-0.17480248,-0.06711932,0.09003126,0.10344177,-0.26295814,-0.1652337,-0.43254218,-0.4671392,-0.17074852,0.1773637,-0.030129422,-0.25279513,0.17517151,0.11844407,-0.12692676,-0.42303985,-0.04473167,-0.25777945,-0.049592715,-0.0044162394,0.44641104,-0.11544235,-0.48914602,0.07941908,0.13165049,-0.17443928,-0.31631172,-0.25870287,0.32788387,0.32860512,-0.4755348,0.019371772,0.031126913,-0.040277686,-0.13328418,0.2066108,0.23779786,0.036626253,-0.09589222,-0.11424508,-0.4668307,-0.07473668,0.12020995,0.007316454,-0.13636725,0.22882044,0.11925283,-0.1954561,-0.024901047,-0.07280088,0.041432265,-0.0863277,0.047322694,-0.05504363,-0.17397352,-0.41881958,0.11565245,0.26353645,0.14613752,-0.013552794,-0.0991702,-0.19972064,0.16319938,-2.7166527e-05,0.016406197,-0.2049695,-0.046293225,-0.12974209,-0.19814059,0.060417335,-0.0045930278,0.10099498,0.0572799,0.38278514,-0.16034324,-0.12206738,0.17759207,-0.09258457,-0.016923798,0.3270706,-0.1556792,0.15558763,-0.33469558,0.3120812,-0.13503368,-0.41390672,-0.18155916
Fantine::0.15436141,0.20766246,-0.007140928,-0.007524943,-0.07184964,0.030262504,0.17820963,0.29825416,-0.3137241,-0.0015808782,-0.033871062,0.117129155,-0.08481567,-0.10505872,-0.07315798,-0.37164822,-0.024011279,-0.1875756,-0.17031619,-0.17884377,0.0938117,0.035989184,-0.008271706,-0.043472856,0.17565787,0.27124307,-0.090727225,0.14381306,0.05820868,0.0030763226,-0.028048802,-0.2584623,0.0011983616,-0.28449208,-0.13148998,0.0024427318,-0.11768007,-0.18373533,-0.012778561,0.10462825,0.13673943,-0.15545611,0.3209309,-0.04687251,0.19227418,0.104634315,0.00037590088,0.020141207,0.24174199,-0.22106712,-0.26801828,-0.116349794,-0.016040718,0.24509315,-0.05394181,0.01508675,0.07436161,0.14005712,-0.14842735,0.020160606,-0.28116214,0.03268311,-0.26179045,-0.024125025,-0.005465396,-0.0046421387,-0.032691568,-0.19860213,-0.10452189,-0.011235191,-0.42235845,-0.33535525,0.17653944,0.15823211,0.043364782,-0.17713693,-0.19053292,-0.23744497,0.038893953,-0.1969704,0.0119640855,-0.13372332,0.3365204,0.046592552,-0.09070294,0.29961875,-0.08966252,0.046321195,-0.101291955,-0.15183967,-0.015422921,0.15463121,-0.1670417,-0.012258243,0.029499179,0.1074876,-0.02887622,0.12024062,0.0046121865,-0.029209834,-0.19001885,-0.12637204,-0.06414667,0.05994414,0.19604343,-0.24066514,0.08258242,-0.09603982,0.059672963,-0.021635907,-0.16501191,0.20563062,-0.11488326,-0.19200544,-0.050584313,-0.08783118,-0.014447712,-0.22324659,-0.067060016,-0.17811292,-0.35317972,-0.031748593,0.119206786,0.04586516,-0.00066207035,0.057823382,0.070129946,0.05036282,-0.23897333,-0.061622996,-0.13223086,0.021527592,0.027424566,0.36642203,-0.09255503,-0.31477368,0.04913603,0.07767931,-0.020991968,-0.12682253,-0.17171164,0.063282184,0.1733206,-0.16875368,0.07532741,-0.00574586,-0.10466982,-0.071633965,0.10770417,0.14640647,0.041175082,-0.10720187,-0.015348382,-0.21121494,-0.13363603,0.07402534,-0.12806284,-0.16069065,0.15307778,0.054135546,-0.025294546,0.04580773,0.05555556,-0.026428249,-0.11595234,0.08239502,-0.0076085064,-0.1570325,-0.28395835,0.037020754,0.056146063,0.123047546,-0.201013,-0.040144693,-0.099075414,0.15790674,0.08769878,-0.037506606,0.03696532,-0.037133,-0.08033317,-0.1579734,0.20672433,-0.10457454,0.0025243137,0.050899547,0.19273059,0.022341082,-0.008639254,0.077556945,-0.18410046,-0.003580551,0.1659931,-0.15313308,0.09917861,-0.2363597,0.2023175,-0.016783334,-0.3021347,-0.016430601
MmeThenardier::0.23348548,0.33164003,0.035705406,-0.23263048,-0.03103286,0.0020662097,0.06434184,0.029077815,-0.058031455,0.09339219,-0.015868705,0.011101053,-0.08674272,-0.0044029066,0.036855757,-0.12838416,-0.12519433,-0.22809067,-0.020838816,-0.06388809,-0.090976566,-0.11345274,-0.034620307,0.032663614,0.15735044,0.119171426,-0.24080116,-0.097734764,0.09155755,0.08862707,-0.046065453,-0.1758617,-0.07032351,-0.30394572,-0.22680861,0.15841113,0.22805275,-0.06077172,-0.07539641,0.027072284,0.17075682,-0.094955206,0.2819438,-0.15207547,0.18894793,-0.0008442836,0.08361776,-0.022180239,0.34288684,-0.088479914,-0.1772673,-0.07345835,-0.055834647,0.09035013,0.024814054,-0.043828692,0.09004849,0.018329365,-0.069725394,-0.005449656,-0.23397835,0.032355566,-0.22050668,-0.020959161,0.024507051,0.13588892,0.024556788,0.085092194,-0.2098104,0.015934782,-0.06667519,-0.14746232,0.26224872,-0.15506832,-0.06699047,-0.0064528827,-0.18519175,-0.090841904,0.14496067,-0.015446301,-0.058893263,-0.05245441,0.03565679,0.02668884,-0.19148588,-0.0060772253,-0.1263861,-0.091234654,-0.03702344,-0.06294887,-0.2296676,-0.0040802914,-0.027056642,-0.2522437,-0.19383717,-0.0055147493,0.02889009,0.09892477,-0.09374961,-0.09623595,-0.09154106,-0.14705427,-0.20368463,-0.043956533,-0.025865294,0.06673459,-0.011231008,0.044083722,0.16626988,0.15692796,-0.08890864,0.2658043,-0.09957514,-0.19162923,-0.026267754,0.088639155,0.12210993,-0.108072475,-0.14647174,-0.2621718,-0.025762225,0.05968282,0.14555648,0.15411113,-0.038918037,-0.08212339,0.114633165,-0.015372124,-0.15168622,0.1703429,0.02189573,-0.021654474,0.111072026,0.28678542,0.022381373,-0.31308573,0.024725415,-0.09743487,0.28836372,0.08686277,-0.09596653,-0.12992433,0.075111166,-0.09535497,0.0482752,0.15890788,-0.04209825,-0.04498455,0.23003641,-0.009207061,-0.064353414,-0.18344918,0.04907673,-0.10762491,-0.09710661,0.16968156,-0.027464833,-0.061810076,-0.030008204,0.23676015,0.13675317,-0.02430105,-0.07653493,0.046746317,-0.17034197,0.10755194,-0.08267158,-0.19705516,0.022568023,0.08044226,0.069405265,0.12883963,-0.16303304,-0.055053502,0.0023646513,0.0022566703,0.013514622,-0.03283874,0.049622867,0.001997348,-0.030480634,-0.21214977,0.21669978,-0.025419235,0.22103356,-0.07714192,0.055791963,-0.08868396,0.020076646,0.014088495,-0.30204183,-0.063147955,-0.048799727,-0.0930911,0.05039307,-0.20288354,-0.005950359,0.13867252,-0.14266086,0.08826465
Thenardier::0.2626833,0.2941644,0.081762075,-0.06476122,-0.04632552,0.045653373,0.040488083,0.0941852,-0.116206236,0.08502636,0.09796334,0.07086524,-0.13081272,-0.040749446,0.053511888,-0.06740065,-0.14727928,-0.19990452,-0.057761405,-0.016349867,-0.07011647,-0.20842144,0.0059609786,-0.024897642,0.010484383,0.022271255,-0.08785698,0.06772191,-0.009456555,0.007919423,-0.09487738,-0.067045145,-0.030397492,-0.12047932,-0.24188685,0.12929548,0.10106708,-0.073721,-0.09873314,-0.07118767,0.15409112,-0.16072881,0.13474806,-0.14067589,0.23835143,-0.084249154,0.09896495,0.007292661,0.31811666,-0.09283585,-0.19594228,-0.17886521,-0.08371739,0.1267583,-0.049271833,-0.07164977,-0.10225775,-0.01993403,-0.10942346,-0.12908629,-0.11425799,-0.017064588,-0.37666026,0.17924973,0.057207588,0.12248381,-0.10169736,0.0072159395,-0.060243294,-0.06176168,-0.007959545,-0.12705232,0.26076996,-0.014321822,0.07140375,-0.0640693,-0.102680095,-0.16517226,0.040729668,-0.04814222,-0.062228877,-0.0034497392,0.050761066,-0.037545912,-0.26685488,0.120862156,-0.071526356,0.027760135,0.07199105,-0.10044436,-0.06954132,0.08260122,0.077766955,-0.18114792,-0.111745894,0.019053692,0.079795375,0.0024745371,-0.028619995,-0.16063812,-0.14711843,-0.15753722,-0.15985335,-0.09249873,-6.50678e-05,-0.050604045,-0.016156437,0.17794481,0.25219616,0.0524496,0.02975067,0.19752268,-0.09857167,-0.031691056,-0.119012445,-0.02680419,0.098500066,-0.1326957,0.032988936,-0.08355822,-0.09391804,0.039052665,0.06461889,0.035784844,0.021102713,0.045589738,0.17991936,0.031864755,-0.18405996,0.03814824,-0.015703231,-0.09395178,0.15298866,0.18208326,-0.0071700932,-0.18685752,0.14065588,-0.041682463,0.1934096,0.0660816,-0.046366606,-0.051072158,0.15970886,-0.029207276,0.071311764,0.12922421,0.037149295,0.18249178,0.2645876,-0.0054743416,0.060409434,-0.13576041,0.027856879,-0.062028445,-0.120471,0.15051095,-0.02698919,0.041286103,-0.042499453,0.30089617,0.03940362,0.098116994,-0.04679255,-0.055189352,-0.0416933,0.121929996,-0.08622624,-0.28092915,0.08272857,0.11357593,0.037810087,0.12788318,-0.19157082,-0.0553027,-0.07974468,-0.13283166,0.05268487,-0.037496977,-0.07210018,-0.14351495,-0.02604098,-0.22657348,0.13884526,-0.04406066,0.096466504,-0.090935916,-0.08393957,-0.12666912,0.14021863,0.04715539,-0.087778434,-0.055534948,-0.057609394,-0.044380236,0.1616338,-0.1796137,0.00072943943,0.06816554,-0.06895407,-0.03697087
Cosette::0.16182812,0.27024043,0.21459323,-0.047034606,0.060797267,0.124274604,-0.022805946,0.118847325,0.017463112,-0.10602282,0.04365015,-0.1922737,0.14220454,0.06794045,0.003290227,-0.16086295,-0.060678534,-0.19218573,-0.10839269,-0.07552914,0.060828295,0.024607275,-0.08093392,0.12204824,0.15400591,0.27605608,-0.11373922,0.1151855,-0.048380904,-0.075132884,-0.028350474,0.12209438,-0.12370487,-0.12711716,-0.13826983,0.078089915,0.26366982,0.016391212,-0.20818378,0.054810036,0.2437721,-0.15654862,0.168427,-0.028430112,0.18780999,0.05614474,0.24685185,0.18333432,0.18753593,0.05626681,-0.06321493,-0.26075593,-0.27137506,0.06850962,0.015380901,-0.17145813,0.15944892,0.2282233,-0.13278866,-0.049860366,-0.12770325,0.029472759,-0.057198487,0.06028703,-0.048556827,-0.097971745,-0.17458786,-0.18022062,-0.07125732,0.040237818,0.07095702,-0.044504944,0.16483425,-0.15515569,-0.06193308,-0.12178014,-0.015825221,-0.22671635,0.12586628,0.034116488,-0.0007067788,-0.17816535,-0.18084596,-0.024510978,-0.1774672,-0.045484334,-0.016764238,-0.15183704,0.09964864,-0.10371107,0.051725887,0.30343932,-0.122415744,0.03527617,-0.19597368,-0.08504995,0.04508779,0.15822695,0.20562884,-0.25183547,-0.16019556,-0.05671797,-0.110620156,-0.040092736,-0.0091253845,0.06373991,0.11027464,0.21421778,0.0835416,0.007501253,-0.10369673,0.13467866,-0.050309744,0.071981154,-0.11792782,-0.048208393,-0.0027460135,-0.19022252,-0.071404174,-0.20286508,0.0589701,0.13726476,0.0570857,0.15057053,-0.07838912,-0.056320973,0.07080091,-0.09736845,-0.25332257,0.087871,-0.2408425,-0.12525615,0.059112117,0.10899935,0.120377764,-0.26543656,0.061529968,0.07706553,0.14563487,-0.12125607,0.047369424,0.064783074,0.18241268,-0.109302744,0.13857989,0.12327119,0.039393403,0.09598352,0.2402297,0.01768859,0.09645725,-0.25418693,-0.024351891,-0.16839683,-0.12751915,0.09959907,0.038904592,0.003912709,-0.0009916387,0.38752198,-0.004080757,-0.027260948,0.031251363,-0.19456515,0.008680083,0.09055447,-0.13517651,-0.20339413,-0.1289567,0.028147412,0.07405157,0.0010286478,-0.114902705,-0.15350291,0.0015901779,-0.10070041,-0.037294894,-0.01416134,0.04772287,-0.10749404,-0.059962776,-0.23702382,-0.00015598719,0.09257257,0.1750093,0.08079738,-0.04898139,0.009782731,0.22061884,0.053577207,0.007961653,0.086552985,0.090006344,-0.025602847,0.039894223,-0.24161188,0.102625616,-0.01704107,-0.008201229,0.026149929
Javert::0.16166782,0.3555289,0.020652445,-0.05288017,-0.016661858,0.060732264,0.0005816886,0.15464567,-0.029644696,0.08676887,-0.08681734,0.15214539,0.022203842,-0.038073365,0.07023344,-0.21668448,-0.06247558,-0.15497623,-0.109174,0.03418777,-0.031123487,0.010332782,-0.06606194,-0.0028108594,0.16056556,0.109929696,-0.16283564,-0.0031199525,0.052205093,-0.044523478,-0.0054882183,-0.08948671,-0.14578134,-0.14536202,-0.08897355,0.111095026,0.16721919,-0.00959681,-0.04719825,0.2402431,0.1892151,-0.006769079,0.27950373,-0.10332763,0.16874541,0.12204647,0.10909635,-0.012029815,0.2380543,-0.04301665,-0.13220802,-0.20950703,-0.24781245,0.11448146,0.088770695,-0.032510113,0.122691,0.14548157,-0.17334145,-0.068167396,-0.19768605,0.14525107,-0.15419775,-0.031180372,0.0844394,0.020959197,1.8638122e-05,-0.032350507,-0.038655676,-0.12267406,-0.027129019,-0.14870241,0.1177253,-0.1925468,0.039773162,-0.05301508,-0.03357032,-0.17007247,0.078966364,0.07367724,0.12517464,-0.10658023,0.03757543,0.09078657,-0.24562156,0.099948026,-0.13310115,0.014831551,-0.007942181,-0.06272383,-0.033234186,0.16710347,0.048128545,0.02232569,-0.14726077,0.009083077,0.0069189947,0.0900369,0.0776894,-0.15497622,-0.06202925,-0.059658315,-0.16175412,-0.09337649,0.006317412,-0.05377712,-0.03322783,0.036431797,0.09677531,0.0038431361,-0.04656275,0.2129603,-0.010305416,-0.047264878,-0.09325958,-0.069123365,-0.0056650215,-0.12327623,-0.08677017,-0.17452596,-0.094353735,0.20499931,0.13240504,0.10378722,0.10595858,-0.16320308,-0.024094354,-0.10048867,-0.19297367,0.15537591,-0.034452423,0.086978205,0.0013276617,0.28885955,-0.10724754,-0.26569772,0.06772612,-0.06920096,0.16856994,0.058829527,0.0892866,-0.031808864,0.1122697,-0.09991108,0.13433684,0.08556324,0.0048032193,0.098838784,0.06882783,-0.023197403,0.09027145,-0.28486466,0.07286404,-0.01751453,-0.15392633,-0.0017158652,-0.105459124,0.0019337378,-0.018055363,0.3110051,0.079904184,0.0034653142,0.06398036,-0.06507806,-0.097815186,0.11565392,0.026012024,-0.12150448,-0.14183097,0.08760864,0.12674452,0.1589211,-0.09025011,-0.12803182,-0.0017580852,-0.032652535,0.102964014,0.09391038,0.11022837,0.011856443,-0.0700317,-0.14175081,-0.055589695,-0.0006579715,0.1211185,-0.023038723,-0.11516875,-0.028897738,0.033620786,-0.06384552,-0.2708648,-0.04085708,0.030912276,0.010747117,0.07221629,-0.28090075,0.051190343,-0.006483222,-0.16739352,0.023009332
Fauchelevent::0.19730932,0.23869142,-0.26982993,0.26090828,-0.019188415,0.02920759,0.030382082,0.12687904,-0.46428627,0.08693806,-0.0703959,0.1901969,0.043458596,0.070990406,-0.09006153,-0.2234882,0.1652252,-0.36444044,0.050164927,0.09304188,0.12632187,-0.090050675,-0.01624114,-0.058914717,-0.086572774,-0.052390706,-0.27564216,-0.22472234,0.10678012,-0.1418611,-0.30023476,-0.28275543,-0.100185186,-0.15184811,-0.25620046,0.0745556,-0.09904807,-0.15739463,-0.34667298,0.3079657,0.1621442,-0.17733987,0.31653485,-0.092124104,0.20311026,-0.0661054,0.047490776,-0.29386723,0.41840053,-0.23520158,-0.09073653,-0.05372346,0.04089139,-0.03756604,0.052593138,0.09150374,0.26862416,0.21287236,-0.36070812,0.009246704,0.08990276,0.10363943,-0.114078924,0.087729305,-0.05038645,-0.05857371,0.056797016,0.05972502,-0.07047725,-0.12243987,0.1396696,-0.30517375,-0.006465704,-0.22897409,0.07315689,-0.027091071,-0.2165443,0.061922245,0.19427735,0.11371345,0.13375409,-0.04298991,-0.008402124,0.14120117,-0.466578,0.3154146,-0.29318094,-0.11080728,-0.01511922,0.013336652,0.03484126,-0.13781875,0.037604835,0.12467246,-0.32908544,-0.17014207,0.15405312,0.010973929,0.13199344,0.00025406876,-0.23055711,0.005653226,-0.12472167,-0.112868525,-0.17305712,0.011767078,0.046098504,0.032746892,-0.00018663426,0.09968667,-0.17864819,0.0062319236,0.10017852,-0.20599729,-0.22116537,-0.12767418,0.032988794,-0.1736472,-0.050905623,-0.21298122,-0.0428411,0.18860827,0.2380342,0.31386033,-0.0144719,-0.41113323,-0.11468417,0.075724185,-0.19253558,0.11658522,-0.08783501,0.016030872,-0.09010791,0.08409595,0.08683497,-0.3326531,0.018707907,0.16958006,0.07879122,0.08536351,-0.009372629,0.12411757,0.07559958,0.032086696,-0.056798533,0.026518501,-0.088322334,0.11193748,-0.090434626,-0.15255101,0.028704401,-0.43758678,0.106730275,-0.3016079,0.26458842,0.12284663,0.072243035,0.058437407,0.2119839,0.30563205,0.2598727,-0.33387634,0.40919468,-0.14736514,-0.07057447,0.08427461,-0.013463699,-0.22302993,-0.29237375,0.3206115,0.24018216,0.25176626,0.1725931,-0.09282435,0.17234392,-0.34265587,0.18165426,0.093156934,0.06883268,0.07183091,-0.32473356,-0.1561115,0.005566666,-0.18763751,0.22136503,-0.18705414,0.09348532,-0.051853195,-0.08177517,-0.005702765,-0.29961455,-0.23249213,0.12263625,0.11375438,-0.09150716,-0.41230753,0.33032906,0.025651785,-0.07268812,0.22634064
Bamatabois::0.06270736,0.21459883,0.04751458,0.16443984,-0.19754124,-0.047528457,0.10773862,0.38605472,-0.33682895,0.092365816,-0.07465629,0.13089575,-0.06522204,0.059378214,0.021262646,-0.39299622,0.04964658,-0.19557576,-0.12203898,0.05729597,0.013629696,0.19081566,0.07744597,0.0510238,-0.07955297,0.12168563,-0.042832155,0.07629273,-0.07175853,-0.05193246,0.045872085,-0.22812317,-0.07123807,-0.10167738,-0.09051179,0.19840159,0.011469307,-0.37881172,-0.017400045,0.09525561,0.15329717,-0.047806393,0.13757679,-0.1651553,0.18228777,0.012275671,-0.08494632,0.024884794,0.0636756,-0.23350465,-0.12493317,-0.07561079,-0.04127126,0.10594899,-0.070552155,0.026603956,-0.05235861,0.13062324,-0.03166474,0.06774745,-0.14281982,-0.031286124,-0.17542583,0.041946646,0.23695646,-0.0017816788,-0.037821192,-0.2211561,0.1405584,0.04130222,-0.13492495,0.032772668,0.21187212,-0.06341887,-0.00077004445,-0.32579896,-0.18060265,-0.23290618,0.058926493,-0.10620992,-0.080876715,0.0044200644,0.0786658,-0.03214762,-0.38779727,0.1806446,-0.115055844,-0.14327799,-0.040160548,-0.033360355,0.04126128,0.14253314,-0.40926787,-0.13675678,-0.009842639,0.17936893,0.027141437,0.32093164,0.20649156,-0.07671697,-0.04142727,-0.23409294,-0.20572682,-0.0400634,-0.01691652,-0.09785051,-0.14476815,-0.022385035,0.1383775,0.19690149,0.08832062,0.14858079,-0.15367779,0.03297854,-0.017114876,-0.023405908,-0.1266175,-0.32535332,0.004043657,0.051714446,-0.1432404,0.15463282,0.11666426,0.2911932,0.08007171,-0.34030282,-0.06699157,-0.00020745062,-0.48205167,-0.19860914,-0.1761911,0.19061537,-0.0389486,0.20986228,-0.20261724,-0.22430618,0.0035528408,-0.076922335,0.20941362,0.07518347,-0.15628827,-0.028196707,0.07178727,-0.024460811,-0.17250705,0.23681542,-0.13039748,0.16614763,0.14388575,0.14121716,-0.04021317,-0.22130522,0.03067058,-0.12622266,-0.093421556,0.047440577,-0.3446484,0.045523364,0.058468275,0.30005476,-0.14124295,-0.02946781,0.07357369,-0.1296131,0.017930176,0.05056123,0.09200347,-0.081734136,-0.2384784,0.061346237,0.16820921,0.028751876,0.13720211,0.040329184,0.12528484,0.16225404,0.1718488,-0.17891365,0.034455486,0.090833604,0.054677833,0.058057193,0.11031402,-0.083389595,-0.12726025,-0.038281664,0.12964901,0.17556919,0.095468834,0.13315338,-0.19327693,-0.061074074,0.1534217,0.022260826,0.15888132,-0.31262708,0.02012562,0.06722285,-0.027122462,0.05357685
Perpetue::0.3026326,0.16799088,-0.05792484,0.06814381,-0.062557936,0.2560757,0.3191416,0.19704507,-0.32022402,0.07300745,-0.12856367,0.27245346,-0.03151296,-0.17014314,0.09302671,-0.3481754,-0.10494175,-0.23100087,-0.29274842,-0.030309204,0.14797871,-0.049190935,0.066779315,-0.18574256,0.40007058,0.21773808,-0.15455352,-0.06498735,0.061024588,0.04565616,-0.11115244,-0.3784474,0.0004750989,-0.46040347,-0.13492583,-0.040483482,-0.07878688,-0.2416478,0.10827816,0.22610298,0.23295948,-0.08614485,0.36877194,0.05433919,0.26220837,0.33269435,-0.15586202,-0.13451697,0.23493753,-0.26992086,-0.45655736,-0.1474087,-0.07542101,0.46608916,0.06307899,0.121937096,0.13718277,0.17308836,-0.20245531,0.14022833,-0.4478808,0.12376213,-0.28463635,-0.112122305,0.111783594,0.014816606,0.044021234,-0.13564381,-0.1710227,-0.08332195,-0.6429534,-0.70186645,0.1827077,0.38600817,0.11422435,-0.18498291,-0.19622388,-0.29190385,-0.12404266,-0.3023314,0.0596059,-0.29748833,0.45833787,-0.012269382,-0.15178755,0.42380095,-0.108612485,0.07702285,-0.36916906,-0.19335401,-0.24795021,0.124164134,0.037206218,0.21849374,-0.0054528886,-0.016556017,-0.026269324,0.0797736,0.10137793,-0.04339178,-0.2117906,-0.14445539,-0.0692282,0.24153809,0.009144016,-0.46676075,0.25849187,-0.29448524,0.21769123,-0.16601494,-0.2125858,0.33414763,-0.10591118,-0.27898464,-0.10192402,-0.07244144,-0.037404057,-0.33412495,0.011373074,-0.3453688,-0.4466803,0.11379211,0.28020993,-0.0974114,-0.091507904,0.0743542,0.15926918,0.20788476,-0.30514058,-0.006659268,-0.06952164,0.15733787,0.03402283,0.64270043,-0.16489802,-0.57573944,0.023536922,-0.04019997,-0.001469349,-0.2141986,-0.13278635,0.028372543,0.07564214,-0.1830886,0.18882783,-0.11202149,-0.17470124,-0.21613947,0.06704324,0.14331824,-0.119041815,-0.26406965,0.04017341,-0.19108278,-0.21367994,-0.00965312,-0.31723565,-0.1373849,0.45934454,0.006889854,-0.052975927,-0.12721533,0.0355023,-0.11991947,-0.12732452,0.20166656,0.11736055,-0.029634241,-0.3861766,0.14903678,0.023249269,0.23808497,-0.33231837,-0.19129634,-0.18371147,0.10956288,0.17260729,0.07206297,0.13006645,-0.0674471,-0.25618133,-0.1159493,0.49015117,-0.17679591,0.19677754,-0.05857872,0.21464497,0.05546322,-0.13123251,-0.12732539,-0.35243914,0.07252151,0.16287304,-0.2982336,-0.07468395,-0.3285855,0.26742554,-0.06952081,-0.30402368,-0.13089333
Simplice::0.23405452,0.050240565,-0.041486606,0.0906602,0.013310638,0.16137125,0.14741677,0.26133576,-0.22067834,-0.0014559404,-0.098677896,0.2195734,0.1007127,0.053807516,0.10101616,-0.26032922,-0.09590073,-0.19220614,-0.13800631,-0.02809563,0.22928505,-0.0058926325,0.087863915,-0.14426203,0.26382136,0.15664557,-0.091814,-0.01551626,0.029592369,-0.052566182,-0.07877905,-0.2013015,-0.07821474,-0.2954191,-0.010946219,-0.05420935,0.037255768,-0.14423636,0.024966778,0.15199131,0.1444898,-0.06838112,0.20587265,-0.037370004,0.19231632,0.2748108,-0.056189332,-0.10911843,0.10994618,-0.19860972,-0.27423644,-0.1859254,-0.1485696,0.26182723,0.1073831,0.04313047,0.22102854,0.13788345,-0.14890243,0.11382014,-0.20426434,0.19695115,-0.11453709,-0.08199817,0.15765455,-0.069155626,0.092570625,-0.058274418,-0.12457486,-0.056108788,-0.32185784,-0.4762683,0.10648631,0.14924659,0.08192563,-0.13957122,-0.02684502,-0.24309318,-0.107477866,-0.14738284,0.10523968,-0.23250529,0.2179514,-0.056650788,-0.19481711,0.25252292,0.0041932915,0.07538557,-0.21890259,-0.1454298,-0.16575238,0.15869583,0.007953698,0.22913401,-0.06609683,-0.095595844,-0.015648032,0.079744875,0.1889502,-0.014212923,-0.13865489,-0.06695134,-0.05606482,0.15706842,-0.08187836,-0.37456113,0.19423923,-0.18472938,0.09931457,-0.14380822,-0.1477844,0.2132961,0.06526286,-0.10731006,-0.04505947,-0.12982963,-0.01699796,-0.25027442,0.03518384,-0.19600518,-0.18049188,0.18312107,0.16252446,-0.022225084,-0.0449227,-0.12474768,0.050838023,0.12954648,-0.22190529,0.03416842,-0.083516456,0.114988595,0.032361023,0.40241292,-0.103338726,-0.38275436,-0.043367676,-0.055414412,0.045555495,-0.09901163,-0.009372003,0.0027744498,0.06688487,-0.018731087,0.09138,-0.07989381,-0.07991577,-0.05358668,-0.0150155835,0.099695414,-0.08407834,-0.22073886,0.029293917,-0.040296473,-0.034184985,-0.09538786,-0.17553328,-0.0458626,0.30589312,0.043521058,-0.0020292709,-0.110936284,0.10722061,-0.1445173,0.013105488,0.15665409,0.12045479,0.026664909,-0.22974628,0.0914651,0.02918998,0.10205719,-0.21645091,-0.18901826,-0.074680954,0.017765399,0.12644336,0.07379782,0.18375367,-0.023831528,-0.21885215,-0.056001786,0.30596673,-0.07081061,0.16706248,0.0041615553,0.043879673,0.07007738,0.029331245,-0.08134827,-0.2908769,0.05061566,0.11172644,-0.20610873,-0.11253712,-0.24925677,0.27958193,-0.027188672,-0.13651145,-0.04521134
Scaufflaire::0.032330327,0.34053892,-0.039804053,0.08630772,0.044584088,0.122135274,0.032881085,0.17783022,-0.22477809,-0.11378099,0.0033317904,0.23206508,0.01470918,0.30674365,0.019083519,-0.23931824,0.12633179,-0.39296517,0.047488004,0.047793906,0.00016791213,-0.099940166,-0.020604417,0.085540704,0.13379022,-0.017525807,-0.08042525,0.0629354,-0.046511333,-0.12614526,-0.11258807,-0.2018955,0.00087771105,-0.26967606,-0.13610269,0.24986643,0.15184031,-0.2905571,-0.2292174,-0.050694387,0.12164841,0.010096372,0.2114617,-0.20266286,0.05084845,0.058338646,0.039592527,0.0088921245,0.3631118,-0.16221923,-0.09605051,-0.17423484,-0.13977326,0.11269246,0.021904835,-0.05204326,0.074289955,0.07320269,-0.072037615,0.1893075,-0.030338675,-0.010398203,-0.19139569,0.15061195,0.105157726,0.024715524,0.050407,-0.027872492,-0.15242846,0.009278744,-0.0066534774,-0.15276702,0.16404575,-0.07773774,0.17235146,-0.12003534,-0.18498594,-0.2523526,-0.071705416,-0.026952866,0.046853185,-0.103696495,-0.21251905,-0.082910635,-0.13785851,0.10168058,-0.15250725,-0.03684698,0.05695108,0.040192477,-0.099782065,0.14348455,-0.048165116,-0.04357441,-0.02611902,-0.15865617,0.0022902268,0.32482007,0.26825663,-0.15801945,0.07571619,-0.16174386,-0.12028409,0.08791549,-0.117846005,-0.0106484,0.1782883,-0.04995887,0.18610884,0.21137016,-0.17311482,0.14892401,-0.06287806,-0.01821817,0.08100871,-0.17155527,-0.07483579,-0.32096404,-0.18179744,0.03468272,-0.049364634,0.21181382,0.09541435,0.10945076,0.05188495,-0.29906505,-0.05762165,0.23266312,-0.1820238,-0.05658255,0.06924824,0.10891117,0.047467902,0.04408197,0.16410996,-0.20425674,-0.021164734,-0.06288073,0.20898174,0.021823475,0.028482335,-0.07365677,0.05980857,0.10193481,0.06508363,-0.039782215,-0.10707341,-0.05436169,0.18390682,-0.00742036,-0.072425745,-0.26358593,0.05365439,-0.054853335,0.05020105,0.04178485,-0.13304824,0.07678194,0.08792375,0.30084792,0.013187503,-0.103586294,0.16136925,-0.1571699,0.0053021866,0.10440495,-0.0017208869,-0.08926503,-0.073835105,-0.010912953,0.005452168,0.06851839,-0.13423324,-0.04876533,0.14077996,-0.10789982,0.018011184,-0.27990195,0.29158306,-0.055172924,-0.08042819,-0.08336545,0.17364922,-0.042014003,0.13961855,0.108598806,-0.04779808,0.16245762,0.12384099,0.02884843,-0.21151878,-0.05849936,0.12883787,-0.030143045,-0.075417824,-0.260913,0.20147099,0.06298765,0.07470774,0.14671284
Woman1::0.042845126,0.31645685,0.017476073,-0.09072602,0.060197208,-0.15893182,0.029705435,0.398719,-0.120153636,-0.019546757,-0.05884663,0.38992086,0.051404003,0.18857566,0.085208505,-0.2940734,0.009666147,-0.23255655,0.025395183,-0.059018414,0.123112984,0.14740528,0.029968506,-0.11848105,0.06743374,0.092357025,-0.07664939,0.080810666,0.16991489,-0.22139072,-0.0032060065,-0.119835824,-0.16652472,-0.07389072,0.040204678,0.12713026,0.040320676,-0.017608127,-0.052210625,0.070909664,0.099955335,-0.08195723,0.31147224,-0.331258,0.11599106,0.16248022,0.11854225,-0.093447655,0.2496947,-0.12529658,-0.0968472,-0.34868732,-0.14105049,0.14899205,0.13092084,0.048726726,0.2582453,0.16783348,-0.16717215,-0.1256821,-0.15559801,0.28301865,-0.11619191,-0.08384557,0.28322455,-0.12254799,0.12807252,-0.071587384,-0.0715268,-0.06415686,-0.036227077,-0.12700516,0.12863997,-0.21915251,0.06383638,-0.2272373,0.025005102,-0.19700238,0.12680323,0.12195193,0.15706582,-0.1331863,0.01679011,-0.008886103,-0.26315904,0.15056674,-0.1535447,0.2264566,0.042933814,-0.10360551,-0.005922173,0.18053693,-0.11673215,0.04775945,-0.048608452,0.030572657,0.0706405,0.15439746,0.21854906,-0.04581454,-0.08792236,-0.1325091,-0.21931008,-0.14010747,0.027679661,-0.16104922,0.027075281,-0.048290085,0.0033710399,0.10252889,-0.08137373,0.18247642,0.15916799,-0.06414403,-0.07846632,-0.17772542,0.019456264,-0.21958053,-0.08555859,-0.0062143705,0.022677807,0.22228093,0.057330485,0.03577276,0.22004205,-0.39534262,-0.11309023,-0.02157641,-0.14183563,0.089232475,-0.13202426,0.043848205,-0.08315325,0.28459293,-0.28183588,-0.18226174,0.02149288,-0.15803564,0.2383409,0.12772666,0.035521485,-0.04527895,0.2593834,-0.06699042,-0.0199473,0.07472433,0.03924526,0.16609342,-0.0050306236,0.09329799,0.11021721,-0.31715557,0.08963789,0.07333126,0.01259702,-0.2725239,-0.01138459,-0.013234171,-0.05858028,0.29692987,0.20027044,-0.04770572,0.19185832,-0.059766755,-0.032077875,0.11037839,0.16530918,-0.090343185,-0.15834136,0.13552508,0.09279127,0.0759253,0.0099560125,-0.08423099,0.1508645,-0.104568616,0.09491007,0.112895064,0.24505356,0.13221316,0.03864265,-0.05473731,-0.11109173,0.051457703,0.08963259,0.040225603,-0.17902078,0.10291278,0.1279239,0.004873562,-0.40627134,-0.13223381,0.13824503,-0.022955038,0.07667697,-0.20754537,0.18314835,0.1179708,-0.17068158,0.1730414
Judge::0.065708056,0.23552226,-0.016557857,0.28027877,-0.21666984,-0.06859494,0.0673552,0.42093554,-0.37298158,0.05181186,-0.18517698,0.10144247,0.026906896,0.15515237,0.004341965,-0.43721,0.1295381,-0.268496,-0.114796706,0.13482219,0.039326414,0.27386954,0.089479305,0.08097932,-0.038408116,0.13488542,-0.04127435,0.021297215,-0.15033995,-0.08615253,-0.017373389,-0.28498867,-0.091546685,-0.12575985,-0.10468279,0.34517533,0.13016367,-0.51170564,-0.052958127,0.09369152,0.22063302,0.03498744,0.07998609,-0.18829173,0.20700648,0.0023535101,-0.1715718,0.013958203,0.05939336,-0.22692014,-0.06649312,-0.049170084,-0.056999028,0.07997498,-0.060246155,0.08362454,-0.040869184,0.23758298,-0.0064346236,0.14109363,-0.128106,-0.04293351,-0.14770238,0.05196937,0.28720617,0.0019979791,-0.0316534,-0.19201893,0.14470516,0.08772664,-0.13662505,0.08315023,0.22704758,-0.093544014,-0.0095486855,-0.38450494,-0.20200516,-0.20761229,0.0068751504,-0.16827103,-0.10913822,-0.014565961,-0.12416608,-0.010600097,-0.426841,0.15512383,-0.14451626,-0.22186959,-0.039593883,-0.012754201,-0.06275984,0.060238037,-0.39981836,-0.15971336,-0.06294036,0.20115383,-0.020831628,0.37799925,0.23831394,-0.08490456,0.016324574,-0.29142487,-0.26515716,0.006428456,-0.14366971,-0.040872395,-0.21769542,-0.061048023,0.17054676,0.24555862,0.09520568,0.14782003,-0.15610239,0.117075674,0.005054435,0.053139802,-0.12000924,-0.31889623,0.023229202,0.10867044,-0.032997612,0.19120334,0.10925816,0.34170243,0.016388403,-0.44648278,-0.060610592,0.006690961,-0.5574857,-0.22968316,-0.1374886,0.26936474,-0.046962842,0.103503086,-0.20024939,-0.22596857,-0.104521155,-0.12008858,0.26764458,0.07748376,-0.1655406,-0.055612154,0.029876107,0.038818598,-0.28101107,0.28053305,-0.14661878,0.20095675,0.16813348,0.1598883,-0.11974294,-0.2400386,0.039793067,-0.08575557,-0.059734043,0.071450196,-0.37780795,0.14961891,0.03354991,0.33204436,-0.24352945,-0.14281078,0.035644393,-0.17737214,0.09314637,0.0043116957,0.14481549,-0.03731745,-0.27048048,0.113242455,0.24188346,0.008109381,0.29457754,-0.043640338,0.18909979,0.19619614,0.18158151,-0.2439355,0.039312813,0.13114941,-0.012514193,0.120878644,0.14749834,-0.047503877,-0.0985915,-0.0051564323,0.1666891,0.18141249,0.12462488,0.17239118,-0.16330537,-0.11613748,0.13462909,0.0044477703,0.08896408,-0.29492864,0.04648387,0.06831122,0.09523092,0.005989461
Champmathieu::0.044702403,0.26332605,-0.047506154,0.21308377,-0.20213833,-0.09391129,0.11528288,0.4423433,-0.4042366,0.0589019,-0.18788661,0.17053628,0.03762679,0.14361422,-0.030053444,-0.45289466,0.13060522,-0.3237776,-0.06809371,0.12953684,0.11005122,0.24759416,0.06873344,0.024315963,-0.08175368,0.09865348,-0.051034447,0.020875728,-0.05150041,-0.06074421,-0.025300868,-0.33902612,-0.07940278,-0.17092174,-0.14107335,0.2957352,0.06559465,-0.49097657,-0.10194581,0.08786852,0.18527542,0.013512414,0.16677774,-0.19536854,0.2232155,-0.0064563584,-0.1409523,0.0014426906,0.12596299,-0.24329248,-0.07580523,-0.027333332,-0.008208619,0.12139873,-0.040589124,0.07113624,0.016477967,0.21255128,-0.016277757,0.112814985,-0.15283175,-0.008672164,-0.14723764,0.015507722,0.26149908,0.010823044,0.01008885,-0.18196239,0.11644728,0.0624901,-0.13023452,-0.0007670011,0.24896206,-0.080358654,-0.007275666,-0.33377737,-0.20718585,-0.16257133,0.025326757,-0.13461083,-0.06992662,-0.03186583,-0.060229853,0.0017537554,-0.43397656,0.16961727,-0.17166425,-0.15060046,-0.06885191,0.030466145,-0.04905842,0.042628042,-0.46117967,-0.17514697,-0.039399907,0.15230824,0.0003412458,0.36280346,0.2435008,-0.05318399,0.009981874,-0.273235,-0.2844059,-0.02981349,-0.12629925,-0.087049104,-0.19502212,-0.08735229,0.15591633,0.27215302,0.06650364,0.16136932,-0.09595492,0.063429065,0.007645852,-0.032481365,-0.0994043,-0.33564365,-0.035395578,0.0591556,-0.11274843,0.23753583,0.16616452,0.317853,-0.0008806308,-0.51714206,-0.107215226,0.020409912,-0.5682919,-0.22710688,-0.1744149,0.28112936,-0.03233855,0.13315588,-0.20073919,-0.23004319,-0.095257014,-0.14289653,0.254858,0.10355122,-0.122876175,-0.041463852,0.0012954084,0.058087017,-0.27729625,0.24446273,-0.13659571,0.1673646,0.10898457,0.14372931,-0.11400512,-0.21868263,0.05462647,-0.09837975,-0.0049803965,0.036702875,-0.3117851,0.11888591,0.06419255,0.31159422,-0.18420717,-0.160844,0.112450175,-0.17641102,0.073606074,0.026397694,0.15349667,-0.03989112,-0.24841174,0.108556025,0.25700378,0.023705434,0.28373832,0.02223116,0.22692202,0.1786507,0.17284238,-0.23382239,0.09015767,0.143729,-0.026926871,0.13416101,0.11818214,-0.082376,-0.059985336,-0.050482135,0.19477315,0.19288881,0.15970765,0.15681821,-0.21007082,-0.15051833,0.14719577,0.020297956,0.088255934,-0.3059489,0.1416895,0.06896911,0.054752167,0.04318746
Brevet::0.08453991,0.24587356,-0.04133117,0.23875463,-0.20281248,-0.095832355,0.10795206,0.39886698,-0.37135646,0.054606132,-0.17493404,0.10928803,0.020236533,0.0864511,0.004062764,-0.36928087,0.110285856,-0.27854785,-0.07831952,0.10530276,0.07354296,0.2539901,0.10166582,0.0075045954,-0.11006961,0.11840229,-0.04041541,0.0046052514,-0.0742485,-0.078726694,-0.021650743,-0.296791,-0.07356512,-0.109919876,-0.15267973,0.27236074,0.06464694,-0.46008492,-0.10413804,0.11433383,0.21121757,-0.021187276,0.14399327,-0.20154826,0.23674542,-0.04748946,-0.11725101,0.02251975,0.09677414,-0.20185257,-0.020290058,-0.021593876,-0.0068207397,0.035183582,-0.044891804,0.09128907,-0.009703795,0.21614982,-0.04394018,0.07939535,-0.08423975,-0.012958738,-0.14148402,0.06366889,0.22691913,0.0054801777,-0.033936832,-0.1683327,0.116957344,0.07859705,-0.08974267,0.05919246,0.24497731,-0.11100513,-0.008168331,-0.35014164,-0.17456846,-0.16303302,0.06392997,-0.1289604,-0.08461652,-0.021102127,-0.07636074,0.000107282656,-0.4424671,0.17620812,-0.15725324,-0.18762425,0.015578049,0.04062541,-0.012254066,0.045739785,-0.45098,-0.19773237,-0.07146293,0.17400454,-0.0070119724,0.32278186,0.2268943,-0.056320492,-0.04996465,-0.28098416,-0.2648163,-0.051586878,-0.13208231,-0.040449053,-0.2141874,-0.000385379,0.1711941,0.27079743,0.07851404,0.17736809,-0.08611975,0.08232239,-0.04021995,-0.012991175,-0.11403539,-0.35204557,-0.00075625477,0.065216064,-0.04484062,0.2039964,0.16280961,0.3510489,-0.012074364,-0.46141312,-0.080163196,0.045440856,-0.57452196,-0.22336647,-0.21175359,0.18514717,-0.04702457,0.07914829,-0.15691158,-0.24125572,-0.08689641,-0.09009858,0.27231282,0.0886004,-0.12838309,-0.035119288,0.030176837,0.06866268,-0.29688987,0.28761843,-0.16706218,0.23086283,0.14870411,0.1268786,-0.094675176,-0.23995699,0.05927309,-0.11347948,0.0013294414,0.084610045,-0.27993816,0.1675019,0.045681894,0.35765964,-0.20422539,-0.15512827,0.12677307,-0.20978591,0.09268192,0.026084201,0.119640976,-0.081002325,-0.28488585,0.11211775,0.2915058,0.003872277,0.34282285,-0.0030346941,0.22041948,0.13341822,0.18387772,-0.25000292,0.04675433,0.120057024,-0.0013917236,0.099125236,0.07605781,-0.06906165,-0.09157444,-0.03736015,0.15891229,0.15405126,0.14616089,0.14645094,-0.118129656,-0.14832303,0.13239871,0.005867034,0.095112346,-0.2865536,0.10234219,0.059832793,0.06307619,0.040937353
Chenildieu::0.12019893,0.25207928,-0.028033487,0.2831739,-0.18090089,-0.039287116,0.08795321,0.4059055,-0.4195274,0.029481394,-0.14301758,0.09650235,0.02923536,0.14288864,-0.018887034,-0.44719484,0.09289166,-0.3320017,-0.12796724,0.11172398,0.0900442,0.23438573,0.08689165,0.065552354,-0.05054681,0.1482297,-0.04665887,0.038224753,-0.17014617,-0.06359027,-0.07399817,-0.28928062,-0.10234244,-0.13702427,-0.101773985,0.34499493,0.117066905,-0.5085505,-0.08867908,0.0708759,0.24391197,-0.0004581438,0.07229405,-0.18920021,0.23027068,0.001165033,-0.1905831,-0.03519656,0.06327378,-0.25560462,-0.10401667,-0.045598313,-0.024285384,0.08907552,-0.06572641,0.06531255,-0.037829287,0.23222771,-0.06532957,0.14797494,-0.11903371,-0.03416861,-0.1668896,0.08111696,0.25244677,0.014813966,-0.042101793,-0.21250501,0.14935568,0.08823192,-0.12130804,0.057736903,0.20521519,-0.077414565,0.02270182,-0.38848126,-0.20230596,-0.20931965,-0.023207832,-0.17744753,-0.11218165,-0.028213037,-0.068919726,-0.032553397,-0.4341553,0.18607053,-0.120627634,-0.22313192,-0.004390528,-0.0072834934,-0.035421405,0.042111274,-0.39109716,-0.13190383,-0.0904458,0.16155359,-0.016985971,0.36280057,0.2819213,-0.06438672,0.016881939,-0.2832513,-0.25465965,0.03871549,-0.19203305,-0.057610553,-0.18079662,-0.06115665,0.19552447,0.21076876,0.09668646,0.11457712,-0.14604418,0.108952545,-0.00010113376,0.046312045,-0.15897515,-0.33787462,0.06267091,0.11461655,-0.03491904,0.17551456,0.103969194,0.34012088,0.01424853,-0.43917173,-0.036625262,0.07566598,-0.5080106,-0.25107044,-0.11570664,0.24850096,-0.07290768,0.08585718,-0.21296336,-0.22292383,-0.11376351,-0.08446085,0.2027171,0.06667279,-0.18541978,0.00074978,-0.012064115,0.049111936,-0.25930786,0.2532138,-0.16528419,0.2034674,0.13586944,0.14715804,-0.098127626,-0.21928264,0.033627406,-0.105296895,-0.030248662,0.070967086,-0.36025736,0.11309878,0.0665395,0.3123755,-0.23703358,-0.15004916,0.051647134,-0.18072398,0.1022027,0.039631777,0.13479367,-0.050061505,-0.30228245,0.07307856,0.21279266,0.0011665729,0.26431787,-0.03326014,0.175558,0.18109605,0.20542628,-0.22677812,0.02786514,0.11323535,-0.047507446,0.0973349,0.18736897,-0.09801958,-0.10807061,-0.008621221,0.17405534,0.20419306,0.09790151,0.15002267,-0.14934695,-0.122620165,0.14471501,0.009950568,0.10172325,-0.31570575,0.04429371,0.042784337,0.11009893,-0.0014169369
Cochepaille::0.06498182,0.27924195,0.009744049,0.19352867,-0.17706402,-0.1140356,0.09666041,0.37620956,-0.3491586,0.046155587,-0.15836404,0.13457912,0.029096793,0.06666881,0.042354424,-0.40294856,0.09898299,-0.256889,-0.10465826,0.1405722,0.079067305,0.26205778,0.07993824,0.016450498,-0.082707874,0.12423894,-0.040112276,0.0070833913,-0.044870403,-0.048983317,0.0080662025,-0.23505892,-0.08555368,-0.13890402,-0.13470422,0.28640634,0.08707636,-0.44854638,-0.07614917,0.10164184,0.22474492,-0.0060007926,0.14955467,-0.19227841,0.24339776,0.013611467,-0.10348216,0.028861621,0.048049282,-0.1792248,-0.011116167,-0.043545723,-0.02443825,0.10858404,-0.055512894,0.09677722,-0.0063832654,0.21594521,0.016697345,0.09084025,-0.14546618,-0.014986968,-0.15285173,-0.002567664,0.30159187,-0.019195069,-0.0097569125,-0.20411456,0.16778396,0.07633964,-0.10514026,0.098922215,0.25317958,-0.099645205,-0.06198989,-0.37451023,-0.17273565,-0.16945025,0.062264703,-0.13034597,-0.0964818,-0.03989893,-0.088938735,-0.02020682,-0.4613596,0.17823508,-0.16936186,-0.16783856,-0.048980266,0.0543792,-0.017114686,0.06561763,-0.46133244,-0.129785,-0.036501132,0.19013937,-0.025387986,0.32231954,0.23970813,-0.09546047,-0.0196569,-0.29208294,-0.31284106,-0.051821467,-0.08906124,-0.07257282,-0.22043769,-0.019030273,0.20693433,0.31057552,0.09517055,0.19297852,-0.12031341,0.05539566,-0.062157992,0.013760529,-0.09634707,-0.32817405,-0.021469856,0.07625205,-0.044127926,0.2801104,0.15381289,0.2765477,0.00055377156,-0.460981,-0.077353686,-0.0056407307,-0.5726398,-0.20528844,-0.22493576,0.23779818,-0.078348085,0.11199198,-0.22599483,-0.22368832,-0.039945748,-0.10271468,0.27544308,0.06950892,-0.122658566,-0.071398176,0.06259829,0.04334687,-0.251833,0.26924974,-0.110009685,0.18114759,0.16623428,0.123007424,-0.06698561,-0.24587579,0.0634242,-0.06297586,-0.12539212,0.013045689,-0.3055542,0.11643807,0.04243869,0.3743604,-0.16785382,-0.12977023,0.08308939,-0.20448083,0.066527694,0.006736355,0.20205446,-0.04334796,-0.28813228,0.13285702,0.26864004,0.020024514,0.29419026,0.014598768,0.20690203,0.15060037,0.14060487,-0.24418518,0.0503715,0.16047345,0.021758445,0.118152864,0.11126787,-0.052191187,-0.058866426,-0.04010693,0.15194835,0.17756854,0.12208212,0.12188832,-0.16018902,-0.11864456,0.14291172,0.051053178,0.052921314,-0.25191954,0.025967605,0.045263436,0.046206422,0.012467033
Pontmercy::0.5074821,0.18010584,0.18621804,-0.2732502,0.1919228,-0.15208724,0.06116959,0.24819422,-0.3014183,0.03690374,0.31673467,0.11122562,-0.08274139,-0.06003838,0.04302608,-0.10913005,-0.37600914,-0.2670304,-0.028146768,-0.24279907,0.3080556,-0.277232,0.03715707,-0.22254963,-0.22587065,0.19723277,0.1305457,0.47885334,0.13211045,-0.007993919,-0.2595877,0.11574055,-0.19771396,-0.085584275,-0.29270834,-0.10053695,0.029271988,0.11584518,-0.3430833,-0.27377567,0.23582824,-0.37002525,0.118658036,-0.24201378,0.43107387,-0.15325816,0.1882548,0.015176739,0.30187234,-0.112207726,-0.29867038,-0.30360922,0.09052398,-0.056391302,-0.05186251,-0.2773895,-0.08880411,-0.06598472,-0.2688856,-0.32201564,0.01941441,0.18193954,-0.41390166,0.30111653,0.02557939,0.11682321,-0.1824491,-0.033963405,-0.02521749,0.01695132,0.029862722,-0.23102777,0.37624237,-0.030009992,0.23314612,-0.065834835,0.1964977,-0.09810479,0.0073928386,-0.20634541,-0.09729614,-0.07182863,0.170191,-0.2146524,-0.43590066,0.07758276,0.14521036,0.22270718,0.3187414,-0.05424765,0.05523732,0.18299687,-0.0431691,-0.10426529,-0.054317754,0.06641363,0.12912178,-0.08919033,0.10018202,-0.00916465,-0.18877721,-0.23033793,-0.15830973,-0.12638086,-0.037453394,-0.37829012,0.06756137,0.36365557,0.20800698,0.00228436,0.08894049,0.27987128,0.14213446,0.16365126,-0.16707581,-0.0680848,0.05790819,-0.23564681,0.20010217,0.0008174494,-0.11253172,-0.0078047877,0.05967807,-0.14434056,-0.08572691,-0.1332747,0.24229705,-0.04956945,-0.28337163,-0.06762438,-0.12775372,-0.32464978,0.08828055,0.2241035,-0.17344876,-0.09932485,0.09995673,-0.27533504,0.09949346,0.101649515,-0.05444612,0.090804145,0.2840851,-0.118855886,0.022819452,0.13591431,0.26586577,0.6766659,0.3069862,-0.04915998,0.21643248,-0.070391744,0.071269415,0.06571145,0.066132806,-0.08599148,0.21901664,0.12981513,-0.122023866,0.51073694,0.027661888,0.26425636,-0.18121131,-0.07135591,0.23490761,0.20221364,0.04752635,-0.34786713,0.14745858,0.045890983,-0.0072546997,0.018406795,-0.21756195,0.12075176,0.04092617,-0.2790822,0.10368985,0.15388332,-0.14960599,-0.25609428,-0.025026567,-0.35847706,0.015824115,0.10804265,0.060652103,-0.047822766,-0.20035495,-0.34676462,0.42521513,0.14727885,-0.011935484,-0.17915857,0.021682903,-0.085815646,0.3628861,-0.2537971,0.1580394,-0.07524295,0.008077425,-0.19952416
Boulatruelle::0.33928427,0.45931473,0.114816785,-0.041110285,-0.23583598,0.0617542,0.1970041,0.10593102,-0.40552452,0.17489116,0.20022236,0.1419915,-0.38845813,-0.33814257,0.050440233,-0.13579112,-0.023068406,-0.32790384,-0.21805215,-0.0777439,-0.05368314,-0.19790396,-0.031664703,-0.17570208,-0.16758253,0.16548946,-0.19097517,0.041605044,0.05265047,0.17355241,-0.13060214,-0.18254557,0.0907959,-0.09557422,-0.59819794,0.113871135,-0.1513198,-0.04008166,-0.18019524,-0.039908435,0.14443454,-0.44672617,0.27422678,-0.15523008,0.4023455,-0.1445552,0.3554444,0.13334857,0.4352783,-0.11469166,-0.26795655,-0.18664016,-0.12784025,0.27062598,-0.037749443,0.063273214,-0.08615998,-0.019520637,-0.05024557,-0.17822485,-0.20891897,-0.14195326,-0.5666385,0.11134179,-0.15870719,0.0906969,-0.24637754,0.0509142,-0.043342315,-0.11399372,0.09196891,0.021049755,0.27553472,0.12949626,-0.003982932,0.026915964,-0.2411823,-0.17048557,0.15661715,0.031279437,-0.1398723,0.029317128,0.23408909,0.05634948,-0.28316566,0.2566613,-0.115523495,-0.06930278,0.046995465,-0.00035010642,0.035950087,-0.13483575,-0.05019661,-0.33011046,-0.10582775,0.031635728,0.07753991,-0.16446984,-0.09614212,-0.24391994,-0.31293774,-0.23022136,-0.091364235,-0.24773623,0.14463499,-0.057079107,-0.020670943,0.31874374,0.2428314,0.12946406,0.0029914898,0.19592915,-0.10088382,-0.16352244,-0.4413329,-0.0211558,-0.0053325198,-0.20619489,0.024352575,-0.0060109133,-0.24370112,0.0055615995,0.1855212,0.17997469,-0.006668551,0.18341328,0.16531987,0.045668893,-0.35885176,-0.06530079,-0.27118123,-0.23967552,0.23988633,0.13774234,0.03611289,-0.25144127,0.2748723,0.18185794,0.35535744,0.14497343,-0.13439144,-0.11258443,0.06847314,0.04086848,0.15764767,0.15017338,-0.13976714,0.399343,0.16421495,-0.027860664,0.26550898,-0.15413946,0.0072252164,-0.21831273,-0.20185198,0.21158515,0.11817062,-0.03478556,-0.054973863,0.29013607,0.18249638,-0.051610656,-0.04078988,0.014074478,-0.10429765,0.16996376,-0.12943722,-0.34775937,-0.012593349,0.29769102,0.15262815,0.33789858,-0.1218505,0.052283105,0.016503874,-0.26545382,0.04686097,-0.1177301,-0.2161919,-0.23911686,-0.026759822,-0.34381074,0.062227912,-0.31135687,0.0666173,-0.3589702,0.013796441,-0.26655328,0.15809022,0.020502454,0.14881976,-0.08110706,-0.032623973,-0.059842173,0.19154324,-0.22429581,0.00810774,0.20057647,-0.28364938,0.0028605375
Eponine::0.3096884,0.3630901,0.04851936,-0.16205737,-0.1311992,0.035372514,-0.031625535,0.042845204,0.021483526,0.07813745,-0.079093985,0.0069050025,-0.09393197,-0.028884277,0.054271158,-0.08774621,-0.18263237,-0.14228053,-0.09302398,0.034672253,-0.12750894,-0.08476983,0.05094003,-0.04574947,0.12215138,0.15242817,-0.13328364,0.07022608,0.06834474,0.03465587,-0.040263638,0.012595544,-0.07569355,-0.21799354,-0.25338024,0.0738095,0.24564445,-0.027040306,0.047448356,-0.08856354,0.17521705,-0.13559788,0.14271532,-0.17218307,0.24223721,-0.026197443,0.15073115,0.10460792,0.2949388,-0.023435848,-0.17286356,-0.13556172,-0.18119107,0.09473837,0.016527496,-0.06329219,-0.010023891,-0.023279492,0.04094068,-0.14746472,-0.20978074,-0.04758363,-0.31799495,0.078564085,0.087165944,0.16197309,-0.06248878,0.12527974,-0.21081734,0.008281084,-0.13972077,-0.11973543,0.3421278,0.07066108,-0.006307181,0.0012233995,-0.060789283,-0.07948077,0.0140111735,-0.18919057,-0.08106508,-0.10031291,-0.10115605,-0.008841331,-0.21059565,-0.026459606,-0.043798953,0.020294096,-0.0053890226,-0.03843915,-0.2968887,0.014484306,0.16835675,-0.37498164,-0.07688077,0.16559032,-0.030522017,-0.013380483,-0.17563574,-0.18545271,-0.089263424,-0.20571168,-0.19089498,-0.10592219,0.0071629575,-0.05605976,0.011557079,0.12431466,0.25331974,0.101959094,-0.08294621,0.42540884,-0.07641161,-0.009378355,-0.034989797,0.098782405,0.21057242,-0.08576318,0.013986676,-0.10537107,-0.0040408922,0.05381748,0.104346596,0.018574547,-0.052356154,0.024039334,0.18324836,-0.04724102,-0.3279073,0.08809585,0.022316096,-0.04530242,0.27817103,0.26874626,0.034590784,-0.20386684,0.10956051,-0.29889667,0.35843173,0.032419316,-0.10384252,-0.19661462,0.13663593,-0.12084995,-0.013797544,0.24104509,0.017509505,0.22208722,0.3944027,0.015328423,-0.11179869,-0.09850039,0.098395966,0.073941484,-0.16006404,0.1216137,0.038725656,0.16116405,-0.15752767,0.31842947,0.0015145608,0.06260591,-0.28216743,0.025127238,-0.012305585,0.066344865,-0.008562522,-0.21316314,0.16363023,0.20164695,0.120819084,0.13543051,-0.083787434,-0.0694837,-0.080832705,-0.05510784,0.017419126,-0.040589742,-0.06979388,-0.11857694,-0.0077418806,-0.22493842,0.09492852,0.14668387,0.15592971,-0.13857216,-0.057854515,-0.38755307,0.18224424,0.0670487,-0.1015325,-0.054541387,-0.14850405,-0.26841602,0.08570988,-0.03199275,-0.112207055,0.05420999,-0.08759319,-0.1263594
