Napoleon::-0.37066916,-0.606184,-0.7080561,-0.46132118,0.044092827,-0.11571695,-0.5279233,0.96495426,0.03862464,-0.22435452,0.65649873,0.38172188,0.43565878,0.8697304,-0.7065324,0.376172,-0.2006597,-0.61859804,-0.53715205,0.44071293,-0.27539226,-0.5340589,0.055292785,0.161578,0.3362823,0.87640244,-0.1484405,0.20275885,0.051938523,-0.072940506,0.40107346,0.12554453,-0.08548745,0.46309468,0.46287706,-1.1080955,-0.49292198,-0.2879986,0.3784663,-0.17013331,-0.20837379,0.4121001,0.15411185,-0.14990444,0.01803671,0.6584045,-0.3959019,0.58134574,0.53137696,0.33846074
Myriel::-0.070878245,-0.36218107,-0.54883105,-0.42947465,-0.04045559,0.05112896,-0.36916563,0.8289391,-0.1576954,-0.16417725,0.24354571,0.33423457,0.50178343,0.5606351,-0.75571954,0.20597608,-0.17271774,-0.35300496,-0.46399206,0.2883302,-0.21008806,-0.045574464,-0.008282069,0.017498551,0.5402962,0.8004508,0.09261242,-0.1934666,-0.115327336,-0.06472369,0.18039787,-0.090864554,-0.21927473,0.60360765,0.34213388,-0.6534543,-0.35775346,-0.5388649,0.4410995,-0.1586424,0.009258056,0.42779443,-0.01172768,-0.26214784,-0.15475844,0.79640365,-0.14922933,0.5714291,0.54172665,0.2648445
MlleBaptistine::-0.15349704,-0.32928047,-0.5138554,-0.16784865,-0.0032296642,0.30898273,-0.449075,0.75715923,-0.4401489,-0.08214508,0.028749567,0.74862546,0.2123441,0.36894011,-0.5591916,-0.12055134,-0.10850969,-0.21044904,-0.39956573,-0.0039006998,-0.023513747,-0.13345055,-0.085224114,-0.054155737,0.23707049,0.41625252,0.12572399,0.1243211,-0.14409302,0.29522,0.15705834,-0.27562824,-0.17970608,0.35794505,0.24715006,-0.3747079,-0.009328185,-0.46627754,0.26665863,0.046757735,-0.16902322,0.26066017,-0.08757321,-0.18521768,0.062678546,0.7289355,-0.07640315,0.40578443,0.15407343,0.11988204
MmeMagloire::-0.18997166,-0.33408818,-0.3915906,-0.11247619,-0.0153818065,0.3199583,-0.5085697,0.7072553,-0.5194168,-0.018843884,-0.018290242,0.7836803,0.11684737,0.40815443,-0.5888055,-0.17463383,-0.034588408,-0.22103068,-0.5494813,-0.0024302225,-0.10680462,-0.09384038,-0.12589031,-0.14411116,0.35375947,0.36938554,0.084104426,0.15494722,-0.15216409,0.18556407,0.14488724,-0.26285964,-0.21669418,0.3178627,0.1645844,-0.3238258,-0.19159122,-0.2458364,0.45731497,-0.003497387,-0.119925104,0.20053013,-0.1571054,-0.27168322,0.16221736,0.69414544,-0.25845954,0.28306124,0.10587279,0.1026541
CountessDeLo::-0.18585348,-0.54564285,-0.7140064,-0.36653703,-0.18132599,0.12234707,-0.2903174,1.2025311,-0.21145922,-0.3125146,0.4111558,0.40772402,0.3161146,0.97480685,-0.59557676,0.16241336,-0.1906745,-0.48750442,-0.28834727,0.3025764,-0.189929,-0.39489883,0.30687478,0.07350291,0.43228337,0.8261972,0.0020086274,0.028051581,0.038590565,0.14276233,0.53626066,-0.24902306,0.12719743,0.46808833,0.27535334,-0.6933258,-0.24262328,-0.5177402,0.48735526,-0.07201629,-0.17330047,0.45194617,0.23966879,-0.2961936,-0.081026934,0.7391799,0.052522235,0.62525886,0.49810022,-0.00062331086
Geborand::-0.43093982,-0.6040697,-0.5132927,-0.42235467,-0.0130827315,0.1483284,-0.5254202,0.93579954,-0.23220389,0.11841289,0.6044252,0.1932166,0.48232868,0.627197,-0.74844766,0.15486701,-0.116761334,-0.5837598,-0.23178779,0.47035128,-0.19262804,-0.35841495,0.102530874,0.21890214,0.3730351,0.8751499,0.13929902,0.12762003,-0.2401498,-0.21910328,0.23559542,-0.07195061,0.265379,0.43377495,0.4440466,-0.6436311,-0.38538605,-0.60236424,0.54007983,-0.14036086,-0.34479648,0.29692116,-0.22851855,-0.19569749,-0.053542826,0.99199456,-0.090841286,0.56095356,0.5923587,0.5958926
Champtercier::-0.082794145,-0.67138094,-0.31847563,-0.08138139,-0.21213923,0.27348283,-0.24846858,0.9969386,-0.1067393,-0.014173566,0.13173105,0.30635807,0.18263933,0.6973323,-0.89909905,0.21804236,-0.096885264,-0.50864977,-0.15548602,0.32216465,-0.2595759,0.1444259,0.06188935,-0.04474915,0.66353333,0.94957745,0.16496818,0.11768334,-0.12965794,-0.3718879,0.2613716,-0.38399154,-0.015027958,0.14620347,0.44090232,-0.5918499,-0.33258832,-0.4999568,0.6330033,-0.14633429,-0.2413867,0.49810734,0.32321742,-0.4019316,0.075550765,0.828509,-0.3315221,0.5888501,0.60867155,0.12655737
Cravatte::-0.27806115,-0.7396057,-0.51325643,-0.4357231,-0.036396027,-0.07408363,-0.35587135,0.81777686,-0.29691568,-0.20433651,0.37970367,0.3620183,0.46450427,0.8506297,-0.7551913,0.16051625,-0.03688252,-0.4536748,-0.65867615,0.48604727,-0.24534564,-0.32581306,0.081268355,0.11354932,0.5122995,0.97335154,-0.0485952,0.18159619,-0.11244321,-0.14580786,0.42876598,0.066880085,0.044105824,0.41876218,0.33251354,-0.6999581,-0.5357274,-0.42059386,0.390695,-0.1790777,-0.20284341,0.31593248,0.10629533,-0.36437473,-0.010020755,0.7813405,-0.19805533,0.5929791,0.49232498,0.095356666
Count::-0.10980434,-0.6239736,-0.35810614,-0.27172598,-0.051053077,0.073076196,-0.52739733,0.7787529,-0.3102501,0.12703845,0.5041645,0.35169095,0.28157616,0.65162796,-0.76862967,0.32223383,-0.031931046,-0.69262093,-0.48937994,0.34512416,-0.23883878,-0.21487556,0.04512497,0.04551056,0.59076107,0.92173916,0.19307895,-0.13956799,0.03263663,-0.13101378,0.30953124,0.039072618,-0.12081428,0.5581714,0.17561615,-0.80732256,-0.43198436,-0.39638326,0.685769,0.0405809,-0.12448863,0.33958828,0.05358807,-0.31790465,0.038974226,0.53599554,-0.24303111,0.5050805,0.6363996,0.20816098
OldMan::-0.2973303,-0.8891022,-0.6001916,-0.482497,-0.06519603,-0.157715,-0.20960099,0.9124197,-0.21855083,-0.041346766,0.39110452,0.26593968,0.4322345,0.88055944,-0.89981097,0.20343581,0.021272408,-0.5203642,-0.52738595,0.55346686,-0.3332196,-0.1990192,0.10746595,0.31694654,0.65226233,1.1077775,0.029110508,0.21186146,-0.29601824,-0.21715406,0.38465676,0.07521825,0.010855131,0.37981248,0.5245195,-0.9098446,-0.4244531,-0.7527049,0.30988002,-0.18188934,-0.4861197,0.3052252,0.07982442,-0.38650927,0.09376984,0.83669007,-0.06277075,0.78254265,0.7684745,0.14196454
Valjean::-0.21517882,-0.09492189,-0.1950511,0.1839392,0.10751902,0.081876636,-0.12584244,0.32154253,-0.11524181,-0.1409203,-0.078152634,0.5953741,0.07165733,0.16172257,0.17625012,-0.10179293,-0.081670366,-0.17205758,0.09807271,-0.21892466,0.028900368,-0.17158867,-0.054258633,-0.07783921,0.25918117,0.14172858,-0.21495245,0.2299118,0.059980556,0.19008936,0.10724032,-0.347639,-0.5179272,0.50331396,0.21895851,-0.4594039,0.10565143,-0.1789478,-0.21355088,0.130694,0.01683693,0.036049716,0.14295125,-0.09342255,-0.21277182,0.38206357,0.15753332,0.52702516,-0.049440075,-0.0012951674
Labarre::-0.13783601,0.15846987,-0.31781414,0.15791409,0.10908711,-0.054178994,-0.3030993,0.34759054,-0.2531323,0.09191023,-0.16350994,0.64310884,-0.061822835,0.38505334,0.069104955,-0.19020931,-0.030193606,-0.25196356,0.13732122,-0.32064757,-0.090008065,0.28637344,0.18983172,-0.05486384,0.5094544,0.14703242,-0.107870236,0.2760286,-0.014759949,0.3102264,-0.05976955,-0.41745552,-0.64325696,0.35432473,0.10725897,-0.53805166,0.058718175,-0.2698818,0.17458954,0.016318608,0.06070586,0.0348519,-0.033347342,-0.024442708,6.128762e-05,0.29165813,-0.21418741,0.37963355,0.074271426,0.118916005
Marguerite::-0.24946176,0.0770808,-0.441877,0.2209752,0.0102883205,0.000387192,0.108179644,0.39336205,-0.21511985,0.050139535,-0.27203435,0.22123094,0.1188877,0.2925143,0.06888585,-0.28526416,-0.0799533,-0.043052584,0.38331857,-0.24201947,0.0107975295,0.21532199,0.19584438,0.0693557,0.48887843,0.17079103,-0.13858308,0.1195087,-0.29851276,0.115136705,0.10701698,-0.41074595,-0.1687107,0.20856643,0.21951793,-0.33572853,0.09979563,-0.55165803,-0.07298655,-0.11448737,-0.0873777,-0.11017466,-0.042678468,0.12825152,-0.28412104,0.5540764,0.36033863,0.48627758,-0.12027284,0.43334216
MmeDeR::-0.3071296,-0.08866408,-0.59902424,0.07783528,0.14767596,-0.04605734,-0.10490807,0.48287702,-0.13397114,-0.06691697,0.002231294,0.6350634,-0.028191851,0.29506034,0.09775473,-0.15684484,-0.03691849,-0.116220795,-0.005234773,-0.117514074,0.0059358184,-0.19613244,0.07314456,-0.0540883,0.23897702,-0.037282314,-0.30789596,0.20700358,-0.049646467,0.30671898,0.11815613,-0.33881566,-0.53991216,0.3899839,0.06389777,-0.6120192,-0.16353297,-0.19360542,0.09439931,0.03961305,0.14916518,0.08925455,-0.14275523,0.14811492,-0.13347703,0.08368202,-0.16630268,0.25352168,-0.09260292,0.26632047
Isabeau::-0.31960955,0.008247405,-0.5677183,0.19390531,0.1158433,0.044317875,-0.27215263,0.5528863,-0.18579882,-0.11327078,-0.20336725,0.6846905,0.14646557,0.25602508,0.11722902,-0.24322529,-0.27047613,-0.20419559,0.079521656,-0.26274088,0.036808286,-0.011431185,0.19831541,0.022165153,0.29504597,0.3033578,-0.20673841,0.25212604,-0.18364483,0.2187298,0.111262485,-0.20337257,-0.33466542,0.36696154,0.08712121,-0.5132372,-0.05941979,-0.09310838,0.019017821,0.11137608,0.041471273,-0.021374611,0.23968913,0.13670024,-0.1616882,0.5035198,-0.03451681,0.45320004,-0.04768765,0.32102567
Gervais::-0.24457677,-0.053802896,-0.3821543,0.21394859,0.19570975,-0.11641287,-0.10854314,0.39414468,-0.14329053,-0.13523728,-0.20872794,0.49679205,-0.047164652,0.37362152,0.1905178,-0.18551093,-0.18472281,-0.042701084,0.014534379,-0.23540488,-0.06731991,-0.011358599,0.13094464,-0.022723416,0.28978962,0.07690647,-0.26456228,0.3766734,-0.020730447,0.25108868,0.20569186,-0.3037693,-0.692053,0.29428527,0.18047899,-0.58742905,-0.020634003,-0.164274,-0.049564887,-0.045620255,0.10384354,0.07439878,0.227535,0.103120066,-0.11766348,0.19714676,-0.09125981,0.2766242,-0.09943907,0.15976433
Listolier::-0.45009357,-0.49979573,0.10538878,0.11924963,0.28835776,-0.26701072,0.5565766,0.348664,-0.2768124,0.5590634,0.0047274185,-0.54317886,0.17087813,0.29782665,0.235239,-0.4288555,0.26635563,-0.15115532,0.5867583,-0.107179746,-0.40006027,-0.059628222,0.22305739,0.17370887,0.58795285,-0.048695218,0.012473571,0.15201023,-0.47824118,-0.30455187,0.018009972,-0.28951517,-0.088411994,0.31657085,0.46701485,0.13284951,-0.32171834,-1.1037866,-0.0070311176,-0.5029426,-0.25219348,-0.21932974,-0.53275335,-0.33395353,-0.22785157,0.5808824,0.933303,0.3084974,0.13276729,0.4658065
Tholomyes::-0.28391576,-0.4961212,0.13715735,0.23204279,0.33756703,-0.23470882,0.5545391,0.26921594,-0.034329712,0.49866775,0.08467822,-0.34983948,0.16976166,0.20105515,0.46111703,-0.35779545,0.034257412,-0.19926725,0.50903314,-0.14033979,-0.40495515,-0.14640747,0.1668666,0.064374655,0.3126292,0.0008173722,-0.09679426,0.12023507,-0.20153053,-0.20498133,0.08713496,-0.36116835,-0.24117836,0.27903917,0.45455456,0.2594669,-0.35919344,-0.82754785,-0.13008992,-0.5198138,-0.18779723,-0.16378278,-0.42402515,-0.17296718,-0.16398576,0.4624077,0.8532414,0.16084175,-0.011470639,0.4685325
Fameuil::-0.45807415,-0.3856153,-0.087558605,0.059699543,0.17390116,-0.32089087,0.42834184,0.29521212,-0.2441954,0.5923379,0.0081067225,-0.44138,0.16760367,0.30324572,0.34262192,-0.45270032,0.11711004,-0.2230713,0.55030334,-0.15553352,-0.37874535,-0.066077985,0.31352255,0.17546006,0.6157097,0.039924655,0.026955456,0.15919738,-0.58107734,-0.15066317,0.026959646,-0.3206417,-0.120464794,0.3805214,0.42173603,0.123582184,-0.24809526,-1.1462029,-0.16905749,-0.36919603,-0.28028232,-0.23679799,-0.5475749,-0.19734977,-0.24211362,0.56760514,0.9499085,0.36044735,0.08244795,0.5214812
Blacheville::-0.38354492,-0.50593245,-0.08700177,0.09824401,0.17384645,-0.24955866,0.5398878,0.43580848,-0.25186297,0.53166795,0.03415518,-0.5281681,0.09831596,0.3173555,0.14324006,-0.32798204,0.1414023,-0.09391695,0.4854058,-0.05193913,-0.36045462,-0.041213218,0.30396825,0.23308168,0.56060153,0.14606814,-0.004833347,0.039268427,-0.53273195,-0.2505543,0.13481717,-0.39890003,-0.11549665,0.37719092,0.45110047,0.1534033,-0.28795525,-1.1365916,-0.008870824,-0.4081128,-0.2717339,-0.14156008,-0.48676783,-0.28918323,-0.2111499,0.569934,0.88832426,0.28617278,0.10707016,0.48742902
Favourite::-0.4262585,-0.42594707,-0.02561267,0.026392665,0.27177295,-0.22748058,0.52848005,0.43082392,-0.348214,0.550868,-0.0078093554,-0.3970912,0.22579187,0.31727025,0.07372696,-0.43938076,0.21583389,-0.18689093,0.49096948,-0.005846719,-0.27947295,0.050975353,0.24056692,0.2406956,0.6152304,0.10794542,0.084453076,0.11415934,-0.48658678,-0.27293417,0.03773213,-0.24133053,-0.0055942913,0.27279106,0.43174756,0.04753611,-0.25907478,-1.0491015,-0.0073335115,-0.47551912,-0.30448407,-0.2405182,-0.52365595,-0.31072906,-0.20875114,0.61767,0.8681372,0.37244612,0.18404485,0.5400173
Dahlia::-0.39115235,-0.53629297,-0.013015458,0.120304614,0.273298,-0.24339508,0.6426244,0.39537895,-0.29170543,0.4962337,-0.03194791,-0.49930513,0.13708551,0.2359717,0.17057995,-0.44167402,0.18484472,-0.14665607,0.48222396,-0.10809953,-0.34766126,-0.049746748,0.18262072,0.17244504,0.61398906,0.054799628,0.030276222,0.04869119,-0.5426637,-0.34339106,0.06514177,-0.290381,-0.10523741,0.31333467,0.42813027,0.20263349,-0.34654263,-1.2036161,-0.043695226,-0.47159752,-0.18013036,-0.2062937,-0.46630886,-0.30970794,-0.21106406,0.5982679,0.96624285,0.34416604,0.10115334,0.50109744
Zephine::-0.48160362,-0.53738314,-0.019669326,0.089891195,0.20990707,-0.20877495,0.6010684,0.449756,-0.28736314,0.49420422,0.007605024,-0.52772,0.14748377,0.23856167,0.22583468,-0.3834196,0.18473148,-0.05093866,0.46512932,-0.08578377,-0.38515067,-0.103896566,0.23418428,0.18773034,0.5433411,0.06999927,-0.0075019402,0.09523801,-0.48656768,-0.28377092,0.1317891,-0.36148125,-0.12149581,0.3957453,0.49196172,0.18306534,-0.32414627,-1.1284527,-0.057152156,-0.4614341,-0.21595834,-0.18655975,-0.5572435,-0.33237648,-0.27907136,0.6514212,0.97807854,0.26184782,0.08302985,0.5754442
Fantine::-0.31870297,-0.23675057,-0.14978671,0.1558136,0.21907838,-0.13187976,0.36345598,0.3311398,-0.2905447,0.20324823,-0.045594722,-0.1320708,0.034322288,0.259547,0.08960299,-0.38868058,0.19829023,-0.066201776,0.569471,-0.18085289,-0.32984513,0.084141165,0.31359988,0.23575978,0.5658115,-0.02070037,-0.09151491,0.0021650398,-0.29573852,-0.055884644,0.11684956,-0.28450558,-0.19215141,0.38371667,0.18169968,-0.018601285,0.16660555,-0.7820186,-0.21630721,-0.22177145,-0.08707448,-0.02264787,-0.16885556,-0.12919754,-0.22892238,0.2483527,0.6293082,0.40014306,0.12559342,0.23424578
MmeThenardier::-0.2649247,-0.12661709,0.11547052,0.45831886,-0.046373084,0.021797009,0.2686295,0.40684944,-0.29815677,-0.2079808,-0.2688567,-0.009467576,0.06415279,0.39998016,0.3377833,-0.100764915,0.078607455,-0.3407277,0.05071839,-0.2983811,-0.3502691,0.033586103,0.070727706,-0.08974467,0.3492007,-0.30844313,0.017250855,-0.09318404,0.07731142,0.2066724,0.09639782,-0.34737268,-0.5024294,0.2636667,0.09395992,-0.28484824,-0.07877827,-0.5017259,0.39191043,-0.35839075,0.48298076,-0.015703117,0.00047755902,-0.3180916,0.04266095,-0.080997266,0.34717238,0.31149247,-0.0124923475,-0.35328582
Thenardier::-0.15011753,-0.2520544,-0.13472535,0.46007168,0.0947123,0.02791277,0.24770941,0.4834937,-0.15959342,-0.08673118,-0.10618717,0.06517775,-0.060884364,0.36981252,0.30146152,-0.10315066,-0.118803695,-0.3776342,0.014218436,-0.079388544,-0.15697749,-0.2958427,0.1280956,-0.29215652,0.33294606,-0.11318688,0.13956435,-0.024184199,0.002936179,-0.15327363,0.23349586,-0.026260972,-0.1962002,0.3061615,-0.03001732,-0.051646583,-0.27608678,-0.31081337,0.13943772,-0.039731584,0.5400575,-0.012381433,0.17658849,-0.036268927,-0.11192464,-0.16248913,0.50808185,0.23797046,-0.029899782,-0.3077561
Cosette::-0.05426128,-0.36192462,0.007933184,0.51562625,0.24360938,-0.010037712,0.09563129,0.18599291,0.06467209,0.1343255,0.1527871,0.14129244,0.023320852,0.36427867,0.27118695,-0.13869634,-0.2132656,-0.24022448,0.07159908,-0.19350512,-0.43127826,-0.22793862,-0.049375217,-0.15423663,0.3187527,0.30238107,-0.22631449,-0.0913563,0.21223323,-0.017354758,0.33636224,-0.32656124,-0.82120603,0.47348008,0.15270609,-0.018861543,-0.3036296,-0.061332207,0.12565134,-0.4286169,0.19124703,0.05191159,0.10641942,0.07059811,-0.040019974,0.16140573,0.21095012,-0.09363668,-0.15699302,0.27335563
Javert::-0.052640364,-0.3591706,0.06643648,0.108125314,0.13505627,-0.10070705,0.20485307,0.14880663,-0.3274461,0.058075335,-0.12800479,0.40062952,0.07441603,0.37845233,0.2203472,-0.27210787,0.049351666,-0.52854043,0.020265194,-0.34617338,-0.06336783,0.03198009,0.022463448,-0.15338504,0.5857036,0.19949363,-0.002639316,0.08701744,0.018981976,0.18761073,0.2186987,-0.1356507,-0.32733893,0.33602706,0.10205252,-0.054243077,-0.10100163,-0.1723106,-0.093510605,-0.10656642,0.24662383,-0.05286941,0.17416959,-0.11943009,-0.020542389,0.0116763115,0.2389787,0.25249627,-0.01793708,-0.20577598
Fauchelevent::-0.3698622,-0.1528648,0.18740267,0.50590044,0.1910042,-0.080980785,0.07023237,0.12535216,-0.5574151,-0.08345193,-0.28247085,0.211271,-0.29913962,0.5107339,-0.04197243,-0.29720536,-0.12203104,-0.07305235,-0.07580723,-0.2830988,0.060513027,0.5192342,0.25887167,-0.2769791,0.8934113,0.2989652,0.06770289,0.498551,-0.11154772,-0.4873055,0.2917722,-0.27410382,-0.5383095,0.2829318,0.016606964,-0.43472514,-0.20706946,0.06854992,0.10822504,-0.019726845,0.1602058,-0.27591485,0.54245603,-0.32407537,-0.23090048,0.4335769,-0.039452277,0.48343867,-0.11049711,-0.31372845
Bamatabois::-0.27480263,-0.058847,-0.11331069,-0.1265986,0.075250745,-0.29210502,-0.11032425,0.10318081,-0.14926133,0.20589343,0.031238334,0.049048636,0.008206776,0.34098253,0.18443106,-0.2845578,-0.27269772,-0.031460032,-0.19505411,-0.058586434,-0.33368418,-0.10478281,0.26132447,0.17770943,0.36055297,0.11922039,-0.16645294,0.3186322,-0.21642882,0.074084654,0.0026157065,0.15895014,-0.859622,0.6178212,0.22541834,-0.5425805,0.18614931,-0.62935674,-0.5407959,0.011394711,-0.1681763,-0.18217833,-0.10718994,-0.12742443,-0.1431301,0.10447826,0.28893805,0.36412433,0.18887633,-0.108232856
Perpetue::-0.05559645,-0.3191112,-0.2546211,-0.0295414,0.65294564,-0.3692474,0.68082255,0.3888133,-0.09924837,0.034185108,-0.4112118,0.25239778,0.2987675,0.4623505,0.17772317,-0.6789967,0.15604095,-0.091067985,0.7944782,-0.25100788,-0.22856143,0.3106164,0.4042644,0.055253897,0.24530935,-0.2729513,-0.29382467,0.49420202,0.032398485,0.066665515,0.16338089,-0.2215776,-0.29456535,-0.014913921,0.06493059,-0.20484897,0.24466746,-1.0556184,-0.41582504,-0.5248717,-0.23467475,0.1368084,0.091762625,0.21939768,-0.42092344,0.11318454,0.63431007,0.39187843,0.16074413,0.18544362
Simplice::-0.12756029,-0.19952114,-0.4005992,-0.06688986,0.4485748,-0.2738034,0.4830043,0.32768488,-0.14162257,-0.15254413,-0.2978689,0.4103616,0.40988892,0.44385856,0.043406878,-0.59050506,0.09162917,-0.15062378,0.45637748,-0.19917983,-0.13565189,0.2458902,0.28727838,0.034682482,0.3201794,-0.04614856,-0.29729402,0.32653302,0.04087285,0.05144995,0.14692351,-0.063831195,-0.21113317,0.07654539,0.016148709,-0.19260184,0.22700812,-0.6472577,-0.27650374,-0.29831675,-0.076813206,0.082918584,0.114046425,0.17855002,-0.2952362,0.14033091,0.37614015,0.3335283,0.11494784,0.02642419
Scaufflaire::-0.31740376,0.059322905,-0.641635,-0.018780362,0.27464488,-0.10917934,-0.20479698,0.40889236,0.056727223,-0.118820615,-0.11989311,0.7119267,0.116964236,0.31721845,0.1989268,-0.18653299,-0.14304012,-0.2793901,0.13590443,-0.27799615,-0.13792622,-0.048276525,0.19950758,-0.02984926,0.26885486,-0.13679887,-0.2504323,0.2924192,-0.062976584,0.48052904,-0.029915214,-0.32056716,-0.525347,0.25596297,0.10557755,-0.77410996,-0.05951527,-0.20361276,-0.12951215,0.021515736,0.08940923,0.12137615,-0.009416554,0.2607029,-0.102858305,0.076712534,-0.21002547,0.33484465,-0.074798934,0.31723282
Woman1::-0.015524925,-0.18248673,-0.16099745,0.11777763,0.25322336,-0.1620889,-0.06757717,0.13778174,-0.22765891,0.021134662,-0.032982465,0.46073443,-0.13731457,0.7209652,0.017856004,-0.3746127,-0.11701638,-0.41988644,0.06888721,-0.34994754,-0.16973023,0.2717818,0.074882604,0.0077650594,0.58627164,0.39249888,-0.09760113,0.23452327,-0.12637368,0.12423539,0.2050775,-0.050638262,-0.45093077,0.31431448,0.073221475,-0.22430748,0.19851248,-0.16341941,-0.060147338,-0.021679038,0.15452977,0.069941446,0.2989153,0.025840763,-0.089671746,0.1254389,-0.022840636,0.2996675,-0.047685254,-0.10451223
Judge::-0.33991063,-0.014002023,-0.17621452,-0.24581718,-0.06730844,-0.29970324,-0.3931553,0.28434956,-0.17098166,0.07354175,-0.008269671,0.06964992,-0.019682832,0.40498838,0.17932308,-0.113954775,-0.28065845,-0.030547552,-0.45675638,-0.06351444,-0.48059735,-0.24428567,0.26879483,0.19697736,0.25868437,-0.010675974,-0.20937838,0.50856864,-0.29952627,0.26737285,-0.07702137,0.2620637,-0.8886615,0.5520507,0.24737594,-0.8107767,0.15868479,-0.6632063,-0.49578875,0.057398804,-0.06289122,-0.10265061,0.031209793,-0.08451167,-0.013018451,0.054604087,0.07031104,0.39952612,0.25468805,-0.18816364
Champmathieu::-0.45224053,-0.0004405176,-0.2922439,-0.20913947,-0.030204782,-0.3241281,-0.3642252,0.27283552,-0.1227126,0.03567047,0.087778755,0.08365754,-0.01931623,0.4802079,0.2396096,-0.16181798,-0.30764785,-0.07264756,-0.4096024,-0.124810256,-0.43192726,-0.18922098,0.34710613,0.21149452,0.3763428,0.0019438961,-0.23541689,0.45876804,-0.345748,0.26499075,-0.01944247,0.15899578,-0.91211265,0.61075276,0.27385774,-0.8334507,0.14819333,-0.5954075,-0.5556743,0.09814496,-0.08905235,-0.14581418,-0.05211893,-0.11938169,-0.09036782,0.09244011,0.052748222,0.4678927,0.17642185,-0.11858648
Brevet::-0.3282949,-0.02013862,-0.24176425,-0.22137307,-0.011731415,-0.24654722,-0.35016146,0.33552137,-0.121228874,-0.020697748,-0.012939611,0.15658823,0.07349492,0.43543312,0.0938326,-0.14674784,-0.39286268,-0.037041232,-0.50031275,-0.0901651,-0.46664846,-0.2514307,0.27145633,0.14360069,0.283063,0.071606025,-0.24365272,0.4748756,-0.23941763,0.18180439,-0.04155111,0.20002426,-0.9064881,0.5469502,0.29777363,-0.72782075,0.1364538,-0.6041395,-0.56856936,0.015379497,-0.15106063,-0.10826228,0.038050305,-0.04720657,-0.024972364,0.18994474,0.06853595,0.35218036,0.19838111,-0.14244139
Chenildieu::-0.3295873,-0.046665292,-0.20378062,-0.24115431,-0.10617582,-0.30666405,-0.40708998,0.27295586,-0.16244882,0.07848278,0.028262837,0.09715912,0.031854372,0.47791976,0.20919627,-0.12549074,-0.28585082,-0.06650381,-0.4904462,-0.071997754,-0.53789586,-0.2768982,0.34933954,0.171245,0.35627726,0.027819311,-0.23998111,0.4910716,-0.28826565,0.24219051,0.038642794,0.1886194,-0.90282804,0.5955493,0.22428404,-0.72102636,0.08362021,-0.63126576,-0.56392133,0.035320554,-0.13440435,-0.11573482,-0.0092722345,-0.072741754,-0.01431601,0.037822936,0.11756149,0.3892491,0.2332678,-0.16906166
Cochepaille::-0.27139032,-0.07269724,-0.09184345,-0.2580411,-0.06863827,-0.23627758,-0.46708822,0.32351905,-0.15430637,0.07018026,0.06204308,0.06938402,-0.08471913,0.47155696,0.105158895,-0.09125395,-0.27310735,-0.0413575,-0.5245083,-0.021776006,-0.50020695,-0.31005788,0.2983771,0.14147533,0.2967873,0.10053917,-0.20772037,0.54658383,-0.24220595,0.19489798,0.029087262,0.24382256,-0.9161667,0.57585466,0.24969755,-0.780245,0.11122565,-0.58496475,-0.5508468,0.07280123,-0.13720849,-0.0732218,0.058149688,-0.118645385,-0.014474476,0.03961552,0.036003042,0.36750492,0.30800614,-0.17056932
Pontmercy::-0.16794479,-0.50587875,-0.34876963,0.41306713,0.42572615,0.14071621,0.57369405,0.88476557,0.21803983,-0.33560303,-0.17260945,-0.14323872,-0.30089113,0.17602411,0.031162476,-0.15549715,-0.2340107,0.15730885,-0.13220991,0.080152124,0.2099309,-0.80546457,-0.2220675,-0.4285759,-0.038937304,-0.113747425,-0.11133414,0.22713314,0.0982581,-0.6488971,0.24176498,0.08487574,-0.33932126,0.27884316,0.23488021,-0.22446384,-0.5578045,-0.56497693,0.11545692,0.051143594,0.49648294,-0.056673843,0.43270054,0.15056399,-0.4318262,0.053350046,0.46115306,-0.027755322,-0.23328486,0.2628609
Boulatruelle::-0.33374092,-0.12154464,-0.16201235,0.36899972,-0.014228528,0.012193277,0.24024178,0.4152653,-0.023104154,-0.09000059,-0.32460618,-0.029797554,-0.14214182,0.27555192,0.58401996,-0.3953913,-0.18121539,-0.2161379,0.055564404,-0.09928845,-0.28128788,-0.59868455,0.40190116,-0.5072248,0.6512855,-0.3098786,0.0070349975,0.31278992,-0.13471371,-0.46755338,0.2548619,0.0689092,-0.23403138,0.58093065,-0.26254767,-0.10665394,-0.2955275,-0.4706937,-0.40955776,0.34830055,0.56401116,-0.26472557,0.1785228,0.026897328,-0.3570926,-0.35941154,0.8466959,0.24931228,0.06687296,-0.31134126
Eponine::-0.15399733,-0.30129606,-0.105670884,0.37396398,-0.17319523,-0.08862072,0.10595788,0.43630198,0.108471915,-0.10163969,-0.111404546,-0.003033783,-0.07679759,0.4204602,0.4037958,0.18310992,0.06889696,-0.517534,-0.078948796,-0.26616108,-0.2477911,-0.34602642,0.17479374,-0.4507478,0.22525756,-0.41461167,0.03269775,0.10556176,-0.013855717,0.069717504,0.08098621,-0.3355774,-0.19271258,0.25491035,0.029730925,-0.1161294,-0.3907102,-0.58072025,0.2724646,-0.040055387,0.5439454,0.2060295,0.077874154,-0.20877214,-0.0031182948,-0.22732164,0.2929221,0.27031186,0.037464805,-0.4925801
Anzelma::-0.5901596,-0.08727421,-0.012148304,0.5195868,-0.16872254,0.25768223,0.1673961,0.7738796,-0.1395712,-0.44025016,-0.19043587,-0.07960323,0.2739348,0.34615657,0.2521416,0.021359492,0.059530605,-0.4645962,-0.06384325,-0.33081132,-0.56609493,-0.25763258,0.09693907,-0.2972027,0.46443972,-0.41194955,-0.13579777,-0.2426289,0.2008076,0.01744798,0.097042054,-0.22854,-0.26620543,0.3372556,-0.124329396,-0.3384775,-0.21674784,-0.2652362,0.38582984,-0.4226682,0.75030077,-0.04104155,-0.21278408,-0.299364,-0.037269644,-0.14007734,0.45559463,0.2558248,0.14218841,-0.41997167
Woman2::-0.232824,-0.19772708,-0.1318161,0.3506094,0.20258684,-0.27283078,0.06850637,0.047400653,-0.10624341,0.04253662,0.081814274,0.3411872,0.26968336,0.34087843,0.24176702,-0.22146301,-0.22978155,-0.40198112,0.07928974,-0.28490716,-0.40770265,0.1047987,0.13242657,0.09999649,0.59183156,0.44482207,-0.2818191,-0.13295455,0.09758246,0.11018168,0.21054958,-0.27277753,-0.76419854,0.4561788,0.15725124,-0.16838768,-0.21421045,0.07747052,-0.09291729,-0.45807537,0.10001586,-0.08412502,0.039672848,0.039420355,0.087349534,0.11841949,0.027875965,0.19040844,-0.09081709,0.081832185
MotherInnocent::-0.20191152,-0.108441316,0.13549486,0.33282816,0.15560062,-0.030004065,0.046358377,0.29526666,-0.35343292,-0.26449263,-0.43137673,0.46041712,-0.13880406,0.43825313,-0.028690454,-0.21437798,-0.18139048,0.010799399,-0.06885101,-0.1323077,0.1092092,0.30541435,0.3633866,-0.28795278,0.8033816,0.2662219,-0.09307179,0.6705398,0.0868383,-0.3038535,0.31188485,-0.49344435,-0.69940686,0.3376528,0.1170704,-0.64370924,-0.33536178,-0.08361602,-0.0043323347,0.03767121,-0.008266241,-0.12501472,0.52813566,-0.25045422,-0.10146526,0.3383885,-0.11716673,0.41403514,-0.18881218,-0.29862174
Gribier::-0.44187,-0.349865,0.3219535,0.69868124,0.39175993,-0.15284026,0.43208915,0.24147953,-0.75531256,-0.18957287,-0.52093846,0.12619986,-0.39817622,0.7393648,0.06839474,-0.50315714,-0.20147674,-0.036874328,0.1226468,-0.32649878,0.1755905,0.6627776,0.44108674,-0.33074588,1.2241523,0.44433817,-0.01699588,0.7596263,-0.01211449,-0.7655282,0.6236956,-0.36837402,-0.8524858,0.31718814,0.14523602,-0.6318754,-0.3916619,-0.05364422,0.101044916,-0.08357546,0.07039266,-0.3872796,0.87068075,-0.38158908,-0.4333463,0.51864177,0.10839014,0.6197455,-0.2801535,-0.23450148
MmeBurgon::0.2571681,-1.0614544,0.3765466,-0.23206805,0.52685827,-0.6027288,0.05676674,0.06442865,-0.1291009,0.012614254,-0.14222069,0.23333752,0.15714657,0.44495255,-0.018906614,-0.03717744,0.5859002,-0.7691304,-0.3091132,0.0116175795,-0.29367137,-0.7134348,-0.48221025,-0.15296766,0.29793018,-0.2654458,-0.044785764,0.8199727,-0.7565585,-0.22546914,0.19871587,0.67314047,0.19327636,-0.21218859,0.10478217,-0.1201073,-0.9141945,-0.7058211,-0.12701836,-0.26301014,-0.11093605,0.15701713,0.4803286,-0.25766677,0.41300702,0.025170572,0.12616912,0.49018502,0.23569478,-0.37892488
Jondrette::0.21955453,-1.5785227,0.48486233,-0.27107438,0.55995667,-0.75426984,0.0571929,0.26836568,-0.11325095,-0.20538206,-0.35236654,0.22003613,0.29232147,0.6689048,-0.06903975,0.043314334,0.6861735,-0.9566852,-0.5778407,-0.0801135,-0.6138127,-1.1523892,-0.6319357,-0.22793274,0.36807573,-0.23999673,-0.30611402,1.3384032,-1.146849,-0.3828556,0.3245795,0.8617117,0.10062198,-0.2335549,0.3232485,-0.36459786,-1.423545,-1.2166582,-0.04458611,-0.4338123,-0.011582742,0.27177963,0.8230343,-0.4603216,0.6846912,0.38510576,0.026066111,0.6826961,0.2359502,-0.59403265
Gavroche::0.008463809,-0.3440555,-0.0596585,0.16194816,0.46617875,-0.2174227,-0.07072616,0.010966903,0.08667385,0.17430912,0.1089323,0.33874306,-0.07966272,0.24364609,0.09846472,-0.19950326,0.38336083,-0.5798642,0.046772562,-0.15607128,0.06496157,-0.22188832,-0.15633391,-0.32640645,0.3576352,-0.40718448,0.056204602,0.17714298,-0.023409085,-0.116624884,-0.055288676,0.030287372,-0.1393675,0.11812283,-0.11957492,-0.30033165,-0.6473696,-0.33445784,0.13040134,-0.019428158,0.23469302,0.050803896,0.12935089,-0.044114232,0.0134104425,-0.12189232,-0.096402034,0.43622768,0.24364686,-0.1298802
Gillenormand::0.14471619,-0.50864947,0.07363463,0.35566682,0.37514096,-0.14564376,-0.028424688,0.22866468,0.2428208,0.095076025,0.07764613,0.08227526,-0.2541774,0.5251296,0.30223975,-0.089749955,-0.08229018,0.056831628,0.1283264,-0.065645136,-0.46693572,-0.10296807,-0.010373975,-0.07975807,-0.1698495,-0.0905602,-0.24644569,0.36306408,0.16280745,0.25045946,0.37066138,-0.6745291,-0.88637775,0.16607428,0.44668856,-0.29114985,-0.26795578,-0.3345857,0.4571507,-0.5324168,0.15707019,0.44354123,0.2416756,-0.035068385,-0.055201516,0.30065447,-0.18584588,0.029748827,-0.1464586,0.390623
Magnon::0.109856784,-0.27498567,0.3397057,0.5410712,0.10171101,0.14128922,-0.065846086,0.58645964,-0.11445588,-0.10062397,-0.07780546,-0.23032793,-0.420302,0.6924193,0.1756914,0.21527411,0.14694427,0.02149269,0.27600765,-0.14459205,-0.8146603,-0.020464929,0.08719503,0.023026604,-0.02325086,-0.30374697,-0.21437144,0.1009123,0.00060208706,0.46448934,0.3002821,-0.6143432,-0.7277035,0.28011364,0.2033081,-0.4433581,0.14055221,-0.65463203,0.7066125,-0.74334085,0.4254241,0.62789947,0.2749936,-0.3631501,0.083978906,0.15820783,0.1967504,0.29257515,0.08373652,-0.13409667
MlleGillenormand::-0.30224013,-0.58733517,0.011754806,0.21986435,0.25373933,-0.19244242,0.19130807,0.44689214,0.19657303,-0.08322364,0.085342675,0.016002255,-0.09134069,0.32884812,0.25236458,-0.15797216,0.019068358,0.09188986,-0.08276239,-0.05706073,-0.17404595,-0.39347056,-0.18869388,-0.26927125,0.090549156,0.06781054,-0.451472,0.49829403,0.22413665,-0.029580882,0.38562524,-0.38431436,-0.8097752,0.16752335,0.3895383,-0.44223115,-0.53138435,0.1029109,0.20479178,-0.49184668,0.14406271,0.18045692,0.10493733,-0.051967226,-0.23853065,0.23928727,-0.22707316,-0.16931844,-0.2793017,0.51884717
MmePontmercy::-0.5797198,-0.7503197,-0.37597683,0.41110224,0.43463862,0.06166801,0.5666369,0.99545795,0.2599062,-0.31452638,-0.04009961,-0.18481584,-0.17112248,0.16110316,0.1743754,-0.08691737,-0.26367828,0.46996704,-0.11902597,0.21831831,-0.054105286,-1.002043,-0.20704468,-0.40865958,-0.1396276,-0.1656682,-0.44868806,0.41485718,0.16481334,-0.4209735,0.33965945,-0.1583962,-0.57710916,0.4584549,0.59548634,-0.5705477,-0.80477506,-0.24073152,0.24315841,-0.21795847,0.6511814,-0.051043108,0.14733617,0.11365786,-0.6279645,0.32081005,0.24119532,-0.18351774,-0.3500162,0.6532093
MlleVaubois::-0.72205436,-0.95372665,0.06045585,0.19926317,0.26068977,-0.31313646,0.4395744,0.57408226,0.26550412,-0.042219,0.19383365,-0.18716393,0.15899752,0.40789112,0.28073996,-0.12585655,0.20333089,0.118098214,-0.03802037,0.09110623,-0.24278036,-0.6387028,-0.040992256,-0.56144696,0.23228456,-0.06280602,-0.5799883,0.6183682,0.45256582,-0.2314414,0.52717006,-0.5934207,-0.7448963,0.33057418,0.5875349,-0.6539843,-1.01762,0.3758995,0.4538942,-0.56028455,0.15254563,0.048619796,-0.2405192,-0.2970417,-0.44891456,0.18157323,-0.24245524,-0.30255166,-0.23314884,0.53474975
LtGillenormand::-0.048673972,-0.49896714,0.057804152,0.4770677,0.52143985,-0.20208022,0.17222609,0.30146772,0.3101562,0.07473342,0.19733934,0.059775036,-0.10852722,0.49510065,0.3936373,-0.11588011,-0.22593205,-0.12529977,0.17295988,-0.11507038,-0.4758477,-0.26932397,-0.047459103,-0.28399166,-0.0055825002,0.01733054,-0.35856622,0.2422715,0.36746937,0.009343539,0.27602348,-0.39960283,-0.88927704,0.2155083,0.3368245,-0.17104593,-0.45128626,-0.0750862,0.2142217,-0.6324245,0.26970425,0.18424568,0.14376003,0.13218342,-0.16576676,0.14329147,-0.04412707,-0.111087136,-0.21638478,0.3994758
Marius::0.07973796,-0.31651917,0.15865701,0.15637033,0.28987333,-0.017669342,-0.09458031,0.37163734,0.2617067,0.10394301,0.12551932,0.0078835655,-0.23091786,0.23408447,0.1075039,0.08439475,-0.065342784,-0.13692547,0.20700519,-0.19174603,-0.23289943,-0.42906383,0.0006080306,-0.4275004,-0.011167766,-0.11800644,-0.04097715,0.31140035,0.16062592,-0.15077858,0.12814008,-0.2133128,-0.23309079,0.16341968,0.23272464,-0.17381454,-0.60122013,-0.29763034,0.19489263,-0.32083014,0.3605616,0.21404308,0.15948442,0.19437766,-0.15845296,0.18149291,0.018821886,0.030674836,-0.07420507,0.41524285
BaronessT::0.32206884,-0.4655098,0.2659974,0.5045776,0.45000905,-0.03464787,-0.27013937,0.3642748,0.39028886,0.20464525,0.17204462,-0.053574655,-0.6446067,0.66280156,0.14991666,0.19254519,-0.14079453,-0.10136336,0.17260452,-0.02771174,-0.5257491,-0.2672943,-0.038694557,-0.38379544,-0.2880592,-0.108978756,-0.15342027,0.5520253,0.075805254,0.09495024,0.26893574,-0.5820106,-0.66944647,0.02276153,0.30265677,-0.1802358,-0.29549423,-0.40859595,0.521742,-0.5491635,0.24604328,0.5742031,0.34450623,0.028802678,-0.12316236,0.39896074,-0.20385495,0.12243872,-0.08306737,0.3894321
Mabeuf::-0.028633807,-0.15943934,0.35709557,0.12599115,0.37078464,0.033919234,-0.3567495,0.43617183,0.28346723,0.18900298,0.0045210347,0.0002323495,-0.0873708,0.36901775,0.11605618,0.044046775,-0.05369261,-0.6386884,0.29519206,-0.35403472,-0.3303812,-0.34658486,-0.046020176,-0.6458864,0.09895438,-0.4016596,0.15979972,0.47883242,0.12317578,-0.2568643,-0.30091408,0.06028838,-0.17132278,0.008318573,0.20483723,-0.29004073,-0.55168736,-0.5121915,0.24573451,-0.16002943,0.19892746,0.07294568,0.03249667,0.15799621,0.083745435,0.0653319,-0.10088571,0.10874943,0.2598583,0.07903893
Enjolras::-0.10523382,-0.14693382,0.005572471,0.10607456,0.45161182,-0.15371096,-0.20366898,0.16165653,0.14928058,0.14469545,0.10482775,0.12463499,-0.10409781,0.45017633,0.11406443,-0.18587594,-0.0698457,-0.62357706,0.17064379,-0.19256206,-0.21271643,-0.15546261,-0.09622761,-0.44344574,0.21179211,-0.30712137,0.13691227,0.45025283,-0.13773088,-0.19442101,-0.33889508,0.20767955,-0.08306992,-0.10581214,0.06476801,-0.25434348,-0.3542832,-0.3625774,0.0838502,-0.17774312,0.352512,0.03859706,0.1624656,0.19057459,-0.07215925,0.13817732,-0.13969332,0.29000345,0.15220153,0.06549497
Combeferre::-0.1005329,-0.25889596,0.2434662,0.1686013,0.5659092,0.054732867,-0.31903407,0.39477956,0.2772244,0.19573006,0.15114474,0.11537844,-0.030948218,0.37422246,0.17187333,-0.05713402,-0.05880448,-0.7918583,0.18859477,-0.113933556,-0.28773272,-0.3335369,-0.25281012,-0.59312373,0.17042536,-0.45306048,0.2106255,0.5545928,0.08165557,-0.3798207,-0.3247325,0.20799132,-0.07121869,-0.19902782,0.111090146,-0.3364563,-0.43260488,-0.3609968,0.012774404,-0.19071616,0.16755909,0.094175085,0.083078705,0.11758519,-0.13426323,0.16727176,-0.06783135,0.27079648,0.3689381,0.2597992
Prouvaire::-0.22129741,-0.33727643,0.21183972,0.09606798,0.5647349,-0.14579932,-0.2656215,0.17690346,0.20839539,0.17444968,0.2147035,0.07733704,0.07887903,0.30203685,0.23101707,-0.17131038,0.03966737,-0.77921814,0.17248926,-0.111743316,-0.20591952,-0.27080196,-0.22547461,-0.5449291,0.28201848,-0.38294148,0.17285992,0.51166105,-0.09214176,-0.35645092,-0.24360922,0.3057205,0.005201976,-0.17636983,0.06533535,-0.37666577,-0.63206416,-0.16883416,-0.02925851,-0.22561482,0.2682375,0.024050694,0.110382,0.13772047,-0.15276465,0.14119668,-0.11449197,0.3273224,0.30004567,0.31188068
Feuilly::-0.110902354,-0.24349846,0.19539411,0.15232356,0.45166993,-0.00717685,-0.25354844,0.34622827,0.23523808,0.12604254,0.13920158,0.07865241,-0.04019158,0.37421668,0.22133718,-0.028389638,-0.060326282,-0.6949941,0.13406163,-0.17667563,-0.23035176,-0.3109314,-0.2105184,-0.6176481,0.1547554,-0.36548626,0.20039317,0.5128179,-0.0062651415,-0.22448452,-0.31694716,0.17161578,-0.08255116,-0.1966764,0.16728544,-0.32137394,-0.4768623,-0.28317812,0.060794324,-0.27508205,0.32268503,0.11972534,0.15636212,0.1362382,-0.13012208,0.21501467,-0.07942088,0.22770382,0.21450001,0.26887086
Courfeyrac::-0.15155987,-0.2025161,0.15084776,0.31533638,0.44894418,-0.030409198,-0.328385,0.30301613,0.33467528,0.17125829,0.17639908,-0.035911094,-0.17876008,0.36465994,0.15290523,-0.05223077,-0.071341515,-0.6582769,0.07818468,-0.18908109,-0.26632792,-0.365606,-0.0835432,-0.55506897,0.17142692,-0.4269732,0.18135643,0.37714556,-0.045510132,-0.2731069,-0.28926852,0.0818298,-0.11399652,-0.006563622,0.07864039,-0.35517502,-0.5398328,-0.29758665,0.11712415,-0.15842415,0.44060883,0.020750511,0.118446544,0.055149306,-0.097570315,0.08918004,-0.07163554,0.32816228,0.16326253,0.075381696
Bahorel::-0.058333986,-0.2837545,0.21618451,0.24846283,0.6089299,-0.09300308,-0.23539785,0.13388807,0.3204795,0.26325852,0.118382856,-0.035028357,-0.18696427,0.3265629,0.21516132,-0.17353682,-0.013257742,-0.6822458,0.19847672,-0.17160429,-0.21361212,-0.31827605,-0.21551734,-0.57062256,0.14799817,-0.47430253,0.21658066,0.5147204,-0.17789589,-0.33751237,-0.3395769,0.1722726,-0.08267331,-0.16126014,0.098254025,-0.28521588,-0.54155356,-0.4612556,0.056008305,-0.17952634,0.33713675,0.027646275,0.19981761,0.12915611,-0.1365028,0.23137501,-0.03231197,0.38080278,0.17543529,0.2584649
Bossuet::0.019693857,-0.18774676,0.015234834,0.17267211,0.5681587,-0.06407316,-0.2607715,0.2762671,0.14672366,0.28104466,0.114436775,0.21779513,-0.20294192,0.3531932,0.14012142,-0.14227474,-0.059839536,-0.6159876,0.11793366,-0.17216773,-0.15014555,-0.24177249,-0.1438881,-0.47569996,0.16459289,-0.39634016,0.21818195,0.4459395,-0.13466807,-0.15926436,-0.31412968,0.15189748,-0.066561766,-0.15008217,0.040959988,-0.26052496,-0.47678936,-0.43751118,0.07217591,-0.20992109,0.25399214,0.03688185,0.104663186,0.24522218,-0.07860053,0.1686545,-0.06303114,0.32346842,0.12683943,0.32220697
Joly::-0.09594403,-0.21476072,0.09324335,0.14135823,0.57145226,-0.05614233,-0.28330076,0.27662566,0.21963449,0.28024244,0.15094021,0.12851904,-0.101553515,0.35205984,0.12666918,-0.18844818,-0.032620154,-0.66874045,0.11335956,-0.20463538,-0.2761233,-0.36907563,-0.21258418,-0.46773723,0.17399846,-0.41897207,0.16228266,0.39837423,-0.16705544,-0.19954556,-0.34371153,0.15283017,-0.021886058,-0.105794095,0.063925356,-0.23177728,-0.46383065,-0.3409493,0.10390093,-0.25735468,0.25782713,0.016697895,0.039198644,0.10877485,-0.03684183,0.21363248,-0.04083168,0.29567906,0.12753785,0.31771377
Grantaire::-0.24276787,-0.26686016,0.15458082,0.28475705,0.5943573,-0.060597003,-0.33081046,0.24618565,0.15445285,0.25770792,0.18032914,0.1362401,-0.2046515,0.36891988,0.21357165,-0.22219689,0.02907112,-0.8309916,0.057942215,-0.1940905,-0.20359804,-0.37742063,-0.2998296,-0.68539083,0.3487034,-0.54549104,0.32344487,0.40518978,-0.1982806,-0.24865471,-0.45561278,0.25361237,0.013069867,-0.06509755,0.020627955,-0.38064674,-0.5672541,-0.24566655,0.15413056,-0.22188878,0.5532406,-0.069689274,0.18518221,0.05427994,-0.17444818,0.14467187,-0.06317017,0.46583137,0.17535737,0.2246997
MotherPlutarch::-0.06958924,-0.024744159,0.5063485,-0.09594226,0.12720826,-0.18518268,-0.50550294,0.3240924,0.27462602,0.4399044,-0.08051922,0.039115865,0.09919339,0.43391392,0.3851085,0.025589177,-0.08576021,-0.9291771,0.23142685,-0.6083864,-0.6917731,-0.66674477,0.00079287135,-0.82011044,0.058052983,-0.71780765,0.17268185,0.76458883,0.018550176,-0.028165674,-0.7382713,0.14766887,-0.37493724,0.09495957,0.430758,-0.13183196,-0.74100965,-1.0314837,0.15686446,-0.24407588,0.19365038,-0.06587488,-0.33520195,0.2053827,0.47919062,0.016741099,0.02642132,-0.07707697,0.20897317,-0.22568624
Gueulemer::-0.09977153,-0.46727997,-0.1967981,0.21314031,0.02078656,-0.18505864,0.04472107,0.34917155,-0.18408601,-0.1438244,-0.079138115,0.25289878,-0.08197668,0.5007417,0.27456915,0.018322606,0.20550688,-0.36056787,-0.15126166,-0.17303303,-0.17186895,-0.31921804,0.081132144,-0.3042843,0.3450603,-0.19961697,-0.047111444,0.08289038,-0.1406656,0.2624704,0.27067548,-0.10063968,-0.17931806,0.44990587,-0.055547338,-0.18981938,-0.20777555,-0.20830606,0.12760447,0.0020572536,0.4239965,0.17323987,0.29103613,-0.20645198,-0.083303005,-0.23846638,0.2608469,0.3008119,-0.023018666,-0.4590341
Babet::-0.05901623,-0.35959783,-0.07728558,0.26589605,0.06226353,-0.22316563,0.059746683,0.2009312,-0.19662336,-0.01634833,-0.09785406,0.21649338,-0.13237149,0.4672952,0.35335425,-0.04019836,0.15315385,-0.4563546,0.015119588,-0.31897748,-0.23701257,-0.20154579,0.15851252,-0.27091384,0.4093218,-0.15008326,-0.003916998,0.11467771,-0.20621017,0.2620243,0.21439639,-0.14374143,-0.16207013,0.38612235,-0.06932567,-0.011672733,-0.2078597,-0.32338232,0.0186868,-0.04450293,0.37020937,0.12391554,0.21686184,-0.12701023,-0.04552952,-0.19427651,0.353669,0.33760157,-0.0565818,-0.41335046
Claquesous::-0.2139379,-0.29778945,-0.27798548,0.2558088,-0.035614293,-0.104063444,-0.02046369,0.3722104,-0.07247608,-0.10578059,0.049953196,0.057250377,-0.12696956,0.56723946,0.26887438,0.0061990186,0.003096117,-0.46710274,0.039788097,-0.29415268,-0.20127006,-0.166293,0.25885388,-0.3113816,0.35040984,-0.023734368,0.08360561,-0.040182486,-0.14740306,0.2645502,0.1305865,-0.17864306,-0.09183819,0.41947535,-0.023743803,-0.11385159,-0.094543956,-0.3671514,0.112379,0.036185585,0.54342085,0.17703189,0.297884,-0.08755616,-0.15702945,-0.1454141,0.30972522,0.29206562,0.06891873,-0.34923825
Montparnasse::-0.15289332,-0.4770886,-0.17221674,0.24084392,0.039376922,-0.28199494,0.1549011,0.28038338,-0.19621795,0.0203789,-0.10767153,0.23984982,-0.18486619,0.44762394,0.39026967,-0.06987051,0.19260523,-0.410392,-0.04384669,-0.33926666,-0.07123645,-0.27863616,0.20091479,-0.3169038,0.3846355,-0.14001492,-0.008055825,0.1986804,-0.20778431,0.25723764,0.24445027,-0.15502152,-0.13076283,0.4348854,-0.009032912,0.010334799,-0.2910536,-0.26697657,-0.013063696,0.058099415,0.37900636,0.061948773,0.18603879,-0.1712464,-0.1109018,-0.23588113,0.37321925,0.26226082,-0.10980771,-0.42302716
Toussaint::-0.03386598,-0.4184296,-0.19236952,0.21464111,0.32731628,-0.22022212,0.024828406,0.0696175,-0.16617073,0.28389725,0.20091726,0.59475356,0.034325656,0.34140325,0.25409153,-0.34267718,-0.14675753,-0.37813383,-0.018594028,-0.3098781,-0.24087998,-0.008408587,-0.033230785,-0.04018927,0.48405564,0.47056955,-0.16530132,-0.051280987,0.10210677,0.29155794,0.24254778,-0.3141073,-0.7218646,0.5760928,0.17360277,-0.0024842797,-0.18153201,-0.052033015,0.015489941,-0.1662441,0.05850599,-0.0072493227,-0.039817747,0.046383664,-0.01594281,0.18451042,0.06883339,0.026620355,-0.17100054,0.27720985
Child1::0.3335663,-0.7103736,0.20831981,0.13598102,0.94711053,-0.21714073,0.039061196,0.3550287,-0.083862714,0.47132552,0.39078307,0.45654446,-0.41750765,0.42008528,0.0845862,-0.11214742,0.6846264,-0.77028775,0.08291915,0.24404678,0.19038664,-0.3336497,-0.1991887,-0.35516316,0.5347822,-0.5336333,0.2732798,0.11175186,0.4462913,-0.21562475,0.19646166,0.05933203,-0.24437307,0.3044824,-0.295085,-0.47780943,-0.6424646,-0.35103214,0.13684195,-0.053285375,-0.14816467,0.12004471,0.0090213185,-0.2699185,-0.22718863,-0.6246386,0.15304148,0.6523969,0.69474316,-0.09443343
Child2::0.32889855,-0.6265228,0.19297884,0.0643148,0.9757606,-0.2778195,0.08522912,0.26399213,-0.016233636,0.48153865,0.36854026,0.45730934,-0.36506107,0.43819964,0.03720219,-0.20631991,0.6909262,-0.65338725,0.2483855,0.24830869,0.17528874,-0.19767115,-0.11296521,-0.23433265,0.5178225,-0.5273836,0.20400289,0.1861101,0.48011398,-0.24527071,0.2462695,0.044314004,-0.3311322,0.24623413,-0.28769654,-0.61918366,-0.5483085,-0.39641044,0.018232558,-0.073409855,-0.24036884,0.14425832,-0.022990923,-0.15154955,-0.26036516,-0.63833106,0.08080542,0.6245127,0.73865664,-0.03415459
Brujon::-0.008346395,-0.503407,-0.27422115,0.16175567,-0.050131377,-0.20463867,0.013559085,0.45803532,-0.17322263,-0.02607131,-0.07456258,0.2564307,-0.19004837,0.4688682,0.3540152,0.11283738,0.24134372,-0.5451896,-0.11622801,-0.20329185,-0.0071508135,-0.4405007,0.19712546,-0.4644757,0.29910687,-0.28055996,0.19108114,0.11143115,-0.1552508,0.28520888,0.23767917,-0.13885948,0.041644134,0.41485268,-0.14177269,-0.07341996,-0.4659769,-0.4431563,0.15392712,0.1994629,0.4607237,0.20562582,0.24337018,-0.11406006,-0.06470867,-0.41928875,0.3734075,0.31630856,0.056006644,-0.49995324
MmeHucheloup::-0.11562625,-0.1718754,0.18280394,0.19921945,0.70551866,-0.031774815,-0.4159399,0.2650111,0.15304169,0.39512473,0.14593817,0.174691,-0.28253135,0.36147463,0.11115706,-0.2558,-0.11503365,-0.8187631,0.050087225,-0.1802102,-0.26673552,-0.45834365,-0.20358716,-0.5050039,0.25418767,-0.53333044,0.32527527,0.26455647,-0.26313367,-0.17547809,-0.4691427,0.39026684,0.024193715,0.022113713,-0.049253277,-0.47115883,-0.359707,-0.2882036,-0.048083395,-0.21344617,0.33947462,-0.1630533,0.14979763,0.03882265,-0.13817823,-0.006139782,0.055837978,0.5484341,0.22864847,0.25639448
