Acciaiuoli::-0.048541144,-0.025264112,0.1075757,-0.09398773,-0.1073377,0.08574094,-0.1723285,0.06625172,-0.12274972,-0.058679923,-0.027336365,0.0909575,0.0056643025,0.20692138,-0.013129511,-0.124224976,-0.012646105,-0.0043216147,-0.0060823415,0.05069168,-0.053456504,0.04464551,-0.096332565,0.20760752,0.06566013,0.20724538,-0.041612532,0.35997176,0.013755189,-0.10236855,0.06457781,0.014816071,-0.22450683,0.020877017,0.11701755,-0.05752274,0.18285927,-0.004974673,-0.17972682,0.16172335,-0.17622966,0.109410696,0.16671818,-0.011724263,-0.11862255,0.13598792,0.117521845,0.09861303,0.16897184,-0.04320437,-0.15855002,-0.20253888,-0.32821095,-0.08447954,0.0025799677,-0.26681903,0.1392926,0.0075530433,0.007356267,0.105252475,0.18659687,0.17780831,-0.19030674,0.24202946,0.00074585667,-0.21191534,0.053317435,0.023755606,-0.08535634,-0.056957148,-0.055101868,-0.0938011,-0.0012791764,-0.04888146,0.051105645,-0.039061327,-0.06704681,0.05244431,-0.027659556,0.0058314176,0.07571163,-0.17923386,-0.20531346,0.11256097,-0.05249624,0.061473336,0.003976334,-0.14609374,-0.066766374,-0.10076283,-0.05687783,0.04363162,0.20555148,-0.013289792,-0.0050878967,0.067112595,0.05469922,0.16166231,0.013495311,-0.19388478,0.07404862,-0.0737337,0.061911497,-0.07254193,0.1984784,-0.035385836,0.08683369,-0.015364372,-0.22576377,-0.04171949,-0.23097074,-0.00018823778,0.0474293,0.042134393,-0.054747798,-0.013868429,0.008029207,-0.008109693,0.07274622,0.007551506,-0.14295828,0.031366434,-0.014669531,0.089352,0.22128706,-0.1576735,-0.13379371,-0.16853353,-0.2564799,0.05433087,-0.09401647,0.1642123,-0.085860595,0.13126785,0.13531303,-0.025915489,0.08516319,-0.19172175,0.03898655,-0.12928157,0.1278353,-0.013548405,0.10562007,-0.09929484,0.10906468,-0.012193277,-0.04409269,0.16583012,0.062057354,-0.10930472,-0.004746517,-0.05090877,0.1765233,-0.037228093,0.06823574,0.11318603,-0.22496764,0.0804869,0.023933103,0.0013562179,0.27431846,0.05131656,-0.042367294,-0.006589247,0.12696894,0.11866806,-0.14454621,-0.12547107,0.08905961,-0.013875059,-0.15653001,-0.07031684,0.14794166,0.12563244,0.004968285,-0.06341645,0.1012448,-0.015483128,0.010258774,0.016879087,0.11020553,-0.17460403,0.06598124,0.20731163,0.016854815,-0.057082452,-0.03258494,-0.04463538,0.11079053,0.017962363,0.03419328,-0.02737846,-0.089934744,-0.05553525,0.21526173,-0.07318176,-0.024651797,-0.023100909,-0.09462904,0.061781786
Medici::-0.01132278,0.032176584,0.061273176,0.029667566,-0.08744515,0.14947805,-0.19218151,0.10084528,-0.13663663,-0.043095063,-0.11346083,0.22849864,0.030607892,0.1135456,-0.00017508352,-0.017586725,-0.062905826,-0.1258776,-0.0070499,0.021014066,-0.030044591,0.009944101,-0.07064964,0.2088291,0.08999606,0.082213305,0.014914244,0.35933182,-0.037143216,-0.08272509,0.021260729,-0.046205193,-0.10459484,-0.034529153,0.08883356,-0.09071019,0.14233923,-0.022300128,-0.19380197,0.16865979,-0.11133792,0.1341519,0.1296297,-0.043781187,-0.07702286,0.075950585,0.04416901,0.086517885,0.10326238,-0.027845623,-0.046608057,-0.12393509,-0.17925523,-0.029711416,-0.019815994,-0.14411202,0.06151793,-0.03240663,-0.00032421426,0.08292959,0.16296959,0.14071491,-0.16193646,0.18128052,0.02172005,-0.20832779,0.08520706,0.03860293,-0.14494415,-0.093484685,0.0063806134,-0.18140548,-0.007963912,-0.08048733,0.09683915,-0.06292183,-0.04919842,-0.033325795,-0.07966529,0.019422865,0.10393197,-0.096636,-0.14772876,0.13263577,-0.041812047,0.103873685,-0.026822574,-0.09365003,-0.043395415,-0.048821438,-0.050500844,0.060980007,0.18635625,-0.028229991,0.037066482,-0.0020192142,-0.0027669375,0.16555846,-0.005656472,-0.17154102,0.09713641,-0.09078438,0.109742865,-0.11105069,0.12826973,-0.03644193,0.054119326,-0.0063420255,-0.093737125,-0.0008799546,-0.14709152,0.0015601226,0.018197868,0.012173419,-0.045489717,-0.016045595,-0.01385112,-0.040517,0.029746484,-0.033904728,-0.11173575,-0.0017121646,-0.014930812,0.028337868,0.20618795,-0.07807107,-0.09783766,-0.12581818,-0.16575865,0.07075317,-0.0685052,0.123177126,-0.064655885,0.12084984,0.11395407,-0.06483461,0.06217313,-0.20380686,0.025540464,-0.11109804,0.14159982,-0.100191884,0.05861511,-0.05208481,0.086831175,0.00968706,-0.07206835,0.12134256,0.067658514,-0.105061084,0.02539977,-0.06362199,0.13078786,-0.0038950993,0.054727793,0.074515484,-0.14270407,0.061035328,0.016830806,0.014810545,0.17181271,0.02967059,-0.0058955573,-0.007162084,0.07432835,0.043044213,-0.11368624,-0.09876575,0.08352993,-0.019576753,-0.104135066,-0.059088986,0.07163097,0.057013445,-0.010480673,-0.03752251,0.099098906,-0.051585395,0.032904837,-0.020695133,0.077903904,-0.07131913,0.043550868,0.10376571,-0.006700455,-0.0347337,-0.048468605,-0.05751785,0.058912966,-0.009747561,0.051292684,-0.023583135,-0.049100228,-0.01709751,0.14270462,-0.031881027,-0.01125508,-0.022218315,-0.041789867,0.08317235
Castellani::0.083833314,-0.0040285517,-0.09651109,0.12943508,0.09877043,-0.07174198,-0.019055214,0.054287657,-0.05183844,0.14422628,-0.22035952,0.18053755,0.032455556,-0.089776576,0.07188878,0.15105836,-0.15717095,-0.26988837,0.037185233,0.17915814,-0.01530876,0.090439245,-0.03845362,-0.05866264,-0.0027936243,-0.19970404,0.32424447,0.24346429,-0.051897783,-0.13648097,-0.05183469,-0.1256727,-0.14925611,-0.05396319,0.015323533,0.07747118,-0.023199506,-0.08654127,-0.15158892,0.32575798,-0.011623368,0.16347821,0.0808217,-0.09176365,-0.14334048,-0.3329491,0.009173943,0.0085117165,0.28444827,-0.10331887,0.05342137,0.05728856,-0.050705336,-0.09076747,0.03783081,-0.053393822,0.10966232,-0.17744887,-0.16876651,0.011751437,0.21093836,0.011103121,-0.38450068,-0.0054233195,0.20459571,0.08366753,0.1130713,0.16109626,0.05798235,-0.10413937,0.113625586,-0.035139404,-0.20164037,-0.13284361,0.19626403,0.0345795,0.038820427,-0.06332701,-0.14068712,-0.09405483,-0.16784556,-0.13567896,0.02185919,-0.013457855,-0.03193654,0.32291767,-0.2636057,-0.050167505,-0.09794366,-0.02013471,0.14592902,0.052810468,0.088096134,0.0845147,-0.037728775,0.009297554,0.06901039,-0.06672807,-0.18706915,-0.054361794,-0.14218925,-0.031385448,-0.3098057,0.13009624,-0.0046808743,-0.12760356,0.0005040286,-0.13536559,-0.0036887827,-0.17752013,0.12155709,-0.10508371,0.079111405,0.086648375,0.043349303,0.065875664,0.104231596,-0.03518217,0.0314629,0.12088951,0.07586705,0.043804016,-0.03882733,-0.070652746,0.15894063,-0.082614474,-0.04500523,-0.34783068,-0.17484768,0.09344371,0.020520136,-0.079493694,0.03801879,0.028850148,-0.009648,0.056516655,-0.022919536,-0.26904237,-0.06883178,0.11523105,0.11218819,-0.10327305,0.031809743,0.01793287,-0.017775532,-0.17426783,0.18157315,0.100120075,0.0119248815,-0.16349426,-0.03822133,-0.12649307,0.001629367,0.048303507,0.21211329,0.04183547,0.093255214,0.16371733,0.13450277,0.14415489,-0.12051535,-0.03711176,0.03582871,0.17323479,0.048072234,0.04866185,0.11250721,-0.015211463,-0.0034161576,0.093122594,-0.19255538,0.0803457,-0.101217315,0.036734402,-0.07552909,-0.06701136,-0.05416375,0.066254966,-0.1003634,-0.024461899,-0.18071084,0.16246316,0.07717057,-0.19405536,-0.060583804,-0.052706376,-0.06544692,-0.05355653,0.11897197,-0.12460841,0.061955985,-0.09762707,-0.105033405,-0.051067363,0.03918056,0.13906515,0.037170775,-0.038779944,0.12600496,-0.014609917
Peruzzi::0.04284595,0.074662216,-0.0689128,0.10913384,0.09516759,-0.0753024,0.04077595,0.0374767,0.02134374,0.1526913,-0.15602307,0.07275862,0.08738566,-0.14982697,0.06205766,0.10217362,-0.16462697,-0.24274087,-0.051397093,0.1362729,-0.050771993,0.057442304,-0.0019681277,-0.12780073,0.013894744,-0.21861225,0.23411064,0.13349977,-0.045574892,-0.10846504,-0.06913312,-0.038396586,-0.08524149,-0.07164683,-0.025797578,0.10215019,-0.04450906,-0.08457552,-0.15408792,0.2544387,0.02747167,0.12298564,0.028410498,-0.079206996,-0.050832618,-0.31476632,-0.010527443,-0.021251764,0.25407314,-0.086513504,0.048200734,0.10685624,-0.08730157,-0.10052964,0.0068252725,-0.02536797,0.07409756,-0.14803927,-0.16663054,0.0052859685,0.13843125,-0.01959546,-0.29872966,-0.0021211691,0.18871213,0.15425529,0.05310394,0.14283079,0.11230562,-0.08219587,0.10867767,-0.076705664,-0.21509723,-0.056494404,0.14057371,0.09235917,0.04889196,-0.09474731,-0.12585914,-0.07159548,-0.16081429,-0.04290605,0.08653246,0.0350515,-0.030649338,0.2875731,-0.24390793,-0.0077039693,-0.057318993,0.0016129517,0.1940633,0.08938857,0.12334468,0.13214378,-0.06860611,-0.0046083797,0.07055436,-0.14031106,-0.21284889,-0.096104145,-0.25954086,-0.0010621962,-0.29885587,0.22918478,-0.05022603,-0.1143587,-0.12565567,-0.13253804,-0.05734916,-0.24385616,0.24839783,-0.06396654,0.018804356,0.1070807,0.10034279,0.051372953,0.14229608,-0.018640587,0.043957584,0.16801079,-0.022563463,-0.043173123,0.010287678,-0.017876195,0.14662422,-0.09890777,0.05073973,-0.39647183,-0.14656188,0.13008799,0.019111454,-0.10623267,-0.01671183,0.14983009,-0.044129748,0.13421252,0.04434582,-0.29589427,-0.08800148,0.13575196,0.16870488,-0.14912046,0.029756103,-0.061580326,0.06498013,-0.24131261,0.28743657,0.09651964,-0.03646628,-0.21146841,0.046435222,-0.18279353,-0.04579937,0.06794113,0.27438015,0.07969207,0.033312064,0.19554026,0.06251266,0.18693131,-0.1130346,-0.014439543,0.05328876,0.13835844,0.053540885,0.007791918,0.046868894,-0.11526132,-0.08197461,0.0064262436,-0.091399536,0.12562361,-0.19845253,-0.05260146,-0.0009748249,-0.07256472,0.04220385,0.010514445,-0.08232152,-0.02250307,-0.19760193,0.22368652,0.010098188,-0.21553257,-0.12700996,-0.011659034,-0.102892146,-0.018578093,0.18397851,-0.091883406,0.039990626,-0.058746573,-0.09755586,0.06101335,0.015007002,0.13528661,0.07922234,-0.06411182,0.046682727,-0.019400492
Strozzi::0.025036747,0.10469656,-0.024442594,0.08810594,0.057989098,-0.049179688,0.079698,0.048004158,0.012077566,0.142199,-0.11654713,0.067943595,0.08352199,-0.10321877,0.07405898,0.06226683,-0.1613238,-0.18967643,-0.044669352,0.104440436,-0.08860629,0.028648106,0.03496807,-0.10383235,0.046733107,-0.16950634,0.14113835,0.09893902,-0.024568075,-0.115094766,-0.043613836,-0.0040549897,-0.0957153,-0.02622469,-0.024348073,0.08878098,-0.009563406,-0.09093509,-0.16563438,0.23121482,0.0011682693,0.13426088,0.034599524,-0.057379734,-0.035297778,-0.29015148,0.0058357646,-0.01918281,0.23907097,-0.08065026,0.009851683,0.062611304,-0.106796436,-0.08395266,-0.001214464,-0.05833289,0.06355634,-0.15925531,-0.15005976,0.023182414,0.14727543,-0.009028966,-0.26995316,0.04427185,0.19714716,0.118470065,0.05650132,0.09611098,0.11745753,-0.10120598,0.08029394,-0.11668383,-0.17745297,-0.016824104,0.123703815,0.07334802,0.039769385,-0.055301044,-0.12784785,-0.041463215,-0.12270954,-0.01723201,0.0933527,0.038556382,-0.03352961,0.2631318,-0.21285683,-0.0080816485,-0.053811554,-0.0006476037,0.1627127,0.09071943,0.14376454,0.089032345,-0.039560143,-0.016853994,0.07776514,-0.12263939,-0.19920613,-0.13988186,-0.21960957,0.014031514,-0.25251812,0.20434785,-0.035288557,-0.08537849,-0.12552272,-0.08308274,-0.034408525,-0.21698993,0.23354813,-0.053918727,-0.027546274,0.07050742,0.07884034,0.05929647,0.13549903,0.0042874976,0.05872307,0.13120249,-0.040697847,-0.052991323,0.024742994,0.0010501175,0.15976919,-0.08325037,0.04612454,-0.34452784,-0.12581192,0.12147732,0.011585348,-0.102953285,-0.04095273,0.1794725,-0.033143565,0.13439834,0.08122635,-0.29769388,-0.08484843,0.15500642,0.18957658,-0.16491795,0.0224045,-0.05094632,0.07313014,-0.20436256,0.29778555,0.09776282,-0.025971025,-0.21116157,0.02706358,-0.19156827,-0.04743427,0.07946499,0.24065986,0.1146935,-0.02280169,0.1924741,0.026937963,0.18503973,-0.094530426,0.0023263467,0.038447466,0.14141665,0.017276932,-0.00096058176,0.02858547,-0.12874192,-0.080411516,0.011845265,-0.093462825,0.09787067,-0.19119942,-0.055401172,0.011479534,-0.08278079,0.051679447,0.02135649,-0.10053311,-0.041859053,-0.18057188,0.2274324,0.03541176,-0.20600814,-0.14144892,-0.044722155,-0.13222072,0.007044178,0.17208391,-0.12405605,0.044958256,-0.059370644,-0.09515314,0.08554521,0.027662998,0.14722869,0.04315101,-0.08413614,0.024711948,-0.017911635
Barbadori::0.050607447,-0.082159825,-0.04143489,0.008796623,0.038728066,-0.09776061,-0.082964756,0.06493793,-0.092766955,0.07401111,-0.123733014,0.11066456,-0.016461184,0.09410856,0.071368195,-0.001975735,-0.090400964,-0.08776002,0.07921826,0.093586326,-0.039153825,0.10225714,-0.040897425,0.05229305,-0.04307823,0.01561234,0.15657026,0.29536393,-0.0057483115,-0.08349064,0.0058573117,-0.091123335,-0.23596896,0.027178416,0.09507431,0.060133163,0.049218692,-0.09230082,-0.024562448,0.17138399,-0.11747153,0.1234063,0.10519375,-0.0021316358,-0.12541741,-0.042421076,0.08818339,0.055171594,0.23563072,-0.09068964,-0.10607539,-0.089734554,-0.19093502,-0.025693035,0.064800695,-0.16329287,0.17407176,-0.051710177,-0.12535211,0.039180174,0.21403141,0.03797399,-0.30693987,0.101170026,0.16009742,-0.049512416,0.091539636,0.13537312,-0.00042049703,-0.08160596,0.00072758016,-0.045037776,-0.13498998,-0.08224366,0.13507755,-0.02381088,-0.015180662,-0.0032984628,-0.15880692,-0.13622637,-0.04579921,-0.21697177,-0.09751072,0.044971693,-0.08004191,0.25421208,-0.15075664,-0.07916475,-0.10808832,-0.09314046,0.11122093,-0.0080708675,0.16602087,-0.015946932,-0.053356923,0.074491575,0.13894042,0.07816312,-0.101477936,-0.120551705,-0.0027248538,-0.031816132,-0.2489412,0.021572217,0.11129818,-0.17108198,0.061246563,-0.1478272,-0.11381799,-0.13364717,-0.063021205,-0.027734617,0.114160635,0.101320066,-0.0043693357,0.025063664,0.10754786,-0.029960493,0.064605705,0.124540776,0.033425976,0.063349076,-0.017046284,0.018820178,0.20128182,-0.16147698,-0.1361605,-0.253691,-0.2272362,0.026788607,0.0026904568,0.024252266,0.039132904,-0.010102845,0.0141097335,0.04493548,0.0016303654,-0.17441468,-0.016345263,0.059926435,0.052436624,0.020907348,0.082875594,0.03224855,-0.009812264,-0.06862183,0.035056505,0.1612092,0.023592848,-0.060685758,-0.07249755,-0.061030965,0.044013105,0.0070572128,0.107328124,0.0212539,0.014160307,0.09230568,0.0851253,0.03780979,0.046685174,-0.010787289,-0.034562558,0.19184926,0.066047035,0.10612106,0.05665646,0.033685844,0.056484524,0.15484753,-0.22713797,0.07765303,0.08882674,0.11015316,-0.041532874,-0.019370351,-0.0710851,0.07360904,-0.053886175,0.0048135007,-0.04632023,-0.013912289,0.10917191,-0.0414261,-0.024416925,-0.09731645,-0.04995691,-0.0338525,0.10481625,-0.10312964,0.01723236,-0.11679118,-0.08970801,-0.13122769,0.10790441,0.0717659,-0.04454827,0.026230162,0.052649114,-0.057390768
Ridolfi::0.009063315,0.12776203,0.040575515,0.100053966,-0.084983714,0.11432025,-0.05334693,0.12563026,-0.08692995,0.040851403,-0.1585976,0.21486151,0.053723216,0.021861557,0.059536807,0.00232429,-0.1581578,-0.113488145,-0.038530096,-0.04156469,-0.09754765,-0.013728792,0.06174392,0.11244357,0.09955799,-0.0295299,-0.061040275,0.2893541,-0.046507854,-0.029966503,-0.008349368,-0.039385423,-0.06297151,-0.03248771,0.04550069,-0.017697923,0.15373155,-0.11418617,-0.15015687,0.1356282,-0.06651782,0.18194509,0.12606592,-0.03555109,0.020210152,0.032047972,0.04131176,0.04629288,0.060962547,-0.056371123,-0.079015575,-0.105754666,-0.1885853,0.009263214,-0.06314724,-0.0932569,0.028894767,-0.055636734,-0.058432743,0.11162262,0.16009986,0.08930805,-0.13700698,0.191003,0.08691624,-0.09201415,0.06721629,-0.02994963,-0.009110678,-0.1512096,-0.016613593,-0.2169127,-4.179834e-05,0.020648208,0.038186498,-0.05592583,-0.006893951,-0.048793554,-0.11504929,0.06578162,0.0929635,0.06666111,0.0065010157,0.104242384,-0.042346448,0.11636447,-0.004191955,-0.011439409,-0.045454167,-0.03660176,-0.022362858,0.066212,0.17626181,-0.03268088,0.028153263,-0.04111342,0.034939036,0.10882862,-0.03258044,-0.20117144,-0.0077952775,-0.045656025,0.09234752,-0.012258405,0.078647345,-0.048228707,-0.088225804,0.0024806536,-0.04962138,-0.06625993,0.03336664,0.015900644,-0.0978266,-0.0063355127,-0.012843345,-0.032253355,0.054752216,-0.02349715,0.062015172,0.0010232334,-0.17105971,-0.11565444,0.025338145,0.054655403,0.21037653,-0.07434228,-0.0070635932,-0.13942203,-0.1143463,0.12234944,-0.106935225,0.031556606,-0.11839417,0.22690076,0.056437265,-0.002562345,0.12617096,-0.22537813,0.032798406,0.0050478405,0.23623891,-0.18800858,0.032703977,-0.036188442,0.11676684,-0.043398384,0.072865374,0.13837884,0.04602005,-0.16138953,0.028362328,-0.12463841,0.06817398,0.07334963,0.071964934,0.120670654,-0.23223597,0.124799944,-0.027822627,0.07048348,0.18137632,0.04707068,0.010118278,0.02325534,0.09372268,-0.04460696,-0.1916601,-0.22446442,0.09508309,-0.041932072,-0.07037914,0.010396365,-0.0016316031,-0.04591032,0.021922218,-0.051137947,0.20381762,-0.091578245,0.010727001,-0.05374091,0.08088959,0.011369514,0.028485017,0.056202736,-0.11292914,-0.040110037,-0.09858936,-0.020711055,0.1451594,-0.054299235,0.023595,-0.031883124,-0.06021947,0.07651835,0.15563928,-0.032602306,-0.007469724,0.010848648,-0.114877954,0.08106795
Tornabuoni::0.0018527282,0.06802224,0.058725655,0.07049595,-0.097948566,0.15465331,-0.105693705,0.12536962,-0.12978847,-0.022190245,-0.0684813,0.1867791,0.03245423,0.058651004,-0.045684095,-0.07003099,-0.06285001,-0.021715278,-0.015019075,-0.04733131,-0.025870074,-0.06385686,0.07362286,0.116409294,0.077079676,0.091281064,-0.06805228,0.30467877,-0.085710846,0.0053830217,0.02342746,0.0033215773,0.00544684,-0.019506907,0.07423787,-0.036298957,0.06672893,-0.10484003,-0.17180222,0.06812518,-0.06954737,0.13926998,0.09991778,-0.041003365,0.024151348,0.12854184,0.039509844,0.053762894,0.02103751,0.005513084,-0.07738303,-0.11267869,-0.19914791,0.012034313,-0.06602565,-0.11148095,0.0048987903,-0.014100684,-0.012863488,0.12562138,0.12143084,0.13466156,-0.1408849,0.21213824,-0.02068107,-0.12608181,0.034951743,0.0014237828,-0.07597634,-0.03176509,-0.03069653,-0.20373413,0.008746933,0.05025248,0.050180696,0.0007617023,-0.029385956,-0.057450265,-0.088230215,0.05260121,0.15491176,0.037935752,-0.10172378,0.19326277,-0.024089588,0.050366804,0.049271174,-0.0029627131,0.029201549,-0.03184301,-0.015116288,0.10525599,0.15991496,-0.07914306,0.080055505,0.012000224,-0.05966114,0.08121649,0.009907153,-0.15108445,0.016346533,-0.0671546,0.15993349,0.023398606,0.12571053,-0.020443108,-0.037808962,-0.027629746,-0.10133303,-0.011169875,-0.02638188,0.0017684986,-0.016459832,0.017937036,0.020014009,-0.098452106,0.028631523,-0.051257297,0.065450676,-0.006839891,-0.2266872,-0.14459331,0.008987009,0.13859911,0.22127086,-0.036565334,0.0005686473,-0.15974341,-0.09263654,0.050369564,-0.08968771,0.08558973,-0.139328,0.23853825,0.07536337,0.027334392,0.10937381,-0.24610482,-0.030837758,-0.08505712,0.20146781,-0.23038256,-0.012818539,-0.040912785,0.08120795,-0.017763406,0.074189976,0.16764547,0.055706196,-0.09704088,0.031107726,-0.093636714,0.112779304,0.0573071,0.08494726,0.097470686,-0.2137517,0.09631837,-0.005342545,0.05153519,0.13048573,0.0062384247,-0.016049758,-0.02812123,0.1252597,-0.0763284,-0.19439001,-0.22204608,0.064850524,-0.06029104,-0.0835521,0.009025125,-0.05030055,-0.07875173,0.046761315,-0.013363106,0.23789985,-0.08482216,0.05487852,-0.05570888,0.0008362705,0.033174798,0.020438384,0.03901038,-0.1340591,-0.028327784,-0.06383431,-0.044723183,0.19566096,0.05832418,0.048860453,-0.024471106,-0.04200142,0.053574767,0.11322767,0.0069904383,0.05655076,-0.0028601335,-0.13826543,0.066791125
Albizzi::-0.0100111,-0.045012597,0.13236733,-0.033579722,-0.08311199,0.22220427,-0.23012906,0.03767215,-0.16585536,-0.08799803,0.099791676,0.12692899,-0.007124024,0.11575607,-0.2185246,-0.07982388,0.14537036,-0.08381447,-0.033700265,0.1674444,0.06457431,-0.11292287,-0.054420207,0.11300235,0.10824315,0.2291496,0.11767034,0.23993194,-0.06280434,-0.13265069,0.10476868,0.07087072,-0.043666705,0.029223302,0.008782831,-0.11877333,-0.03535342,0.042662594,-0.24582903,0.10462114,-0.08841948,-0.013815711,0.046266876,-0.049278755,-0.13395019,0.028724765,0.02704669,0.13889524,0.21423976,0.043076683,-0.028054038,-0.11698093,-0.17937833,-0.06284729,-0.031698126,-0.15843816,0.03734973,0.039433878,0.09928067,0.0029444045,0.10011908,0.21096985,-0.25483546,0.14858884,-0.12352914,-0.11964637,0.027744431,0.15430623,-0.17193094,0.16005364,0.08285429,0.010061089,0.004916609,-0.041716814,0.14452082,0.11631194,-0.027978716,-0.001043984,0.08268063,-0.0025489184,0.09307428,-0.20438416,-0.26366284,0.2319029,-0.011245347,0.014835345,-0.033944156,-0.059675932,0.12602195,-0.014628808,0.05326704,0.16042481,0.17260288,-0.031720176,0.06644223,0.07070138,-0.14453463,-0.02569084,-0.05651629,-0.022612214,0.022217024,-0.09905782,0.07998362,0.02606263,0.12805413,0.018636549,0.15668784,-0.03090507,-0.13933466,0.020606942,-0.18801954,-0.104767226,0.2048447,0.08252083,0.04403538,-0.031613052,-0.020269722,-0.053413764,0.021486843,-0.045798514,-0.16439523,0.022537222,-0.06177575,0.10185179,0.16236514,0.04047371,-0.022410078,-0.18331197,-0.087421775,-0.064693496,0.05503429,0.16048445,0.0033878558,0.1085277,0.12481857,-0.011224476,0.021694224,-0.25202438,-0.12114084,-0.21182337,0.022880785,-0.124548055,-0.016881378,-0.052865256,-0.05419939,0.042625643,0.020308046,0.11320779,0.083026566,0.06731776,0.050627373,-0.01167095,0.17145292,-0.011829551,0.14997546,0.054567877,-0.060988665,0.07129878,0.05917186,0.01505783,0.013719191,-0.03882969,-0.10134373,-0.13256378,0.09953954,0.06959887,-0.11750341,-0.04993653,-0.038673583,-0.056312516,-0.09906563,-0.11321664,-0.07590669,0.0154635655,0.05760578,-0.07674147,0.10590675,-0.044231314,0.031016488,-0.03527472,-0.09881007,-0.014422645,-0.032057036,0.19358306,0.06817336,-0.06929924,-0.04779105,-0.18669876,0.029697612,0.20787472,0.11585375,0.011287813,-0.017589547,-0.05785997,0.00590783,-0.015419691,0.20978878,-0.049855884,-0.043402504,0.05309172
Salviati::-0.26557854,0.033002205,0.15454265,-0.13009982,-0.21539743,0.06907298,-0.2867458,0.16150485,-0.24081756,-0.011812662,-0.03728684,0.018420784,0.19334489,0.14510877,0.036640093,-0.19897377,-0.077769,-0.14133361,-0.18305954,-0.020562015,-0.14803451,0.09842808,-0.16433078,0.24088146,0.10246066,0.27063286,-0.20025124,0.32763442,0.069743074,-0.016096486,-0.039415725,0.15124227,-0.19459368,-0.09976381,-0.0052882046,-0.09596988,0.1842555,-0.04294417,-0.121481866,0.030961795,-0.14646508,-0.13314599,0.08551944,0.0046658306,0.034978848,0.14401044,0.12959772,0.10257273,0.20919614,-0.15628581,-0.1645753,-0.12731075,-0.36410812,-0.110902786,-0.047998887,-0.10577545,0.16626279,0.1298365,-0.03282858,0.029569363,0.102540724,0.021193543,-0.106202886,0.12836105,0.11065039,-0.24931595,-0.09564589,0.1468678,-0.23458533,-0.04528287,-0.01064152,-0.27417645,-0.01632047,0.03740507,-0.041416097,-0.086954586,-0.128638,0.030662822,-0.08257864,-0.14472109,0.08873003,-0.1241399,-0.26410413,0.16762854,-0.056810744,-0.022744048,-0.031753927,-0.20462279,-0.114180125,-0.09799635,-0.11291757,-0.045498505,0.33989802,0.06354745,-0.11377959,0.05637413,0.11886184,0.25120983,-0.11134757,-0.060692854,0.071216576,-0.14731692,0.12346124,-0.17935051,-0.012855942,-0.16878948,-0.03380967,-0.03868573,-0.26018012,-0.010032634,-0.28938115,0.14300276,0.01933564,0.14621104,-0.14950147,0.1148166,0.0006291567,-0.003805635,-0.036866996,0.1405328,-0.19920439,-0.09092962,0.034548018,0.027677232,0.058857236,-0.22665289,-0.08399957,-0.16519856,-0.36759874,0.15287335,-0.062342983,0.1598749,0.15195508,0.22115597,0.07031575,0.073265314,0.020284131,-0.18898056,0.09013811,-0.112580486,-0.012069518,-0.015629891,0.23460269,-0.22422658,0.10183719,-0.118262604,0.07486099,0.2557204,-0.10785703,-0.25268462,0.16938303,-0.06811067,-0.1021239,-0.047086466,0.3038428,-0.03735888,-0.07825888,0.16684395,-0.08585308,-0.0070790295,0.22102652,0.13360381,-0.090962045,0.09815009,0.12402507,0.10953796,-0.0479638,-0.10022476,0.0421675,-0.016460165,0.027528962,0.20114182,0.09921509,-0.006819127,0.16444808,-0.19697024,0.17127565,-0.09542072,-0.03724266,0.12127609,0.028556721,-0.048437405,-0.13838263,0.22199976,-0.03346064,0.008456007,-0.026770135,-0.14765798,0.17390947,0.054816887,-0.07491723,-0.08351761,-0.084451534,-0.09017754,0.14825541,-0.2685245,0.0701007,0.12254348,-0.047262866,-0.046439726
Pazzi::-0.38440195,0.0784759,0.15569334,-0.10732222,-0.27593446,0.10818353,-0.4233077,0.23355487,-0.31886485,-0.032993928,-0.1267984,0.041568343,0.3284161,0.09060385,0.052789178,-0.21527813,-0.14700297,-0.28545108,-0.29805827,-0.052928243,-0.17949674,0.16380355,-0.25725788,0.30851707,0.120762005,0.26545057,-0.22805342,0.45596582,0.06511469,0.016887339,-0.13921018,0.18383263,-0.18843888,-0.22752778,-0.030969845,-0.1199697,0.22304873,-0.04457191,-0.14019428,0.020843588,-0.13097957,-0.2312167,0.058782313,-0.027028233,0.09862003,0.16091613,0.1313121,0.09521227,0.21731701,-0.23235843,-0.12382712,-0.05674887,-0.3973684,-0.16365466,-0.06414383,-0.025840046,0.1966337,0.1790138,-0.06952158,0.0080678025,0.078978546,-0.055210155,-0.06996121,0.07925984,0.15600279,-0.31222484,-0.15531689,0.21648894,-0.35826126,-0.074620076,0.021948718,-0.41658327,-0.05918476,0.026219314,-0.08550151,-0.13112634,-0.16741087,-0.02851054,-0.13817528,-0.22492209,0.07613996,-0.07080112,-0.29363063,0.1639705,-0.051115442,-0.048439123,-0.06525767,-0.26293227,-0.16548994,-0.101880856,-0.16887048,-0.101442896,0.37619954,0.1408664,-0.17358291,0.0357278,0.1453384,0.31447986,-0.15979545,0.013060017,0.054612067,-0.20833068,0.17079175,-0.24162641,-0.123079635,-0.23986809,-0.10403734,-0.06309546,-0.28661248,-0.020146135,-0.2969744,0.22715664,-0.0018682498,0.19185935,-0.20740438,0.17058893,-0.017614812,-0.013262081,-0.10823973,0.22057138,-0.20270091,-0.15681386,0.043668177,-0.02906454,-0.04279067,-0.27732843,-0.067633025,-0.16356902,-0.4508133,0.2351613,-0.069256015,0.17129634,0.2437318,0.24630538,0.058784373,0.106149964,-0.033128865,-0.17525262,0.1342395,-0.13842592,-0.067107424,-0.0032739032,0.31525147,-0.31827602,0.14755505,-0.20032491,0.09642119,0.2779394,-0.19423904,-0.3732115,0.27353126,-0.07529597,-0.2250904,-0.085632935,0.41616216,-0.13186048,0.015744196,0.197539,-0.12707432,-0.008141968,0.20599815,0.16735747,-0.061798804,0.13211061,0.13277005,0.09035756,0.024713697,-0.09597163,0.024349334,-0.03734066,0.1345382,0.33557558,0.08135793,-0.072453454,0.20908783,-0.24250495,0.19674374,-0.14204203,-0.018569192,0.18430717,-0.008439787,0.006841208,-0.24126387,0.17800647,-0.06897174,0.10085934,0.014773035,-0.17400041,0.21765473,0.066796094,-0.1340934,-0.086669855,-0.083945446,-0.09445502,0.11457001,-0.34186593,0.0790124,0.17346647,0.008444597,-0.07236674
Bischeri::0.03067843,0.08235474,-0.062458433,0.14970095,0.07484026,0.015172959,0.008785101,0.026369952,-0.005911783,0.10375872,-0.13812599,0.09554293,0.09719542,-0.20342784,-0.040291186,0.10160515,-0.11207298,-0.25309867,-0.0776837,0.16848888,0.0020473166,-0.00047211756,0.01084131,-0.14458726,0.042427354,-0.20339416,0.28107542,0.16887671,-0.097385235,-0.09906194,-0.07596766,-0.008275163,-0.007319854,-0.09735717,-0.036226187,0.07071376,-0.07565389,-0.06038314,-0.23191838,0.24665439,0.050956156,0.08179625,0.009409083,-0.115710974,-0.056951005,-0.3122593,-0.041073546,-0.023351999,0.22430564,-0.05591698,0.1042213,0.13501526,-0.049332876,-0.1403555,-0.028722435,0.0081809815,0.019128919,-0.14783435,-0.114757925,0.014629986,0.11211191,0.014537778,-0.2887896,-0.0071130893,0.091081224,0.16907248,0.02888197,0.14590824,0.059262596,0.017437626,0.11672667,-0.046024926,-0.18596646,-0.030424375,0.12273279,0.13978337,0.04689997,-0.10039838,-0.041749302,-0.037623897,-0.1422943,0.006475934,0.03678337,0.063622385,0.02081141,0.19419216,-0.20165132,0.0071468214,0.018241834,0.025037525,0.1576585,0.13648622,0.07203503,0.13513492,-0.015670795,0.008533209,-0.04526416,-0.21107374,-0.17534544,-0.010261928,-0.28379193,-0.020998366,-0.19374248,0.27390632,-0.052836124,-0.041417386,-0.09987943,-0.11692808,-0.045865916,-0.19407889,0.25650305,-0.09852461,0.037060086,0.09423122,0.12523885,0.0023121056,0.09510647,-0.03346992,0.028546946,0.12366568,-0.053719174,-0.08214103,-0.01726438,0.015190712,0.086412914,0.001676808,0.105821535,-0.35976678,-0.06310988,0.08708058,0.022539435,-0.08581373,-0.058471985,0.16275895,-0.02140996,0.12370408,0.017034847,-0.285323,-0.13705017,0.04435712,0.14426644,-0.20857657,-0.028265812,-0.07302468,0.030905975,-0.21798933,0.2880841,0.054917946,-0.015774613,-0.15558252,0.059649084,-0.13998258,0.001389159,0.049101666,0.2629185,0.07105438,0.027150827,0.17104352,0.089470215,0.17096443,-0.14671016,-0.039562315,0.048429824,0.020553501,0.08360052,-0.041921593,0.011691038,-0.14809982,-0.09559501,-0.07012578,-0.059016638,0.075787455,-0.26197982,-0.110163085,-0.0024346767,-0.074953064,0.09659101,-0.011793971,-0.038523633,-0.03775033,-0.24575645,0.24183787,-0.022919852,-0.19534895,-0.12051775,0.032936785,-0.051661987,-0.049674146,0.17428371,0.029642811,0.07141343,-0.008260874,-0.08164724,0.08468573,-0.034813322,0.14150357,0.14124732,-0.08710976,0.035890948,0.016053032
Guadagni::0.037758294,0.050705064,-0.033558022,0.12223486,0.023891933,0.15471686,-0.18178026,-0.011182508,-0.011273086,-0.098184235,-0.010602236,0.07510705,0.06556157,-0.15759766,-0.22605227,0.004239562,0.07472995,-0.18228178,-0.12685308,0.09647592,0.11444707,-0.07223134,-0.032683253,-0.024120865,0.048414316,-0.024489418,0.22843546,0.23441592,-0.15542951,-0.0146309165,-0.057843246,0.056700017,0.1107241,-0.12176308,0.010532142,-0.08505476,-0.07763572,0.057734832,-0.25861412,0.07605329,0.021273386,-0.02904825,-0.058764018,-0.078152545,-0.02428426,0.019922506,-0.06792193,0.079056494,0.12740451,0.018387467,0.12168981,0.10256492,-0.0880886,-0.12431938,-0.038378865,-0.00881267,-0.037331566,0.004168316,0.027784254,-0.014143014,0.035745636,0.07540134,-0.15456343,0.052172992,-0.14027946,0.032915503,-0.026212638,0.19962725,-0.17931297,0.19854471,0.09804554,-0.059509132,-0.12376167,-0.028705707,0.10614142,0.15559784,0.0035397685,-0.18054989,0.01502181,-0.08178017,0.020001322,-0.0450974,-0.16019034,0.26003224,0.015074907,0.06421927,-0.09360364,0.024019286,0.15188427,0.032061268,0.168954,0.17481798,0.16656242,0.08789416,-0.0010333597,0.050122917,-0.17434675,-0.107684426,-0.0695843,-0.047345243,-0.1829617,-0.081794634,0.030950192,0.19198248,0.043107454,-0.055879064,-0.01494706,-0.16956954,-0.17063062,-0.101553515,0.09062287,-0.027197117,0.15831438,0.12944506,0.1521138,-0.117884554,0.033607263,-0.11481433,0.014311262,0.07696164,-0.16639638,-0.107047625,-0.035666317,0.124161385,0.105167866,0.014092071,0.08403036,-0.3037731,-0.014600284,0.021159975,0.04249966,0.050872784,-0.098120764,0.1342898,0.036581166,0.0298741,0.011847702,-0.22284392,-0.14586459,-0.20587131,0.05941678,-0.17919599,-0.050801113,-0.11993597,0.06952069,-0.111669116,0.030019086,0.056284152,-0.008388113,0.015398967,0.16333477,-0.051974535,0.10655675,-0.03787105,0.20395572,0.012006649,0.034430757,0.055077937,0.059341803,0.06064689,-0.028925113,-0.053656355,0.002428029,-0.12977353,0.1261582,-0.03401273,-0.099864095,-0.12043829,-0.10827596,-0.13149823,0.019289916,0.012402497,-0.19613957,-0.12630308,0.035728227,-0.006187121,0.1780172,-0.09984889,0.14123224,-0.04070308,-0.17605309,0.11229112,-0.09962832,-0.04672863,-0.044201944,0.10163042,0.011124142,-0.10921134,0.09517193,0.21362486,0.09242975,0.06883762,-0.02229245,0.08281627,-0.07361508,0.10470603,0.17566867,-0.063483484,-0.03498375,0.05269452
Ginori::0.008626477,-0.012827557,0.19280876,-0.035809122,-0.0701744,0.2946294,-0.23491167,-0.006365022,-0.13301529,-0.072913595,0.16846852,0.1658706,-0.021374194,0.12032194,-0.23226249,-0.012565643,0.20726323,-0.1851579,-0.050334584,0.22592223,0.058414575,-0.16443084,-0.09915992,0.14270225,0.19249873,0.20460185,0.14985238,0.08068399,-0.018095782,-0.23329541,0.14847988,0.09609939,-0.02837203,0.055916395,-0.06874205,-0.22647054,-0.040766403,0.11911052,-0.33100155,0.16336325,-0.092695884,-0.0359299,0.0066641606,-0.04514551,-0.18099953,-0.09445905,-0.015457796,0.20256053,0.33306247,0.050414156,0.046849973,-0.09132032,-0.102002315,-0.058083043,-0.022539962,-0.14178455,-0.0013187658,0.0071939584,0.15352154,-0.08918529,0.10340302,0.23750675,-0.288849,0.1231966,-0.09633314,-0.15847044,0.068191774,0.24313153,-0.2646393,0.15582025,0.19486381,-0.007280158,0.036014926,-0.124619156,0.25519407,0.1251041,-0.008115792,0.01987473,0.1134494,0.004485279,0.105344914,-0.32481307,-0.30711344,0.3097219,-0.040726665,0.07287788,-0.13274127,-0.08767704,0.15198179,0.028566414,0.09130366,0.21545173,0.3180889,-0.023431618,0.07729734,0.0116697885,-0.16382958,-0.004400103,-0.16330117,-0.102191195,0.1015329,-0.11730722,0.07039874,-0.06939764,0.08803446,0.021956995,0.23527782,0.02185073,-0.085924715,0.056133978,-0.2876046,-0.14770329,0.2686131,0.09416223,0.0267655,0.066463105,-0.046611026,-0.04057352,-0.016711371,-0.1338377,-0.15801662,0.12632318,-0.07931941,0.021794004,0.22849865,0.077321924,-0.06403613,-0.2045343,-0.097927704,-0.059573244,0.15822084,0.2142979,0.11404048,0.10708824,0.17361204,-0.090704575,0.04311155,-0.35811082,-0.12773807,-0.25188282,-0.00011697221,-0.14107099,0.016209817,-0.053860504,-0.08601921,0.11068204,-0.049989976,0.105057,0.11563935,0.10737956,0.10059629,-0.05252587,0.17911163,-0.0046632774,0.2082175,0.0923813,-0.027354755,0.0916798,0.013287582,0.011267444,-0.0013131535,-0.017172746,-0.15476477,-0.16273095,0.019095479,0.17239156,-0.13285926,0.03189127,-0.072961695,-0.03692807,-0.08599142,-0.22186881,-0.08133457,0.08075846,0.09186741,-0.16745707,0.06338211,-0.06162008,-0.013292998,-0.07284755,-0.08032617,-0.005927904,-0.057755895,0.33479273,0.19847369,-0.16190213,-0.15860783,-0.30516794,-0.13968046,0.19469917,0.17868452,0.004264879,0.004832236,-0.07476528,-0.019404251,-0.038534533,0.27043828,-0.092140086,0.015475147,0.076618254
Lamberteschi::0.019550184,-0.01994764,-0.08066417,0.1207351,0.0147929825,0.13530336,-0.22547905,0.016909538,-0.061056122,-0.13281877,-0.025702389,0.050623506,0.06506453,-0.17374048,-0.2856981,-0.04816652,0.09030166,-0.099738605,-0.10957877,0.07821324,0.18499272,-0.06385756,-0.026110979,-0.049251135,-0.017543312,0.027953086,0.25995904,0.34455004,-0.21371071,0.07045695,-0.07672291,0.046864077,0.15458806,-0.16253431,0.058188833,-0.025596185,-0.13781522,0.018351045,-0.23554449,0.043314938,0.03327586,-0.042054545,-0.05117411,-0.11146299,-0.004857283,0.10259855,-0.05156214,0.03820581,0.050159488,0.029782757,0.11048174,0.11280432,-0.12425186,-0.15138373,-0.050091095,-0.0036585159,-0.024749624,0.036796395,0.0071996422,0.048951242,0.01204895,0.09003383,-0.16860594,0.05360198,-0.20092084,0.039871223,-0.061266225,0.19247997,-0.17886704,0.2710058,0.0404822,-0.035441894,-0.14947537,0.011655504,0.05972664,0.17905158,-0.019856177,-0.20235375,0.012120526,-0.10002917,0.021615602,-0.012526372,-0.21298899,0.25871113,0.05035834,0.016579494,-0.029014325,0.029474834,0.1638932,0.007309693,0.13862492,0.15895516,0.07042613,0.085309766,0.017559452,0.11830019,-0.22105575,-0.13206606,-0.0055348757,0.05845294,-0.22280401,-0.10314025,0.06528446,0.26745775,0.080658294,-0.060942736,-0.02556911,-0.22958194,-0.23778985,-0.093341574,0.09037607,-0.032179505,0.17912559,0.14278537,0.16158822,-0.20241033,0.023916146,-0.14136331,0.034103703,0.13466322,-0.19848119,-0.18476146,-0.05333444,0.1951714,0.07766531,0.01019929,0.098867655,-0.3437725,-0.03327818,-0.0052596326,-0.01847342,0.052512746,-0.15372528,0.14279567,0.024102299,0.083332196,-0.028988648,-0.19271325,-0.17743497,-0.24257362,0.05447,-0.21439399,-0.08151968,-0.1239907,0.058697145,-0.17054325,0.086532906,0.09741339,-0.02627439,0.0022517296,0.13709982,-0.017725632,0.1331521,-0.0502689,0.21541765,-0.025442243,0.03705674,0.05260828,0.12527545,0.059791606,-0.049937963,-0.08474343,0.027401939,-0.14717749,0.2166015,-0.108348064,-0.09081372,-0.1774184,-0.09345631,-0.15551262,-0.015632326,0.083967306,-0.23377192,-0.17839144,0.021939792,0.044266988,0.23484948,-0.090313375,0.18429287,-0.015536573,-0.2501984,0.12950778,-0.0871885,-0.1283667,-0.12820466,0.16864482,0.10640309,-0.079057224,0.23744026,0.2995243,0.07780711,0.060000837,-0.03594916,0.05532823,-0.07005781,0.12039885,0.1989571,-0.03637403,-0.06612713,0.041659303
