Napoleon::0.0819224,-0.004726443,0.11088777,0.26395902,-0.15357104,0.32202157,-0.097952984,0.03496151,-0.40134338,0.003064978,-0.13794614,-0.09005358,-0.07081874,0.16770484,-0.5005539,-0.24101804,0.030049507,-0.60245806,-0.35041577,0.08104792,-0.0917536,-0.2708454,0.23229286,0.3729534,0.12771523,0.24951981,-0.25055772,0.5183919,0.24558875,-0.1204404,-0.13715139,-0.17974341,-0.087273635,-0.14357264,-0.149196,0.19645736,0.6662451,-0.3272179,-0.2548801,0.14277124,0.11381362,-0.102037154,0.44810763,-0.36304575,-0.19433738,0.12824768,-0.2776416,-0.2940967,0.16203755,-0.02259628,0.00791301,-0.6206101,0.342752,-0.18302445,-0.2010142,-0.2378283,0.06460851,0.037516706,-0.24595807,0.14706393,0.14391601,0.18913224,0.32607314,0.088592105,0.21326198,0.12608692,0.22932406,-0.4361285,-0.33992338,-0.31053072,-0.43152767,-0.39515623,-0.3241143,-0.3617264,0.35592067,-0.02298016,-0.21715355,0.26232755,-0.24134766,0.21115021,0.3576337,0.11956942,-0.4038345,-0.45500916,-0.18428501,-0.37828428,-0.42714202,-0.24146211,-0.39230004,-0.4070085,-0.004244203,-0.13365424,-0.37860602,0.08022538,0.13407135,0.49033988,-0.12660593,-0.039011575,-0.4548977,-0.16461663,-0.009841079,0.029655661,-0.28548276,-0.2698326,-0.11597646,-0.06520099,0.009986102,0.046487466,-0.11674921,-0.012888823,-0.14525379,0.32252538,0.081349924,0.35476798,-0.013263238,-0.24344638,0.07311213,0.014593991,0.015540468,-0.26754168,-0.022191253,0.30810887,0.14019875,-0.07993954,0.14463687,-0.1740056,-0.22412474,-0.03520043,-0.20203535,0.16440076,-0.4102425,0.20351452,0.0029472427,-0.15166575,-0.07295717,-0.22611848,-0.18550852,-0.28598264,-0.32797095,0.009450623,0.016791033,0.06693809,-0.12765397,-0.2105764,0.056170765,0.18007484,0.092329636,0.14029753,0.032884307,-0.25973508,-0.14388974,-0.12336516,0.09662736,-0.059789073,0.18354428,0.48219767,-0.102645494,0.12071476,-0.035717912,-0.02712879,-0.32161883,0.33453616,-0.14032978,-0.14136457,0.21665597,0.06487789,-0.069352865,-0.64702374,0.31316587,0.09913278,0.08017398,0.36140636,0.078423664,-0.16852844,-0.189081,0.089878246,0.02607457,-0.037490334,-0.15441196,-0.041202314,-0.14127134,-0.22836047,0.20279236,0.24670376,0.26812765,0.5624713,0.29306903,0.1642119,0.01580036,-0.123354346,-0.5393247,0.2581188,0.075096436,-0.012920485,0.60285324,-0.41276804,0.045937896,-0.14540651,0.17099124,0.24158803
Myriel::0.20283774,0.046530385,0.1674772,0.3618602,-0.043219384,0.2520615,-0.016509416,0.13575707,-0.23569049,0.06009929,-0.13159902,-0.09359123,-0.14501671,0.19480456,-0.198283,-0.18559067,-0.097625576,-0.44772702,-0.17944568,0.08855208,-0.09276099,-0.18237166,0.15899378,0.17341523,0.14640144,0.25493094,-0.2584995,0.48139682,0.09468702,-0.0320292,0.018831067,-0.12108073,-0.10252206,-0.2660538,-0.12280863,0.11872089,0.47985542,-0.25436068,-0.14026514,0.007922343,-0.011778491,-0.08170806,0.12977304,-0.07039451,-0.10938721,0.13504027,-0.03632068,-0.032490235,0.13212466,-0.011557836,0.09268009,-0.43075845,0.32338107,-0.1268039,-0.04541029,-0.21897605,0.18108456,-0.11797904,-0.1205015,0.1543137,0.13350606,-0.031212654,0.052941285,0.07762234,0.07857683,0.03041789,0.22757255,-0.2662841,-0.22505592,-0.2277757,-0.13766047,-0.19982894,-0.17205784,-0.22584648,0.17509724,-0.078670084,-0.077617876,0.030455964,-0.21603958,0.10996405,0.20086248,0.10288584,-0.23185204,-0.38533187,-0.14832455,-0.14714932,-0.27676,-0.27079144,-0.33810273,-0.18952982,0.028050227,0.07725531,-0.109327815,-0.006707958,0.18008336,0.18757465,-0.15501349,-0.13744499,-0.25587335,-0.17957778,-0.012368621,-0.014955893,-0.2200664,-0.17100838,-0.06681123,-0.05954929,0.13010474,0.027350547,0.02550744,-0.1562384,-0.18457606,0.33125454,-0.11592632,0.34814897,0.016290888,-0.092709266,-0.08771809,-0.09329412,-0.14544094,-0.17309071,0.18718846,0.4379268,0.23784101,0.1189042,0.013904668,-0.03549692,-0.14390637,0.035361987,-0.07904982,0.1751908,-0.33348835,0.016218131,0.19203578,-0.1294066,-0.11428395,-0.49375832,-0.19085222,-0.019377088,-0.24495125,0.20984574,-0.124946825,0.01841662,0.14979222,-0.04866578,0.07603621,0.14266321,-0.06031212,0.1468991,0.2605651,-0.20956829,-0.036369372,-0.30062738,-0.07153533,-0.05570611,0.18279283,0.5138566,-0.024500228,0.16470268,0.061709367,0.1985965,-0.45312604,0.3749973,-0.14153607,-0.05922849,0.07538166,0.15861288,-0.012372685,-0.49930725,0.24659035,-0.04835485,0.25606436,0.41756785,-0.022764722,-0.23511837,-0.071044475,-0.020959277,0.21388403,-0.046194322,-0.16206549,-0.23084983,-0.21993044,-0.30501655,0.19410113,-0.012948459,0.16523871,0.6242738,0.17146902,0.038112026,-0.25455695,0.092865676,-0.6321994,0.2719326,0.16254112,-0.15528667,0.529014,-0.6425086,-0.030985469,-0.030606227,0.34658676,0.16523558
MlleBaptistine::0.22274801,-0.089874186,-8.1784965e-05,0.23025544,0.0007179314,0.25728014,-0.033109676,0.1540513,-0.298881,0.0070881657,-0.20812063,-0.20095658,0.054923862,0.021196792,-0.08903033,-0.15044929,-0.17400698,-0.23194279,-0.26552987,-0.031742446,0.05688697,-0.014681333,0.29262295,0.27919763,0.18590046,0.28148848,-0.059362758,0.31866008,0.035371665,-0.060654216,-0.0052729524,0.012062275,-0.16215108,-0.067520194,0.09866115,-0.0019029916,0.3652031,-0.015608516,-0.018277077,0.0021897838,0.20879297,-0.03991473,0.20925364,-0.087240025,0.13918237,0.11412082,0.06862647,-0.047724064,0.23614682,-0.012462891,0.071861275,-0.26625568,-0.016310163,-0.03853838,-0.031063957,0.063262485,0.18339376,-0.06604591,-0.03543141,0.3162421,0.26494765,0.027632752,0.19867451,0.11660891,0.066602916,-0.019370593,0.19663592,-0.3278145,-0.19196095,-0.0821929,-0.11433329,-0.27190322,-0.29181233,-0.4098136,0.13109955,-0.044722196,0.10589296,-0.09445981,-0.22834498,0.16028571,0.23246786,-0.17065942,-0.31618088,-0.3619149,-0.13289458,0.0027606874,-0.2802941,-0.35122278,-0.2203523,0.021063603,0.10588312,0.2233813,-0.119984664,0.07976303,0.0045447974,0.06393815,-0.04888528,-0.051366374,-0.09446267,-0.10401242,0.14464688,-0.17188028,-0.016766218,-0.19726704,-0.031131359,-0.09001189,0.03368885,0.09467572,-0.023991369,-0.077231504,-0.20428672,0.22096206,0.061276793,0.3852001,0.03584358,-0.07057669,-0.19254145,-0.19046435,0.020831557,-0.05573098,0.2254111,0.2656794,0.4163195,0.010810587,-0.1098995,0.06560263,-0.0065736882,0.13954508,-0.17012201,-0.0060848924,-0.25078723,-0.06738906,0.18057398,0.10331161,-0.0705336,-0.35476997,-0.13518709,-0.03415867,-0.072606236,0.17533799,-0.13928603,-0.018188978,0.16306767,0.017589614,0.054156587,0.07434036,-0.21918249,0.11814067,0.21865277,0.058435638,0.09575131,-0.24995114,-0.007318086,0.007806464,0.23785473,0.22178653,0.13713168,0.10186456,-0.012352327,0.022608353,-0.09115417,0.2833831,-0.0037192036,0.004650545,0.15276386,0.12233001,0.04848149,-0.16182412,0.013599024,-0.10332536,0.28863966,0.17265394,-0.015273012,-0.15615682,-0.024374234,-0.051947225,0.12572543,0.07634969,-0.19880734,-0.031083284,-0.014317072,-0.35248274,-0.015269049,0.0075895744,0.09441022,0.267523,-0.039475203,-0.02107156,-0.17158845,-0.08234598,-0.27534187,0.19215377,0.15045545,-0.21406887,0.19837025,-0.34785426,-0.003201346,-0.22522415,0.09239614,-0.03997452
MmeMagloire::0.15258205,-0.035983533,0.061808277,0.21828724,-0.0013187017,0.16553186,-0.004873786,0.047449782,-0.21844591,-0.038659796,-0.23233376,-0.13941742,0.039023682,0.101456076,-0.09876698,-0.13206327,-0.091178,-0.1962822,-0.25151962,-0.034069367,0.011811777,0.08737475,0.20684363,0.20785286,0.18432419,0.25237188,-0.16227138,0.31454098,0.07174176,-0.005170755,-0.061605718,-0.004853734,-0.14592183,-0.03581273,0.05742907,0.05686264,0.27769545,0.034963228,-0.044938337,-0.004925536,0.122803204,-0.06055666,0.31522113,-0.1596114,0.0077544823,0.11237514,0.0532563,-0.087599516,0.25698987,-0.027507886,0.052637774,-0.2387885,-0.003112161,-0.061563052,-0.0027075314,0.10685151,0.12404529,-0.055275243,-0.026120268,0.24687602,0.29593018,0.074287415,0.21979222,0.16205916,0.060359642,0.019118756,0.23657332,-0.24128225,-0.2864502,-0.114637874,-0.16062002,-0.31957853,-0.27634287,-0.35691813,0.19628847,-0.029434685,0.017989334,0.041658297,-0.19315594,0.13435729,0.24312699,-0.19696082,-0.3055974,-0.31862435,-0.04580211,0.011760786,-0.32419172,-0.27487653,-0.21652314,-0.020632796,-0.00095984084,0.10536174,-0.111770436,0.0590898,0.032256436,0.123919316,-0.086747654,-0.043419734,-0.12873682,-0.15289102,0.06896474,-0.20175442,0.013432581,-0.13149305,0.007243216,-0.02699523,0.026583146,0.07516786,-0.058847327,0.018059721,-0.26209033,0.25969145,0.063542455,0.35346684,-0.04908984,-0.04173915,-0.17496268,-0.19079912,-0.054818705,-0.12760718,0.20113567,0.23057242,0.38936067,-0.032802437,-0.113043554,0.09289786,-0.08050022,0.15079463,-0.22108707,0.039130013,-0.27273816,-0.061471514,0.08062925,0.08586322,-0.065588094,-0.38983968,-0.107045114,-0.11924005,-0.007512605,0.15072666,-0.1372289,-0.043229766,0.15793797,-0.03810009,0.09116015,0.047258493,-0.21946637,0.02861414,0.24361016,-0.029694118,-0.021688562,-0.26739156,0.030137178,-0.013138641,0.3045545,0.22495292,0.18632442,0.1417833,-0.022353701,-0.0048873774,-0.07534067,0.20826522,-0.0014577991,0.07540783,0.15658517,0.18666936,-0.001823878,-0.1912413,-0.034595124,-0.11274496,0.21570043,0.16665211,0.038659688,-0.09803062,-0.03239601,-0.07841792,0.076195665,0.07823438,-0.23030606,-0.041647933,0.050130975,-0.34560695,0.02227644,0.12567964,0.18193588,0.28096464,-0.0060482747,-0.109903485,-0.23123644,-0.12271681,-0.20583509,0.171408,0.20028435,-0.25976634,0.21400687,-0.26411223,0.019239094,-0.25152522,0.0012846724,0.056630336
CountessDeLo::0.34636718,-0.054203574,0.20836914,0.36656865,0.0909069,0.12737139,-0.17637584,0.13966489,-0.36207733,0.23923008,-0.27335778,-0.089742795,0.10866824,0.30148956,-0.3185709,-0.19266644,-0.1884117,-0.7140713,-0.5182845,-0.02887265,-0.034882296,-0.1798604,0.18735738,0.53118265,-0.06433178,0.37024763,-0.06470273,0.578226,0.008599636,-0.1097255,-0.15588836,-0.16440903,-0.23007736,-0.15542531,-0.1326839,0.28377897,0.66534144,-0.24824615,-0.2652378,0.25414196,0.26862192,-0.1085299,0.2703533,-0.21734065,0.12424194,-0.0016235859,-0.1283127,-0.20461725,0.29610255,-0.10931712,0.13277456,-0.71325785,0.35627487,-0.21276194,0.063464865,-0.25037897,-0.15678419,-0.1219371,-0.19773111,-0.037981533,0.2905641,0.030036872,0.21930374,0.13002603,0.073348664,0.120868795,0.11360898,-0.44524127,-0.1590628,-0.061848193,-0.28853735,-0.36207008,-0.40791255,-0.4859139,0.41112402,-0.19572176,-0.14611842,0.10624409,-0.26585355,0.2670558,0.23245998,0.16824912,-0.19978893,-0.3014361,-0.27592275,-0.1833024,-0.5183427,-0.24896564,-0.30927494,-0.30860433,0.09281833,0.2025758,-0.372255,0.18511467,0.19232443,0.39960426,-0.18550028,-0.09149235,-0.31578612,-0.035730135,0.009451302,0.14731483,-0.3777722,-0.16753449,-0.4748114,0.07568743,-0.0014908173,0.047492795,-0.12990202,-0.078425966,0.12101009,0.42702144,-0.20001751,0.48117563,-0.0974084,-0.097163156,-0.2064376,-0.017308889,-0.0059676226,-0.2342151,0.3507939,0.31354985,0.22578561,0.0114313075,0.06504017,-0.114623554,-0.26432347,-0.34379542,-0.21002528,0.28624827,-0.36793113,0.041849382,0.1952776,0.19014148,-0.09436635,-0.4176654,-0.23161542,-0.037422575,-0.3174558,0.35273844,-0.055408966,0.16574323,-0.10549111,-0.18327524,-0.107257344,0.25860074,-0.03965771,0.3984486,0.08018413,-0.21617897,-0.12253484,-0.52763045,-0.012050076,0.08612518,0.21586753,0.53786474,0.062361285,0.036838207,-0.05532766,0.15037714,-0.3097628,0.57354647,-0.18205562,-0.058865074,0.15739629,0.26221648,-0.1032041,-0.39187568,0.32021123,-0.03348984,0.24307188,0.50736755,-0.042711914,-0.33554277,-0.06734416,-0.11115545,0.18684267,0.10076423,0.0045559006,-0.18260543,-0.23150235,-0.20351604,-0.017458016,0.024204109,0.21700843,0.572944,-0.052560218,0.20404594,-0.0098260045,0.16603105,-0.6374098,0.12240536,0.2382058,0.13780814,0.44432163,-0.6323865,-0.18903448,-0.09037911,0.42750293,0.18971963
Geborand::0.31434408,-0.029015275,0.06938379,0.29033723,0.00920317,0.33634934,-0.054095056,-0.05423057,-0.45627743,0.16202722,-0.071021765,0.03428423,-0.09150473,0.13340704,-0.30145007,-0.17261048,-0.026029512,-0.595782,-0.2005744,-0.0987376,-0.1812503,-0.2692383,0.39554983,0.5420182,0.25815502,0.26802054,-0.20206083,0.6015804,0.006299849,-0.04254276,0.004624083,0.0049066227,0.09269165,-0.118896954,-0.024432248,0.3051857,0.5623318,-0.41428614,-0.27275565,0.044161897,0.23442379,-0.15977457,0.2937593,-0.27238604,-0.008090367,0.11592344,-0.32588363,-0.39462098,0.24305734,-0.007748043,-0.1302215,-0.55545956,0.45880413,-0.39381486,-0.08491863,-0.16668515,-0.021641804,-0.019138426,-0.3558989,0.2559237,0.21058635,0.09218571,0.22625285,0.34824786,0.22409096,0.09180954,-0.021547263,-0.35420212,-0.32991394,-0.289229,-0.42625073,-0.04926305,-0.3202434,-0.58642554,0.4118964,-0.0066975174,-0.22593832,0.19780679,-0.24109916,0.057296567,-0.043191817,0.059376623,-0.44017005,-0.47072932,-0.30615923,-0.25260866,-0.46727398,-0.51041,-0.18108323,-0.36140707,0.038445137,-0.02790507,-0.30696514,0.015503695,0.11397143,0.47851405,-0.03710293,-0.13822669,-0.39756674,-0.119217545,0.021756167,-0.15840335,-0.16624191,-0.086758986,-0.27869728,0.046028946,-0.012185658,0.112764694,-0.081485614,0.06500212,-0.19833331,0.2245762,-0.12999381,0.43185514,0.15111075,-0.049233355,-0.30186802,-0.21086074,-0.009519808,-0.17000273,0.4426562,0.18104127,0.0374716,0.07376489,0.060297746,0.018925253,-0.058026813,-0.0021877508,-0.19249615,0.12533359,-0.15280546,0.08256518,0.0083351815,0.18786658,-0.24903643,-0.37937358,-0.18018016,-0.025447145,-0.20750171,0.0995005,-0.37243503,-0.030003447,0.114831485,-0.070887044,0.11149388,0.041421305,-0.058640823,0.32216242,0.036546938,-0.07051006,-0.10007383,-0.31338754,0.124745436,-0.12950386,0.20152776,0.4762355,-0.17299992,0.18502516,0.066432625,0.24448706,-0.47644776,0.2685235,-0.21741453,-0.13427217,0.24211997,0.22650467,0.01356134,-0.50066435,0.3624105,-0.1156439,0.01075859,0.28472486,-0.10378814,-0.15641916,-0.004195733,-0.09477945,0.3102211,0.112199716,-0.18240277,-0.09671853,-0.21455756,-0.31488013,0.084951974,0.13624743,0.08924204,0.6517817,-0.006896248,-0.18614972,-0.31503078,0.09323666,-0.4893242,0.26593885,0.054829724,0.060249977,0.5842533,-0.5363259,-0.24168476,-0.0050226394,0.30662626,-0.02712837
Champtercier::0.29189774,-0.10418636,0.1725484,-0.08993885,0.019800318,-0.014076926,0.0014117288,0.0067812516,-0.14785285,0.20960888,-0.31949085,-0.103778884,0.068654284,0.47531638,-0.27668753,-0.11297543,-0.027886076,-0.62738186,-0.17517032,-0.004530104,-0.04422546,-0.20807204,0.11406372,0.2828715,0.14754875,0.18741502,-0.28461105,0.39785525,-0.005374657,0.048170034,0.020953873,-0.13308895,-0.024411937,-0.23171312,-0.13844953,0.31461823,0.7951395,-0.4949732,-0.3365352,0.16366322,0.15822025,0.049861345,0.41266385,-0.31831902,-0.06610542,-0.1635528,-0.29066074,-0.30689144,0.28268823,-0.099187024,-0.03267467,-0.5393546,0.5315658,-0.34246734,-0.013633947,-0.23126638,-0.048468348,0.114002176,-0.29752186,0.23423989,0.21790768,0.06452739,0.19357237,0.17876223,0.104843505,0.122407794,0.0343553,-0.4333342,-0.40679234,-0.13927768,-0.4681908,-0.36300096,-0.15049165,-0.53307503,0.5174667,-0.24675357,-0.055056654,0.14474744,-0.3364124,0.11757713,0.08497433,0.034888316,-0.24493146,-0.3470252,-0.16257147,-0.13920973,-0.2827188,-0.23420402,-0.27990636,-0.3220768,-0.087190986,0.10922353,-0.50073427,-0.1392154,0.19069465,0.34026083,-0.048127957,-0.13826446,-0.18566778,-0.07081487,0.059248008,0.09659548,-0.25091985,-0.014393194,-0.20364194,0.12824011,0.043760296,-0.06918317,-0.04625684,-0.06929669,-0.1873823,0.32893294,-0.12225549,0.44895586,0.04320335,-0.12578543,-0.19462274,-0.07533882,-0.2604881,-0.34095713,0.27910307,0.295994,0.22050165,0.014873429,-0.058558818,-0.2792377,-0.06865445,0.057624687,-0.037622523,0.21409395,-0.3028928,0.11281601,0.26170933,-0.06350523,-0.09439769,-0.41941383,-0.35048002,-0.07969353,-0.09247771,0.1663436,-0.20961528,0.07741952,0.09869148,-0.14391889,-0.022170572,0.08921482,-0.036392134,0.07406765,0.14201523,-0.12927938,-0.2886786,-0.323798,-0.024174476,-0.037479557,0.4076453,0.5408761,-0.07256934,0.02182296,-0.009701439,0.10908526,-0.40229872,0.44826028,-0.21306801,-0.09083756,0.17571796,0.2939256,-0.130523,-0.48344663,0.28049755,-0.18194516,0.04553569,0.32301506,-0.022182958,-0.21630806,-0.2031688,-0.114358746,0.31746626,0.10877389,-0.14392176,-0.17581403,-0.10556937,-0.376421,0.13335541,0.17932503,0.13728657,0.7367902,0.07136384,0.02736484,-0.259805,0.18644933,-0.5692916,0.23313275,0.098295644,-0.15728791,0.5592494,-0.5402302,-0.11019476,0.055354998,0.30138424,0.088085465
Cravatte::0.06870676,0.19328809,-0.13606781,0.46848032,0.013540375,0.036782064,-0.015073038,0.16648917,-0.31021255,0.19480972,-0.012802783,-0.10454606,0.016413456,0.33842248,-0.2466314,-0.2863242,-0.027134342,-0.5892996,-0.11036565,-0.042708978,-0.051072016,-0.09194051,0.41195354,0.39090958,0.316235,0.063431874,-0.336989,0.72548205,0.19018084,-0.14860334,-0.087335624,0.04302802,-0.099922605,-0.2161853,0.047421608,0.06280927,0.54509616,-0.37605193,-0.15523808,0.0940633,0.024864942,0.11654866,0.305694,-0.018187677,0.073435135,0.1459086,0.035709023,-0.07684707,0.2690546,-0.12206928,-0.0661927,-0.522306,0.30726403,-0.07140435,-0.11729622,-0.30888838,0.2530829,0.08245526,-0.020031814,0.24697384,0.24533774,-0.27769813,0.251276,0.06484465,-0.15245798,-0.15711355,0.08960179,-0.6078189,-0.16597153,-0.29374334,-0.24350779,-0.0153997885,-0.40147465,-0.4100499,0.266901,-0.19086349,-0.13618429,0.08630743,-0.14393184,0.317452,-0.017449902,0.21421209,-0.28918466,-0.49675602,-0.1406216,-0.17349191,-0.32115215,-0.20409992,-0.3745003,-0.20706375,0.2529812,0.2887597,-0.402752,-0.11346984,0.13386798,0.2644741,-0.25303409,-0.13267024,-0.04978279,-0.2256037,0.1037773,0.21915016,-0.29836956,-0.1844757,-0.25294378,0.04954694,0.25737426,-0.077383846,-0.19403253,-0.21183534,-0.43529236,0.24932404,-0.12732635,0.26625746,0.13530427,-0.28423855,-0.034344297,-0.17347856,-0.21281508,-0.26384416,0.25901586,0.27223536,0.23748724,-0.06922475,-0.046900433,-0.29423133,-0.41431084,-0.17764544,-0.30738145,0.1484253,-0.46044174,0.100654244,0.25032058,-0.043877233,-0.05311013,-0.24002239,-0.30617386,0.0788724,-0.3581074,0.31973574,-0.16808505,0.29012692,0.17040987,-0.07578714,0.061088458,0.10988484,-0.18982565,0.2532328,-0.0041569034,0.0188216,-0.11402107,-0.2512668,0.045374624,-0.16911325,0.42169508,0.54208153,-0.049971927,-0.02642228,-0.012108488,0.49391988,-0.27163154,0.20540705,-0.021837296,0.1076502,0.19765969,0.2251493,0.095979564,-0.6959058,0.17791566,-0.09987494,0.35853902,0.5066706,0.02366948,-0.29367343,-0.11692634,-0.26444244,0.13463274,-0.22492255,0.16946912,-0.16899969,-0.18773504,-0.26371297,-0.008137589,0.07382823,0.15935695,0.5569195,-0.078847416,0.13631505,0.028573131,0.28073794,-0.58468086,0.13321657,0.26896814,-0.1281112,0.33757502,-0.5404145,-0.069336906,-0.012661609,0.18233654,0.01938834
Count::0.34579623,0.079358675,0.16596591,0.20303951,0.049346346,0.22359328,-0.12676454,0.18510991,-0.26012087,0.34209737,-0.15531285,0.060362276,-0.047173254,0.3988726,-0.41352713,-0.34082514,-0.34442884,-0.8080991,-0.10724447,0.044630375,-0.057367884,-0.40383333,0.121770635,0.6262544,0.107033804,0.12904064,-0.2554298,0.83462423,0.060750924,-0.13881195,-0.13696556,0.05995566,-0.20703954,-0.19692785,0.09280731,0.121293455,0.764918,-0.37045026,-0.39160553,0.0053116493,0.14897306,-0.0846377,0.36571935,-0.29440686,-0.15092339,0.036249526,-0.1681879,-0.2585398,0.46340522,-0.26761195,0.051530913,-0.56325495,0.4096653,-0.5024482,0.06362447,-0.33735555,0.22584961,0.082926616,-0.17751512,0.16737169,0.064024836,-0.10201991,0.17808995,0.064047806,0.0029079055,0.051499136,0.070854954,-0.45718148,-0.5134165,-0.32257548,-0.1707026,-0.30549172,-0.30946186,-0.54092664,0.47255993,-0.20565535,-0.066523366,0.0687071,-0.30536118,0.2759804,0.05834439,0.17365293,-0.42031243,-0.49137157,-0.13823283,-0.35645443,-0.37148815,-0.32317817,-0.3924838,-0.10928484,-0.026472064,0.34272408,-0.35417107,0.009832059,0.1437905,0.37332407,-0.08214754,0.07511888,-0.13694413,0.013490279,0.01941954,0.09372923,-0.40471306,-0.13478178,-0.2686401,0.0437286,0.2193326,-0.170207,0.053469148,-0.19531766,-0.2581016,0.19395205,-0.1784457,0.5221817,0.2339282,-0.2228213,-0.12044693,-0.19783647,-0.191952,-0.06742276,0.27396613,0.26287398,0.0020477162,0.011085813,-0.08014528,-0.1700709,-0.06024923,-0.0042896396,-0.2996018,0.35900012,-0.31355157,0.20068927,0.27337155,0.0712682,-0.068020515,-0.2957446,-0.16537929,-0.26770124,-0.3427057,0.15187715,-0.18142511,0.23829816,0.131248,-0.23417468,-0.10065143,0.18406595,0.039646495,0.19637331,0.27169415,-0.173751,-0.19729796,-0.18668662,0.07201812,-0.03517969,0.18115212,0.46967617,0.045410883,0.18536232,0.13725248,0.06738836,-0.41215956,0.27702296,0.024081705,-0.08075368,0.03491339,0.18855213,-0.021027379,-0.4659918,0.4364743,-0.17974705,-0.04802075,0.45129147,-0.041765932,-0.14946623,-0.2743478,-0.11365747,0.17069082,0.025880422,-0.05454236,-0.12397224,-0.27316266,-0.23599635,0.007958853,-0.0108087715,0.26759392,0.50897324,-0.022823356,0.04404784,-0.07113768,0.10918506,-0.73324436,0.20737356,-0.056060635,-0.07714603,0.600577,-0.46869662,-0.05846962,-0.039554432,0.4692782,0.19072534
OldMan::0.32915232,0.05921729,0.0038852596,0.23878555,-0.060407594,0.28714883,-0.053400554,0.18326983,-0.27475148,0.06787602,-0.099271946,-0.32873893,-0.044877995,0.5214891,-0.49866816,-0.23927736,-0.12194369,-0.5785272,-0.062205248,0.01717018,0.10462711,-0.25300357,0.2064367,0.23120375,0.12847324,0.2432839,-0.46573597,0.4483254,-0.01614595,0.061333146,-0.037187703,0.093440466,-0.04769407,-0.25552326,-0.15984261,0.14015746,0.6780909,-0.419988,-0.21086966,-0.044301685,0.08784744,-0.06819919,0.13513462,-0.16776331,0.009615244,0.023220288,-0.09641979,-0.36192933,0.08671967,-0.17451428,-0.13033053,-0.464899,0.16561694,-0.037743665,-0.2006524,-0.34666568,0.12215815,0.14112107,-0.48800853,0.14430764,0.15182406,-0.09594082,0.07388749,0.355136,-0.009951537,0.04565014,0.12383131,-0.6769145,-0.27693254,-0.2751612,-0.38163793,-0.36147583,-0.36971033,-0.31323728,0.35015,-0.15087847,-0.2588193,-0.060517907,-0.3265026,0.23285957,0.1932307,0.089501075,-0.24008253,-0.47551194,-0.41614306,-0.074583404,-0.18222755,-0.34900898,-0.27941245,-0.39256498,0.11595388,0.11325895,-0.31343696,-0.21649966,0.13488814,0.2859874,-0.049827144,0.004912045,-0.09947552,-0.15500882,0.31800532,0.119858906,-0.11417044,-0.21906535,-0.24633604,-0.13112433,0.20619836,-0.035687894,0.018308397,-0.25199613,-0.35636717,0.19790603,-0.027515378,0.40750447,-0.089327514,-0.15616338,-0.10668334,0.009715212,-0.07068303,-0.24729073,-0.16608241,0.100590624,0.24604486,-0.053488348,0.02183172,-0.20946275,-0.31180382,0.0156173175,-0.1591243,0.09037273,-0.32939315,0.27898493,0.33850354,-0.08013505,0.06531156,-0.33682218,-0.21440871,0.0018775915,-0.48056367,0.2625155,-0.13145362,0.24628307,0.033084385,-0.13591708,0.08817234,0.16749415,0.053944103,0.31631267,0.03367316,-0.047501743,-0.1123392,-0.062092453,-0.08009381,0.057463594,0.29952535,0.4528917,-0.091043435,0.012545321,-0.11824318,0.30963883,-0.34775272,0.36860293,-0.28556055,0.064981654,0.048864957,0.21373992,-0.041056015,-0.63176966,0.18085054,-0.09162032,0.2980745,0.32092872,-0.11294285,-0.15499981,-0.32219994,-0.09890252,0.26744688,-0.0073372005,-0.041887004,-0.2474979,-0.12457257,-0.37293673,0.14138247,0.16371551,0.11600962,0.46200174,0.21752557,0.09849606,0.02576401,0.10553168,-0.5780653,0.14034112,0.19175571,-0.26927698,0.46075293,-0.541522,-0.046437673,-0.102778375,0.15186828,-0.015452991
Valjean::-0.12783575,-0.0956505,0.021078454,0.01644877,0.06464336,0.00027543626,-0.03301132,-0.023231592,-0.04684789,0.011968573,-0.008232776,-0.10353882,0.089505464,-0.032537192,0.079107456,0.036030155,0.011179851,-0.09817343,-0.108766,0.039819505,0.06137436,0.12069372,0.05351593,-0.0027044849,0.1541796,0.11625162,-0.04779864,0.11729131,0.11002934,0.006393282,-0.119277224,-0.09322784,-0.067863956,-0.00987841,0.021465456,-0.011124091,0.15075299,0.10314964,-0.0010034533,0.11724288,0.0028496007,0.029773125,0.18938805,-0.19403498,0.09408078,-0.053944748,-0.101220265,0.124577604,0.28310412,0.10936216,0.08968859,-0.051919073,0.14230974,0.06788508,-0.019998398,-0.05510706,0.043450207,-0.14043301,-0.050736323,0.013287489,0.16672693,0.20196524,-0.018135583,0.2446099,0.03492839,-0.041293677,0.12327554,-0.07239329,0.00799573,-0.046907153,-0.0024942176,-0.13295504,-0.031931587,-0.17607738,0.03668649,-0.05294005,0.08279732,0.028656557,0.04979693,0.014230285,0.03232812,-0.12666442,-0.012837878,-0.01264965,-0.068969324,0.06548894,-0.1345658,-0.10073343,-0.032965723,-0.06042048,0.048699178,0.07167674,-0.06597391,0.00865982,0.08674106,0.019377721,-0.005590763,-0.15458263,-0.090756655,-0.0771014,0.09842437,-0.08179423,0.019583235,-0.06867355,-0.01320783,0.07465687,-0.044938747,0.13088337,-0.06509871,0.071014956,-0.15653798,0.11781255,0.036097065,0.06422419,-0.07339906,-0.037842937,-0.19834723,-0.07922708,-0.04425012,-0.32105312,0.15738034,0.18821862,0.14715643,-0.02456366,0.08812271,-0.025616711,-0.26369715,-0.16144046,-0.20950712,-0.0066802343,-0.12588598,-0.08474995,0.042247,0.040072262,0.061786015,-0.13517958,-0.10858222,-0.0212966,-0.05973125,0.07852964,0.08392051,0.02187855,0.07388627,0.048006125,0.044846337,0.060044922,-0.08308739,0.07315246,0.13963644,-0.02591033,-0.042872805,-0.114083156,0.10043504,-0.09683337,0.29329988,0.22113761,-0.052749727,-0.0041372147,0.05442198,0.1956726,-0.028180925,0.051806998,-0.06855048,-0.071461886,0.16407429,0.17228319,-0.03899959,-0.29318136,-0.05772542,-0.22107998,0.04289293,-0.06475324,0.029132487,0.023992741,0.0075654634,-0.13115099,0.13783872,0.07357469,-0.07680175,-0.113025054,0.069304965,-0.24093673,-0.0098616695,0.2980281,0.06555083,0.020341812,-0.01919504,-0.30812502,-0.0129739875,0.11036969,0.04068163,0.08814876,0.025957193,-0.19906166,0.16493599,-0.28156373,0.06323981,-0.15407282,0.14013624,0.06407833
Labarre::-0.053624697,0.082171425,-0.07483702,0.0043009543,-0.044124134,0.1318585,0.083887376,0.08564586,-0.15061727,0.10597815,-0.017813213,-0.09876528,0.061023396,-0.11120465,-0.021419948,0.16318412,-0.08242992,-0.31006825,-0.040517595,-0.010680048,0.0071091917,0.06500849,0.03465777,-0.0021249426,0.06974649,0.113247685,0.010792865,0.221311,0.26504087,-0.06875693,-0.0649832,-0.083557755,-0.10993177,0.0011243195,-0.09865889,0.009276076,0.1785244,-0.025555186,-0.13345696,0.049370278,-0.07070327,-0.07846399,0.12818944,-0.14731698,-0.08897008,-0.010776685,0.08548907,0.051621646,0.10273558,0.14725582,0.050427105,-0.05808619,0.10601799,0.25037652,-0.13830526,-0.028518895,0.010042183,-0.095338255,-0.078306355,0.06320038,0.20007776,0.0666025,-0.20670336,0.3272906,-0.050968766,-0.006221487,0.20439133,-0.091846034,-0.13654888,-0.13350743,0.05156015,-0.08485679,-0.11875967,-0.29101107,0.017100552,0.017801337,-0.09869907,0.030681293,0.093625724,0.0750286,-0.038852192,0.022203123,0.04905027,-0.053836387,-0.104719885,0.20393857,-0.26276797,-0.15944229,-0.07287607,-0.11769292,0.168744,0.07658053,-0.34663936,-0.16408013,0.032874074,0.05021119,-0.07831275,-0.2623275,-0.31629294,-0.13701464,-0.09914651,-0.17941387,0.0072127865,-0.18638645,-0.01317001,0.07806629,-0.008187299,0.20299286,-0.0865695,-0.087539524,-0.04171121,0.13945429,0.016962346,0.015155032,-0.17080499,-0.16486949,-0.17671677,-0.041482262,-0.1230659,-0.34959602,0.08696811,0.0469624,0.101738706,0.059991527,0.049859427,0.12834963,-0.35906973,-0.14471947,-0.12266194,-0.009993532,-0.25221395,-0.25117093,0.050212156,0.02557361,0.072849825,-0.09733307,-0.082474686,0.025572583,-0.02117898,0.28212848,0.020077096,-0.04994718,0.022178194,0.16509269,0.131019,0.07450745,-0.20274308,0.18740335,0.11120989,-0.111887045,-0.040794797,-0.1410626,-0.029364852,-0.16286372,0.3043715,0.31046146,0.049365867,-0.058729265,0.08173676,0.2502253,-0.06793658,0.09656811,0.048029717,0.024427531,0.15789534,0.20815048,-0.08834748,-0.27958196,-0.1288096,-0.2515577,0.067983694,0.08542135,-0.019913597,-0.087842956,0.043742515,-0.13820428,0.06522031,-0.10042978,0.07700042,-0.12678078,-0.04659575,-0.10864809,0.00018973195,0.11982384,-0.0077392715,-0.038652714,-0.075665526,-0.14887014,0.121674456,0.10775724,0.15602805,0.035244506,0.1638377,-0.08342059,0.210036,-0.20197098,0.041848417,-0.08633858,-0.05388567,-0.0067117945
Marguerite::-0.06260698,0.09065908,0.027211681,-0.006513806,-0.11065969,-0.031794187,0.07786023,0.22820218,-0.23290771,0.17825662,-0.1993434,-0.0009581028,0.057204664,-0.17726773,-0.010690514,0.02493723,0.13925655,-0.12862141,-0.06791542,-0.023992056,-0.00083835196,0.19508211,0.118560225,0.15996303,-0.04249384,0.2893172,0.16346747,-0.0015523334,0.112185605,-0.028185878,0.12183919,-0.02890043,-0.062296387,-0.020859294,0.12671363,-0.07870199,0.16856664,-0.15849534,-0.0349225,0.15740933,-0.07133522,-0.16827956,0.20603858,-0.10900936,-0.019061198,0.07960301,-0.0140116885,-0.053061813,-0.05696151,0.20909461,0.116382934,0.005858202,0.1374078,0.078389995,-0.13798575,-0.017644864,-0.015923103,-0.073482595,-0.02051637,0.19509938,0.09976911,0.11327103,-0.026957009,0.4187831,0.1433773,-0.115691245,0.12132779,-0.17130251,-0.048581894,0.065842085,-0.18741122,0.011480287,0.017962689,-0.22093426,-0.2091779,0.11453427,-0.094114564,-0.060437877,0.17753324,-0.043392185,-0.046687018,-0.07232572,0.058630407,0.14577553,-0.28828967,0.2087155,-0.3229024,-0.2563711,-0.03876035,-0.083385564,0.06325701,-0.044300415,-0.090690896,-0.028256668,0.036005583,0.1596267,0.038289525,-0.06775632,-0.2668036,-0.23803174,0.18521781,-0.19627425,0.2570735,-0.18259688,0.07111188,-0.063343875,-0.32298607,0.055868674,-0.102379836,0.28318712,-0.17275909,0.23248485,0.049124397,-0.05198476,0.0049120104,-0.08485444,-0.25208363,0.026512055,-0.03886895,-0.27996162,0.07000352,0.22664084,-0.005814821,0.18840848,0.15198971,-0.048225764,-0.39953208,-0.1822867,-0.25856534,0.028965432,-0.13100857,-0.10700869,0.048422664,0.21961865,-0.027022857,-0.23404449,0.099298224,0.03409021,0.056137957,0.21507786,-0.07161426,-0.15371786,0.22146842,0.070465684,0.07435568,0.1594529,-0.27506074,0.13747956,0.029798241,-0.0019967817,-0.05379234,-0.2176867,-0.05585329,-0.012253876,0.17243521,0.26464358,-0.24969704,0.19115105,0.021662984,0.11365983,-0.21204342,0.10718272,-0.018578693,-0.18007691,0.14476314,0.1314718,-0.0019356661,0.01562544,-0.104169235,-0.12346243,0.19260271,-0.08409511,0.16897643,0.073018014,0.09600763,0.03118311,0.21823286,-0.018304462,0.082812995,-0.13344394,-0.01791712,-0.06403118,-0.107394874,0.31158608,-0.059039228,0.08727236,-0.11529676,-0.3163471,0.01958441,-0.01238263,0.3568018,0.10412091,0.07412135,0.20043008,0.18856816,-0.18858354,-0.10682895,-0.18620242,-0.23644547,0.07157519
MmeDeR::0.10074676,-0.20047209,0.11376234,-0.2797292,-0.10254539,0.056120433,-0.03384916,0.085918024,-0.21856113,0.06813195,-0.19957699,-0.18425417,0.1377261,0.08876892,-0.095753685,0.14296812,-0.04250807,-0.17765298,-0.08127298,-0.1319124,0.15369947,0.11878362,0.035715576,0.103331596,0.16789266,0.11946881,-0.06200551,0.07247251,0.116713166,0.14208001,0.13435367,-0.07069666,-0.10889822,-0.1354354,-0.07080267,-0.11383207,0.45386028,-0.09653703,-0.27222878,0.23290896,-0.16205482,-0.07667323,0.33668733,-0.18858843,-0.0773869,-0.053251576,-0.11025513,-0.034800537,0.03492759,0.26832238,0.09725999,-0.16361761,0.29957837,0.0029496483,-0.09083915,-0.07561234,0.04699982,-0.0330905,-0.08616335,0.2064849,0.40451232,0.24867861,-0.09892685,0.27201888,0.05236965,-0.08077484,0.11912761,-0.017645823,-0.11115323,-0.16290946,-0.07339581,-0.17744355,-0.07844703,-0.3839563,0.021066535,-0.047596425,0.16788052,0.110530354,-0.007099417,0.11095198,0.12181518,-0.090765215,0.23762272,0.20887636,0.056555286,0.08938925,-0.14259996,-0.13844134,0.04832785,-0.06964635,0.2062637,-0.00038682576,-0.13388836,0.01723634,-0.004480771,-0.06331876,-0.11159877,-0.26502958,-0.35730395,0.025634546,0.07298563,-0.06905004,0.00857985,-0.13776504,0.048804138,-0.06792585,-0.16305414,0.14095497,0.00048730974,0.14261639,-0.18461026,0.1041382,0.135823,0.027968392,-0.21205696,-0.057924535,-0.055760004,-0.036783732,-0.18455164,-0.26029566,0.117452264,0.24628629,-0.003813075,0.056790832,0.14195266,-0.03472179,-0.22561836,0.052702684,0.0151616065,0.09632915,-0.124745056,-0.14815325,0.041714717,-0.1799767,0.1538998,-0.2004529,-0.01643285,0.1285326,-0.01699461,0.14881985,-0.016232708,-0.0071683647,0.08533993,0.21835823,0.13356362,0.11397795,-0.09902512,0.12847409,0.1298413,-0.1235158,-0.062952995,0.008411531,0.0604887,0.004392427,0.3502471,0.3080746,0.17013016,-0.032108225,-0.014450934,0.1322158,0.005542529,0.1927772,-0.18405496,-0.0054073385,0.1585878,0.16916518,-0.10032008,-0.05320285,-0.06548886,-0.2478064,0.10960654,0.045731295,-0.050989542,-0.069685064,0.087074265,-0.22231813,0.11979001,-0.10184555,-0.11803867,-0.14165986,-0.12675507,-0.17031784,0.03539919,0.26190925,0.029638875,0.1671319,-0.10719056,-0.31850368,-0.053846113,0.104528636,0.09975002,0.09493002,0.21968575,-0.07332313,0.00028133052,-0.27928218,0.06513861,-0.17455892,0.07896415,-0.114901766
Isabeau::-0.10150381,-0.05649639,-0.038452797,0.07792713,-0.010643926,0.20355766,0.07631748,-0.11803259,-0.17767148,0.013112829,-0.15406577,-0.0044552544,0.14727364,-0.1270408,0.073232904,0.15145361,-0.048178665,-0.15040672,-0.13677362,0.10244712,0.043054286,0.13614783,0.14727317,0.06435435,0.07657616,0.15268457,-0.06336842,0.18483494,0.32490543,-0.05179834,-0.1905374,-0.13734983,-0.035139207,-0.015078674,0.07655982,0.028964529,0.18975234,-0.043795936,-0.12821567,0.24610801,0.07510796,-0.027405731,0.28497916,-0.17564486,-0.019742498,0.06872845,-0.09305388,-0.109461434,0.28939515,0.18878828,0.020424275,-0.095066026,0.17401326,-0.0010948469,-0.008392685,0.14789914,0.20675473,-0.08010755,-0.13011727,0.24802008,0.32201266,0.3197346,-0.023379745,0.42325056,0.08373847,-0.05302674,0.33028632,-0.05915306,-0.25367996,-0.114609174,-0.10260407,-0.34629968,0.015121507,-0.34087324,-0.002206545,-0.011503539,0.07280039,0.04266054,0.07326261,0.006020962,0.13532536,-0.163809,-0.0016585964,-0.033878393,-0.20424668,0.20414001,-0.40870437,-0.23881859,-0.09542829,-0.02982238,0.006731464,0.053942844,-0.01785988,0.017438846,0.016243292,0.09297701,-0.03877261,-0.31604388,-0.32418144,0.050340522,-0.07393488,-0.21738048,0.17258826,-0.12255448,-0.06694258,0.015133566,-0.11614927,0.16989534,-0.06317088,0.027783396,-0.17679326,0.13491422,0.08810828,0.049935482,-0.1119645,0.005948812,-0.19430915,-0.12178777,-0.022737341,-0.26023895,0.08861722,0.094407976,0.23728283,0.044921618,0.02244956,0.079519555,-0.24173732,-0.011719886,-0.22163467,0.057706818,-0.09283461,-0.18026124,-0.15260795,0.22264208,-0.0895185,-0.2963359,-0.11284887,-0.22395626,0.0026614894,0.046495654,-0.022548964,-0.12862629,0.10406041,0.13307938,-0.013475211,-0.060203075,-0.22035158,0.05017175,0.16869336,-0.12205693,-0.05806213,-0.066703,0.12752268,-0.20325214,0.36021277,0.13426648,0.024221929,0.17901014,0.17759527,0.048414513,-0.03925779,-0.105663255,0.17793164,0.021528937,0.24327277,0.047262155,-0.08112788,-0.11359248,-0.0052047023,-0.2257077,-0.051272813,0.00425903,0.13021135,-0.10372492,0.15169935,-0.17023326,0.2201889,0.16327225,-0.04307018,-0.13946514,-0.07223875,-0.09702097,-0.0719935,0.25109133,0.10211033,-0.19302793,-0.104559265,-0.39251956,-0.060499553,-0.05218688,0.11143633,0.06813739,0.113077424,-0.21206808,0.02073586,-0.12350905,0.124811426,-0.15863375,-0.0024866196,-0.007523101
Gervais::-0.09294208,0.026039867,0.04991034,0.039010927,-0.07296043,0.0056502707,0.015384487,0.04884623,-0.048992112,0.00025051984,-0.16561052,0.06949339,0.1270337,0.021033522,0.0038922406,0.11988254,-0.03149768,0.006960677,-0.1816933,-0.024844639,-0.07225686,0.2009263,0.13742867,0.03321347,0.34720713,0.18078388,0.044230334,0.36618105,0.30408147,-0.24028355,-0.05395313,-0.110229984,-0.27384233,0.05198655,-0.03230398,-0.0714973,0.3491218,0.1823689,-0.0059648883,0.17886896,0.04718815,0.0630854,0.33300883,-0.24572666,-0.08266971,0.022522395,0.1331146,0.015348,0.21695305,0.10773664,-0.04757649,-0.29190877,0.04025448,0.26444134,-0.042307597,-0.04557067,0.17194878,-0.0008595771,0.0710767,0.017637035,0.1749943,0.14011325,-0.07317045,0.22325718,-0.24866232,-0.18681349,0.24567868,-0.11420328,-0.13574457,-0.09624711,-0.088910356,-0.07074212,-0.09241343,-0.13469347,0.010935689,-0.11694435,0.2627203,-0.01330866,-0.04930984,0.06270754,0.11594165,-0.09321403,0.10017209,-0.06594333,0.00354825,0.22270961,-0.2271348,0.067331344,-0.18413942,-0.11027064,0.040163822,-0.009856401,-0.14059222,-0.058635164,0.049529206,0.09007597,-0.16520362,-0.29721114,-0.2136972,-0.22285804,0.033073887,-0.11195182,0.040487096,-0.14638464,0.08798895,-0.060545802,0.089284316,0.1242676,-0.07106346,-0.06382998,-0.2514811,0.11436975,-0.011575055,-0.21279646,-0.22814555,-0.105045274,-0.073400944,0.110624075,-0.13170159,-0.29649466,0.1651091,0.1924329,0.08289773,-0.11695464,0.07325738,0.038302872,-0.3821722,-0.22708878,-0.1927083,0.00073758676,-0.10841537,-0.11221178,0.08542983,-0.15124832,0.058497023,-0.14818071,-0.1494029,-0.072114184,0.0048470474,0.30446392,0.0744061,0.09889461,-0.04809516,0.2200385,0.09007385,0.057087936,-0.20845008,0.07740998,0.16363202,-0.07941943,-0.02714606,-0.14187022,0.1455478,0.15344198,0.22480306,0.04861969,0.078443624,-0.19025865,0.11325419,0.086709075,-0.06276646,-0.12343876,-0.0028993944,0.12532131,0.17804034,0.11033869,0.041109238,-0.15177402,-0.33845922,-0.013946803,0.28891045,0.09688278,0.03340526,-0.16869439,-0.047677267,-0.015805256,0.055959295,0.08106794,-0.058654986,-0.17133214,0.022645516,-0.23502411,0.015969211,0.42542154,0.25746012,-0.159418,-0.21911451,-0.23829049,-0.04036052,0.015950521,0.2565068,0.10300878,0.22413774,-0.24081196,0.06496253,-0.032225035,0.12764247,-0.21282914,-0.22143833,-0.017562583
Listolier::0.2949088,0.18900184,0.018480454,0.09092569,-0.23125342,-0.15230422,-0.07087295,0.511558,-0.17467012,0.1728364,-0.43495694,0.16140473,0.11818928,0.018658863,-0.08314632,-0.120377064,0.05399971,-0.29759404,0.117111966,-0.12906966,-0.045745503,0.24589321,-0.06754832,0.30023965,-0.09929785,0.35162264,0.027831424,0.12580417,-0.021421686,-0.036931835,0.3505079,0.018781528,-0.14368828,-0.05837746,0.13210054,-0.18913573,0.07650303,-0.2920473,-0.16172342,0.37453938,-0.004202847,-0.21422003,0.3466782,-0.058257733,0.1570757,-0.24232984,0.09214675,-0.11276046,0.0838519,-0.10576656,0.23716116,-0.099636644,-0.09560735,-0.31281227,-0.021494726,-0.14555265,-0.053340577,0.25960448,0.13574576,0.22547561,-0.07302724,-0.026145684,0.16361707,-0.0738245,-0.080384165,-0.10468666,-0.47469848,-0.15543513,-0.031456046,0.0820781,-0.44743958,0.23791283,0.32185814,-0.120723754,-0.06734937,-0.21270671,0.0104466,-0.18236664,-0.076807305,-0.044393044,-0.07937393,0.068271674,0.04421079,0.17206177,-0.0868909,0.041526645,-0.023771279,-0.19410744,-0.07348936,-0.07397181,-0.1106803,0.12656127,-0.2831793,-0.1914252,0.15053973,0.26781824,-0.08064407,0.07513562,0.09858934,-0.172459,-0.1053246,0.090700135,0.005001863,-0.04072669,-0.011724754,-0.12130977,-0.5489889,-0.015149983,-0.16554494,0.23354876,-0.22780767,0.36783177,0.03885572,0.18544967,-0.013279614,-0.12839757,-0.1653308,0.011629836,-0.022588022,-0.1912471,0.20663509,0.18215318,0.008981068,0.23243572,-0.15036754,-0.2638926,-0.30190063,-0.428283,-0.6286761,0.12040377,-0.54876286,0.19874741,0.27383074,0.1946714,-0.15167022,-0.06896709,-0.072925,0.21019305,0.01937753,0.030343918,0.026856419,-0.032331888,0.56264305,0.12148681,-0.5510025,0.15856624,-0.120677516,0.22296762,-0.1252532,0.05669357,-0.073549315,-0.20443292,0.06570892,0.1557962,-0.065228105,0.13065886,-0.2784727,0.14038697,-0.09255489,-0.28405577,-0.3305232,0.03358562,0.029644975,-0.37449464,0.11983238,0.13621974,-0.13269977,-0.13284484,-0.15861431,0.094516695,0.38236055,-0.18863606,0.35203424,0.0024441082,-0.19731008,0.07721042,0.09869382,-0.037418246,0.1345856,-0.23399647,-0.021108065,0.15086831,-0.13862558,0.28314772,-0.121773735,0.38191372,-0.06983463,-0.0605808,0.11611116,0.1493439,0.3666957,0.031694524,-0.18017018,0.12335845,0.42852983,-0.091551505,0.1618755,0.022540413,-0.087949336,0.061366737
Tholomyes::0.14670777,0.22296311,-0.0010072147,0.15874527,-0.17886405,0.04537331,-0.11199944,0.4481702,-0.11881766,0.139777,-0.30080533,0.16150498,0.13293533,-0.16334909,0.0113686025,-0.11095045,0.009359782,-0.23107998,0.052748982,-0.0822314,-0.1077898,0.26885992,-0.13974623,0.1971262,-0.14751986,0.24477376,0.0700174,0.06230848,0.014266264,-0.12707706,0.17437954,-0.12704773,-0.14198688,-0.089036316,0.14260264,-0.12352578,-0.018137995,-0.22250852,-0.07058458,0.31776252,-0.013699113,-0.24235244,0.14389542,-0.10159771,0.20663424,-0.2397369,0.13401394,-0.03925411,0.18116242,-0.11748148,0.28884217,-0.07865086,-0.1882875,-0.19796579,-0.030129524,-0.16786188,0.0671683,0.12506959,0.12853827,0.15583311,-0.16000214,0.07147713,0.048976373,-0.1462277,-0.04356823,-0.10486833,-0.33279014,-0.07899421,0.051173516,0.07017477,-0.2606809,0.20327538,0.28134182,-0.041692365,-0.20177917,-0.19752026,-0.014619805,-0.288467,-0.038941324,0.0033078638,-0.018176034,0.06653624,0.034637254,0.14952318,-0.12529664,0.031849414,0.0015612693,-0.1797933,0.0039305207,-0.08837457,-0.11486737,0.043547735,-0.08511426,-0.14238743,0.060468726,0.1376528,-0.027800519,0.11664179,0.011766738,-0.13085137,-0.23029125,0.041892618,-0.042949934,-0.061441906,-0.14723642,-0.18309699,-0.5191146,0.06354571,-0.105728716,0.10719595,-0.116516165,0.24356936,0.008803052,0.11323506,0.01863423,-0.052139647,-0.035899237,-0.012009081,0.122292906,-0.017796531,0.16065441,0.11464315,-0.073559344,0.26189372,-0.028581263,-0.22403233,-0.16386014,-0.3016191,-0.49680015,0.05132472,-0.3808445,0.14015752,0.2797122,0.21677016,-0.068190545,0.08422533,-0.048786946,0.1317167,0.03292528,0.011508366,0.09013307,0.0074501527,0.42492548,0.17346643,-0.49317265,0.15347716,-0.029413197,0.28138158,-0.06305984,0.015277917,-0.008846031,-0.20410533,0.043666705,0.09006976,-0.010734568,0.013664248,-0.2225163,0.143191,-0.080360614,-0.14522932,-0.112065576,-0.001657907,0.17470117,-0.31911537,0.20865728,-0.013792716,-0.21769519,-0.14719185,-0.054003417,0.16721174,0.29325223,-0.1428404,0.22910546,-0.01926635,-0.0006412355,0.109813415,-0.012360522,-0.12203629,0.16526568,-0.1429056,-0.043298285,0.25358686,-0.12595995,0.060499545,-0.1637768,0.16415529,-0.04488631,0.124861196,0.25926733,0.12330722,0.2114451,-0.036975008,-0.13760655,0.056911483,0.2486818,-0.12491577,0.2832913,0.15006869,0.049609058,0.038694784
Fameuil::0.33329323,0.24233331,0.015173118,0.07423786,-0.25275406,-0.01314558,-0.056474276,0.5351675,-0.21458386,0.20215051,-0.42436287,0.12665641,0.13335565,-0.035378408,-0.08534897,-0.10531173,-0.011356653,-0.39267167,0.123492666,-0.09696607,-0.07220764,0.19356422,-0.12521437,0.33139607,-0.118169986,0.35333163,0.027919302,0.09210491,-0.01300427,-0.030023959,0.3731565,0.031735204,-0.10912295,-0.086291306,0.12919876,-0.13746323,0.07979663,-0.36221498,-0.18410023,0.30170298,0.012839317,-0.24018092,0.280594,-0.06226867,0.15600032,-0.23922992,0.11927734,-0.1138934,0.093533605,-0.10609401,0.27198148,-0.05736312,-0.13274822,-0.29584754,-0.03815239,-0.12285064,-0.016342452,0.22349161,0.08456492,0.26583806,-0.1162106,-0.001982212,0.07088397,-0.05126351,-0.03967479,-0.08372103,-0.43887028,-0.15264644,-0.057474405,0.060348228,-0.36804903,0.21399216,0.3777598,-0.18321046,-0.11583923,-0.2232772,-0.02015208,-0.26519328,-0.08058727,-0.042756043,-0.07711419,0.047803175,-0.04308916,0.12773569,-0.13981748,0.02821446,-0.025886357,-0.29593438,-0.06633203,-0.048838776,-0.11408096,0.14794758,-0.25059757,-0.205643,0.10942622,0.22265628,-0.023973865,0.10066642,0.093989305,-0.16768941,-0.13557868,0.0402704,0.013854162,-0.067545354,-0.030259833,-0.12956737,-0.56209785,-0.015979568,-0.09521944,0.16048497,-0.20327668,0.36468083,0.040286433,0.2729515,0.019933144,-0.09977216,-0.14850008,-0.03304148,0.01147862,-0.14944753,0.1742526,0.14800347,0.042698346,0.28553468,-0.17400768,-0.22902286,-0.21423931,-0.33614743,-0.55461365,0.09203355,-0.54383504,0.18503608,0.29883382,0.20580001,-0.15991527,-0.05126236,-0.07012299,0.16665925,0.023454605,-0.022251409,0.016959032,-0.08292747,0.5572901,0.10523934,-0.511141,0.14796457,-0.08614206,0.20390949,-0.09157419,0.03841111,-0.017278187,-0.189234,0.032276873,0.093509115,-0.12455064,0.102888145,-0.29851204,0.1610738,-0.07358497,-0.33282757,-0.29118514,0.075973645,0.057294633,-0.40650627,0.089506656,0.091727845,-0.19098943,-0.15303919,-0.07652153,0.10204147,0.2926062,-0.15780497,0.30828652,-0.007461926,-0.19102484,0.11603631,0.09570209,-0.058859516,0.11122498,-0.20539953,-0.038365044,0.16029838,-0.0918085,0.16858326,-0.14714478,0.3544606,-0.025967618,0.036676947,0.12221684,0.10339527,0.28349018,0.04987049,-0.24878304,0.10855466,0.47946215,-0.09338538,0.15578687,0.070201814,-0.019656451,0.061624993
Blacheville::0.31915414,0.2437631,0.039671704,0.12213034,-0.2718544,-0.037743926,-0.11390871,0.5623852,-0.21139161,0.18324874,-0.48226658,0.1793365,0.16424368,0.004815582,-0.097270615,-0.17354737,0.05899156,-0.42101607,0.07486291,-0.15943058,-0.098092675,0.28429505,-0.06607497,0.39501143,-0.12512921,0.34019467,0.04296976,0.15374509,0.005128185,-0.06133932,0.3880547,-0.047818296,-0.10005402,-0.08381332,0.16497807,-0.15986302,0.09172607,-0.39077368,-0.19557299,0.38618973,-0.035209972,-0.2246174,0.38771537,-0.053527996,0.17141767,-0.24581438,0.07083552,-0.08198178,0.08850754,-0.08752452,0.23804276,-0.03812514,0.00069164886,-0.34045318,-0.037007242,-0.21893944,-0.04491214,0.22911057,0.101791255,0.17287584,-0.1102885,-0.024258751,0.07825678,-0.026296826,-0.0921529,-0.15645444,-0.47818658,-0.15980496,0.026219029,0.09206819,-0.4285336,0.30059072,0.39449763,-0.1024983,-0.10568664,-0.2461116,-0.04241985,-0.18183978,-0.005679693,-0.040508334,-0.09006745,0.020772748,0.037349958,0.19678752,-0.1398443,0.0029520767,-0.0066166064,-0.2333821,-0.041454684,-0.07326237,-0.1253309,0.13485493,-0.21298793,-0.18006179,0.14129584,0.2380052,-0.0588916,0.08062834,0.115763135,-0.19691107,-0.13932689,0.13171905,0.009816226,-0.024675678,-0.07877667,-0.06006238,-0.60709596,-0.057458058,-0.15905493,0.28607038,-0.19152395,0.38286862,-0.0031148766,0.2019968,0.061503235,-0.06834893,-0.13725087,0.009150518,-0.030371372,-0.18393612,0.20874025,0.2074527,0.0029455791,0.2840804,-0.14488575,-0.3541538,-0.2681164,-0.41257438,-0.6026226,0.107945554,-0.49706385,0.24557033,0.29838216,0.2289837,-0.14374654,-0.018547969,-0.07905447,0.20924471,0.034203034,-0.026404299,0.010055449,-0.03611052,0.48301798,0.09900048,-0.534563,0.14503783,-0.10178944,0.20797132,-0.17377353,0.065775365,-0.061575342,-0.20892204,0.07263597,0.10864375,-0.09231513,0.09263774,-0.33796552,0.12931539,-0.08311926,-0.2887579,-0.27854466,-0.029105669,0.033879757,-0.41119114,0.099489525,0.096555345,-0.18599513,-0.15170659,-0.06039035,0.109523654,0.27190349,-0.15615031,0.31340027,0.058976978,-0.11255981,0.10202858,0.11055427,-0.061134394,0.13067912,-0.20266132,-0.017392533,0.21117567,-0.1570183,0.19791104,-0.14855176,0.3644227,-0.10295089,-0.021942345,0.08523692,0.19039108,0.3054516,0.04347786,-0.22372864,0.22183025,0.43389934,-0.14025255,0.10221369,0.08006129,-0.035221376,0.0820267
Favourite::0.300743,0.27807295,0.04227148,0.13243382,-0.20557953,-0.07691495,-0.078976534,0.48361328,-0.1884849,0.19013718,-0.42565677,0.18002252,0.15415907,-0.010034614,-0.09098926,-0.11806867,0.032785982,-0.40998077,0.115959845,-0.15967427,-0.09301434,0.2762432,-0.096426964,0.33717272,-0.119552314,0.3439092,0.024403794,0.13495384,0.056954853,-0.077715546,0.35149443,-0.00057262013,-0.06564649,-0.07741589,0.1313994,-0.16486025,0.057731204,-0.34508407,-0.1938276,0.3528287,-0.014046152,-0.23066638,0.29088497,0.007526452,0.1326708,-0.20660305,0.09699117,-0.11786375,0.033037987,-0.055473182,0.21383323,-0.047850966,-0.049721133,-0.31492624,-0.010440149,-0.12782168,-0.010231998,0.2614905,0.0653839,0.1646016,-0.10885667,-0.022897985,0.10058973,-0.043407965,-0.10750492,-0.08335488,-0.46193805,-0.19270338,-0.036840886,0.069686145,-0.43805912,0.24448468,0.35681036,-0.12030613,-0.11406103,-0.22332568,-0.027790496,-0.17607932,0.010175831,0.013873967,-0.04607625,-0.0045425575,0.019409763,0.13240701,-0.13502447,-0.013923984,-0.029394489,-0.194022,-0.028640669,-0.087901585,-0.097953744,0.13310595,-0.22562933,-0.20587723,0.1160594,0.24243519,-0.05711557,0.04879136,0.08420722,-0.21575066,-0.16890742,0.10225864,0.011418077,-0.037294194,-0.07235717,-0.09579774,-0.5693822,-0.024082087,-0.1410493,0.2325142,-0.22191978,0.34648082,0.009477972,0.23160137,-0.009848079,-0.06804358,-0.11768109,-0.0070560877,-0.029871622,-0.18988602,0.15749857,0.14038901,0.04872446,0.23838906,-0.12843975,-0.29511246,-0.30361584,-0.44076627,-0.60420537,0.11542221,-0.55791885,0.19283316,0.26647833,0.22326526,-0.17271316,-0.054593172,-0.074825086,0.15708478,0.017738018,-0.00850053,0.047784735,-0.022136915,0.51602125,0.08064812,-0.53143317,0.12737134,-0.06266818,0.22846012,-0.13762034,0.07473977,-0.007127962,-0.18615942,0.06050238,0.10422124,-0.0665938,0.10053708,-0.24406296,0.09749546,-0.07444818,-0.24074398,-0.30687958,-0.022044113,0.06747818,-0.32354382,0.108646,0.11886147,-0.20777497,-0.19469546,-0.06189396,0.12071075,0.3137999,-0.14321288,0.29196382,0.042824697,-0.14781962,0.09257392,0.08115864,-0.061373953,0.12273248,-0.19964121,0.004190192,0.17787129,-0.1646151,0.18281911,-0.083702296,0.34380823,-0.06505796,-0.012574187,0.12356886,0.15221718,0.27854478,0.016169133,-0.18987532,0.16846713,0.42672485,-0.04303323,0.15205684,0.060948927,-0.12621681,0.07975122
Dahlia::0.31219688,0.2374533,0.02189242,0.054933924,-0.24271588,-0.06114502,-0.073176146,0.508126,-0.2316432,0.125277,-0.47189793,0.1741131,0.1558965,-0.022393702,-0.05367896,-0.13325423,0.009793276,-0.35339463,0.09454874,-0.19933084,-0.09829675,0.31763557,-0.09937202,0.3737916,-0.06131556,0.33610293,0.031917736,0.10494052,0.019994859,-0.05172719,0.3431456,-0.0056388606,-0.079369664,-0.059530165,0.1993561,-0.18986587,-0.0032659357,-0.3261614,-0.13182896,0.3619246,-0.07039788,-0.2403431,0.35046527,-0.0016080444,0.21308666,-0.24222681,0.08419707,-0.108194746,0.10250088,-0.056998543,0.21362478,-0.024775064,-0.024433907,-0.37430564,-0.01465824,-0.10051401,-0.02139903,0.23274502,0.10233517,0.20054671,-0.07252956,-0.010097715,0.10556057,0.0018118339,-0.12226075,-0.12765364,-0.46890864,-0.16044626,-0.019827517,0.08273227,-0.44047505,0.263213,0.36426193,-0.14518574,-0.11472114,-0.2695826,0.0067005004,-0.17786817,-0.00020245751,-0.032540783,-0.06393157,-0.04307978,0.056469508,0.1497744,-0.070600234,0.0426915,-0.009187243,-0.1733813,-0.004932096,-0.04254229,-0.11336753,0.11630502,-0.15725867,-0.14846711,0.10889171,0.20834538,-0.10455925,0.07816815,0.112481914,-0.20399176,-0.19286619,0.090804234,0.045182034,-0.016168976,-0.038378328,-0.08235243,-0.6342588,-0.009830465,-0.15527394,0.26727256,-0.2570004,0.38077503,0.027696628,0.1690284,-0.0070541957,-0.021016508,-0.14504603,-0.04743332,-0.005797995,-0.16383323,0.19613312,0.16635507,0.04516467,0.25988868,-0.16975401,-0.29106027,-0.24670064,-0.35367474,-0.56817585,0.10034617,-0.4883649,0.2026056,0.2447572,0.20942816,-0.18283582,-0.050146267,-0.05158587,0.19484133,0.048681244,-0.022929762,-0.011957538,-0.032644775,0.56140184,0.0982522,-0.48123887,0.11560577,-0.12097524,0.19585148,-0.11259391,0.051030856,-0.019232176,-0.1676156,0.09854213,0.07624741,-0.017564863,0.07013478,-0.24332115,0.12086706,-0.10108002,-0.28447998,-0.19512583,-0.023094201,0.062142722,-0.27023575,0.15159163,0.11242309,-0.1976993,-0.15758744,-0.08800595,0.08036616,0.26147398,-0.14696433,0.2962339,0.049781855,-0.16908011,0.07087214,0.07974126,-0.060350306,0.06733852,-0.15732375,0.03346888,0.15143576,-0.13209835,0.21030672,-0.11689374,0.32098252,-0.12770166,-0.08457113,0.08417268,0.14265254,0.30113918,-0.008982381,-0.21465679,0.08990488,0.3882581,-0.1279802,0.15680924,0.00687969,-0.09487417,0.08632207
Zephine::0.3074604,0.2760552,0.03246331,0.08924298,-0.19882551,-0.110678725,-0.058343243,0.4832476,-0.17777254,0.22114567,-0.44094026,0.1752873,0.1631753,0.016975021,-0.05994224,-0.13136598,0.025786765,-0.43392006,0.11225423,-0.14130285,-0.10558025,0.25667575,-0.10364074,0.32713193,-0.060596038,0.35910884,-0.0020261512,0.14514533,0.05182932,-0.10754887,0.37557033,0.02797901,-0.062602416,-0.06656166,0.11569574,-0.17620893,0.046057153,-0.35725817,-0.14868632,0.3908401,-0.007876925,-0.20486927,0.31776458,0.019984014,0.23780951,-0.2942773,0.064238876,-0.101727754,0.107026726,-0.04781909,0.19966264,-0.10820038,-0.01754783,-0.33658695,-0.010657465,-0.14493506,-0.023541499,0.24170281,0.046219587,0.15130925,-0.16396983,-0.01965404,0.14133991,-0.03985421,-0.12238001,-0.06460196,-0.50437844,-0.21981452,-0.019752631,0.080837876,-0.47601345,0.24100308,0.39051765,-0.11877117,-0.053269666,-0.2637006,0.010298257,-0.17115745,-0.016250495,0.024704281,-0.07918791,-0.04690715,0.028259013,0.07427568,-0.15557392,-0.03986606,-0.023422502,-0.19158983,-0.044871613,-0.09536516,-0.12983757,0.21479163,-0.2760434,-0.21237667,0.16380663,0.25323352,-0.0471471,0.044535376,0.114971615,-0.22513707,-0.14553905,0.122853555,-0.03177379,-0.066281274,-0.056035124,-0.072146125,-0.5402325,-0.0014443477,-0.16104878,0.20876229,-0.20466316,0.34662864,-0.023665976,0.20980857,0.022077952,-0.09147669,-0.14380816,0.03443514,-0.015683025,-0.22350685,0.18274075,0.16866662,0.09876513,0.22408852,-0.15447661,-0.2839747,-0.2691905,-0.42895013,-0.592304,0.08662333,-0.56272113,0.19762023,0.2921298,0.22463559,-0.22090672,-0.08145505,-0.08939469,0.18080811,-0.018489974,0.022458464,0.03362682,-0.0006242864,0.54340506,0.07085407,-0.516515,0.13561937,-0.075173,0.19102342,-0.16070263,0.08666945,-0.0011987707,-0.21707946,0.084777616,0.09884281,-0.09964498,0.14431643,-0.2729218,0.051555008,-0.09962924,-0.23211834,-0.36879814,0.0011486361,0.011378328,-0.31636128,0.06231784,0.16619328,-0.18505351,-0.22892164,-0.05604592,0.106936485,0.32860148,-0.15062906,0.2898801,0.06638477,-0.19364384,0.14371498,0.1107938,-0.009567061,0.09384385,-0.21927157,0.04433123,0.116217636,-0.14326955,0.19282253,-0.08730307,0.36840844,-0.0467349,0.011277168,0.07135033,0.17045934,0.2470371,0.007902818,-0.2368079,0.12950574,0.4808036,-0.10979343,0.12557791,0.025542999,-0.09477458,0.08344517
Fantine::0.082613386,0.15827549,0.018882066,-0.08193828,-0.19039771,-0.10547933,-0.067350045,0.31996268,-0.13658538,0.2312039,-0.27162388,0.13248324,0.15010734,0.021851193,0.002713311,-0.0024377224,-0.047551703,-0.28190878,0.128695,-0.14178534,-0.09782209,0.2626352,-0.19735935,0.30353802,0.024565184,0.21938473,0.059266184,0.06427237,0.09678213,0.048329104,0.21200396,0.092020206,0.07581248,0.003936078,0.19794875,-0.19079654,0.09224849,-0.1478986,-0.1735182,0.2348479,-0.09003195,-0.11620948,0.25127012,0.0061094984,0.12277405,-0.16214545,0.031073207,0.009645468,0.08370928,0.07198114,0.14022993,0.05626806,-0.02921455,-0.20626742,-0.052839123,0.0057778945,-0.05822723,0.20013186,0.050527826,0.14858063,-0.049500193,0.02666399,0.12110648,0.17848189,-0.06075869,-0.08179801,-0.29730552,-0.07872567,-0.12268401,0.04446368,-0.23907878,0.039804164,0.1743207,-0.17529505,-0.10338291,-0.04922718,0.07905842,0.030659504,0.17009728,-0.009097913,-0.20766047,-0.10570084,-0.024697922,0.07467154,0.0014924355,-0.014487417,-0.07887696,-0.0871189,0.011414568,-0.05995239,-0.11371393,0.13548031,-0.07764764,-0.1417909,0.04183107,0.1281366,-0.009734461,-0.055192944,0.042757843,-0.19213013,0.044075362,-0.025690028,0.125219,0.017677942,0.04204952,0.0071629756,-0.35645103,-0.013161555,-0.12048723,0.23895188,-0.27202284,0.20320895,-0.05310501,0.14984961,-0.061660223,-0.07559863,-0.25992858,-0.030329397,-0.07863174,-0.29466027,0.19201198,0.08239794,0.075897045,0.01564127,-0.11937172,-0.057402823,-0.33785078,-0.44483477,-0.39867553,0.12021791,-0.35997927,-0.055224854,0.14700854,0.19681376,-0.11599646,-0.0746747,-0.009904489,0.06802921,0.1086317,0.009653674,0.037213698,-0.07300496,0.40731588,-0.01694885,-0.15422557,-0.010201623,-0.19278859,0.065689854,-0.0049236054,-0.0038795306,0.03278679,-0.06514211,0.029386373,-0.012130688,0.11729612,0.059185464,-0.09363744,0.042226523,0.052122496,0.016465338,-0.010251841,0.06700564,0.0011199258,-0.029809976,0.14011079,0.19333613,-0.053118903,-0.056755796,-0.06714026,-0.0967979,0.13561146,-0.12627803,0.06479506,0.030356223,-0.09076103,-0.117020175,0.05967564,-0.049957074,0.059490047,-0.025367048,0.12899391,0.008965356,-0.06674976,0.21963826,0.042081725,0.12136932,-0.01869992,-0.14356709,0.044004705,0.06549619,0.30308893,-0.048708204,-0.05607839,0.06072649,0.13302054,-0.02754454,-0.07021404,-0.053708687,-0.1662057,-0.068460435
MmeThenardier::0.06686036,0.03653832,0.15778612,-0.09678902,-0.09066114,0.32542685,-0.06475043,0.105676234,-0.07752777,0.21042055,-0.14441651,0.13936906,0.21831267,0.096417524,-0.0014818343,0.025493462,-0.19876753,-0.05076087,0.01538996,0.0780048,-0.08886073,-0.048070822,-0.09064471,-0.03246108,0.12388704,0.03803754,0.09954845,0.1341113,0.28928822,-0.30547446,0.08800443,-0.033983383,-0.020178322,-0.061338164,-0.080256894,-0.107133634,0.1314407,0.010241826,-0.18627192,0.24364652,0.010109624,0.03690033,0.19269381,-0.22044215,0.07108572,-0.20242399,0.053860582,-0.052206203,0.09679585,-0.03838996,0.08448433,-0.1320434,0.03700444,-0.15656029,0.019416975,-0.04771817,-0.12622005,-0.22386187,0.03232431,-0.08935814,-0.03579908,0.18956015,-0.04472539,0.042580277,0.05357371,0.001839618,-0.049415067,0.17776044,-0.055227187,0.029090783,-0.028729971,-0.16148002,0.20831272,-0.13447706,0.13748418,0.043723464,0.24999765,0.05517963,0.030602397,0.02300858,-0.075046405,0.031683955,-0.0038698579,-0.15032594,-0.029226482,-0.07719439,-0.057195757,-0.09385626,-0.082712464,0.04501026,-0.17662388,0.2649174,0.013484785,0.068850115,0.06935571,0.14389767,-0.008171813,-0.11476712,-0.16301593,0.011595938,-0.0021350402,0.056392405,-0.09595561,0.026030457,0.059684165,-0.026212431,0.031572226,0.187257,-0.051075608,0.019066378,-0.005651531,0.010850804,-0.07124525,0.04339397,0.14459155,-0.23037806,-0.054806706,0.23768556,0.0730265,-0.017912561,0.21954016,0.079017565,-0.033988096,-0.08601876,-0.026234448,0.08298636,-0.052506734,-0.3673869,-0.22352326,0.18456437,-0.11195192,-0.1894856,0.04543622,0.15770838,-0.064452276,0.08083133,-0.070469074,-0.20565736,0.1238344,0.019835934,0.014583514,-0.07380728,0.26311678,-0.014929418,-0.2972302,-0.020933053,-0.12376278,-0.010137775,0.24109353,-0.089029714,-0.19528536,-0.15417832,0.09613589,0.04523935,-0.07658043,0.1407111,0.03013758,0.026625682,-0.056955412,0.005740573,-0.22713941,0.09991706,0.06388066,-0.24038419,0.049778603,0.118195325,0.055233106,-0.07455605,0.0569008,-0.043784805,0.006757777,-0.19849554,-0.040567677,0.022745179,-0.18492326,-0.00011494954,-0.12670785,0.22031637,-0.07641065,-0.27047682,0.04552392,-0.015706848,0.02617474,0.25491112,0.08242282,0.08995043,-0.04461938,-0.24420455,0.06879356,0.0069541857,0.1859909,0.050102852,-0.21624374,-0.07998675,0.22730318,-0.10853707,-0.0021769986,-0.04086573,0.20966163,0.13814834
Thenardier::-0.009234159,0.016730037,0.1041656,-0.049678825,0.002562644,0.16343379,0.030609248,-0.0018321532,-0.051813107,0.049304187,-0.09403459,0.040673733,0.10231069,-0.08104725,0.054673404,0.006112832,-0.16399184,-0.06852873,0.085747935,0.004443834,-0.09363959,0.09684983,-0.22015777,0.19102311,0.011204124,0.048576728,0.17162587,0.18424618,0.114076465,-0.29437372,-0.030787643,-0.09806483,-0.10878772,-0.10231333,0.059727687,-0.054260287,0.13815063,0.02884424,-0.13389945,0.13490137,-0.09395382,-0.060357906,0.21296439,-0.36794516,-0.023000116,-0.1678738,0.046533704,0.012950734,0.29196262,-0.017178306,0.12900989,0.11132002,0.13247328,-0.21238534,-0.057070967,-0.1283575,0.04415135,-0.06494439,0.0075364406,-0.10570075,-0.1095096,0.10654481,-0.21429834,0.17726536,-0.022192467,-0.15897518,0.0059547517,0.1876052,-0.1439134,-0.035741434,0.035744395,0.002555875,0.0046860403,-0.2636425,0.04670003,-0.024634164,0.109404996,0.028614897,0.20195004,0.08262082,-0.21595906,0.039432466,-0.1712357,-0.007968937,-0.036814414,0.025487477,-0.08179361,-0.18590485,0.0108132465,-0.041975316,-0.18161279,0.1007896,0.090705976,0.018017126,-0.015661925,0.1617566,0.030297332,-0.037127756,-0.22031458,-0.024099143,-0.19295894,-0.19137631,-0.102262296,0.06691026,0.02724096,0.034231227,-0.06105071,0.08587605,-0.04368272,-0.045283027,-0.14763524,-0.10127635,-0.018832238,0.049996514,0.17291301,0.015366139,0.04119963,0.013113287,0.02245263,-0.09028942,0.3068706,-0.040938683,-0.20319626,0.04714297,-0.0446251,0.13379799,0.020193134,-0.20845215,-0.1537318,0.07658475,-0.042341366,-0.07530688,0.07362425,0.041993838,-0.0036599326,0.05323227,0.017853038,-0.12696049,0.108951926,0.0014931503,-0.09269624,-0.027911937,0.284724,-0.06304522,-0.12736815,0.1327021,0.028003942,-0.019675612,0.31273854,0.0019408948,-0.15914352,-0.26333362,0.08963693,-0.15392268,0.13390787,0.15927143,0.04736005,0.10983923,0.028869499,0.09506961,-0.07242354,-0.04106247,0.07205039,-0.13492548,0.08213051,0.08061899,-0.08032539,-0.08833647,0.074928194,-0.08014263,-0.07008609,-0.17918685,0.12181551,0.15852138,-0.1238492,0.03379274,-0.19307968,0.06149318,-0.12217722,-0.08619811,0.12711526,-0.07667158,-0.013413737,0.18780485,0.08996667,0.05289437,-0.072548464,-0.30214658,0.0024046656,0.19101055,0.13806692,0.03504726,-0.1811753,-0.08523514,0.14231049,-0.018024579,0.05755351,-0.029193103,0.100338206,0.1665432
Cosette::0.08270457,0.1775642,0.03884895,0.22510144,0.087898254,-0.043688744,-0.04828137,0.17308097,-0.08866932,0.05427791,-0.18568212,0.13190031,0.07709298,-0.15204646,0.117602155,-0.07595989,-0.070349716,-0.23397852,-0.22561447,-0.16483608,0.03410842,0.41859013,-0.07961122,0.079247974,0.060190495,0.28046697,-0.041685157,0.2562723,0.14597185,-0.115263335,-0.14618745,-0.032299537,-0.19164278,-0.15403783,-0.13901907,0.019360894,0.03765861,0.06606154,-0.040148173,0.30140683,0.088079095,-0.13378184,0.17054604,-0.23898372,0.23779394,-0.17048088,-0.05501685,0.12814124,0.41688615,-0.09477119,0.11669973,-0.06902183,0.013521089,-0.015190074,0.13867113,-0.016789025,0.024932263,-0.18598802,-0.004844971,-0.17296226,0.061849836,0.29781196,-0.093062244,0.059453625,0.026023515,0.13485175,-0.05649502,-0.0026586947,0.076507755,0.002160826,-0.06859726,0.01087748,0.23066148,-0.13421789,-0.09014225,-0.16444544,0.08697261,-0.16522397,0.10952731,-0.019846532,0.034326125,-0.19174173,0.15759604,0.07870981,-0.15100177,0.021960784,-0.21805075,-0.035495974,0.09612751,-0.00016784992,-0.07179581,0.11571627,0.024314148,0.15174772,0.12432637,0.053712524,-0.08770857,0.0025201563,-0.12486568,-0.11506726,-0.22014683,-0.0022162965,-0.08471216,-0.026044223,-0.24025428,-0.011352225,-0.12856825,0.2131331,-0.15791309,0.022073045,0.060756594,0.13333632,-0.05419978,0.011109441,-0.09393408,0.16503373,-0.12960105,-0.07071347,0.14112043,-0.09736116,0.042173393,0.073267736,0.16988637,0.019834125,-0.027985658,-0.06269562,-0.2424452,-0.3331549,-0.29487655,0.0011867246,-0.09764496,-0.13434415,-0.16164328,0.29818377,-0.073020555,-0.13147151,-0.0120182205,-0.19904508,0.09754102,0.09726413,0.13293342,0.05810234,0.06621902,-0.047718193,-0.074878424,0.002049108,-0.046316497,0.19494425,0.06454868,-0.07373075,0.057992894,-0.18134339,0.13300788,-0.024847118,0.13344878,0.10606812,0.1487238,0.105685644,-0.10705287,0.124383725,-0.024671128,-0.0139364945,0.15841913,0.061833322,0.20865828,0.037591998,-0.14757928,-0.18011843,0.09423222,-0.13626072,0.08298186,-0.07356596,0.01390763,0.022389121,0.20842163,-0.039069317,-0.048417665,0.08836601,0.031966522,-0.1251601,0.07915447,0.087784424,-0.13237974,-0.020444743,0.08611103,-0.04253924,-0.12089263,-0.030084882,0.14927514,0.0836699,-0.110692725,-0.06926745,0.060205214,-0.026083289,0.036390055,-0.086947575,0.095517844,-0.08793065,0.110791884,0.20200749
Javert::0.039204367,0.18927006,0.24639693,-0.16206215,0.14619248,0.24686314,-0.0740124,-0.029134024,0.00011737149,0.121262856,0.027299408,0.024743149,0.3180725,-0.016403303,0.029340899,0.0917752,-0.25173473,-0.31341872,0.022919616,-0.033880405,-0.014055843,0.09886469,-0.14355357,-0.032541405,0.19242871,0.20737936,0.023511142,0.210145,0.22132757,-0.19994412,0.09642357,-0.07248124,-0.05135577,-0.121414036,-0.015369131,-0.1021191,0.023534765,0.025583114,0.0059519983,0.12171213,-0.059225164,0.06319541,0.10422464,0.0327669,0.20017697,-0.14910364,-0.014766035,0.111926936,0.22621961,0.15523322,0.1379416,-0.015991265,0.12071428,0.03284009,0.012000065,-0.08698237,-0.016647814,-0.13867204,-0.18219034,-0.15927482,-0.09942142,0.21936084,-0.22085617,0.21729241,-0.028557513,-0.05892776,-0.003859102,0.10767196,-0.0120854685,-0.05712863,-0.038090426,-0.09315269,0.17334421,-0.12605129,0.0001560478,-0.11117837,0.16237517,-0.010893866,0.24897563,0.08309287,-0.122256726,-0.34795758,0.11558328,-0.030300379,-0.15898027,0.018622516,-0.041527893,-0.11808209,0.120464385,-0.09487402,-2.5135496e-05,0.28012496,0.014758252,-0.07039624,0.039375283,0.0357993,0.108558625,-0.15955728,-0.10517783,-0.11946795,-0.04418962,-0.04377562,-0.10093935,-0.04069889,-0.10543474,0.030305848,-0.12155002,0.13870186,-0.0008875908,0.09512203,-0.20426509,0.09227084,0.015975041,0.12044148,0.11474567,-0.019048596,-0.041171078,0.007671698,-0.11278815,-0.37289995,0.20474137,0.06186445,-0.005367914,-0.11403386,0.09114429,0.030937908,-0.116105154,-0.28040147,-0.19232789,0.058355566,-0.16861007,-0.15281813,0.20668967,0.16585284,0.010027289,0.05802334,-0.03042784,-0.0046346374,0.06827171,0.041377626,0.12818518,0.09534827,0.24493603,-0.012461916,-0.009620855,0.09761923,0.05686496,0.04913768,0.076438166,0.032944318,-0.0067570596,-0.20113035,0.06862439,0.030011889,0.15342744,0.15067261,0.013109439,-0.06531485,-0.0346248,0.20526752,-0.0861767,0.08456883,-0.0037345744,-0.06645388,0.0009727081,0.3494618,-0.095917895,-0.14424787,0.09358559,-0.12103549,0.023867741,-0.120517336,-0.12867315,0.18049844,-0.043648764,0.04328696,0.0145165315,-0.043717787,-0.07122562,0.008829205,0.22573644,-0.14789756,0.00015116856,0.15552725,0.15005936,0.10812863,-0.113330714,-0.12752242,-0.023333656,0.037843682,0.03647899,0.010923248,-0.10894177,-0.019959217,0.16955589,-0.0072064726,-0.0220081,-0.10527286,0.05739167,-0.020350285
Fauchelevent::0.10182947,0.11830904,0.07603605,0.083276846,0.08454383,0.16385747,0.17385437,-0.032105632,-0.2561171,-0.20578682,-0.014591726,0.009982162,0.09267553,0.34394825,0.064532034,0.046228122,-0.047894746,-0.103359014,0.23513275,-0.16391078,-0.04802325,0.110167466,0.2524306,-0.08752261,0.3861179,0.25592628,-0.11573614,0.21533819,0.27739084,-0.28774142,0.065169506,0.009223871,0.21587043,-0.31240514,-0.08141822,-0.11202769,0.013612081,-0.1479296,0.017984543,0.03028037,-0.14750816,-0.13473423,0.33183432,-0.24590656,0.19113412,-0.0016757289,-0.11597021,-0.257182,0.18307339,0.00459885,-0.09877869,-0.133317,0.33976278,-0.15549585,-0.12030076,-0.13539751,-0.08826773,-0.31898463,-0.44281796,-0.2542665,0.2344519,0.118375845,-0.218217,0.742042,0.0030804782,-0.036535073,-0.14419569,-0.05406985,0.050136123,0.031678542,-0.29449835,-0.004938622,0.0889059,-0.044129875,0.06909549,-0.0989131,0.13468763,-0.052906536,0.15887277,-0.13263956,-0.10566441,-0.26624933,0.05312202,-0.32324353,-0.17788024,0.2696162,-0.06711472,0.027489424,0.13818693,-0.23898508,0.13025615,0.026478179,0.16006552,0.06779654,0.2068226,0.16471049,-0.112609416,-0.12280517,0.08004218,-0.2626752,-0.029171469,0.13907823,0.10812708,0.26337138,-0.046408053,0.048931595,0.10196628,0.24976553,-0.110062696,0.1694688,-0.3314393,0.12214148,0.094436795,-0.1684274,0.04829977,-0.0051664375,-0.20011935,-0.28446084,0.0068199257,-0.04664041,0.19299962,0.084323175,0.06013367,-0.08268458,0.12623948,-0.09920546,-0.2069393,-0.06652156,-0.20330098,0.016271986,0.03151715,-0.1704302,-0.03720957,0.016980516,0.033323262,-0.08097004,-0.10170683,0.15371111,0.091035895,0.008327292,-0.040099174,0.108226374,0.32652527,0.051884614,-0.0069988766,-0.10358687,-0.12950626,-0.0042933086,0.15469001,0.024806444,-0.12482719,-0.14359468,0.03027831,-0.09924063,0.5771997,0.17320992,0.007185779,0.008111291,0.006731937,0.54650223,-0.13821624,0.02398552,0.13347289,0.10816691,0.38911808,0.31360927,0.062318593,-0.3616794,-0.02054189,-0.21061428,0.20973422,-0.13114746,-0.10602807,0.010426562,-0.12690859,-0.34326094,0.11954671,-0.062623374,-0.042546622,-0.08270924,0.24231078,-0.1463689,0.042908065,0.31177354,0.09345262,0.3578012,-0.1147569,-0.44313124,-0.12806644,0.09766322,-0.06790376,0.023063844,0.1228469,-0.1335118,-0.0431377,-0.2167666,0.023685323,0.09967655,-0.11242221,0.11203192
Bamatabois::0.053442504,-0.12296959,-0.15475424,-0.050642025,-0.09279561,0.03944629,0.189426,0.17299254,-0.20427087,-0.031686604,-0.22219403,-0.25748512,0.030922497,0.035475403,0.04186218,0.100187264,-0.09959154,-0.15960747,0.118862666,0.05407956,0.12617216,0.16949835,0.05092023,0.05383817,0.31289363,0.3852992,-0.17057478,0.18828377,0.23619673,-0.084621795,-0.0067834975,0.1633775,-0.031253602,-0.13001253,-0.06198749,-0.18399891,0.3976289,-0.055854496,0.011304799,0.28025937,0.04704029,-0.018544799,0.23932639,-0.21170864,0.132178,-0.14861602,-0.16862759,0.073117904,0.1949492,0.21347688,-0.010121684,-0.008051707,0.26481715,0.04063552,-0.13401793,-0.050161697,0.20814991,0.18381487,-0.2316958,0.1710228,-0.027875759,0.10454216,-0.04191033,0.41849837,-0.051950283,0.0053401245,-0.07629736,-0.23107745,-0.058052853,-0.0133380145,-0.21242444,0.060774475,0.08050916,-0.11167683,-0.0128953345,-0.22347073,0.18336771,-0.07014247,0.1212465,-0.07317912,-0.13680147,-0.039897382,0.035127684,-0.0730092,-0.16444488,0.024627086,-0.005499578,-0.13347438,-0.14126246,-0.09844712,0.013577043,0.21013458,-0.3889066,-0.16813166,0.1390876,0.124048695,0.06847492,-0.17413206,0.060260702,-0.07876975,0.09130032,-0.068621166,0.02158177,-0.04153141,0.08103343,0.058110427,-0.004935438,0.0823046,-0.055942107,-0.10909509,-0.16928518,-0.020331038,-0.031999093,-0.071111746,-0.08225959,-0.04105102,-0.24113853,0.07380307,-0.0049600173,-0.41970384,-0.012895624,0.07713226,0.19641583,0.09641497,-0.12043179,0.024947505,-0.27247363,-0.20455281,-0.1861637,-0.10493694,-0.29410064,-0.011814967,0.0080315145,-0.09188667,-0.114444666,-0.29385364,-0.12903333,0.12898284,-0.21473205,0.06752222,0.07608909,0.028569842,0.21495128,0.043323584,-0.11883896,0.119545825,0.032067865,0.06023874,0.0047460026,0.14793797,0.04271559,-0.015513006,0.020471789,-0.10074748,0.053600144,0.17301062,-0.16456132,-0.1529339,0.13118133,0.028505301,-0.33322212,-0.17369372,-0.11363552,-0.067107596,-0.010208238,0.054321185,-0.028007584,-0.2923869,-0.26611033,-0.15669023,0.22017615,-0.21344703,0.2469762,0.007102957,-0.29418525,0.06436131,0.13598222,0.098824196,0.03858756,-0.16609511,0.0766987,-0.15568258,0.0062159626,0.21403882,-0.03482122,-0.093533605,0.20956975,-0.18272814,0.013549213,0.1824112,0.1838722,0.07210714,-0.10426627,-0.15555035,0.18771516,-0.075591624,0.20823386,-0.090773664,-0.1204283,0.07307536
Perpetue::-0.034619663,0.1259612,0.091501765,-0.34208515,-0.06378638,-0.21437378,0.14577207,0.25161493,-0.026391255,0.26847562,-0.30194446,0.11769601,0.41586185,0.12222651,-0.07340128,0.26690716,-0.1330845,-0.17917189,0.27089486,-0.24495605,0.00639913,0.4130904,-0.12350214,0.12537618,0.26237255,0.3329672,0.14184421,0.045922868,0.13282607,0.026044423,0.21595754,-0.029157057,0.16918465,-0.036750343,0.18481289,0.029990517,0.3530543,-0.06795616,-0.16589141,0.16992483,0.00068838126,0.041240297,0.3498374,-0.07328064,0.023725662,0.002342569,0.097351804,-0.08330422,-0.013034596,0.23663087,0.23876126,-0.12570764,-0.054878738,-0.10551338,0.1372913,0.13722073,0.010891992,0.3380174,-0.07437855,0.08651778,-0.06570182,0.269371,0.05188341,0.0879956,-0.026278542,-0.19266553,-0.37562767,0.012581623,-0.38783133,0.05415901,-0.37914866,-0.033126008,-0.0007970674,-0.18491004,-0.21504371,-0.14945768,0.25759748,0.045848098,0.22525798,0.034420874,-0.31056586,-0.067983605,-0.040335543,0.22907755,0.23614253,-0.024423948,-0.17485711,-0.031691585,0.1843802,-0.18047175,-0.111521296,-0.030915527,-0.36846605,-0.45027062,-0.13594411,0.27629012,0.122955486,-0.111002535,0.012674794,-0.061226707,0.15801477,-0.23245414,-0.07853929,0.115275204,-0.0942367,-0.07166022,-0.27954298,-0.17744982,0.0335489,0.17395838,-0.4527079,0.09845417,0.07732298,0.23924553,-0.23715644,-0.29214522,-0.11568219,-0.06895158,-0.23275033,-0.42613524,0.45234516,-0.09327776,-0.115018584,-0.0910023,0.048439942,0.07591642,-0.30730098,-0.37391207,-0.3780859,0.28084633,-0.66316587,-0.2775216,0.10330333,0.07937041,-0.15265876,-0.22414558,-0.1559016,0.18561241,0.2913421,0.04824708,0.104841046,0.02644022,0.44495893,-0.04761763,-0.3462048,0.21028452,-0.21404766,0.20721667,-0.0325966,0.30384132,-0.12121596,-0.29812673,-0.06455084,0.15324326,0.24383825,0.20470352,0.17019422,0.044350278,-0.028419044,0.11168407,-0.0836025,0.17054732,0.0650492,-0.32063016,0.23238498,0.36361605,-0.10311983,-0.113148905,-0.20518722,0.0060041468,0.43584004,-0.20885392,0.38034967,-0.24302839,-0.04331505,-0.26272464,-0.04952867,-0.12522386,0.26212528,-0.027083931,0.10110607,-0.15464537,-0.21556588,0.3427824,0.14031813,0.37764034,-0.094475195,0.021471793,0.28253964,0.08118935,0.43296346,-0.044080913,0.017906249,-0.12898044,0.21382922,0.33158106,0.1120494,0.08289793,-0.048489943,-0.013571331
Simplice::-0.101565175,0.03981541,0.032668367,-0.12038324,0.035265792,-0.16741838,0.12852882,0.11253788,-0.051489335,0.21516177,-0.15927921,0.022923911,0.33957177,0.0748327,-0.011848762,0.18523866,-0.06640353,-0.15309681,0.13011275,-0.13355248,-0.023855664,0.25481713,-0.0067535136,0.057454653,0.21735771,0.2862596,0.15122283,0.06541059,0.11423677,-0.103552096,0.11936737,-0.091553695,0.077652715,-0.07750771,0.08624454,-0.0063673477,0.24885853,0.0034210007,-0.09510117,0.10129913,0.0140037285,0.043206178,0.322323,-0.10138658,0.112676695,-0.044345036,0.07426701,-0.021000288,0.15995741,0.18360908,0.18240456,-0.17431433,-0.03364794,-0.012616106,0.054935087,-0.012444321,0.029953633,0.10188275,-0.124746054,-0.0035225286,-0.020710377,0.2321054,-0.011568027,0.18429743,-0.048003662,-0.1250477,-0.21183665,-0.0030298538,-0.21603224,0.08319537,-0.17593315,-0.13689898,-0.05847001,-0.11553714,-0.143737,-0.040391687,0.21211664,0.042461995,0.17788547,0.11230413,-0.17069829,-0.14879854,-0.11404677,0.04903041,0.117394544,-0.043599397,-0.19751558,-0.05437274,0.07937702,-0.117358886,-0.043333903,0.0063733123,-0.21375002,-0.25150445,-0.1016757,0.14537463,0.14952552,-0.094207,-0.0098496005,-0.12110986,0.1540216,-0.19293146,-0.016650036,0.0049019977,-0.03380828,-0.07260551,-0.094242945,-0.08426249,-0.009432044,0.09952156,-0.31746793,0.051993,0.052911684,0.16351771,-0.18036495,-0.25401744,-0.05460947,-0.0508957,-0.16120958,-0.3379925,0.32511085,0.00047510298,0.050024014,-0.04559786,0.07140256,0.07746284,-0.22842821,-0.2385944,-0.15929957,0.14440203,-0.45796698,-0.27269068,0.09231249,0.03335302,-0.048139382,-0.18943135,-0.083365545,0.114560395,0.21963662,0.09304273,0.11875896,0.035447717,0.24130562,-0.052039906,-0.11265702,0.16956347,-0.15144163,0.02752838,-0.0035053375,0.24511509,-0.0024035114,-0.28089982,-0.058921434,0.09750836,0.15474062,0.1459549,0.17044768,-0.040948737,-0.013545198,0.18681122,-0.06171129,0.22177105,0.039479434,-0.23088588,0.15541755,0.335472,-0.07158443,-0.085514456,-0.075080596,0.012326463,0.3590192,-0.14791393,0.18608928,-0.092604674,0.019197254,-0.18283674,-0.06807645,-0.055742037,0.1350007,-0.036460727,0.1589219,-0.20420004,-0.15477872,0.22841927,0.18519449,0.2676725,-0.046131432,0.0160046,0.13919395,0.010363905,0.29430085,0.008803724,0.01949143,-0.068479,0.17260434,0.11596864,0.035301067,-0.0122839855,0.03200701,0.037746754
Scaufflaire::-0.11978729,-0.16059157,-0.096979074,-0.034925565,-0.15667221,0.09240013,-0.02401807,0.091357075,-0.08798326,-0.07142501,-0.11011907,-0.10334623,0.079556756,0.059547685,-0.017809957,0.13732116,0.014529589,0.06408246,-0.1755755,-0.025917104,0.010993651,0.07803169,0.2018068,0.05327497,0.097387254,0.0108869895,-0.008421698,0.13076526,0.3116652,-0.009317019,-0.13711728,-0.17268398,0.041537017,-0.056569144,0.062106118,-0.0738261,0.4397623,0.16958244,-0.08564114,0.38893375,-0.128688,0.03322565,0.16918963,-0.06538232,-0.11046158,0.12696384,0.054013062,0.004172691,-0.13514796,0.28980985,-0.05473109,-0.27913743,0.19290368,-0.030086914,-0.061651602,-0.014005671,0.19167814,-0.06080799,0.048591916,0.071146674,0.3603035,0.17733364,-0.017711338,0.23306412,-0.031134522,-0.17345315,0.24869065,-0.09814649,-0.18054716,0.0032094715,-0.05510077,-0.20824008,-0.078382514,-0.2548698,-0.055800058,-0.0012069169,0.29364258,0.074463345,0.15319452,0.20658359,0.21780337,0.07478684,0.20796779,-0.01970346,-0.002663625,0.05080283,-0.14867575,0.08778002,0.019460184,-0.15670826,0.014814728,0.15948388,-0.07559191,-0.0059922487,-0.030624248,0.04478478,-0.12065642,-0.376761,-0.31738693,0.12970471,0.13767163,-0.078641675,0.09367823,-0.17981201,-0.031122515,0.031154085,-0.0101281,0.09391422,-0.09228803,-0.024960054,0.0010449016,-0.07012445,0.061634675,-0.06452922,-0.22570744,-0.11087694,-0.040656824,0.1752445,-0.045838803,-0.22194396,0.09601278,0.12716773,0.10170098,0.008787551,0.29806334,0.07258994,-0.3426047,-0.34723705,-0.15851295,0.27396104,-0.19046295,-0.2422286,-0.0669039,0.08422614,-0.0916644,-0.2874927,-0.20512933,-0.1282311,-0.0023951698,0.20290223,-0.02445473,-0.03319205,0.03613532,0.07837557,-0.13898055,-0.01521146,-0.25538018,0.18267465,0.1577535,0.059380226,-0.15505706,-0.012644966,-0.04872401,-0.047353458,0.27231747,0.25848788,0.12498811,-0.024995204,-0.036936812,0.264732,-0.15131694,0.063129775,-0.02907091,-0.083569676,0.28593633,0.058602646,-0.009277231,-0.28833732,0.05901127,-0.1367589,0.059340633,0.12813042,0.05338113,-0.23046371,0.07436823,-0.29297614,0.091684334,0.10219908,0.1049867,-0.31647,-0.20973024,-0.1970999,-0.26653644,0.23569869,-0.037784524,0.09713055,-0.1881249,-0.3231469,0.038717587,0.14813504,0.15378647,0.026652697,0.11960392,-0.10975084,-0.041087687,-0.2608439,0.04549792,-0.032321338,0.026410025,0.12438792
Woman1::0.18794039,-0.18850864,0.075121485,-0.1891721,0.02839447,0.1446338,-0.021038534,0.14057814,-0.23881085,-0.051428482,-0.14657728,-0.14650515,0.2322706,-0.020870192,0.01949866,0.17030208,-0.27293158,-0.3242303,-0.034372695,-0.103794694,0.12534788,-0.046684723,0.112622425,0.19127616,0.16295303,0.2962448,0.14354704,0.30209252,0.12546317,-0.16259305,0.1337302,-0.100753,-0.05079304,-0.19356939,0.00041155692,-0.21462162,0.26631534,0.032355636,-0.14327726,0.16387272,-0.08096973,-0.04819868,0.30647576,-0.19103843,0.26058152,-0.26184815,-0.061222386,0.0044767046,0.33846182,0.18772767,0.1926731,-0.08088022,0.2698114,-0.14155483,-0.20010623,-0.14883617,-0.025808834,-0.24618152,-0.23718528,-0.094727375,0.23249958,0.26429,-0.3067558,0.5606695,-0.027420506,-0.056654617,0.010741339,0.03271842,-0.044716664,0.097066745,0.05730565,-0.12260152,0.11131431,-0.36697766,-0.023099268,-0.083109155,0.26266077,-0.0774588,0.09954002,0.08970938,-0.0421464,-0.25532126,0.067734994,-0.0031077408,-0.13110852,0.10556653,-0.06205502,-0.13939658,0.14653936,0.024062235,0.15018207,0.2505974,-0.12052865,0.011887974,0.038567144,-0.11237168,0.0019853641,-0.21091661,-0.09954494,0.06517049,0.022602065,-0.09640436,0.05540221,-0.19245951,0.0033477424,-0.0076555954,-0.18092869,0.1433693,-0.017881833,0.11065932,0.033659585,0.077096425,0.18036559,0.098889224,-0.057472773,-0.01697446,-0.12008296,-0.0987802,-0.012054467,-0.23172091,0.18358198,0.11881615,0.13562775,0.042535402,0.031832624,0.11348617,0.0020112724,-0.078818925,0.046925995,-0.043251153,-0.02969636,-0.14497326,0.108731024,0.01696778,0.061576936,-0.076408066,-0.037400078,0.082000345,0.004331144,0.09193752,0.05078015,-0.047851615,0.09046233,0.17947194,0.08793237,0.08343571,-0.02370497,0.015813211,0.07087853,0.033078387,0.14991447,0.02885264,0.032452427,0.015703559,0.1964262,0.13237342,0.10196019,-0.08028758,0.0138364155,0.091816254,-0.0009537748,0.25714102,-0.06485994,-0.12512621,0.1152753,0.19060338,-0.07531802,0.026380874,0.06662791,-0.23696822,0.15336803,-0.20496714,-0.11204949,0.05490848,-0.0014912195,-0.0030781836,0.14247133,0.008582177,-0.12097167,0.006599859,0.08745332,-0.14765008,-0.041599877,0.11944595,-0.013594889,0.022594392,-0.103849955,-0.18913238,-0.034852352,0.08245184,0.18461147,-0.027779281,-0.11510248,0.024551554,0.031405043,-0.12078274,0.018034304,-0.18925124,0.13594033,-0.0736313
Judge::0.106489055,-0.19015792,-0.26550505,-0.096380316,-0.113363825,0.2096444,0.14310966,0.12180765,-0.28448704,-0.21919301,-0.2366253,-0.37587658,-0.027957989,0.028246514,-0.010345363,0.042785116,-0.14522934,-0.19895807,0.006879487,0.13728538,0.14560807,0.13410631,0.034801003,0.06889704,0.25346294,0.40919715,-0.14528319,0.24650668,0.353236,-0.15817751,-0.1700669,0.013346762,-0.15653476,-0.17464477,-0.1528755,-0.11497971,0.4128849,-0.018346224,0.12122653,0.33920264,0.14876156,-0.012889812,0.21087214,-0.17029497,0.107945845,-0.09654257,-0.2318713,0.16397303,0.23057212,0.2168735,-0.06763851,0.02488969,0.25422877,0.068885036,-0.14771663,0.00630011,0.28672022,0.31793624,-0.2696407,0.22384155,-0.03601379,0.059978805,-0.013486339,0.26500204,0.009964765,0.059835233,-0.01575566,-0.22252728,-0.0555918,-0.11123483,-0.25095206,-0.07002499,0.06774741,-0.10229947,0.041644227,-0.2330852,0.17793742,0.0026746693,0.08872313,-0.13921094,-0.040370956,-0.06956707,0.0051109903,-0.13608085,-0.18766959,0.10776847,0.029994821,-0.06914929,-0.16573064,-0.14912136,0.014596416,0.20742364,-0.39339206,-0.08599495,0.16142482,0.14738277,0.029483069,-0.23754309,-0.058155205,0.045121018,-0.14417322,-0.16335325,-0.09535962,-0.03339907,0.12848781,0.05679796,-0.032765657,0.21078846,-0.058984857,-0.2136838,-0.08653215,0.031803794,0.014884528,-0.031213071,-0.1165261,0.008042059,-0.21579897,0.00054670864,-0.02982345,-0.47218612,-0.03480352,0.06903326,0.24017264,0.05240338,-0.18633635,0.014866733,-0.17316785,-0.17391692,-0.16252472,-0.14864121,-0.28190514,-0.030209946,-0.034489706,-0.17073956,-0.12410452,-0.2819955,-0.17323993,0.07084657,-0.16091526,-0.003246507,0.13910407,0.00923167,0.31208605,0.014224989,-0.11677812,0.080944896,0.16245514,0.04823349,0.17361864,0.09006324,-0.006468482,-0.04463893,0.0622005,-0.24241345,0.19425887,0.20498843,-0.1457941,-0.109786555,0.18738018,0.06320756,-0.29176855,-0.14130831,-0.085004136,-0.044980984,0.07126031,0.014836959,0.0030050613,-0.3976599,-0.23698261,-0.17655684,-0.0070611504,-0.16259508,0.23815554,0.04107348,-0.3655735,0.03321449,0.10890899,0.18145928,-0.09385613,-0.06345229,0.09965099,-0.25752205,0.0553244,0.24440716,-0.047315218,-0.07119899,0.22459412,-0.34185714,-0.068998255,0.22363691,0.041806605,0.06467594,-0.12345263,-0.26685855,0.085116886,-0.10759351,0.28859434,-0.1457457,-0.1743573,-0.024813911
Champmathieu::0.16047987,-0.15519163,-0.15719889,-0.15537106,-0.1849199,0.23647673,0.13371913,0.19018134,-0.2923719,-0.20940009,-0.2685234,-0.30492815,-0.026734423,0.024430709,-0.060855895,0.08735312,-0.15251485,-0.17645021,0.013988087,0.09782655,0.12686715,0.11288942,0.05130778,0.10551194,0.3066397,0.39219126,-0.14111507,0.27742586,0.29116535,-0.10618026,-0.08629032,0.060607914,-0.11001243,-0.18537153,-0.12699363,-0.15578376,0.46629542,-0.031029794,0.07117057,0.31529647,0.08741231,-0.004605013,0.20443437,-0.15850814,0.081103474,-0.12112549,-0.23552082,0.09873234,0.2083815,0.24368952,-0.08286628,-0.028094156,0.2695864,0.044933558,-0.1456983,0.010998694,0.24920359,0.26887763,-0.22653647,0.2660722,-0.026222749,0.08255876,0.0013587542,0.29915214,-0.03226637,0.037738167,-0.019167818,-0.22619745,-0.09442294,-0.082947254,-0.27058604,-0.045483,0.07097314,-0.18289614,0.017005216,-0.26920816,0.27367452,-0.053542327,0.05490449,-0.11709388,-0.06293846,-0.0767524,0.05331317,-0.12985732,-0.13967873,0.06515995,0.008946225,-0.10418422,-0.19188823,-0.17572805,0.043591205,0.18080395,-0.3981774,-0.10703548,0.16475067,0.10679701,-0.00047875664,-0.27445954,-0.08200559,0.04506464,-0.03853176,-0.15387282,-0.041796606,-0.04191827,0.12208009,0.009130661,-0.07837042,0.16460364,-0.039137594,-0.18482965,-0.13200796,0.0022272307,0.047452897,-0.08929946,-0.12077599,0.00445563,-0.22056897,0.008512172,5.2944026e-05,-0.4312182,-0.050885163,0.100212134,0.2233887,0.08386059,-0.14759375,0.040975295,-0.16900346,-0.1471207,-0.12116168,-0.13935101,-0.20978686,-0.021297073,-0.0076399446,-0.21499313,-0.12829888,-0.3204739,-0.16912763,0.042001568,-0.1611417,0.03532838,0.07811222,-0.0017332007,0.28139347,0.05545896,-0.055446718,0.06873116,0.13210641,0.058858268,0.15220617,0.09496334,0.0079635,0.048156757,0.0856623,-0.18199846,0.19569683,0.18222472,-0.12637949,-0.15378174,0.18908548,0.023708474,-0.300026,-0.17778309,-0.15569283,0.00016646608,0.081162125,-0.012649907,-0.026471445,-0.3102741,-0.2292552,-0.18596096,0.07992557,-0.20083933,0.19760221,0.009031265,-0.37144077,0.06991091,0.14925517,0.19207312,-0.14660211,-0.104624026,0.06574103,-0.24038891,0.080057696,0.29062092,-0.036024343,-0.14274202,0.23660728,-0.38263974,-0.039678935,0.20066024,0.10025559,0.05537335,-0.15622583,-0.28280658,0.090185754,-0.054431938,0.340219,-0.14435613,-0.18641116,-0.031013092
Brevet::0.0819983,-0.18408242,-0.22406495,-0.107152104,-0.23535769,0.13733289,0.13828562,0.14646225,-0.25826073,-0.19374041,-0.25517753,-0.31662112,-0.07953603,0.04170295,-0.0024881295,0.0556309,-0.045150205,-0.12581986,-0.0074214777,0.14590402,0.083969,0.11170682,0.06534975,0.09539603,0.27011487,0.41385257,-0.20856115,0.30993706,0.2778769,-0.08045985,-0.11205514,0.061838664,-0.11176983,-0.2081529,-0.13827404,-0.13366055,0.48212868,0.014271117,0.15642174,0.38237268,0.113860324,0.0084736915,0.19970359,-0.14498916,0.07697142,-0.05604766,-0.27509946,0.16108601,0.18726465,0.2224886,-0.13723435,-0.09316357,0.2328496,0.0729448,-0.18436724,-0.027879063,0.29444873,0.3141006,-0.22409597,0.29096982,-0.042197574,0.06388074,0.06995356,0.28626278,0.026632678,0.03281804,-0.003317607,-0.16294512,-0.092877395,-0.074263245,-0.22705945,-0.03271607,0.06910207,-0.124206476,0.030890226,-0.19424963,0.285881,-0.045248363,0.12493053,-0.13703631,-0.06998374,-0.06161354,0.051458903,-0.13068733,-0.2276027,0.057835072,0.05056193,-0.090950675,-0.16567992,-0.28376555,-0.047425315,0.20158494,-0.39332265,-0.13317026,0.18027918,0.18819067,0.044174243,-0.29417384,-0.039544743,0.06120681,-0.007878996,-0.16587391,-0.010516462,-0.06771017,0.1454879,0.030430514,-0.017816436,0.13369116,-0.10841621,-0.19932014,-0.12239673,-0.014983688,0.049204286,-0.07325303,-0.0597572,-0.010896701,-0.24347453,0.004286343,-0.01710828,-0.4696793,-0.050705124,0.10800223,0.20504515,0.104799844,-0.07581029,0.003967628,-0.15247262,-0.21415043,-0.18705969,-0.12990776,-0.20090711,-0.0024955096,-0.03198639,-0.16685739,-0.14624399,-0.3379341,-0.21020296,0.030792201,-0.11414455,-0.0041902545,0.11143648,-0.011001309,0.22875933,0.011035493,-0.073643856,0.06364506,0.107928246,0.033947207,0.0900802,0.112342276,-0.0077499966,0.042715125,0.03145748,-0.21417838,0.19405232,0.17049865,-0.24262594,-0.10458194,0.21902937,0.07176406,-0.35432237,-0.19085492,-0.137057,-0.017386178,0.10614704,-0.014172853,0.019985624,-0.3318822,-0.18224762,-0.18729897,0.05842827,-0.15842241,0.21995713,-0.03424167,-0.34118065,0.06641471,0.20043774,0.16823763,-0.102117755,-0.09673918,0.027659848,-0.26126918,0.03152598,0.25952977,-0.0844898,-0.0652013,0.27592948,-0.35125342,-0.11306311,0.23216482,0.019229682,0.11166584,-0.14940603,-0.2220011,0.09485955,-0.06013755,0.2693165,-0.040616218,-0.21235752,-0.000396723
Chenildieu::0.11823816,-0.21987757,-0.19613867,-0.19148266,-0.1905346,0.15601672,0.11550741,0.13970013,-0.2668646,-0.22594054,-0.26634595,-0.39268586,-0.021895012,0.052455094,-0.047001705,0.08026702,-0.06788656,-0.16365322,-0.030386772,0.1319146,0.15481202,0.10722071,0.022927715,0.06399077,0.20183277,0.33937752,-0.17115308,0.120850876,0.2588296,-0.00018110842,-0.05973211,0.042551383,-0.07805866,-0.17546412,-0.18298224,-0.13447043,0.39995834,-0.001630138,0.09809742,0.35813415,0.059508547,-0.009907949,0.17096546,-0.11136808,0.10812463,-0.14553805,-0.26228142,0.16710688,0.1445087,0.30804712,-0.05323413,0.0003310374,0.25271592,0.0735001,-0.16378841,0.014819939,0.21575484,0.2776282,-0.21776967,0.23849721,0.013657007,0.08602112,0.04159537,0.25663167,0.059863355,0.078575194,-0.023568595,-0.17411114,-0.032831945,-0.07420347,-0.27382377,-0.071799584,0.06440154,-0.12086607,0.05755641,-0.20445675,0.21583357,0.05786592,0.07474473,-0.076626614,-0.026986634,-0.092249,0.09177829,-0.03558413,-0.12815306,0.031817243,0.034067746,-0.056821633,-0.11725131,-0.18199179,0.0365556,0.17304336,-0.4099711,-0.10259764,0.17821233,0.095709816,0.023441704,-0.26785502,-0.12163373,0.07945012,-0.020548532,-0.15755098,-0.07249507,-0.08669832,0.11522667,0.027172988,-0.11181686,0.17166245,-0.08706441,-0.12320052,-0.06481615,0.006716757,0.05832048,-0.034442578,-0.17661357,0.025098003,-0.1748803,0.025927579,-0.016500551,-0.4947396,-0.055181134,0.09885702,0.23940453,0.081371084,-0.06422044,0.038349256,-0.19134878,-0.18935035,-0.20690349,-0.12340639,-0.30764648,0.007681988,-0.004491439,-0.16477959,-0.10936247,-0.3316491,-0.125471,0.07645573,-0.16756566,0.0129108615,0.13316818,-0.006793228,0.24715032,0.035989057,-0.06721859,0.0942895,0.18472934,0.075324394,0.09018749,0.09456493,-0.03386219,-0.0062330235,0.06767876,-0.18053667,0.19728239,0.27309105,-0.13906056,-0.12570064,0.12510063,0.0629055,-0.2861049,-0.075176574,-0.23301807,-0.02687636,0.06528678,0.03883413,-0.04419262,-0.35154882,-0.21014147,-0.17862779,0.095133714,-0.18128249,0.23517843,0.05391433,-0.29290923,0.03020021,0.14676519,0.14372435,-0.1142241,-0.12700933,0.05702987,-0.24560651,0.04396384,0.28146985,-0.09745431,-0.04690773,0.2863308,-0.34076884,-0.03567387,0.2506649,0.05403541,0.03862359,-0.11316229,-0.23217233,0.07466001,-0.079209246,0.28013864,-0.13578288,-0.12362215,-0.027946621
Cochepaille::0.115843505,-0.14502211,-0.18377405,-0.114117846,-0.12675957,0.17079876,0.11464991,0.14432332,-0.26019767,-0.20972891,-0.25782,-0.31540248,-0.0316501,0.019318733,0.016770259,0.055148616,-0.08056005,-0.16684756,0.01671248,0.13024867,0.16334708,0.15039983,0.04307393,0.025029745,0.24507341,0.39099395,-0.2003378,0.24130069,0.29506785,-0.052970823,-0.18664101,0.021528533,-0.064190924,-0.21832876,-0.15633251,-0.08131861,0.38750595,-0.046855778,0.09666618,0.34657323,0.14065154,0.02765338,0.16122083,-0.16239406,0.09400688,-0.09485761,-0.28759792,0.16832595,0.20225972,0.26373792,-0.044876702,0.02634184,0.3047824,0.07605884,-0.1299743,0.008620693,0.22913635,0.2831345,-0.2329998,0.2751114,0.020145573,0.1079617,0.016212827,0.27651247,0.0692447,0.09940456,0.034772612,-0.16359581,-0.024120163,-0.06476912,-0.24523512,-0.061163574,0.09586056,-0.09549551,0.047341768,-0.26940274,0.20784508,0.0005725479,0.09611717,-0.18619688,-0.06392099,-0.04952083,0.075987004,-0.064060815,-0.18248144,0.10691315,0.02357069,-0.061762933,-0.1739314,-0.17406802,0.022757389,0.16195193,-0.39286232,-0.09506592,0.20159793,0.13517518,0.016524658,-0.26872224,-0.062967055,0.08617867,-0.07240627,-0.1548851,-0.064632475,-0.021791782,0.02770772,0.09007714,-0.055213723,0.18107161,-0.06135768,-0.13511558,-0.08508848,0.04251002,0.0011419046,-0.0628262,-0.10167859,0.031667527,-0.2777487,-0.04743115,-0.025308851,-0.48023903,-0.042172004,0.123975456,0.23394042,0.05804875,-0.09548462,-0.032997537,-0.17636777,-0.16346215,-0.18952245,-0.110178955,-0.21584831,-0.067310125,-0.052862998,-0.10822364,-0.112020776,-0.34001258,-0.18906441,0.007393491,-0.11891941,-0.0120094,0.1381589,-0.004339447,0.23852281,0.033962358,-0.11326166,0.049712673,0.16040362,0.10457358,0.1739212,0.06689681,-0.06677753,-0.03557848,0.0503086,-0.21500905,0.27015346,0.22156198,-0.18207125,-0.06981576,0.22167528,0.10396967,-0.25885946,-0.15915354,-0.10405468,-0.012290105,0.10559339,-0.0024582415,-0.0288795,-0.34950295,-0.20250428,-0.22084814,0.014649875,-0.148006,0.2100239,0.0105140535,-0.25337484,-0.010631627,0.20628037,0.1677467,-0.07176876,-0.100640446,0.06594627,-0.21489389,0.06186599,0.2567325,-0.07108084,-0.13606827,0.26386225,-0.3695022,-0.04068891,0.25818047,0.007752149,0.054984715,-0.06569022,-0.21161743,0.025213636,-0.098585725,0.29536873,-0.07583482,-0.13112015,-0.033314563
Pontmercy::0.07367576,0.14253557,0.0060425038,-0.16453104,-0.19222136,0.14307885,-0.15089639,0.32092872,-0.1458307,0.050961126,-0.13481444,0.22934932,-0.10809054,-0.19441605,-0.120093465,-0.20463753,-0.17649767,-0.13401411,-0.049851947,-0.13866095,-0.24060835,0.052580956,-0.25900018,0.4284123,0.22330771,0.05165475,0.13695881,0.48693213,-0.037849184,-0.26669157,-0.25112006,-0.14698118,-0.36851695,-0.12419642,0.21762247,-0.009608238,0.3485563,0.038969822,-0.03030842,0.14893843,-0.102435365,-0.0062933723,0.27591467,-0.4051787,-0.105039455,-0.17243221,-0.00045105634,0.14566372,0.5720433,-0.22158222,0.053721692,-0.13307907,0.14316565,-0.29534325,-0.015838502,-0.21227843,0.09239324,0.0005114282,0.2413059,0.049836382,-0.14137575,0.10635152,-0.30080247,-0.094950326,-0.1490332,-0.09059918,-0.029275378,0.29673883,-0.16109891,-0.124495074,0.20833765,0.23518333,0.15769051,-0.4271198,-0.06469155,-0.3463901,0.2663453,-0.2254522,0.09201076,-0.08759047,-0.1944507,0.22614914,-0.063436374,0.16091187,0.17981309,0.016502954,0.08859934,0.027837027,-0.015126462,-0.12549926,-0.29933837,-0.044844482,0.11797728,-0.0071590315,-0.07933231,0.22078682,-0.1567653,0.080050305,-0.050402533,0.049070638,-0.47515345,-0.011220422,-0.14426918,0.018854018,-0.044849478,0.10968639,-0.18459871,-0.050947502,-0.046835974,-0.23417805,-0.18488449,0.14589316,-0.06439528,-0.066876575,0.14394155,0.10373416,0.004323379,-0.30065557,0.062199216,-0.050017804,0.33695364,0.029035183,-0.44619602,0.214185,-0.014737853,-0.1942011,0.2136194,-0.14738593,-0.092909515,0.14602749,0.11464019,-0.049612116,0.06761135,0.030135846,0.057081226,0.16066988,-0.07466072,-0.21171965,0.3895346,-0.030507233,-0.03570884,0.040239207,0.16478357,-0.09343825,-0.06014984,0.17934898,-0.014491322,0.201732,0.32597682,-0.11963057,-0.17152758,-0.049479738,0.19568878,-0.15168422,0.14596377,0.010665084,-0.13272901,0.18956424,0.09566649,-0.119546816,0.33085814,-0.053760584,0.23982792,0.0009828995,0.35099766,-0.21226549,-0.22893101,-0.11581589,0.16196054,-0.020196509,-0.2801927,0.14452438,0.027455958,-0.20034406,-0.1531048,-0.0018325316,-0.1406396,-0.010835265,-0.11730716,0.12125647,-0.06411073,-0.017358758,0.062094554,0.12749042,-0.052585088,-0.07259742,-0.26480407,-0.28181106,0.2375812,0.2632632,-0.25028574,-0.016023297,-0.26079985,-0.16276176,0.21874276,-0.11289234,0.22646928,0.1348434,0.20075698,0.26257896
Boulatruelle::0.004622653,0.04502262,0.14447352,-0.23984426,0.057954673,0.24419388,0.13297077,-0.039364226,-0.10941828,0.19257693,-0.20514704,0.027711457,0.15430495,-0.04900496,0.041575283,-0.01736448,-0.385016,-0.26721597,0.10606413,-0.090782225,0.009819551,0.2292468,-0.31786224,0.32194793,0.16397725,0.02446359,0.055037238,0.24665534,0.318922,-0.112972856,-0.0407191,0.052642357,-0.07427011,-0.06968553,0.08644994,0.05352041,0.35308817,-0.16840167,-0.29293054,0.15311004,-0.006699683,-0.11311213,0.3711934,-0.5814188,-0.11988545,-0.059966404,-0.08928018,0.037270747,0.3144653,-0.043437205,0.22227997,0.29031938,0.3908726,-0.33781573,0.035325814,0.07995704,0.18324144,0.022008417,-0.027146831,-0.08375576,-0.05376399,0.25366542,-0.34743994,0.23011881,0.17530079,-0.14786156,0.07558752,0.20315315,-0.3324048,-0.21519041,0.042475086,0.09313154,0.12139275,-0.34911394,0.06353328,-0.096261255,0.074224025,0.12583095,0.31155458,-0.1260323,-0.32866234,0.039593343,-0.16642138,0.15723184,-0.048230853,0.1174142,-0.17746282,-0.23959905,0.15460177,0.15595242,-0.24702936,0.14265433,0.021154849,-0.00696829,-0.11399991,0.30079883,0.06880983,0.093263105,-0.19719897,-0.0015487648,-0.2685375,-0.19513859,-0.2542461,0.23744294,-0.0183768,0.24702463,-0.00751639,-0.004238736,0.1396196,-0.004506088,-0.13884372,-0.0860862,-0.17649585,0.21507344,0.30179194,0.13833822,0.013410687,-0.11749784,-0.09111585,-0.101972066,0.36396974,-0.15257479,-0.36494324,-0.050937112,-0.20993581,0.13512361,0.0473447,-0.049196564,-0.3952356,0.17089336,-0.15798016,-0.07797871,-0.1205235,0.13371372,-0.052573074,0.06989442,0.017435448,-0.2100221,0.12610139,-0.2142381,-0.1389524,0.01298994,0.21833949,-0.17843923,-0.21365991,0.12992162,-0.025648657,0.043198448,0.3902614,-0.06294879,-0.29990414,-0.22723389,0.10067434,-0.33640054,0.14923218,0.29971173,0.09934888,0.31554458,0.11487787,-0.031605586,-0.016455293,-0.14776605,0.21397418,-0.12603194,0.13580666,0.00047527294,-0.039362222,-0.20137437,0.030163566,-0.25924152,-0.41552714,-0.14415976,0.3385069,0.088284224,-0.03723246,-0.08027091,-0.244677,-0.05066114,-0.079831764,0.02454893,0.022368867,-0.042820495,-0.004317833,0.07324044,0.0770589,0.0529357,-0.14183801,-0.26543012,0.06532283,0.25166512,-0.05567574,0.08421834,-0.21368776,-0.22649969,0.20528537,0.17773733,-0.018339444,-0.007156099,0.2479549,0.25837967
Eponine::-0.07549969,-0.029107267,0.047722988,-0.2020698,-0.13837245,0.16073506,0.006991165,0.048656873,-0.10880768,0.16091754,-0.06549738,0.055719633,-0.061951842,-0.046892405,-0.03890942,-0.07709897,-0.17220458,-0.0049694236,-0.0057342113,-0.019311339,-0.14778784,0.024140878,-0.24485576,0.19939867,-0.073974065,-0.050863273,0.17856266,-0.0045625255,0.08279616,-0.2323098,0.07653792,0.05511111,-0.114747494,0.009326969,0.005872868,-0.17918058,0.039317638,0.09800491,0.0030398213,0.16246542,-0.12414391,-0.16646619,0.13727342,-0.2171919,0.11872092,-0.27315044,-0.025240427,-0.025147013,0.3079834,-0.07875315,-0.036383525,-0.08232403,-0.037727326,-0.198916,-0.12274875,-0.02248499,0.11654096,-0.1685473,-0.00046506606,-0.1542305,-0.1832563,0.13233852,-0.09015104,0.06921425,0.1059225,-0.04608163,-0.083957285,0.13789092,-0.19622226,-0.12555414,-0.031486865,-0.12082575,0.047688518,-0.20464033,0.04424491,0.15517528,0.16354021,-0.029262634,0.081212774,0.14888318,-0.09417434,-0.105191685,-0.06554916,-0.043861203,-0.16367957,0.011955047,-0.047289543,-0.14953192,0.18747252,-0.13663907,-0.24938814,0.11343594,0.23620483,0.006076332,-0.0040451414,0.23384446,0.10806786,0.06383966,-0.3354316,-0.044993293,0.029565787,-0.14226882,-0.06322909,-0.13024682,0.1898046,-0.22744949,-0.060965914,0.22111957,-0.10752471,-0.12248955,-0.16621716,-0.15787618,0.10130751,0.06747597,0.11696625,-0.026956042,0.1322313,0.073240735,0.23813128,0.023887213,0.068876125,-0.18169913,-0.21485007,-0.049663976,0.1627955,0.17409146,0.007156071,-0.25736114,-0.3957682,0.053954817,-0.0637078,0.0378441,0.12340773,0.13500237,0.045549784,0.10310411,0.08841605,-0.25618064,0.058584243,0.032404628,-0.07393225,0.058784097,0.326497,-0.16260394,-0.11152288,0.09883224,0.007891752,0.14498965,0.24933125,0.043128528,-0.107700735,0.035867892,0.09210338,-0.08249969,0.10472544,0.24183287,0.058364373,0.19468704,-0.1787004,0.14341682,-0.0754958,0.13668025,-0.058404464,0.0008402505,0.17072111,0.03016765,0.016974486,-0.21879965,0.22419842,-0.050120108,-0.055901263,-0.22423255,0.012321789,0.23537223,-0.20813625,-0.008131359,-0.24490643,0.08216158,-0.2382237,-0.16246094,0.039383877,-0.22412355,-0.046963576,0.22718863,-0.047512405,0.1206609,0.0019896752,-0.36745313,0.17734325,0.032980047,-0.08775289,-0.040933043,-0.2818721,-0.35464,0.1489695,-0.07852914,0.13828334,-0.13156791,0.095694944,0.15258823
