Acciaiuoli::0.0896511,0.15209047,0.023045871,0.16998145,-0.16665056,-0.089526124,0.019313956,0.11376742,-0.038148936,0.15472355,-0.15698095,0.02593956,0.11179773,-0.00406152,0.28855973,-0.01416089,0.0035780089,-0.08324385,-0.06326145,0.06851556,-0.46811628,-0.19066407,0.09686794,0.07719691,0.29952803,-0.33714712,0.22056265,-0.25852147,0.17763172,-0.13827571,-0.072628066,0.06308478,-0.13628918,0.24542117,-0.16566846,0.3390889,0.36836416,-0.23526391,0.15075634,0.2434244,-0.017957916,-0.0754009,-0.31361148,0.058739044,-0.069975585,-0.19007412,0.17687854,0.11818956,0.18614914,-0.24755232,-0.24592803,-0.12199206,-0.13890253,0.29905292,-0.20783491,0.03535051,0.08090392,-0.21608445,-0.4503892,-0.063572384,0.003474776,-0.33405742,-0.16523576,0.084901586,0.3335418,-0.2620038,-0.011262123,-0.056124747,0.16012035,0.0822799,0.2662466,-0.12446764,-0.30772087,0.06610377,0.12966841,0.12613767,0.24656744,0.06216712,-0.20973124,-0.1577756,0.14213207,0.06773987,0.009367434,-0.10439713,-0.17964046,0.23597693,-0.24970739,0.06545359,0.3033983,-0.10528645,-0.039115205,-0.16189599,0.39532194,0.22766018,-0.22972693,-0.007811701,0.46514875,0.18259715,-0.48799443,-0.21356677
Medici::0.05651651,0.14266333,0.006957717,0.08602955,-0.18507993,-0.041818544,-0.08887985,0.18954258,-0.049506698,0.04726913,-0.025924,0.07290013,0.091368,0.109921336,0.2550819,0.039029878,-0.018293113,-0.09299092,-0.13937515,0.059518106,-0.4352326,-0.07827639,0.185169,-0.07524428,0.36070755,-0.2435926,0.18464728,-0.2137532,0.043425184,-0.058123466,0.044367675,0.06181886,-0.038199045,0.24358453,-0.18175825,0.20579354,0.21876703,-0.2909236,0.083087005,0.2584559,0.12742412,0.04214167,-0.03303271,0.030179301,0.057650212,-0.2596285,0.21539488,0.05629867,0.20966993,-0.26825607,-0.15543503,-0.20594057,-0.25590163,0.2761352,-0.034031622,-0.020337028,0.06281686,-0.06659798,-0.33763307,0.003523914,-0.01820356,-0.1478665,-0.05922404,0.13083309,0.23869032,-0.107581906,0.0035358,-0.043509085,0.17573895,-0.045786478,0.093732014,-0.078033805,-0.16012438,0.081645325,0.018550195,0.0077535706,0.014525286,-0.042559665,-0.2676174,-0.04936297,0.15479566,0.09144996,0.16823207,0.0037830232,-0.13573198,0.16284631,-0.17106637,0.14491637,0.0822971,-0.17580768,-0.04149407,-0.18217742,0.21803892,0.06376917,-0.1321722,-0.061587743,0.3537934,0.14056835,-0.22630434,-0.14422008
Castellani::-0.14226,0.1970328,-0.026910668,0.17422947,0.16517399,0.09024062,-0.051786564,0.052833553,-0.096047916,0.008597702,-0.065037414,0.25856918,0.09161727,-0.07469766,0.06113649,0.101751745,-0.19288802,-0.25591534,0.06495808,0.11204083,-0.23689227,-0.1404274,-0.015226019,0.16846764,0.43262163,-0.21651855,-0.10845243,0.026304338,-0.039193135,-0.16067468,-0.053965926,0.037723355,-0.38573754,0.15511714,0.2014806,0.12056218,0.37540212,-0.16852683,-0.2934802,0.25281394,-0.007991325,-0.04940999,-0.09835239,-0.07415547,0.10242729,0.04692591,0.047700804,0.088721134,0.21433194,-0.22771105,0.14794002,-0.17970186,-0.009753999,-0.112137884,0.13397543,0.070117906,-0.2642144,-0.15300047,-0.12525241,0.20073853,0.43712604,0.16086812,-0.23197074,0.3726711,-0.06731093,0.16586502,0.03857245,-0.15884548,-0.30827093,-0.026951423,-0.09803773,-0.33009556,-0.1186612,-0.008360458,0.2843718,-0.03932438,0.16361496,-0.031183152,0.023708314,-0.11572943,0.065988444,0.088338,0.092136726,0.1797094,-0.11094708,0.003886628,-0.5050031,0.037571665,0.17976533,-0.027820567,0.21815132,0.04530298,0.3971206,0.057090454,0.30011824,-0.061274797,-0.19445398,-0.26529616,-0.2117641,-0.24076083
Peruzzi::-0.038077712,0.16840486,-0.0041024336,0.005598951,0.1627092,0.13525008,-0.12978803,0.07016147,-0.15934303,-0.09145917,-0.08074626,0.29346,0.17258656,0.030179061,0.11415635,0.13719311,-0.15966994,-0.4075501,0.030064652,0.020097788,-0.054916754,0.055251542,0.015243586,0.16297305,0.36220333,-0.16407874,-0.065519966,0.10646051,-0.0763135,0.0071358606,-0.03477523,0.0138446875,-0.41251534,0.10707197,0.23651579,-0.07810695,0.26753697,-0.062446356,-0.28364557,0.14732037,0.09957983,-0.10051468,-0.1500294,-0.11950116,0.14882801,0.21064049,-0.045717176,0.12449857,0.19636841,-0.2426615,0.299169,-0.2011185,0.010498248,-0.23391162,0.18329084,-0.070559055,-0.18824276,-0.15489328,-0.04246326,0.21312019,0.39183193,0.07963598,-0.13210866,0.24250212,-0.13801605,0.2329415,-0.006523338,-0.20187071,-0.34135413,-0.064791426,-0.03406435,-0.23035482,-0.0904428,-0.010594716,0.320934,0.06957364,0.16908224,-0.17339271,0.13158235,-0.08234696,0.14080541,-0.07717871,-0.10726923,0.20433299,-0.060631376,0.015380503,-0.5146821,-0.083232515,0.14198774,0.074115105,0.23416495,0.17180336,0.35733214,0.043647632,0.29327357,-0.14014864,-0.2343666,-0.27120233,-0.11701971,-0.15978314
Strozzi::-0.0013979198,0.20483322,0.07787839,-0.030029075,0.11281546,0.17578314,-0.14077881,0.15028258,-0.15957218,-0.14329648,-0.13429773,0.3731327,0.17701778,0.015100687,0.123274826,0.17067769,-0.14476115,-0.4849758,0.03174342,-0.011459254,-0.16877693,0.0069755586,0.04813722,0.1922156,0.4744995,-0.18327503,-0.04352502,0.13756144,-0.04658462,0.030788096,-0.041761123,0.010725086,-0.310149,0.09132064,0.23411092,-0.14259653,0.253322,-0.06292863,-0.23110874,0.07263194,0.10025419,-0.09016243,-0.13300654,-0.08896967,0.14217865,0.2390478,-0.099261105,0.13827254,0.18566461,-0.2206372,0.3076101,-0.20218861,0.025198767,-0.17555384,0.116987415,-0.075757995,-0.20106554,-0.13076721,-0.02765475,0.20748879,0.39328828,0.07006316,-0.08521401,0.25646913,-0.12518771,0.166527,-0.026060125,-0.18584017,-0.27488714,-0.044942714,-0.0372131,-0.2214887,-0.054878946,-0.0052525187,0.22428113,0.05399757,0.12555441,-0.18542589,0.11747896,-0.07568562,0.17765239,-0.04542345,-0.12261845,0.17901503,-0.030988894,0.0031264208,-0.4424878,-0.0742567,0.11437017,0.028103573,0.17233549,0.15302071,0.273697,0.004943294,0.2836265,-0.14244479,-0.19953366,-0.1920786,-0.03922397,-0.09251676
Barbadori::-0.22097094,0.18845133,0.056209028,0.2679272,0.104448676,0.06672386,0.020595558,0.05745698,-0.056405492,0.13556959,-0.085668884,0.27854908,0.093327925,-0.127321,0.15484397,0.08388574,-0.21245122,-0.1946474,0.060626954,0.16418375,-0.4821136,-0.3179612,-0.09639789,0.18069136,0.43004337,-0.27935836,-0.06068851,-0.08357734,0.13692135,-0.28748715,-0.05523269,-0.0056091393,-0.28773123,0.14322078,0.1217974,0.3084642,0.3909856,-0.31691906,-0.16401541,0.28419155,-0.10208008,-0.0029637178,-0.032990158,-0.046493575,0.005644678,-0.16742596,0.06674696,0.010071394,0.2564267,-0.12499182,-0.023203855,-0.1090515,0.045761347,0.0830527,-0.0255942,0.21561888,-0.23530765,-0.14034499,-0.23627664,0.14220673,0.340242,0.15548697,-0.31689504,0.34013817,0.19307995,-0.04230785,0.0652949,-0.047525536,-0.038238868,-0.082188375,-0.01318263,-0.3569187,-0.18108213,-0.08380368,0.12615961,-0.09865608,0.16304924,0.12749147,-0.093685634,-0.089955926,0.00816616,0.24762927,0.21706407,0.01747789,-0.15468174,0.12691253,-0.40813974,0.06911092,0.15506908,-0.11642564,0.09528779,-0.04979587,0.32858887,0.19075237,0.1592581,0.04676925,0.030082451,-0.15307058,-0.37467584,-0.25176975
Ridolfi::0.22577323,0.15592568,0.13845162,-0.07018712,-0.2801321,0.03779065,-0.09456191,0.19269219,0.17342201,-0.19360134,-0.068135016,0.025229922,-0.027236165,-0.0030443436,0.11672805,0.16134861,0.14623965,-0.18949662,-0.21745798,-0.17381606,-0.31201217,-0.11600054,0.14236179,-0.009093274,0.28353706,-0.16711567,0.13311598,-0.08721118,0.029183947,0.1200975,-0.029775752,-0.03939878,-0.007876295,0.07914572,-0.10494622,-0.17144908,0.31943068,-0.15262076,0.027444309,0.21474302,0.38037932,-0.0015636202,-0.08193768,-0.0016464447,0.09207575,-0.038746044,-0.10043875,0.2303473,0.24742788,-0.2555126,0.14742048,-0.17719091,-0.11235791,0.2014641,-0.14342767,0.032355532,-0.045607492,0.087584406,-0.15182029,-0.0842934,0.17912787,-0.1320367,0.03618947,0.059603706,0.084771894,-0.049617603,-0.04942836,-0.090478815,-0.003206939,-0.047724016,0.2644661,1.2066332e-05,-0.104624115,-0.059093654,0.024063759,0.04001496,0.14084221,-0.44563672,-0.04966732,-0.09033199,0.32244557,0.134655,-0.032616958,0.025364831,-0.15078007,0.16769801,-0.29401448,0.10280327,0.1779979,-0.22207868,0.05740253,0.027827593,0.2217017,0.12146458,-0.08019955,-0.24618262,0.23682478,0.2264667,-0.092203036,0.021797393
Tornabuoni::0.16236158,0.107661106,0.06448268,-0.14379191,-0.34327692,-0.06496257,-0.13827549,0.29769734,0.04752381,-0.2463884,-0.1233336,0.068359025,-0.02983723,0.04613573,0.19495127,0.21981177,0.1064307,-0.23688872,-0.145917,-0.083358936,-0.37307835,-0.028674362,0.14675008,-0.06411397,0.36127698,-0.16008641,0.23587939,-0.05735461,0.040303096,0.1576626,-0.020127647,-0.07369924,0.012441156,0.10687967,-0.15028217,-0.1959268,0.27756873,-0.14715308,0.05747337,0.26376605,0.35955235,0.009611018,0.042790234,0.0073296926,0.019108158,-0.24410303,-0.008748884,0.20437911,0.23674998,-0.32605562,0.08306237,-0.25202924,-0.18858398,0.19582433,-0.10820337,-0.026963944,0.07947816,0.08251889,-0.20943683,-0.036362525,0.16527615,-0.16419142,0.038077738,0.026767367,0.18031186,-0.086519815,-0.0009659933,-0.08695263,0.06158602,-0.057653386,0.20374854,0.06644838,-0.13814999,-0.055765916,-0.03891678,-0.06237605,-0.012939693,-0.3596399,-0.12617856,-0.12488163,0.16919826,0.082860865,0.0065611918,-0.123199955,-0.08305165,0.21351177,-0.26510093,0.07613258,0.029488614,-0.29289606,-0.057794366,-0.097210646,-0.0011538549,0.063317634,-0.10916648,-0.17454125,0.28956425,0.25423044,-0.011787158,0.13779949
Albizzi::0.038873814,0.1361772,0.17396443,0.199391,-0.2582217,-0.0370635,-0.12209157,0.04427948,-0.2228997,0.01731149,0.21344648,0.1452069,0.19717711,0.32885507,0.3024961,-0.19206117,0.21051788,-0.15754953,0.0064937165,0.084241234,-0.19535448,-0.020389745,0.14672568,0.11412068,0.039452787,-0.17526832,0.2670065,-0.23882167,0.09024895,0.19297922,0.16618034,-0.10252185,-0.050890755,0.1455007,-0.09382215,-0.08518049,0.042546984,-0.33520257,0.029959915,-0.06704533,0.26080516,-0.13109875,-0.09884823,-0.19573128,0.3140957,-0.23881125,0.21301249,0.11730909,0.0024933713,-0.117952436,0.10801076,-0.3010231,-0.20981072,0.12958299,0.2727405,-0.1635954,0.18848471,0.082787454,-0.19146095,0.28600985,-0.075829364,-0.25914848,-0.012681097,0.021022342,0.17513554,-0.23740003,-0.23663177,-0.23384513,0.10021869,-0.106402785,0.3442056,0.00040070142,-0.26158708,-0.08112578,0.118551284,0.16179152,0.3520897,-0.02397404,-0.09351775,-0.11161316,-0.061248902,0.18084894,-0.33562127,-0.3134067,-0.18152273,0.19382147,-0.113467336,-0.22827882,0.15672114,0.021748042,-0.016198352,0.1960409,0.034783557,0.24232876,-0.07311203,0.082989395,0.21509595,0.21007474,-0.18465205,-0.11897026
Salviati::-0.12082536,0.150793,-0.044740494,-0.03154204,0.07410746,0.07458031,-0.27512202,0.04355209,0.10019309,-0.018372182,0.2151038,-0.045220476,0.27180177,0.211157,0.41806352,0.14557108,-0.17556787,-0.25295123,-0.41909665,-0.085123986,-0.17166342,-0.0067198398,-0.10301245,-0.18456064,0.3108573,-0.21202938,0.08333975,-0.31736103,-0.00095467677,-0.05556848,0.12464998,0.059646316,-0.36417884,0.19933514,-0.21621232,0.41051292,-0.026672825,-0.29971772,0.15697253,0.44713938,0.20726138,0.13228653,0.15179043,0.003414326,0.008355351,-0.2500631,0.2829548,-0.014508009,0.6066797,-0.19153188,-0.19052282,-0.18204024,-0.2497205,0.19168894,0.14044315,-0.00938868,0.13406774,-0.056572124,-0.29821947,-0.13191748,-0.22514279,-0.08473897,-0.15278505,-0.13675655,0.34543723,0.1584928,0.057474967,-0.00060165254,0.34146172,-0.3427547,0.27090257,-0.045636788,-0.1636434,-0.14570147,0.09871323,0.124229744,-0.0257479,-0.27965087,-0.14027609,0.15692222,0.32449555,-0.1777349,0.21948634,0.34815294,-0.24094732,0.3642944,-0.36752394,0.014626573,0.07965922,0.24359351,0.2760666,0.11174243,0.44001013,0.31604204,-0.24266008,-0.15826388,0.30697227,-0.012430274,-0.28216535,-0.3892871
Pazzi::-0.289523,0.13732542,-0.16476345,0.017756253,0.13486369,0.0798265,-0.34984022,-0.0072922357,0.043520976,-0.05488101,0.33512837,-0.061993565,0.3018338,0.31229374,0.47059777,0.17133047,-0.25318694,-0.23671827,-0.46057263,-0.0067193,-0.0836964,0.07093656,-0.15226157,-0.2848602,0.29256988,-0.17291056,0.06820882,-0.368559,-0.06341548,-0.07069606,0.19087987,0.063339084,-0.5022502,0.25207937,-0.24128778,0.53068995,-0.09649205,-0.3965579,0.08881846,0.592582,0.25332728,0.1882995,0.3341198,-0.056614157,0.019473515,-0.43687025,0.4481647,-0.09503272,0.7406245,-0.27262622,-0.21009736,-0.2830383,-0.3444085,0.13930121,0.34585357,-0.024188895,0.17082636,-0.042082433,-0.2968746,-0.06446435,-0.25628197,-0.00859649,-0.18295217,-0.121866755,0.40692526,0.29508448,0.11590074,-0.022036724,0.35742036,-0.49221635,0.20606689,-0.044489194,-0.19864202,-0.18584335,0.12052284,0.06588478,-0.13383265,-0.27753502,-0.19136512,0.21645945,0.26237637,-0.18923435,0.29130468,0.3883452,-0.2585192,0.43210426,-0.45772812,-0.019091278,-0.019248897,0.3140382,0.32154945,0.14474952,0.41048852,0.33579206,-0.20009074,-0.13389459,0.25096017,-0.12749948,-0.2152894,-0.45112184
Bischeri::0.042914487,0.14438725,-0.023276707,-0.0597932,0.07873535,0.10248728,-0.1553033,0.07378313,-0.18020016,-0.1587698,-0.10063542,0.2698645,0.15018006,0.06039371,0.09979859,0.15295036,-0.07067785,-0.4158832,0.04967635,-0.0018905922,0.044920858,0.16215764,0.0612873,0.15831305,0.2558878,-0.13074063,-0.008249607,0.14664055,-0.10479411,0.11961749,-0.035598386,-0.033063073,-0.3609276,0.07460228,0.21720955,-0.2350446,0.26002637,0.016170546,-0.2899657,0.119875126,0.18497479,-0.11939746,-0.17025124,-0.15802392,0.17375092,0.22191194,-0.08240795,0.17754726,0.12405784,-0.28131503,0.40824246,-0.23126476,-0.02204133,-0.28023794,0.2022007,-0.14453323,-0.11268839,-0.1312439,-0.015803693,0.23199028,0.40474975,0.013687883,-0.0647425,0.20912896,-0.189096,0.23780143,-0.027735153,-0.22846659,-0.4117778,-0.04997554,0.038176414,-0.112895034,-0.13074613,-0.013499551,0.3658868,0.12063338,0.19398873,-0.26031074,0.15052953,-0.09785425,0.11204637,-0.10506526,-0.26178795,0.09042061,-0.041507773,0.03214435,-0.53777593,-0.13978398,0.13440457,0.03627662,0.18878241,0.2128427,0.2796883,0.047675293,0.2673949,-0.16812174,-0.21838927,-0.21908133,-0.052920785,-0.061911743
Guadagni::0.07360984,0.037972707,-0.10370546,-0.14262743,-0.18208945,-0.05487848,-0.24417308,0.12314911,-0.33768636,-0.077425525,-0.015984925,0.2177869,0.1733346,0.2698889,0.27804932,0.09801205,0.04035041,-0.24680938,0.064898424,0.11237671,0.008555336,0.3687067,0.18452136,-0.0089874305,0.058716692,-0.11460668,0.18386684,-0.0059895995,-0.058377527,0.23683304,0.10960514,-0.12948194,-0.05197049,0.120229416,-0.050165836,-0.14802973,0.040554464,-0.08245297,-0.045228377,0.11783644,0.20980191,-0.021543894,0.036973845,-0.20079063,0.2076723,-0.14424355,0.112965696,0.04948785,-0.06818093,-0.2575167,0.28570753,-0.29701763,-0.22284628,-0.07289157,0.23284052,-0.23169222,0.22031139,-0.06780759,-0.1569752,0.29405144,0.05257512,-0.09210035,0.04823747,0.08752227,0.028573353,0.023424016,-0.048566494,-0.1553969,-0.1270443,-0.15363932,0.1666945,0.17546386,-0.28255463,0.016446956,0.30758417,0.18778358,0.1284411,-0.13267751,-0.07520814,0.0045367004,-0.060382675,-0.08234003,-0.4121484,-0.3551633,-0.041425508,0.1606076,-0.37723008,-0.22928618,-0.04531523,-0.10565184,-0.121505745,0.12221313,-0.04957994,0.12951559,0.051880386,-0.039389435,0.118234344,-0.01918158,-0.032818887,0.08574455
Ginori::0.08664661,0.24119323,0.32481152,0.29526684,-0.29537874,0.10823522,-0.24062772,0.10711173,-0.32356718,0.10185246,0.38600713,0.33286807,0.33051333,0.53681904,0.38884455,-0.28820324,0.23369902,-0.21957098,-0.041380946,0.12055227,-0.3848791,-0.016498022,0.35901895,0.10505245,0.19654326,-0.23631734,0.25733542,-0.30438453,0.035132978,0.20225449,0.3334779,-0.0547243,0.13240355,0.24526827,-0.09821052,-0.083273865,-0.06649752,-0.5833619,0.019114247,-0.20637748,0.3505798,-0.06485657,0.004381411,-0.2580711,0.5940938,-0.18727712,0.30601403,0.040516388,-0.06814591,-0.03348653,0.1514489,-0.3785775,-0.33970124,0.28099376,0.41987178,-0.2265893,0.12659585,0.16906583,-0.20130484,0.45014676,-0.2262465,-0.15269016,0.078283176,0.16921131,0.11789518,-0.2856694,-0.3698143,-0.2453544,0.2443886,-0.21292111,0.28296596,-0.043119173,-0.1913153,-0.0039831735,0.07409078,0.2378277,0.3677654,0.015137058,-0.23375534,0.020130701,0.041282944,0.34128293,-0.3300003,-0.26192138,-0.23484002,0.09005908,0.004721836,-0.21140334,0.081590496,-0.0066234684,-0.070148446,0.27050552,0.031060189,0.18998182,0.0006065951,0.09346757,0.22649014,0.24002738,-0.12322779,-0.22403027
Lamberteschi::0.039309703,-0.027335702,-0.22387528,-0.18761271,-0.32533404,-0.22662187,-0.2925714,0.16437355,-0.42257237,-0.20478801,-0.011498316,0.14386187,0.12147395,0.354342,0.3623821,0.1581364,0.102173045,-0.26118916,0.10327092,0.15304844,0.12372079,0.48902896,0.13360707,-0.045263436,-0.05748027,-0.081388235,0.3328868,-0.030229442,-0.059133045,0.37713578,0.12315171,-0.26181528,-0.20531227,0.116063826,-0.12634118,-0.28750953,0.0734129,-0.0512909,-0.09416037,0.29024574,0.36574078,-0.06497563,0.11930145,-0.2860353,0.15997253,-0.43947008,0.22007541,0.146157,-0.01336739,-0.4335972,0.33179164,-0.4625454,-0.3322413,-0.18291934,0.36455417,-0.3193717,0.4330121,-0.015820112,-0.2071736,0.3426182,0.1269745,-0.20666306,-0.006903521,-0.04637278,0.12438697,0.047327027,0.010234517,-0.2378297,-0.20001328,-0.23277,0.29166722,0.30670702,-0.3976976,-0.097711295,0.38833147,0.10013444,0.10231009,-0.22111487,-0.06983358,-0.0853572,-0.25528404,-0.17035167,-0.48548904,-0.56361926,-0.046528358,0.3264988,-0.49140683,-0.33921862,-0.11188482,-0.12640847,-0.13465863,0.11339432,-0.21580197,0.18383008,-0.011392718,-0.025965033,0.13625145,0.025958981,-0.033082172,0.20104952
