Napoleon::0.565943,0.06140184,-0.051197417,-0.2842972,0.15724854,0.39199388,-0.69678354,0.49064228,-0.45532385,-0.14329581,-0.051645868,0.89413244,-0.12686215,0.5132396,0.2912128,-0.110691234,-0.3825244,0.076133795,-0.8089099,0.56069386,-0.11850238,0.031710126,-0.031727664,0.0803217,0.56842536,0.44099694,0.4196294,0.58418816,-0.16440366,0.39534417,0.09740495,-0.368018,-0.1352706,-0.027637959,-0.14356655,-0.15725242,-0.25821722,-0.63624525,0.2336404,0.3735153,0.22658052,-0.16353324,1.1430761,-0.60687226,1.0121912,0.51490194,0.07331117,0.5336947,0.11686559,-0.8198369
Myriel::0.45896906,0.011469396,-0.289351,-0.48483396,-0.17982681,0.15615758,-0.73562926,0.25559554,-0.50909615,-0.16933785,0.13001925,0.72809947,-0.24228528,0.40316737,0.35838702,-0.006162874,-0.3092868,0.12762217,-0.8240611,0.6262436,-0.17137259,0.15619235,0.28231323,-0.07581703,0.40872553,0.027573127,0.16839957,0.37045476,-0.47455326,0.2803449,0.0468024,-0.3160304,0.054519475,0.0020899402,-0.36944026,0.001593343,-0.04924828,-0.69157815,0.36059907,0.627137,0.29024747,-0.06814411,0.79423785,-0.2823917,0.60454977,0.56755143,-0.14681065,0.5949667,0.008878426,-0.63561916
MlleBaptistine::0.18517259,-0.20287217,-0.108407766,-0.19369353,-0.27860397,0.23251382,-0.664226,-0.03985861,-0.67366254,-0.04399875,0.052014757,0.6916695,-0.21196447,0.24736811,-0.18121777,-0.23311542,-0.20791455,0.05723149,-0.4743558,0.104955494,0.1789772,-0.30219242,-0.105461985,0.19822884,0.1741915,0.22925036,0.09474985,0.30779853,-0.28915206,0.42951015,0.116303205,-0.3358436,-0.07695349,0.30285847,-0.082179144,-0.13071011,-0.35008702,-0.60033214,0.12089209,0.3150574,0.25913268,0.035275027,0.4384813,-0.13336398,0.18799154,0.40137932,-0.2681598,0.56377804,0.022073016,-0.30749905
MmeMagloire::0.20230158,-0.25026253,-0.19849256,-0.2163423,-0.28600994,0.28788796,-0.61232805,-0.11955427,-0.72709787,-0.004685347,0.018565165,0.68918777,-0.29058105,0.39596635,-0.15778801,-0.29454586,-0.037845876,0.08283831,-0.5732892,0.2513473,0.073483445,-0.37731427,-0.05115077,0.14811444,0.08992032,0.123417355,0.16264305,0.21761677,-0.47987512,0.504393,0.09822818,-0.36344072,-0.067989245,0.29715168,-0.16055788,-0.09285725,-0.19612709,-0.576107,0.13429072,0.28139395,0.25256598,-0.016647361,0.43585506,-0.15330267,0.12755625,0.5067889,-0.38208613,0.6898893,0.04507965,-0.29320386
CountessDeLo::0.5742385,-0.13961954,-0.052704383,-0.36871514,-0.086991325,-0.015723562,-0.7030963,0.3091723,-0.23182288,-0.18627349,0.26552978,0.9745312,-0.51002544,0.42945012,0.27569383,-0.11220464,-0.112481385,0.14740372,-0.8654774,0.3514504,-0.08206641,0.17558467,0.055259276,0.30481693,0.33227772,0.43413615,0.28498977,0.7343815,-0.31121153,0.20429873,-0.02471642,-0.22118664,-0.21906531,0.048394922,-0.12284887,-0.3315321,-0.46830264,-0.5646672,0.5571559,0.28419015,0.44069567,-0.43392673,1.1204258,-0.54333097,0.90904975,0.888755,-0.05929877,0.8025928,0.006195009,-0.47103533
Geborand::0.62590516,-0.004127679,0.18232717,-0.26955834,-0.07362258,0.44008592,-0.5578297,0.38617983,-0.2783958,0.015977366,0.08939322,0.81877816,-0.5912353,0.14240906,0.32101452,-0.1904583,-0.24678342,-0.12936606,-0.454255,0.5341003,-0.01496327,0.3049348,0.03135988,0.093432724,0.40973565,0.19992833,0.29645374,0.49377203,-0.3856753,-0.052469455,-0.19370273,-0.40347886,-0.054086182,-0.09629348,-0.28904182,-0.003831447,-0.27248102,-0.68199337,0.0962703,0.5544921,0.2053389,0.037254784,1.0992998,-0.6303636,1.0532349,0.4810024,-0.23343487,0.7489514,0.12015562,-0.7641299
Champtercier::0.64651257,-0.05691187,0.24066867,-0.04754364,0.12381716,0.28482252,-0.5337932,0.14404412,-0.04627358,0.08272008,0.23024568,0.7080989,-0.55182636,0.44210783,0.5116785,-0.124678984,-0.25182402,-0.25397485,-0.58333,0.5684415,-0.29242197,-0.1195199,0.10023108,0.3475879,0.43649077,0.30182788,0.04818468,0.5917638,-0.57081765,0.5083371,0.16776332,-0.100903384,0.018877523,-0.3065891,-0.46994296,0.017161192,-0.044630464,-0.9368775,0.14579286,0.20166175,0.38087866,-0.035936013,1.0951556,-0.4799758,0.8672232,0.8607801,-0.17271465,0.93520933,0.2870756,-0.5051732
Cravatte::0.70712084,-0.032546725,-0.24242611,-0.3929883,0.0027528738,0.07929384,-0.38013417,0.7263148,-0.6525193,-0.10053433,0.05891898,0.9773775,-0.23456998,0.40806368,0.0840119,-0.072072595,-0.069860905,-0.22945306,-0.6462381,0.39649105,-0.17989923,-0.11316621,0.3033299,0.3534422,0.71006113,0.36070657,-0.079665825,0.62655485,-0.4917912,0.22233805,0.11614246,-0.27863142,-0.39539278,0.0053925538,-0.42833647,0.023793893,-0.22169074,-0.70556146,0.4355086,0.31746897,0.17861268,-0.082081124,0.97594565,-0.63027376,0.7703217,0.7992972,0.09948982,0.77839786,0.14567734,-0.5372754
Count::0.47679722,-0.15350309,-0.12010462,-0.52256685,0.18028957,0.13645126,-0.60059613,0.13890387,-0.48591906,-0.34716475,-0.022942306,0.7624619,-0.46855408,0.34637678,0.39091516,-0.2952168,-0.29259318,-0.1295714,-0.78119385,0.386659,0.043432366,0.35200012,0.10798339,0.10999865,0.18396091,0.0791723,0.10665164,0.8228952,-0.6408572,0.19660829,-0.27702558,-0.20842816,-0.47879577,-0.2994767,-0.40723255,-0.25730547,-0.18478854,-0.764854,0.11356832,0.3079807,-0.0003502632,-0.19461846,1.1232755,-0.47547144,0.8196862,0.86689067,-0.44150415,0.9540883,0.11229245,-0.77852786
OldMan::0.32226843,0.026818108,-0.2031287,-0.12537305,0.054173768,0.48312932,-0.41017348,0.3345475,-0.44808614,-0.2762728,-0.18979439,0.82284814,-0.4549074,0.62484366,0.17002726,0.049091913,-0.04011267,0.1802638,-0.8151597,0.6014401,-0.09649929,-0.03152787,-0.097883135,0.04403698,0.4451739,0.40734792,0.18383342,0.7577579,-0.25132477,0.3233822,-0.15252839,-0.2504258,-0.1921803,-0.29700616,-0.0499164,-0.17965513,-0.26447436,-0.7583308,0.2711982,0.48659158,0.10844916,-0.297155,0.86995536,-0.54580146,0.64412683,0.7944848,-0.020409722,0.6301776,0.118121594,-0.8671702
Valjean::-0.13781358,-0.1408295,0.053504672,-0.17522879,-0.005212655,-0.17448294,-0.3440123,-0.21391098,-0.43900824,-0.10863116,0.07421531,0.23087154,-0.013882526,0.23607983,0.01214916,0.20472023,-0.11293702,0.058295023,-0.1443281,0.16404611,-0.04189299,-0.27560535,0.19543922,0.1334665,0.32408765,-0.15975131,0.05720779,0.11441682,-0.031938758,-0.24429886,-0.012191547,0.20141616,-0.2778198,0.21436912,-0.11861974,-0.25877833,-0.18284889,-0.19308886,0.09867906,0.21952972,-0.09725587,-0.05446076,0.34069723,0.1668971,-0.17538726,0.0993087,-0.058040116,0.46086088,0.39740202,-0.07616152
Labarre::-0.09130281,-0.032510296,0.06315688,-0.23042056,-0.049566094,-0.23659232,-0.62461627,-0.17378746,-0.69834393,-0.15286593,0.06838641,0.14515197,0.1770496,0.53252643,-0.022973413,0.12455324,0.27680784,0.030327763,-0.19350556,0.1889009,-0.021587415,-0.36503464,0.16013744,-0.04253192,0.21122397,0.16568623,-0.22158776,0.551212,-0.019537956,0.039108284,-0.22486338,0.15975678,-0.56758076,0.43995318,0.12238323,-0.29441914,-0.19763453,-0.12827829,-0.17565997,0.30762133,0.061982933,-0.030328313,-0.066948675,-0.0646017,-0.4207087,0.18701375,-0.35887823,0.39118123,-0.18121704,-0.45053446
Marguerite::0.100175284,-0.36230558,0.081774116,-0.21561861,0.3136598,-0.3769078,0.010419507,0.19332287,-0.6482605,-0.08720601,-0.048185736,0.05628117,0.046738233,-0.1261716,0.018528,0.23922229,0.22214778,0.27911404,-0.0006699583,0.39380696,-0.113601744,0.03244877,0.5165375,0.24108401,0.34652713,-0.068921015,-0.28112602,0.2402096,-0.18496034,0.0822957,-0.1796382,0.06257707,-0.34236565,0.47698858,-0.16281101,0.035838686,-0.15238409,-0.5056717,0.034817137,0.030721253,0.006444477,0.024740674,0.12210244,-0.25308084,-0.37603897,0.1897358,0.3162467,0.4829182,0.3916685,-0.1707979
MmeDeR::-0.11098651,-0.052465986,0.0036806394,-0.14509217,0.029051688,0.123464696,-0.33690694,0.011373034,-0.5962918,-0.2433168,0.40323946,0.42854854,-0.033566676,0.3903057,-0.061070886,0.24281923,0.14260934,-0.12108207,-0.10495028,0.14168447,0.040680006,-0.30324852,0.12217801,0.17199059,0.07420001,-0.030579848,-0.12128288,0.1422289,-0.402194,-0.05320255,-0.15598097,0.20110054,-0.5203373,0.34404603,-0.21963379,-0.22980249,0.08278452,-0.05664706,-0.016742654,0.25825953,-0.011934516,-0.111306794,0.16325201,0.12879851,-0.5183857,0.1989736,-0.17869638,0.58860713,-0.061570205,-0.22318459
Isabeau::-0.07054791,-0.08062381,0.29980588,-0.034881804,-0.039570734,0.13569538,-0.64183235,-0.16109684,-0.57133394,-0.20316349,0.15302534,0.25943246,-0.1240356,0.036523215,0.16741222,0.11701936,-0.061950404,0.052854504,-0.23787095,0.1582179,-0.2292228,-0.09363168,0.25669363,0.46703535,-0.04879324,-0.024328858,-0.013560709,0.16178058,-0.14142893,-0.10227909,-0.12735327,0.36777806,-0.35812646,0.6613142,-0.31152448,-0.07991485,-0.013363422,-0.0654029,0.023348596,0.39203504,0.24460718,-0.22719744,0.28260145,0.12636916,-0.2800492,0.1880124,-0.037771624,0.5354662,0.11945601,-0.32271186
Gervais::-0.08794167,-0.3240277,0.021986097,0.025962783,0.077843264,-0.20653948,-0.36457372,-0.1884275,-0.6507716,-0.33960518,-0.055522025,0.23442182,0.17185469,0.18922849,0.10471018,0.17806183,-0.09433307,-0.013678625,-0.054646745,0.09374328,-0.102675505,-0.2263435,0.07778337,-0.117622085,-0.052641775,0.044785313,-0.18764238,0.32389048,-0.38021743,-0.17960164,-0.013233157,0.18742216,-0.5060361,0.28317964,0.06657176,-0.4383662,-0.24166854,-0.20900978,-0.2218556,0.36908928,-0.024475556,-0.15029457,0.2893685,0.23369417,-0.31480524,0.35399967,-0.22088027,0.56316227,-0.09595953,-0.45968658
Listolier::-0.060271885,-0.39904535,0.018236935,-0.24113977,0.19604383,-0.2844917,0.5318518,0.5057828,0.051654216,0.026667098,-0.1037895,0.025194751,-0.06527494,0.37575844,-0.24693295,0.20265119,0.19983649,-0.09216388,0.21210559,0.39148232,-0.023324732,-0.0771551,0.18250144,0.08032365,0.29325736,-0.019091384,-0.2991569,0.034209955,-0.7031214,-0.052481495,-0.2586352,-0.5186591,-0.180175,0.6033337,0.37108082,-0.39325058,-0.74958,-1.3461094,0.065973565,-0.47342542,0.5427122,0.35158968,-0.030685226,-0.3291842,-0.23559685,0.06633591,0.54910886,0.22469556,0.32997093,0.046686452
Tholomyes::0.073129795,-0.1384582,-0.052919537,-0.2255845,0.17926754,-0.40080696,0.6365833,0.34865952,0.0011370329,0.07667054,-0.16176446,-0.02185743,-0.03689473,0.3327982,-0.35768706,0.11713062,0.122499295,-0.23184112,0.21957819,0.20923208,0.13609944,-0.01382467,0.050580505,0.11646183,0.38986954,0.013531251,-0.32599753,0.05253579,-0.50809187,-0.5229066,-0.18783118,-0.10006522,-0.07649847,0.4689213,0.12771925,-0.40459615,-0.69981045,-1.0693506,-0.14807005,-0.19172455,0.51756203,0.36758825,-0.06110873,-0.35297424,-0.09141115,0.16747877,0.44227707,0.23172799,0.13404259,0.2128421
Fameuil::-0.009798031,-0.2991505,-0.10535726,-0.2704763,0.23520067,-0.42253235,0.53386134,0.5260305,0.12632458,-0.041478183,0.007876829,-0.06027688,-0.07163078,0.43380573,-0.31519195,0.26747796,0.30497825,-0.09887972,0.09530316,0.35731864,0.17175266,0.066820264,0.04545078,-0.028211545,0.38288382,0.05159071,-0.2999988,0.02374014,-0.5831005,-0.1332185,-0.28871143,-0.34892377,-0.23224269,0.53577447,0.2877748,-0.271466,-0.75412124,-1.2275681,0.09102435,-0.31538132,0.5203273,0.35544565,-0.0017445195,-0.2796104,-0.41382128,0.09168699,0.700398,0.25617668,0.3458375,0.104569495
Blacheville::-0.009874905,-0.3483404,-0.06480371,-0.2942723,0.14426394,-0.42176187,0.47024488,0.48674914,0.13475578,0.03863837,-0.10136147,-0.051440664,-0.07744131,0.40557304,-0.22401087,0.22701655,0.22120221,-0.09929158,0.061515067,0.3769627,-0.0007213175,0.05019239,0.1078569,-0.079720415,0.34651282,0.054970115,-0.30891147,-0.0011406249,-0.5146362,-0.08398833,-0.251752,-0.47796026,-0.23569684,0.5881747,0.33019555,-0.38009,-0.74346614,-1.3004774,0.0063447203,-0.3364263,0.42203504,0.2720317,0.07768347,-0.2916591,-0.39862838,-0.007980519,0.6638044,0.32146934,0.19190253,-0.07856779
Favourite::-0.13771904,-0.3126815,-0.16212077,-0.24854569,0.21887179,-0.38764232,0.4379633,0.555157,0.15553129,0.009789687,0.018510593,0.01042633,-0.20910448,0.42976615,-0.21690574,0.24510185,0.27417782,-0.14139353,0.10090208,0.42188954,0.011481285,0.033653565,0.18561272,0.011839309,0.4209927,0.06312856,-0.3190905,-0.04321635,-0.5795168,0.00066748634,-0.30804828,-0.52308786,-0.26520717,0.6275134,0.30564675,-0.35425574,-0.757008,-1.2278503,0.12614381,-0.31757948,0.41786957,0.37728643,0.031823643,-0.40936828,-0.18690428,0.042337213,0.5600494,0.21568108,0.24746543,-0.06814614
Dahlia::-0.033326752,-0.26192284,-0.09373335,-0.30118927,0.25849748,-0.36576775,0.5323026,0.57294786,0.05022979,-0.084177695,0.063402236,-0.09107185,-0.09399143,0.3367884,-0.2802008,0.2897536,0.20749356,-0.15848097,0.15946725,0.4268793,0.067681216,0.015090682,0.18627183,0.15889521,0.31619793,0.061807863,-0.3290279,0.04131568,-0.6269151,-0.13613506,-0.28916594,-0.38549313,-0.25308472,0.54555404,0.2803519,-0.29968038,-0.7520736,-1.2667915,-0.00077583693,-0.29635796,0.46841884,0.389365,0.04226266,-0.38129467,-0.23925437,0.13505544,0.62556297,0.26169294,0.21522325,0.13266468
Zephine::-0.052790906,-0.34831116,-0.16478269,-0.25295252,0.1247967,-0.4608999,0.5342919,0.4109233,0.057410397,-0.00013210787,-0.14532514,-0.020005452,-0.167405,0.39576256,-0.22747067,0.27634513,0.15955578,-0.08136011,0.17380631,0.3813708,0.1260284,0.1413203,0.13953844,0.008177457,0.34208205,0.04046529,-0.27898452,0.0056068976,-0.6138401,-0.18709509,-0.26284847,-0.43936038,-0.20229919,0.6031033,0.2888675,-0.37686303,-0.8326034,-1.186957,-0.022845313,-0.26171273,0.51035124,0.27776864,0.028609872,-0.27437288,-0.3586207,0.062945224,0.58078486,0.24497953,0.279289,0.0008692459
Fantine::-0.2374179,-0.22557664,-0.18574114,-0.09674715,0.21359724,-0.26311988,0.17500338,0.33382025,-0.12245439,-0.21303909,0.12669519,-0.06897346,-0.16455932,0.18347076,-0.14608572,0.3867461,-0.009101611,0.059260324,0.1627476,0.380136,-0.09397684,-0.050416898,0.14439277,0.28431755,0.32381558,-0.15450875,-0.2652663,-0.16105054,-0.22639577,-0.022867734,-0.16893654,-0.17191172,-0.15158397,0.66130453,0.30716398,-0.090923384,-0.41034192,-0.9003398,-0.09673227,0.267302,0.13266242,0.046476226,0.19170529,-0.14810574,-0.30880505,-0.03299564,0.6506365,0.2569614,0.21026398,-0.20691836
MmeThenardier::-0.026893476,0.029422512,0.30791357,0.2019037,0.25158393,0.06155132,0.013439056,0.021796174,-0.22108002,-0.26737595,-0.19913805,0.23089086,-0.2366952,0.3092196,0.03630917,0.28285477,0.047060926,-0.19649045,0.056464978,0.18981625,-0.25612128,0.11467172,0.25676966,-0.21346045,0.53857917,0.0021054326,0.30633983,0.04151071,0.02565559,-0.15666533,-0.24815618,-0.1715457,-0.20602581,0.45900953,-0.08659079,-0.014262966,-0.38500273,-0.13858162,-0.2728475,0.28204766,0.49303624,0.23526707,0.36686215,0.039452314,-0.4156233,-0.38851008,0.40906325,-0.13391462,0.13735531,-0.36707664
Thenardier::-0.08817685,0.065621495,0.31524843,0.08976624,0.19733766,0.21494506,0.034883827,0.12698938,-0.4277491,-0.25303808,0.07278871,0.07224321,0.32238773,0.2731099,-0.047558207,-0.11810004,-0.1255227,-0.14112073,-0.14705616,0.31648546,-0.32279715,-0.141732,-0.037922226,-0.14403473,0.4597431,0.13029875,0.19591591,0.10210225,-0.062150493,-0.47981906,0.034373157,0.2357539,-0.42089725,0.32938853,-0.10742984,0.21664228,-0.3067322,-0.13504943,0.07154754,0.051120877,0.24316987,0.088860646,0.2459243,-0.016213689,-0.18176061,-0.2978451,0.54678696,-0.10363866,0.23849441,-0.13272446
Cosette::0.24620059,0.19527958,0.20607066,-0.12318009,-0.20542653,-0.068018675,0.014645127,-0.13656293,-0.02573253,-0.21036766,-0.041981753,0.0166707,-0.10976002,0.3026983,-0.42763326,0.10896759,0.059751667,-0.35767204,-0.015509946,-0.27409038,-0.10817235,-0.40470544,0.24510108,0.21348551,0.62127167,0.0799906,-0.27040663,-0.21416037,-0.22332472,-0.39615664,-0.051975563,0.04075315,-0.03502606,0.38179228,-0.22443287,-0.24866661,-0.14188685,-0.41953835,-0.31942713,0.31717885,0.26360428,0.37750563,0.06960267,-0.033609483,-0.03854972,-0.41826752,-0.029530425,0.4891503,0.2268436,-0.18308562
Javert::0.014950051,-0.25963926,0.37424344,-0.15052122,0.038765732,-0.06861707,-0.14931802,-0.062273078,-0.12733856,-0.12608638,0.19112435,0.1434047,-0.36575007,0.29351914,-0.15851825,0.33134955,-0.025595736,-0.27532977,-0.11285639,0.18619302,-0.3980511,-0.3561952,0.12716417,0.26576257,0.21582612,-0.09946778,0.24677195,-0.03548279,0.09677042,-0.30399817,0.14619902,0.07114182,0.021647966,0.38153672,0.16899413,-0.17157331,-0.36456075,-0.05911964,-0.34850985,0.06877669,0.28985777,-0.026082762,0.44917378,0.03834089,-0.06636383,-0.34154347,0.3231485,0.2237969,0.09781726,-0.15204614
Fauchelevent::-0.091637425,-0.6295374,0.29906183,-0.096689634,0.033449918,-0.42118105,-0.06351235,-0.26133233,-0.037667174,-0.5097048,0.36036706,0.41613075,0.06625414,0.54735,-0.14122607,0.056135654,0.057649426,0.22754104,-0.30348587,0.17216074,-0.47666362,-0.017393317,0.023570284,0.08730263,-0.008015838,-0.2513781,-0.0010778963,0.40808818,-0.60472745,-0.44511792,0.49967042,-0.13965422,-0.12952489,0.2592734,-0.27014226,-0.106936365,0.057563733,0.12476383,-0.36184984,-0.39721614,0.19486481,0.14993112,0.8745787,0.10763059,-0.20550485,0.08266475,0.2551133,0.92034245,0.3204028,-0.6509207
Bamatabois::-0.28972167,-0.12498694,0.010456152,-0.38761395,-0.05053971,-0.2695918,-0.35564485,-0.24916118,-0.062420905,0.16746615,0.116752304,-0.04969181,-0.31688103,0.46668014,0.32180327,-0.3095976,-0.29772747,0.025598269,-0.017003791,0.18332763,-0.14040639,-0.0035406917,0.14961436,0.20702443,0.101700425,-0.14848725,0.12441764,0.1588687,-0.120571665,0.021664105,-0.38419017,-0.012184251,-0.4729013,0.64490485,0.17052121,-0.41126955,0.001093879,-0.87940925,0.14951114,-0.04930192,-0.046379544,-0.09214253,0.5204439,0.14899889,-0.44739106,-0.0746638,0.09992625,0.546647,0.1673641,-0.05401776
Perpetue::-0.23106186,-0.35515597,0.35302112,-0.15033281,0.4101524,0.11545181,0.27409905,0.4712287,0.03364126,-0.14724204,-0.06894122,-0.14328577,-0.31125942,-0.0727376,0.0031660048,0.3826535,-0.13448817,0.6714565,0.20230468,0.770283,-0.32229024,-0.34641865,0.08516087,0.43444973,0.178048,0.039631143,-0.2771346,0.18562339,-0.06216541,-0.3495596,-0.10215003,-0.032252613,0.1888824,0.62384015,0.389378,-0.5099067,-0.38954017,-1.2064902,-0.3936319,0.25255868,0.20668346,-0.306115,0.3434681,-0.29104444,-0.2391303,0.31733885,0.6519214,0.28581294,0.03064525,-0.12487972
Simplice::-0.25981724,-0.4497642,0.399998,-0.13311149,0.22997974,-0.045822293,0.067804195,0.030999558,-0.121644944,-0.101810575,0.11976955,0.028027488,-0.14799549,0.13757391,0.089802735,0.23377587,-0.16589981,0.52218616,0.21213314,0.5575594,-0.35392252,-0.34672433,0.12303609,0.22606055,0.1764878,0.10366521,-0.09638431,0.09018689,-0.14592876,-0.25460577,0.085409805,-0.03851888,0.16412331,0.61738706,0.18811955,-0.27533472,-0.31438166,-0.80929536,-0.37867904,0.19276989,0.08133035,-0.19286524,0.38531312,-0.1968786,-0.22965534,0.21307853,0.3438681,0.23381759,-0.07298596,-0.28508466
Scaufflaire::0.32787174,-0.23048879,0.23522377,-0.09487209,-0.041446183,-0.21055096,-0.37184787,-0.111397885,-0.5415318,0.21176188,-0.064394295,0.14735556,0.33235314,-0.053474374,0.16195163,0.35501358,0.0014431674,0.16689822,-0.13299602,0.17367247,-0.22947149,-0.0311335,0.24297157,0.3066042,0.11561388,0.08951473,-0.21210738,0.24816442,-0.20037794,-0.048814587,0.065399826,0.23340057,-0.42634103,0.61720186,-0.36209399,-0.21409549,-0.058998417,-0.16749184,0.2546016,0.37460998,0.21928132,-0.31600028,0.27686384,0.2284638,-0.24672095,0.104065984,-0.07623889,0.62409204,0.094260834,-0.5017032
Woman1::0.042274483,-0.32390603,0.30374768,-0.26935527,0.10270124,-0.32888064,-0.5469502,-0.022942008,-0.18708625,-0.16053106,0.5627954,0.2396433,-0.12523246,0.17517154,0.032313436,0.13700849,-0.028403847,0.05352603,-0.04307647,0.13457759,-0.05926962,-0.18472247,0.22806221,0.15796193,0.16395085,0.14416195,0.2429785,-0.058589302,0.03198074,-0.18860275,0.15301713,-0.013331651,-0.12559053,0.6610942,-0.2776572,-0.5154904,-0.37120345,-0.14868186,-0.31445107,0.19471963,0.017380586,0.002831675,0.44020513,-0.0065599275,0.0033298114,-0.19480343,0.059997268,0.3931739,-0.31342754,-0.19055739
Judge::-0.17616203,0.001955582,-0.096512474,-0.50376415,-0.11674878,-0.21904412,-0.39671555,-0.2225087,-0.19614473,0.19396478,-0.025707366,-0.022262149,-0.25951025,0.643164,0.26841646,-0.2466766,-0.32594538,-0.14758122,-0.10820365,0.20436761,-0.010685647,0.086189605,0.05271389,0.13967216,0.026382556,-0.3023572,0.13178012,0.3412096,-0.20308532,-0.13712344,-0.4900279,-0.0047326414,-0.70078903,0.5194945,0.24513966,-0.32493827,0.037427057,-0.70240355,0.17177992,-0.023285015,-0.12131542,-0.21065068,0.5162304,0.26675004,-0.4843434,-0.08076802,-0.062307123,0.67556095,0.047772482,-0.1758088
Champmathieu::-0.021701002,0.03324351,0.047156535,-0.4820731,-0.046969194,-0.1327873,-0.30275625,-0.16725005,-0.118088424,0.16062666,0.00656193,-0.018885788,-0.19158958,0.4970565,0.3740574,-0.32843107,-0.4222241,-0.04767083,-0.007606168,0.19196703,-0.13496485,0.17873828,0.054195903,0.1606111,-0.013701158,-0.19734143,-0.026218465,0.30246612,-0.1893635,-0.060904153,-0.4380706,0.025059566,-0.6871365,0.55668133,0.17323458,-0.41871816,0.1689723,-0.78876555,0.16150786,0.0670573,-0.12377112,-0.34328333,0.61615807,0.32913113,-0.2330742,-0.091066346,0.004652582,0.6648909,0.015894268,-0.4482915
Brevet::-0.03510686,0.078857765,0.07953049,-0.5211309,-0.09542238,-0.19332236,-0.38229576,-0.21938339,-0.18759932,0.26808026,-0.07489207,-0.03243545,-0.11826626,0.57129955,0.35163614,-0.13348831,-0.38692334,-0.064360306,-0.0541015,0.19556886,-0.099421896,0.18449932,0.03503779,0.17234477,-0.076141365,-0.32385623,0.09759993,0.3416643,-0.090415806,0.015968276,-0.47409037,-0.006188905,-0.6688556,0.5904434,0.29054785,-0.45619988,0.00016739867,-0.7760443,0.25127608,-0.01913462,-0.061200112,-0.2914324,0.587258,0.37246767,-0.417678,-0.0691995,0.040524445,0.6323293,-0.033322405,-0.27731213
Chenildieu::-0.001621234,0.0674433,0.0007013293,-0.39706612,-0.019099973,-0.23694314,-0.3549407,-0.17827128,-0.20410132,0.1771533,-0.037323322,-0.028578786,-0.26217005,0.4870458,0.4006665,-0.30054998,-0.4819058,-0.15820678,-0.097719185,0.0924839,-0.10973992,0.21825056,0.07499067,0.20977041,-0.09096221,-0.3048842,0.17942525,0.3487715,-0.06383856,-0.004769674,-0.46781108,0.04735267,-0.75496227,0.5315944,0.15414673,-0.35949862,-0.003522851,-0.7242179,0.17190614,0.013187209,0.04254258,-0.31090173,0.62648946,0.3408316,-0.3869748,-0.031467933,0.09985809,0.6512354,0.0020121362,-0.21699248
Cochepaille::-0.06293834,-0.056080893,0.008244098,-0.5074348,-0.09507805,-0.11676162,-0.4494365,-0.23514475,-0.09882019,0.2020414,0.089811,-0.03375374,-0.3957444,0.49528396,0.35071328,-0.29317686,-0.4182998,-0.06625353,-0.070667654,0.22768359,-0.082071625,0.12282712,0.15973319,0.20389016,-0.04361723,-0.3192737,0.17387706,0.19499098,-0.119792834,-0.0409744,-0.48833513,0.019995637,-0.694757,0.6486682,0.13753825,-0.37960717,0.059963968,-0.7734589,0.26312762,-0.057880733,-0.08811053,-0.30138704,0.492993,0.4582741,-0.42241105,-0.123933055,-0.020643815,0.7147322,0.18729119,-0.13356467
Pontmercy::0.15112872,0.4349291,-0.13020767,-0.21856132,0.64972866,0.20679656,0.058129206,0.9600575,0.07067446,-0.41615552,0.03948119,-0.027589153,0.30496445,0.20543145,-0.47742704,-0.2854317,-0.15641423,-0.36234668,-0.19938523,-0.16970772,0.11043346,-0.60267335,-0.108590454,-0.6512059,-0.013209833,-0.0866274,0.2955826,-0.11906614,-0.21621498,-0.67094934,0.006382717,0.21072541,-0.28648624,-0.08767241,-0.5601537,-0.18615,-0.20299965,-0.43740633,0.010042081,0.2406691,0.03156024,0.22847237,0.3684065,0.066407114,-0.053245433,-0.39856544,0.5874797,0.33958024,0.012567299,-0.19254823
Boulatruelle::0.16257648,0.31787968,0.19964695,-0.134222,0.012242175,0.4320965,0.011950153,0.3971507,-0.3027517,0.095016316,-0.33382946,-0.23456551,0.20677029,0.3887072,-0.304269,-0.26232383,-0.016603306,-0.18621935,-0.11361338,0.5399234,-0.46424904,-0.59796876,-0.17200503,-0.41596848,0.554824,0.1243936,-0.16069686,-0.2641037,-0.0915519,-0.7128741,0.186897,-0.038585156,-0.29276937,0.6613144,-0.26076093,0.34741536,-0.31504592,-0.2286149,0.39342698,0.3887094,0.1935788,-0.058379058,0.11530412,-0.0035622488,-0.22375448,-0.42701617,0.82884777,0.04906721,0.32270053,-0.3409036
Eponine::0.06520904,0.11893228,0.2237502,0.35993016,0.1897708,0.2624092,-0.2317116,-0.025081744,-0.11919233,0.09025128,0.027347842,0.17807278,0.24974962,0.32231843,0.04143359,0.42196876,0.04704223,-0.27396214,-0.30920702,0.2163026,-0.22070403,-0.11019735,-0.33870393,-0.17452483,0.54712296,0.025747046,0.3958717,-0.009509319,0.20071478,-0.5152001,-0.3327012,0.096965976,-0.22600895,0.07031713,-0.1416371,0.2308541,-0.26718497,-0.35285905,-0.049566977,-0.013565182,0.38052526,-0.09059375,0.30317885,-0.17358446,-0.18676335,-0.3829826,0.17919682,-0.08701814,0.28198677,-0.5107319
Anzelma::0.03501197,0.2632157,0.31582066,0.34771618,0.104254015,0.5070837,-0.09701809,0.07195001,-0.3752602,-0.35682517,-0.08030773,0.33426753,0.08665739,0.19197959,-0.12112395,0.3501964,-0.038997736,-0.30345237,-0.3194474,0.2176494,-0.2831201,0.10751783,-0.008054532,-0.22473201,0.5739892,-0.027938792,0.24037649,-0.22472404,0.04608394,-0.49989957,-0.39696774,-0.123444185,-0.40537927,0.35629508,-0.46354672,0.1991408,-0.47536057,-0.27548188,0.02458534,0.19788073,0.14356762,-0.031599853,0.16598365,-0.05718494,-0.0925096,-0.5232588,0.47888604,-0.10634154,0.10025258,-0.70237726
Woman2::0.034815334,-0.22623163,0.16825403,-0.006360668,-0.022288928,-0.2293695,-0.2315423,-0.1201681,-0.1181299,-0.072142564,0.08942525,0.012707639,-0.24133682,0.17406319,0.05212369,-0.3288152,-0.00050650473,-0.4214733,0.007777919,0.13208763,-0.4465695,-0.30822384,0.2857371,0.2754364,0.56279063,0.1440743,-0.14057934,-0.009375563,-0.4769225,-0.39462155,0.14965938,0.12551902,-0.26501232,0.7724368,-0.25246516,-0.10522376,-0.09319011,-0.03676283,-0.3083287,0.25096372,0.28693637,0.1728392,0.2900549,-0.13670994,0.21568258,-0.32194874,-0.15465926,0.34841865,-0.14049123,-0.33999035
MotherInnocent::-0.0006049735,-0.4505277,0.15332519,-0.2470605,-0.11941555,-0.38462752,-0.27460936,-0.09243881,-0.2752256,-0.4077627,0.010047572,0.23327719,0.13506928,0.499467,-0.06981996,0.48500818,0.27861348,0.15975821,-0.39370576,0.3135698,-0.2586369,-0.13322665,0.091061205,0.18845126,-0.15427287,-0.45479587,-0.052250545,0.6419342,-0.5668033,-0.20640573,0.42732555,0.18969525,-0.19027331,0.27309883,-0.04929349,0.07730386,0.083725736,0.045028243,-0.15541749,0.016703332,0.18654577,0.10370986,0.60350335,0.09679017,-0.30306724,0.098963335,0.16915815,0.8300123,0.039672565,-0.66589266
Gribier::0.13088077,-0.93029433,0.3394096,-0.65327877,0.22747663,-0.48550615,0.14134373,-0.2504378,0.12294645,-0.51656187,0.44625592,0.5843267,0.3495409,0.7100038,-0.3031448,0.33769056,0.2447321,-0.11160545,-0.52675307,0.47406563,-0.60814726,0.18145394,-0.028140157,-0.08281159,-0.32772604,-0.74561876,0.21818672,0.44787392,-0.88636136,-0.3356094,0.62581456,-0.3899969,-0.05514611,0.14178205,-0.25884545,-0.33761257,-0.24447867,0.03396471,-0.18064512,-0.4570536,0.26763633,0.30989164,0.972303,0.121748134,-0.00437883,0.033972617,0.34656242,1.118035,-0.07600121,-0.8569688
MmeBurgon::-0.08791954,0.47925928,0.9586338,-0.62378407,0.3124114,0.76359916,-0.5089075,0.5090783,0.09693626,-0.47762537,0.7141364,-0.61290294,-0.17280652,0.422763,-0.5200264,-0.09744971,0.45442012,-0.09759873,-0.25760934,0.44759458,0.38348708,-0.13473986,-0.5083252,0.2406759,0.06964213,0.19888346,0.0055510513,0.399891,0.078270555,-0.53331465,-0.031633157,0.18917128,-0.37607503,0.60606736,0.37496722,-0.36109906,-0.2692299,0.11523033,0.4031725,0.16983218,0.83855635,0.61260337,0.08948997,-0.2962286,0.4219448,-0.11662219,0.008777838,-0.06348549,0.22154918,0.12911673
Jondrette::0.05916643,0.5676332,1.3035418,-0.7052283,0.54239714,1.0530128,-0.68710893,0.80975896,-0.08870947,-0.38106704,1.1802495,-0.73621833,-0.3848749,0.64254415,-0.38121247,0.065512225,0.62485975,-0.29602253,-0.28840083,0.77629733,0.6960928,-0.20310156,-0.7549043,0.33815357,0.18399914,0.15562515,0.08550054,0.6216472,-0.20744176,-0.77181095,-0.17908701,0.2584162,-0.53228927,0.93211234,0.70184666,-0.4132194,-0.7210084,-0.099480465,0.7469425,0.21367882,1.2845414,0.7266505,0.3598813,-0.62840307,0.7630233,0.19732305,-0.0215094,0.07074025,0.18771122,0.12932615
Gavroche::0.05029568,0.023197852,0.45571244,-0.00993091,0.5215913,0.3324718,-0.44703978,0.16660036,-0.04253862,-0.1558072,0.4220684,-0.17497541,0.30253115,0.1705233,0.052429993,0.12517351,-0.08086002,-0.30506325,0.0014422542,0.42887333,0.075241834,-0.2650375,-0.13352412,-0.15795733,-0.051507067,-0.15282665,0.24363133,0.077758186,-0.2771893,-0.35139623,-0.2703909,0.37789276,-0.04391497,0.10809012,0.16312087,-0.02449783,-0.2688298,0.04002803,0.21131828,0.063282296,0.46561015,0.09073845,0.21263084,0.12985116,0.11914468,-0.075824074,-0.17138055,0.01357261,0.39708742,-0.15124702
Gillenormand::0.6981541,0.32865748,-0.05465707,-0.18777826,0.11584278,-0.12837961,-0.27196214,0.029353239,-0.112973586,-0.13258654,-0.53012425,-0.014034167,0.1285216,0.49911162,-0.22694819,0.036627706,-0.056935046,-0.3533217,0.31359047,-0.07286926,0.41418785,0.15879774,0.11757978,-0.15553384,0.18845661,0.071203716,-0.053635303,0.27890676,-0.31981027,-0.13669759,-0.0166076,0.027431685,-0.09122456,0.25996074,-0.0692107,-0.4835031,-0.11617215,-0.11668642,-0.62456924,0.5182518,0.5056108,0.27215013,0.15552169,0.15506846,-0.24179013,-0.27287394,-0.17839134,0.46442327,0.46919304,-0.2588037
Magnon::0.27096003,0.32499072,0.19509466,0.3190756,0.21988495,-0.06867152,-0.05362148,-0.12625243,-0.030679952,-0.5811987,-0.40444937,-0.12845968,-0.26603174,0.11757021,-0.44099006,0.3992585,-0.18251255,0.39346665,0.094365194,0.19129544,0.6325148,0.43229255,0.37586,-0.2074577,0.6116632,0.38791358,0.23510846,0.0612458,-0.12406627,-0.3923708,-0.35728884,-0.06114131,-0.22571878,0.38249934,-0.20964661,-0.1868746,-0.52723247,-0.26952177,-0.3366062,0.5645296,0.6358925,0.16085593,0.33400312,0.42696583,-0.42238942,-0.96353996,0.0053135175,0.29360855,0.4698724,-0.5878443
MlleGillenormand::0.041420713,0.50703233,-0.26660806,0.066736564,0.30358398,-0.14493892,-0.263408,0.14965414,-0.068587184,-0.2294841,-0.4635802,0.19003028,0.42043617,0.4947461,-0.394459,-0.22666451,-0.264581,-0.12499933,-0.0514094,-0.19990934,0.018222082,-0.5326816,0.43350428,-0.055060044,0.08371707,0.12061522,0.012789025,0.34189954,-0.3918171,-0.13383602,-0.08533288,0.49889058,-0.09947198,0.10622156,-0.24076451,-0.5790843,-0.038188837,-0.53012365,-0.5354609,0.19308677,0.31370172,0.4904171,0.20095028,-0.07667819,-0.030634247,-0.4333778,-0.38502508,0.6217361,0.24363963,-0.32933617
MmePontmercy::0.20851137,0.3452498,-0.26124564,-0.4168609,0.6655977,0.11265804,-0.1326131,0.9812093,0.033245683,-0.5935267,-0.19254433,0.55807656,0.4986621,0.549433,-0.72030294,-0.53452647,-0.56484234,-0.67937917,-0.36963722,-0.10923062,-0.3701631,-0.3076197,0.36514154,-0.33354738,0.2618131,0.22730221,0.14994077,0.102468796,0.043878026,-0.30709183,-0.15106939,0.44588977,-0.2480968,-0.24699646,-0.44916928,-0.5386535,0.2948098,-0.8579815,-0.5744703,0.026460364,-0.03487324,0.30056998,0.39038247,0.46290198,-0.080073014,-0.50581616,0.027013745,0.6973422,0.6257608,-0.280787
MlleVaubois::0.030535482,0.48187357,-0.2919043,-0.09982991,0.3080005,-0.3024277,-0.5711122,0.1311096,0.21664341,-0.23592137,-0.42577624,0.2809843,0.887525,0.70224255,-0.39429304,-0.048554074,-0.14814074,0.01381369,-0.21640581,0.20618741,-0.3757516,-0.2544781,0.6709944,-0.060161144,0.24288943,0.44126952,-0.14698736,0.3834487,0.049150374,0.14765017,-0.43741563,0.51041913,0.08015598,-0.23559657,-0.28999165,-0.63774633,0.024234513,-0.940244,-0.81497264,-0.058169816,0.3800958,0.6349319,0.08693308,-0.14337812,-0.07122796,-0.45250186,-0.6577395,0.8757119,0.88728833,-0.65243715
LtGillenormand::0.443513,0.46147135,-0.15769258,0.08753662,0.07662428,-0.06302231,-0.0011128963,-0.13728356,0.039529864,-0.02645304,-0.39787927,0.017906059,0.19627403,0.4097277,-0.3151106,-0.20524265,0.035248857,-0.30575517,0.09842652,-0.1199138,0.1739569,-0.2754337,0.23428737,0.0629234,0.47017717,0.07674689,-0.12537535,0.22828427,-0.42340934,-0.41662288,-0.010942032,0.48501313,-0.12813412,0.09716332,-0.3335557,-0.32055533,0.12973541,-0.50025874,-0.42464975,0.3768214,0.57494646,0.49052393,0.1822212,0.009640581,0.047715668,-0.38154516,-0.3628106,0.5393643,0.38914105,-0.18831988
Marius::0.3256367,0.12626722,0.06262337,-0.12153399,0.14914833,0.2563647,0.03980697,0.3440093,-0.019094592,-0.06883205,-0.064794704,0.041457172,0.24673204,0.24978603,-0.14512444,-0.07449863,-0.18529296,-0.42418745,-0.052504048,0.14934497,0.12998971,-0.018584458,0.0072887023,-0.25100562,0.13093273,-0.16618071,-0.18002452,0.118394196,-0.17387702,-0.37599555,0.009983352,0.3360757,-0.09734661,-0.05635493,0.07297032,-0.306026,-0.25869834,-0.32934514,-0.22775379,0.18433395,0.38246658,-0.046395022,-0.16720639,0.24680129,0.13502708,-0.1720363,-0.203405,0.18760154,0.42257023,-0.3467898
BaronessT::0.7823504,0.37452474,-0.031954166,-0.13264567,-0.024688123,0.036056183,-0.0067120367,0.14258568,0.18937416,-0.097871274,-0.4425712,-0.31086674,0.1562185,0.19795127,-0.27240738,-0.025623841,-0.2977463,-0.1211013,0.06523521,0.1332001,0.7414609,0.3940332,-0.2883246,-0.3281804,0.28425047,0.25944,-0.08458632,0.20090887,-0.29384187,-0.7896195,0.045939185,0.2628627,-0.0120418705,-0.11445281,-0.013972077,-0.6526621,-0.4782649,-0.346826,-0.43840334,0.47245282,0.5430948,0.05775699,0.2503284,0.35703164,-0.054315142,-0.13133477,-0.12211596,0.560577,0.39434227,-0.0008736992
Mabeuf::0.4281563,0.2509937,0.4297725,-0.022064136,0.16177402,0.4074424,-0.18794955,-0.08397733,0.025440427,-0.2829331,0.23442504,0.06664286,0.16521376,0.27734655,0.0031362742,0.13859366,0.13421977,-0.2187647,-0.2926555,0.21979466,0.06077723,-0.131608,-0.17422476,-0.44231018,-0.07611601,-0.3692274,0.26556027,0.22866942,-0.16854233,-0.48092893,-0.4931311,0.4617604,-0.24493857,-0.22901897,-0.030659765,-0.1974484,-0.58929753,-0.37711746,-0.1516208,-0.32414192,0.5614735,-0.010034774,-0.3122502,0.29677233,0.25906575,0.063559905,-0.14608036,-0.07290035,0.33612692,-0.21657233
Enjolras::0.21089116,0.025437798,0.3819834,-0.23550132,0.27967888,0.18437505,-0.22318956,-0.09628867,0.23782313,-0.21013714,0.37990552,-0.23622467,0.063440345,0.16918196,0.07435741,0.018261475,-0.025084311,-0.18531309,-0.23410659,0.3577279,-0.0028755295,-0.13818197,-0.07025773,-0.11691415,-0.052278366,-0.22611704,0.18545994,0.12945765,-0.17270826,-0.29823568,-0.24230707,0.37089017,-0.006182186,-0.13297725,-0.05404339,-0.08871703,-0.37141508,-0.15083095,-0.07987991,0.10113346,0.6358922,-0.14559627,-0.06824641,0.10239383,0.05878308,0.12598379,-0.22894095,0.21398441,0.45917565,-0.17652977
Combeferre::0.2190934,0.17526439,0.33030075,-0.13546272,0.37974402,0.17876643,-0.22669089,0.19536036,0.13120162,-0.102508605,0.37864786,-0.10532953,0.1306682,0.028058566,-0.030367976,-0.03977586,-0.028144367,-0.18462086,-0.14364727,0.19679147,0.12733111,-0.13218814,-0.12304926,-0.19383001,-0.21518622,-0.19355506,0.20824954,0.058845744,0.021008393,-0.48809886,-0.37263197,0.52988464,-0.096013166,-0.14108762,-0.14739072,-0.049767077,-0.53267944,-0.32627907,0.04434165,-0.024854155,0.728303,0.06512377,-0.15586227,0.07307516,0.32206565,0.13446477,-0.18180072,0.26102522,0.5694651,-0.26710707
Prouvaire::0.06309603,0.008101302,0.25075233,-0.13248694,0.41367018,0.20476604,-0.29270637,0.126273,0.2186394,-0.077695996,0.4723808,-0.14624885,-0.06775563,0.016319765,-0.0055559273,-0.04337806,-0.068846084,-0.21422133,-0.21985239,0.34992847,0.1513257,-0.064345345,-0.114913315,-0.18640123,-0.30428585,-0.23806812,0.13513482,-0.022943141,-0.12120354,-0.42069945,-0.30590448,0.5034211,-0.10638824,0.02265935,-0.21162271,-0.17961964,-0.6143207,-0.22503474,0.11096937,-0.059391752,0.81869656,-0.015828159,-0.2754712,0.11363168,0.25379553,0.23552606,-0.28504416,0.24849737,0.63783866,-0.20319523
Feuilly::0.20826438,0.11980434,0.27711323,-0.14505892,0.36316288,0.14071201,-0.14527757,0.14356129,0.16404417,-0.08924143,0.3354218,-0.1664186,0.24770927,0.07873791,-0.06721073,-0.029758297,-0.0066844467,-0.31705284,-0.19063017,0.22001523,0.10669754,-0.119708814,-0.0965716,-0.156845,-0.22897197,-0.30149198,0.18440557,0.06070832,-0.053972587,-0.42026958,-0.2279517,0.5137243,-0.16606836,-0.20918211,-0.17908204,-0.12033671,-0.5936872,-0.2899602,0.10032817,-0.11687724,0.8700042,0.03947761,-0.20423964,0.14018813,0.21146576,0.13699281,-0.2178462,0.28353086,0.61945677,-0.13784195
Courfeyrac::0.10979456,0.089493915,0.23774852,-0.005673191,0.30659473,0.3647041,-0.2132757,0.045183647,0.33392888,-0.2283319,0.28789562,-0.12828761,0.11404707,0.20634678,0.013625085,0.06752531,-0.004982422,-0.37748918,-0.4571765,0.3362034,-0.010904093,0.13173069,-0.17382044,-0.17083272,-0.09492596,-0.22171557,0.2568306,0.033160407,-0.10496971,-0.45167443,-0.33728763,0.42732373,-0.13049063,-0.06954662,-0.21084753,-0.25348765,-0.48613358,-0.22169183,0.0099712135,-0.026923148,0.73993057,-0.07478138,-0.15286969,0.035143524,0.2819578,0.117696196,-0.26808012,0.11267588,0.38525802,-0.19193532
Bahorel::0.16707405,0.20146541,0.3284936,-0.25407666,0.40903947,0.17993014,-0.15949653,0.04682496,0.28708693,-0.2356418,0.351565,-0.16567032,0.21697837,0.2554916,-0.15671852,-0.015246407,0.014658973,-0.35596564,-0.31611666,0.3787903,0.08641244,-0.1370428,-0.118249245,-0.18719278,-0.19143976,-0.275701,0.19737495,0.09886137,-0.13086897,-0.41420072,-0.35802343,0.4144372,-0.09019731,-0.12463044,-0.19901371,-0.07331036,-0.47771943,-0.17567386,0.020895956,-0.10210405,0.7496583,-0.06917083,-0.2799176,0.059302922,0.24131499,0.076517954,-0.29688212,0.19098708,0.60396194,-0.24215068
Bossuet::0.1501017,0.09094354,0.13748051,-0.21822514,0.38387764,0.10804848,-0.31418005,0.053863507,0.05273646,-0.18280254,0.381563,-0.10959441,0.14861926,0.03877211,-0.016094793,-0.11095195,-0.06962832,-0.3752953,-0.28479007,0.35676485,0.10679866,-0.10801444,-0.08383347,-0.22977607,-0.25029424,-0.18726832,0.1295673,0.059887215,-0.24732654,-0.39305842,-0.3020762,0.38979825,-0.2427296,-0.04698687,-0.35572064,-0.12819909,-0.47649968,-0.10859031,0.03864639,0.034331933,0.6392729,-0.10930889,-0.19924527,-0.016208151,0.21885115,0.2387988,-0.25573298,0.21571684,0.50108606,-0.19906397
Joly::0.22568743,0.030848432,0.3172291,-0.18005055,0.3114202,0.18908033,-0.045630764,-0.03667185,0.32153827,-0.16277619,0.38937697,-0.24437498,0.097211294,0.10615406,-0.0085562775,0.03529454,0.027552444,-0.33967355,-0.20909755,0.45101494,0.021333959,-0.2732165,-0.09904578,-0.17545654,-0.16995718,-0.31137735,0.21125284,-0.055435434,-0.23028432,-0.39714456,-0.2976594,0.3627138,-0.014055705,-0.20065537,-0.2609485,-0.069956884,-0.47540888,-0.29037538,-0.08618419,0.041875526,0.89987236,-0.1865165,-0.16983496,0.100520566,0.25110707,0.103240445,-0.30260897,0.20191626,0.63950324,-0.2549395
Grantaire::0.1500889,0.11447992,0.35064554,-0.19016434,0.40450978,0.34529006,-0.28438446,0.030679993,0.35350406,-0.20780694,0.45129505,-0.22994716,-0.035582993,0.14507683,0.011785863,0.03351197,-0.023703467,-0.45342967,-0.24730174,0.42087448,-0.0054304367,-0.1853418,-0.04442926,-0.18934792,-0.15189601,-0.2413705,0.1333346,-0.088277645,-0.20982337,-0.4553377,-0.45943707,0.47781056,0.017260626,-0.112563774,-0.13597132,-0.1437289,-0.49012703,-0.21640575,0.059015885,-0.015998466,0.75761,-0.09244153,-0.30007365,0.095930144,0.17689973,0.1985893,-0.2509928,0.20204681,0.6511384,-0.10907829
MotherPlutarch::0.45877096,0.48907197,0.6766942,-0.35557494,0.13594522,-0.040420122,0.047889158,-0.24184802,-0.022764692,-0.16367324,0.25172648,0.055241738,0.54447716,0.6753012,-0.056593142,0.13668434,0.29896325,-0.2448183,-0.31733927,0.15570544,0.16712053,-0.2598765,-0.3309407,-0.6841389,-0.28415078,-0.58804655,0.30283955,0.53053486,0.12281625,-0.5654046,-0.8118331,0.38178998,-0.43746898,-0.53931516,0.16811301,0.08316488,-0.6563224,-0.5504151,0.08486242,-0.37781885,0.5470448,-0.11605369,-0.290178,0.19574669,0.443111,-0.13815743,-0.27574867,0.013030796,0.13172247,-1.0060157
Gueulemer::0.059322447,-0.08360166,0.36647782,0.22611265,0.0029328908,0.2605536,-0.29555485,-0.018875385,-0.17248021,-0.035506055,0.23687316,-0.020831725,0.16362992,0.51495516,-0.07147857,0.119944036,0.17331004,0.05826225,-0.28006214,0.11092359,-0.20600277,-0.20515524,-0.24473345,-0.082061164,0.3295545,0.16940828,0.36853397,-0.03837236,0.064587295,-0.1407742,0.07991393,0.3038694,-0.33340767,0.40702584,0.02500934,0.05664789,-0.3290156,-0.18833153,0.059794534,0.037118353,0.33311814,-0.040771928,0.42415392,0.16080017,-0.17389226,-0.47392383,0.19953103,0.05206849,0.19684969,-0.33265904
Babet::0.024050945,-0.018675243,0.40612197,0.18678185,0.07974833,0.26363754,-0.3275025,-0.067634836,-0.1732507,-0.10116766,0.2066075,0.019626005,0.15991873,0.41950575,0.06707734,0.35563654,0.2515705,-0.08986586,-0.16030385,0.19528085,-0.2426466,-0.16586007,0.0033559608,-0.041763842,0.4631426,0.051439464,0.38222688,-0.051968955,0.11244275,-0.038397122,-0.07173489,0.15351765,-0.29315025,0.3936187,0.014738865,0.09153594,-0.3102797,-0.1762073,0.048887223,0.10367202,0.36692217,0.012165831,0.34254453,0.11654368,-0.21024238,-0.43055522,0.15099713,0.00263943,0.33368537,-0.2717721
Claquesous::0.032269098,-0.0754551,0.31180042,0.33313775,0.08987309,0.29498103,-0.2671836,-0.057651233,-0.0011533005,0.00390733,0.22172663,0.004998348,-0.07903155,0.5047839,0.019448224,0.1891048,0.30937245,-0.021822706,-0.23433718,0.24496639,-0.21836442,-0.23253722,-0.023452865,-0.065685526,0.4462038,0.07436675,0.2981937,0.002486976,-0.10085966,-0.17584023,-0.08545451,0.31557813,-0.12488701,0.27758345,0.046366055,0.28668368,-0.24606808,-0.18051657,-0.009699317,-0.039381683,0.36542383,0.026709031,0.40504813,0.028896837,-0.38784343,-0.38749757,0.21236026,0.056776054,0.28380132,-0.3298728
Montparnasse::0.043358266,-0.14831723,0.33490327,0.2247824,0.1356236,0.3323359,-0.2864237,0.078263804,-0.14636466,0.004363901,0.18470567,0.01870796,0.16101338,0.45639,0.048179463,0.16555186,0.26983494,-0.07083156,-0.22242732,0.3044951,-0.33714873,-0.28103492,-0.031172413,-0.07994121,0.38975337,4.9126138e-05,0.45720902,0.02373164,0.05022839,-0.08454489,0.109677546,0.22556713,-0.28434622,0.38510925,-0.070768185,0.051551316,-0.20212416,-0.086396046,0.0074789533,0.006961672,0.44174513,0.00023963748,0.45736572,0.14096099,-0.21991381,-0.3818907,0.23225315,0.01914885,0.32218778,-0.087510295
Toussaint::0.242965,0.029855829,0.7010972,-0.18065743,-0.05172057,-0.2611513,-0.1708135,-0.38563892,-0.26771045,-0.34633458,0.2836147,0.15809104,0.1335092,0.2947098,-0.077332646,-0.18406357,-0.1342776,-0.25618896,-0.029864974,-0.23770669,-0.262693,-0.17787586,0.017992271,0.22973637,0.1551457,0.19945435,-0.079984285,-0.14754303,-0.27589598,-0.21111096,-0.08674321,0.26440233,0.23948988,0.64190614,-0.10669825,-0.19625321,-0.016758174,-0.262992,-0.27568927,0.19830006,0.54898894,0.18894777,0.32543644,-0.08018566,-0.10128921,-0.066569604,0.20221603,0.40099257,-0.09351276,-0.075695485
Child1::-0.1319367,0.016924266,0.95929116,-0.023738433,0.3817909,0.70744634,-0.54552096,0.38891017,-0.14625676,-0.36836678,0.4127867,-0.121287584,0.73182994,-0.23699863,0.22790098,0.115218416,-0.31624326,-0.16313305,0.16961567,0.34293607,-0.37262487,-0.4812687,0.108117126,0.10704668,-0.20511152,-0.18007685,0.4253706,0.08690787,-0.36580458,-0.13751063,-0.21560968,-0.040151156,-0.26310945,0.09045589,0.15031402,-0.26147312,-0.33255327,-0.23586063,0.4863147,-0.26575932,0.6037831,0.33973622,0.32369307,0.267675,0.66395843,-0.44562843,-0.2437966,0.10785448,0.7317577,-0.28332013
Child2::-0.18767613,0.112143114,0.910001,0.076645635,0.37722257,0.7937604,-0.41643313,0.3338655,-0.24089098,-0.4473002,0.18592101,-0.18503815,0.65853417,-0.19208746,0.13147905,0.047296245,-0.3582537,-0.19028497,0.20103073,0.3455486,-0.31531376,-0.32826218,-0.034309085,0.020485945,-0.17478432,-0.19571729,0.4340221,0.08354355,-0.3637825,-0.18898861,-0.2420188,-0.20847234,-0.38451245,0.2030236,0.19727057,-0.37524268,-0.3686349,-0.07589803,0.41025454,-0.24142157,0.7255137,0.43678442,0.31287938,0.22209021,0.59131306,-0.39936247,-0.27317607,0.08958222,0.71351194,-0.14794654
Brujon::0.023655575,-0.016453227,0.30940863,0.25407952,0.2127902,0.43686736,-0.3653196,0.20948356,-0.03646971,0.07354967,0.115924895,-0.07525441,0.23272003,0.5956063,-0.033149257,0.2586532,0.26871994,-0.17011726,-0.21631648,0.24806651,-0.35602742,-0.38816717,-0.17839037,-0.08787947,0.47694346,-0.0068728323,0.42920306,-0.029228922,0.14694819,-0.087363884,0.045060784,0.2967147,-0.29260975,0.31279173,0.16231063,0.1286106,-0.2791502,-0.16334224,0.11892895,-0.047568705,0.44099772,0.0063129356,0.37969574,0.24844995,-0.23600814,-0.4289821,0.14493734,-0.0071627265,0.43071878,-0.13538931
MmeHucheloup::-0.009042088,0.09445316,0.3270631,-0.22289419,0.3083196,0.27111265,-0.1740537,-0.0807637,0.2740884,-0.4282218,0.32649034,-0.30046052,-0.0155644,0.1752901,0.026872609,0.053467352,-0.06969402,-0.48088193,-0.28389254,0.62133914,0.006031476,-0.09877257,0.13705854,-0.2375631,-0.05907937,-0.1338315,0.18546808,-0.098703735,-0.42755434,-0.2915789,-0.4278156,0.22774653,0.011125135,-0.15822782,-0.070753545,-0.18401301,-0.39923707,-0.07593729,-0.05771632,-0.018310867,0.781579,-0.19929774,-0.113832675,0.023229241,0.21482249,0.17732884,-0.3726983,0.10008776,0.61106205,-0.031241857
