Napoleon::0.10785535,0.27407262,-0.26052794,0.24122465,-0.48210528,-0.16915184,0.03851126,0.6064285,-0.35326356,-0.348762,-0.37306502,0.035543103,-0.067631066,-0.32545385,-0.06316235,-0.9780329,0.058092616,-0.16909854,0.058647167,-0.41549495,0.032737188,0.288408,0.17188245,0.7011198,0.73460495,-0.32921723,-0.06992419,-0.056819662,-0.682784,-0.2353025,0.012723669,-0.39031157,0.03308574,0.06999881,0.22634685,-0.20264561,0.2556031,-0.5459569,-0.14432563,-0.03032887,0.18900318,-0.17526521,0.7580715,-0.013071828,-0.13426854,-0.056138273,-0.429262,0.908498,0.40988722,-0.35274377,-0.27640226,-0.27684918,-0.078963876,-0.19086021,0.34629124,0.2665982,-0.20992918,0.31124297,-0.13366674,-0.046270788,-0.010878114,0.28972566,-0.21898468,-0.26787457,0.0024985333,-0.2807783,-0.54899365,-0.39653036,-0.38241687,-0.0060821464,-0.10966459,-0.49422348,-0.05752413,-0.18724187,0.4395613,-0.04302558,0.2393985,-0.54216474,0.16026415,-0.4824574,-0.09583191,-0.04442016,0.31754708,0.5876771,-0.4756716,-0.37999094,-0.27124098,-0.45122665,0.3296137,0.048119016,0.14373027,0.16178918,0.013457847,0.30692786,0.013422921,0.119336694,-0.058295008,0.40584356,0.063701876,-0.20445444
Myriel::0.27385032,0.22201173,-0.42617604,0.43459424,-0.33262402,-0.20539333,-0.21425764,0.3977157,-0.19622022,-0.2949246,-0.23881115,0.3029183,-0.19450721,-0.14668071,-0.039299123,-0.5014027,0.1526466,-0.19907829,0.109434895,-0.045659073,0.057230208,0.0071457545,0.015877789,0.6631765,0.63059086,-0.3272957,-0.2713407,-0.0769548,-0.4998126,-0.056914173,0.09433692,-0.1677042,0.12758686,-0.1094197,0.15415923,-0.16401973,0.2014877,-0.35929838,-0.2381331,0.15323035,0.23192176,-0.13570282,0.43862543,0.043236308,-0.11742586,-0.15138566,-0.007082966,1.0273497,0.28996155,-0.28766882,-0.06329848,-0.50030816,-0.37183577,-0.09320748,0.5362674,0.21348773,-0.5679914,0.44872886,-0.17954792,0.13227563,0.15779154,0.102134,-0.35473886,-0.08952715,-0.16557674,-0.15307862,-0.2912861,-0.30525327,-0.47525755,0.10353247,-0.078629166,-0.34185436,-0.0975284,-0.21108216,0.42497808,-0.2508636,0.22514649,-0.25394213,-0.13047868,-0.5042589,-0.111062415,0.2188711,0.1913137,0.38104045,-0.40814385,-0.116957836,-0.04598404,-0.23935696,0.18393359,0.015186601,0.13945614,0.082957014,-0.075275496,0.116456255,0.17670028,0.11589895,-0.13811582,0.16498531,-0.03094558,-0.22725591
MlleBaptistine::0.09912131,0.028752254,-0.3120976,0.35834998,-0.26119068,-0.014136301,-0.20229347,0.1719994,-0.013273886,-0.22355026,-0.3018655,0.3776228,-0.35571417,0.026168756,0.15305379,-0.46986413,0.08789487,-0.30342132,0.36291716,-0.19162017,0.4079414,0.25956225,0.06522575,0.3848086,0.6554288,-0.22457483,-0.1934252,-0.033494916,-0.453619,0.19724552,-0.1442108,-0.2405616,0.36730337,-0.04608649,0.20577998,-0.07142901,0.4709207,-0.11895379,-0.24741833,0.09821934,0.034685668,-0.055672467,0.3692443,-0.111460544,-0.07877928,-0.11446403,-0.14470892,0.5076404,0.42336503,-0.19898525,-0.04082508,-0.41204488,-0.25313464,-0.018857412,0.39663288,-0.0006279204,-0.15946949,-0.026675113,-0.1629959,0.29512295,0.07376189,-0.0069696885,-0.21076079,0.26121965,-0.088407256,-0.081300795,-0.31067234,-0.17375833,-0.07907169,0.26795724,0.10129961,-0.2945369,-0.2769631,-0.15735759,0.45227364,-0.15793982,0.28917465,-0.36075088,-0.1674457,-0.2789148,0.17837113,0.0013849837,0.026428727,0.2638469,-0.3879744,-0.07040402,-0.007485503,-0.41109303,0.18174437,0.12745866,0.0551416,0.1669166,-0.061806783,-0.27267233,0.16683425,0.1210846,-0.31776202,0.102726355,-0.14840998,-0.19858709
MmeMagloire::0.053846885,-0.01460005,-0.39896867,0.359073,-0.24346435,-0.034826573,-0.08025793,0.15930389,-0.028564112,-0.30807447,-0.4105115,0.36305186,-0.24110603,0.058654007,0.20915042,-0.39354172,0.07731488,-0.28910363,0.24192783,-0.21385583,0.48311213,0.332866,0.09058333,0.38415122,0.5920311,-0.2925582,-0.23344639,-0.139568,-0.3814246,0.19756664,-0.2448936,-0.32895944,0.41231593,-0.19418563,0.2688691,0.06768286,0.37758192,-0.13203764,-0.24759747,0.051678997,0.048494056,-0.117472574,0.3960013,-0.046202984,-0.10948529,-0.197652,-0.19681945,0.49771523,0.39398545,-0.2167871,0.07891549,-0.4080205,-0.28694633,0.059814684,0.4407148,-0.013751635,-0.10401928,-0.018236578,-0.18557185,0.26560593,0.0117168855,-0.01214866,-0.24367416,0.18758136,-0.13783169,-0.030148584,-0.19284344,-0.13926418,-0.07848605,0.2846898,0.06821974,-0.122178786,-0.14352062,-0.21365814,0.31077102,-0.24565898,0.26344994,-0.32745132,-0.12880017,-0.3041139,0.09791896,-0.00012163495,0.061563462,0.24797937,-0.31315824,-0.022490231,0.033632323,-0.38248312,0.08408108,0.055620175,0.17963938,0.12419254,-0.15160914,-0.15122285,0.1422124,0.13497797,-0.30667868,0.18549757,-0.09046389,-0.18750954
CountessDeLo::0.36296913,0.22709437,-0.42104086,0.58635956,-0.304194,-0.008300185,-0.3330375,0.36644614,-0.2892422,-0.065483496,-0.27748376,0.22694063,-0.32931575,-0.15857449,0.04474033,-0.772482,0.26918444,-0.5332913,0.21143486,-0.19627933,-0.023874149,0.065498486,0.24216107,1.0165454,0.99636257,-0.10680109,-0.039429855,0.10011636,-0.6525198,-0.29902127,0.061602756,0.0068372567,0.032234922,-0.08178244,0.23604234,-0.34063056,0.34120634,-0.37382478,-0.21249233,0.1291529,0.330412,-0.25599995,0.40270853,0.125205,-0.19359918,-0.038350996,-0.41929114,0.8591599,0.27933085,-0.2693152,0.09561354,-0.4395052,-0.1423815,-0.020698056,0.27047244,0.0946924,-0.52011585,0.4657908,-0.09861022,0.0752698,-0.18914682,0.1437795,-0.25305757,-0.28906044,-0.14447781,-0.1521355,-0.28252566,-0.3956565,-0.39077944,0.023764044,-0.25036043,-0.4498322,-0.24872735,-0.005046559,0.539275,-0.15274592,0.14482136,-0.48904917,0.14424965,-0.55079067,-0.013787804,0.4854306,0.37367615,0.30710825,-0.4036052,0.29447624,-0.09564132,-0.34684473,0.049949527,-0.10763197,0.25943938,0.19227369,-0.2130592,0.030655818,-0.054215197,0.20991915,-0.25773135,0.47261006,-0.11079011,-0.02412476
Geborand::0.2535913,0.2413852,-0.19052985,0.6187354,-0.6700194,-0.31547984,-0.30367923,0.6117624,-0.3670157,-0.22350799,-0.4554749,0.34852636,-0.23139626,0.060374934,0.1133845,-0.86751986,0.05990476,-0.1404721,-0.08500285,-0.11034219,-0.044190392,0.02008649,0.3271865,0.7553956,0.7094319,-0.21238793,-0.5111428,-0.07589539,-0.7367752,-0.16115068,-0.023132771,-0.33846986,0.26911452,-0.090271376,-0.09253491,0.07879687,0.37793416,-0.522214,-0.13169535,0.30440775,0.36935496,0.18443738,0.4257245,-0.28312147,0.27381444,-0.18372513,-0.35900736,0.7507257,0.19736558,-0.40486482,-0.20827748,-0.42345834,-0.4879434,-0.16091812,0.36158222,0.32981113,-0.34339127,0.4697455,-0.17558636,0.12961109,0.016395142,0.26778153,-0.12416958,-0.21397422,0.15262808,-0.11246844,-0.13508122,-0.00893295,-0.23803614,0.16414109,0.031020561,-0.26078516,0.027011035,-0.18251014,0.41933927,-0.26496667,0.22248034,-0.45686534,0.07578369,-0.5351214,-0.23097129,0.46865687,0.3430421,0.22766414,-0.5523413,-0.012096677,-0.011772747,-0.36648566,0.33794832,-0.15635477,0.12469162,0.1271275,-0.29274672,0.14019604,0.1537904,0.24426219,-0.21787456,0.50362396,0.117638476,0.09556368
Champtercier::0.31810823,-0.09407844,-0.46030828,0.4355887,-0.33365637,-0.28578037,-0.076300874,-0.014750175,-0.19163357,-0.41289458,-0.48936743,0.22322646,-0.24062958,-0.27202272,0.115050286,-0.78685796,0.2548848,-0.08911459,0.16955446,-0.38972977,0.13964444,0.2890526,-0.12480423,1.1363766,0.84889346,-0.41605297,-0.32753626,-0.10404352,-0.9235083,-0.04572844,-0.08266645,0.116728984,0.039309893,-0.21668051,-0.055557813,-0.23695834,0.1284257,-0.34384358,-0.03526243,0.12822928,0.030179268,0.05121683,0.49805558,0.2996205,-0.2789327,-0.03885362,-0.194914,1.0744245,0.4076101,-0.076898925,-0.048509955,-0.4269854,-0.42576224,0.20195024,0.6215387,0.14116377,-0.47870812,0.16880102,-0.31694826,-0.08694404,0.1153565,0.15187426,-0.018248575,-0.23834386,-0.29395586,-0.028121263,-0.32260445,-0.27767688,-0.43510774,-0.058796786,0.08250084,-0.44850472,0.16770372,-0.14726552,0.16885388,0.010795531,0.052435864,-0.36368617,-0.05159284,-0.62626207,-0.03773016,-0.01542466,0.36859107,0.32220066,-0.29366457,-0.055723168,-0.042831086,-0.09573712,0.177699,-0.07539486,0.13617907,0.21174732,-0.13669361,0.12877665,0.3479409,-0.055642135,-0.2739073,0.34767818,0.055071738,0.03939215
Cravatte::0.26516724,0.26587978,-0.25206783,0.28994212,-0.4249148,-0.5326772,-0.3728807,0.37562108,-0.15763429,-0.58854777,-0.6210361,0.045848437,-0.017157385,-0.09176282,0.077075236,-0.77102184,0.05247792,-0.35069218,0.31958202,-0.017609375,-0.020669429,0.121548116,-0.09603561,0.9566905,0.6243044,-0.0672115,-0.18762872,0.026962765,-0.6501376,-0.1985912,0.058863454,-0.05815242,0.43210247,0.16228065,0.10391461,-0.12161234,0.04368335,-0.20528346,-0.18572235,0.12691028,0.31207314,-0.3605454,0.38595828,0.2408503,-0.049134575,-0.15920587,-0.3952856,0.75993294,0.4952121,-0.16210029,-0.07988896,-0.36938295,-0.5329007,-0.32632363,0.65240955,0.21719457,-0.76592493,0.29783905,-0.120338105,-0.1361471,0.094396845,0.14673395,-0.054356087,-0.542001,-0.35579962,-0.18258612,-0.56783295,-0.082894996,-0.44183338,0.42540103,-0.102870435,-0.3078765,-0.18049736,-0.23411283,0.654985,-0.25332776,0.09582695,-0.30347902,0.1279576,-0.6595139,0.10106802,0.23477681,0.0012820157,0.620684,-0.25353208,0.018213764,-0.2679484,-0.29479837,0.4680761,-0.26223022,-0.05473651,0.4010774,-0.06732184,-0.045775406,0.0610724,0.08068677,-0.14581001,0.52466047,0.09272043,-0.10097316
Count::0.7098327,-0.10795813,-0.317045,0.47742838,-0.58157223,-0.29611194,-0.12906633,0.52572393,0.14665872,-0.2570559,-0.5010639,0.07059666,-0.06190511,-0.13797773,0.08258863,-0.6969105,-0.06251003,-0.271295,0.22473978,0.14806096,0.12138171,0.357358,0.1944645,0.68862766,0.7617892,-0.34827924,-0.08310779,-0.03375527,-0.73178387,-0.16313398,0.2053924,-0.008789364,0.043349363,-0.24825087,0.15759967,-0.24738875,0.23426805,-0.18135239,0.05181706,-0.061061893,0.14525905,-0.06776874,0.33796296,0.10926685,-0.2749344,-0.45629907,-0.28579634,0.9292175,0.6965042,-0.3481666,-0.19388478,-0.28103322,-0.33912563,-0.029266613,0.60269034,0.18307279,-0.53899795,0.51630026,-0.0060854694,0.32534683,0.098903954,0.04569688,-0.049161635,-0.2598144,0.058306538,-0.17017418,-0.13877077,-0.2084759,-0.5450565,-0.19134332,0.21807414,-0.48501465,-0.07733653,-0.4572605,0.5692674,-0.15226038,0.33780763,-0.43241236,-0.24901749,-0.56258166,0.035643976,0.28103232,0.35109696,0.5060535,-0.52422935,-0.115522414,0.21383171,-0.32541147,0.27496943,0.031796914,-0.05871633,0.22063151,0.073739104,0.20678382,0.07353067,0.006211459,-0.14523068,0.55876094,0.21790801,-0.30296546
OldMan::0.10428885,0.16845429,-0.27590305,0.4093105,-0.5127222,-0.4548599,-0.083572865,0.48373476,-0.051698625,-0.5371495,-0.46578643,0.3912272,-0.27828023,-0.12129364,0.04152797,-0.86866975,0.073214784,-0.22390205,-0.24821271,-0.1901005,-0.17016365,0.0594122,0.081102744,0.6439002,0.6020622,-0.6153756,-0.43456608,0.21931814,-0.6795383,-0.19442865,-0.3006919,-0.2672625,0.21803762,-0.32880574,0.39851707,-0.0021391269,0.0145695945,-0.3023226,-0.338115,-0.12808609,0.43145537,0.16604838,0.30115247,-0.025197485,-0.16445094,-0.13403526,-0.17768568,0.89190274,0.44648147,-0.23265554,-0.25610238,-0.17260846,-0.56095266,-0.016800024,0.32457796,0.1846325,-0.40087014,0.37478846,0.16223441,-0.003373803,0.20651504,0.24326864,-0.22703384,-0.45602888,-0.19652826,-0.21425961,-0.4246338,-0.1957542,-0.37668726,-0.084988825,0.33345035,-0.24015161,-0.18093441,-0.20800954,0.2712462,-0.25591722,0.056099895,-0.6768874,-0.22798361,-0.4499495,-0.0413722,0.3075003,0.09296165,0.64800483,-0.4001969,-0.01789996,-0.02753253,-0.2939986,0.11003442,-0.034072652,0.06679106,0.32254738,-0.062514424,0.1724008,0.16787268,-0.058583558,-0.0033796076,0.4897817,0.079624936,-0.32768342
Valjean::0.20704144,0.2513669,-0.22905844,0.067595504,-0.08907427,0.08723929,-0.22985627,0.13064265,-0.12426214,-0.013698469,-0.30198887,0.36307338,0.11545479,0.32113945,0.12994811,-0.1520183,-0.0024103194,-0.20081408,-0.14635293,-0.25326896,0.2800673,0.21797644,-0.005466092,0.15044719,0.3625307,0.033795863,-0.041002072,-0.0028313398,-0.16167997,-0.08342882,0.05540376,0.069877274,0.0055105244,-0.041419655,0.12994438,-0.14128268,0.055427097,-0.29614645,-0.1328533,-0.15275927,-0.0019282477,-0.191599,0.18925111,0.017105429,-0.29128504,0.13347124,-0.15366176,0.2673171,0.27727884,0.0254672,0.06160802,-0.243813,0.16280705,0.031205859,0.15708992,-0.26909402,-0.040343508,0.10791015,0.19628339,0.042903,0.12074827,-0.10243775,-0.19168521,0.032290097,0.018895127,-0.030901486,-0.018923951,-0.059107628,-0.04532963,0.07648145,-0.044541318,-0.12060648,0.045000322,-0.0054711853,0.24671315,-0.023743186,0.18811949,0.0839267,-0.013095841,-0.08168099,0.08470596,-0.06383775,-0.16488421,0.076831885,-0.040602125,-0.11522203,-0.012680199,-0.15133144,0.07847781,0.19657911,0.09880199,-0.11933374,0.20664848,-0.09663573,0.0027833744,-0.050672058,-0.10921175,-0.06892029,0.10099333,-0.2654522
Labarre::0.3319067,0.21835342,-0.06360299,-0.087341495,0.09170961,0.009291664,0.12674136,0.17482246,0.10883198,0.0885755,-0.29804227,-0.026693763,0.32688174,0.1262038,0.09843166,0.09386734,-0.14976485,-0.38126534,0.27775362,-0.28911495,0.23222733,0.37402645,0.16281237,0.29886338,0.25570154,0.08412899,-0.18769929,-0.046392478,-0.1175211,0.03571632,-0.19254827,0.2426128,0.05909102,-0.19374004,0.10982006,-0.48657143,0.50389385,-0.14618163,-0.2541678,0.00032601834,0.011044655,-0.49696732,0.3807013,0.18084517,0.055429626,-0.110273115,-0.25333306,0.26420707,0.4313468,0.028347028,0.11676505,-0.31172466,0.28714225,0.18896052,0.08787784,-0.10128038,0.1632786,-0.0021232187,0.05543041,0.08080546,-0.16058734,-0.03380268,-0.17374186,0.09870443,0.034044392,-0.038600985,-0.045630187,-0.2371797,-0.48074466,0.23898603,0.10960415,-0.08702389,-0.12158564,0.023085937,-0.115589336,0.09844072,0.16977246,0.061880074,0.009529981,-0.2675764,0.25336996,-0.19155687,-0.4651697,0.18776684,-0.058037188,0.0038639104,0.006363283,-0.4198471,-0.10613701,-0.007122759,0.28447273,0.3585337,0.08907936,-0.273913,0.098749295,-0.1505104,-0.022031438,0.078632884,-0.064661466,-0.20070063
Marguerite::0.47887352,0.4494921,0.0007369363,-0.04843739,-0.38058197,0.46312532,-0.030300032,0.08012757,-0.24889195,0.22675142,-0.385626,0.48321196,0.13279043,0.13357978,0.30830452,0.017513882,0.024446253,-0.09782593,-0.2656378,-0.31969422,-0.14888182,-0.037637934,0.34262088,0.19208632,0.09069933,0.19488369,-0.4177613,0.039762627,-0.20055516,0.04877342,0.036450543,0.23198304,0.0057679443,-0.33643064,-0.03498357,-0.14166786,0.30495927,-0.048104566,0.23771073,-0.12952504,0.025796931,-0.15298983,0.2518831,-0.1544622,0.3100676,0.13316478,-0.033452444,0.020363366,-0.10358265,0.121190205,0.103819646,-0.43901286,-0.12433078,0.053698853,-0.10501249,-0.17137165,0.11521091,0.14664903,0.16975904,0.073814966,-0.026370972,-0.1807505,-0.057782855,0.35549888,0.006232888,-0.20626615,-0.19631718,-0.15160704,-0.24097957,0.11129098,0.07339838,0.06417351,0.17918305,0.21803656,-0.018754402,-0.33870816,-0.12557383,0.18538797,-0.17085983,-0.26659802,-0.08491683,0.18952334,-0.17969014,0.0102438135,-0.009189639,0.19945319,-0.18962327,-0.42459714,-0.31740892,0.46473804,-0.15388787,0.26577395,0.018275697,0.18341383,-0.019532198,0.11925929,-0.43019298,0.48018917,-0.18099208,-0.1441934
MmeDeR::0.32632554,0.28479475,0.044159915,0.23712173,0.002716508,-0.10859887,-0.015685104,0.46078315,0.060831062,0.2185151,-0.43448216,0.17654258,0.21660392,0.14668623,0.07396378,0.1574865,-0.33867165,-0.13511114,0.069026515,0.0032586872,0.12925756,0.18912323,-0.040448528,0.27760708,0.24573892,-0.037421998,-0.19535257,-0.24143018,-0.1340395,-0.14187542,0.057205264,0.021315407,-0.1201718,-0.029662613,0.045740787,-0.23386396,0.13054954,-0.35447395,0.07274292,-0.10550087,-0.051639456,-0.13691305,0.38301763,0.029272031,-0.069620505,-0.13793413,-0.1260341,0.31719178,0.31185567,-0.005555146,0.15162434,-0.37223324,0.39152595,0.24762407,0.115959436,-0.32184353,0.047980964,0.2652094,0.12251388,0.1158241,-0.12370812,0.024374481,-0.11649611,-0.14760867,-0.012933693,-0.08400095,-0.030561782,-0.43582755,-0.36494502,-0.022840254,0.22283888,0.075248845,-0.028417984,-0.12735812,-0.050756995,0.12396286,0.31966612,0.024849074,-0.04617954,-0.2178399,0.084399275,-0.037465002,-0.36424655,0.05523443,-0.12651153,0.2595472,-0.017323555,-0.5571838,-0.1665984,0.082964815,0.011847164,0.32519272,0.038045358,-0.1303165,0.3636097,0.047498014,-0.06620631,0.1557357,-0.110072106,-0.368211
Isabeau::0.10124842,0.22999841,-0.26302055,0.043518566,-0.08508042,-0.16354135,-0.1509884,-0.053013157,-0.121963926,-0.028520774,-0.28584117,0.3240029,0.034801327,0.35118082,0.054196186,0.13029009,-0.06406015,-0.17098461,-0.06343116,-0.18906224,0.14940692,0.43253535,0.09344854,0.1865132,0.49673954,-0.027207134,-0.16456594,-0.08122102,-0.17467472,0.0041740546,-0.21917152,0.47856507,0.045913283,0.121169955,-0.14783931,-0.21910977,0.35273752,-0.37282118,-0.23300703,-0.12872343,0.1123231,0.06474093,0.22441119,-0.1318845,-0.101132,-0.07437785,-0.10406682,0.39486966,0.42339784,-0.061614443,0.09776452,-0.4498273,-0.05227529,0.29383758,0.22142787,-0.2266254,0.35222998,0.33007234,-0.08942993,-0.14186232,-0.0123570785,0.32244337,0.07418973,0.082437456,0.05761026,-0.03438378,-0.15592802,-0.058046553,-0.23573701,0.10493,0.42736086,0.079163566,0.051900692,-0.0029740222,0.07407297,0.086545624,0.272063,-0.018923484,0.044340327,-0.20625742,-0.0018068963,-0.054383583,-0.47921804,-0.18767467,-0.34448192,0.113239475,-0.1250843,-0.47319597,-0.2438017,0.02945536,-0.16614608,0.30064446,0.3571597,-0.015928192,0.2348429,0.0065292246,-0.21380582,0.2277635,-0.02783819,-0.28448412
Gervais::0.34375033,0.22918777,-0.24735329,-0.00210623,-0.13921058,-0.027299298,0.09224436,0.15543132,-0.05363056,0.022857377,-0.32100376,0.07923623,0.2017252,0.18388882,0.19751433,0.10916736,-0.13231474,-0.3019305,0.18359685,-0.08053627,0.38417086,0.38853917,0.04225875,0.29275584,0.3993683,0.14712511,0.090191126,0.0681624,0.10207106,0.04373827,-0.028871426,0.2611174,-0.09902642,-0.10262771,0.13247381,-0.26123908,0.4147885,-0.07026326,-0.15560503,-0.08920313,0.0094191665,-0.2690543,0.26935402,0.023938835,-0.03816576,-0.013778531,-0.2996195,0.29035562,0.3859837,-0.08205383,0.20230052,-0.2970565,0.09561391,0.09672105,0.31541178,-0.2113632,0.23148155,0.16173206,-0.10461343,0.21030946,0.062962584,-0.10824447,-0.17644806,0.16523857,0.0360553,0.059890397,-0.13588555,-0.19413804,-0.24060489,-0.023134792,0.24555245,0.030682072,-0.18592499,-0.13032429,0.13387369,0.008641095,0.1182878,0.027508574,-0.004277612,-0.31803823,0.1900898,-0.011966863,-0.33869737,0.13095045,-0.19218388,0.17639306,0.08646927,-0.41868696,-0.24543056,0.10023504,0.142569,0.27264565,0.2176798,-0.17035234,0.029344061,0.10595287,-0.09248005,0.40115285,0.16556057,-0.22785805
Listolier::0.9057441,0.14843152,0.60052896,0.062909454,-0.4672098,0.4402919,-0.15687329,-0.036628716,-0.11472595,0.25723422,-0.7388052,0.020492176,0.0675367,0.27194035,0.1558668,-0.5234744,0.053173937,0.054553855,-0.25714052,-0.308879,-0.112072416,0.17399417,0.24593093,0.5907324,-0.13532804,0.3430635,-0.751643,0.014252701,-0.3633278,0.3141894,0.14736009,0.10934895,0.13502555,-0.21498832,-0.556648,-0.28277126,0.23327878,0.051814422,0.613202,0.37662235,0.19887477,-0.022001082,0.41252816,-0.22674875,0.30275023,0.21125591,0.21559782,0.30685124,0.15626462,0.023921948,-0.33174813,-0.21556245,-0.102040686,-0.17566061,-0.20829022,0.094580255,-0.39740738,-0.07401212,-0.1521625,-0.28031927,0.17804682,-0.091745414,0.052249603,-0.02869039,0.042723183,0.15172076,-0.038024846,0.01771583,0.06768868,-0.007917119,-0.23517013,-0.45876813,0.22523235,0.13735005,-0.25989035,0.02016783,0.011136318,0.31831715,0.06758645,-0.40588504,0.11110374,-0.29165247,0.19288208,0.19588919,0.22387291,-0.0458763,0.1114709,-0.37433332,-0.06113673,0.10050013,-0.32852858,0.23124178,-0.07238413,0.08236297,0.45242852,0.11017236,-0.14600612,0.123486936,-0.35006028,0.09059678
Tholomyes::0.86254025,0.10594275,0.5732043,0.03115208,-0.5349543,0.49293742,-0.17985557,0.0024745741,-0.007890718,0.25474918,-0.60018456,-0.044489097,0.032970067,0.26859954,0.0654069,-0.40361726,-0.034224745,0.06773272,-0.21471128,-0.11626729,-0.1379364,0.12338242,0.07581116,0.33371857,-0.09604429,0.36214355,-0.55043304,0.029719038,-0.31054455,0.13441646,0.10083718,0.19942021,0.05174025,-0.14106475,-0.486207,-0.16399091,0.24456716,-0.0072071874,0.45071092,0.4560801,0.31500477,-0.004788956,0.45218036,-0.2426444,0.20087862,0.22980943,0.30901307,0.18671744,0.115832366,-0.016491054,-0.30046946,-0.2493871,-0.14232884,-0.19334355,-0.36857095,-0.2042519,-0.35564277,-0.05068791,0.018226806,-0.13013645,0.15924601,0.0030927213,0.08925005,-0.06560667,0.08123253,-0.008730327,-0.034008857,-0.07559504,0.04023964,-0.036328305,-0.16673943,-0.32874662,0.119203866,0.24537398,-0.120367214,0.15175396,-0.01929254,0.25977772,0.17285109,-0.30646613,-0.0077517326,-0.31233042,0.04670293,-0.04268996,0.17238677,-0.05300157,0.18602727,-0.31215143,-0.03678504,0.14299315,-0.41240758,0.17083876,0.053228866,0.116632104,0.33030897,-0.035092942,-0.086161315,0.024696695,-0.15234958,0.017391415
Fameuil::0.8884286,0.1300522,0.6784149,0.08706656,-0.5000648,0.4132863,-0.16628274,-0.0494027,-0.11348427,0.20387635,-0.7190755,0.048926,0.11335649,0.28792724,0.17350242,-0.48976594,0.023327226,0.12182622,-0.25247848,-0.28598183,-0.13468648,0.10277738,0.21635602,0.56989497,-0.15225472,0.36624974,-0.62298614,0.0137840845,-0.38898033,0.2727534,0.21268871,0.107338555,0.083516784,-0.1580911,-0.53244215,-0.24422325,0.30012137,-0.010534914,0.63445216,0.31852722,0.17888202,0.0327113,0.44595048,-0.2962136,0.30727798,0.16771665,0.1634195,0.2876043,0.1927259,-0.036394626,-0.30903465,-0.26514494,-0.018660683,-0.113117196,-0.14215676,0.09400104,-0.35095942,-0.062694386,-0.1195495,-0.186655,0.13579008,-0.039913237,-0.0063016447,-0.019471345,0.053371515,0.08355515,0.02949648,-0.06679028,0.005355596,-0.096398555,-0.09171744,-0.45766926,0.28543094,0.061270673,-0.24589278,-0.014612968,0.07242643,0.3076883,-0.016190201,-0.3658494,0.2063281,-0.2692719,0.1827763,0.21890879,0.18968941,0.008238076,0.16381042,-0.4660654,-0.0819819,0.12699136,-0.2847456,0.33850002,-0.033856735,0.05463708,0.45253268,0.12705988,-0.13496515,0.22762737,-0.3520384,0.024014
Blacheville::0.86929053,0.07853847,0.7237755,0.058217984,-0.44512275,0.38353413,-0.18267778,-0.047654316,-0.12305266,0.25628233,-0.6831364,-0.00685913,0.03548945,0.33756012,0.14135906,-0.5097602,-0.0023814617,0.15341155,-0.30193666,-0.1671998,-0.13114257,0.14749368,0.21389842,0.4770568,-0.18304259,0.42271346,-0.63659257,0.060497537,-0.32710925,0.244315,0.17448437,0.12664787,0.06087926,-0.10846453,-0.60495603,-0.31033915,0.23792428,0.04666508,0.64935476,0.3365077,0.2327312,0.06552963,0.4229164,-0.2639142,0.26242462,0.19646525,0.24080038,0.25701073,0.21310166,-0.04953193,-0.36263037,-0.2683129,-0.058040578,-0.21299653,-0.27375087,-0.020818902,-0.39337254,-0.026266795,-0.046785463,-0.26873285,0.18368773,-0.04051712,0.009916549,-0.11393245,0.1276145,0.07126116,0.0017079668,-0.052912712,0.09473729,-0.08111587,-0.239365,-0.4310481,0.19502638,0.09986218,-0.20436417,0.09471277,0.045669597,0.35433742,0.06625987,-0.42944488,0.12442697,-0.3705903,0.16741642,0.16249529,0.27804524,0.023476742,0.14448522,-0.40172714,-0.097900756,0.18367098,-0.33924145,0.2896731,-0.03425605,0.06889362,0.48539314,0.108292595,-0.09279798,0.18052895,-0.33469838,0.06995726
Favourite::0.92913604,0.15108995,0.61109185,0.013738326,-0.55526406,0.40903655,-0.14688416,-0.021803014,-0.108701974,0.17243196,-0.6940906,0.08043263,0.11729525,0.30977607,0.10606347,-0.46459213,-0.019380905,0.11005026,-0.32617718,-0.2554091,-0.1894924,0.15747166,0.1589322,0.48342934,-0.17157719,0.3293619,-0.6527835,0.04518251,-0.4346945,0.24534053,0.19570546,0.1807285,0.032724448,-0.20473014,-0.5450417,-0.25981247,0.30866352,0.013409727,0.58426917,0.28726253,0.24514994,0.05963908,0.41625473,-0.26119348,0.3251177,0.15259187,0.25255725,0.32972488,0.13550924,-0.07528848,-0.3405691,-0.2552854,-0.060944486,-0.13479602,-0.21999905,0.03302645,-0.42933714,-0.044019602,-0.06506663,-0.24887802,0.24207816,-0.055028908,0.058852334,-0.092171505,0.0481696,0.049357343,-0.06733899,-0.042558283,0.037549585,-0.041846234,-0.14704095,-0.41547734,0.2915103,0.15685825,-0.19504125,0.032752052,0.018498559,0.33508775,0.047905326,-0.4266007,0.05747672,-0.38955125,0.15844779,0.079114325,0.22619611,-0.0014416946,0.16795115,-0.3826036,-0.047925532,0.17008492,-0.43648854,0.2764061,0.0782307,0.1483783,0.44483772,0.049217492,-0.19266695,0.1820252,-0.28044868,0.02256687
Dahlia::0.94849163,0.16010965,0.61625457,0.07564002,-0.49070063,0.45736912,-0.090801544,-0.11530445,-0.13444658,0.323305,-0.6500067,0.021472758,0.058420837,0.28076255,0.11476066,-0.45488644,0.047330305,4.0586878e-05,-0.30173054,-0.25852016,-0.23275732,0.07008861,0.31141448,0.58536994,-0.17791721,0.30050844,-0.70299906,-0.011498726,-0.3451369,0.23074216,0.20900828,0.15419061,0.014656752,-0.20433842,-0.6023468,-0.25992718,0.29537508,-0.027250353,0.589076,0.4153375,0.28345928,-0.0065520676,0.43887812,-0.24926445,0.37348863,0.11071639,0.1990364,0.3287817,0.15176135,-0.021023449,-0.302311,-0.2341002,-0.09731978,-0.12521994,-0.23065016,0.052853554,-0.35967398,0.009504296,-0.1321271,-0.32391942,0.18882632,-0.11475434,0.04766192,-0.01974108,0.035719633,0.13103141,-0.077065244,-0.011012561,0.06135339,-0.039056484,-0.1786016,-0.3920718,0.22576578,0.1555914,-0.26284268,0.024877872,0.007815558,0.37315127,0.07492143,-0.37259158,0.04579806,-0.29856673,0.17886119,0.1178556,0.22872221,0.019984074,0.098008506,-0.31642988,-0.089656465,0.15134117,-0.3213508,0.22553527,-0.029608008,0.1174611,0.4099985,0.02947079,-0.15068007,0.16524464,-0.28549486,0.004353707
Zephine::0.8069513,0.08903564,0.5551093,0.100148015,-0.42034245,0.41936454,-0.18179053,-0.08089205,-0.23051827,0.2362525,-0.64775604,0.07198266,0.020127675,0.40472174,0.14176457,-0.47903773,0.019648753,-0.009831889,-0.14472866,-0.24676861,-0.11393356,0.12570742,0.2847745,0.73140526,-0.08925594,0.33664948,-0.65793085,-0.039294455,-0.3861267,0.27785406,0.12808397,0.15476277,-0.016717367,-0.14276174,-0.58162373,-0.37525856,0.29669926,0.10580557,0.65779465,0.30305412,0.18642424,-0.048548084,0.44497928,-0.24245542,0.3498769,0.19137657,0.21616915,0.3947825,0.121203884,0.046208866,-0.24049178,-0.30392727,-0.070401326,-0.07332199,-0.1920693,0.04320277,-0.3305447,-0.09598626,-0.13732019,-0.2845342,0.12524658,-0.02969823,0.058451507,-0.0036648184,0.07313934,0.056082375,-0.018509995,-0.073752955,0.06386297,-0.070214674,-0.16067788,-0.36552566,0.21551697,0.1274083,-0.19019955,0.15249757,0.07457352,0.22362997,0.0937318,-0.3715788,0.07537079,-0.36945784,0.19775139,0.05772089,0.26525876,0.033599358,0.16323122,-0.46039218,-0.067297265,0.20069219,-0.36297938,0.28124496,-0.06670875,0.063763596,0.51337504,0.03201504,-0.10468675,0.22156997,-0.2772726,0.07649043
Fantine::0.48301488,0.23032245,0.30808958,0.16801585,-0.15614107,0.28923348,-0.1810645,-0.12160965,-0.06494977,0.22279671,-0.4744116,0.28543943,0.027529607,0.1608188,0.2960774,-0.067170374,0.07351069,-0.09109704,-0.3141279,-0.3135963,-0.11495618,0.09460388,0.3796349,0.5056975,-0.08530624,0.13999593,-0.5545244,0.058943067,-0.19445902,-0.0041672913,-0.1256215,0.10182088,0.14092931,-0.23166397,-0.3035564,-0.14515342,0.29515386,-0.086162604,0.33136046,0.21215686,0.07174008,-0.13943392,0.31032673,-0.11367802,0.21916158,0.18439682,-0.008925327,0.1583705,0.096184365,0.08163956,-0.23761456,-0.28354257,0.05346253,-0.052137997,-0.113152295,0.09280622,-0.14011076,-0.025016798,0.038129486,-0.14091021,0.25134042,-0.12529299,-0.194597,0.0707433,0.008827084,-0.021270137,8.034194e-05,-0.0409381,-0.12270207,-0.0974969,0.053459413,-0.21006106,0.30711666,0.13322343,-0.033647735,-0.3012894,0.15267606,0.31524256,-0.057513896,-0.1020372,0.11240232,0.045847416,-0.04705141,0.19540952,0.034467246,0.124438085,0.09559618,-0.110563524,-0.20693162,0.2653781,-0.09853722,0.04391793,0.16478394,-0.011495235,0.0797126,-0.016018614,-0.022523517,0.11477807,-0.41695756,-0.20874001
MmeThenardier::0.29944992,-0.057180207,0.23145224,-0.1357571,-0.13191411,-0.0065440317,0.00698391,-0.24812303,-0.1835509,0.1728968,-0.24845865,0.1750812,0.2267329,0.2625116,0.06065604,-0.21137811,-0.03795862,-0.19227506,-0.12413737,-0.19053704,0.12395627,0.33953342,0.15109667,0.15803514,-0.17485482,0.02968654,-0.15742238,0.06547442,-0.18590252,0.21700217,-0.16206506,0.13333385,0.10320996,-0.09793922,0.033188052,-0.22709568,-0.072408535,-0.1743144,-0.1792105,-0.12376926,0.015713273,-0.15740417,0.15076293,0.10885824,-0.08839189,0.15458879,-0.093098216,0.19748847,0.067588046,-0.1434467,-0.013946556,0.19919486,-0.112953275,-0.057130843,0.17594679,-0.117739044,-0.06003132,0.07834809,0.1205692,0.050748713,0.31355703,-0.37762251,-0.1557752,0.2519702,0.12456646,0.0336711,-0.40660644,0.12346522,0.18604691,-0.08927955,-0.17307387,0.024820289,0.26697168,0.033068504,0.15145156,-0.08007747,0.08004727,-0.10098196,-0.16806155,-0.2965823,0.15617327,-0.088146165,-0.22443269,0.40658113,0.06450092,-0.010457835,0.22980446,-0.121931426,-0.090949714,0.1301326,0.16745715,0.017497629,0.33706978,0.10679198,0.051527817,-0.070946835,0.0007097444,0.35669804,0.10090443,0.027011605
Thenardier::0.4720294,-0.092939086,0.117445596,0.11169561,-0.11269531,-0.07474919,-0.084213704,-0.2676373,-0.02656965,0.18906933,-0.2318521,-0.04735981,0.023843184,0.21748501,0.021141801,-0.045334063,0.34913167,-0.25803304,-0.123076186,0.10543541,0.15828878,0.30528414,0.17225479,0.27068064,-0.058777932,-0.11238698,0.049640086,0.25644398,-0.16371664,0.21663015,-0.15435362,0.0641052,0.0991368,-0.12554786,-0.065980844,-0.15096952,-0.12775736,-0.19932096,0.02797905,0.12916727,0.15310436,-0.08989712,0.18050581,-0.1942251,-0.05477199,0.2329214,-0.034682963,0.18925421,0.0722866,0.15471603,0.19720425,0.12053721,-0.16318302,-0.17187613,0.0088959625,-0.30012754,-0.09302486,0.21278988,0.12516497,-0.126562,0.23813848,-0.24265161,-0.1112383,0.2721546,0.13420515,0.21232516,-0.17457299,0.16442712,0.16838433,0.08730371,-0.07688526,0.056448147,0.084719315,0.12463426,0.09148335,0.15850608,0.21793605,-0.046351403,-0.004413089,-0.28802878,0.11623258,-0.074396886,-0.44275194,0.20360814,-0.061484285,-0.07404003,0.12658834,-0.30739164,-0.15904635,0.24751073,0.23135597,0.03228653,0.18268815,0.21002133,0.06951906,-0.20196989,-0.050349846,0.060084466,0.28125253,-0.062251646
Cosette::0.27830142,0.13315544,-0.13356794,0.07714546,-0.28200498,-0.14362599,-0.061755978,0.12129271,-0.058702916,0.057819303,-0.24672584,0.05267014,-0.08553225,0.44696364,0.12818223,0.124070436,-0.06047624,-0.3215399,-0.07511931,0.13103813,0.39345902,0.52485794,0.11206184,0.10210514,-0.1951413,-0.022790037,-0.072217494,0.051521566,-0.23237327,0.0154342465,-0.22319299,-0.064465664,-0.11333679,-0.002768742,-0.2175582,-0.2764567,0.06993268,0.027421795,-0.03634302,0.22667266,0.31334087,-0.12289722,0.18987167,0.018707199,-0.23935322,-0.1047999,0.23271254,0.24751776,0.21306084,-0.19656944,-0.19515778,-0.30160385,-0.08474346,-0.2452854,-0.0037394278,-0.39862877,0.12906288,0.030163188,0.1157211,-0.04703502,0.20854327,-0.2965798,-0.07713755,-0.2696101,0.17453994,-0.12131154,-0.15182413,-0.17665832,0.16331534,-0.13366766,0.13509172,-0.038050078,0.014992516,0.056716517,0.17500344,0.071823284,0.066849165,0.12975083,-0.06442584,-0.28679112,-0.0667402,-0.26261544,-0.18327181,-0.24694902,0.10117323,0.04311595,0.028628616,-0.26625285,0.05037447,0.37056574,-0.19479457,0.13537125,0.26053676,-0.17640193,0.24055918,-0.2617838,0.18885808,0.24614948,0.1791976,-0.016175842
Javert::0.111451365,0.08327349,0.16281448,-0.020381456,0.029491125,0.029689107,-0.2775227,-0.011610773,-0.107175566,0.11873896,0.0022048645,0.14763793,0.056968987,0.45917088,0.25885886,-0.13071942,0.04062837,-0.12056035,-0.10487151,-0.06960669,0.3105722,0.27214894,0.17634515,-0.0030538007,-0.030507315,-0.15188529,-0.10718852,-0.020995213,0.0064454116,0.09162643,-0.1270767,0.057449963,0.08797795,0.009425041,-0.1949811,-0.17577839,0.0081228465,-0.2578724,0.04860324,-0.08994482,0.21232916,-0.1935719,0.30931967,-0.0922469,-0.1801568,0.05990213,-0.09133521,0.02872442,0.17097741,-0.027643895,-0.0070383768,-0.22425073,0.1308873,-0.27731234,-0.021900265,-0.21370013,-0.21808559,0.17635265,0.17406943,-0.025187153,0.32164055,-0.28527382,-0.20545399,-0.1260548,0.15947713,0.09520266,-0.20537415,-0.024712931,0.039884824,0.03474356,-0.018542605,-0.07146847,0.12662943,-0.072213344,0.14716664,-0.045992713,0.25650996,0.060959414,0.24586384,-0.2063023,0.15496294,0.013844777,-0.29820123,0.14108464,0.06066,0.05842498,0.12513393,-0.070169955,-0.16643386,0.38902512,0.14782153,0.08390383,0.20202194,0.26987532,0.032624345,0.02619949,-0.12812956,0.19826813,-0.07743865,0.036879007
Fauchelevent::0.24930348,-0.1674331,-0.13519625,0.19496502,0.021468943,0.28465083,-0.3860685,0.20069312,-0.39387208,-0.053115707,-0.21164373,0.2739416,0.13564646,0.4156857,-0.07827801,-0.31181967,-0.055748306,-0.39789,-0.16604578,-0.060966372,0.20112248,0.18521233,0.3818152,0.013052899,0.28379047,-0.33098775,-0.34346563,-0.055465396,-0.116069324,-0.17902088,-0.13738728,0.11621037,-0.06498244,-0.23047884,-0.22119011,-0.5300122,0.30557257,-0.2856349,-0.39457586,0.053091954,-0.13381174,-0.07541844,0.34391162,-0.12905726,-0.28540117,-0.19892918,-0.32185632,0.2245594,0.2178155,-0.040945075,-0.23550995,-0.45644253,0.32684314,0.088033535,-0.08376254,0.11266237,0.3331634,0.43400714,-0.25296003,0.07072924,0.051689476,-0.3267535,-0.19077688,0.08773747,0.29121435,0.26777467,-0.04143115,-0.2912004,0.0043888525,-0.17772324,-0.36860013,0.08914429,0.045524217,0.2253054,-0.01485694,-0.2862407,0.3289468,-0.3070529,-0.0121599315,-0.2421638,0.24149634,-0.15082186,-0.14256966,0.36226577,-0.22562477,-0.09416133,0.08909589,-0.1731696,-0.16807127,0.64387465,0.41790715,-0.17230856,-0.13433512,0.023377288,0.43426117,-0.05748853,-0.1645029,-0.12034357,0.5702811,-0.06349442
Bamatabois::0.38631317,0.40443304,-0.13963582,-0.036922123,-0.24543732,-0.009035155,-0.0029880463,0.019992454,-0.085644275,0.2955048,-0.6153339,0.19469908,-0.06507808,0.1799969,0.28071955,-0.15993972,-0.13701198,-0.013665904,-0.52535456,-0.36587653,0.31375068,0.28945878,0.07226718,0.09025628,0.22332233,0.053605217,-0.22859953,-0.044800017,-0.0031096698,0.029128177,-0.076531164,0.035469096,0.094512515,-0.20576514,0.023178507,-0.08810811,0.07961693,-0.1487793,0.12669167,-0.01911901,0.13365906,-0.14330679,0.22487383,0.1257892,-0.17006566,0.047714017,-0.36819077,0.1455047,0.36193445,0.08473635,-0.15838993,-0.44024396,0.2059567,-0.120092936,0.18960617,0.07900063,0.03959656,0.11498295,0.01615806,-0.38798594,0.09503129,-0.16543588,0.0490984,-0.18897702,-0.15670976,0.34756425,-0.13494594,0.016068067,-0.05974279,0.22366953,-0.1779184,-0.14929049,-0.10819562,-0.024285262,-0.16447873,-0.081134655,-0.0707334,0.40911588,0.040124625,-0.29602474,-0.043442126,0.05600926,0.02336084,0.24029195,0.14972281,-0.19615252,-0.22207296,-0.06818363,-0.16999917,0.2966439,0.2690809,0.09479204,-0.03430739,-0.14856859,0.054455176,0.148874,-0.2526834,0.21556698,0.16018943,-0.06745813
Perpetue::0.42459863,0.30412215,0.24150439,-0.04018847,-0.011687085,0.33798638,-0.4576353,0.285995,0.0749915,0.15358642,-0.2237901,0.34027657,0.095250115,0.27793372,-0.039956134,-0.40766674,0.43963498,-0.030590234,-0.27655354,-0.59119314,-0.1981068,0.3695149,0.5704249,0.15870488,-0.14360926,0.03616422,-0.946538,0.37957957,-0.2708023,0.07686546,-0.19009009,0.11755745,0.4382823,-0.36874455,-0.07162414,-0.45901433,-0.021384092,0.1183882,-0.16122319,0.045833394,0.03593996,-0.26768294,0.26315752,0.020342363,0.019558968,0.14418219,0.0501062,0.3075346,0.13533904,0.2806379,-0.38477895,-0.33418062,0.19090183,0.0428675,-0.51148087,0.028772384,-0.39266083,-0.026508395,0.20627153,-0.20425293,0.09325398,-0.13665207,-0.33561996,-0.3743445,-0.03246176,0.02257435,-0.21987322,-0.09618173,-0.097659506,-0.011092662,-0.036175236,-0.23715588,0.17831746,0.067120016,-0.07439746,-0.25862378,0.16956742,0.19506279,0.13183701,-0.23362617,0.17393214,0.19345498,-0.39380187,0.281715,0.008942492,0.34200457,-0.052984364,-0.20049495,-0.54187757,0.2787055,-0.11003758,0.23383155,0.11996398,-0.116138235,0.09084847,-0.105358325,-0.32013515,-0.14267288,-0.7166276,-0.12479059
Simplice::0.32358253,0.1788855,0.15139452,0.096039884,0.07650643,0.07453087,-0.42051372,0.110181764,0.060015943,-0.012521201,-0.2513562,0.30685028,0.10465452,0.37058866,-0.025214674,-0.25979754,0.35523325,0.16080691,-0.10887945,-0.40262887,-0.005157551,0.43807304,0.48667896,0.080974184,-0.011136122,-0.071971685,-0.5431045,0.29296285,-0.3809764,0.03688494,-0.08584126,0.20720765,0.36252248,-0.22394302,0.00031559734,-0.35876027,0.006315275,0.025224235,-0.017579665,-0.08067701,-0.08377348,-0.22428073,0.1819966,0.021291265,0.02997186,0.04494895,-0.017349016,0.10603542,0.13785805,0.20044844,-0.37559545,-0.44369525,0.27000162,0.10292385,-0.33811897,0.07723728,-0.23802014,0.006895005,0.13972056,-0.045117047,0.163045,0.03319664,-0.23407793,-0.31014794,-0.04808391,-0.112066634,-0.25669953,-0.20027086,-0.20305592,0.03525998,-0.003644537,-0.022755794,0.0149677675,0.058727782,0.005592132,-0.24912372,0.19626965,0.20088682,0.01774545,-0.35861138,0.19058944,0.27806208,-0.36781758,0.25865284,-0.047977775,0.14298135,-0.014201661,-0.16627234,-0.3770037,0.33714488,-0.033121668,0.23688364,0.1464915,-0.123514,0.108917356,-0.060252022,-0.2761288,0.023024358,-0.2608201,-0.19276777
Scaufflaire::0.26668736,0.0025418405,-0.19141851,0.04716251,-0.07582648,0.12120801,-0.07953335,-0.037811927,-0.062436625,-0.031948924,-0.3122638,0.15910368,-0.057770927,0.24252135,0.1616254,0.11368781,-0.12402926,-0.26257393,0.07851615,0.050303493,0.28455353,0.30892316,-0.050488904,-0.027055014,0.4837552,-0.035871092,-0.0623405,-0.1979848,0.020882785,0.17033066,-0.0118991975,0.3141418,0.096034326,0.008911457,-0.11234122,-0.09353956,0.29184335,-0.121473774,0.17230771,-0.09864262,0.064580105,-0.09534432,0.25611332,-0.0051285084,-0.15380259,-0.049163375,-0.033534195,0.254618,0.48409978,0.062309615,0.016882394,-0.5918871,-0.11240639,0.14933354,0.420652,-0.3241182,0.15737118,0.14916976,-0.14451815,0.16280012,0.12415059,-0.14009216,-0.043426596,0.31286967,-0.09497874,0.17791738,-0.0908582,-0.099141404,-0.094328605,0.16245244,0.21632177,-0.015032683,-0.1971109,0.0040653325,0.05576637,-0.101885535,0.06790114,0.12094395,-0.19635317,-0.16985996,0.099407315,-0.25193942,-0.24115902,0.03473087,-0.08862568,0.024896406,-0.12312183,-0.49632898,-0.14909369,0.2044266,-0.14415601,0.32879084,-0.044868052,-0.21097346,0.18725486,0.1083784,-0.15101545,0.19909993,-0.05309117,-0.30619624
Woman1::0.023205161,0.16158439,0.2226776,0.116771385,-0.09289636,-0.089781135,-0.40304303,0.062830605,-0.11038482,-0.0776405,-0.39972672,0.094911724,0.08981889,0.40295947,0.4798499,-0.062210422,-0.19448885,0.004503354,-0.13427179,-0.09880425,0.35712177,0.17730223,-0.0036974342,-0.017148048,0.10206429,0.010409628,-0.05793819,-0.074174054,-0.008178802,0.089788966,-0.063627854,-0.047007058,0.15351744,0.0312581,-0.14198314,-0.1151576,0.26889658,-0.2562889,-0.056937926,-0.15020175,-0.019120723,-0.110946365,0.27172333,-0.16427514,-0.06472639,-0.007626409,-0.28552246,-0.0973331,0.2700636,0.0034397268,-0.106285356,-0.44737747,0.2728398,-0.278471,0.18114105,0.065856144,0.015043561,0.24230254,-0.046277378,0.22731945,0.14949904,-0.27649668,-0.15923452,-0.060546968,0.09983693,0.08359664,-0.19991899,-0.1770547,-0.048272707,0.025517197,0.17409602,-0.020102154,0.008282991,-0.13200013,0.18091355,-0.109576374,0.30430403,-0.04171217,0.01586376,-0.2733944,0.20725198,0.15906288,-0.2747392,0.19292462,-0.1853716,0.120872475,0.13707808,-0.27375126,-0.12971352,0.40579867,0.22141962,0.15302312,0.16695838,-0.048990883,0.18317574,0.066701815,-0.10576847,0.22950736,0.21723326,-0.10390045
Judge::0.25021476,0.4664133,-0.35114294,-0.085020415,-0.12164012,-0.08649144,0.032885607,0.15421416,-0.18260859,0.20785761,-0.66904783,0.28738964,0.031696685,0.23288463,0.18521346,-0.14136845,-0.23666722,-0.1401019,-0.52416366,-0.45184708,0.35612687,0.3862199,0.20591843,0.078316174,0.43807024,0.10381831,-0.3172015,-0.1829086,0.15267116,-0.024142647,-0.16414075,0.17511147,0.1371479,-0.19325301,0.030814528,-0.07421444,0.15961117,-0.2833167,0.011875159,0.029201958,0.19643915,-0.21527785,0.32636178,0.060392506,-0.053561877,-0.042043734,-0.5004368,0.25702906,0.5821475,0.04629847,-0.18418054,-0.4672178,0.22546956,0.044026062,0.2804259,0.1755433,0.18137369,0.13720529,-0.15055455,-0.5250441,0.13601765,-0.12883869,0.02593464,-0.16955616,-0.16446154,0.4775125,-0.14228775,0.061607376,-0.08040404,0.25710735,-0.21767446,-0.06871717,-0.16627838,-0.09675408,-0.21289483,-0.122423105,-0.09117814,0.36315462,0.09135716,-0.32654986,0.015824866,-0.060689595,-0.128914,0.37243646,0.16256331,-0.07999115,-0.2943183,-0.19658245,-0.2073446,0.12825905,0.26941493,0.15434703,-0.038126096,-0.22447872,0.0854723,0.19837394,-0.18138543,0.17297094,0.14651245,-0.0706764
Champmathieu::0.26831356,0.47987905,-0.42499778,-0.04613177,-0.15909426,-0.11941272,0.18185756,0.25209916,-0.13376531,0.29739237,-0.6489456,0.29554644,0.006658511,0.03874455,0.15840834,-0.14989215,-0.23239756,-0.07735145,-0.5119801,-0.48391923,0.3526755,0.386899,0.13039526,0.07184778,0.3633131,0.08124856,-0.29806036,-0.10642999,0.14847463,-0.06712376,-0.21046428,0.118991435,0.08018022,-0.32560202,0.12071984,-0.12197454,0.017880095,-0.21267043,-0.08695598,0.08464909,0.17559314,-0.170287,0.35347608,0.12726058,-0.11302017,0.057868585,-0.36422935,0.32974133,0.5140875,0.077685654,-0.18651706,-0.38360518,0.15604329,0.043868523,0.18164891,0.05647101,0.18040802,0.09959912,-0.05015563,-0.43337107,0.13087574,-0.22731927,0.028290704,-0.14846663,-0.14116953,0.37928295,-0.18858965,0.0026886475,-0.15006064,0.16176502,-0.20696907,-0.092513114,-0.15276045,-0.050308686,-0.2760014,-0.05563513,-0.17839378,0.32732728,-0.000112440975,-0.383119,-0.06772569,0.027163938,-0.108500265,0.35167474,0.15999553,-0.10838358,-0.24088053,-0.17064624,-0.18697849,0.12494368,0.27892417,0.17396395,-0.01225027,-0.18389894,0.095200375,0.11096503,-0.0913017,0.17127736,0.18735038,-0.027173765
Brevet::0.24712741,0.44563565,-0.28894076,-0.04290249,-0.25857803,-0.16077581,0.07944659,0.1553312,-0.16611353,0.3074737,-0.60299295,0.2791722,-0.079291485,0.13933632,0.34910935,-0.09306386,-0.22977379,-0.06648488,-0.5519277,-0.40128142,0.40784803,0.41499388,0.18419363,0.1319806,0.30680767,0.101809174,-0.15148886,-0.046333924,0.22533858,-0.058460772,-0.252206,0.04258679,0.083410904,-0.22388355,0.07230971,-0.07183652,0.11309659,-0.2075488,0.0026367845,0.14117369,0.2660719,-0.1806929,0.43663245,0.09346838,-0.14748156,0.010529035,-0.5071337,0.24299984,0.5623456,0.04355449,-0.14142214,-0.5784314,0.13465191,-0.15040895,0.24213918,0.02047112,0.1721026,0.0720165,-0.0004299949,-0.42528462,0.14014965,-0.17596962,0.05660441,-0.23980944,0.013458212,0.37300763,-0.055798106,0.04104502,-0.121987104,0.17413059,-0.09229469,-0.050960507,-0.21493709,-0.15465881,-0.14500968,0.097544104,-0.15991494,0.33447137,0.14065757,-0.2898597,-0.08447318,0.092191026,-0.0730857,0.14117381,0.15257046,-0.06180021,-0.21448292,-0.042676535,-0.1902535,0.20693925,0.30072606,0.122287475,0.05431612,-0.14905289,-0.0023318168,0.11121597,-0.08579257,0.2191983,0.21309432,0.05920097
Chenildieu::0.28653008,0.4551115,-0.33533028,-0.041912768,-0.20483498,-0.05472336,0.14859493,0.18012595,-0.11279878,0.2790253,-0.56146705,0.2520055,-0.04419787,0.11616022,0.28874213,-0.08856373,-0.3242065,-0.074656814,-0.5069559,-0.39539424,0.4371739,0.40623483,0.19277741,0.061217245,0.38235313,0.063109316,-0.24491443,-0.15044054,0.22831963,-0.15667033,-0.17870438,0.04700619,0.03393408,-0.22199476,0.10324468,-0.10404931,0.18798982,-0.19511187,-0.07307189,0.057263516,0.2240988,-0.14725457,0.38009438,0.11335084,-0.20033558,-0.0909149,-0.4015513,0.3400709,0.51557034,0.017263096,-0.15273018,-0.46751451,0.13099438,-0.036907446,0.2756329,0.067096435,0.10575856,0.10929778,-0.0486163,-0.4844476,0.16109657,-0.18552539,-0.022551369,-0.13025889,-0.10040704,0.3155084,-0.12867601,-0.045403928,-0.15270488,0.23019607,-0.2097504,-0.13441609,-0.24726076,-0.13837607,-0.111290745,-0.083912015,-0.19673182,0.3467603,0.022607299,-0.29387853,-0.074372984,0.011948398,-0.044034567,0.28774863,0.16528903,-0.1520554,-0.26469785,-0.096361876,-0.17659159,0.16165647,0.28753105,0.10461856,0.002426336,-0.113781795,-0.006877731,0.21348712,-0.16350418,0.180552,0.16243301,-0.04841743
Cochepaille::0.30929667,0.40246564,-0.29387623,-0.053803917,-0.15241043,-0.10983216,0.014698166,0.10843873,-0.113779895,0.26944003,-0.6965958,0.20095761,0.019283384,0.2064316,0.26617044,-0.13049412,-0.29828325,-0.09110555,-0.42695415,-0.36731642,0.39175028,0.42813572,0.12506813,0.10524714,0.46383244,0.108606316,-0.24093997,-0.1277257,0.1944346,-0.022966433,-0.20351727,0.2091034,0.097301796,-0.23090753,0.08665782,-0.13572094,0.13949993,-0.23790419,0.020328369,0.018075204,0.17854343,-0.2609325,0.34270293,0.10565638,-0.12998813,-0.010392657,-0.48321578,0.23738278,0.56754774,0.094689846,-0.14049461,-0.46925002,0.18649782,-0.008620302,0.27197596,0.12990303,0.11761343,0.10591358,-0.11935206,-0.39669624,0.12622662,-0.09980232,0.079606585,-0.16717166,-0.08822776,0.43955848,-0.12960589,0.045763455,-0.14658417,0.24519263,-0.19395527,-0.076893605,-0.28341714,-0.08464549,-0.1726959,0.04621161,-0.15037619,0.29819947,0.11191228,-0.3568976,-0.018442145,0.043287504,-0.13654685,0.28846297,0.12354682,-0.100674644,-0.19337249,-0.13091813,-0.20475422,0.10038394,0.2637154,0.111341834,0.0073595527,-0.19311078,0.04637137,0.1808607,-0.1476073,0.13562547,0.25569293,-0.03360545
Pontmercy::0.33979854,-0.03608703,0.3135755,0.20569924,-0.37547648,0.13900101,-0.32875073,0.10312022,-0.28999048,0.34795555,-0.5804039,-0.1951257,0.047133256,0.4754592,0.3338965,0.07976031,0.21436727,-0.5419465,-0.13299637,0.27997264,0.24281824,0.38622814,0.29242656,0.48476014,0.10859964,0.13839285,-0.37015873,-0.051651224,-0.03761097,0.12999749,-0.3102548,-0.31229448,0.07428698,0.026235936,-0.010877827,-0.04626075,-0.43608773,-0.08910537,0.3377042,0.4904724,0.24932499,-0.1717259,0.19926296,-0.17512359,0.1716837,0.29013997,0.18956813,0.22540441,0.17512543,0.45761016,-0.047877133,-0.16489992,-0.4557488,-0.14998344,-0.06522935,-0.23386793,-0.12046705,0.19309914,0.03310812,0.114639975,-0.010015894,-0.23590496,-0.16370551,0.11483311,0.51134604,0.050977804,-0.13378185,0.21380563,0.23262222,-0.032020073,-0.04015204,-0.054151878,-0.48703593,0.123429924,0.102881454,0.5177224,-0.3427245,-0.28236395,-0.09190428,-0.26478106,-0.11345853,0.29421365,-0.5816403,0.15182455,-0.0647414,0.23289719,-0.18886614,-0.3161209,0.09435105,-0.18334466,0.2513638,-0.085281074,-0.1852409,-0.25415984,0.06035222,-0.44068477,0.6114875,-0.24886341,0.39672905,0.1644512
Boulatruelle::0.7299145,-0.2195238,0.601061,0.11808355,-0.49932104,0.32368565,-0.14734563,-0.4055499,-0.1355597,0.36997932,0.24622226,-0.16321354,-0.08385317,0.32915848,0.07855897,-0.18158834,0.5742483,-0.6500364,-0.083306424,0.01983221,0.123995624,0.36754513,0.36980215,0.45575923,-0.01238362,-0.2722638,-0.15556931,0.51568246,-0.0039127627,0.060899984,0.049605526,-0.004486905,0.06258246,0.041867644,-0.20897628,-0.33917004,0.26689756,-0.03730959,-0.17275423,0.28310454,0.22489065,0.14425045,0.03634258,-0.3606816,0.09566751,0.15690926,-0.04705803,0.57471657,-0.12545836,0.18146184,0.025217563,0.086653605,-0.15946032,-0.1366576,0.06630262,-0.32484612,-0.31890574,0.17408901,0.08143056,-0.019535419,0.22171912,-0.5081505,-0.10710034,0.36642438,0.34839582,-0.102832474,-0.35765108,0.09470749,0.09581415,0.012546174,0.29775253,-0.3107981,0.039026882,0.1209252,0.20130704,0.16645396,0.116453946,-0.16445395,-0.090054795,-0.10118164,0.1484543,0.23113678,-0.49209914,-0.004079415,-0.4813176,0.05546055,0.21805915,-0.2883379,0.06895316,-0.0016471463,0.37004545,0.20143592,0.22413959,0.09153562,-0.16156845,-0.38406956,-0.10080183,0.008669647,0.2802728,-0.11271642
Eponine::0.28231862,-0.20093851,0.21384434,-0.10047526,-0.04503905,-0.00020960381,-0.06075876,-0.32726458,-0.3295842,0.16518988,-0.022773484,0.089194395,-0.013282721,0.37625042,-0.11013714,-0.21253514,0.3481425,-0.31047785,-0.077392325,0.03950024,0.025314704,0.23185626,0.22315134,0.13936462,0.064979464,0.07359114,0.047530588,0.15139988,-0.26065618,0.18402559,-0.04006609,0.30680722,0.021089526,0.21572499,-0.11311715,-0.0963198,-0.23408449,-0.314211,0.019028578,-0.066441305,0.18266982,-0.02173783,0.12577324,-0.01143029,-0.04868408,0.3035331,0.020752128,0.23378408,0.2046257,0.050029226,0.022570642,0.08005927,-0.276241,-0.0477839,0.29458353,-0.25816405,-0.113462776,0.25574064,0.16088755,-0.18478364,0.3405052,-0.17102095,-0.15384065,0.27645752,0.18791519,0.17384203,-0.38875917,0.31534714,0.24518658,-0.081166685,-0.1365827,-0.052316595,0.1603505,0.07782617,0.19808479,0.19629191,-0.059499912,-0.15875618,-0.09333553,-0.26578593,0.1554758,-0.19723481,-0.4412623,0.39980462,0.08998752,-0.066635445,-0.15944855,-0.22778793,-0.06894441,0.1253698,0.15503444,0.06133882,0.16158938,0.05780547,0.074510165,-0.22340406,0.10711832,0.19844928,0.1615102,0.03271712
Anzelma::0.28622398,-0.028980836,0.36461616,-0.1983543,-0.28463563,-0.14235413,-0.25049934,-0.3038179,-0.52348095,0.24827336,-0.12530397,0.1958194,0.057835,0.4457428,-0.059018414,-0.15579654,0.10342071,-0.32006508,-0.3216281,0.03217867,0.027053162,0.52193,0.31608227,0.20093952,0.08621501,0.12096827,-0.09731494,0.3691489,-0.21128783,0.16864444,-0.1456828,0.46042415,0.04230282,0.21403508,-0.18666512,-0.30114338,-0.050567422,-0.22477786,-0.10596863,0.11118903,0.20056361,0.024421401,0.25418073,-0.091305286,0.074758895,0.4195375,0.05609916,0.4757775,-0.049155366,0.049419254,-0.25404665,0.1504401,-0.53076905,-0.20694055,0.25870404,-0.053273853,-0.1912568,0.15446961,-0.016171942,-0.29850453,0.5929613,-0.24376412,-0.06748294,0.38535628,0.068014346,-0.116868,-0.58862853,0.33161497,0.37906224,-0.057429034,-0.16232827,0.12959228,0.20851216,-0.03282693,0.16626903,0.12160365,-0.10172475,0.004849008,-0.19609623,-0.04344892,0.05622625,0.01830524,-0.3670453,0.3482514,0.055393647,-0.15463865,0.11287495,0.060132932,-0.07132601,0.17788562,-0.17725189,-0.04111515,0.4070728,0.002939049,0.008057619,-0.11807023,0.18085437,0.45135736,0.39218605,-0.016582843
Woman2::0.44836003,0.071778305,0.16775832,0.047845118,-0.20271811,-0.08543564,-0.12718979,0.02027657,0.22833888,-0.09590837,-0.32473683,0.045489393,0.032661114,0.34569836,0.118038505,-0.14335823,-0.28179276,-0.04848661,-0.08060185,0.050494727,0.2156089,0.49673384,0.15241529,-0.07203055,-0.13153848,-0.100323446,-0.0987997,0.16036241,0.0070860963,-0.102351345,-0.17648794,0.010759049,-0.010862231,-0.16216771,0.028473627,-0.1719741,0.20230071,0.022090709,-0.3215391,-0.07557897,0.28179023,-0.18372233,0.34682012,-0.0034560678,-0.29112095,-0.3624713,-0.053689938,0.1806309,0.38787302,-0.25506416,-0.20574331,-0.14698231,0.039947495,-0.15201662,-0.008979378,-0.24767743,-0.11885547,-0.020067867,0.110780716,-0.09396542,0.44015923,-0.1156073,-0.18769333,-0.42253172,0.057149727,0.03211036,-0.3168114,-0.2494478,0.05157766,-0.068879545,0.15322636,0.07764899,-0.3167586,-0.057892855,0.32584193,0.05206031,0.106067725,-0.027162895,0.058855284,-0.24525338,0.005932967,-0.23392604,-0.33316198,0.010156563,-0.058457796,0.09367202,0.23517184,-0.098007225,-0.28168017,0.34766477,-0.13131085,-0.05891453,0.46602535,-0.018623065,0.010243433,-0.12692052,-0.13034801,0.04228093,0.24328366,-0.43833327
MotherInnocent::0.07441432,-0.24438624,-0.22705628,0.1527986,0.20106159,0.3588995,-0.038351234,0.32162187,-0.27255255,-0.22811331,-0.1940235,0.098494895,0.18865556,0.5505349,0.12545943,-0.21891116,-0.19935267,-0.39172548,0.0334269,-0.23303346,0.5141943,0.47512662,0.38741833,0.14826457,0.62447816,-0.3824359,-0.42332634,-0.44502935,-0.13911012,-0.31447977,-0.17842793,0.22924948,-0.09093481,-0.2582523,-0.4299103,-0.3127939,0.4875317,-0.18574923,-0.096673794,-0.14385405,-0.12339365,-0.10369049,0.361399,-0.025367856,-0.10581157,-0.12134142,-0.1541378,0.3303531,0.29397425,0.13561712,-0.19120999,-0.34359318,0.34028968,0.25938907,-0.07397913,0.10208711,0.25096926,0.2967333,-0.33438882,-0.08327602,0.30245996,-0.32511264,-0.17033544,0.14698024,-0.033951405,0.29644024,-0.32122996,-0.38879326,-0.09016894,0.049366463,-0.16389994,-0.0083013,-0.015760247,0.088623144,-0.13828814,-0.23424643,0.03917025,-0.40808848,0.115886256,-0.28090593,-0.044579796,-0.46567163,-0.18482594,0.27342576,-0.063248165,-0.18453772,0.1858813,-0.27097103,-0.117704295,0.29306892,0.22675927,-0.042303648,-0.33200237,0.19762905,0.34007162,-0.153668,-0.030127171,-0.048336852,0.5413777,-0.19596127
Gribier::0.62643075,-0.34185898,-0.0007615177,0.41586354,-0.06231465,0.43293664,-0.03894939,0.70925117,-0.5109885,0.24270687,-0.16126502,0.3755939,0.1641931,0.31189445,0.10089051,-0.64403915,0.2361877,-0.32841107,-0.31076753,-0.42307574,0.38687843,0.49030086,1.0826619,-0.06401524,0.2860151,-0.29428026,-0.49402246,-0.24569876,-0.19902393,-0.50876504,-0.06896399,-0.15475547,-0.03851045,-0.34059072,-0.48569563,-0.27003115,0.3911763,-0.45862857,-0.38962853,0.29164737,-0.09300296,0.24860214,0.54505885,-0.17246486,-0.27671525,-0.19380507,-0.5919843,0.25746277,0.26462033,-0.17553057,-0.39514807,-0.39816448,0.43358618,-0.12374773,-0.08546607,0.24952905,0.28177053,0.63820165,-0.10497206,0.10239939,0.17677271,-0.48179978,-0.45624417,0.02482595,0.61662596,0.50860816,-0.11114792,-0.45192528,0.08150335,-0.4352082,-0.54652804,-0.02954984,0.31699607,-0.022478683,-0.109183595,-0.36759874,0.058748577,-0.5467381,0.038338795,-0.25193894,0.04621721,-0.14624262,0.115085796,0.31929708,-0.3479357,-0.17020231,0.2043491,-0.17492129,-0.46599373,0.6093275,0.36666644,-0.10247332,-0.5706449,0.2896564,0.3480186,0.09730296,-0.11221933,-0.045331795,0.5050253,0.16240527
MmeBurgon::0.16893056,-0.42368105,0.48474944,0.022518663,-0.1648687,0.24176998,0.00041790228,-0.11115373,0.005631636,-0.30078945,-0.2981387,-0.0052337907,-0.0045096967,0.23165722,0.49700838,-0.2672548,0.3307872,0.10153515,-0.8492111,-0.07199915,0.122402035,0.2726994,0.5262457,0.46640614,-0.23362727,-0.08171791,0.037769392,0.39688176,-0.4765019,-0.20277385,-0.10544244,-0.34113663,0.12712991,-0.28881174,0.15278143,0.21054132,-0.2683686,0.54221696,-0.13367304,0.1078562,0.21433137,0.45922846,0.7792553,0.24134596,-0.32558185,-0.4540609,-0.056674942,0.30323905,0.6980685,-0.08312024,0.25638467,-0.17516595,-0.28882793,-0.21967109,-0.20655414,-0.33735666,-0.67559224,0.050880052,0.23081963,-0.57488567,0.29416728,-0.6359236,-0.3167414,-0.12731351,0.17818509,0.3772874,-0.30692476,0.1667512,0.06919876,0.07587026,-0.3615879,-0.25771007,-0.48613134,-0.5154257,0.30015126,0.1872127,-0.237989,-0.41318026,0.15168342,-0.69260263,-0.011746939,0.10370295,0.30325782,0.7071522,0.3511873,0.3818548,-0.16641957,0.401333,-0.10825545,0.0034430933,0.8360699,0.15903322,-0.09669762,0.7062475,0.165067,-0.07843073,-0.12400766,0.21711755,-0.24409704,0.4656096
Jondrette::0.29541242,-0.49624348,0.57271373,0.013045191,-0.2911342,0.37977114,-0.007052946,-0.040184747,-0.00833671,-0.39353046,-0.42637175,0.1592708,-0.024199411,0.2691545,0.59211993,-0.45410386,0.32094756,0.25565037,-1.0909859,-0.11243799,0.22575265,0.34197643,0.698384,0.5715339,-0.29970464,-0.09186143,-0.008807022,0.45615712,-0.6528133,-0.26592827,-0.014042307,-0.48157215,0.19134825,-0.36888188,0.19023679,0.2368793,-0.3025931,0.6890633,-0.17582959,0.051769193,0.3122379,0.5828619,1.1195261,0.20773622,-0.48844412,-0.56911063,-0.008778155,0.41223994,0.92052066,-0.21525782,0.27932936,-0.27861655,-0.42983326,-0.29678047,-0.2837434,-0.45830992,-0.9292338,0.024585303,0.27730677,-0.79651284,0.41428584,-0.8033307,-0.5143764,-0.20292966,0.0876562,0.36546364,-0.39136147,0.082454026,0.048438206,0.06290317,-0.48839298,-0.37764046,-0.50558746,-0.7269824,0.38021755,0.19209288,-0.2456341,-0.49058646,0.17707159,-0.8297071,-0.038442727,-0.020373361,0.50714856,0.9355484,0.45845872,0.41211396,-0.1250482,0.45900127,-0.12286916,0.15916063,0.8860275,0.14340952,-0.11787474,0.89181536,0.18537402,-0.03018183,-0.15601406,0.31237996,-0.39762545,0.4644358
Gavroche::0.14058119,-0.18697032,0.16806318,-0.12203875,-0.16486128,0.24670897,-0.15991847,-0.2356752,-0.09919457,-0.25296718,-0.05845379,0.024470711,0.29330954,0.39497387,0.12695841,0.17391135,0.34734562,-0.22947378,-0.372983,-0.04390969,-0.09559938,0.004070393,0.1614088,0.1445156,-0.123541795,0.032305777,0.22577357,0.089247234,-0.27374548,-0.040749088,0.07376347,0.13110425,-0.07445544,0.027291454,0.1068193,0.15609004,-0.19291493,-0.16438785,-0.04241853,0.10066335,0.26811513,-0.126594,0.27745005,-0.041800234,-0.016871324,-0.15780336,-0.028392222,0.12001339,0.4120749,0.017706726,0.2787891,-0.16586697,-0.053732984,0.018390696,0.13903557,-0.14316268,-0.042558607,0.19269925,0.1119337,-0.067556106,0.081941634,-0.18192837,-0.13161066,0.0019809997,0.12874803,0.25314376,-0.19531424,0.09476986,0.057035096,-0.08149986,0.115180396,-0.098322794,-0.17738168,-0.078817874,0.20397568,0.091623105,-0.124886565,-0.250048,0.05857114,-0.31060228,0.103330836,-0.076005735,-0.255425,0.20238495,0.14172848,0.26769546,-0.22842054,-0.23718299,0.018088281,-0.09283439,0.2519562,0.17850626,0.19114225,0.23655944,0.058626626,-0.28246763,0.009474771,0.04614653,0.026897019,0.16121352
Gillenormand::0.42217842,0.09118415,-0.09992542,-0.012994358,-0.44305182,-0.022591531,0.25648573,0.21819557,0.112338796,0.13495609,-0.58945537,-0.08072134,0.26084396,0.12011615,0.025512176,-0.00027410267,-0.36138958,-0.31955838,-0.15184624,0.032426536,0.34791812,0.47228995,-0.17483246,-0.097405694,-0.15469255,0.042658072,-0.24760759,-0.17852984,-0.39246964,0.034653395,-0.2833297,-0.079297684,0.014984201,-0.32245642,0.03613028,-0.19047032,-0.13975497,-0.3017241,-0.25535712,0.34577176,0.25396246,-0.24307963,0.28758568,0.1618684,-0.2899567,-0.1168245,0.32954648,0.28620666,0.24107206,-0.43295178,-0.20303246,0.031630654,-0.21387292,0.005749479,-0.13869874,-0.49883872,0.1694223,0.114895836,0.13809584,0.29278797,0.10531351,-0.50327617,-0.17520055,0.026350362,0.14798379,-0.16265874,-0.087055705,-0.2531853,0.025514266,-0.11161857,-0.15041162,-0.20609611,0.13027348,0.23878779,-0.05240685,-0.16403353,-0.119589806,0.0187026,-0.33142284,-0.4570622,-0.07604047,-0.21741712,-0.06733307,0.055689745,0.034215312,0.1552671,0.12714142,-0.34878588,0.16048045,-0.040917147,0.060066495,0.10376197,0.14079544,-0.16496328,0.16464967,-0.24372953,0.19180879,0.23791088,0.16801554,0.07733961
Magnon::0.39162198,-0.12337382,-0.055469178,0.03571006,-0.27718917,-0.05764883,0.20099922,0.17290416,-0.16801104,-0.05287589,-0.37603724,0.29042995,0.46743238,0.17737041,-0.11189911,-0.3449999,-0.021477275,-0.21045756,0.032463662,-0.349225,0.40152538,0.4307124,0.22473158,0.14989735,-0.4132155,0.14349318,-0.043042444,0.04082242,-0.2401588,0.09332253,-0.08514828,0.0013333788,-0.018014662,-0.50007254,0.08324262,-0.35621837,-0.21211971,0.017655127,-0.24210651,0.37532252,0.0066257715,-0.41004592,0.5057726,0.11789882,-0.12784788,0.060810305,0.16814655,0.34754467,0.25657767,-0.22994095,-0.40434682,0.12585062,-0.22700223,0.05383866,0.044122707,-0.2790413,0.16283783,-0.25200355,0.044700295,0.17181827,0.27835155,-0.9824978,-0.26467174,0.1407124,-0.07497001,-0.21425763,-0.20316835,-0.2555667,0.27407077,-0.42354596,-0.2488732,-0.05242491,0.39658576,-0.10206382,-0.33664268,-0.3034722,-0.2825594,0.2753362,-0.6413663,-0.3943977,0.31085393,-0.14531939,0.09516506,0.5015327,0.5052919,0.121154256,0.32758892,-0.28780004,0.12870906,0.1805501,0.14386551,0.25426868,0.1386682,-0.46424097,0.24230966,-0.25753626,0.36364335,0.6982672,0.4077502,0.0714612
MlleGillenormand::0.1549828,0.075508766,-0.072939776,0.24465202,-0.21946076,-0.28243092,0.009830329,0.14302228,-0.18612513,0.293046,-0.66927725,0.041228928,-0.038134024,0.18354851,0.033085853,-0.07196154,-0.31226575,-0.4002769,-0.026852751,0.15418375,0.20289241,0.40980121,0.051805295,0.21999282,0.046834305,0.2804595,-0.20290396,-0.12033664,-0.25712577,0.022953395,-0.43559653,0.034668524,-0.17458174,-0.1713376,0.10964998,-0.3030225,-0.1243379,-0.078325555,-0.19704403,0.36258158,0.23365006,-0.27052695,0.46547663,0.24800031,-0.10316735,-0.041749135,0.2670922,0.29465804,0.2686294,-0.18153109,-0.19842036,-0.31258065,-0.12109844,0.051397473,-0.2633829,-0.5418374,0.09183789,-0.008034941,0.23014066,0.14929019,0.10805291,-0.37039962,-0.13246885,-0.074317455,0.21845298,-0.1851126,-0.01794623,-0.30223608,-0.06603479,-0.12100323,-0.35921222,0.055127077,-0.34719983,0.21925616,0.1127712,0.35247242,-0.15285982,-0.0618237,-0.13910313,-0.4749182,-0.29035527,-0.12799549,0.00016952986,-0.17047068,0.16087326,0.4403898,-0.046328872,-0.18659149,-0.032295793,0.13730064,0.073937126,0.028588306,0.027726771,-0.37037382,0.20640792,-0.20550305,0.39398545,-0.016279656,0.14160584,0.106765114
MmePontmercy::0.46587014,-0.054734632,0.30255768,0.2815652,-0.3277687,0.055994008,-0.26530662,0.09870037,-0.21864149,0.47316098,-0.8765377,-0.15053873,0.07110425,0.7344838,0.3538654,-0.08736099,0.06029854,-0.54531384,-0.23359166,0.47421494,0.323517,0.4714272,0.25292456,0.65366715,0.18011154,-0.031192396,-0.41792977,0.06886205,-0.21074876,0.1738125,-0.6822869,-0.3129649,0.15950076,-0.26354572,0.23814292,-0.2919334,-0.5715854,-0.34678465,0.36674044,0.60088027,0.3839773,-0.48825258,0.33773124,-0.06213876,0.016950693,0.27567467,0.4164158,0.22186477,0.21854794,0.2528309,-0.00918543,-0.41708076,-0.6456217,-0.19940276,-0.502034,-0.35224146,0.154573,0.33030626,0.16203636,0.25368205,-0.19650307,0.031033954,-0.19854006,0.038481485,0.4304532,-0.14005591,0.1717541,-0.063028276,0.18438496,0.29236794,-0.2902577,0.11097971,-0.5978668,0.2935243,-0.13614805,0.4668432,-0.21463825,-0.18750675,-0.08392177,-0.33161873,-0.2237657,0.3336041,-0.2715277,0.007069613,-0.0065040556,0.15136799,-0.0057204366,-0.25686243,-0.015868874,-0.0509912,0.46680692,-0.0014451094,-0.2898532,-0.37445515,0.1910203,-0.35189196,0.5866741,0.12224274,0.42162,0.23395331
MlleVaubois::0.1269282,-0.00182246,0.17307906,0.1976091,-0.2557903,-0.3350697,-0.23989028,-0.00082104455,-0.23301257,0.29521787,-0.78671134,0.10198903,-0.011715505,0.57159984,-0.10361278,-0.23577812,-0.3911309,-0.68526775,-0.4995168,0.35065365,0.10776112,0.63339823,0.13469326,0.3780863,0.15364924,-0.17203306,-0.47933176,0.067051366,-0.76405317,0.29638997,-0.66259885,-0.06373238,-0.14860536,-0.26488644,0.23069295,-0.5269177,-0.002960765,-0.23100436,-0.13578798,0.38708997,0.28870463,-0.25689343,0.4292801,0.2675447,-0.08883963,-0.27076748,0.22922654,0.48483834,0.21855876,-0.41277504,-0.2489015,-0.40690714,-0.04986588,0.32624215,-0.59870386,-0.23709638,-0.015484931,0.17264594,0.07341849,0.10778296,-0.02878647,-0.14997138,-0.29357365,-0.025711158,-0.0997192,-0.30718967,0.25000688,-0.49246177,0.06641901,0.21165225,-0.58961535,0.20663698,-0.6517213,0.09011938,-0.12638296,0.2799253,0.02852728,-0.24415348,-0.11472339,-0.32181007,-0.20396113,-0.24038321,0.39407486,-0.26582322,0.21577515,0.68875366,0.16848277,0.010930447,0.02637809,-0.14815515,0.14059329,0.240618,-0.196374,-0.43556535,0.22815333,-0.101287045,0.33127686,0.25129747,0.04850088,0.21714664
LtGillenormand::0.31831965,-0.16429663,-0.0413676,0.0144127915,-0.35761407,-0.15981779,0.2589189,0.0635977,0.03855563,0.05932022,-0.4476204,-0.10228215,0.08526398,0.48330978,-0.017464748,-0.15218249,-0.24195547,-0.17249253,-0.16948843,0.25924122,0.16002828,0.360729,-0.0732636,-0.039539512,-0.004004804,0.16682951,-0.0795429,-0.065171234,-0.1570431,-0.1610297,-0.2869552,0.084946394,-0.063219234,-0.18307866,-0.008325986,-0.14473286,-0.116877995,-0.18393795,-0.15300368,0.42653817,0.40633842,-0.15652858,0.21076114,0.065879956,-0.21331382,-0.00027973697,0.469851,0.3693187,0.40590116,-0.3399423,-0.31695867,-0.275649,-0.4724532,-0.034573678,-0.3749441,-0.5781921,0.18706332,0.19402504,0.2618131,0.17844868,0.13292553,-0.23373522,-0.18376985,-0.20782496,0.24441859,-0.2313546,-0.0002336014,-0.24692605,0.18810259,-0.1551206,-0.14335223,-0.13039474,-0.038264472,0.22199562,0.07966684,0.06590757,-0.25461432,0.094643526,-0.2931606,-0.4647748,-0.18181595,-0.38220322,0.010808465,-0.21216543,0.17601876,0.25199094,0.10753566,-0.3220696,0.028920604,0.054730136,-0.12442298,0.2599591,0.22437412,-0.3029393,0.3664901,-0.320225,0.23645802,0.30918756,0.21193598,0.07415872
Marius::0.28366154,-0.02898254,0.15063375,0.015314386,-0.25928047,0.1878001,-0.020648835,0.08750401,-0.024569253,0.050588418,-0.30955908,-0.022535592,0.19581683,0.23670836,0.004166242,0.009640562,-0.11595099,-0.28211674,-0.11574119,0.17913605,-0.0047123334,0.1452184,-0.02271253,-0.031803582,0.0065328106,-0.025263922,-0.03375421,0.16584483,-0.23766999,0.0145802675,-0.032048937,0.1268071,-0.039134633,-0.10896717,-0.022594038,-0.068562694,-0.055617165,-0.2998684,-0.2099686,0.4273492,0.33753452,-0.006887371,0.41988784,-0.097778775,-0.11353753,-0.16369884,0.3710765,0.030122403,0.39338216,-0.2551911,0.043821502,-0.11444796,-0.33717576,-0.08807107,-0.27467608,-0.45299813,0.1736233,0.19712594,-0.073571116,0.14993116,0.0728173,-0.23223853,-0.01973533,0.17124726,0.17345123,-0.05030984,-0.04022618,-0.02412637,0.051005457,0.07090759,-0.05318984,-0.071119726,-0.24215564,0.14303099,-0.17210557,0.10195785,-0.15961514,-0.07547796,-0.050919097,-0.23223133,0.046457645,-0.015693283,-0.12292321,-0.019583117,-0.04181998,0.05671959,-0.17299664,-0.030913483,0.10823639,-0.10952321,-0.008748592,0.010598554,0.10710047,0.029551629,0.20033924,-0.11453219,0.17049168,0.046605024,0.1564002,0.118217826
BaronessT::0.5127122,0.13369305,-0.027531063,0.07687349,-0.5277164,0.038745593,0.16406104,0.304065,0.15901402,0.027566737,-0.57926196,-0.18127029,0.35562494,0.16923085,-0.083997525,-0.06842443,0.031395078,-0.49504983,-0.031706613,-0.011122398,0.17784311,0.39897478,-0.24405584,-0.047055,-0.09968192,-0.16284879,0.06772587,-0.18160011,-0.6360043,0.04668513,0.14277768,-0.13604045,-0.019814972,-0.20563383,0.03213328,0.10070342,-0.20603247,-0.34685105,-0.045823455,0.5167225,0.25100258,-0.17500032,0.37277523,0.11015748,-0.15727745,-0.035933487,0.27837107,0.16150816,0.34345976,-0.12955602,-0.3333588,-0.017902201,-0.0030617171,0.09327914,-0.15822248,-0.5529164,-0.12180478,0.0444233,0.09798027,0.2784767,0.06351462,-0.7409399,-0.010369535,-0.11734641,-0.09633063,-0.06379602,-0.25926247,-0.16904157,0.16245754,-0.07830401,-0.02850035,-0.3170648,0.04973929,0.21313924,-0.29458758,0.09275976,-0.36616632,0.19369851,-0.40433165,-0.4312987,0.07703847,-0.19980307,-0.13807875,0.028243115,0.12814283,0.16265132,-0.24596012,-0.26073954,0.5076402,-0.25945982,-0.009874492,0.3002108,-0.030627165,-0.41800115,0.3350501,-0.5352865,0.292482,0.019665785,0.42571783,-0.06848167
Mabeuf::-0.009197796,-0.2705515,0.22193632,-0.20109534,-0.35078683,0.26663035,-0.22434837,0.12710573,-0.3137974,-0.30060047,-0.09969455,-0.12701261,0.18684992,0.23263511,-0.06463791,-0.031255394,0.10342551,-0.19923055,-0.39925295,0.35465246,-0.07604001,0.002403819,0.016065829,-0.16214885,0.28931692,0.1760255,-0.0062540746,0.12854752,-0.18718919,-0.18944752,0.084978394,0.16182975,-0.119264305,0.1288435,-0.20051481,-0.05546496,-0.14039743,-0.23527992,0.03231572,0.19266011,0.2793338,0.10316543,0.20905216,-0.1109861,-0.27629277,0.04087445,0.24318315,0.025497321,0.524899,-0.071653485,0.04103634,-0.17282411,-0.42747867,-0.09225861,-0.05284514,-0.41714785,0.028058661,0.6381999,0.0034474942,-0.06390847,0.11195375,-0.23294935,-0.25550032,0.20056206,0.1652015,-0.06794357,-0.03505413,0.034897014,-0.025756294,-0.116612576,-0.11611402,-0.24123405,-0.15163977,-0.018769989,0.13571471,0.027337277,-0.25848243,-0.26482248,-0.09182294,-0.32737416,0.122741655,-0.120916136,-0.19613865,0.21967301,0.024956211,0.21856725,-0.53791595,-0.20723456,0.07322206,-0.09118385,0.060443778,0.09812926,-0.0035241821,0.19134583,0.14053752,-0.097474165,0.19760205,0.006685684,-0.022998944,0.14307438
Enjolras::0.12749875,-0.29098633,0.26391286,-0.23360586,-0.24651407,0.33948264,-0.29799,0.16840237,-0.09142759,-0.26249948,-0.16977502,-0.02826302,0.3444226,0.25766188,-0.01011287,0.052345503,0.009304201,-0.12170232,-0.30837613,0.12968099,-0.029713582,0.060410906,-0.010998223,-0.13603817,-0.008404504,0.13012175,0.09278756,0.21137427,-0.21508129,-0.089570895,0.040148214,0.108219676,0.05708191,-0.03586675,0.023630194,0.011468329,-0.046330795,-0.29057506,-0.22996935,0.19844659,0.17454214,-0.036120452,0.4638056,-0.1407665,-0.20328213,-0.058127295,0.06885862,0.028671525,0.5364966,-0.011157263,0.09355589,-0.32384115,-0.088202685,0.02138574,0.031435926,-0.21771917,0.04511719,0.23955704,-0.13156503,0.054958567,-0.0037490502,-0.16971487,-0.26318344,0.048755765,0.08343024,0.1132725,0.03197835,-0.056048412,-0.056761753,-0.059233725,0.02125334,-0.14168644,-0.16788034,-0.021628072,0.0892368,0.056577597,-0.1276277,-0.29028752,0.02730574,-0.19332568,0.23641352,-0.1372129,-0.28274292,0.21112388,0.010181789,0.19545507,-0.22806463,-0.21621598,0.014384197,-0.038071442,0.10459374,0.151369,0.09498449,0.0065043136,0.10843286,-0.14302309,0.032882307,-0.10303923,-0.086506166,0.21602003
Combeferre::0.07924241,-0.25409585,0.29074034,-0.2491656,-0.3643801,0.2831249,-0.20398688,0.2927313,-0.120624535,-0.29959792,-0.19912438,-0.12678218,0.33916637,0.15187585,0.014420823,-0.007526871,-0.0020149515,-0.19998394,-0.522673,0.22772455,-0.14569603,0.0899964,0.0027816473,-0.124941014,0.108047225,0.15371901,0.10174836,0.3151156,-0.27948737,-0.11296171,0.098250255,0.17237939,-0.048690155,0.016313227,0.008955696,0.13254882,-0.011238891,-0.21063246,-0.12551501,0.1342009,0.24745107,0.17450818,0.51681685,-0.20530568,-0.094678275,-0.06177836,0.12266534,0.10138912,0.4808016,-0.022050658,0.038787425,-0.15630956,-0.17725658,-0.009825255,-0.05909384,-0.26532614,-0.13715947,0.24207637,-0.06507208,0.00915251,0.10273492,-0.18123345,-0.17913397,0.12446718,0.14122216,0.10105742,0.044666365,0.08002569,-0.1401793,-0.032672077,0.033861905,-0.23807001,-0.2626375,-0.058990967,0.09423313,0.14549705,-0.27805933,-0.38324046,0.07598475,-0.2506365,0.13955875,-0.15107179,-0.24132445,0.33326304,0.008969111,0.19947562,-0.27408192,-0.23672633,0.13841623,-0.22693773,0.010938184,0.20542629,0.041447148,0.29316494,-0.006045732,-0.052102212,0.15751809,-0.08987287,-0.055877537,0.20643781
Prouvaire::0.099882886,-0.2174526,0.3929509,-0.33211774,-0.33510995,0.34406412,-0.26337606,0.28211644,-0.1760859,-0.3044265,-0.07381379,0.021793408,0.41506004,0.22058384,0.04530071,-0.012758003,-0.01741233,-0.15822394,-0.59890467,0.07666289,-0.14553425,-0.028883278,0.022813827,-0.10178514,-0.084998466,0.14488833,0.07626485,0.41658956,-0.19260885,-0.04668951,0.0914125,0.12000297,0.005542775,-0.06301669,0.06661198,0.12633035,-0.07203752,-0.27779254,-0.23667593,0.15611619,0.34914613,0.018070374,0.5810165,-0.21130285,0.0431862,-0.15657882,0.052287392,0.04045036,0.50367445,-0.14712751,0.21919937,-0.24329552,-0.1974121,-0.13760011,0.017130796,-0.16799209,-0.08320398,0.25752807,-0.17012797,-0.026974045,0.07678948,-0.179445,-0.20310065,-0.011428395,0.08130733,0.17942868,-0.05681948,0.05264384,-0.104429945,0.060952753,0.07978968,-0.12152531,-0.33925262,-0.13176596,0.027471965,0.15004162,-0.33284184,-0.4386478,0.25188777,-0.29695424,0.15931796,-0.07006783,-0.32340413,0.3211847,0.0628833,0.27885994,-0.2074103,-0.19440791,0.06816221,-0.20694329,0.09187387,0.24251436,0.121300094,0.27083737,-0.070527285,-0.08639003,0.08705528,0.14078778,0.037342966,0.3424628
Feuilly::0.06891479,-0.32431662,0.28216797,-0.3238847,-0.29260406,0.33346432,-0.25635606,0.21086913,-0.21226822,-0.34331876,-0.14704368,-0.114522316,0.39185935,0.29893038,0.06300006,0.038410388,0.035192553,-0.19579577,-0.5273916,0.23861282,-0.116211474,0.07172738,0.03284779,-0.04909243,0.07381793,0.1927489,0.114163555,0.31665593,-0.24184819,-0.15007211,0.050738446,0.20796794,-0.023741439,0.028195981,0.050610896,0.12940638,-0.0845389,-0.20908608,-0.17796534,0.15009186,0.27851057,0.056942943,0.52595335,-0.21035698,-0.0667792,-0.0038731461,0.1766758,0.12198677,0.4491383,0.050995614,0.11003126,-0.23579848,-0.20815004,-0.047659054,-0.022041598,-0.21559179,-0.13518244,0.2550175,-0.095877014,0.03346443,0.08440209,-0.20308228,-0.2231483,0.09191967,0.095567,0.10729028,0.013705168,0.04319753,-0.13638796,-0.0290477,-0.012889889,-0.16855608,-0.23741193,0.021307405,0.20206669,0.09285981,-0.24284513,-0.44065392,0.10831628,-0.26505142,0.018624721,-0.11357005,-0.18352373,0.2736824,-0.0074906712,0.18447216,-0.17629327,-0.24092142,0.12710406,-0.15611272,0.0650704,0.22066477,0.02288513,0.23813951,-0.015613076,-0.072591186,0.11252628,-0.071025744,-0.022471769,0.29780456
Courfeyrac::0.066104256,-0.31891808,0.19110286,-0.24726285,-0.3060469,0.18055177,-0.12459466,0.25798917,-0.2129287,-0.2540888,-0.14796631,-0.040165514,0.2923533,0.25444376,-0.13012938,-0.007713257,0.06361742,-0.19009699,-0.5078383,0.25840932,-0.099375464,0.1178269,0.08271089,-0.14373405,0.03402026,0.049561303,0.11242828,0.34244576,-0.2060569,-0.14519884,-0.0007909052,0.094630376,0.022019388,-0.009814369,0.054136384,0.07382857,-0.098070264,-0.26893407,-0.2292373,0.32787877,0.24567625,0.11831319,0.4998091,-0.23399982,-0.08416091,-0.009996892,0.12999146,0.22937958,0.395939,-0.014712114,-0.091415375,-0.22569889,-0.22637849,0.01852918,-0.09913988,-0.13920248,0.0061382,0.2231016,-0.1319486,-0.007170975,0.10088247,-0.1270239,-0.2605889,0.09794477,0.13051368,0.08246444,-0.010786259,0.060171362,-0.0067777294,-0.10161851,-0.02802106,-0.096823014,-0.19630042,-0.07593383,0.036981653,0.03685632,-0.25457698,-0.31941417,0.002801886,-0.14848429,0.17955087,-0.14263289,-0.28550953,0.3445374,0.060550954,0.14430562,-0.25677985,-0.2306103,0.05762357,-0.14075273,0.01779882,0.25095886,0.04868203,0.19347434,0.10379123,-0.14543691,0.1872296,-0.054810695,0.0064711743,0.26451704
Bahorel::-0.011765965,-0.31773347,0.19232303,-0.2044,-0.318732,0.25679708,-0.29299283,0.18942317,-0.1440651,-0.37966067,-0.16262457,-0.017616773,0.25826478,0.21941847,-0.045599647,0.020914245,0.057146307,-0.16614774,-0.48638824,0.18283351,-0.076893136,0.07966684,-0.018119568,-0.044204485,0.09452637,0.08772138,0.09784013,0.31319505,-0.3154872,-0.09928853,0.025945734,0.0736241,0.02210739,0.005372048,0.08170954,0.123926766,-0.06259361,-0.21417361,-0.22541653,0.26633042,0.21831445,0.12715319,0.47025266,-0.20952559,-0.16981734,-0.04144108,0.13363425,0.1827644,0.47357336,-0.023673104,0.04683828,-0.24015819,-0.23213114,0.061548613,-0.026400095,-0.19206381,-0.053398915,0.20287023,-0.15335368,0.0028184478,0.051293913,-0.1431843,-0.2532811,0.10337923,0.060547635,0.10719197,0.017286524,0.040810913,-0.0002211459,-0.06732879,0.010274647,-0.1620731,-0.29198208,-0.09205665,0.13093989,0.06478515,-0.23196803,-0.42387447,0.008231077,-0.19008382,0.22952302,-0.1504193,-0.24790515,0.3112386,0.056311198,0.23198587,-0.23989655,-0.21566181,0.12506509,-0.19157812,0.040652756,0.18166968,0.07874197,0.11241484,0.09353673,-0.13445523,0.10656697,-0.06545574,-0.0228393,0.22638147
Bossuet::0.04583332,-0.18961613,0.11203932,-0.29507476,-0.35499215,0.31344235,-0.20883209,0.2862065,-0.16667654,-0.27015632,-0.14595968,-0.012233953,0.32196024,0.20186064,-0.06663513,0.04101737,0.023472622,-0.1801372,-0.46003082,0.15098402,-0.047600947,0.13998349,0.062282696,-0.16707352,0.11085999,0.15378466,0.017633593,0.22838505,-0.20621842,-0.07456149,-0.023729123,0.11809932,0.017815089,-0.011894412,0.1114393,0.061686274,-0.09730923,-0.28327578,-0.23059192,0.26232263,0.29668105,0.049875617,0.47318986,-0.17163998,-0.17374338,-0.017105984,0.05120976,0.16046163,0.43839774,-0.011802607,0.11902879,-0.24908605,-0.20001811,0.050871003,-0.04601128,-0.21597853,-0.009774001,0.26405215,-0.054432567,-0.022750417,0.004707219,-0.085123025,-0.2325195,0.14638753,0.16705216,0.18062557,-0.027045676,0.038144503,-0.046497107,-0.0085749775,-0.09978748,-0.092162885,-0.30573708,-0.049219754,0.11258339,0.10161018,-0.29200995,-0.40452394,0.098462045,-0.21405429,0.18545438,-0.13489416,-0.3623582,0.3009924,0.08024977,0.1974259,-0.2800146,-0.25433016,-0.020166982,-0.17603761,0.0849992,0.14745265,0.025182407,0.23393074,0.02304119,-0.06949553,0.0605333,-0.11388232,-0.039506916,0.26845166
Joly::0.075552136,-0.2566219,0.25953317,-0.25725803,-0.3069151,0.23877986,-0.197971,0.14039724,-0.16536279,-0.24807538,-0.16682865,-0.008220986,0.30713338,0.2973458,-0.05669054,0.00044900732,0.046771415,-0.08923464,-0.560679,0.13330457,-0.18705687,0.028653257,0.019803153,-0.109225534,0.026708921,0.17142722,0.06453789,0.28890786,-0.31031176,-0.11442933,0.1049883,0.15151231,0.004937259,0.04940799,0.028773263,0.128237,-0.10106951,-0.33649075,-0.18275869,0.29169443,0.3003048,0.12950426,0.4939336,-0.17727715,-0.112293266,-0.056156687,0.12938821,0.1689954,0.53310585,-0.0808926,0.05611308,-0.28327307,-0.2095956,0.058484722,-0.11285233,-0.23510529,-0.052517608,0.2749314,-0.102955304,0.019054197,0.0069378726,-0.046133246,-0.22919397,0.044785596,0.14164573,0.08918633,0.031742517,0.05815716,-0.011296933,-0.07060625,-0.028692562,-0.18997453,-0.2594697,-0.07822302,0.088829,0.1393429,-0.28349882,-0.35059503,0.09288334,-0.23946081,0.18477054,-0.1637555,-0.22557624,0.21763688,0.10242351,0.26533914,-0.28254238,-0.21189421,0.09988392,-0.27555525,-0.05975758,0.25502357,0.11006932,0.19605151,0.1036625,-0.14575809,0.1381177,-0.06116707,-0.11420559,0.31748804
Grantaire::0.069794595,-0.27755633,0.22704965,-0.28672904,-0.39297125,0.40843183,-0.27778566,0.34199783,-0.19174558,-0.2932719,-0.07981898,0.08093859,0.3416715,0.21352579,-0.034811154,0.03655446,0.01295648,-0.07962868,-0.5419979,0.117297515,-0.060523618,0.039802283,0.07183792,-0.19022523,-0.026396785,0.13537957,0.13469547,0.33112815,-0.23660251,-0.14133108,0.11703186,0.029179169,0.014945316,-0.042359065,0.10101682,0.12950921,-0.14162287,-0.29118377,-0.24500982,0.29326877,0.2792462,0.09863162,0.5671736,-0.17768276,-0.19867936,-0.077772,0.039983984,0.10106088,0.54111224,-0.092054226,0.12449097,-0.34649917,-0.19439647,-0.020270772,0.008685075,-0.20805752,0.018840088,0.26365346,-0.112885155,-0.002296411,0.01937451,-0.17519714,-0.28400862,0.060881447,0.15324494,0.16712399,-0.03308821,0.024047554,-0.002278296,-0.0648309,-0.016528629,-0.09458099,-0.3270978,-0.18420772,0.11535954,0.13021185,-0.3402023,-0.41433805,0.0770538,-0.19177549,0.26444668,-0.1010364,-0.34261858,0.30621088,0.1293645,0.24628964,-0.2942752,-0.14289576,0.02841566,-0.076941356,0.066740155,0.16386063,0.11973633,0.16086084,0.036872417,-0.1500254,0.05888498,0.030964673,-0.012664237,0.30410737
MotherPlutarch::-0.13996628,-0.47672766,0.31585056,-0.23841424,-0.4681329,0.15393601,-0.094823696,-0.2541434,-0.42958882,-0.5071424,-0.33036518,-0.44047862,0.102943525,0.25893205,0.110779725,-0.20179416,0.3011777,0.05719951,-0.47801325,0.45314693,-0.16298027,0.113800205,0.3293078,-0.23389268,0.642437,0.2825774,0.029325595,-0.08223145,-0.2824881,-0.28884542,0.046160508,0.3871332,-0.027896702,0.43280122,-0.40883845,0.09497994,-0.11551217,-0.48780164,0.24782099,0.3029183,0.47475466,0.38597205,0.35087708,-0.2193697,-0.5031175,0.08296321,0.18747097,0.0051047453,0.8606085,0.0077272914,-0.19113088,-0.0706262,-0.57660687,-0.19545329,0.050617557,-0.31032735,-0.0041470653,0.91540647,0.09144789,-0.16496705,0.32108364,-0.060425382,-0.23272257,0.42489442,0.43553808,0.07168993,-0.13417047,0.20892829,-0.07046656,-0.33490753,-0.3079344,-0.51644754,-0.056867827,0.03891301,0.46670786,-0.14412092,-0.18564512,-0.35755453,-0.18175325,-0.45365995,0.11927593,-0.017490871,0.04846758,0.57392496,-0.09110719,-0.028817944,-0.89371914,-0.27141246,-0.055365756,-0.10901836,0.11692773,0.07695446,-0.122399375,0.6526693,0.21554077,0.24808453,0.21032463,-0.3143718,-0.36895457,0.31356373
Gueulemer::0.3093643,-0.23778863,0.378634,-0.00940663,0.083069876,0.018791394,0.0033438217,-0.3323706,-0.14378744,0.27691337,-0.07356167,0.08785198,0.03542438,0.37538007,0.11831729,-0.05177626,0.0059745726,-0.083332695,-0.12690772,0.02017809,0.16558276,0.14554575,0.23109475,0.31600237,-0.094953954,-0.06148765,0.051475894,0.07562824,-0.032440837,-0.114248864,-0.14566684,-0.001293695,0.034083333,0.025615672,0.03428377,-0.047323026,-0.10119199,-0.20050457,-0.02521382,-0.054363377,0.0647648,-0.1294624,0.31592727,-0.030047243,-0.12926322,0.17010333,-0.16335855,0.2916132,0.20702301,0.12004577,0.15306236,0.014076996,-0.11884483,-0.021686768,0.28371963,-0.19796635,-0.11283424,0.086557,0.09621718,-0.2311041,0.28150344,-0.21414387,-0.3143218,0.14879766,0.08570475,0.13751805,-0.33329567,0.15874101,0.14140886,-0.016537566,-0.024420278,0.009010055,0.04471148,-0.09379838,0.26645908,0.052485526,0.16526444,-0.08541727,-0.04304532,-0.21750689,0.16865017,-0.036112178,-0.34454963,0.5035877,0.07735897,-0.12065612,0.13214076,-0.19611505,-0.07248729,0.21153446,0.38968635,0.07854363,0.21247047,0.046472073,0.06250695,-0.093260616,-0.1092407,0.3660733,0.06256599,-0.053619113
Babet::0.24521564,-0.20007044,0.29506484,-0.015388276,0.0856958,0.08051993,-0.10249471,-0.27639768,-0.217333,0.22779682,-0.047137395,0.10671922,0.049443837,0.40792993,0.113573164,0.08651486,0.0399685,-0.151125,-0.2108033,0.05051106,0.16962522,0.15071696,0.17144418,0.22938637,-0.064620644,-0.026698412,0.08136274,0.019038653,-0.09847956,-0.085397445,-0.060083188,0.10207295,-0.004119793,0.11414251,-0.12830362,-0.0876752,-0.15005928,-0.20389624,-0.052532963,-0.02018383,0.06536903,-0.011899915,0.33912104,-0.054908432,-0.1373619,0.12025309,-0.04185334,0.32802966,0.23222789,0.111389115,0.16999309,-0.08519895,-0.13183749,-0.019734493,0.2648699,-0.27415317,-0.11027774,0.18412936,0.019147787,-0.2677141,0.23658156,-0.2933012,-0.23844282,0.18898861,0.070076935,0.14553078,-0.334436,0.09928951,0.14259794,-0.04238928,0.008550011,-0.017735898,0.09130459,-0.10491392,0.1988927,0.0990699,0.14861211,-0.072148755,-0.05146122,-0.19756013,0.11349112,-0.05823988,-0.33444685,0.35609025,0.039958958,-0.019768674,0.051061377,-0.1964735,-0.066176586,0.21502225,0.27462578,0.11687431,0.16878018,0.098890275,0.17167112,-0.14540172,-0.088745825,0.3143557,0.08735342,-0.010245444
Claquesous::0.2650445,-0.20797683,0.31985188,0.018418714,0.04353407,0.032825757,-0.11838423,-0.28243375,-0.16160679,0.18708682,-0.057820495,0.14773688,-0.011921093,0.4443397,0.08249606,-0.016182732,0.12992258,-0.10024794,-0.10517624,0.051289536,0.20318654,0.22636439,0.23498955,0.14359626,-0.018252272,-0.12226524,0.020803312,-0.0018044047,-0.1275919,0.07332851,-0.119917214,0.13242903,0.103004985,0.08512406,-0.05043103,-0.09182545,-0.12249877,-0.20730053,0.05294656,-0.14964162,0.024370069,-0.09492566,0.31008968,-0.03964298,-0.1738644,0.10008028,-0.050363008,0.31468916,0.20845269,0.11321722,0.032113966,-0.14460745,-0.13326807,0.019342698,0.30108175,-0.17290126,-0.09873593,0.14699055,0.12788758,-0.12055646,0.26426452,-0.09617894,-0.24722853,0.19345027,0.15842398,0.15413322,-0.27411422,0.14953187,0.05495032,-0.03657647,0.069608174,-0.025239706,0.088813394,-0.1327475,0.13421287,0.057278603,0.11401481,-0.046928793,-0.14656956,-0.16102016,0.22068627,-0.028769663,-0.45926034,0.505196,0.06725093,-0.13957942,0.02713995,-0.2530934,-0.16287538,0.26112399,0.3034039,0.10727574,0.12893564,0.10517715,0.13009277,-0.13670737,-0.025146987,0.2591268,0.046719268,-0.1610306
Montparnasse::0.22695474,-0.2194542,0.3240803,-0.042597342,0.09791904,0.03360011,-0.0073790066,-0.3249122,-0.17698501,0.30769494,-0.108230814,0.1098239,-0.03466296,0.43415356,0.10801026,-0.026399186,-0.0108337235,-0.061689228,-0.19087306,0.0364169,0.11270117,0.0825144,0.14833452,0.22597498,0.002064051,0.02520672,-0.009659125,0.005209823,-0.019472396,-0.08372939,-0.08049782,-0.0037043514,0.054242957,0.10672147,-0.039073914,0.02342208,-0.05001711,-0.22957784,-0.0042017726,-0.101892054,0.02415633,0.006241528,0.2484976,-0.10630957,0.004985979,0.19338346,-0.13522822,0.27288,0.2746153,0.13273075,0.13615175,-0.084388524,-0.08231333,0.077391826,0.23896772,-0.2354148,-0.102987796,0.1352532,0.043395523,-0.24166939,0.23001595,-0.1668518,-0.28033245,0.20653966,0.19532546,0.18064481,-0.34875765,0.2632767,0.1094624,0.022232423,0.016185611,-0.0639537,0.004156113,-0.045638096,0.2926031,0.17474882,0.14976436,-0.084027715,-0.024108125,-0.34867492,0.094488256,-0.12995581,-0.4792519,0.4228618,0.0010131991,-0.034712758,0.0036509796,-0.3004641,-0.02879451,0.13273059,0.36677346,0.10975873,0.24720418,0.05263123,0.16743514,-0.15812393,-0.14688262,0.217637,0.017446415,-0.074882224
Toussaint::0.12494471,0.18093161,0.09875367,0.012916972,-0.4546161,0.049431156,-0.007565015,0.0127294045,0.050781116,0.044454623,-0.05846461,-0.0005029406,-0.19373854,0.27495193,0.29969496,-0.08420459,-0.24708638,-0.12158687,0.07504754,-0.19153148,0.4095332,0.43928304,0.059378684,0.044277865,-0.057777412,-0.15578516,-0.07913119,0.061384358,-0.21800327,-0.052274756,-0.36845553,0.20340227,0.12910342,0.046653584,-0.19118516,-0.1818213,0.40217137,-0.0939119,-0.29076353,0.0014786038,0.30327407,-0.050275847,0.29654694,0.16267692,-0.32895657,-0.006488081,-0.05854495,0.088833615,0.16124205,-0.17444213,-0.19098727,-0.5347978,0.09515766,-0.29354402,0.059062224,-0.29683858,0.10443912,0.052131515,0.22219324,0.06749145,0.23085038,-0.17976293,0.14755675,-0.17967309,0.34662017,-0.06336668,-0.28518727,-0.19043897,-0.29460222,0.016918877,0.3167465,-0.24332254,0.17603537,0.26405978,0.19952007,0.09890293,-0.048139524,-0.043719277,0.12278436,-0.37276486,0.054094672,0.10266395,-0.3824494,-0.07783211,-0.1115496,-0.2362565,0.019819431,-0.05788873,-0.015037994,0.45175287,0.24344353,0.10448254,0.41145307,0.10326013,0.16455884,-0.30071238,0.017818797,0.23028782,0.30837923,0.03583925
Child1::0.2279763,-0.2914854,-0.049238537,-0.028195791,-0.009020983,0.2024151,-0.38088882,-0.14265066,-0.004606945,-0.22085369,-0.21376221,0.082223915,0.5797955,0.39646873,0.2125046,0.25196442,0.33644164,-0.16183282,-0.24013872,-0.21656492,-0.28855774,-0.14694698,0.07503352,0.48046598,-0.07200249,-0.10591182,0.010211285,0.0028981257,-0.35142446,-0.6774207,0.031760447,0.20616558,0.12634788,-0.20033477,0.11220927,0.34716752,-0.5915684,-0.07414134,-0.4103642,0.54609627,0.2954001,-0.15280093,0.44237104,0.037235063,-0.20608133,0.022266101,0.0010941464,0.11099948,0.7192827,0.49000272,0.609366,-0.0992634,-0.40000373,-0.07872285,-0.116075516,-0.5059776,-0.31277078,0.3780538,0.058611322,-0.16801725,0.051208667,-0.6888378,-0.047776833,-0.19601128,-0.06779454,0.23421396,-0.6250942,0.25980964,0.03877465,-0.035902478,0.02700302,-0.15046006,-0.119586214,0.041797116,0.38556653,-0.081814945,-0.0117220385,-0.31020847,0.23298234,-0.72568333,-0.0033072683,0.42986304,-0.29279587,0.24747306,-0.007917347,0.25533226,-0.23934007,-0.025427807,0.3074691,-0.081050694,0.11355783,0.21561989,0.419804,0.33416477,0.3549334,-0.47574875,-0.4219114,0.20742832,0.11516064,0.38130328
Child2::0.17874022,-0.23965909,-0.20038259,-0.0019756125,0.05367902,0.2164884,-0.3037689,-0.14669016,-0.04949753,-0.1847952,-0.20973311,0.13760062,0.55297035,0.3288517,0.30826375,0.3154013,0.32597598,-0.14115855,-0.3290239,-0.2701303,-0.20117944,-0.06018325,0.18254897,0.5415526,0.028417418,-0.11603816,0.066794515,-0.059003767,-0.32167011,-0.69007456,0.04283269,0.24868725,0.05103172,-0.19473149,0.06435262,0.35207832,-0.53646505,0.06268543,-0.28638685,0.4896475,0.21453157,-0.07523142,0.422035,0.12021511,-0.21370518,0.0021075064,-0.12689142,0.111965105,0.72579676,0.51170677,0.6185198,-0.14124648,-0.30521458,-0.03264928,-0.016923252,-0.3769174,-0.34500107,0.3374916,0.012986762,-0.31990382,0.05030863,-0.7411582,-0.0044447035,-0.1254003,-0.0965766,0.35250145,-0.58340997,0.26208076,-0.02198281,-0.054591496,-0.026238555,-0.16084737,-0.20689027,-0.06693635,0.32100254,-0.015462179,-0.104559064,-0.25115946,0.20845129,-0.71784353,-0.020874072,0.41728106,-0.16514698,0.27515724,0.09478352,0.26569065,-0.32597995,0.07518524,0.28545907,-0.11319943,0.16276911,0.20979744,0.29188937,0.43682647,0.3440059,-0.36974296,-0.3314683,0.1843342,0.09703392,0.46400753
Brujon::0.40020677,-0.25714973,0.3655714,0.028392114,0.17316237,0.10359842,0.034259778,-0.25698087,-0.18557814,0.3750366,-0.0447229,0.13190934,0.038671974,0.4498686,0.035621483,-0.06662246,0.11417771,-0.12872203,-0.14646302,0.11934263,0.019941993,-0.039455976,0.21417779,0.22347514,-0.005842618,-0.08311006,0.04417584,-0.034154028,-0.010094124,-0.14391072,0.025866505,0.0212926,-0.0032783088,0.058036473,0.014034074,0.033329975,-0.2636826,-0.28845888,0.033247277,-0.09508886,0.071912624,-0.04819124,0.26168123,-0.06289281,-0.07372361,0.12608214,-0.019155633,0.27361986,0.29465336,0.10309173,0.2192843,-0.026991518,-0.18275233,0.015742723,0.20545845,-0.31604648,-0.15132974,0.30574787,0.17779675,-0.20779254,0.23110242,-0.19666678,-0.34663856,0.17237927,0.1991334,0.21180795,-0.32994756,0.26761186,0.13818519,-0.0043172645,-0.074122146,-0.0034674508,0.035590686,-0.08793572,0.21817419,0.111845665,0.15448406,-0.062735885,-0.063273065,-0.28925732,0.09776618,-0.055505875,-0.4353107,0.5321002,0.053522155,-0.07029277,-0.05465426,-0.2410928,-0.09651205,0.19423328,0.44024324,0.093878135,0.1479153,0.13052785,0.18137631,-0.17006443,-0.1092419,0.2754093,0.021408271,-0.09145416
MmeHucheloup::0.012798046,-0.1480087,0.2348486,-0.13217635,-0.20502143,0.3828709,-0.3319501,0.33551773,-0.20979764,-0.11725009,-0.020646075,0.19392036,0.2480657,0.16573092,-0.08568623,0.014960286,0.048583377,-0.031514168,-0.3989681,-0.008958362,-0.07347968,0.09294115,0.2152036,-0.08208962,-0.055370886,0.08117688,-0.040595155,0.18090215,-0.30460238,-0.018465176,0.16116418,-0.07695792,-0.0046471795,0.07285815,-0.013081545,0.09791264,-0.182445,-0.33407286,-0.1550404,0.24531604,0.18514928,0.19984297,0.5718857,-0.23698333,-0.14722931,-0.08410733,-0.006618034,0.13839436,0.5467893,-0.015376292,0.20336194,-0.26120722,-0.066941954,0.12113923,-0.03918486,-0.21172589,-0.087085225,0.24915718,-0.1812463,-0.03463196,-0.04159825,-0.10402847,-0.323588,0.1509875,0.23111051,0.15405308,-0.052568108,0.0076649245,0.1091206,-0.15855642,-0.034748092,-0.074175976,-0.3573263,-0.2700808,0.10005202,0.2988521,-0.22923669,-0.46981052,0.1328451,-0.19662938,0.36598572,-0.09311014,-0.4709907,0.32050562,0.16508524,0.33670473,-0.26980633,-0.24449353,-0.0010651373,-0.16886432,-0.09548591,0.14802384,0.1176479,0.24774344,0.111425236,-0.16166492,0.15939726,-0.079673246,-0.14840731,0.2995917
