Acciaiuoli::-0.08726651,0.40600687,0.070926875,-0.32774556,0.14457504,0.1864418,-0.3624282,0.055944365,-0.19880986,-0.061240215,0.4235844,0.47329825,0.101859525,0.22598138,0.3213112,0.50006163,-0.1708462,-0.3782997,-0.15962759,-0.47214425,-0.06886431,-0.20444183,-0.28723404,0.1229632,0.48055014,-0.017274106,-0.082065016,-0.24308723,0.033024378,0.096541315,0.41569048,-0.5310307,-0.056575052,0.3994025,-0.14430432,-0.03572838,-0.33407673,0.033946518,0.037424684,0.33554348,0.29217446,0.37541404,0.68154556,-0.16643865,0.17017545,-0.2069839,-0.126179,0.093794025,0.18601516,-0.032172248
Medici::0.06400591,0.22355731,0.017582681,0.03087095,-0.037868056,0.019650877,-0.28063768,0.14875466,-0.2586429,-0.13303478,0.2541088,0.4526707,-0.038056243,0.10673081,0.14369313,0.35157216,-0.08250601,-0.43052787,0.01625006,-0.16719954,-0.04827051,-0.23562507,0.060329556,0.0056177266,0.47136328,-0.033358805,0.237737,-0.28820637,0.16446759,0.049472697,0.26458794,-0.28482047,-0.19067058,0.43540403,-0.0019721247,-0.01638431,-0.045448083,0.040406577,-0.16757081,0.28419372,0.29938826,0.4670111,0.3216857,0.07079928,0.026010051,-0.2419645,-0.040957216,0.08928659,0.001852645,-0.15235792
Castellani::0.20105326,-0.17275386,-0.24479625,0.37930125,-0.06983298,-0.3656437,-0.4190149,-0.39620072,0.24456497,-0.09786653,0.56675565,0.42963812,-0.22634557,0.3274351,-0.44810793,-0.045146603,0.6970059,-0.385352,-0.38317907,0.09080166,-0.117127076,-0.4656009,0.10484574,0.25028068,0.3703442,-0.433776,-0.13371617,-0.07281662,-0.25371587,0.21074837,0.22191048,-0.061351012,-0.20998845,0.03612611,0.12053173,-0.15895188,-0.060283974,0.036869448,-0.18200275,0.111837626,-0.17902412,-0.17850672,-0.09053067,-0.3532345,0.6411584,-0.13365567,-0.11074197,0.37377152,0.0012504928,0.0374249
Peruzzi::0.17390825,-0.43988064,-0.22775996,0.26582304,-0.02507071,-0.2994677,-0.18662731,-0.19145346,0.19142623,0.19452068,0.35693252,0.36711177,-0.30049595,0.24363336,-0.52918553,-0.23870593,0.5485003,-0.058421172,-0.35292393,0.1427745,-0.23520927,-0.35534704,0.27346283,0.052601553,0.4788728,-0.4921235,-0.40806937,-0.09950045,-0.24949251,0.1822198,0.24744233,0.092153154,-0.18876892,0.03776583,0.09951861,0.012423648,-0.012302796,-0.15242592,-0.07214111,0.1056561,-0.30519605,-0.32421258,-0.17362909,-0.28920418,1.024158,-0.11107674,-0.17647158,0.17745033,-0.13883454,-0.2700498
Strozzi::0.16717036,-0.39495763,-0.10984117,0.19449015,-0.06082715,-0.24309285,-0.09927216,-0.10206008,0.13168608,0.30325478,0.29719186,0.36195722,-0.21299388,0.21048398,-0.36384004,-0.20865856,0.36813042,-0.15791103,-0.3377512,0.0086279195,-0.28419685,-0.38343465,0.30520162,-0.020534575,0.43303996,-0.39604902,-0.28042486,-0.07680701,-0.1202028,0.1464834,0.38189444,0.022868725,-0.25600025,0.17094,0.12285106,0.041359104,-0.13898592,-0.15046966,-0.13952039,0.066019274,-0.41572708,-0.2131057,-0.18050748,-0.30883938,1.0053492,-0.24224386,-0.16196814,0.015491344,-0.099772505,-0.26746857
Barbadori::0.119701035,0.3180246,0.05849738,0.18907955,-0.12827182,-0.22857925,-0.33594424,-0.33699146,0.12739909,-0.33490548,0.51043063,0.22796206,0.09438517,0.201799,0.08770333,0.12663844,0.41919076,-0.4839031,-0.1986564,-0.06781773,0.07735524,-0.37223116,-0.12251955,0.22919206,0.2095065,-0.24308956,0.1981713,-0.4140371,0.048150446,0.30433035,0.27034545,-0.33067453,-0.31833214,0.13944641,0.0769094,-0.17031091,-0.11403398,-0.12737219,-0.11378372,0.08359432,0.30046177,-0.004699897,0.14028455,-0.30715927,0.45184103,-0.384708,-0.13368003,0.3777614,0.08059141,-0.11266398
Ridolfi::0.17448916,-0.06426257,0.116020285,-0.06727143,0.04180976,0.061934628,-0.15554088,0.22585993,-0.247682,0.3138744,0.29929113,0.3924821,-0.15581416,0.030199286,-0.060119387,0.22507234,-0.2205147,-0.33952612,-0.1683178,-0.26884878,-0.35504612,-0.37819818,0.25475636,-0.003397463,0.4135384,-0.0837667,0.13040097,-0.20141087,0.16758528,-0.057017785,0.35718063,-0.16958123,-0.1125183,0.35136306,-0.045257848,0.035233602,-0.32560784,0.0029848383,-0.26619533,-0.07049336,-0.09576062,0.04058901,0.056371547,-0.067861296,0.48354542,-0.43331093,-0.06975482,-0.2982013,-0.09274845,0.052795548
Tornabuoni::0.07769944,0.028537776,-0.016127355,-0.08709242,-0.13180558,0.03730571,-0.11877224,0.20827012,-0.38037032,0.17496546,0.0888715,0.3729261,0.015116513,0.16111621,0.30214214,0.18913904,-0.2424266,-0.5031353,-0.15106075,-0.11938931,-0.4291955,-0.08047314,0.36552542,-0.11684615,0.39590684,-0.20650925,0.29629502,-0.07309507,0.08167108,0.016037146,0.21426448,-0.066296324,0.027661594,0.40104297,-0.08810992,0.10442606,-0.070738554,-0.053042863,-0.24167582,0.025959829,0.30936208,0.06427096,-0.02697338,-0.060333226,0.2410528,-0.27669713,0.039729215,-0.26777366,-0.10147511,-0.44131264
Albizzi::-0.010087406,0.098397925,-0.46575043,0.02505973,0.102136865,-0.09835657,-0.023968617,-0.052657392,-0.39108828,-0.18209015,0.10997646,0.22586933,-0.38489828,0.16905011,0.15353268,0.2946123,0.0881766,0.047667347,0.09343731,-0.13555314,0.18209232,-0.072144754,0.024069974,-0.14572892,0.32901263,-0.02395795,0.03225727,-0.27394208,-0.21344322,0.18027733,0.13117246,-0.21496278,0.34131643,0.44669518,-0.27378258,0.2812162,-0.22074772,0.090298526,0.05563593,0.31016707,0.5616325,0.14030829,0.53460664,0.10397917,-0.04342857,-0.112324126,0.123295605,0.101215,-0.33748206,-0.67427236
Salviati::0.4836143,0.19332789,-0.0625278,-0.44713584,0.22633377,-0.013335719,-0.42837682,0.22811438,0.14608039,-0.10478063,0.5101716,0.04503829,-0.008149124,0.088426605,-0.14883545,0.46689814,-0.23920414,-0.27458182,-0.33169365,0.14848208,0.1741188,-0.047895215,0.007782589,-0.22798613,0.42796814,-0.040395863,0.34211847,-0.5960457,0.22196433,-0.2747744,0.0481119,0.104822785,-0.32142258,0.44631752,-0.14085764,0.080433756,-0.17800719,-0.18171224,0.26007152,0.5185315,0.6648084,0.5915191,0.43377212,0.1484391,0.15224667,-0.1261168,-0.2712524,0.009450505,0.20143625,-0.31781605
Pazzi::0.7518243,0.10218277,-0.12687588,-0.6400764,0.36828828,-0.059300635,-0.52875954,0.43727055,0.3220264,-0.07431386,0.60242915,-0.051069204,-0.015164763,0.07020151,-0.27262884,0.45855388,-0.28227827,-0.22493759,-0.41266128,0.3873637,0.3055472,0.031966858,0.06446999,-0.47956282,0.57204205,-0.13740395,0.36889246,-0.82141966,0.33832458,-0.4090236,-0.012418791,0.34060124,-0.5872853,0.5347153,-0.11588515,0.18591361,-0.02236619,-0.4244013,0.46974114,0.8157596,0.80776125,0.7947685,0.42084482,0.24578254,0.3632105,-0.028761573,-0.42468023,0.14768194,0.2739446,-0.54645866
Bischeri::0.06312865,-0.5155105,-0.45350024,0.17076047,0.027425732,-0.18996781,-0.13611439,-0.13070822,-0.08741677,0.26299372,0.21197893,0.39694396,-0.39939737,0.32966676,-0.3681188,-0.17149894,0.42221895,0.011055648,-0.33289397,0.115501024,-0.34919345,-0.13443667,0.33147913,-0.025366811,0.4462046,-0.4882528,-0.4057138,0.11649684,-0.42098406,0.16237481,0.10494009,0.15879859,0.26617727,0.029453544,-0.10963451,0.11503626,-0.02164141,-0.012188878,-0.0065692407,0.05987891,-0.05166465,-0.418962,-0.09182718,-0.17642185,0.6035403,0.096706316,-0.019096637,0.0076425313,-0.2817667,-0.42058036
Guadagni::-0.059951156,-0.2889261,-0.40218806,-0.065677896,0.005084747,0.19805247,0.06988693,0.06006302,-0.49700966,-0.027102284,-0.22094081,0.44241774,-0.2908255,0.22389825,0.1408948,0.15894687,-0.00023274984,0.011470645,-0.06255307,-0.19690283,-0.15489574,0.29474694,0.31743717,-0.18797539,0.5712898,-0.21629363,-0.2768112,0.021318648,-0.27719688,0.41807455,0.09889404,-0.10921131,0.3843552,0.26856422,-0.10671735,-0.011738079,0.11433642,-0.13134353,-0.0740668,0.07290586,0.5218585,-0.31081316,0.050070018,-0.10418651,0.4627413,0.139581,-0.14158948,-0.26973712,-0.39894742,-0.8416988
Ginori::0.029659124,0.021564838,-0.64211047,0.22587687,0.1871577,-0.12307914,0.072481304,-0.059701376,-0.5051081,-0.3252715,0.039737057,0.2906981,-0.7143325,0.05829283,-0.06930732,0.35216147,0.2240038,0.30906695,0.26769093,-0.1889515,0.4590623,-0.12025617,0.03991822,-0.23040548,0.44053593,0.092563674,-0.033631567,-0.484306,-0.25810507,0.33352375,0.15272659,-0.30783623,0.44579113,0.6013877,-0.33794793,0.3231901,-0.2767938,0.13633208,0.05700703,0.4326261,0.71003896,0.2042297,0.73709124,0.2929176,-0.06537658,-0.15796739,0.09962776,0.18948494,-0.56759024,-0.80347294
Lamberteschi::-0.04607483,-0.39545378,-0.56959945,-0.2734483,-0.012479512,0.23629317,-0.0828615,0.16219965,-0.5177463,0.13551639,-0.17303288,0.4968079,-0.23748533,0.3651665,0.21592316,0.18124707,-0.07500215,-0.009663099,-0.24448428,-0.103136025,-0.4241243,0.4722435,0.46436965,-0.3134654,0.70053035,-0.4168071,-0.35222626,0.09543177,-0.3896464,0.3381652,0.077549756,0.034043934,0.6012049,0.272654,-0.25131395,0.12032604,0.23706652,-0.1905762,0.061544552,0.20494129,0.6151621,-0.3695442,0.017358184,-0.16873807,0.57925874,0.326623,-0.1112476,-0.35425153,-0.4269197,-1.0687739
