Acciaiuoli::0.3683432,0.020290708,-0.21746446,-0.14424498,0.16220868,0.09214969,-0.24295773,0.1030426,-0.424934,-0.11849212,0.3313758,0.39867333,-0.399427,0.14691576,-0.10670335,0.55633944,-0.13909632,-0.24052311,-0.16060622,-0.27961358,0.052371755,-0.11166443,0.25840142,-0.15031129,0.53550684,0.01783144,0.24707411,-0.44142836,0.025956562,0.1685909,0.25680757,-0.23179625,0.23066698,0.5812665,-0.21036913,0.045811236,-0.44336572,0.10636684,-0.060559936,0.049896486,0.6847959,0.17599203,0.46046436,0.1217543,0.18606566,-0.23405628,-0.25930974,-0.2627913,-0.36363935,-0.529186
Medici::0.2895526,-0.047578562,0.107144736,-0.2723396,0.13132027,0.14902021,-0.23856628,0.052049965,-0.101402104,-0.029155862,0.3484143,0.054289624,-0.07579923,0.094889715,-0.02846326,0.31718183,-0.16560745,-0.34583855,-0.23395477,-0.08824372,-0.06314126,-0.1310406,0.04907322,0.095740765,0.2520625,-0.022419574,0.33144265,-0.24611956,0.15280312,-0.11878123,0.0055905045,-0.05471259,0.11992816,0.13315715,-0.11906823,-0.038459938,-0.25726974,-0.05713537,0.0013805957,-0.03737426,0.51165533,0.10014167,0.22303225,-0.0014399212,0.13262473,-0.20790291,-0.14934759,-0.16507389,-0.12290639,-0.14111014
Castellani::0.047527745,-0.14076585,0.07351872,-0.27909303,0.2132161,0.24437016,-0.14970237,0.19414951,-0.13966593,0.038837325,0.119326435,0.35772032,0.12782057,0.22191481,-0.12692887,0.09864418,-0.2270184,-0.489158,-0.34780478,0.11651718,-0.33562428,0.063020945,0.03855359,0.22144939,0.4827651,-0.26382548,-0.17709115,0.2565109,-0.14037055,-0.106302634,-0.19239524,0.21853009,-0.29024777,-0.06290164,0.14200501,-0.29034522,0.09827549,-0.10103647,-0.046924733,-0.13489889,0.21254736,-0.38771996,-0.19917713,-0.22623023,0.51744854,0.2690277,-0.2812094,-0.15515257,0.20474166,-0.35960725
Peruzzi::0.006164703,0.065695785,0.044366248,-0.056037318,0.23764001,0.079317436,-0.12681286,0.22376749,-0.13554452,0.04235532,0.16815335,0.5686685,0.13477284,0.29139572,-0.22233614,0.013631048,-0.1317496,-0.53981763,-0.35128626,0.16874024,-0.23748522,-0.1468552,-0.0822023,0.16476756,0.6459417,-0.2327253,-0.1732856,0.23638509,-0.10328081,-0.12954192,-0.048410993,0.20154709,-0.582964,0.09767035,0.1941836,-0.37276104,0.031861175,-0.026164258,-0.11916692,0.030677265,-0.16081704,-0.1727729,-0.20426705,-0.14255522,0.41349563,0.12658606,-0.33931112,0.104291566,0.3980297,-0.2427155
Strozzi::-0.04318764,0.1132813,0.03989227,-0.020162286,0.16940625,0.09193733,-0.12447711,0.26496375,-0.26326343,0.0054931645,0.14103217,0.6252507,0.110949375,0.3017547,-0.11244389,0.05799515,-0.13914648,-0.51561654,-0.2328921,0.11043321,-0.20017467,-0.1528674,-0.045142032,0.083942235,0.60510856,-0.15103179,-0.09223943,0.17152886,-0.042474672,-0.07883601,0.030676719,0.10216894,-0.56834817,0.2076933,0.1790593,-0.37328124,0.046653,0.017214369,-0.18688865,0.0560106,-0.15573412,-0.10114947,-0.15679726,-0.118802965,0.386172,0.0662714,-0.3088788,0.12228301,0.3762969,-0.29101184
Barbadori::0.13895771,-0.15639785,0.043303024,-0.24458803,0.4104951,0.47588795,-0.27656597,0.24165101,-0.28000647,-0.008290004,0.26359874,0.20028389,-0.13882256,0.1538917,-0.20074205,0.23672691,-0.19739416,-0.33683774,-0.25872314,0.033583608,-0.17222397,0.046829496,-0.10104237,0.26394594,0.37045652,-0.25151408,0.12746559,0.22417985,-0.07363186,-0.1712013,-0.42836332,0.22617806,0.09910373,-0.17950845,-0.16098888,-0.5095717,-0.19010545,0.050478823,0.048512828,-0.35041454,0.5883802,-0.4304204,-0.19513693,-0.060782652,0.28136933,0.47940254,-0.50950974,-0.24594861,0.011549478,-0.15578505
Ridolfi::0.0015478455,0.047610436,0.30810958,-0.022056568,0.10748134,0.051063284,-0.024405906,0.09517582,-0.2839158,-0.021989973,0.40630606,0.22652076,0.027280157,0.17147805,0.3047332,0.03157339,-0.097244404,-0.5579116,-0.031037932,-0.046570964,-0.024321305,-0.4099117,-0.16786906,0.136564,0.13160232,-0.027789447,0.42702505,-0.2431066,0.35587046,-0.053390075,0.015656462,-0.13890977,-0.36454442,0.13905558,0.03613039,-0.05307029,-0.24821685,-0.20927851,-0.0026405037,-0.118932694,0.45333612,0.05166675,0.07693817,-0.006255001,0.10721936,-0.18354234,-0.1122173,-0.056344092,0.005201832,-0.1090335
Tornabuoni::0.06776426,0.11034214,0.28179678,-0.005564267,0.064121455,0.033884116,-0.08492283,0.12194764,-0.21293572,-0.066783145,0.36293364,0.08668007,0.019559216,0.07718913,0.34412432,0.061151724,-0.0691727,-0.53475434,0.043262932,0.0047900984,0.034801733,-0.3579854,-0.10582417,0.06506609,0.04529317,-0.061953258,0.5750522,-0.29425126,0.38174582,-0.09844623,-0.044933084,-0.10694484,-0.31875196,0.11895223,-0.036292493,0.008609039,-0.1308902,-0.23651482,-0.047047053,0.037970617,0.64414334,0.18004797,0.044750266,0.029351952,0.17694637,-0.28892738,-0.008312465,0.08910963,-0.009979586,-0.21278772
Albizzi::0.21950929,0.49572006,-0.12721631,0.00818565,0.27349132,-0.1567334,-0.32650492,0.018640663,0.18796077,-0.25561747,0.4102662,-0.15934892,-0.15984195,-0.39164954,-0.22394651,0.42210603,-0.10698185,-0.15508643,-0.0030481522,0.03900615,-0.1278177,-0.31610706,-0.05992011,0.41927642,0.39393365,-0.3433129,0.084837236,-0.5678004,-0.18796945,-0.15252273,-0.030867219,-0.11147441,-0.12383669,0.120858915,-0.27974364,0.19243342,0.08294931,-0.2118245,-0.12514985,0.41471848,0.67371756,0.03300086,0.21181346,0.057762578,0.51292276,-0.40839654,0.27467322,0.31392652,-0.020761834,0.0056347917
Salviati::0.16107616,0.25092328,-0.15277106,-0.7096963,0.1408173,-0.17066771,-0.18782686,-0.2235117,-0.15554409,-0.24276985,0.5233801,-0.45074454,0.055156104,0.4785684,0.11611008,0.5751179,-0.40214336,-0.15365651,-0.18140818,0.29966232,0.030181155,-0.1866011,-0.31606272,0.32936245,0.08166129,0.392509,0.3388691,-0.17642412,-0.052885707,-0.6415007,-0.23863885,0.15274476,-0.11204624,0.39328238,0.06407028,0.045633353,-0.57026565,0.11643299,0.23587328,-0.07194958,0.72220033,0.18703765,0.6824725,-0.122388035,-0.14817925,-0.009857216,-0.24570501,-0.33667147,0.15820298,-0.5375301
Pazzi::0.18623252,0.25056747,-0.082108065,-0.8580734,0.21879481,-0.101684965,-0.25037605,-0.18915384,-0.075429104,-0.27110988,0.5986538,-0.5320671,0.15744463,0.49787614,0.005769159,0.6296697,-0.52138627,-0.17366064,-0.2758633,0.41661137,-0.016236193,-0.14952745,-0.41326147,0.46101856,0.0941561,0.4512966,0.3135307,-0.11906508,-0.053784154,-0.83104485,-0.37033075,0.26639107,-0.17098202,0.3598708,0.054145698,-0.04258819,-0.653658,0.09757161,0.30804628,-0.102016516,0.8727674,0.1855235,0.8117515,-0.15617113,-0.16026135,-0.007309402,-0.30979133,-0.3947983,0.2854882,-0.5051271
Bischeri::-0.055568907,0.27011505,0.03253279,0.05365856,0.14504272,-0.089653276,-0.105609715,0.18632068,-0.006014508,-0.03892181,0.14386803,0.45168605,0.22132665,0.12111267,-0.12911357,-0.029528882,-0.09338845,-0.5329598,-0.24469535,0.24304433,-0.28826082,-0.18739837,-0.043405708,0.20796733,0.5496256,-0.32442942,-0.18932515,0.079911515,-0.1491207,-0.091161124,-0.0013384655,0.14765684,-0.71892923,0.103390135,0.20635718,-0.18347341,0.22155617,-0.15791613,-0.17944992,0.17422079,-0.131012,-0.15751798,-0.22451411,-0.17483051,0.5339145,-0.019762093,-0.09798188,0.20800233,0.42328525,-0.25493598
Guadagni::0.2729471,0.64110667,-0.118228,0.27796304,-0.03898971,-0.25000536,-0.37762117,0.008307955,0.26526728,-0.3375264,0.2720797,0.05901499,0.09316221,-0.15778582,-0.09461159,0.19275802,0.21632107,-0.46073216,-0.17875329,0.25099382,-0.030265924,-0.16179326,0.15147883,0.050592635,0.30200517,-0.4630762,0.397797,-0.3951199,-0.110104516,0.038076658,0.009972935,0.051288266,-0.31959513,0.1306513,-0.08086699,-0.034096837,0.23421445,-0.11189003,-0.2167921,0.36146837,0.24426405,0.13751715,-0.15249147,-0.08616265,0.3944874,-0.3336173,0.021356277,0.40771964,0.18956387,-0.29042464
Ginori::0.39214495,0.7060711,-0.011991883,-0.14221022,0.5322516,-0.19970319,-0.41927093,-0.022688838,0.4702453,-0.22303852,0.61632794,-0.32845888,-0.1287765,-0.56296283,-0.50186425,0.55169713,-0.23607637,-0.11517229,-0.164525,0.0043987124,-0.097821705,-0.42701942,-0.2574561,0.6328108,0.38568285,-0.32004505,0.020564642,-0.6147204,-0.27759916,-0.35984862,-0.06944987,-0.05317547,-0.21054164,0.06634453,-0.39968213,0.16721636,-0.15053733,-0.21045011,-0.09999532,0.45694494,0.70302486,0.077976,0.41667,0.07255304,0.45414218,-0.4362906,0.18503924,0.25125587,0.27188903,0.3402081
Lamberteschi::0.251623,0.65764993,-0.26399603,0.22429094,-0.3401573,-0.2510971,-0.5246445,-0.029097507,0.22237612,-0.51474833,0.2295521,-0.030242812,0.23395823,0.012939741,0.16983241,0.25376123,0.33548194,-0.58385926,-0.19187586,0.45749444,-0.090004414,0.055859085,0.3461882,-0.09815911,0.29770917,-0.5923117,0.67447007,-0.46833667,-0.095058315,0.07857471,-0.06724172,0.11179203,-0.18809426,0.17464668,-0.08015187,0.008663473,0.48335436,-0.13437527,-0.18750705,0.4835765,0.5252592,0.2100658,-0.21476457,-0.22424974,0.5474616,-0.37344587,0.037431188,0.45713535,0.09104459,-0.72424644
