Acciaiuoli::-0.40436253,0.1918931,0.5595993,-0.59586316,-0.33883268,0.21472551,-0.18307526,-0.06866993,-0.27336186,0.04555567,0.52109414,0.3186702,0.08588891,0.37900195,0.6654953,0.7930063,-0.6393451,-0.654899,-0.018945545,0.31353572,-0.42920032,-0.38047698,-0.52006346,0.53793347,-0.10762396
Medici::-0.34152186,-0.05628498,0.27360663,-0.28058928,-0.021345705,0.30442575,-0.13127983,-0.07250676,-0.19617584,0.19992341,0.35002485,0.6299973,-0.0139728,0.36721352,0.42251354,0.28075206,-0.43487832,-0.7293191,-0.034351744,0.27946073,-0.39310336,-0.09169678,-0.17385957,0.25422215,0.0024920835
Castellani::-0.16352588,0.41932973,-0.084490225,0.9080328,-0.25205946,-0.06302008,0.027796155,-0.16380942,0.146598,0.30747673,-0.18539052,0.06887906,-0.22237308,-0.26628602,-0.12613031,0.104024574,-0.14372936,-0.61247957,-0.15290341,1.2823564,-0.430116,-0.51041585,-0.57405245,-0.116607904,-0.024956724
Peruzzi::0.047903858,0.0030915227,-0.17813466,0.87983483,-0.024919255,-0.070685625,-0.20253058,-0.47407305,0.2895378,0.53206164,-0.27908894,0.1687865,-0.49958956,-0.46731344,-0.36088568,0.17929994,0.07018373,-0.3056254,-0.33672777,1.1082594,0.016083544,-0.7132713,-0.38557062,-0.13023691,0.16212933
Strozzi::0.16339618,-0.1461204,0.06212249,0.5979833,-0.06712005,0.009097932,-0.09369144,-0.5734459,0.46606642,0.5640084,-0.22730285,0.20277244,-0.42048496,-0.2662553,-0.18716456,0.28424868,-0.0011120384,-0.37459087,-0.42397103,0.9247121,0.20068234,-0.70878476,-0.37641266,-0.24020319,0.061096188
Barbadori::-0.4602149,0.43664443,-0.0077935564,0.224122,-0.35761905,-0.19827345,0.29615077,-0.3165798,-0.03605554,0.28699797,0.36676225,0.23147488,-0.17314194,-0.10353719,0.25153205,-0.0996848,-0.26748815,-0.85833246,-0.01037558,0.76820934,-0.6160558,-0.2075702,-0.45701534,0.2612413,-0.43282896
Ridolfi::0.16126053,-0.21020263,0.40947413,-0.3521648,0.014604813,0.22526097,0.1897086,-0.3272317,0.23967731,0.3475732,-0.14706472,0.08811956,-0.055317193,-0.089088455,0.3477973,0.4813811,-0.44247913,-0.59263545,-0.36092,0.2698147,-0.022529729,-0.61360234,-0.39795852,0.2404081,0.056176007
Tornabuoni::-0.020674445,0.017164981,0.48081258,-0.1845704,0.08454504,0.48928747,-0.166748,-0.57094413,0.0067855767,0.33255622,-0.12874548,0.43881187,0.024409704,0.08738829,0.43601993,0.19565265,-0.07552802,-0.45608154,-0.026669899,-0.11042331,-0.12083644,-0.5951398,-0.024580382,0.7359748,0.38704872
Albizzi::-0.25798157,-0.13211381,-0.23546152,-0.20886554,-0.034537155,-0.0072850063,-0.82325274,-0.22659405,-0.11706778,0.0958195,0.65282893,0.80985564,-0.29970813,-0.44753948,0.29988077,0.46700883,-0.1448276,-0.11467292,0.13033271,0.13515638,-0.55207866,-0.22094692,0.4698557,0.50143075,0.3514235
Salviati::-0.3993988,-0.24902314,-0.37613782,-0.3541676,0.40048563,0.05804463,-0.17128192,0.042438366,-0.7291205,0.20444202,0.76214707,-0.06899222,-0.39293513,0.76459295,0.24780725,0.3404296,-0.24061424,-0.4349882,-0.2500004,0.4215911,-0.53958476,-0.4505444,-0.6164936,0.45505607,0.21136132
Pazzi::-0.40872455,-0.6098429,-0.6713684,-0.35294545,0.8471965,0.27278605,-0.4213016,0.15848394,-1.094782,0.38049632,0.99981296,0.06324576,-0.6963649,1.1705947,0.09442344,0.4316764,-0.22386304,-0.56600165,-0.52119356,0.5647158,-0.652572,-0.6556946,-0.78755695,0.50727725,0.6076688
Bischeri::0.13386944,0.042553663,-0.012921308,0.6699923,-0.09924583,0.07712729,-0.44299257,-0.5912228,0.40097544,0.42438456,-0.28598407,0.26738203,-0.32120997,-0.6224899,-0.16094975,0.28665584,0.14619462,-0.06564276,-0.19301215,0.6782709,0.03690397,-0.7245928,-0.07360668,0.08466744,0.37209687
Guadagni::0.013295751,-0.012064733,0.09164691,0.073976874,0.047438107,0.033816382,-0.5035024,-0.5449305,-0.050816935,0.405733,-0.153096,0.681201,-0.101397835,-0.45868763,0.11631122,0.08124627,0.14815041,-0.11176333,-0.08247066,-0.01630142,0.018084867,-0.74139225,0.264497,0.7738642,0.74413764
Ginori::-0.3281725,-0.4313933,-0.47896612,-0.3532389,0.015230566,-0.0792789,-1.0203027,-0.13308436,-0.033222467,0.15886514,0.9299339,1.2183484,-0.48598784,-0.65157986,0.33632424,0.6341791,-0.35385615,-0.1852947,0.018549204,0.43299708,-0.6863292,-0.015794227,0.6848139,0.21322332,0.24653178
Lamberteschi::0.052310593,0.06651652,-0.06550256,0.48218536,0.16451418,0.09309401,-0.9984418,-0.6173519,-0.22368333,0.2905743,-0.103052504,0.76644075,-0.30147898,-0.35020426,-0.0676325,0.27236292,0.41347006,0.18152617,0.08183108,-0.05044847,0.007843012,-1.0168282,0.31164527,0.97863024,1.2847011
