Napoleon::-0.04240273,-0.045628186,0.40084076,-1.0640552,-0.87594754,-0.5784677,-0.28043237,-0.2604689,0.14113595,-0.11899313,0.7416408,-0.21333192,-1.5859852,-0.27135444,-0.17489956,0.6502024,0.39453572,-0.14688684,-0.08038191,-0.27113962,-0.48875245,-1.0997487,0.3385075,-0.14306802,0.9378402
Myriel::0.14630502,0.18822739,0.81331235,-0.6220107,-0.51486415,-0.37702334,-0.5018144,-0.0143703995,0.13470569,0.15322071,0.3268068,-0.40168405,-1.7773933,-0.34454614,-0.46701473,0.8295167,0.01909274,-0.14021516,0.011917102,-0.052213226,-0.6705439,-0.94630975,0.15817448,0.15842265,0.55512065
MlleBaptistine::0.19122209,0.21872124,0.76252186,-0.26993734,-0.48379156,-0.18588465,-0.6994697,0.19551171,0.4718789,-0.1364172,-0.13876168,0.00102057,-1.0014199,-0.032016315,-0.14904787,0.5818622,0.18129846,0.47594446,0.28872758,-0.0674366,-0.42139685,-0.8567652,0.20345506,0.13884884,0.6825162
MmeMagloire::0.17987946,0.033034235,0.74951077,-0.3640484,-0.3931198,-0.21530682,-0.809039,0.14314643,0.2910154,-0.1522798,-0.16325292,0.0338061,-0.9553758,-0.11882347,-0.099977344,0.44122922,0.10695941,0.58051866,0.20805223,-0.081523456,-0.49834725,-0.82002574,0.20780009,0.045054086,0.8118967
CountessDeLo::-0.3639955,0.08326077,0.9859869,-0.974289,-0.70978945,-0.26983127,-0.63191813,0.026769847,0.32434544,-0.017442614,0.19915405,-0.5455436,-1.8881712,-0.28826404,-0.3023288,0.71023834,0.8437561,-0.064740784,-0.17311741,0.098643556,-0.58761793,-0.4193903,-0.046842724,0.080921054,0.82501084
Geborand::-0.26996717,0.5171174,0.96049756,-0.8968254,-0.4472859,-0.24697168,-0.3856563,-0.19782749,0.36819592,0.31595454,-0.060941547,-0.45899644,-1.5999124,-0.16875911,-0.20500956,0.85380536,0.14911315,-0.49830195,-0.015755234,-0.25853193,-0.7700845,-0.6705669,0.5044491,0.18269956,1.001985
Champtercier::0.11335895,0.3610299,0.7731681,-0.8057698,-0.57027435,-0.48097396,-0.61925614,-0.09434848,-0.0029529957,-0.014184904,0.5251476,-0.76441026,-1.4640121,-0.6761694,0.17819549,0.76543874,0.30137643,-0.26379994,-0.08545999,-0.34927857,-0.70974195,-0.7340017,0.59236234,0.30185935,0.8727386
Cravatte::0.14475459,-0.21892829,0.96864307,-0.6091832,-0.5655863,0.09700863,-0.44745502,-0.38003194,0.36757365,0.0032008968,0.6781358,-0.8006464,-1.4640493,-0.3749814,-0.7119659,0.5971479,0.4405234,-0.19215369,-0.13346688,-0.16793576,-0.49971226,-0.9968283,0.012010402,0.36955073,1.1684692
Count::0.17034967,0.07042251,0.8247037,-1.0571978,-0.2729272,-0.5060266,-0.33845353,-0.032609064,0.016244655,-0.06046273,0.12203222,-0.6267681,-1.384137,-0.3257339,-0.64834565,0.61961097,0.39779446,-0.01672823,-0.54575914,-0.4062056,-0.98652595,-0.7728238,-0.032068867,-0.1198708,1.0316639
OldMan::-0.21039738,0.1255433,0.5721991,-0.69052035,-0.9386007,-0.50449383,-0.55808204,0.025505358,0.24445969,0.018958414,0.54755783,-0.51471394,-1.6305243,-0.44188598,-0.22920619,0.48034653,0.21228299,-0.22356397,0.16164376,0.14106753,-0.9199284,-0.5164857,0.09107354,-0.29727477,1.2529329
Valjean::-0.27457955,0.322553,0.5383365,-0.04072065,0.00984553,0.5722845,-0.5050001,0.14595415,-0.39723435,-0.098310515,0.16353336,0.49550384,-0.4116541,0.1998853,0.09925228,0.32861328,0.42977983,0.11836594,-0.027447406,-0.17791836,-0.21690698,-0.24587533,0.0114598125,-0.09563164,0.12910184
Labarre::-0.07877536,-0.08627684,0.4778509,-0.29070544,-0.17063156,0.10151532,-0.39388666,0.22579797,-0.3960473,0.15984158,-0.0874771,0.7540569,-0.38592717,-0.08052137,0.40758678,0.6006761,-0.26737446,0.37401706,-0.42773896,-0.07569314,-0.20363303,-0.5507562,-0.33908004,0.30699494,0.0896272
Marguerite::0.8348676,0.3121542,0.28244033,-0.60654235,-0.6621519,0.22045703,-0.16103391,-0.052591782,-0.6319428,-0.046479568,-0.16451061,0.51559067,-0.2357348,-0.047160488,0.5749651,0.12814255,0.084764384,0.4986132,0.018943006,0.041442037,-0.6584463,-0.12625691,-0.4450672,-0.38520753,0.18456398
MmeDeR::0.031499334,-0.08488189,0.45803258,0.051539272,-0.6660162,0.28279138,-0.38592818,-0.1265225,-0.44336674,-0.016800286,0.11450216,0.95518756,-0.50266254,-0.33336458,0.5399955,0.68386185,-0.10439026,0.13814087,-0.24935278,-0.016171461,0.004581071,-0.21896297,-0.039907727,0.332619,0.15788011
Isabeau::0.09242439,0.0864758,0.63721657,-0.12254681,-0.22898807,0.22372152,-0.33434987,0.12799369,-0.057948936,-0.10814729,0.07936978,0.87553877,-0.40575573,0.20933074,0.3800013,0.4598923,-0.016135177,0.31982318,-0.32725087,-0.35524866,-0.19240806,-0.35241464,-0.15771075,0.2360508,0.047297616
Gervais::-0.10294582,0.15994418,0.40160096,-0.10463052,-0.5473081,0.27361035,-0.4773955,0.19541702,0.11455871,-0.06456734,-0.20000651,0.94039124,-0.43119723,-0.09982199,0.29503584,0.71882665,0.15144236,0.106070556,-0.27726737,0.084247574,0.0072711688,-0.23057006,-0.32374123,0.23249069,0.35713044
Listolier::0.39802137,0.27466547,0.27349162,-0.024137462,-0.25809452,0.33062398,-0.10038201,-0.580081,-0.40942332,0.90244186,0.91368574,0.02335931,-0.3428445,-0.37906197,0.46332395,-0.12724224,-0.015835974,0.785118,0.21947695,-0.382137,-1.2195188,0.43404624,-0.94983155,-0.43726584,0.38810012
Tholomyes::0.39278698,0.27721977,-0.00336068,-0.00473474,-0.17565686,0.3632578,-0.14264986,-0.4632747,-0.38102788,0.7707569,0.8429103,0.2031838,-0.2719568,0.0011540274,0.2272375,-0.23454954,-0.08001098,0.55946404,0.22049995,-0.17921434,-0.9690344,0.35452476,-0.64587486,-0.29927477,0.45238662
Fameuil::0.52967125,0.26051667,0.35297805,-0.049099706,-0.22974485,0.17970186,-0.15404741,-0.6675954,-0.5887348,1.0058995,0.8352509,0.13155589,-0.3072564,-0.3065739,0.40825233,-0.1867616,0.053959846,0.7032666,0.16368997,-0.36279938,-1.2836224,0.2881265,-0.824726,-0.56196326,0.39821315
Blacheville::0.40612608,0.33328995,0.24106027,-0.06754803,-0.30985337,0.24854754,-0.08386821,-0.7435502,-0.4170485,0.9394374,0.78167987,0.18713804,-0.3488511,-0.25609803,0.48165765,-0.2023227,0.015657144,0.58394754,0.118681945,-0.48897773,-1.06171,0.4148568,-0.85556984,-0.4330422,0.3965604
Favourite::0.44789264,0.18569729,0.33057097,-0.16996644,-0.30567428,0.019015802,-0.19072762,-0.6427354,-0.43479556,0.91365886,0.88373566,0.16843073,-0.6029848,-0.22283535,0.42771515,-0.1740893,0.0745788,0.7462731,0.26696968,-0.23714028,-1.008174,0.44011647,-0.95293325,-0.6291367,0.32250684
Dahlia::0.37629652,0.56762075,0.18214276,-0.061383814,-0.3253128,0.1619785,-0.06746112,-0.632243,-0.61029404,0.85784256,0.9601652,0.07108325,-0.32911232,-0.27641416,0.4172846,-0.19204684,0.05632415,0.6233848,0.067158595,-0.40613955,-1.1812288,0.48678643,-0.864141,-0.5108142,0.3379642
Zephine::0.57042134,0.27305004,0.27366266,-0.15087941,-0.20706452,0.12510853,-0.10330318,-0.45452264,-0.5487391,0.8862094,0.94027615,0.105182655,-0.3948084,-0.21903932,0.4402415,-0.34437215,0.07724529,0.6908248,0.0026320713,-0.32255334,-1.0766684,0.3064069,-0.8717036,-0.48643762,0.38686925
Fantine::0.48663512,0.47021267,0.39109418,0.1348588,-0.34259546,0.19699554,-0.31230086,-0.0010099439,-0.36938453,0.48976275,0.21350525,0.23529701,-0.26623052,-0.1844296,0.4552242,0.13149501,0.13822344,0.4094491,-0.125422,-0.17279214,-0.6308551,0.34841213,-0.39942297,-0.9293223,0.46781242
MmeThenardier::0.58922607,0.8223037,0.57345855,-0.20288327,-0.06966159,0.15446566,0.29519558,-0.08249698,-0.039565958,0.27869624,0.34718627,0.09791569,-0.13890037,0.41672727,0.49193174,0.48667285,0.37196565,0.0186646,0.19917072,-0.19922785,0.06277489,-0.24338883,-0.16084604,-0.059478894,0.012713406
Thenardier::0.28594184,0.7700819,0.184707,-0.10343376,-0.13502601,0.70290345,0.46520555,0.09449921,-0.33223784,0.13382895,0.033582065,-0.10823577,-0.107662275,0.17860913,-0.038883917,0.58610296,0.047171265,0.17003238,0.02451757,-0.2378531,0.006536192,-0.12243803,-0.4154531,0.04541342,0.47269538
Cosette::-0.023584047,-0.013563734,0.24159889,-0.11112589,0.17550428,0.5835655,0.051945563,0.006463166,-0.034533747,0.8116967,0.6674423,0.45102194,-0.14106727,0.22021714,0.38607323,0.42028442,-0.057587225,-0.15806761,0.17912015,0.026620474,-0.24012665,-0.17673396,0.24108225,0.048447795,0.47989547
Javert::0.47271118,0.19408341,0.5102362,-0.06846694,0.47087532,0.44275185,-0.05637588,0.049072728,-0.32114732,-0.070766434,0.31036478,0.35538587,-0.46745884,0.07162084,0.15227501,0.5375123,0.30179304,-0.28002757,0.027027013,-0.19631097,0.0041283565,0.21121497,-0.41407564,-0.14737396,0.29051664
Fauchelevent::0.14553386,-0.12242826,0.86529064,0.0015033453,-0.1099409,1.0587621,-0.17810221,-0.70107865,0.39760336,-0.25406536,0.44060996,0.13632785,-0.67900723,0.6034282,0.2606401,0.52646255,0.6497237,0.6316707,-0.7187674,-0.099504925,0.04872299,-0.08922808,-0.07897911,-0.42911327,0.24941942
Bamatabois::-0.04254933,-0.11666316,0.15970388,0.1517833,-0.3245955,0.59189236,-0.33637553,0.30700308,0.04169021,-0.14881232,0.5380655,0.06543523,-0.50426835,-0.48256716,0.8044296,0.3982258,0.43633583,0.17905357,0.27211168,-0.8030918,-0.48205233,-0.29373673,-0.3997278,-0.11266416,-0.053562686
Perpetue::0.6578116,0.590812,0.49790427,-0.10710655,-0.065105215,0.32526982,-0.6745361,-0.26204187,-0.6043889,0.12109915,0.16524783,-0.058395676,-0.66100043,-0.22449833,0.9289897,0.6216634,-0.3497171,0.5905087,0.336943,-0.1604641,-0.88793546,1.2369853,-0.081548244,-0.31887004,0.27015078
Simplice::0.40355527,0.3654537,0.5338042,-0.047357097,-0.12637265,0.41236654,-0.73934036,-0.23731014,-0.27855733,-0.011362927,0.24377155,-0.15332696,-0.3644834,0.038860884,0.7988208,0.82189584,-0.39431444,0.30455393,0.2522074,-0.33293864,-0.4112875,0.6226827,0.014275415,-0.5043923,0.11185244
Scaufflaire::0.28423247,0.043284677,0.7367003,0.026782049,-0.16298176,0.4588275,-0.23290859,0.073144145,-0.49007082,0.1770834,-0.10221692,0.31173703,-0.39920127,-0.24105416,0.5286849,0.4700403,0.118205786,0.19077437,-0.5325227,-0.06892109,-0.2822723,-0.3496922,0.07218141,0.5136831,-0.0067759017
Woman1::0.40912193,0.21434644,0.39326638,-0.2788687,0.017056033,0.42608663,-0.50375044,0.05615062,0.3314825,-0.04437361,0.11917883,0.2702455,-0.14931256,-0.2951008,0.36202025,0.9133086,0.17775579,-0.54572636,-0.2925755,-0.18170558,-0.1992615,-0.094324335,-0.5476743,-0.29898348,0.15905698
Judge::0.056860752,-0.25032625,-0.044521946,0.3265181,-0.23382482,0.5600326,-0.25106704,0.5010593,0.08440178,-0.2794474,0.44704992,0.20763779,-0.7822646,-0.47388533,0.83563983,0.46535116,0.47629723,0.3518744,0.015232404,-0.8510127,-0.5904673,-0.4015573,-0.15670797,0.07847816,-0.0152876675
Champmathieu::0.048885364,-0.2035008,0.024348764,0.4946146,-0.34147766,0.47459775,-0.12760276,0.4609952,0.004147842,-0.2112361,0.36585158,0.27377966,-0.7854248,-0.44278786,0.7929938,0.42086372,0.5215747,0.12410977,-0.014210176,-0.92265487,-0.5459541,-0.6809527,-0.10065203,0.14567493,0.0015860951
Brevet::-0.020394025,-0.18794763,0.054298766,0.37641042,-0.2469197,0.46065113,-0.1264661,0.57742053,0.028812362,-0.344628,0.45675987,0.17033534,-0.89402944,-0.51420003,0.7605749,0.5663315,0.43455422,0.16373615,0.13142887,-0.8599817,-0.58128035,-0.51418275,-0.30546626,-0.027379565,-0.08524544
Chenildieu::-0.05504167,-0.11283131,0.112288006,0.27899277,-0.24352583,0.49665645,-0.16896512,0.6139892,-0.103770114,-0.29540554,0.3350384,0.2518761,-0.7453426,-0.5217756,0.72027713,0.4981044,0.39505222,0.16228986,-0.0061976705,-0.9829843,-0.56131345,-0.6470557,-0.19618331,0.11618614,0.026392218
Cochepaille::0.0938719,-0.17293243,0.030937593,0.24047427,-0.29893252,0.5511231,-0.101309665,0.54146916,-0.034006573,-0.21401887,0.39342865,0.11741932,-0.81061935,-0.5547119,0.79730606,0.39447194,0.43278894,0.10092045,0.04828215,-0.655063,-0.5831331,-0.5042855,-0.3109964,0.14958863,-0.019777458
Pontmercy::-0.07257008,0.4216402,-0.5559287,-0.3290948,-0.25323614,0.6836617,0.78748035,0.5216896,-0.2949694,0.20152023,0.6456827,-0.062716946,0.18731444,0.58207685,-0.3986485,1.0221587,-0.2553059,0.640838,-0.3344386,-0.56507653,-0.77053,0.11344987,0.06602401,0.18432045,0.7043241
Boulatruelle::0.47252795,0.8874894,0.68296605,-0.07622815,-0.29913557,0.6205446,0.60065603,0.090395465,-0.6118589,0.7297464,0.1490427,-0.42299476,0.23376618,0.003887802,0.15054071,0.6162412,0.14062798,0.22925723,-0.4589422,-0.72629625,0.09788451,-0.056009676,0.14299211,0.59290034,0.6389067
Eponine::0.2971228,0.7927757,0.09000646,0.019314775,0.29815105,-0.045812283,0.6082284,-0.048439905,-0.25785956,0.16034076,0.3858117,-0.049505185,-0.2300801,0.31854787,0.14077789,0.91345286,0.24441943,0.28898343,0.050365567,-0.17300998,0.23816045,-0.38152096,-0.24296324,-0.07161238,0.2879878
Anzelma::0.7943931,1.1035008,-0.016323682,-0.2813293,0.0976092,0.07679912,0.5501734,0.37088653,-0.041615676,0.47310328,0.31598327,-0.13188589,-0.2001805,0.53150314,0.2891528,0.5887253,0.30608195,0.38264447,0.00020577377,-0.49461913,0.33531106,-0.49188146,-0.07321586,-0.24936889,0.39533755
Woman2::0.25718576,-0.29779506,0.7837644,-0.2188068,0.21488066,0.4636052,-0.3446516,0.41090924,0.19631791,0.56986165,0.44968054,0.44559494,-0.30104637,0.35601935,0.28667393,0.48166564,0.23267208,-0.04395746,0.13587175,-0.056108873,-0.07385809,0.33256578,-0.48322365,0.41913614,0.22685736
MotherInnocent::0.18138316,0.10915902,0.43390936,-0.010177594,-0.23023568,1.3179568,-0.18133603,-0.5291819,0.184588,-0.039510828,0.037297532,0.14872013,-1.2387344,0.09780263,0.112076126,0.42618552,0.45681155,0.5732317,-0.90694904,0.15750524,0.2316153,-0.3803611,-0.22281876,-0.305068,0.094679646
Gribier::0.6755055,-0.23984382,0.84251755,-0.05812264,-0.30825758,1.3457125,0.15165827,-1.3904741,0.78097886,-0.2254495,0.49423626,0.4687351,-1.0575202,0.35869545,-0.08619919,0.6802126,1.040318,0.5721371,-0.64203864,-0.7012059,-0.15282531,0.15068035,-0.26270473,-0.3526225,0.3399052
MmeBurgon::-0.851439,-0.24910104,-0.08694117,-0.38450852,0.51714647,-0.30688825,0.5959919,-0.11467662,-0.07108796,0.31953666,-0.45425022,-0.39035928,-0.69813144,0.38176736,0.8619375,1.1746482,0.98126495,-0.1956464,-0.11818203,-0.557654,-0.4412286,0.49080467,-0.8354631,0.6114651,0.9380867
Jondrette::-1.153572,0.060451657,-0.17319457,-0.5229125,0.82386863,-0.5165881,0.6528241,-0.32307297,0.15700153,0.26907954,-0.47986326,-0.5649544,-1.1199106,0.5689748,1.2418925,1.7684962,1.507849,-0.3109189,-0.2463194,-0.5232374,-0.8646043,0.7057799,-1.1765537,0.61504483,1.3598397
Gavroche::-0.29043552,0.39437264,-0.47791886,0.124262474,0.29442117,-0.11410158,-0.08288956,-0.12455631,-0.16940054,0.3003198,-0.05215856,0.13680485,-0.23124748,0.045373745,0.30759692,0.86943245,0.26317415,0.22295454,-0.081501,-0.28183767,0.2986042,-0.06293386,-0.51729643,0.26016864,0.76229817
Gillenormand::0.07029896,0.2975099,0.016701428,0.08512496,0.022025496,0.2729239,0.023602726,-0.2635783,0.26454258,0.65950197,0.37265757,0.6426836,-0.120865144,0.55881673,0.32150778,0.49422538,0.1467278,-0.1517223,0.07484534,-0.17807949,-0.9168546,-0.28593746,0.56296694,0.7491621,0.27499458
Magnon::0.04789309,0.8652861,0.25272697,-0.019139824,0.26604655,0.26572865,0.6124056,-0.24359818,0.63164395,0.8010215,0.24308053,0.59380937,-0.1003086,0.73066974,0.93683285,-0.055175427,0.40454352,-0.15314963,0.24575593,-0.0059061423,-1.013748,-0.66568613,0.39200804,0.293555,0.53194356
MlleGillenormand::-0.1980136,0.23669036,-0.24584109,-0.24048397,-0.12168937,0.38099492,0.1111027,0.22062172,0.34552532,0.32760635,0.878284,0.7295323,-0.30225947,0.37624824,0.22777145,0.6637863,-0.13284132,0.2889665,-0.30729017,0.11626979,-0.7332733,0.08765134,0.63007116,0.39748445,0.43582883
MmePontmercy::-0.22255938,0.21104139,-0.59768766,-0.603925,-0.79893464,1.0416137,0.836804,0.4168987,0.0032734645,0.25629285,0.66914874,0.27591667,-0.1966641,0.7149165,-0.487169,1.1125492,-0.17553076,-0.04111038,-0.17978108,-0.34641933,-0.9743501,0.23174109,0.1128301,0.14974166,0.655492
MlleVaubois::-0.1854809,0.3551462,-0.4115899,-0.48490274,-0.39433095,0.39220607,0.26116621,0.21218498,0.4513889,-0.044408478,1.1647826,1.104353,-0.5313053,0.5371649,0.16799325,0.8247644,0.034580965,-0.13895316,0.053299166,0.9998899,-0.9216165,0.21967876,0.347384,0.07308897,0.68387914
LtGillenormand::-0.16386348,0.16267593,-0.18567204,0.1332345,0.09109955,0.5253775,0.32635468,-0.093890086,0.1734255,0.8111059,0.63124233,0.57220936,-0.4432336,0.54305977,0.21862595,0.38415956,-0.06903357,-0.0956439,0.06645536,0.06647575,-0.7752224,-0.033004135,0.5299984,0.49088648,0.4762168
Marius::0.07240533,0.428949,-0.37337345,0.23286851,-0.12024612,0.0058808387,0.0100260405,0.09316201,-0.20814626,0.5523897,0.4945924,0.21518224,-0.15240328,0.65008026,0.022496903,0.49503452,0.12045352,-0.18518631,-0.35997272,-0.1377409,-0.4179098,0.034959998,-0.004027274,0.26203132,0.35019073
BaronessT::0.48545277,0.23966458,-0.2309792,0.42443857,0.55621713,0.31015256,0.12751362,-0.43834588,0.21119353,0.6917474,0.18719845,0.7341274,-0.14174174,0.7873701,0.24172543,0.36032414,-0.13685718,-0.2303319,-0.11869963,-0.5721705,-1.102188,-0.41679516,0.39302796,0.21599734,0.62095326
Mabeuf::0.28685704,0.004508678,-0.6912514,0.29127932,0.27555183,-0.29670343,0.18121892,-0.11053275,-0.56126875,0.23628575,0.21120615,0.078566484,-0.38405356,0.6934664,0.02592311,0.7632919,0.70534563,0.223964,-0.10199562,0.10093028,-0.23765601,-0.2073356,-0.28996974,0.23154631,0.56142884
Enjolras::0.112107635,0.05637825,-0.37526062,0.18402676,0.3085873,0.11477828,-0.20003363,-0.2153153,-0.22180732,0.16095684,0.17519328,-0.21256664,-0.1845315,0.42531264,0.27264896,0.6842157,0.28900686,0.13123944,-0.3767042,0.19965737,-0.1597625,-0.42727092,-0.693093,0.34195116,0.40840948
Combeferre::0.0147056095,0.07703046,-0.5703103,0.19752881,0.24412258,-0.117081575,-0.1625909,-0.061918132,-0.30751762,0.22994128,0.34270796,-0.22632463,-0.11244866,0.6888681,0.053238504,0.7573198,0.4353898,0.24422301,-0.121905826,0.23928533,-0.33092877,-0.26568615,-0.63246906,0.5117081,0.59760165
Prouvaire::0.2643268,0.10136431,-0.6036828,0.3006253,0.1613998,0.010691442,-0.29533082,-0.013051653,-0.32527918,0.08855735,0.42073476,-0.28154096,-0.09655654,0.53449774,0.14113756,0.7293511,0.45275015,0.13519183,-0.2762194,0.15444613,-0.17685187,-0.15919045,-0.6920109,0.5977451,0.6679769
Feuilly::0.05013901,0.12500337,-0.6639928,0.2193283,0.1885501,-0.28914383,-0.20617662,-0.047508094,-0.37122145,0.33994138,0.32425123,-0.076092936,-0.122291595,0.5828032,0.17092012,0.8370924,0.27790245,0.17773178,-0.15667157,0.32873887,-0.2976189,-0.23031878,-0.58544666,0.3935445,0.6859114
Courfeyrac::-0.014942291,0.2741252,-0.62582976,0.24621035,0.2694366,-0.15877086,0.024606768,-0.23108605,-0.21643159,0.13354215,0.36576197,-0.12261107,-0.28992498,0.54919404,0.26282084,0.6387508,0.30105633,0.17042781,-0.31410673,0.19472788,-0.11951709,-0.3302224,-0.58071554,0.22250372,0.6626622
Bahorel::-0.038391065,0.1952949,-0.6316861,0.39542046,0.27831534,-0.17377733,-0.21636514,-0.20230809,-0.20597777,0.2212878,0.43811595,-0.15496038,-0.13579574,0.531898,0.009452022,0.78861386,0.28313795,0.16912627,-0.31849065,0.20166346,-0.25634447,-0.34574348,-0.57461077,0.2770893,0.70477086
Bossuet::-0.036777034,0.18504675,-0.48990232,0.2678768,0.16734408,-0.044139914,-0.26411352,-0.15041864,-0.26552194,0.116096176,0.22517942,-0.10406195,-0.26035792,0.54581594,0.10307465,0.58031785,0.31365895,0.15711588,-0.44345412,0.12592603,-0.23289496,-0.4068148,-0.53900015,0.41220778,0.53734076
Joly::-0.02471114,0.1697385,-0.57105047,0.17486142,0.3556898,-0.02819811,-0.21960281,-0.1313402,-0.40757442,0.14903735,0.26796195,-0.0708628,-0.14489421,0.5961459,0.11724044,0.62807,0.28250054,0.24290621,-0.36304367,0.17219652,-0.2645547,-0.4104661,-0.5584804,0.31244674,0.6805357
Grantaire::-0.07662753,0.26440388,-0.57876587,0.37029216,0.21223155,-0.12823226,-0.24176213,-0.11875561,-0.2963128,0.049979813,0.36762345,-0.2095305,-0.21205959,0.48224893,0.13103381,0.5284676,0.5331562,0.1297528,-0.39052188,0.25489795,-0.24050272,-0.3515787,-0.6850154,0.41651964,0.72648436
MotherPlutarch::0.083525345,-0.42214227,-1.1322969,0.35018998,0.17679304,-0.38045478,0.41159138,-0.10269761,-0.90892977,0.6437346,-0.012294546,0.124487415,-1.0437058,1.1039993,0.07672978,1.219927,0.5560989,0.46508938,-0.07033493,-0.058362573,-0.13794927,-0.71014744,-0.3406787,-0.10129032,0.13985774
Gueulemer::0.13156389,0.5938897,0.53920215,0.3239825,-0.009188129,0.04166961,0.49377167,0.08908165,-0.033441566,0.08603415,0.17899111,0.023340462,-0.14160793,0.11171158,0.3506071,0.918194,0.23814358,0.1914976,0.12846762,-0.07745027,0.15887827,-0.2114102,-0.467512,-0.016468046,0.33889234
Babet::0.17183985,0.63425946,0.37430984,0.09501309,0.057904057,0.07804799,0.45974836,-0.019039627,-0.16304693,-0.0028698284,0.11913766,-0.050482888,-0.29405546,0.021068623,0.40339527,0.8648151,0.28641295,0.1452823,0.07217431,-0.021889357,0.20941456,-0.05657916,-0.2761306,-0.005956551,0.39944392
Claquesous::0.32916382,0.60142255,0.44487426,0.13558242,0.16309077,0.12984769,0.5643859,-0.01116481,-0.12350469,-0.013312191,0.2535187,0.08393007,-0.039791953,-0.0962763,0.23689769,0.8771318,0.31219673,0.29053596,-0.038096905,-0.0060744984,0.0405501,-0.22649805,-0.43816718,-0.010663695,0.33067703
Montparnasse::0.033177923,0.53724647,0.4337689,0.34504715,0.02217598,0.09902556,0.46683973,-0.079661235,-0.13013054,-0.14983325,0.23700814,-0.035565615,-0.28161544,0.095409885,0.19097544,1.0181793,0.19136676,0.16249983,-0.0483939,-0.07909122,0.2570301,-0.013324581,-0.39394218,0.031575236,0.39495036
Toussaint::0.6529501,-0.1419065,0.4491541,-0.0060749785,0.079884544,0.86542,-0.3348398,0.4356699,0.10884015,0.64179236,0.4912597,0.44859928,-0.4121345,-0.009375631,0.4749361,0.19385685,0.24280678,0.07073739,0.16693045,0.22943893,0.18913889,-0.018055292,0.077184744,0.20697956,0.6871112
Child1::-0.4944048,0.5485577,-0.2551658,0.5299428,-0.4055568,0.002226049,-0.14308073,-0.71791154,-0.33535874,0.2966648,0.083682746,0.05431075,-0.6579573,0.6848158,0.64026284,0.34424403,-0.031054381,0.12662004,0.1689113,-0.57697105,0.7711211,0.13917121,-0.51286745,0.5365152,1.5911014
Child2::-0.35520515,0.32626364,-0.2203878,0.61808974,-0.5863002,0.07134105,-0.119770035,-0.79034626,-0.45031834,0.27159595,-0.2574295,-0.045399997,-0.71186984,0.6739864,0.54184866,0.47794127,0.10990419,0.2391323,0.29753152,-0.5146745,0.7509222,0.13531038,-0.5335808,0.4658642,1.6826413
Brujon::-0.0012249005,0.78912485,0.459169,0.2997171,-0.02370132,0.0040067555,0.6537574,-0.022962868,-0.32222095,-0.07377242,0.32549036,0.0041435766,-0.23868202,0.10314649,0.22976057,1.018051,0.19355692,0.073184684,0.15930031,-0.08127959,0.27640486,-0.11161208,-0.34023386,0.10995144,0.4733635
MmeHucheloup::-0.12913752,0.12567538,-0.4927558,0.40312162,0.17636606,0.0042836866,-0.28805256,-0.4057588,-0.29223663,0.030465558,0.34793222,-0.27517742,0.083924375,0.5921014,0.29463762,0.67917264,0.5946803,0.11548927,-0.58900845,0.0981861,-0.08895307,-0.3900801,-0.6677823,0.207598,0.8952249
