Napoleon::-0.91309655,-0.14732672,0.5166896,-0.27216008,-0.41474444,0.19129144,0.4408199,0.568789,0.75293714,-0.4007585,0.860877,-0.57090634,-0.57161427,1.5204661,0.39168864,0.55794007,0.8662178,0.570921,-0.028391832,0.33678004,-1.0774131,0.3476039,0.3182434,1.0562121,-1.0568769
Myriel::-0.9053302,-0.35625136,0.29777262,-0.42952293,-1.0208936,0.2616145,-0.11376167,0.599022,0.41558912,-0.26112014,0.8581052,-0.35879484,-0.51773906,1.0436741,0.11021728,0.8029442,0.5626042,0.57106334,-0.14426148,0.12888622,-0.56198937,0.440994,0.45102543,0.6518903,-0.58099484
MlleBaptistine::-0.8717268,0.06841466,0.42251065,0.18057472,-0.5592442,0.7871789,0.42853838,0.45728496,-0.028993713,-0.60589445,0.6175969,0.039673183,-0.44398403,0.7958673,0.11420696,0.46755558,0.21153742,0.19366403,-0.052229334,-0.27160287,-0.5460524,0.16194952,0.5310994,0.3489274,-0.16464163
MmeMagloire::-0.9739914,0.042993177,0.44160712,0.107963264,-0.33871156,0.6882356,0.3631158,0.6245747,-0.055197537,-0.8148732,0.75446564,-0.06443446,-0.3433769,0.7187016,0.15680534,0.47818026,0.37482086,0.14994928,-0.07440083,-0.02237168,-0.44279313,0.2823157,0.58006823,0.25487775,-0.069780454
CountessDeLo::-1.031466,-0.24943897,0.34751615,-0.6597648,-0.7050013,0.025652993,-0.15172324,0.23258439,0.51685095,-0.4920375,0.544114,-0.44035828,-0.21629676,1.4860477,0.48676896,1.0348668,0.77245057,0.50626343,-0.30467314,-0.24060528,-1.1307074,0.6424133,0.40927848,0.8186981,-0.17706229
Geborand::-0.97028774,0.08359961,0.193003,-1.0608896,-0.4317593,0.14620113,0.28758705,0.25589612,0.2778438,-0.21900745,0.6161747,-0.87358093,-0.8908747,1.2404832,-0.043483578,0.80058026,0.5580887,0.40004596,-0.28741896,-0.086796276,-0.9842482,0.44062904,0.595258,0.8615474,-0.64558536
Champtercier::-0.87470305,-0.3500598,0.35605565,-1.1285794,-0.38441187,0.09466393,0.56824297,0.4727884,0.47054183,-0.09080267,1.0030859,-0.6222407,-0.529828,1.1303167,0.43438262,0.9833342,0.6748042,0.4350024,-0.022468561,0.1497395,-1.1102358,0.29420578,0.93783844,0.6502425,-0.5207636
Cravatte::-0.35212606,-0.22488908,0.5538634,-0.968463,-0.8530562,0.25414386,0.358035,0.4383584,0.5885209,-0.42208618,0.9662857,-0.5671329,-0.48686382,1.2646453,0.30225626,0.7654064,0.641327,0.4820551,0.22029251,-0.16455969,-0.99612117,0.3602645,0.45777994,1.1184438,-0.06452289
Count::-1.2411454,-0.3813464,0.7367598,-0.5614224,-0.7010497,0.05437273,-0.008866501,0.22819798,0.5358889,-0.4972549,0.644101,-0.42101505,-0.49919888,1.5552418,0.21370962,0.7990116,0.28866747,0.030084638,-0.40007424,0.122296154,-0.8957316,0.05086925,0.3732908,0.9798489,-0.618412
OldMan::-0.8821547,-0.47754857,0.22743972,-0.7244377,-0.5663359,0.47525093,-0.15472013,0.38890335,0.00069603685,-0.6094604,0.60096204,-0.80203027,-0.12560505,1.2734439,0.55822664,0.9559751,0.8202352,0.26040488,-0.16198151,0.30536747,-1.2669307,0.48730108,0.3889324,0.54021823,-0.6741052
Valjean::-0.625953,0.085433535,0.16728559,-0.0970511,-0.23120198,0.43706214,-0.1942746,0.33392626,0.17248169,-0.679011,-0.080715455,-0.0278006,-0.63954747,-0.0083516585,0.35201618,0.26325825,0.011394524,0.10017519,-0.0665716,-0.071861856,0.07036854,-0.13729037,-0.08267174,0.5246771,-0.040365927
Labarre::-0.91508543,-0.0018440125,0.5052529,-0.0138885025,-0.25254458,0.7204668,-0.23420578,-0.07009913,0.02015661,-0.1344918,-0.08172779,-0.033342645,-0.39945891,0.10479526,0.49045807,0.25138134,-0.20983069,-0.13228647,0.029537467,-0.3494227,0.11355733,0.19615136,0.07002774,0.65229094,0.040131442
Marguerite::-0.6703558,0.568776,0.0017912055,0.10315351,0.13681267,0.9292133,-0.2147593,-0.015226432,-0.2914608,0.09633012,-0.020150555,-0.14595729,-0.6326102,0.120815,0.5735354,0.34911722,0.31624088,0.6144313,-0.07657522,-0.33217266,-0.033608586,0.1897482,-0.23802207,0.10291835,0.2624123
MmeDeR::-0.9379304,-0.111718796,0.23793279,0.0012250969,-0.26086056,0.61964095,-0.10336661,0.039689478,-0.102921784,-0.28549308,-0.039917,-0.17072235,-0.48950902,0.2290448,0.6837288,0.038755756,-0.16075611,-0.15857549,-0.1727636,-0.33400476,0.29037923,0.20457713,-0.17809674,0.5426772,0.0010992136
Isabeau::-1.1395764,-0.039526146,0.43845144,0.15055327,-0.086575806,0.62197745,-0.07633592,0.10139796,-0.11553674,-0.0449103,-0.22293659,-0.3113122,-0.54524,-0.10311988,0.3695647,0.57154757,-0.20141304,-0.14237456,-0.054720446,-0.3831062,-0.1863027,-0.0059530446,-0.2797684,0.3988624,-0.08629714
Gervais::-1.0410652,0.08906615,0.517505,-0.042630643,-0.29231519,0.7777644,-0.11431013,-0.037389845,0.197587,-0.055653363,0.06607536,-0.34016708,-0.49102065,0.24562645,0.3786793,0.18629071,-0.24369888,0.032290485,-0.17596196,-0.3453158,0.11969873,-0.12453535,-0.15851778,0.549554,0.078277804
Listolier::0.09834907,-0.09695189,-1.1591082,0.2447677,0.46858895,0.5245073,-0.4057551,-0.1108659,-0.18753256,0.09824063,0.5747495,-0.059909306,-0.7523331,-0.054717384,0.6288462,0.7720315,0.59018093,0.5870652,-0.11065103,-0.123835035,-0.7679856,0.62755036,-0.63844013,0.20087013,0.43992445
Tholomyes::0.11596151,-0.034078635,-0.7977264,0.110601276,0.194997,0.2259154,-0.4912502,-0.11148915,-0.15532659,0.1356345,0.6189854,-0.25163043,-0.8185835,-0.3205461,0.63489175,0.43687722,0.71849704,0.13082084,-0.13004036,0.10542842,-0.68648463,0.794213,-0.6944639,0.05961066,0.34092093
Fameuil::0.21732539,0.008635717,-1.0436131,0.17222798,0.40676492,0.58718026,-0.4136752,-0.23259161,-0.19028749,0.121945076,0.6174655,-0.1108316,-0.8298921,-0.019233018,0.77493894,0.69768846,0.75863004,0.54837143,-0.032318264,-0.048853967,-0.782081,0.7204113,-0.6492841,0.09346426,0.39350078
Blacheville::0.14701965,-0.16549471,-1.1031618,0.21812297,0.42792168,0.6860297,-0.29953322,-0.09268917,-0.14211567,0.108218804,0.5346528,-0.107068785,-0.73815614,-0.2054359,0.84957397,0.6665809,0.7345034,0.47191012,-0.15514943,-0.055563163,-0.6285163,0.8246565,-0.54135454,0.121955365,0.44290587
Favourite::0.13137157,-0.15183446,-1.0496005,0.21416314,0.3453128,0.6687232,-0.42827046,-0.16243027,-0.19987401,0.08623084,0.68381876,-0.111780174,-0.6200462,-0.059865344,0.83648074,0.8085112,0.58653224,0.49641106,-0.09902658,-0.03770291,-0.76398444,0.672129,-0.58272356,0.06037969,0.35206315
Dahlia::0.17698097,-0.08968495,-1.1011336,0.08818529,0.4027163,0.57308084,-0.33217058,-0.114682585,-0.12005988,0.16744511,0.7301985,-0.11789806,-0.69165456,-0.074382566,0.72670674,0.6879607,0.63786817,0.4856902,-0.04996757,-0.1258873,-0.89577717,0.69559026,-0.60532993,0.18262534,0.4203696
Zephine::0.19068326,-0.12282073,-1.1228538,0.04317487,0.3636868,0.7528786,-0.3823858,-0.12697643,-0.28087646,0.12102767,0.6455338,-0.09640994,-0.6749072,-0.13943945,0.62177265,0.86082137,0.5738718,0.47118652,-0.20154399,-0.07244094,-0.73636043,0.66167194,-0.5280247,0.23601463,0.37283707
Fantine::0.058707453,0.18187799,-0.5098627,0.15145352,0.26274115,0.89941746,-0.24010067,-0.20329337,0.07475624,-0.0033107079,0.025911685,-0.10860915,-0.46334392,-0.20262548,0.4054379,0.75235784,0.2759489,0.55058694,0.09948356,-0.01848337,-0.4729914,0.2723121,-0.32522586,0.35928345,0.6156283
MmeThenardier::-0.059807334,-0.19458237,-0.23630284,-0.13253713,0.19575249,0.5964926,0.16521443,-0.02372878,-0.17388561,0.16715227,-0.03849338,-0.08601094,-0.9765484,0.267021,-0.11935976,0.30744493,-0.39970595,-0.020077337,0.021911303,0.60183436,-0.11126768,0.02413017,-0.41221103,0.63077885,0.08653973
Thenardier::0.089922704,-0.24962072,-0.033126414,-0.3186613,0.262104,0.3787831,-0.033020597,-0.10563645,-0.1969056,0.0765409,0.18990456,-0.30133185,-0.9654009,-0.087038346,0.13522534,0.14909057,-0.21718965,-0.19978562,-0.3852046,0.3566994,-0.06843797,-0.14084007,0.23676784,0.47948882,0.410386
Cosette::-0.28096217,-0.23657049,-0.15883723,0.2930459,-0.07522884,0.2632748,-0.20412177,-0.10906837,0.30010483,-0.17017594,0.29251498,-0.5336185,-1.0358328,-0.18504962,-0.1707291,0.031182453,0.61324763,-0.34131604,0.5127259,0.14285785,0.16464539,0.35942763,-0.29029587,0.27157068,0.1524756
Javert::0.02224377,-0.16653204,-0.2317266,0.17337768,0.14987083,0.5517621,-0.36635098,-0.12269628,0.3267024,-0.2174143,-0.18073583,-0.2569539,-0.85979354,0.21378496,0.511956,0.21242142,0.058906116,-0.22802012,0.075916015,0.1445557,0.0114504425,-0.48068187,0.2900721,0.18506695,0.055873476
Fauchelevent::-0.87289214,-0.85622454,-0.7347351,-0.093378216,0.121079266,0.43732053,-0.42346323,0.55570567,0.19528241,-0.14176506,-0.1661584,0.46750233,-0.57002187,0.115747795,0.30419382,0.42605057,-0.058192335,-0.52139384,0.08084368,-0.4730181,-0.43087184,-0.44438517,0.5826882,0.6612916,-0.052009653
Bamatabois::-0.4121161,-0.4657906,-0.21448176,0.5927806,0.0937455,0.7582304,0.10450154,-0.3291614,0.23740347,-0.51244575,0.102169484,-0.27929842,-0.30143094,-0.22424841,0.6184414,-0.023935216,-0.10547257,0.4003327,-0.39208755,-0.35485354,-0.3713351,-0.024514966,-0.15913223,0.6536749,-0.3055597
Perpetue::0.28636312,0.0824877,-0.030962111,0.6128579,0.4490285,0.6869449,-0.7491324,0.06961755,0.010408806,-0.17739518,-0.3999944,-0.2223985,-0.71407247,0.06388775,0.73188,0.43941483,0.14425589,0.8516993,0.13573092,-0.14144753,-1.0157478,0.47076717,0.22486636,0.6513455,0.6791297
Simplice::-0.18608917,-0.104278564,0.08226722,0.40890324,0.29396018,0.73244584,-0.64778244,0.004435723,0.10567824,-0.04202273,-0.5932078,-0.19869247,-0.6933891,0.050928857,0.52601975,0.28434482,0.010653854,0.5200392,0.1414215,0.046348583,-0.734065,0.36370903,0.47639838,0.34379283,0.32174054
Scaufflaire::-0.62394786,0.007968544,0.6289839,-0.15209326,-0.2722606,0.88148713,-0.11804396,-0.0708044,0.22447677,0.026419021,0.047593806,-0.15137793,-0.588039,0.15209115,0.28756613,0.07003187,0.1503672,-0.3317517,0.04355876,-0.38812304,0.2592656,0.14576921,-0.2295767,0.7933769,0.048344683
Woman1::-0.59171116,-0.43208376,-0.058392514,-0.033812236,-0.014998254,1.1481929,-0.31994975,-0.16097844,0.07217628,-0.16643696,-0.27115712,-0.032576945,-0.4670721,0.09906712,0.56613475,0.0025000873,0.021812808,0.057555847,0.36034292,0.2743995,-0.14488924,-0.2409222,0.28504595,0.19459765,-0.3080162
Judge::-0.57086086,-0.65927356,0.025076456,0.5118661,-0.16424392,0.66587424,0.2419175,-0.33381775,0.4842407,-0.57612973,0.13561247,-0.40656877,-0.16345324,-0.16413982,0.7216341,0.25151077,-0.1491867,0.3924812,-0.4188104,-0.51963466,-0.26060128,-0.1222783,-0.4353063,0.9237944,-0.25832024
Champmathieu::-0.54332125,-0.66882753,-0.028644077,0.5153243,-0.023918709,0.66651607,0.26145527,-0.15745455,0.52511555,-0.51645553,0.19919516,-0.4280138,-0.17291397,-0.14395508,0.74395573,0.30000108,-0.083312705,0.33346343,-0.40070224,-0.4789504,-0.09794862,-0.04755754,-0.21575291,0.8856312,-0.4484618
Brevet::-0.45644748,-0.6525073,0.0561023,0.41150805,-0.08711251,0.7172509,0.3882781,-0.34737587,0.42085865,-0.5823376,0.22620723,-0.4961194,-0.08553624,-0.22473504,0.6976459,0.35382956,-0.061591804,0.3029382,-0.47829726,-0.64943135,-0.25166747,-0.043539803,-0.16857462,0.8802561,-0.15348497
Chenildieu::-0.47988185,-0.61318636,-0.09919982,0.3174578,-0.07159971,0.7317023,0.45749092,-0.31069624,0.4031921,-0.6471819,0.10072617,-0.33910975,-0.24917093,-0.2391073,0.6148169,0.20995972,-0.100984715,0.25690073,-0.47066793,-0.5383442,-0.20155002,-0.12892431,-0.24968259,0.95397264,-0.29978856
Cochepaille::-0.5485007,-0.5961705,-0.031657226,0.3805335,-0.14810546,0.64120835,0.26929694,-0.32782504,0.571449,-0.56523174,0.05804171,-0.48740956,-0.20757504,-0.1349691,0.6572442,0.1706838,0.12241594,0.26122025,-0.35463518,-0.6629249,-0.16730443,-0.15293244,-0.2303499,0.9628392,-0.29134247
Pontmercy::0.047186296,-0.87505126,-0.10216606,-0.7264263,-0.37585527,-0.13291621,0.5460105,-0.20266972,-0.22939411,0.44117594,0.5165547,-0.2937768,-1.3173298,-0.88914335,0.43824026,0.32354194,-0.12019467,0.2576433,-0.11518149,0.004715192,0.1831126,0.34434783,0.40988824,0.074190535,0.5052642
Boulatruelle::0.27313253,-0.095665015,-0.24847512,-0.52352947,-0.07261219,0.71604437,0.14883997,-0.008673003,0.21002543,0.090949364,0.32586804,-0.50686765,-1.0045617,-0.2936164,0.2841442,0.11568377,-0.38049892,-0.03850736,-0.25641346,0.7510487,0.028607637,0.26823628,0.8533126,0.43688872,0.8462928
Eponine::-0.037980605,-0.1372171,-0.026649183,0.14018333,0.1825194,-0.028546305,0.19332933,-0.14488877,-0.20371667,0.32050332,0.30148983,-0.3012303,-0.93677247,-0.08262207,-0.087391794,0.75415987,-0.2690757,-0.07836485,-0.31608412,0.6515729,-0.08346482,-0.4707629,0.022378623,0.5459762,-0.016853582
Anzelma::0.14007184,-0.1283435,-0.52060634,0.06960298,0.18525934,0.33642462,0.53334486,-0.08683111,-0.4130953,-0.040517475,0.0794488,-0.41849533,-1.1707075,0.14323717,-0.4686037,0.6210977,-0.31438714,-0.049188342,0.021008182,0.5860882,-0.1455698,-0.22119759,0.10512652,0.698222,0.1477451
Woman2::-0.50183386,-0.06858361,-0.060774248,0.27321443,0.23685504,0.4391025,-0.40043917,0.1743242,0.71974576,-0.0913494,0.21225311,-0.6655561,-0.8516294,-0.080671415,0.13394874,-0.3960134,0.1928635,-0.42471218,0.30027446,0.26678926,-0.11165099,0.1022386,0.038774617,0.5458679,-0.2875932
MotherInnocent::-1.0886614,-0.29135576,-0.5916195,-0.041994445,-0.13446854,0.4253724,-0.15380803,0.62160033,0.3554165,0.09398051,-0.037119575,0.21391161,-0.6631235,0.28437003,0.30206496,0.48473406,-0.38437903,-0.36304307,0.25990543,-0.8893529,-0.20874341,-0.2908657,0.37461406,0.6229807,0.16802095
Gribier::-1.1428369,-1.2842648,-1.1922295,0.2778875,0.09296596,-0.026111992,-0.39231524,0.4643656,0.6840258,-0.03172453,-0.3253066,0.27863705,-0.44308656,0.6138823,0.7493052,1.2002164,-0.06990939,-1.0172461,0.1362464,-0.17055249,-0.5090571,-0.22623694,0.70025194,0.62273407,0.17852549
MmeBurgon::-0.15063107,-0.7067441,-0.28210503,0.3269354,-0.44927028,-0.47373325,-0.26353586,-0.42643085,0.35492957,0.52380735,0.5626666,0.31421593,-0.68230176,0.68251735,0.4915388,-0.53556246,0.49483788,0.22584917,-0.45851,0.77485853,0.078659095,-0.8394199,0.16361082,1.0366808,1.1430349
Jondrette::-0.43990585,-1.1018258,-0.5754316,0.90010756,-0.86106884,-0.8943204,-0.21915561,-0.6483625,0.4201595,0.63067997,0.8254778,0.3942719,-0.9919153,0.73520726,0.94898754,-0.45972177,0.71389055,0.51389927,-0.415525,1.324116,0.007782498,-1.0426296,0.08262293,1.6239531,1.6066108
Gavroche::-0.14470762,-0.079264686,0.040009774,-0.049464922,-0.12611496,0.04034666,0.11512792,-0.48850197,0.2253003,0.1635137,0.21519725,0.57305276,-0.5100433,-0.17121188,0.4988345,0.21021286,0.39436978,-0.07127786,-0.11792941,0.6296118,0.097835295,-0.36697257,0.42167553,0.5622735,0.24422368
Gillenormand::-0.6845906,-0.5211548,0.27639574,0.06857436,-0.070398,-0.00018939501,0.39064857,-0.078558855,-0.1581028,-0.46219274,-0.08102983,-0.12835407,-0.6208839,-0.25370643,0.32677868,0.096359976,0.35409504,-0.8027589,0.39430904,0.42505866,-0.31119132,0.7901966,-0.6170861,0.50721824,0.38970634
Magnon::-0.024178937,-0.6401793,-0.053870134,0.33658636,-0.20272377,0.11736895,0.240409,-0.020993538,-1.1039524,-0.25903577,-0.32692382,-0.2876904,-0.9037212,0.47484815,0.20650348,0.48028398,0.35931846,-0.3607861,0.53414166,0.60802287,0.3094084,0.42565018,-0.6494386,0.9746532,0.1100827
MlleGillenormand::-0.8836164,-0.6608524,0.15102783,-0.0072697047,-0.25214213,0.076778606,0.6470389,0.23615699,-0.2235876,0.07775637,0.038819693,-0.31721848,-1.0342062,-0.45268962,0.37154463,-0.22803335,0.8024227,0.025746383,0.5483935,0.10256148,-0.029746054,0.14474265,-0.2724223,0.115911394,0.0641083
MmePontmercy::-0.37554544,-1.1429329,0.38199094,-0.8263313,0.25176382,-0.37831193,1.0316477,-0.17243513,-0.09825193,0.015190797,0.63289684,-0.85607624,-1.7504497,-0.3908333,0.6916934,0.10371302,0.3899106,0.29095814,0.6724111,-0.40238613,0.2548081,0.14824083,0.16328776,-0.060726352,0.72925
MlleVaubois::-1.122652,-1.1450965,0.42479345,0.17463095,0.22575773,-0.1725431,0.7633108,0.24036886,0.12518215,0.06563412,0.010727156,-0.07664177,-1.2111027,-0.020119917,0.793213,-0.52941513,1.192064,0.350419,1.0892301,-0.0022862605,-0.22643821,0.21227701,-0.45314476,0.12363095,0.2998685
LtGillenormand::-0.48067755,-0.27528626,-0.006758513,0.2742032,-0.05905225,-0.068813555,0.47514695,-0.14387986,-0.28803882,-0.15297602,0.34973598,-0.5558267,-1.0032725,-0.36581257,0.2763025,-0.2581496,0.90299755,-0.63581514,0.43412945,0.33821025,-0.109204955,0.321886,-0.40385425,0.26966295,0.26902378
Marius::-0.37927192,-0.058324955,-0.111685105,-0.18227263,-0.059060697,-0.32953227,0.25131968,-0.56619275,-0.20416696,-0.23522493,0.36856744,0.013096906,-0.5928146,-0.3625917,0.28017953,0.22094008,0.42674714,-0.3088042,0.21927825,0.1266952,-0.16249435,-0.012801579,-0.06663461,0.29923314,0.5590105
BaronessT::-0.49345085,-0.5864271,0.21413578,0.09737582,-0.4289407,-0.5205652,-0.10011034,-0.25756615,-0.6967973,-0.43415788,0.074782096,-0.07626958,-0.7437019,-0.3254925,0.35225293,0.3517771,0.5175462,-0.74238944,0.09155506,0.17815351,-0.028059853,0.887764,-0.09427914,0.41620037,0.39713928
Mabeuf::-0.591174,0.3606827,-0.19392627,-0.026637629,-0.1539116,-0.6102509,0.10709818,-0.8667371,-0.115588404,0.10472352,0.21882573,0.24508886,-0.7948786,-0.2966514,0.42745376,0.29046664,0.1110722,-0.1882723,-0.072265945,0.48952332,-0.43485054,-0.4155751,0.2753498,0.42977384,-0.009674286
Enjolras::-0.29623634,-0.07239977,0.13230659,0.05094534,-0.24916974,-0.1645194,-0.18507068,-0.6838904,0.010974797,0.08594596,0.28099445,0.3549687,-0.56836784,-0.26588523,0.5355508,0.15191261,0.13197137,-0.11368146,0.32846114,0.26608855,-0.3618017,-0.30905175,0.1613652,0.39068976,-0.034557853
Combeferre::-0.43525827,0.023083681,-0.052746464,0.098371774,-0.12714842,-0.46749166,0.09345448,-0.7518216,-0.18691607,0.13907634,0.5278256,0.36201155,-0.6053123,-0.40801167,0.7329656,0.044868167,0.077146694,-0.23913713,0.1804593,0.3173892,-0.26763573,-0.36405188,0.2574674,0.5954308,0.19221734
Prouvaire::-0.35875636,0.17088528,-0.02332292,0.11841861,-0.20411369,-0.39152235,-0.21222384,-0.7860342,0.015767222,0.016386295,0.7234692,0.4403025,-0.5630069,-0.27321172,1.0050896,0.043105755,0.035244744,-0.34403986,0.27598205,0.41733447,-0.23085845,-0.42112237,0.3301154,0.46119627,0.18413709
Feuilly::-0.39776483,0.16024683,-0.06122098,0.08527551,-0.17208469,-0.44841963,0.017680539,-0.7566336,-0.15197754,0.1431349,0.5300375,0.32905623,-0.5649448,-0.28823188,0.72004205,0.11142701,0.08631374,-0.2207802,0.2802034,0.3559222,-0.36884904,-0.28825995,0.26862487,0.5214689,-0.009495194
Courfeyrac::-0.22637352,-0.03056577,-0.028885486,-0.043751813,-0.28101364,-0.42587736,0.08034258,-0.9134051,-0.16182868,0.05880628,0.6485865,0.5013903,-0.69104326,-0.30743957,0.54032904,0.30898768,0.011301587,-0.23297709,0.0877464,0.36285895,-0.26751116,-0.4700025,0.18782505,0.47196665,0.14484684
Bahorel::-0.3013205,-0.020757154,0.20109211,0.04822379,-0.26180214,-0.42634207,0.05493094,-0.77834475,-0.105756454,0.117385216,0.6350214,0.46199137,-0.68875045,-0.2802703,0.58117926,0.022271393,0.29133,-0.14182554,0.22377753,0.4026505,-0.4406187,-0.402427,0.29186043,0.47410575,0.055655383
Bossuet::-0.4681284,0.09661228,0.19815485,-0.18347722,-0.3314259,-0.16021818,-0.04505968,-0.6875879,-0.11358893,0.15717591,0.51160955,0.4896876,-0.4499795,-0.19528703,0.5858298,0.072008416,0.0322827,-0.10831337,0.12622015,0.19125599,-0.38116178,-0.27686828,0.15314725,0.5102628,0.04674649
Joly::-0.32208288,-0.00883229,0.11445225,0.08616739,-0.32182702,-0.39875144,0.01277906,-0.715799,-0.14525586,0.17013277,0.5727498,0.46846935,-0.5629111,-0.29085726,0.6094025,0.15864486,0.18499906,-0.1739091,0.21801448,0.3873283,-0.39663565,-0.3443803,0.16319402,0.5105776,0.13050012
Grantaire::-0.23787211,0.06968197,0.08668199,-0.03395824,-0.32685181,-0.3012714,-0.022670938,-0.7681311,-0.12716441,0.1881279,0.8831716,0.47290152,-0.46263042,-0.14755,0.8332649,0.041844975,0.10475526,-0.2564706,0.3384071,0.4587503,-0.3054155,-0.36692372,0.18584466,0.57353836,0.22255024
MotherPlutarch::-1.0415282,0.69608027,-0.39741895,-0.0885862,0.043190707,-0.879805,0.24881847,-1.0053531,-0.14245117,0.5061334,-0.44966415,0.020550156,-1.0348743,-0.24749562,0.1882138,0.38942772,0.3306726,0.23229058,-0.16923696,0.5956547,-0.7696035,-0.6330651,0.12005604,0.73269147,-0.18588187
Gueulemer::-0.24356864,-0.32671264,0.122787684,-0.0756813,0.32768312,0.36025658,-0.13691182,-0.14549392,-0.027237903,0.022781704,0.106835134,-0.06621693,-0.85636145,0.05815953,0.110545285,0.46338573,-0.13037018,0.0946772,-0.4368415,0.5125814,0.35013896,-0.20638165,0.17405738,0.5144099,0.17662737
Babet::-0.24168889,-0.33647153,0.052947607,-0.06666055,0.32780913,0.37593985,-0.038052667,-0.12906824,0.08938044,0.15173002,0.14125986,-0.058303133,-0.8251472,0.25778517,0.10321054,0.41026917,-0.28256223,0.052708592,-0.35642073,0.45318902,0.29623568,-0.31831124,0.19645992,0.5742864,0.07605487
Claquesous::-0.26969048,-0.31400642,0.050872065,-0.0058048908,0.39753878,0.247701,-0.030428527,-0.2370107,0.15764368,0.14039965,0.21442506,-0.07738692,-0.8101509,0.1279187,0.2696625,0.6431605,-0.38808742,-0.021700872,-0.25476438,0.50530434,0.36701745,-0.13607527,0.066625066,0.39523518,-0.09312919
Montparnasse::-0.31261772,-0.31475002,0.18224913,0.04279207,0.4329499,0.25580868,-0.122500904,-0.20692547,0.03624614,0.008137985,0.22108604,-0.049134202,-0.7836545,0.04510471,0.26310503,0.42635864,-0.16652471,-0.10999378,-0.5361851,0.6428681,0.28078568,-0.2422257,0.3261767,0.3980177,0.16393103
Toussaint::-0.806386,-0.40620163,-0.08480013,0.07786692,-0.14862113,0.8402348,-0.6031609,-0.40842828,0.35852677,-0.2882439,0.10712297,-0.39424884,-0.7893963,-0.008302385,-0.080468535,-0.24810769,0.22331062,-0.3295987,0.033844024,0.30888966,-0.041892223,0.072144225,0.03478178,-0.047022022,0.0015631072
Child1::-0.122873686,0.2617615,-0.2807981,0.058287576,0.21950261,0.15861054,0.45176446,-0.5928297,0.3635572,0.15519275,0.36924404,1.3014164,-0.88337594,0.2220884,0.44723472,-0.20951426,0.8362036,-0.18964754,-0.51884073,0.2704207,0.3345595,0.27012086,0.63343745,1.1745886,0.13437356
Child2::-0.075192384,0.21783993,-0.40181485,-0.23702608,0.26020598,0.0892192,0.48827636,-0.6619625,0.36710772,0.24669595,0.37554806,1.2650903,-0.9793307,0.14215507,0.6181116,-0.30672902,0.8356581,-0.31837144,-0.6970542,0.20754117,0.25546113,0.028064514,0.57939106,1.1243293,0.19555412
Brujon::-0.12224286,-0.30642262,0.15790987,0.060565338,0.5876575,0.07854235,0.060266785,-0.11317631,0.09344317,0.07941503,0.34905452,0.056479517,-0.95757097,0.10405505,0.4013717,0.5289255,-0.102352574,-0.111067265,-0.6652837,0.81030667,0.36999536,-0.22019917,0.19113494,0.19444045,0.21869667
MmeHucheloup::0.05913414,-0.109524205,0.21952029,-0.050245956,-0.36217198,-0.1329435,0.0021860942,-0.95361084,0.1084701,0.11176833,0.6988085,0.7594858,-0.73874015,0.009106516,0.6304843,0.032677896,0.12912099,-0.17764494,0.19337061,0.20113704,-0.44952875,-0.30438328,0.12007811,0.32161286,0.062016454
