Acciaiuoli::-0.17651635,0.20111093,0.1935172,-0.21149461,0.18742377,0.029077956,-0.14153732,0.282234,0.057845913,-0.21515106,-0.20694785,-0.20770185,-0.027508995,0.07475148,0.17296396,0.024306914,-0.01109136,0.09261988,-0.056893133,0.0023567427,-0.010990936,-0.14974767,-0.03877746,-0.0624804,0.037678182,0.11921393,-0.032191303,-0.16266173,0.07840544,0.011771492,-0.1310845,0.25881708,0.013981539,0.053852495,0.06409674,0.068679616,-0.0017150163,0.007815557,0.008054902,0.23874529,-0.22359899,-0.13532265,-0.04354639,-0.23538679,0.095056675,-0.19999963,0.03385003,-0.072046265,-0.0056829927,0.025373116,0.11281993,-0.13505265,0.11709097,0.03043808,0.04816043,-0.07131605,-0.20795423,0.007947426,0.097470246,0.042666867,-0.029568294,0.012979893,-0.17212078,0.1922112,0.009339253,-0.05323691,0.06552657,0.23503314,0.006916289,0.055931766,0.10511617,0.12660155,0.10203888,-0.27921638,0.027265733,-0.027863137,-0.012089099,0.052915454,-0.05445647,0.07256752,-0.0097517725,-0.042039502,-0.017923884,-0.16669445,0.07702621,0.12617674,0.1046476,0.21801747,0.09645507,-0.10271401,-0.09170653,0.058645073,0.03900704,-0.0019985707,0.12546556,0.014447956,0.11177331,-0.040143106,-0.05554474,-0.01414608
Medici::-0.12203561,0.15331148,0.16140366,-0.152415,0.12085879,-0.020306377,-0.108350664,0.27535158,0.10883961,-0.20126891,-0.1711011,-0.15044892,0.008695815,0.11610737,0.1616716,0.073603414,0.04063738,0.08933814,-0.09673554,0.013812212,0.01766712,-0.14282791,0.0075165494,-0.04571775,0.031159198,0.10992618,0.04670098,-0.10407032,0.1515949,-0.0017378518,-0.14754808,0.26897845,0.015946534,-0.007887013,0.088156715,0.092254326,0.058774088,0.064979084,0.0024888127,0.24534306,-0.21818355,-0.13361308,-0.00027962684,-0.18854669,0.07161471,-0.16609903,0.080927,-0.044620704,-0.019792916,0.0012608125,0.14129278,-0.19901808,0.15790051,0.051225312,0.10222788,-0.06045114,-0.15527703,0.056864474,0.092912555,0.07101359,0.002005444,-0.009668811,-0.12954128,0.2467825,0.015913699,-0.06812196,0.08958211,0.27199045,-0.016063096,0.06883263,0.073031485,0.123640105,0.050399132,-0.19292188,0.049551453,-0.04079354,-0.033990465,0.014484446,-0.04499657,0.054392908,-0.06204868,-0.07189255,-0.029936744,-0.19357334,0.038646847,0.105755776,0.1314266,0.20407958,0.042491537,-0.03327045,-0.042348813,-0.012854258,0.023122007,0.022672025,0.07015775,0.06084669,0.1372933,-0.10226818,-0.056855753,0.021999795
Castellani::0.037465725,0.032661058,0.22217725,-0.08857199,0.0833647,-0.10665598,0.07270215,0.2532541,0.21335515,-0.1798436,-0.12966402,0.070527904,0.02774106,0.08820566,0.08800517,0.12864307,0.11990745,-0.08655177,-0.07333982,0.08452918,0.05539894,-0.19767359,0.14552785,-0.035828803,0.18922137,-0.049312044,0.306887,0.20596823,0.29116932,-0.11811963,-0.0964171,0.17587112,0.058963895,-0.112988256,0.19627212,0.047580432,0.16252616,0.15448646,-0.06155108,0.23241583,-0.29328224,-0.10724126,-0.044545595,-0.04874283,0.11097327,-0.038319286,0.21954706,-0.016259434,-0.09209602,0.013899054,0.23477899,-0.3369811,0.121355206,-0.016295146,0.17554493,-0.08057721,-0.013619807,0.009953835,0.15390994,0.09742322,-0.014862729,-0.19664514,-0.1319526,0.3879018,0.039932042,-0.05729026,0.13332298,0.3209114,-0.010835461,0.1263501,0.06886339,0.09631794,0.062442433,0.0056234975,0.20218797,-0.029833157,-0.14393078,-0.038258247,-0.0648264,-0.058151644,-0.0112704085,-0.031916924,0.01531663,-0.20720479,0.09571639,0.09740061,0.23494753,0.23330548,-0.13415354,0.10744259,0.019807588,-0.16209343,-0.036399126,0.14526017,-0.053083755,0.2754646,0.15049343,-0.21243702,0.03898775,0.088036194
Peruzzi::0.06692957,-0.0003182349,0.22504859,-0.09240079,0.077375785,-0.09443936,0.12483982,0.19469173,0.22509232,-0.1401258,-0.113562725,0.12843369,0.0055074417,0.06254258,0.055732522,0.12215496,0.11261267,-0.12001022,-0.066182435,0.09275127,0.063823305,-0.19018416,0.16182655,-0.047227528,0.23464306,-0.09077653,0.34910667,0.27071917,0.2747823,-0.12984414,-0.061903786,0.13702872,0.06181474,-0.11160712,0.20894815,0.020329703,0.16516781,0.15582483,-0.07119991,0.2167151,-0.32423142,-0.1125317,-0.0642707,-0.010379048,0.11743952,-0.005077914,0.2536211,-0.039343394,-0.104153045,0.008359772,0.24324806,-0.35543057,0.10125177,-0.05750187,0.17073072,-0.08526543,-0.010457337,-0.019412166,0.17715347,0.08164479,-0.026954198,-0.2321546,-0.13636093,0.40027663,0.046505403,-0.077039145,0.13685514,0.31123063,-0.0042607193,0.12610932,0.07397235,0.09507582,0.07841639,0.027101468,0.22812623,-0.02280786,-0.15857972,-0.024081491,-0.061261147,-0.0803486,0.028591871,-0.0069679976,0.025013307,-0.21637571,0.11111057,0.110760055,0.26165822,0.23927121,-0.15386724,0.12101674,0.02902295,-0.18198846,-0.04506177,0.18062615,-0.054967884,0.30918935,0.14822991,-0.23055513,0.045452025,0.11876643
Strozzi::0.0354176,0.02013311,0.2115667,-0.089276664,0.07538706,-0.09470589,0.09485996,0.21523622,0.21810283,-0.1554802,-0.1237241,0.0917998,0.007711217,0.06730705,0.079467066,0.12567924,0.11665134,-0.09260673,-0.08537123,0.08540747,0.05459663,-0.18097341,0.14088207,-0.042888086,0.19764815,-0.053465046,0.30585653,0.21362565,0.26743355,-0.11048747,-0.08139628,0.15063407,0.047602978,-0.11159129,0.19033432,0.031416498,0.16180126,0.15606797,-0.056660786,0.2248536,-0.30228704,-0.11712309,-0.045136157,-0.025718553,0.115082115,-0.020362534,0.22540599,-0.0327497,-0.095222406,0.006865872,0.22819695,-0.33555928,0.121000275,-0.0325388,0.16820665,-0.08462063,-0.017908992,0.007797467,0.16206996,0.07802335,-0.017233158,-0.19536692,-0.1293101,0.37761167,0.0429251,-0.07011154,0.13803737,0.30161223,-0.0076690544,0.11332281,0.062317707,0.100793324,0.071458936,0.016924717,0.19800101,-0.028887263,-0.14616656,-0.031094195,-0.05910942,-0.072865814,0.00491184,-0.020666825,0.013888616,-0.21048182,0.09398554,0.102964975,0.23783043,0.22536016,-0.13488355,0.11203529,0.018088702,-0.16320589,-0.03530471,0.15351494,-0.04631125,0.27553356,0.14259392,-0.21348377,0.0330472,0.11163505
Barbadori::-0.025985645,0.12539902,0.20908943,-0.1422925,0.117959805,-0.086056046,0.011911877,0.2863923,0.16981693,-0.21543185,-0.123894975,-0.04478458,0.022231882,0.07198788,0.115916416,0.09767293,0.07269883,-0.024599321,-0.054199696,0.08531603,0.018772168,-0.20908539,0.09379826,-0.058793034,0.14068793,0.010682959,0.1762372,0.0699924,0.22303316,-0.101843566,-0.09016493,0.18505682,0.035263546,-0.030782737,0.17501627,0.064863145,0.10504626,0.09973772,-0.053452365,0.21112496,-0.23567037,-0.09678842,-0.05285697,-0.09909606,0.094220616,-0.09741553,0.12951714,-0.016700577,-0.08939191,-0.0049827276,0.20986873,-0.25659087,0.1082563,-0.004249567,0.12708175,-0.06599315,-0.058338176,0.038849283,0.10539924,0.096980736,0.0021937266,-0.12553985,-0.1462262,0.3205018,0.040398233,-0.039023347,0.10886802,0.2659328,-0.010747756,0.07916484,0.06668882,0.0919343,0.09318555,-0.06599612,0.11312923,-0.031142283,-0.098734595,0.0014822455,-0.051625025,-0.0039434563,-0.024776027,-0.0125879655,0.015492499,-0.20404245,0.096262716,0.10453235,0.1759105,0.19086249,-0.062915795,0.037837993,-0.03198302,-0.07389484,-0.028639618,0.08113748,0.00494219,0.18480799,0.101677045,-0.14379345,0.013410465,0.025072059
Ridolfi::-0.10674811,0.1723318,0.18329413,-0.17872341,0.14940616,-0.029668286,-0.059726067,0.28175664,0.11696258,-0.20645188,-0.14838053,-0.12804762,-0.016094925,0.07014372,0.13923343,0.050256386,0.03018549,0.03771187,-0.072858244,0.05947374,-0.007601174,-0.16505867,0.016353672,-0.052723173,0.09237555,0.07619248,0.044869423,-0.0666941,0.1411079,-0.040298868,-0.10555717,0.19881186,0.0127813835,0.024596903,0.121906206,0.07679723,0.04608597,0.061094288,-0.0259934,0.21192583,-0.21030508,-0.11779047,-0.034339502,-0.16924734,0.08529988,-0.15261553,0.059073266,-0.04007706,-0.05226103,0.007828717,0.1565574,-0.18726484,0.10698488,0.020939942,0.08404412,-0.070839256,-0.14482765,0.04170176,0.10032093,0.07756185,-0.004484903,-0.04515765,-0.16097577,0.2484074,0.027362492,-0.050724935,0.09145233,0.2338498,-0.009363071,0.049312543,0.08153922,0.11583483,0.104882956,-0.17089668,0.054525666,-0.035140645,-0.05676521,0.0336766,-0.048315488,0.030982852,-0.02559572,-0.021752207,0.006149477,-0.19164477,0.082925014,0.10399465,0.13167052,0.18867582,0.021655865,-0.027620664,-0.06753878,-0.009149693,-0.0035709771,0.033591963,0.06635511,0.10315522,0.09546639,-0.077024706,-0.027542217,-0.0012205876
Tornabuoni::-0.1341899,0.22673577,0.18790814,-0.2270341,0.19897185,-0.0058960905,-0.07538909,0.30148503,0.09374739,-0.23843537,-0.14656074,-0.18424685,-0.035152182,0.057788342,0.1577273,0.008677688,-0.0121703865,0.053128704,-0.045125272,0.07546876,-0.036226504,-0.18621257,-0.011403963,-0.06664501,0.110874884,0.099795915,-0.016670946,-0.110977665,0.099173576,-0.052218474,-0.08397718,0.18295477,0.00703706,0.080812015,0.121554434,0.07907287,0.009787256,0.033743825,-0.031483844,0.20017071,-0.20671555,-0.1140903,-0.06304261,-0.2096439,0.09182904,-0.18326361,0.020587552,-0.047585484,-0.050093263,0.00027999454,0.15515576,-0.14762309,0.07282802,0.0038302138,0.05082144,-0.06852801,-0.17664629,0.031940747,0.08937102,0.06734072,-0.015895164,-0.030540727,-0.1992995,0.22617455,0.033751924,-0.053438358,0.07270303,0.19736698,-0.00039215572,0.027992861,0.090732194,0.1233814,0.14287181,-0.21647893,0.02668021,-0.037499934,-0.04925048,0.06848384,-0.045062445,0.054521997,-0.00952076,0.012527117,0.0153899,-0.19276409,0.10831194,0.121653944,0.11907497,0.17986548,0.063605376,-0.08512068,-0.104386754,0.031072188,-0.0016557784,0.0149360355,0.09018866,0.08070039,0.056396406,-0.03626265,-0.033259526,-0.036249354
Albizzi::-0.13308112,0.2465459,0.2506983,-0.2810761,0.27122644,0.045237586,-0.058875043,0.28534317,0.029487504,-0.22706155,-0.18106805,-0.19076633,-0.06835086,-0.012552761,0.12862161,-0.04072189,-0.0665369,-0.0164735,0.015426422,0.058173172,-0.053750556,-0.22395861,-0.0060563944,-0.10193871,0.16414157,0.043487906,-0.018602677,-0.08626536,0.044656545,-0.06979744,-0.024385571,0.16669676,0.01520986,0.12934507,0.120446876,0.030130949,-0.061242424,-0.043734383,-0.033499796,0.17253025,-0.21849461,-0.113499045,-0.13918976,-0.2270243,0.13657236,-0.18956192,0.011043614,-0.08262869,-0.044996757,0.035319798,0.13740419,-0.087889925,-0.014557513,-0.068214834,-0.015390911,-0.09295844,-0.20554012,-0.05940197,0.11779045,0.051202007,-0.06790451,-0.05315213,-0.24609533,0.17786899,0.020614453,-0.019778606,0.04354268,0.16786927,0.03274885,0.04280815,0.13099623,0.10304103,0.18920982,-0.29018247,0.03172859,-0.018547505,-0.033316914,0.10958972,-0.06596592,0.04900574,0.10229979,0.057852603,0.037531953,-0.17087223,0.16672333,0.13939618,0.12860739,0.20730242,0.07992191,-0.14672305,-0.13256319,0.08231405,-0.007170512,0.014822119,0.15273336,0.07474155,0.04014665,-0.010988931,0.0103295455,-0.06840191
Salviati::-0.32823977,0.16621666,0.18021706,-0.221664,0.16193463,0.12234673,-0.3272843,0.24678104,0.0051219785,-0.19188207,-0.3596237,-0.31867138,-0.040692378,0.15154608,0.2571081,0.048377875,0.011073589,0.26475847,-0.14629838,-0.16696076,0.05701414,-0.045217067,-0.14387575,-0.026986845,-0.1383193,0.2298096,-0.095136486,-0.37430435,0.02123199,0.206362,-0.2873306,0.48406947,0.015518118,0.016181791,-0.076106906,0.09454327,0.00712032,-0.016706467,0.09576216,0.3708524,-0.3031327,-0.208992,0.055511113,-0.34651735,0.08167809,-0.29182228,0.052992493,-0.13544968,0.09484001,0.0609129,0.018161666,-0.13950792,0.281297,0.1337763,0.088928275,-0.059030365,-0.33259633,-0.011351234,0.1067538,-0.0014846246,-0.05056422,0.15813231,-0.110721625,0.14815247,-0.03436668,-0.10530738,0.09124242,0.34348562,0.0035279572,0.11279989,0.120137505,0.16540934,0.0045421077,-0.4672741,0.0051876516,-0.031884547,0.0717322,0.02247491,-0.052843884,0.14814527,-0.04815212,-0.21222082,-0.09557633,-0.1658799,-0.027959265,0.16340156,0.089568935,0.3217341,0.2176618,-0.16508876,-0.08059687,0.10744942,0.1488201,-0.035566144,0.22311705,-0.18626645,0.27042332,-0.051083293,-0.1757528,0.070692316
Pazzi::-0.31869128,0.13444568,0.17018853,-0.19332527,0.14968248,0.13669528,-0.328361,0.22772972,0.004900403,-0.16873299,-0.37134135,-0.29908502,-0.037366282,0.17358959,0.25041598,0.07484885,0.022927167,0.2725147,-0.16439447,-0.20148034,0.08817512,-0.030648401,-0.13849677,-0.020352498,-0.15860891,0.22195475,-0.0565861,-0.36422232,0.031327672,0.23098925,-0.3052365,0.51273805,0.019093504,-0.01568629,-0.095387034,0.081237555,0.020188112,-0.010119787,0.1122686,0.3887623,-0.31617945,-0.2245724,0.07249891,-0.34549654,0.08111877,-0.28338113,0.08458513,-0.14222576,0.11447594,0.063419685,0.013107615,-0.1515086,0.305745,0.14240304,0.105803534,-0.0579612,-0.33487836,-0.017218007,0.12916665,-0.018390432,-0.053619575,0.16426806,-0.08485709,0.14983271,-0.045944415,-0.11647484,0.090501145,0.36602247,0.0076755863,0.1302468,0.123844475,0.16894062,-0.031789068,-0.46674716,0.023310296,-0.030532446,0.07693876,0.0135155525,-0.063348405,0.1371357,-0.06005205,-0.24928127,-0.11169709,-0.16984797,-0.059853896,0.16526449,0.10841939,0.34459418,0.21204415,-0.1551965,-0.056589697,0.081928715,0.16601709,-0.016866663,0.21482368,-0.18869951,0.30870998,-0.080344476,-0.18178968,0.10008657
Bischeri::0.04175475,0.06149201,0.23645627,-0.15760532,0.15912779,-0.052101582,0.11865433,0.21112986,0.16970435,-0.15549122,-0.10794698,0.07840341,-0.032354586,0.013542203,0.057406913,0.048613083,0.048622712,-0.13688122,-0.039065287,0.10858744,0.021926058,-0.20526181,0.12166619,-0.06276957,0.27414122,-0.09039415,0.2629946,0.22061953,0.21734571,-0.15398797,-0.017058263,0.09746464,0.049773328,-0.027804235,0.19382188,-0.0052454006,0.0967474,0.10504169,-0.07805943,0.17831342,-0.29990557,-0.11319717,-0.10090431,-0.061470147,0.13653627,-0.03329145,0.19196439,-0.059365347,-0.098072544,0.023672622,0.219662,-0.2814822,0.021958318,-0.0882906,0.101568766,-0.1079061,-0.06314606,-0.043389525,0.18581356,0.07494576,-0.048732597,-0.21874529,-0.188154,0.34251925,0.042964898,-0.06159315,0.108815,0.24104641,0.009629781,0.09860151,0.09246756,0.09379884,0.13982743,-0.03622482,0.19341089,-0.017461495,-0.14373893,0.023794327,-0.06953076,-0.06850312,0.084746376,0.042822603,0.043419402,-0.2027737,0.14393725,0.111566074,0.23460805,0.2267701,-0.1064971,0.04217706,-0.02618594,-0.12791874,-0.050046436,0.15093853,-0.011121267,0.29611045,0.08863279,-0.16302536,0.061560865,0.058391463
Guadagni::-0.065893404,0.18196338,0.25380144,-0.2540738,0.25421128,0.025391106,0.024073252,0.23213826,0.092301644,-0.19197841,-0.14215924,-0.08523371,-0.091962904,-0.037709378,0.07218536,-0.03914003,-0.03788656,-0.08307863,-0.004812252,0.10101002,-0.043342646,-0.22179748,0.04246337,-0.104796596,0.24353406,-0.016219804,0.06026091,0.027418362,0.07421274,-0.11965925,0.017294005,0.09334699,0.022046762,0.10596227,0.1456733,-0.010973599,-0.03007836,0.0035705126,-0.06318704,0.16547425,-0.24574149,-0.11360989,-0.14434427,-0.1641178,0.14558844,-0.13521415,0.05575715,-0.0894915,-0.06120383,0.027018854,0.16830143,-0.14858896,-0.033880938,-0.09157831,0.00067945564,-0.11796575,-0.17159913,-0.0737099,0.15445203,0.051142838,-0.06965963,-0.12494863,-0.23210593,0.2201855,0.035183027,-0.039044324,0.07162769,0.15624912,0.034270465,0.03546352,0.13121732,0.114010125,0.20328517,-0.20699252,0.07721191,-0.0079451,-0.08577127,0.10390429,-0.07320645,-0.014935257,0.13171862,0.07188298,0.06530532,-0.19039136,0.18073925,0.1334272,0.15727238,0.20185684,0.03225806,-0.0928022,-0.11623343,0.017933499,-0.043349884,0.062299293,0.11603868,0.17167254,0.027233038,-0.040840697,0.031744096,-0.02402897
Ginori::-0.15224785,0.26516172,0.26022243,-0.29938897,0.28575203,0.05885433,-0.08387529,0.29340532,0.009772798,-0.23414361,-0.19262826,-0.22279976,-0.07153114,-0.024044646,0.13000053,-0.058203753,-0.07536004,-0.01181746,0.029819276,0.052567948,-0.056093052,-0.23160127,-0.0172379,-0.10334501,0.15629014,0.045575395,-0.056690767,-0.10679591,0.035445653,-0.07120477,-0.018854955,0.17129351,0.023747452,0.15638326,0.114471994,0.030064326,-0.07841005,-0.06714376,-0.024426855,0.17199461,-0.21178186,-0.119465224,-0.15022412,-0.24647674,0.1367328,-0.2141323,-0.009160097,-0.08270745,-0.033043116,0.033044785,0.119309545,-0.065963104,-0.03568197,-0.072209336,-0.028596016,-0.09677668,-0.21569625,-0.072603315,0.110567264,0.042829975,-0.07640404,-0.048480496,-0.25509828,0.14710462,0.018419966,-0.0052258046,0.032295145,0.159681,0.02985292,0.044682607,0.12931505,0.097008646,0.1939416,-0.31865802,0.0075326995,-0.0067130527,-0.01667162,0.111470215,-0.06576338,0.06804461,0.11400745,0.06851612,0.042382285,-0.15384224,0.17326891,0.13697188,0.11191648,0.20793934,0.09467473,-0.17550336,-0.15043114,0.11068216,-0.0072804745,-0.00493013,0.17239812,0.052694503,0.023312228,0.012186626,0.012905007,-0.093109444
Lamberteschi::-0.054271102,0.18489465,0.25156105,-0.25914925,0.2635,0.030744374,0.03852482,0.23667668,0.081973575,-0.18683942,-0.13511366,-0.07546924,-0.09402489,-0.035767347,0.07895269,-0.036501728,-0.046638917,-0.080434866,0.008157983,0.093035445,-0.03818762,-0.22433767,0.043813355,-0.10241702,0.25007105,-0.02736107,0.07513288,0.038933318,0.07833456,-0.124180205,0.02296482,0.09067476,0.026160436,0.108225144,0.14124596,-0.015017899,-0.033241075,0.0041375025,-0.059946913,0.16290382,-0.25404513,-0.11585347,-0.15070583,-0.1706376,0.14212531,-0.12829931,0.07039904,-0.09082587,-0.057286445,0.031965625,0.16381215,-0.15048476,-0.04751543,-0.10057304,0.0022626948,-0.11837798,-0.17008112,-0.074521035,0.16161053,0.046282668,-0.07494857,-0.13492969,-0.24579673,0.21538252,0.03239264,-0.044231307,0.060081944,0.15484919,0.027348217,0.04422935,0.13324545,0.10304591,0.20944737,-0.20082617,0.08379443,-0.008217733,-0.08434707,0.09694949,-0.07435649,-0.01522877,0.13398334,0.073583625,0.05375389,-0.17627645,0.17091793,0.1331716,0.17073625,0.2036659,0.027244171,-0.094763346,-0.11795,0.01574052,-0.033485603,0.06819202,0.10870881,0.18560413,0.026406892,-0.04929614,0.03601522,-0.021919036
