Acciaiuoli::-0.16023618,0.16700707,0.22079526,-0.252244,0.10077651,-0.040762227,-0.07040389,0.20747457,0.12744083,-0.14946921,-0.16779152,-0.09226483,0.0016101159,-0.043072622,0.16392876,0.08184268,0.012061707,0.08621619,-0.10887477,0.024074817,-0.0023821522,-0.10778819,-0.017862214,-0.14220302,0.0306699,0.057720505,-0.003340723,-0.10183326,0.11635865,-0.051430434,-0.12027412,0.2561951,-0.0103621045,0.05652493,0.050971664,-0.015660562,0.04191621,0.021149365,0.003857864,0.21070652,-0.25626084,-0.1580008,-0.027005514,-0.065034814,0.079216346,-0.09036957,0.096704304,-0.14871852,-0.084616,-0.0090070525,0.106341496,-0.23037861,0.1721456,-0.0052526086,0.02659652,-0.11916314,-0.17172295,0.094197966,0.08533985,0.05976372,0.043624725,-0.036746193,-0.1359135,0.21745087,0.0326453,-0.060558666,0.120422214,0.22014195,-0.034400128,0.015166891,0.05399194,0.083727,0.18914358,-0.14927411,0.009195635,0.013020481,-0.004359431,0.023012513,-0.012085119,0.054005653,0.04083064,0.015875129,-0.060139164,-0.17240584,0.06266705,0.12432864,0.056899965,0.15339144,0.027294023,-0.0088291615,-0.11364707,0.09349924,0.022909617,-0.018089293,0.1642847,0.056470357,0.053407583,-0.07653268,-0.056775298,0.048503194
Medici::-0.16675387,0.17861442,0.22030605,-0.25823614,0.101603344,-0.03714573,-0.07715294,0.21626057,0.12692837,-0.15609545,-0.17390996,-0.106751665,-0.0009025356,-0.033885647,0.17782348,0.08300457,0.010533519,0.10036705,-0.113529325,0.019348783,-0.0060828,-0.11503174,-0.013142733,-0.14873423,0.025454184,0.076159626,-0.00598769,-0.11693418,0.11601128,-0.04689348,-0.119411014,0.27138,-0.014040134,0.054524954,0.051949386,-0.0026143773,0.037584405,0.024890222,0.012295339,0.22802113,-0.2685602,-0.16937816,-0.028980419,-0.07839502,0.08114714,-0.10131275,0.10452479,-0.15265664,-0.07704914,-0.01539252,0.1092886,-0.23955968,0.1771053,-0.008891313,0.029769827,-0.12203195,-0.1801085,0.10177346,0.08355179,0.061021507,0.040650744,-0.03139617,-0.14870283,0.22183962,0.034185335,-0.07179402,0.12213909,0.23407684,-0.040978428,0.018212676,0.052621383,0.09167326,0.1875211,-0.1625205,-0.002003606,0.0050548334,-0.0026537431,0.018932106,-0.00904347,0.059155583,0.038745455,0.0117444685,-0.07253421,-0.18126321,0.05865748,0.1312766,0.06953588,0.15576449,0.03883408,-0.015898552,-0.115439385,0.10020454,0.025390735,-0.025430303,0.1769614,0.05487301,0.05766345,-0.0886274,-0.065173365,0.05745217
Castellani::-0.079843596,0.12784974,0.26057422,-0.28286877,0.094171666,-0.07583537,-0.0040945723,0.17255571,0.17710596,-0.13220447,-0.11486632,-0.029468294,-0.010220285,-0.061654557,0.07101033,0.060022797,0.04939962,0.013073805,-0.10062756,0.07782481,0.021483082,-0.1437289,0.047956422,-0.13093399,0.13139294,-0.03773002,0.099087164,-0.012641244,0.13715783,-0.09336336,-0.07629926,0.22302528,0.015044467,0.098684594,0.13136357,-0.004844027,0.07703288,0.027098652,-0.0844203,0.17911601,-0.2674843,-0.113464914,-0.029868672,-0.023051133,0.05737278,-0.09857718,0.10631271,-0.13843228,-0.15587972,-0.018291159,0.16211027,-0.28938738,0.14814858,-0.02117178,0.06418332,-0.10109499,-0.14632523,0.050406083,0.07963424,0.1495917,0.056531314,-0.10741175,-0.09971379,0.29430723,0.05105064,-0.046750672,0.16764331,0.2161814,-0.035758182,0.021889254,0.060075592,0.048774343,0.1895989,-0.11267332,0.04432267,0.021773895,-0.037280437,0.050096482,0.001964558,0.04886068,0.08730956,0.01196119,0.03234961,-0.23400311,0.09724543,0.11975061,0.08140249,0.14224133,-0.02089557,0.035472658,-0.08753712,0.028671974,-0.05005214,0.040749103,0.15572537,0.090584904,0.07409563,-0.09817287,-0.04437427,0.046886045
Peruzzi::-0.08041814,0.12734076,0.25363797,-0.27850977,0.08590167,-0.068350285,-0.006495561,0.15848875,0.16886672,-0.118676476,-0.114561394,-0.030026296,-0.007027661,-0.05909264,0.06992888,0.067945324,0.03938633,0.02333326,-0.096912675,0.067158826,0.023848737,-0.13859026,0.04623934,-0.14114463,0.116643816,-0.035542134,0.09559832,-0.018367784,0.12381478,-0.08263697,-0.07440145,0.2295981,0.011722018,0.09772795,0.12507054,-0.0067753564,0.06667918,0.016021572,-0.076088764,0.17271517,-0.26219803,-0.11461272,-0.031990036,-0.015905943,0.051029164,-0.092906654,0.11038616,-0.1455414,-0.15249419,-0.021902798,0.15644279,-0.281046,0.15101287,-0.027877744,0.055504523,-0.09597313,-0.15103982,0.05145353,0.07727378,0.14256305,0.059759848,-0.09811505,-0.09487103,0.28403515,0.047831275,-0.050851084,0.1568313,0.21357101,-0.03500615,0.018277235,0.061883185,0.04496807,0.18370876,-0.11742571,0.03875707,0.022717511,-0.025552385,0.055778623,0.0055130287,0.0539082,0.08640698,0.0146539975,0.022004949,-0.23052533,0.09120514,0.121922016,0.07945675,0.13765039,-0.016936056,0.03625893,-0.08014373,0.03810204,-0.044276055,0.038742047,0.1634026,0.07964633,0.077075355,-0.10239467,-0.049424417,0.051218178
Strozzi::-0.095813125,0.14274544,0.25259945,-0.28731823,0.10022978,-0.06545499,4.788913e-05,0.17594393,0.17027667,-0.13440411,-0.121866696,-0.039802004,-0.020771613,-0.07132015,0.08983557,0.06266843,0.04321919,0.020317748,-0.10873612,0.074229985,0.015789405,-0.14476448,0.037309684,-0.1376506,0.12631166,-0.023094382,0.082430184,-0.026731098,0.12919672,-0.08749391,-0.07329946,0.21668471,0.0040212455,0.099018015,0.12380463,-0.0081535475,0.07097197,0.026652887,-0.06714822,0.18083453,-0.26934808,-0.1292635,-0.03355469,-0.026495762,0.06575672,-0.09605634,0.10365931,-0.14271587,-0.14936183,-0.022490207,0.15218782,-0.27559492,0.14336035,-0.030791678,0.05742276,-0.10619774,-0.1516973,0.06058337,0.08492056,0.12733681,0.051497385,-0.09686454,-0.1153335,0.27597722,0.050886538,-0.051581737,0.1629494,0.2097642,-0.03733754,0.016687514,0.05310103,0.05532791,0.20035134,-0.11750757,0.030212507,0.017662091,-0.033687413,0.04882191,0.001438786,0.0446958,0.08773665,0.022388363,0.018279942,-0.23101011,0.09295866,0.12502521,0.087265596,0.14303352,-0.016015796,0.02467926,-0.10050936,0.03982738,-0.03920376,0.03444911,0.16259229,0.088961154,0.0628236,-0.09554812,-0.04564587,0.05123365
Barbadori::-0.12082338,0.15260325,0.24191685,-0.2795491,0.09773746,-0.060811162,-0.037246194,0.18899189,0.15399039,-0.14281927,-0.13600437,-0.06571755,6.9127665e-05,-0.061457377,0.11910537,0.072940275,0.03130759,0.0552369,-0.111763336,0.04972048,0.014668748,-0.12852633,0.014088992,-0.14382374,0.07828152,0.006092414,0.04738348,-0.064200036,0.12826651,-0.07775701,-0.097293064,0.24731793,0.00032110815,0.08823648,0.09081629,-0.015940936,0.06522741,0.020447569,-0.043129366,0.19433494,-0.26400727,-0.13869222,-0.024660049,-0.04027331,0.06676431,-0.09690012,0.10228371,-0.14961386,-0.12835163,-0.022139184,0.13605368,-0.2640083,0.16541782,-0.014757861,0.04536589,-0.1107311,-0.1607094,0.08086162,0.07931331,0.109903105,0.057433456,-0.0709375,-0.11209999,0.2587602,0.043858185,-0.052904166,0.15091066,0.21608725,-0.03752093,0.016205521,0.049711846,0.06111422,0.19373003,-0.12944892,0.018905789,0.019741885,-0.016128633,0.039794985,-0.001281447,0.058647722,0.066943765,0.0130714085,-0.014385628,-0.21424049,0.073989294,0.12582348,0.066140756,0.14416434,0.0031197835,0.008120348,-0.10618553,0.06320805,-0.014540773,0.009532345,0.16721739,0.06520217,0.059654724,-0.090615876,-0.053332828,0.04725198
Ridolfi::-0.13267584,0.1631886,0.24525888,-0.28598925,0.10758159,-0.050752416,-0.030653533,0.19507022,0.15331604,-0.14127906,-0.14743924,-0.07027577,-0.02252157,-0.06657468,0.11923284,0.06918119,0.032897204,0.048172902,-0.11608058,0.05505278,0.009801079,-0.13213369,0.008546461,-0.13831277,0.0897865,0.008213785,0.03688478,-0.07037025,0.121674195,-0.066272855,-0.09412513,0.23271674,-0.0029261294,0.09540297,0.09666227,-0.009216844,0.055313606,0.02021737,-0.037595406,0.19562915,-0.26556224,-0.14977123,-0.029057126,-0.05265486,0.07119608,-0.10744545,0.091234535,-0.14710887,-0.12567578,-0.013883965,0.12999785,-0.2551347,0.15267366,-0.017743075,0.04655147,-0.116106436,-0.17408945,0.07445426,0.0920506,0.101960205,0.048256256,-0.069287345,-0.12974158,0.24760605,0.042344805,-0.052020766,0.14961499,0.21632235,-0.039609168,0.014623734,0.057215083,0.067838356,0.20437433,-0.14674114,0.013894427,0.018160122,-0.017794205,0.042428337,-0.0064773774,0.05076618,0.0720529,0.018654173,-0.006914621,-0.21244551,0.08159431,0.1247811,0.07575002,0.1548953,0.004176715,0.0076863016,-0.11609693,0.0673351,-0.015142528,0.012201798,0.1753044,0.073352925,0.061455123,-0.08153351,-0.052924506,0.0446156
Tornabuoni::-0.12451363,0.1594847,0.23379192,-0.28457466,0.11158766,-0.047953688,-0.020553043,0.18480498,0.16092342,-0.14886573,-0.13307603,-0.06997721,-0.029709993,-0.057883687,0.11746924,0.057977647,0.031085325,0.05065189,-0.108417325,0.06590544,0.008075974,-0.13652672,0.010027957,-0.13230492,0.10661084,0.013008881,0.044495594,-0.06140967,0.11149427,-0.07051917,-0.0846952,0.2140592,-0.002125228,0.098859034,0.10231044,-0.004406698,0.062505566,0.029652387,-0.047898088,0.19294979,-0.27200127,-0.1396236,-0.032886717,-0.05544802,0.06993805,-0.10790077,0.09127651,-0.1411369,-0.12588131,-0.024428265,0.14003289,-0.2545282,0.14839718,-0.020959845,0.0532193,-0.103034854,-0.16614275,0.06698104,0.08504948,0.09556385,0.0426893,-0.072464064,-0.12973052,0.25513953,0.049461514,-0.06405256,0.15020093,0.20332274,-0.034085725,0.009990121,0.05361588,0.073468775,0.20092125,-0.13639632,0.018699855,0.0116170505,-0.029997138,0.048885647,-0.0017625361,0.04943866,0.06689572,0.020153092,0.0018302872,-0.21954575,0.084671386,0.13385898,0.083721824,0.14863604,0.010397053,0.00017210351,-0.114544414,0.054008417,-0.01662942,0.023462778,0.159851,0.07259771,0.055417717,-0.07896814,-0.058688786,0.05109145
Albizzi::-0.12628369,0.16765174,0.24118672,-0.2807294,0.11473283,-0.04665282,-0.021975417,0.19625132,0.13505544,-0.14180085,-0.14632289,-0.06985518,-0.018413732,-0.06653745,0.124772,0.066968165,0.017221585,0.038817894,-0.10555664,0.050702654,0.00039080938,-0.13595381,0.008722565,-0.14308546,0.09245601,0.0100045,0.044244595,-0.068221085,0.112651974,-0.06591085,-0.08811791,0.23264238,-0.010776654,0.08732444,0.09728426,-0.00976854,0.04427404,0.011755024,-0.03649704,0.18203413,-0.25626984,-0.14169909,-0.038696203,-0.0519647,0.079765804,-0.09547055,0.091604136,-0.1466144,-0.12819146,-0.006488158,0.13267654,-0.23633853,0.14324632,-0.030592518,0.03362433,-0.111626334,-0.17167006,0.07080576,0.09276116,0.10104939,0.042783678,-0.0632627,-0.138859,0.2460586,0.03866553,-0.049325183,0.13824579,0.20822729,-0.029254748,0.015581087,0.061184302,0.06499089,0.20473185,-0.14910512,0.021597043,0.008418259,-0.01760874,0.050886475,-0.009163301,0.0465895,0.08040532,0.027498996,-0.013738728,-0.21734406,0.09005725,0.1308814,0.08533795,0.15790552,0.003916133,0.0013125105,-0.11322548,0.06995528,-0.010870896,0.014840878,0.17722055,0.07504573,0.06343906,-0.08675776,-0.044811055,0.042211704
Salviati::-0.19721988,0.1730604,0.22445968,-0.2544746,0.09339615,-0.03564582,-0.11142074,0.22490223,0.118022226,-0.16108352,-0.20636131,-0.11763198,0.011445442,-0.033418898,0.20963486,0.09312727,0.014186026,0.12553045,-0.12185085,-0.0064348057,-0.003688955,-0.09368921,-0.03514049,-0.14655875,-0.012892613,0.095595196,-0.027004335,-0.1417242,0.12419783,-0.03135357,-0.15338227,0.3069779,-0.011902069,0.03351603,0.016371,-0.009323223,0.04049359,0.02460733,0.0361667,0.24387811,-0.27151412,-0.17635757,-0.015592191,-0.081775814,0.0828276,-0.094268166,0.107905686,-0.1581272,-0.055898998,-0.0013657216,0.08093375,-0.2350971,0.19988969,0.010529542,0.026841156,-0.12832053,-0.18052709,0.108343326,0.07870017,0.043465853,0.038402945,-0.013668671,-0.14344788,0.20131612,0.026254341,-0.069496304,0.11926969,0.24730363,-0.045228038,0.028586645,0.04780342,0.09205932,0.1829618,-0.16979311,-0.0025987476,0.010778457,0.010494434,-0.005689444,-0.009765466,0.06695792,0.029795034,-0.0022130734,-0.10074391,-0.14856614,0.04346395,0.12647143,0.0486625,0.16317739,0.048029117,-0.018819947,-0.119683914,0.12032453,0.05073563,-0.046049207,0.17995791,0.03271167,0.06276023,-0.08083742,-0.07129219,0.06386256
Pazzi::-0.2043433,0.17774117,0.21524292,-0.23687142,0.09480002,-0.026532356,-0.12021015,0.23279338,0.10622753,-0.15791485,-0.21424112,-0.12563077,0.015773108,-0.021594124,0.21652234,0.105814,0.008377498,0.13148427,-0.12527391,-0.020221148,-0.002544209,-0.09032795,-0.040571146,-0.14800313,-0.033474375,0.10874454,-0.03467074,-0.15374042,0.12264988,-0.01884576,-0.16097915,0.31558833,-0.017572422,0.018044543,0.0071378695,-0.011318635,0.03250534,0.02142047,0.053596575,0.24814793,-0.2618042,-0.1856143,-0.014667166,-0.08925802,0.08806514,-0.0928049,0.10802608,-0.1560565,-0.04220633,0.0005255668,0.07668125,-0.22024308,0.20467009,0.012797504,0.021722732,-0.1295125,-0.18522777,0.114373535,0.0876473,0.027043432,0.03699144,0.0012126566,-0.14344797,0.18969592,0.018756444,-0.06833387,0.105809025,0.2504032,-0.039402198,0.028543472,0.05112089,0.09935891,0.1693768,-0.17685759,-0.0048790444,0.007540927,0.017402628,-0.0052045463,-0.01860498,0.061570115,0.01592185,-0.0070480397,-0.11482722,-0.14410043,0.034080748,0.124929905,0.05096431,0.16957578,0.051030304,-0.022162158,-0.11369406,0.12214664,0.06193833,-0.049526803,0.17715931,0.029903611,0.06900303,-0.08486573,-0.06875267,0.06269695
Bischeri::-0.096433505,0.13968337,0.24548905,-0.2898571,0.102074325,-0.06398748,-0.009615555,0.1771835,0.1583286,-0.13230631,-0.12203744,-0.039183293,-0.0074749845,-0.06481111,0.099862434,0.06031351,0.03244157,0.029625809,-0.114874266,0.064507835,0.01951023,-0.1309457,0.022139972,-0.1347262,0.11614829,-0.024185425,0.07745566,-0.03324673,0.13548788,-0.08764882,-0.08725003,0.23457095,0.004411511,0.096457325,0.10843682,-0.0139054535,0.07128774,0.022614902,-0.06501786,0.1690916,-0.26107165,-0.12726144,-0.020811245,-0.030650826,0.06055762,-0.08716141,0.10592565,-0.14679584,-0.14614479,-0.014650572,0.1431409,-0.26805145,0.14619611,-0.02402252,0.049671195,-0.105594404,-0.15828012,0.06750106,0.087736696,0.13113168,0.05661066,-0.08916665,-0.108801074,0.274181,0.044633195,-0.05365798,0.15531489,0.20815139,-0.037200373,0.021192452,0.052071802,0.050417904,0.19383594,-0.11889637,0.040524967,0.017110474,-0.025351658,0.050114095,0.0011469257,0.053791404,0.0822304,0.018671827,0.0067422567,-0.22585441,0.081409685,0.11883607,0.079169035,0.14623122,-0.015114003,0.018610356,-0.09453904,0.035400968,-0.029089956,0.033269104,0.15474528,0.08492208,0.06674576,-0.094947025,-0.04640616,0.044300884
Guadagni::-0.11548949,0.15184422,0.25386363,-0.29602224,0.11668936,-0.049179368,-0.016910383,0.17851467,0.16072612,-0.13873982,-0.13784991,-0.057804126,-0.030867862,-0.07555581,0.09835091,0.054807346,0.03247428,0.030835558,-0.11522022,0.065935574,0.012487138,-0.14101397,0.017940458,-0.14195925,0.11836496,-0.012865817,0.05551734,-0.052447587,0.11396587,-0.077277884,-0.07891166,0.2199104,0.001147241,0.108660676,0.104490705,-0.019172879,0.056048166,0.017100664,-0.05854449,0.1851333,-0.26715088,-0.13714841,-0.03298918,-0.04594287,0.07118068,-0.10550226,0.09038501,-0.15112999,-0.13532901,-0.013875965,0.13918479,-0.2586239,0.14112777,-0.024556251,0.043948606,-0.11457854,-0.17389588,0.055749703,0.09437087,0.11464367,0.045760296,-0.08238986,-0.12020248,0.2577351,0.04516313,-0.05190134,0.15681677,0.20285541,-0.031543497,0.012336478,0.06281452,0.06403736,0.20718257,-0.14382267,0.024769932,0.021044867,-0.026554178,0.056607485,-0.0065362114,0.045774333,0.09203309,0.018574566,0.014609587,-0.22669932,0.091857485,0.128018,0.07814823,0.15351674,0.003580222,0.005413521,-0.11384965,0.0547646,-0.02906143,0.025860488,0.17669268,0.07835433,0.061526485,-0.079233415,-0.050135106,0.04568099
Ginori::-0.1477162,0.17357087,0.23977211,-0.28392947,0.11703374,-0.03796634,-0.042383287,0.20526287,0.1306709,-0.14865102,-0.16201882,-0.085868046,-0.017149014,-0.06892196,0.14449736,0.06587693,0.020209007,0.05345158,-0.112023614,0.04035428,0.005299725,-0.13241601,-0.0034968667,-0.14173602,0.07594261,0.023348203,0.017587498,-0.076963134,0.123772755,-0.067980036,-0.095748916,0.24058641,-0.004896102,0.08634054,0.08054977,-0.015641565,0.0476616,0.013740671,-0.012517105,0.19949771,-0.26635224,-0.1645291,-0.037031483,-0.06292712,0.084623694,-0.10263389,0.09512162,-0.14910379,-0.106330134,-0.014161837,0.11383153,-0.23594205,0.14145178,-0.029165529,0.033498134,-0.12361742,-0.17321791,0.076650545,0.09601718,0.074889585,0.03590431,-0.062048357,-0.14726168,0.2245243,0.03776788,-0.050825726,0.13325927,0.21489254,-0.03833181,0.022595024,0.04811324,0.071423404,0.20336598,-0.15412804,0.0065097553,0.017063895,-0.009544979,0.033262827,-0.010355751,0.053772014,0.074298926,0.03063696,-0.030744033,-0.19529909,0.07827465,0.12727311,0.07774224,0.16283967,0.009613917,-0.015906557,-0.12497445,0.08110901,0.0016259316,-0.0008763666,0.17619891,0.07026334,0.048518427,-0.0784615,-0.044457346,0.039292384
Lamberteschi::-0.1139972,0.16216353,0.247489,-0.29357496,0.11853063,-0.044317767,-0.010586835,0.18689664,0.15217866,-0.13674684,-0.13526876,-0.061420154,-0.033323117,-0.07322133,0.109037116,0.06466106,0.029095508,0.041047666,-0.105749555,0.055813055,0.0145628955,-0.14619558,0.021113845,-0.14322218,0.10883224,-0.008969985,0.05665951,-0.055237792,0.11386511,-0.074347824,-0.07250584,0.21604453,0.00069229834,0.10533845,0.098548345,-0.016319497,0.049427237,0.017787332,-0.044450007,0.18902947,-0.26620483,-0.14303201,-0.039704833,-0.05350121,0.068421476,-0.10493279,0.09691596,-0.14555079,-0.12362618,-0.016223224,0.1311815,-0.25272965,0.13120924,-0.030597456,0.046641853,-0.1135219,-0.16776745,0.061364137,0.09437706,0.1004785,0.040462088,-0.08156285,-0.13249159,0.2402329,0.042742297,-0.054141067,0.14430816,0.20287983,-0.0396248,0.016780524,0.060133643,0.05862312,0.20706104,-0.1410439,0.014456471,0.019008065,-0.021826236,0.044921353,-0.0077020344,0.044699382,0.08504671,0.017927643,-0.00097108673,-0.21061042,0.07904924,0.1275799,0.08904411,0.1500779,0.004147427,0.002062711,-0.11785978,0.06163926,-0.018551864,0.021351794,0.17474194,0.08244108,0.057454232,-0.08638193,-0.049022447,0.048835192
