Acciaiuoli::-0.14736274,0.3083525,0.3081374,-0.17259644,0.13120423,-0.13573807,-0.2260104,0.41837606,0.22248599,-0.34698424,-0.13799965,-0.26987997,0.12890579,0.14584583,0.11932823,0.12638794,-0.006489879,0.12990488,0.12731616,0.14395596,-0.06879113,-0.27439278,0.07746106,-0.17335707,-0.027776124,0.16182975,-0.104269184,-0.07231744,0.14872693,-0.14048201,-0.1094064,0.21726282,0.07438596,0.03880806,0.18131258,0.10708836,-0.012273599,0.019845724,-0.02941579,0.2724471,-0.16404799,-0.04734142,-0.15475741,-0.17494167,0.05715287,-0.24140266,0.018869422,-0.0022763596,-0.044863857,-0.086837076
Medici::-0.1710675,0.319209,0.2755139,-0.18643877,0.1386691,-0.09230421,-0.24977143,0.384626,0.16891585,-0.3297435,-0.13844353,-0.31041646,0.09949157,0.12476308,0.12741958,0.080616936,-0.01891113,0.15099478,0.11091204,0.11310209,-0.07188742,-0.26250076,0.054554444,-0.16585617,-0.04092531,0.18550724,-0.16086353,-0.1397643,0.11983719,-0.12234412,-0.09272482,0.23005612,0.07487894,0.086013325,0.15495928,0.11554851,-0.04090866,-0.005522799,-0.020237183,0.30945715,-0.2038066,-0.07686065,-0.16626637,-0.23203982,0.06415713,-0.2905085,-0.0014436992,-0.014485335,-0.014436257,-0.09603165
Castellani::0.101506114,0.05277604,0.39590216,-0.15246473,0.04922629,-0.2640385,-0.047273822,0.32223234,0.4404843,-0.31904578,-0.063049145,0.006145358,0.1543753,0.19617726,-0.053758826,0.13857593,0.17040627,-0.042217992,0.071999244,0.2433671,0.044229776,-0.34753782,0.30720013,-0.13247626,0.21066236,-0.05593815,0.3492259,0.29082602,0.3008043,-0.25943124,-0.06469326,0.21726687,0.19090907,-0.022726929,0.40886465,0.14518131,0.19880278,0.15136251,-0.27856308,0.34333724,-0.36550775,0.08045063,-0.16100393,-0.04025142,0.034758035,-0.1967057,0.22609958,0.029429639,-0.19458131,-0.12807302
Peruzzi::0.07137697,0.062596664,0.41154194,-0.23460422,0.06816026,-0.19793805,-0.00155286,0.25154617,0.3838061,-0.25009406,-0.09987717,0.022310942,0.09470095,0.10864561,-0.04050008,0.13212831,0.12735619,-0.04038631,0.08789571,0.19937682,0.06245498,-0.34250125,0.2752836,-0.17058603,0.2376194,-0.110089585,0.3478033,0.28108752,0.24331832,-0.22639132,-0.039151132,0.23279472,0.17434712,0.032664146,0.3716032,0.096117415,0.15608677,0.08486939,-0.24127524,0.30590138,-0.4006155,0.029799342,-0.19965772,-0.020064473,0.035938155,-0.17726672,0.24415517,-0.042104293,-0.20173855,-0.10852885
Strozzi::0.03891165,0.14616264,0.4066829,-0.24477641,0.09454083,-0.20122118,-0.022505663,0.29726675,0.36599314,-0.28758064,-0.07720384,-0.040450428,0.09567352,0.10125118,-0.022247465,0.11741684,0.10014982,-0.026731698,0.09898292,0.21564631,0.020799756,-0.3464646,0.25289604,-0.17522202,0.20921707,-0.05693214,0.25354546,0.22113782,0.22005492,-0.2325583,-0.017282557,0.1842787,0.14436345,0.04910844,0.3536318,0.1049956,0.118667774,0.07837225,-0.20565616,0.2687517,-0.32291543,0.030428654,-0.17818461,-0.021724872,0.034384064,-0.16164032,0.1753443,-0.009024118,-0.17434005,-0.116500124
Barbadori::-0.042571954,0.19920541,0.3270347,-0.13088469,0.07391936,-0.19850914,-0.16626903,0.36143216,0.32646388,-0.3441551,-0.07848603,-0.18547814,0.14832,0.17133243,0.020525908,0.15542988,0.097973935,0.082222775,0.10065731,0.1712829,-0.009694865,-0.31523508,0.19324362,-0.15964505,0.025083078,0.09712078,0.09032742,0.028830556,0.17818987,-0.16587117,-0.08606198,0.20928733,0.10815216,0.0015610429,0.26282784,0.1218183,0.093058676,0.07733283,-0.14120682,0.31224492,-0.20480338,0.041328058,-0.13815306,-0.10348421,0.038730655,-0.24082655,0.07399569,0.039456274,-0.10443309,-0.13864243
Ridolfi::-0.061830826,0.2580573,0.3387607,-0.2161413,0.11628974,-0.16133769,-0.12712586,0.35856384,0.29393098,-0.30645466,-0.07534803,-0.17431591,0.09142794,0.13091892,0.01928967,0.10564053,0.052064214,0.05328008,0.08994512,0.1919945,-0.02096225,-0.2945188,0.15086229,-0.14549215,0.08868598,0.057899106,0.02766745,0.042437408,0.18139786,-0.17821331,-0.05140007,0.17095838,0.10888207,0.083283946,0.28374428,0.12994461,0.04423228,0.049142115,-0.11949537,0.2459692,-0.19107406,-0.016991807,-0.14111128,-0.11725925,0.019991044,-0.22391735,0.05383721,0.018587757,-0.10455281,-0.11534776
Tornabuoni::-0.09102397,0.2908637,0.3433146,-0.34587333,0.21627566,-0.041996934,-0.08906298,0.27631932,0.17527218,-0.2792388,-0.09983127,-0.21404123,-0.010873458,-0.01801414,0.051474858,0.009152466,-0.044969272,0.066470236,0.15903878,0.12589724,-0.030434761,-0.31234264,0.091791734,-0.19479431,0.15950243,0.0045178244,-0.01689983,-0.027220083,0.060182113,-0.18264975,0.026611423,0.15990351,0.09327596,0.21924181,0.1715563,0.024839098,-0.05165163,-0.050534703,-0.08910746,0.2016626,-0.24160911,-0.042730592,-0.20650415,-0.15191409,0.045107745,-0.20848136,0.02358892,-0.065375745,-0.059340168,-0.0687773
Albizzi::-0.13556509,0.3690018,0.3667418,-0.4603285,0.3157699,0.044087626,-0.07033712,0.27699786,-0.004425433,-0.2741633,-0.16334136,-0.2891088,-0.0640681,-0.18113567,0.11946312,-0.07622246,-0.15979062,0.03362478,0.2603535,0.06988426,-0.08391485,-0.34781158,0.029895026,-0.24448904,0.19844562,-0.040832046,-0.10020981,-0.100607134,-0.023066001,-0.189603,0.09045476,0.17201973,0.06437223,0.33030385,0.09673402,-0.03583926,-0.17719503,-0.18857087,-0.03673335,0.13811444,-0.2694157,-0.076758325,-0.28834087,-0.20253146,0.106497265,-0.22035757,-0.024052292,-0.13468288,-0.049945753,0.01704148
Salviati::-0.36626694,0.23163594,0.28618112,-0.18948296,0.10192111,-0.0312161,-0.36632457,0.39227003,0.17209724,-0.31725532,-0.3715674,-0.3197699,0.0402351,0.1287746,0.302802,0.14801538,0.07137178,0.2697022,-0.033060208,-0.012502644,-0.013648642,-0.16628337,-0.06433929,-0.12090669,-0.1422198,0.2773549,-0.17094472,-0.26800257,0.17784327,0.024539806,-0.31412175,0.4675851,0.079321995,-0.0006753643,0.042864174,0.11040897,0.042548902,0.046659093,0.07873395,0.5040934,-0.39521623,-0.23190074,-0.13052703,-0.32730064,0.13042653,-0.38482526,0.09183565,-0.12112501,0.028436968,-0.02334164
Pazzi::-0.44006023,0.21205978,0.23181315,-0.106459774,0.0699409,-0.00044927653,-0.44693634,0.40739876,0.15517205,-0.30997884,-0.43432984,-0.36076772,0.056139298,0.1926541,0.36443773,0.20834419,0.092852496,0.3430378,-0.09594469,-0.068016514,0.0048256577,-0.13572156,-0.10993693,-0.11514527,-0.25100717,0.3716623,-0.22535945,-0.36508656,0.19614938,0.09781312,-0.4139341,0.56633854,0.07183415,-0.06062693,0.00864028,0.12131042,0.058870837,0.06258351,0.12198894,0.64599884,-0.47484905,-0.3117839,-0.15079431,-0.42094818,0.17199124,-0.4796391,0.119008005,-0.14926852,0.058663707,-0.042794023
Bischeri::0.05954559,0.14535199,0.4027619,-0.37855452,0.18181545,-0.106608085,0.052216932,0.21664672,0.23978281,-0.22436967,-0.07815095,-0.009668161,0.0133324275,-0.041563947,-0.01030261,-0.0026257527,0.003505521,-0.070176564,0.13743791,0.17623045,0.020345917,-0.3336788,0.19423828,-0.18807437,0.3275468,-0.1743253,0.2417571,0.23272546,0.17190777,-0.2775345,0.058818676,0.17425373,0.15455703,0.19824268,0.297595,0.021582032,0.042942394,-0.0124432575,-0.21325786,0.1954813,-0.4007909,-0.009865636,-0.23850517,-0.060731854,0.051170025,-0.14139773,0.18566144,-0.10228372,-0.1764743,-0.049250815
Guadagni::-0.065659694,0.32916802,0.39854527,-0.5133428,0.33671296,0.05811258,-0.009618442,0.19910005,0.04478148,-0.24118939,-0.11032258,-0.22142781,-0.10632129,-0.22101328,0.037599355,-0.11580657,-0.16218348,0.0005967314,0.2542094,0.09031621,-0.058197457,-0.37118867,0.07924084,-0.27895322,0.2949558,-0.12161983,-0.029941982,-0.03466159,-0.046411034,-0.24555038,0.1636129,0.1287417,0.08838957,0.39185664,0.10537676,-0.09494441,-0.18243304,-0.18886048,-0.09956455,0.12819949,-0.30522764,-0.054255813,-0.30680907,-0.16215289,0.08198918,-0.17918886,-0.0026725286,-0.16145,-0.04872606,-0.003832003
Ginori::-0.1564218,0.37598905,0.3634694,-0.4927817,0.3300206,0.083167635,-0.075366385,0.24373174,-0.067062035,-0.25121683,-0.17937407,-0.3087252,-0.086962774,-0.24216998,0.12815905,-0.12211465,-0.17849647,0.022581592,0.28104925,0.045861486,-0.08434385,-0.34140226,0.0070656715,-0.24243478,0.20326489,-0.06108822,-0.14938219,-0.10755883,-0.039069712,-0.19432199,0.118134074,0.16068847,0.07377729,0.37393698,0.066018194,-0.054565582,-0.20470208,-0.2300249,-0.0025491482,0.11941401,-0.29217348,-0.1060847,-0.30396202,-0.21248807,0.11584667,-0.22499074,-0.039258294,-0.149182,-0.01995567,0.02787143
Lamberteschi::-0.018910235,0.3457119,0.42340344,-0.5715199,0.36717835,0.056256685,0.06008291,0.20605984,0.040383756,-0.22777799,-0.08161525,-0.18020234,-0.12500496,-0.25398967,0.028148921,-0.12512258,-0.17726077,-0.029657766,0.27954003,0.09946533,-0.046124395,-0.398093,0.10482052,-0.28483114,0.3608449,-0.19029714,0.027649695,0.02590657,-0.027773613,-0.28495088,0.21021451,0.10308271,0.10059051,0.43198016,0.12953065,-0.104417495,-0.18764906,-0.19373377,-0.11576271,0.10645966,-0.3368192,-0.060242217,-0.33923423,-0.1574196,0.07334832,-0.16335395,0.033882413,-0.17107259,-0.07388509,0.004621392
