Acciaiuoli::-0.20016249,0.20183836,0.16960731,-0.28337005,0.08358784,-0.12589619,-0.25080818,0.28180763,0.14124545,-0.356318,-0.123384856,-0.26527196,0.098236665,0.08710762,0.3331297,-0.0126385605,-0.009670651,0.34249538,0.036380604,0.03851597,-0.084294245,-0.104764946,-0.07451788,-0.09750461,-0.05500388,0.25632706,-0.098183356,-0.28229412,0.0884181,-0.084288485,-0.22047728,0.37072384,0.041860275,0.09378497,-0.019223768,0.13019177,0.08852959,0.09554245,-0.08170211,0.32943627,-0.34885398,-0.0008308655,-0.024456855,-0.23502544,0.017829651,-0.17562294,0.051992603,-0.085720986,-0.037251,-0.014601905
Medici::-0.18441933,0.22559123,0.1457025,-0.30522385,0.10353451,-0.05671491,-0.2359479,0.24813406,0.06948578,-0.2891439,-0.12235169,-0.29440087,0.049529333,0.056622006,0.2865979,-0.051200554,-0.03213932,0.30811802,0.0009831976,0.0059113116,-0.06720882,-0.120704964,-0.05949287,-0.10459503,-0.03554783,0.22426744,-0.13188115,-0.31326684,0.073016,-0.06881748,-0.1512223,0.37399456,0.03736442,0.1619398,-0.013902351,0.13762024,0.021295216,0.039143432,-0.0404508,0.3073709,-0.3158571,-0.07186499,-0.026572237,-0.2815943,0.011708383,-0.24204262,0.043886583,-0.109405555,-0.011026516,-0.028608724
Castellani::0.024162298,0.18642455,0.3942379,-0.41187832,0.10449397,-0.1856538,0.07279774,0.30567375,0.36763522,-0.34058455,-0.08899687,-0.058765307,0.04354718,0.092437424,0.1703979,0.15056077,0.12602738,0.10229965,0.04122629,0.113660984,0.07616906,-0.347904,0.2561809,-0.15921856,0.22232462,-0.024512803,0.4493977,0.15301271,0.19270028,-0.14626896,-0.030561943,0.28399733,0.06821813,-0.016451985,0.27833763,0.14605868,0.21873353,0.1420734,-0.18473433,0.2885664,-0.42939293,0.015645789,-0.10350175,-0.020145098,0.016102947,-0.08078235,0.28007257,-0.021647414,-0.1928742,-0.131905
Peruzzi::0.02057315,0.19896583,0.4559801,-0.47037193,0.120616846,-0.16232692,0.12269716,0.26910782,0.3949337,-0.31482488,-0.110393494,-0.036813058,-0.0029586563,0.045054097,0.1258508,0.1673517,0.12554212,0.061376337,0.06310479,0.12404135,0.09631379,-0.3859324,0.2849897,-0.19604695,0.27761182,-0.08298504,0.49634457,0.20278819,0.15458803,-0.13645102,0.010839,0.26071241,0.07208437,0.022077678,0.32114118,0.12327789,0.20199011,0.103077166,-0.19712137,0.2746282,-0.4596828,0.009062241,-0.14953652,0.026195478,0.020717788,-0.09003866,0.29657176,-0.052720822,-0.22983305,-0.14770155
Strozzi::-0.015280287,0.21250032,0.38141695,-0.42953962,0.11103307,-0.17307061,0.070533104,0.31277403,0.35228515,-0.33920586,-0.10334392,-0.0801602,0.019726751,0.06829894,0.19618163,0.14204295,0.122332916,0.11171756,0.01443713,0.11524595,0.06184469,-0.3349341,0.22271648,-0.1549319,0.21849447,-0.00084098,0.4014486,0.10604798,0.186369,-0.13022283,-0.042751774,0.28618428,0.04846682,0.004387252,0.26815,0.15092133,0.2078567,0.1378565,-0.16243239,0.28417945,-0.42298746,-0.01498081,-0.09143954,-0.033798423,0.025196595,-0.09769547,0.25346857,-0.034357447,-0.19631542,-0.12387483
Barbadori::-0.1155309,0.18776071,0.24322408,-0.3207887,0.059024557,-0.17086495,-0.1368439,0.29429904,0.2405808,-0.35285684,-0.102819525,-0.18818435,0.10212086,0.106836565,0.28550914,0.07800095,0.06551692,0.27932358,0.01546709,0.05111037,-0.009593681,-0.18252103,0.057839938,-0.115654446,0.0094207795,0.16670372,0.1321112,-0.13439164,0.13758187,-0.08853951,-0.16998819,0.3644896,0.04008765,0.016797984,0.08427636,0.14954841,0.16662517,0.12851179,-0.11515723,0.31314686,-0.35885847,0.015113551,-0.019859252,-0.12968239,0.0021978891,-0.11698045,0.14264114,-0.044719514,-0.09821991,-0.07055958
Ridolfi::-0.1349532,0.20239496,0.28124863,-0.38196152,0.13215767,-0.059159487,-0.07702692,0.23843269,0.18120578,-0.25957218,-0.15956593,-0.17592764,-0.040866937,0.0068697883,0.20159955,0.025183516,0.051147223,0.17527907,-0.006537277,0.03669628,0.010910048,-0.20338248,0.04808498,-0.108831696,0.113815874,0.07012007,0.10252392,-0.12875916,0.09274447,-0.051665466,-0.096235,0.3076567,0.047632035,0.12694287,0.09837282,0.10916113,0.07541845,0.05251702,-0.08343363,0.285469,-0.36228737,-0.07133403,-0.05879681,-0.1734929,0.024500724,-0.207843,0.117100656,-0.09997606,-0.090672515,-0.030656753
Tornabuoni::-0.16655366,0.22620997,0.24272299,-0.38736627,0.1982867,-0.0025160422,-0.121699475,0.1930272,0.08815056,-0.262724,-0.13472334,-0.23553127,-0.07086893,-0.073472396,0.17629181,-0.096238546,-0.035149246,0.16481306,0.0782055,0.061633095,-0.049989045,-0.19204213,-0.040344864,-0.11079384,0.1419132,0.0717797,-0.08423902,-0.19113481,0.0222502,-0.11009107,-0.05791228,0.23403502,0.07432993,0.28145984,0.05352238,0.05522062,-0.0077082906,-0.01710846,-0.09947934,0.27293733,-0.3722623,-0.062086582,-0.1358047,-0.25976118,0.051107734,-0.29197243,0.02882599,-0.14237481,-0.07198502,-0.011989686
Albizzi::-0.2189606,0.23590471,0.2598536,-0.40722254,0.25202277,0.063137665,-0.16080339,0.16293229,-0.01326574,-0.24319501,-0.19299953,-0.27883452,-0.11358699,-0.16174474,0.16784365,-0.16946925,-0.082442574,0.12589441,0.11229156,0.029006293,-0.08222608,-0.18269354,-0.10023234,-0.11503458,0.1495981,0.05619104,-0.18961087,-0.25228006,-0.032957558,-0.101305015,-0.045483775,0.23308444,0.08206071,0.36096606,0.0036367155,0.0072787707,-0.087704405,-0.09890425,-0.07590166,0.2656662,-0.37238225,-0.082947046,-0.18402882,-0.31842065,0.09571666,-0.3453789,-0.031581357,-0.18764351,-0.047048606,0.047404833
Salviati::-0.32674643,0.15935324,0.13336912,-0.26672408,0.020991294,-0.077273466,-0.3777238,0.27347407,0.1318467,-0.32269925,-0.26142824,-0.32324052,0.048496675,0.16170275,0.44931972,0.033246595,0.057623822,0.5166286,-0.11309371,-0.103955775,-0.0512745,0.012606228,-0.14460227,-0.04835046,-0.21395582,0.3983413,-0.13135459,-0.50832754,0.06689025,0.11351183,-0.37065843,0.56026256,0.0071984804,0.0009532891,-0.1733626,0.18776487,0.09530611,0.14666164,0.02246316,0.44532272,-0.36851996,-0.073193274,0.12587634,-0.30831358,-0.021179061,-0.20532858,0.06890844,-0.11461879,0.072435774,0.04964065
Pazzi::-0.36508536,0.18628702,0.09044174,-0.24628113,0.052765433,-0.026637727,-0.43688264,0.28195626,0.06549306,-0.311125,-0.2730467,-0.38515285,0.037325673,0.15796117,0.46062645,0.009297443,0.02205606,0.5536449,-0.12867437,-0.14235155,-0.060765915,0.031246116,-0.19732432,-0.04962518,-0.2642622,0.43873402,-0.23887274,-0.610861,0.048109367,0.12804875,-0.3828628,0.5875056,0.0027749937,0.047883097,-0.23195314,0.16540615,0.042695444,0.11660134,0.06690376,0.47082055,-0.34931698,-0.120499805,0.13056311,-0.38782108,-0.009591057,-0.264313,0.031415805,-0.1380793,0.124603756,0.060604688
Bischeri::-0.017655898,0.18781622,0.3915466,-0.4573393,0.17180805,-0.09147734,0.07231216,0.23505554,0.27401155,-0.28322902,-0.12248816,-0.07250193,-0.03882999,-0.012146211,0.13904685,0.063231386,0.07127362,0.059344843,0.049185555,0.088767305,0.06631174,-0.32312796,0.18089998,-0.15693626,0.2706072,-0.07324427,0.346372,0.10826482,0.12921299,-0.14036734,0.0015310079,0.25023317,0.07624731,0.10626735,0.22390287,0.071962014,0.1401166,0.06265218,-0.16298196,0.25912198,-0.4398713,-0.03162466,-0.13818052,-0.07257999,0.04537816,-0.14159772,0.23239598,-0.09503503,-0.17533098,-0.085809074
Guadagni::-0.1544682,0.20243973,0.37053686,-0.4608748,0.2848927,0.092748754,-0.073529355,0.107207455,0.078690164,-0.1816375,-0.20657802,-0.19109014,-0.18680921,-0.21086743,0.043232024,-0.12266385,-0.047777593,0.04562013,0.09521449,0.032273553,-0.013808721,-0.25384063,0.008642746,-0.1851628,0.24760829,-0.071351536,-0.045137823,-0.13894807,-0.047182765,-0.119014665,0.040801875,0.20176166,0.10471078,0.3845567,0.0432984,-0.077474125,-0.104196966,-0.11758997,-0.10651752,0.2930335,-0.41989437,-0.10351879,-0.22827996,-0.24871778,0.09502527,-0.3539799,0.046664122,-0.24301703,-0.06377871,0.017591543
Ginori::-0.21584903,0.2545847,0.29933578,-0.4700709,0.315851,0.12214848,-0.13669409,0.13279209,-0.05077092,-0.22367442,-0.2019164,-0.29243082,-0.16688268,-0.24670678,0.11072865,-0.23387912,-0.10238187,0.051249515,0.14756718,0.042896394,-0.0635313,-0.23538621,-0.09712471,-0.12696566,0.23836242,-0.028459543,-0.22529659,-0.2014785,-0.035001412,-0.15669122,0.028549014,0.18694897,0.12290844,0.47646606,0.034152985,-0.04136439,-0.12313215,-0.16240934,-0.07360822,0.25094602,-0.40387833,-0.13166578,-0.25096446,-0.34484485,0.121640734,-0.41109088,-0.044031464,-0.21615055,-0.044574887,0.030404732
Lamberteschi::-0.14719288,0.23058854,0.40468794,-0.50514555,0.3520794,0.14901935,-0.035673477,0.09390648,0.027063193,-0.1500414,-0.21192972,-0.19419979,-0.255893,-0.29376325,-0.0044595203,-0.15833442,-0.07468351,-0.0036219065,0.1594354,0.024457458,-0.0075003733,-0.29617152,0.007464067,-0.1922365,0.30958128,-0.14927088,-0.073689364,-0.12720247,-0.07314591,-0.14426252,0.10397566,0.14754014,0.13615188,0.4914631,0.04201195,-0.12399284,-0.16975038,-0.17580451,-0.10229928,0.29568684,-0.44505852,-0.13011315,-0.3010331,-0.29905137,0.10787524,-0.42529434,0.029897843,-0.26965195,-0.054190587,0.041855857
