Napoleon::0.0834551,-0.58958274,0.37917227,-0.024350028,-0.33451843,-0.6691903,0.4962199,0.06870709,-0.35490313,0.5969845,0.013672929,0.21339981,0.31734493,0.2509343,0.071488015,-0.17873523,-0.13667744,0.2580065,-0.31117114,-0.14913319,0.02498447,-0.09027528,0.24092114,0.6271152,-0.0013320108,-0.85947394,-0.094379716,0.18596078,-0.103797846,-0.026731346,0.15095432,0.3405807,-0.043429513,0.011654315,0.110067576,-0.12447227,0.4709505,-0.035095263,0.06745493,-0.12056572,-0.31838226,-0.10849577,0.17447035,-0.08316093,-0.0579439,-0.33744457,-0.25954336,-0.1042343,0.7329388,0.22984162
Myriel::0.10067937,-0.532465,0.37835935,-0.037896987,-0.37777218,-0.65946686,0.474282,0.0679892,-0.3509259,0.4543091,0.015272937,0.21617092,0.29164818,0.22011195,0.06342172,-0.098095946,-0.14834496,0.27941915,-0.36073738,-0.18429488,0.04869686,-0.12875941,0.18516383,0.600793,-0.029789258,-0.82434124,0.01409395,0.2564192,-0.22351196,-0.05773779,0.10184452,0.33415386,-0.02996959,0.08365698,0.16973756,-0.10219282,0.42735308,-0.067141205,0.15926224,-0.10944337,-0.42926267,-0.13423976,0.14374809,-0.13461627,-0.22632056,-0.34633094,-0.42533952,-0.09286601,0.78222424,0.27018124
MlleBaptistine::0.0817856,-0.45437586,0.2805668,0.022136895,-0.33788452,-0.579649,0.4478933,0.1079341,-0.32853213,0.49569052,0.072297215,0.19007516,0.27780098,0.21086492,0.090331174,-0.125105,-0.1466038,0.2188808,-0.37960768,-0.17584223,0.028801566,-0.13288704,0.1983724,0.556246,-0.012466392,-0.77047634,-0.05055237,0.2125996,-0.10995884,0.008303439,0.11886537,0.3584066,0.0033908256,0.04896844,0.15993296,-0.0512523,0.34865257,-0.1053754,0.10035293,-0.09196039,-0.38072133,-0.10540832,0.13928859,-0.14461082,-0.14985009,-0.3183144,-0.2906313,-0.12989752,0.64879876,0.24405377
MmeMagloire::0.02239773,-0.54410523,0.35003874,0.04017655,-0.29888406,-0.59314954,0.46888065,0.10167517,-0.32078645,0.5329691,0.025672836,0.21332796,0.3167593,0.21491872,0.14766523,-0.17806187,-0.09984558,0.30244532,-0.32067263,-0.21040781,0.04514034,-0.11487904,0.30857968,0.5911485,-0.027171375,-0.8612272,-0.061487917,0.22934107,-0.12968187,-0.0067143743,0.11951672,0.38576084,-0.045012575,0.00763008,0.13790984,-0.12749301,0.39931753,-0.09775413,0.059864406,-0.11583096,-0.35424554,-0.08578861,0.14704351,-0.10550098,-0.055637512,-0.3016949,-0.26295412,-0.066858254,0.70511913,0.20835216
CountessDeLo::0.061075225,-0.6156195,0.46278265,-0.095095895,-0.46496275,-0.7995731,0.5337312,0.11209886,-0.48775733,0.5985203,0.048304133,0.15928128,0.36616626,0.3101356,-0.047496315,-0.07907592,-0.16446385,0.17674111,-0.37694648,-0.10834037,0.083221994,-0.14930148,0.05101563,0.6486856,-0.011410279,-0.980086,-0.09366887,0.1571359,-0.11949405,-0.03643229,0.09976464,0.2602487,-0.108633995,0.06533172,0.20039734,-0.1402375,0.5456401,0.006376617,0.14338355,-0.18946056,-0.39225405,-0.16359028,0.11740708,-0.07774739,-0.15842585,-0.46958733,-0.3435906,-0.13838208,0.8135372,0.19271067
Geborand::-0.006707517,-0.6834086,0.46513972,0.026692132,-0.38692227,-0.68384063,0.4758552,0.19379273,-0.37253827,0.69552135,0.044856798,0.19833307,0.41212565,0.2541709,0.25554338,-0.2801089,-0.096896544,0.31184328,-0.4964457,-0.24795142,0.015482007,-0.15783733,0.39058125,0.68600315,-0.08181496,-0.9639648,-0.15217184,0.24809073,-0.117185995,-0.011613278,0.24268343,0.39839935,-0.032733496,0.004388997,0.16126029,-0.09044632,0.52112466,-0.14415082,0.13821645,-0.11735749,-0.30607423,-0.10970774,0.28413978,-0.1308055,-0.009138696,-0.35612938,-0.27699748,-0.1422052,0.7910594,0.30496004
Champtercier::0.09247092,-0.6209077,0.3736968,-0.047145754,-0.42667288,-0.7852992,0.50005054,0.06677091,-0.4850412,0.7211729,0.0038904776,0.23062356,0.34767267,0.33128697,0.008772182,-0.08533294,-0.16432309,0.24420847,-0.40278473,-0.13800858,0.03444527,-0.14395024,0.11900723,0.7459818,0.09361453,-0.91440547,-0.083918415,0.19435583,-0.13933668,-0.0120494785,0.23041663,0.3832344,-0.002132678,0.16051471,0.23836449,-0.1141771,0.4199291,-0.114231944,0.12170212,-0.07961575,-0.42596188,-0.057003647,0.1397902,-0.16266988,-0.11680468,-0.4233998,-0.3502398,-0.09951579,0.69647634,0.17272763
Cravatte::0.07761346,-0.5043915,0.34119028,-0.038212,-0.32215533,-0.6236146,0.4373984,0.040629216,-0.41990605,0.59932566,-0.03419476,0.20169553,0.3000708,0.25336397,0.016417276,-0.045911647,-0.12286405,0.22566871,-0.3218979,-0.10060913,0.019836463,-0.11357845,0.12598646,0.6345913,0.022645812,-0.77923375,-0.07742909,0.16517136,-0.11008638,-0.00025638018,0.20110317,0.3296297,0.0056426623,0.10928033,0.1910015,-0.10358907,0.36865446,-0.10602616,0.06527679,-0.06937704,-0.34590617,-0.049209774,0.09675002,-0.12059726,-0.078110635,-0.32656252,-0.29865992,-0.07353148,0.6254207,0.16236481
Count::-0.008823044,-0.5962922,0.46544406,-0.008842613,-0.4170716,-0.6233752,0.5462782,0.09852487,-0.39825025,0.5538633,-0.0068429504,0.20199256,0.4027598,0.24327716,0.04360458,-0.07422469,-0.09333762,0.24832733,-0.3217852,-0.1341961,0.11088708,-0.14363651,0.16007923,0.6672475,-0.14855914,-1.0320312,-0.08123435,0.19687484,-0.122619994,0.022170963,0.039559457,0.29553345,-0.048585303,0.04462136,0.17931792,-0.11994145,0.53707397,-0.04132593,0.10646192,-0.22686332,-0.4534239,-0.12168207,0.05610245,-0.12025539,-0.07790585,-0.4612129,-0.39740437,-0.09906081,0.8029716,0.2538265
OldMan::-0.0052645323,-0.64439076,0.50673854,-0.025142133,-0.46640754,-0.6748807,0.5031563,0.19055997,-0.4400748,0.6006056,0.020564605,0.14366202,0.4357886,0.2966717,0.14224619,-0.12756278,-0.10068441,0.27139026,-0.47814405,-0.200521,0.06431066,-0.187967,0.16379957,0.68611765,-0.053329714,-1.0025568,-0.1503915,0.22934775,-0.13299263,-0.015467518,0.16400588,0.32105508,-0.039694283,0.077249676,0.25742814,-0.07260958,0.5134452,-0.08658872,0.17306453,-0.1796618,-0.42198572,-0.084134035,0.20685975,-0.15506719,-0.07418611,-0.44306192,-0.37296125,-0.10218562,0.7462025,0.25408965
Valjean::0.029167222,-0.13755123,0.2121786,-0.23617746,-0.15098143,-0.46188408,0.26717922,0.13847244,-0.3154948,0.15054554,-0.046866912,-0.091610156,0.1641749,0.33494046,0.16205372,0.008850346,-0.05935233,0.063472554,-0.270069,-0.005131178,-0.22589669,-0.038652733,-0.13777809,0.3066754,0.29102594,-0.10653591,-0.38120902,0.15102966,0.097575426,-0.15172827,0.2446108,0.15421574,-0.016446255,-0.055578105,0.114501715,-0.16233979,0.0032069888,0.027752848,-0.15776469,0.10529821,0.047140453,-0.035718076,0.20994565,0.15681303,-0.06359524,-0.049030785,0.05328792,-0.017403614,0.18031158,0.021199469
Labarre::0.11325273,-0.19968471,0.12050071,-0.18653414,-0.031456508,-0.41255048,0.2675331,0.10722518,-0.4649145,0.26873064,-0.11177432,-0.089195944,0.26531264,0.13827889,0.08184315,0.035286214,-0.10754006,-0.026069222,-0.29689848,0.07461002,-0.22298154,0.0155984545,-0.10034874,0.3127662,0.26924258,-0.15878958,-0.22912426,0.050618734,-0.11702147,-0.13850784,0.30693826,0.14764345,-0.083497375,-0.018504653,0.08707272,-0.19454095,-0.016845256,-0.20858087,-0.10175316,0.1831844,0.13338362,-0.061223775,0.011623202,0.24754418,-0.06912993,0.104750335,-0.059511982,-0.047285378,0.3313057,-0.08805314
Marguerite::-0.17634867,-0.025812533,0.039999496,0.02882305,-0.017355852,-0.16997479,0.3397305,0.059039168,-0.28259948,0.3128431,-0.13278855,0.019817805,0.3536722,0.12886962,0.5959973,0.053871255,-0.012926699,0.054409776,-0.22644506,0.083886996,-0.3002529,-0.07623998,0.3063151,0.5852985,-0.10273917,-0.024034752,-0.38050216,0.114582784,0.26788297,0.16364363,0.27617878,0.40389597,0.17616488,-0.11877298,-0.0031486899,-0.33125585,-0.1167832,-0.43917057,-0.38708615,0.34196624,0.14666665,-0.08936821,-0.062684365,0.2224314,-0.010015217,0.11768236,0.074607134,-0.06369324,0.1944518,0.16742918
MmeDeR::0.04279012,-0.1275906,0.08639868,-0.029866118,-0.074890085,-0.29661682,0.27759486,0.14413866,-0.3370232,0.20561068,-0.012652511,-0.029404927,0.24657607,0.10739075,0.15243743,-0.025455398,-0.07707577,0.046476025,-0.3246401,-0.03822222,-0.16267493,-0.043351393,-0.020785278,0.30577913,0.20134136,-0.2353004,-0.15826307,0.12339021,-0.09719958,-0.040153325,0.22453934,0.27941087,-0.027407954,0.012800326,0.16441151,-0.11617986,-0.068712026,-0.24909422,-0.03195853,0.1496892,-0.094320096,-0.026444744,0.005315182,0.08114465,-0.1353506,0.07328741,-0.10362458,-0.08925179,0.33519667,0.02292208
Isabeau::0.011595473,-0.16340129,0.064796306,-0.049707394,-0.1690205,-0.3566681,0.21735944,0.12881495,-0.3407771,0.23306593,0.00048978586,-0.0009840454,0.19998546,0.16325438,0.083927035,0.0344711,-0.061444975,-0.01818388,-0.314201,0.017371664,-0.10582554,-0.060909748,-0.014604146,0.31288826,0.048492026,-0.29614145,-0.13698916,0.07946014,-0.004570017,-0.0006330442,0.1547153,0.22249892,-0.05998587,0.055085197,0.13693865,-0.1532806,0.042422052,-0.17313346,-0.019139469,0.054892503,-0.04900889,-0.1040066,0.0057992977,0.054875925,-0.14676459,-0.058315817,-0.10984661,-0.12314029,0.3458424,0.028950043
Gervais::0.10784915,-0.13829318,-0.021158108,-0.1869622,-0.12520634,-0.4395183,0.24313353,0.10881776,-0.50442153,0.34087875,-0.13637409,-0.037405014,0.2130815,0.22040418,0.030922323,0.078298405,-0.0845565,-0.16073948,-0.366098,0.11504067,-0.25017485,0.0073634624,-0.19259031,0.3416612,0.33612427,-0.1184498,-0.20125905,0.031142497,-0.024964266,-0.040762473,0.34017673,0.20054455,-0.018685589,0.09552659,0.21325697,-0.18515198,-0.15128262,-0.2574782,-0.08677826,0.25310013,0.09697321,-0.08514357,0.015619045,0.1768135,-0.14001003,0.015192273,-0.0268175,-0.09476715,0.240109,-0.1473353
Listolier::-0.2991413,0.33711538,-0.20756006,0.2352256,-0.09282547,0.06789477,0.42579657,0.18902695,-0.32868916,0.039160825,-0.27158082,0.0055579054,0.38170573,0.09179299,0.7293799,0.2735363,0.16784585,-0.035790373,-0.45411906,0.15328257,-0.34029245,-0.18527219,0.2139686,0.5302758,-0.27398622,-0.16531564,-0.39365488,0.3360462,0.3494452,0.302477,0.06832968,0.70679367,0.25551212,-0.08066163,0.2333561,-0.34083503,-0.4849511,-0.67823255,-0.59480023,0.374699,-0.09728542,-0.21285705,-0.31290892,0.18870907,-0.32447654,0.1356723,-0.09780741,-0.17797181,0.35985458,0.23038639
Tholomyes::-0.30480984,0.34910822,-0.1475853,0.21773568,-0.068319954,0.053806473,0.34098667,0.20968756,-0.26509026,-0.094837636,-0.13411124,-0.09295357,0.36062402,0.04689204,0.8055976,0.28848252,0.11518257,0.12293398,-0.45064113,0.07661762,-0.32733133,-0.18869726,0.2944647,0.47810155,-0.25995985,-0.05690338,-0.4101742,0.38220003,0.31548753,0.27023852,0.06037561,0.7094271,0.21533258,-0.12021562,0.15581372,-0.31176051,-0.5048107,-0.6866582,-0.5517683,0.33279082,-0.087567076,-0.13179933,-0.22649124,0.17019404,-0.3257366,0.26093426,-0.07430386,-0.09973933,0.3032797,0.2261829
Fameuil::-0.31011987,0.33030745,-0.13310282,0.2351457,-0.08419169,0.071645804,0.40431106,0.19521654,-0.26245502,-0.01753367,-0.20988443,-0.025533449,0.38816476,0.100034036,0.8020516,0.30617437,0.21483542,0.07737955,-0.4683574,0.111903355,-0.34450263,-0.1638807,0.2943125,0.5507759,-0.34993964,-0.14214653,-0.40573,0.37371692,0.34028995,0.32865196,0.08117944,0.7202528,0.22659808,-0.12010666,0.20889202,-0.30972528,-0.47267276,-0.66643965,-0.54211634,0.352006,-0.081423126,-0.14080313,-0.24238946,0.19159399,-0.29952973,0.19814895,-0.06482352,-0.13091852,0.34405974,0.25075474
Blacheville::-0.2597561,0.3288175,-0.23601124,0.23121072,-0.0737436,0.0070008193,0.5058875,0.1411855,-0.30547678,0.044208705,-0.23424657,0.043367438,0.37769672,0.117185764,0.77935266,0.28014144,0.14308755,0.05919092,-0.4382365,0.113002785,-0.37380344,-0.16833831,0.2838523,0.6146122,-0.26125503,-0.15215932,-0.36234146,0.36861625,0.32575935,0.3195666,0.08418231,0.81218684,0.29276577,-0.0780863,0.17955677,-0.33073354,-0.5381475,-0.6931423,-0.62582594,0.38112178,-0.16118537,-0.12709136,-0.2885453,0.18662317,-0.28505957,0.17549175,-0.082924806,-0.087987974,0.37756422,0.23542348
Favourite::-0.30235535,0.27204156,-0.12949026,0.22356628,-0.040910628,0.04134139,0.45743707,0.19050798,-0.27498582,0.054380786,-0.25639713,0.031069815,0.41050038,0.118980154,0.84374183,0.18525964,0.19253305,0.07943822,-0.4238247,0.10406713,-0.38956538,-0.1401982,0.3460828,0.57679534,-0.26456437,-0.19381216,-0.45111534,0.3680021,0.34897262,0.30373052,0.11194994,0.75096935,0.28462934,-0.15608832,0.20732063,-0.36261028,-0.489809,-0.6601685,-0.61833555,0.3808941,-0.090656616,-0.13766746,-0.22379659,0.21835649,-0.21523204,0.17843693,-0.042410355,-0.13336457,0.35055095,0.27472487
Dahlia::-0.3454479,0.25272667,-0.08340581,0.20463622,-0.09641645,0.034012724,0.3559991,0.1808669,-0.28229216,0.05893441,-0.20987241,-0.003736273,0.40446997,0.084575504,0.7973085,0.25781253,0.1674461,0.07508517,-0.40812972,0.11117949,-0.33367246,-0.21256205,0.32727385,0.6140323,-0.3972071,-0.14989567,-0.4269617,0.3238868,0.3820722,0.312606,0.12847771,0.6628171,0.22517556,-0.092991486,0.16429347,-0.3688221,-0.35193267,-0.6458703,-0.548422,0.33249205,-0.08950993,-0.13879444,-0.3008574,0.14217085,-0.22734046,0.14049067,-0.14196317,-0.16035429,0.3513567,0.32710594
Zephine::-0.334759,0.2687681,-0.07792088,0.25852752,-0.08009482,0.02528224,0.44082582,0.1363822,-0.27514955,0.075867966,-0.20802428,0.022526832,0.44295847,0.06623393,0.8109389,0.27669954,0.12882677,0.1436637,-0.42239428,0.092427835,-0.3076425,-0.19611289,0.33723918,0.6433445,-0.34041435,-0.20289524,-0.39344856,0.39618346,0.35778576,0.30320308,0.09453822,0.77529204,0.28214708,-0.085360356,0.17745408,-0.34292027,-0.40948325,-0.6886776,-0.5765398,0.33611307,-0.19252814,-0.1031643,-0.31523174,0.16266449,-0.28100798,0.16351867,-0.122429445,-0.1259403,0.3720555,0.30414543
Fantine::-0.12126861,0.064455666,-0.00028769462,0.04118911,-0.002819871,-0.16015053,0.26726714,0.0063656755,-0.32676274,0.20623553,-0.19363637,-0.06430242,0.33916345,0.04837821,0.5449297,0.23401047,0.012598021,0.19015178,-0.26515356,0.08068678,-0.26722986,-0.07782374,0.2504248,0.5461429,-0.088179156,-0.012072602,-0.32527474,0.22495185,0.14612877,0.14501457,0.29534107,0.4537932,0.16059957,-0.121933535,-0.0103609525,-0.39762145,-0.30566713,-0.6428601,-0.4094192,0.3419665,0.15121417,-0.028968235,-0.13098657,0.20838295,-0.22002968,0.21594338,-0.09204767,-0.0012567673,0.2941867,0.102223374
MmeThenardier::0.23118891,0.009379786,-0.13640262,-0.059217125,0.1839879,-0.326312,0.39133853,0.012079731,-0.27648658,0.046072476,0.08890131,0.022568142,0.084246315,0.073224604,0.2784355,-0.22433794,-0.19567461,0.1205477,-0.11380591,-0.073954985,-0.27469602,0.13296044,0.25722736,0.1391152,0.42240587,-0.1519307,-0.18173693,0.09287026,-0.07352702,-0.14999382,0.1350278,0.39765206,-0.03524765,-0.26685855,-0.11461227,-0.2600908,-0.18139715,-0.10643725,-0.2557198,0.25311252,0.08153021,-0.11583418,0.12656792,0.36921257,-0.17411235,0.24288419,0.0982606,-0.17269556,0.49640733,-0.015379591
Thenardier::0.2397916,-0.077504456,-0.1478954,-0.060688913,0.122754104,-0.56625044,0.45691475,0.0037213108,-0.2126299,0.011929208,0.21982978,0.13504723,0.024088562,0.1639723,0.15189704,-0.19211586,-0.2568595,0.04351312,0.015160946,-0.0054123276,-0.3019598,0.24618024,0.27458775,0.14201477,0.31101608,-0.113634184,-0.0837775,0.00062375795,0.040920887,-0.05800589,-0.049553704,0.4162186,-0.089963995,-0.27399957,-0.23228265,-0.30524564,-0.09802766,-0.18557522,-0.22455958,0.17292035,0.099013425,-0.25373638,0.06914565,0.26955643,-0.19408943,0.20412011,0.2061693,-0.10574077,0.4789049,-0.001219351
Cosette::0.11689105,-0.062618166,0.017681845,-0.07374779,-0.08994802,-0.4070514,0.13546729,0.3217919,-0.34201983,0.05853835,0.12445105,-0.15490964,0.11932627,0.15796751,0.1780962,-0.07865862,-0.11521193,0.038537692,-0.4164034,-0.09555629,-0.22396605,-0.043320548,-0.0198616,0.10706802,0.2095729,-0.094128415,-0.2194404,0.15222593,-0.062473737,-0.13358405,0.19819142,0.2099058,-0.133528,-0.060157396,0.050509565,-0.13056433,-0.10964715,-0.24600512,-0.062005866,0.14398126,0.14196777,-0.1118983,0.22942215,0.11202363,-0.120680876,0.15618815,0.028660249,-0.029234009,0.26635653,-0.0040099393
Javert::0.09619457,-0.1695804,0.023266716,-0.11941267,0.013546975,-0.45270365,0.20440985,0.025850438,-0.28689596,0.21134208,0.029909067,0.006599775,0.16716632,0.13677631,0.13778013,-0.016167687,-0.17902473,0.014714333,-0.08797787,0.08758977,-0.20094675,0.05215462,0.15503584,0.28299272,0.13399139,-0.013886243,-0.18782268,0.07692882,0.09905664,-0.0789613,0.20826153,0.19558614,-0.12040613,-0.12785715,-0.14021243,-0.37081143,-0.02526079,-0.20280063,-0.2589421,0.13726318,0.16705206,-0.20488569,-0.09579985,0.23003216,-0.14620382,0.18655798,0.12710905,-0.09676822,0.29962742,0.083155595
Fauchelevent::0.02466036,-0.3887455,0.21920197,-0.19345969,0.06075258,-0.282769,0.31250033,0.31453913,-0.5221386,0.3674036,-0.35685164,-0.1914882,0.49285576,0.15671484,0.20714715,-0.14479804,0.1148254,-0.4142881,-0.46208122,0.17851998,-0.35352203,0.15865333,-0.10784433,0.22947292,0.15060619,-0.167172,-0.403735,-0.0836455,-0.10167688,-0.14077951,0.39860782,-0.11997043,-0.19940497,-0.2713819,0.12558441,-0.1830051,0.15993656,-0.15572633,-0.030081203,0.2580691,0.6156874,-0.29241237,0.14414369,0.5286735,0.22549196,0.12574562,0.1549161,-0.123266935,0.37827983,-0.077495046
Bamatabois::0.07304215,0.05187626,-0.018413119,-0.23807201,-0.16060643,-0.4132549,0.43552604,-0.023339327,-0.6507135,0.19383967,-0.18818688,-0.050059292,0.2820399,0.22311346,-0.10158794,0.41346318,-0.141711,-0.15593825,-0.2403959,0.2751395,-0.23514506,-0.039491143,-0.5280097,0.47708914,0.39234814,-0.15692224,-0.19133243,0.020464366,-0.013062446,0.053803857,0.22625248,0.27368343,0.08792288,0.24423866,0.27255324,-0.24204068,-0.2965814,-0.30001795,-0.24652375,0.2506903,-0.22854863,0.013651222,-0.34791452,0.19708416,-0.3415721,-0.015899321,-0.25051042,-0.055680107,0.25797832,-0.17435561
Perpetue::-0.20263064,-0.08787717,0.12664537,-0.1642896,0.016385265,-0.6603041,-0.077835456,-0.022015434,-0.5491368,0.5689931,0.22626159,-0.11218474,0.30693442,0.1709261,0.7047857,0.2378041,-0.4017764,0.2819844,-0.08654725,0.14522639,-0.3289357,-0.17365395,0.5024416,0.8669019,0.0132682705,0.4823741,-0.55063653,-0.006053402,0.5455472,0.10809729,0.6400014,0.38229588,0.074350424,0.0026089353,-0.21333635,-0.7453722,-0.09953783,-0.6752692,-0.40874183,0.47664487,0.3637606,-0.008618542,-0.116969965,0.03613064,-0.015351904,0.29341203,0.10420739,-0.06486507,-0.22938757,0.22863655
Simplice::-0.047589295,-0.13531502,0.082430534,-0.15093294,0.015589211,-0.6001661,-0.003792506,-0.031410918,-0.44507724,0.52141505,0.24916531,-0.05225501,0.29124713,0.15761547,0.48896542,0.08307296,-0.34198526,0.20405386,-0.12838814,0.075013146,-0.25339687,-0.1371293,0.3794042,0.69034594,0.052948534,0.31213006,-0.4242424,-0.053097848,0.38806915,0.021303764,0.5387557,0.30096066,0.091882065,0.045460273,-0.22302002,-0.5788185,-0.087694235,-0.5898152,-0.23318356,0.4089852,0.29373175,-0.021222718,-0.09398696,0.009589856,-0.08560589,0.24613418,0.0552293,-0.13407406,-0.088075094,0.19348896
Scaufflaire::0.13870807,-0.17244335,0.008783729,-0.10725438,-0.13851064,-0.44281512,0.3864677,-0.01640558,-0.34230614,0.2582042,-0.06862515,0.11508031,0.15046301,0.21208721,-0.04670703,0.0060468046,-0.114987254,-0.05846448,-0.1365366,0.07325126,-0.15380639,0.053049464,-0.08403969,0.33212596,0.18265274,-0.34123054,-0.072763585,0.03062137,0.01567544,0.009193111,0.0787965,0.24979533,-0.012718612,-0.003089431,0.069072984,-0.19555102,0.015793625,-0.086566195,-0.10372617,0.07540343,-0.1002888,-0.17045902,-0.037716858,0.14718263,-0.18125527,-0.10289145,-0.029834118,-0.119180135,0.452644,-0.0013723444
Woman1::0.13284546,-0.30505413,0.20362851,-0.16221224,0.010579764,-0.4654387,0.23501243,0.0592187,-0.35845917,0.3484016,-0.049771287,-0.038876884,0.27693513,0.08193495,0.05386136,-0.041668657,-0.12766388,0.06736672,-0.21214847,0.047511797,-0.17086488,0.0163044,0.0891822,0.3262709,0.113826215,-0.13491334,-0.17445987,0.06948161,-0.047354452,-0.1400368,0.33174405,0.120840825,-0.08385594,-0.076076016,-0.1037866,-0.26048502,0.12796313,-0.2067096,-0.11802319,0.13248184,0.22147806,-0.10363758,-0.014829552,0.23538898,-0.041637752,0.16641243,-0.012995588,-0.06913651,0.4303273,0.06280587
Judge::0.19234313,0.07007961,-0.11264007,-0.29737008,-0.1868458,-0.5731022,0.43424207,-0.02539507,-0.74329484,0.1587115,-0.1140203,-0.05366911,0.20179039,0.28882092,-0.27216572,0.4697665,-0.20393686,-0.21743186,-0.24038017,0.27287668,-0.23037429,-0.0020226229,-0.65137994,0.39626,0.4864982,-0.19138442,-0.15892023,-0.006739796,-0.0643031,-0.0028085476,0.167451,0.28058177,0.0142870955,0.25714588,0.32154047,-0.25492653,-0.31286156,-0.25670624,-0.1748483,0.20531645,-0.18042788,-0.04243125,-0.29891387,0.19710518,-0.426749,-0.06213141,-0.23229551,-0.06953124,0.32962465,-0.297848
Champmathieu::0.10929522,0.069489904,-0.025487017,-0.30313838,-0.19228843,-0.5806561,0.39193586,-0.022561679,-0.7811453,0.16144834,-0.09997699,-0.08860272,0.23989691,0.29405314,-0.18421756,0.53170514,-0.26099357,-0.15848349,-0.18676221,0.32152355,-0.21715173,-0.04967584,-0.62151706,0.49693742,0.50053495,-0.15635264,-0.22900382,-0.0061900704,-0.0053724837,-0.012488363,0.18835194,0.2571783,-0.0006035841,0.26408798,0.34607765,-0.31758228,-0.2911339,-0.27705273,-0.2104212,0.22189617,-0.27098376,0.016974095,-0.37822586,0.12237806,-0.3910327,-0.099623,-0.2919634,-0.043756016,0.20963213,-0.22812717
Brevet::0.12588903,0.061114732,-0.11915275,-0.23259501,-0.2828114,-0.58033407,0.3918204,0.021084554,-0.7345532,0.24944723,-0.09261331,-0.024343833,0.17456266,0.35088226,-0.21802863,0.4474503,-0.16279021,-0.22521284,-0.32956305,0.2754003,-0.23326711,-0.050738838,-0.6303839,0.45844328,0.4784834,-0.23612621,-0.1516056,0.020908773,0.0053383326,0.07218207,0.2011768,0.3443276,0.029903943,0.34770152,0.4821883,-0.20443682,-0.33206612,-0.2546413,-0.115628034,0.23999679,-0.3056652,-0.046554245,-0.26843148,0.07923507,-0.40785664,-0.16494107,-0.24309123,-0.13443202,0.26462212,-0.25685936
Chenildieu::0.13416621,-0.0042568487,-0.020982994,-0.30474254,-0.21372695,-0.58498955,0.43996093,-0.027003452,-0.7782119,0.23636098,-0.14624359,-0.037810773,0.2720515,0.2905684,-0.19882275,0.4876093,-0.19384667,-0.14366055,-0.28129396,0.28614798,-0.20191747,-0.05667959,-0.60489345,0.51100427,0.48498794,-0.23223087,-0.1958307,0.014982608,-0.08105148,0.009634392,0.23186082,0.299581,0.022131609,0.3207052,0.38382512,-0.2638489,-0.28756693,-0.321297,-0.1681908,0.23451367,-0.28246158,0.04199379,-0.3224948,0.1142076,-0.38272247,-0.10396612,-0.33961415,-0.041599795,0.22363736,-0.2797935
Cochepaille::0.149559,0.084268585,-0.15322095,-0.2565866,-0.2445873,-0.60183233,0.42613417,0.003281367,-0.74833435,0.1577127,-0.06368859,-0.021604564,0.18470907,0.31206763,-0.21827972,0.44591644,-0.23369901,-0.1973982,-0.2934802,0.2701268,-0.27279407,-0.018874314,-0.64352554,0.42771646,0.58172286,-0.21631482,-0.13661912,-0.0041390457,-0.03992346,0.04994897,0.18004012,0.3725387,0.0030104718,0.32742316,0.43713003,-0.23231034,-0.40459222,-0.30733958,-0.13838615,0.23856454,-0.35512063,-0.009611587,-0.29045126,0.08140351,-0.45798042,-0.08589047,-0.27459297,-0.12704025,0.28750327,-0.27446347
Pontmercy::0.1899942,0.13029298,-0.08413165,0.104544304,-0.104561046,-0.62800425,0.27051815,0.33251235,-0.20997044,-0.024467835,0.94171315,-0.14000823,-0.061955523,0.26742548,0.42769068,-0.4400382,-0.49439228,-0.0019266409,-0.19515477,-0.34128544,-0.16528207,0.09052579,0.12850545,-0.017584968,0.7272222,-0.005717125,-0.25629738,-0.080302045,0.06485277,0.010273499,0.044912428,0.33140096,-0.18927333,-0.32005385,0.078438565,-0.22439611,-0.2716435,-0.20851842,0.24082032,0.40148976,-0.014987503,-0.24280481,0.5458311,0.065067165,-0.33483595,0.25267687,0.5621078,-0.446845,0.22225182,-0.0036758943
Boulatruelle::0.28987584,0.005939953,-0.2468104,-0.029164497,0.1706489,-0.569401,0.44134298,-0.012469633,-0.23924708,-0.009653493,0.26784927,0.16038479,-0.019310843,0.17427392,0.21050978,-0.31985623,-0.3182901,-0.017262274,0.079564326,-0.025950408,-0.36817133,0.29003114,0.31118926,0.094680525,0.48023254,-0.1124585,-0.14090511,0.01144341,0.11765228,-0.12551218,-0.019868838,0.43653345,-0.14468704,-0.3751192,-0.18131843,-0.39510825,-0.20664693,-0.030575989,-0.25072968,0.26437312,0.05037563,-0.3070379,0.10307314,0.35921583,-0.20357542,0.263783,0.36417198,-0.2606641,0.53193206,0.0297484
Eponine::0.08544749,-0.009369402,-0.108837746,-0.11220276,0.20359276,-0.47739196,0.3098457,0.15600343,-0.1917382,-0.34705943,0.27867463,0.019530855,-0.0008198676,0.10428967,0.2945866,-0.2597526,-0.24192101,0.09608391,0.036583275,0.019773271,-0.42542377,0.18612485,0.30067945,-0.08010387,0.3016892,-0.21645536,-0.1913385,0.042914663,0.15415636,-0.23853216,-0.20744102,0.39880657,-0.3156493,-0.34717274,-0.13943027,-0.2631504,-0.080371484,0.11922558,-0.2127282,0.021711953,-0.08116463,-0.2067328,0.027492214,0.26235038,-0.12622705,0.20022869,0.021792632,-0.22553639,0.55709684,0.14079058
Anzelma::0.13157396,0.13008419,-0.26853764,0.0007428325,0.26504317,-0.38149512,0.41572732,0.026289137,-0.16080894,-0.37543127,0.27742755,0.08435319,-0.0073890914,0.039442554,0.38991648,-0.34008273,-0.2721621,0.20049986,-0.014242177,-0.120907664,-0.34847298,0.20435919,0.47478786,0.014609533,0.3908541,-0.3236895,-0.14881931,0.16694947,-0.019078562,-0.1598514,-0.16647592,0.6893493,-0.13061297,-0.31158814,-0.10497174,-0.25099453,-0.28269097,0.022364344,-0.28252012,0.1207727,-0.2269778,-0.019452188,0.02405421,0.32885695,-0.20122454,0.3097013,-0.056127157,-0.18133087,0.66420996,0.014167605
Woman2::0.06044906,-0.12091087,0.040247682,-0.08931638,-0.088503666,-0.3625272,0.18127877,0.19058427,-0.33272463,0.24042507,-0.005577786,-0.11446231,0.21190858,0.114732884,0.113303445,-0.012799034,-0.081863634,-0.08741042,-0.39895302,0.018135922,-0.19396165,-0.044195842,-0.023213841,0.24163185,0.13272403,-0.0723366,-0.19730714,0.10246786,-0.023548929,-0.06415834,0.2905638,0.2019271,-0.049705464,-0.0046764654,0.05136259,-0.15211049,-0.09543851,-0.31494808,-0.07261816,0.19420573,0.1873,-0.1410422,0.050748065,0.20088227,-0.16009489,0.18875036,0.086580604,-0.08700512,0.24567825,-0.038520806
MotherInnocent::-0.05060405,-0.39192653,0.28672197,-0.35123876,0.010283761,-0.23972036,0.29429916,0.3080101,-0.6002645,0.3836025,-0.50574404,-0.27039438,0.55918586,0.17463332,0.31730974,-0.09256109,0.19200784,-0.41835815,-0.47999072,0.21815652,-0.4043611,0.1629046,-0.073509894,0.26623517,0.08732064,-0.23759995,-0.52312,-0.094291836,-0.09840144,-0.20234077,0.47817326,-0.22676016,-0.23724565,-0.31677186,0.1681462,-0.2969433,0.20664851,-0.06436225,-0.07639204,0.25711468,0.75348186,-0.2591299,0.19175665,0.6271299,0.25964057,0.06445276,0.16422819,-0.097927056,0.45925942,-0.14148541
Gribier::-0.0339913,-0.39695024,0.1587364,-0.2540939,-0.027536115,-0.25896984,0.34819362,0.38161445,-0.5119856,0.39513114,-0.5043643,-0.13351703,0.43638054,0.2962084,0.33043736,-0.2926669,0.3041278,-0.52881104,-0.55098003,0.16103706,-0.49797788,0.24493237,-0.02905849,0.2071175,0.12338004,-0.3792393,-0.49914974,-0.08235266,0.0012630603,-0.15603067,0.43472022,-0.1174275,-0.25076717,-0.3561818,0.29475838,-0.24434139,0.17712726,0.049642637,-0.012716838,0.27888674,0.6835853,-0.36968893,0.3414694,0.5996448,0.29208955,-0.056333024,0.27998456,-0.24438094,0.5689446,-0.090679154
MmeBurgon::-0.24797148,0.015608365,0.41718376,-0.23698846,-0.40628478,-0.40372598,0.49028814,0.19706447,-0.18388896,-0.2892717,0.6382906,-0.35628211,0.4208282,0.021765819,-0.20804694,-0.2980127,-0.4583199,-0.5101173,0.18739,0.22269367,-0.08730412,-0.1295948,-0.6280978,0.07617623,-0.08984141,-0.1264334,-0.23535274,-0.37576512,0.55585235,0.11846932,-0.23630075,-0.18076228,-0.2792297,-0.1538367,-0.30152163,-0.51501614,0.3163134,-0.086047135,0.31916788,-0.14855342,-0.30776545,-0.41977307,-0.36604965,0.42689204,-0.5934572,-0.02232604,0.18980503,-0.8111052,0.5844935,0.33342907
Jondrette::-0.22685972,-0.026238589,0.41780284,-0.3199561,-0.47620305,-0.7112934,0.61769533,0.29170528,-0.29744822,-0.48295408,0.87952703,-0.30265057,0.37983614,0.2049115,-0.22499292,-0.38483956,-0.5208387,-0.55258703,0.17561674,0.20986475,-0.14966692,-0.036628056,-0.64306056,-0.013930757,0.004266833,-0.401244,-0.29465374,-0.3830253,0.58781403,0.01421186,-0.47152346,-0.15886451,-0.5559145,-0.2945541,-0.25782362,-0.6284888,0.40635893,0.16572629,0.373363,-0.26507452,-0.41213208,-0.580988,-0.3379109,0.48758042,-0.6784634,-0.13176897,0.22636805,-0.9353202,0.89727724,0.33657977
Gavroche::-0.26308933,0.12428908,0.116617635,-0.18610977,-0.229908,-0.43305576,0.1965703,0.3377301,-0.32690236,-0.4812327,0.44364974,-0.2963443,0.16735236,0.23984157,0.21814339,0.039715268,-0.12424995,-0.26184988,-0.12572682,0.15206364,-0.1534133,-0.015945809,-0.17685759,-0.06552502,-0.1812252,-0.19697763,-0.38848647,-0.02977196,0.33357677,-0.04547447,-0.3365191,-0.007227536,-0.51601106,-0.27747038,-0.008574741,-0.46460602,0.14989603,0.085765034,-0.036898334,-0.12612037,0.045453865,-0.34619454,-0.13538969,0.28107452,-0.31402683,-0.01969678,0.14548239,-0.25046414,0.24990746,0.0811106
Gillenormand::-0.05703931,-0.07853882,-0.025529275,0.0015718237,-0.21522929,-0.39469153,-0.026815156,0.4944617,-0.2932316,-0.06631316,0.36211273,-0.25802228,0.16088001,0.10428021,0.30060327,-0.26553455,-0.21102911,-0.05918523,-0.7226762,-0.19014089,-0.20371637,-0.122219585,0.03547388,-0.084460355,0.35468954,-0.06877979,-0.22565062,0.22836334,0.015409814,-0.21500379,0.1740241,0.29855514,-0.25075018,0.12040386,0.31248477,0.054219306,-0.22767948,-0.24039005,0.2216396,-0.005461804,-0.20019099,-0.15651126,0.22070323,-0.074800365,-0.20244603,0.172505,-0.0014911983,-0.2475131,0.14657946,-0.0037750031
Magnon::0.07949389,-0.0582024,-0.05905819,-0.06786514,-0.00013436281,-0.5087181,0.15646756,0.29822117,-0.31429407,-0.08340665,0.38459888,-0.16858958,0.11554121,0.12056064,0.3017174,-0.2210874,-0.28995296,0.05561156,-0.38017374,-0.15462852,-0.2459224,0.05468339,0.122685246,0.026771279,0.4534852,0.022426862,-0.206988,0.11189723,-0.06315242,-0.20070435,0.17122123,0.34577736,-0.2117857,-0.05599906,0.06035577,-0.15402476,-0.20428619,-0.24399717,0.05570054,0.1334412,-0.021756357,-0.041325897,0.1874205,0.08067207,-0.12665614,0.27898237,0.06725497,-0.06548773,0.17805943,-0.08199709
MlleGillenormand::-0.13689494,-0.12451431,0.002695698,0.072269045,-0.31480005,-0.44024447,0.055919264,0.61671656,-0.26059654,-0.06678186,0.46410924,-0.28595904,0.18760502,0.17959207,0.347815,-0.30189055,-0.22676693,-0.17355244,-0.72352207,-0.2157188,-0.18615624,-0.13390054,-0.08690385,-0.032682028,0.35689485,-0.08815008,-0.20773731,0.11834217,0.0074421796,-0.13036963,0.13943245,0.2601892,-0.2832109,0.06294306,0.3429824,0.063104235,-0.21811299,-0.33668292,0.26155356,0.07306965,-0.18985984,-0.1627177,0.28269982,-0.11233954,-0.118952416,0.14242409,0.1343435,-0.14294428,0.05617805,-0.039658938
MmePontmercy::0.15649413,-0.08650119,-0.08789861,0.1542784,-0.19695657,-0.83387524,0.2196789,0.46246833,-0.26271814,0.14003357,1.0701662,-0.1240109,0.010271544,0.28981727,0.51974344,-0.6933321,-0.57675916,0.048027016,-0.52211773,-0.5082363,-0.25008002,0.049757045,0.30334908,0.00469855,0.89625067,-0.106419966,-0.19994132,0.04174316,-0.004956109,-0.098515175,0.2138206,0.5368049,-0.2300108,-0.12265144,0.21079038,-0.1328374,-0.2650331,-0.3528347,0.4195041,0.37191433,-0.17414024,-0.20885812,0.697297,-0.114659905,-0.31272942,0.34640402,0.55801237,-0.48587176,0.21570523,0.029089203
MlleVaubois::-0.10997262,-0.083951674,0.03930066,0.035092875,-0.32631305,-0.5644317,-0.09218963,0.65262145,-0.40944642,0.065123715,0.6734506,-0.3831302,0.21863635,0.1873929,0.44770357,-0.28649086,-0.34355757,-0.029328004,-0.9327138,-0.3346395,-0.18657392,-0.23962747,-0.03860996,0.031341843,0.5581157,0.060405012,-0.2947278,0.19714202,-0.008417076,-0.15450217,0.39404696,0.3587519,-0.22865881,0.23513794,0.44304404,0.031208877,-0.330635,-0.504655,0.42459002,0.16415462,-0.2287824,-0.033053823,0.38452366,-0.2480892,-0.25060073,0.24847063,0.07939653,-0.29105642,-0.070070855,-0.036349487
LtGillenormand::-0.090335324,-0.1701579,0.05449035,0.030144677,-0.28234243,-0.5082674,-0.018376388,0.4982584,-0.24121729,0.083323695,0.562752,-0.20396926,0.15106076,0.1752186,0.32991627,-0.36108232,-0.26536044,-0.07814105,-0.6433382,-0.24796711,-0.15044336,-0.13698864,0.095541544,-0.018781658,0.33059856,-0.05202592,-0.23105252,0.09725792,0.11246719,-0.119648375,0.19155167,0.23408544,-0.25793722,0.091883115,0.26413006,-0.004523561,-0.1025527,-0.2584479,0.34510627,0.024308702,-0.15477945,-0.1819083,0.3288019,-0.16402417,-0.1698063,0.11184984,0.1648284,-0.33777806,0.071418405,0.048466563
Marius::-0.12122476,-0.07211717,0.08691724,-0.09376628,-0.17546676,-0.37911195,0.06343404,0.31694794,-0.25935897,-0.12144549,0.2933705,-0.29399914,0.21018668,0.08900042,0.2549619,-0.052533895,-0.16188166,-0.085040316,-0.47528994,-0.031960253,-0.078549035,-0.10937359,0.015691431,0.0066710957,0.09111515,-0.087820105,-0.24232717,0.14443775,0.014717897,-0.14365827,0.064416625,0.15786685,-0.30238885,-0.027551543,0.11422706,-0.1183451,-0.049225517,-0.20611751,0.05508848,0.01084089,0.033266377,-0.1384599,0.06802537,0.12004695,-0.25435603,0.21412052,0.06304774,-0.12489133,0.16981356,0.0064694234
BaronessT::-0.075788036,0.0010228123,-0.018663961,-0.035400406,-0.20203412,-0.47198135,0.027992113,0.39405647,-0.33047444,-0.06551439,0.46155423,-0.25173545,0.12793432,0.1640505,0.26584822,-0.11492472,-0.27670625,-0.08196324,-0.46273094,-0.111649096,-0.17549591,-0.110871695,-0.06177972,0.021698302,0.28791186,0.02690271,-0.23860653,0.071739614,0.10665801,-0.10858094,0.12729038,0.21549901,-0.25616628,0.04880128,0.17026716,-0.13214347,-0.16923861,-0.24040782,0.13142666,0.06357084,-0.08029103,-0.1479029,0.12836502,-0.043089263,-0.2232544,0.1442145,0.053173576,-0.19523507,0.039471067,-0.030950613
Mabeuf::-0.17350455,0.34196636,0.23445617,-0.19470511,0.043640506,-0.18744124,0.10431175,0.5469542,-0.36839622,-0.80720806,0.4548647,-0.51411825,0.22382715,0.062432475,0.31469285,0.029934473,-0.038415864,0.03212434,-0.24745333,0.040141474,-0.3279447,-0.06560897,-0.24478675,-0.2642841,-0.027333053,-0.103027925,-0.43790573,0.11092246,0.11210259,-0.22018608,-0.11370684,0.057986088,-0.5777279,-0.26157832,0.07425548,-0.41982913,0.0006839711,0.115485124,0.03606604,-0.023751268,-0.06092758,-0.038425174,-0.2340646,0.30657297,-0.29197344,0.2413306,-0.3196209,-0.46852934,0.5965794,0.10917495
Enjolras::-0.13672563,0.1074901,0.26356974,-0.16511357,-0.14364332,-0.32585186,0.13492654,0.35980237,-0.4192318,-0.3591557,0.37944323,-0.5081302,0.2498712,0.018332377,0.28456917,0.18255194,-0.3162033,-0.15281984,-0.22445714,0.13309419,-0.047285985,-0.13024716,-0.18246514,0.008751819,-0.03933475,-0.040291112,-0.38737667,0.04073027,0.081099935,-0.20637564,-0.12057567,-0.13881697,-0.38823944,-0.2718604,-0.053228974,-0.34711567,0.106257975,-0.06266999,-0.09945098,0.0004389651,0.103472866,-0.33393875,-0.21059918,0.30681363,-0.35511553,0.16900264,-0.11042592,-0.13719328,0.243906,0.11268659
Combeferre::-0.18021612,0.100518204,0.25981507,-0.21715651,-0.14754456,-0.35508066,0.17099299,0.3538988,-0.3626148,-0.52046657,0.41374204,-0.4806679,0.3243429,0.065222345,0.2655798,0.22248225,-0.23223501,-0.10487185,-0.24298602,0.045901436,-0.039513096,-0.050263926,-0.18934539,-0.063274704,-0.09489307,-0.035288416,-0.44287345,0.058899306,0.14256117,-0.14785366,-0.25967255,-0.05925979,-0.40841442,-0.2892218,-0.05401936,-0.347302,0.025556281,-0.13852838,-0.027722998,-0.14901534,0.029020023,-0.29275307,-0.21891455,0.26952308,-0.38918158,0.18793403,-0.03668374,-0.13452756,0.31139708,0.01931609
Prouvaire::-0.20068596,0.10561001,0.2525775,-0.17272426,-0.23312978,-0.42913282,0.17730308,0.33879462,-0.33020592,-0.549113,0.5228179,-0.42436922,0.25234267,0.09046115,0.2678442,0.20686986,-0.3080724,-0.10676727,-0.21022826,0.044264905,0.017649984,-0.098274715,-0.13846588,-0.042891137,-0.15062755,-0.09396341,-0.4016822,0.08253101,0.18854314,-0.15154554,-0.3608455,-0.04846033,-0.42963016,-0.3070146,-0.078303695,-0.35405564,0.09515971,-0.05701952,-0.04740097,-0.18166944,-0.051329322,-0.3689472,-0.2400173,0.2200409,-0.44472182,0.10437156,-0.0321789,-0.13341449,0.29622072,0.08383435
Feuilly::-0.19479543,0.11603857,0.25992304,-0.1975869,-0.10481877,-0.3747864,0.1351908,0.35421118,-0.43481353,-0.5457398,0.46131772,-0.49818566,0.2606341,0.054798976,0.3329673,0.245114,-0.27490702,-0.07491083,-0.1755702,0.072856165,-0.032961,-0.07812428,-0.18002927,-0.053734347,-0.08703897,-0.09083555,-0.45575207,0.040742807,0.09709736,-0.18773556,-0.27416918,-0.08908877,-0.4611791,-0.30205137,-0.046659574,-0.4123813,0.10478764,-0.058115587,-0.08258691,-0.12164144,0.046048842,-0.2503745,-0.21543294,0.2570412,-0.3417117,0.15076622,-0.14646934,-0.090825796,0.2869913,0.07648384
Courfeyrac::-0.23399724,0.1089761,0.23221335,-0.19264203,-0.20351596,-0.35429102,0.08705686,0.38166645,-0.3131263,-0.5084304,0.49576515,-0.5111919,0.29181957,0.035763785,0.2954041,0.17688717,-0.2611253,-0.13971204,-0.2773987,0.05074375,-0.049658872,-0.12042708,-0.15206896,-0.06125166,-0.12382358,0.020749135,-0.43196315,0.042632185,0.1904111,-0.14069161,-0.22045682,-0.059852358,-0.4290045,-0.25990978,-0.08766194,-0.3437091,0.020732371,-0.14769079,-0.015090399,-0.12956771,0.052990682,-0.31340227,-0.19236237,0.25162676,-0.41390306,0.23636118,0.00076929654,-0.19457798,0.2711901,0.05885789
Bahorel::-0.23533198,0.15868858,0.29545432,-0.1548662,-0.19526994,-0.31058297,0.15779553,0.4459562,-0.29751608,-0.57639384,0.51299465,-0.46778724,0.29496637,0.06791411,0.321907,0.16006853,-0.20631386,-0.10280144,-0.19570933,0.07021174,-0.07074405,-0.09740511,-0.12615944,-0.068426415,-0.1748293,-0.119361304,-0.41363767,0.047004916,0.20468839,-0.14233299,-0.32115948,-0.046324946,-0.46495432,-0.29020542,-0.024331084,-0.33554262,0.11473839,-0.045332894,0.008186061,-0.16240467,-0.039113108,-0.3397517,-0.18682694,0.26696923,-0.3750572,0.14527433,-0.08876952,-0.24257185,0.37453988,0.18998374
Bossuet::-0.18787834,0.10882139,0.2807904,-0.18952166,-0.1342799,-0.29647887,0.075598575,0.39263278,-0.38794035,-0.4697411,0.40639877,-0.53234816,0.31117392,-0.0057872753,0.30253795,0.28210136,-0.29062536,-0.104894064,-0.24248871,0.12918937,-0.056157883,-0.12590289,-0.13620643,0.006105392,-0.17458937,0.017139057,-0.4370275,0.03626863,0.12378074,-0.15945706,-0.18044783,-0.12128437,-0.46284312,-0.2682546,-0.09694302,-0.34702536,0.10701405,-0.1844129,-0.062850274,-0.098236054,0.11017847,-0.34005618,-0.24535352,0.27755415,-0.3866645,0.20955656,-0.14546026,-0.1364139,0.27571684,0.11409621
Joly::-0.22033806,0.16482194,0.26484343,-0.15777445,-0.2096812,-0.35083804,0.12787661,0.43889564,-0.3359583,-0.5197703,0.51207036,-0.50631195,0.28482768,0.078224264,0.30756873,0.1680145,-0.23590983,-0.15448584,-0.24197648,0.042785,-0.03839464,-0.11049086,-0.1754454,-0.04958785,-0.20622763,-0.032550637,-0.4618164,0.031011386,0.22426096,-0.12618455,-0.25725594,-0.074240185,-0.39835814,-0.29623097,-0.05508412,-0.3721335,0.08621063,-0.09863136,0.012989855,-0.12158283,0.049575582,-0.3495901,-0.16205794,0.2554408,-0.36153978,0.11040258,-0.06284239,-0.22100355,0.3226411,0.123596184
Grantaire::-0.25388953,0.18779807,0.189938,-0.13261695,-0.21571015,-0.36128056,0.14817177,0.34327945,-0.3436556,-0.4914248,0.53769505,-0.45915627,0.26165998,0.07619112,0.32300556,0.21123838,-0.30232382,-0.14319763,-0.16466771,0.12273617,-0.028492011,-0.12760432,-0.09904447,0.013981972,-0.21553653,-0.03644854,-0.39786148,0.009893097,0.2894455,-0.0793562,-0.32457495,-0.029096233,-0.390394,-0.25359067,-0.12986116,-0.40395683,0.103434086,-0.10279106,-0.05841559,-0.14973283,0.015786562,-0.39359573,-0.23305146,0.27272254,-0.4387657,0.123805,-0.035966974,-0.17310229,0.23937549,0.13684967
MotherPlutarch::-0.16771336,0.30534518,0.23304905,-0.18172196,0.14269851,-0.124477334,0.060295727,0.6648811,-0.43258706,-0.9152974,0.4624682,-0.5579295,0.2677478,0.027165884,0.32553267,0.03632967,0.0796616,0.012221509,-0.33618873,0.059536833,-0.4644662,0.025924489,-0.24351288,-0.36813635,0.09657628,-0.24309874,-0.47227564,0.10996813,0.087667786,-0.32007363,-0.08207582,0.10527259,-0.7826731,-0.20436619,0.2724113,-0.39293405,0.04846162,0.15988728,0.15244445,-0.091220714,-0.099154904,-0.029877648,-0.23152865,0.3108231,-0.3512273,0.33902368,-0.49257326,-0.6513304,0.81159174,0.21472153
Gueulemer::0.23701394,-0.05549672,-0.19242619,-0.0325141,0.112078,-0.54959357,0.488903,-0.114295766,-0.16900285,-0.013752774,0.19577508,0.2465981,0.024001779,0.10246525,0.057803158,-0.20412509,-0.3270436,-0.104779094,0.23185661,0.12944163,-0.3329922,0.28529218,0.21686386,0.1044672,0.4125361,-0.18846427,-0.0009832375,-0.03163952,0.20677981,-0.06718324,-0.16275647,0.37680933,-0.17476162,-0.31878883,-0.16289155,-0.39763743,-0.14926462,0.022704747,-0.29103884,0.14818154,-0.15206046,-0.3795511,-0.16018103,0.29991713,-0.26371384,0.22024359,0.32533568,-0.34145465,0.6665534,0.14048655
Babet::0.2485349,-0.050670445,-0.1655884,0.007404994,0.100569166,-0.5949902,0.53039277,0.018521238,-0.19888155,0.0054749334,0.20469692,0.22375312,0.009126585,0.2272235,0.05970199,-0.24428843,-0.30135843,-0.1850777,0.16578765,0.10097353,-0.31442267,0.31336218,0.14016932,0.11269508,0.35197955,-0.22244439,-0.08584214,-0.020280708,0.17269088,-0.06525374,-0.20721912,0.3597913,-0.16991532,-0.37330297,-0.106101416,-0.3623706,-0.090196595,-0.006702259,-0.23452829,0.19859636,-0.061757393,-0.43392903,-0.08107701,0.30015135,-0.1672786,0.12206831,0.37410197,-0.20838015,0.48882484,0.09103178
Claquesous::0.21523704,-0.09417222,-0.08468332,-0.025432697,0.107450135,-0.5595683,0.48861957,-0.019304298,-0.19515167,0.0078102904,0.1894832,0.21803556,0.07285205,0.15988067,0.050842747,-0.18095219,-0.34193975,-0.096496314,0.25630784,0.11561745,-0.31268585,0.29990107,0.16959254,0.16056395,0.34367675,-0.13564856,-0.07371173,-0.02655626,0.20623843,-0.08349093,-0.16953862,0.2920572,-0.16888675,-0.33363092,-0.1513656,-0.40218884,-0.06877619,-0.0590517,-0.2547623,0.1526362,-0.14394997,-0.41890875,-0.19991504,0.25036976,-0.176981,0.19548184,0.35121652,-0.24075235,0.5008614,0.17052172
Montparnasse::0.14529122,-0.06540035,-0.17037195,-0.06438792,0.030781833,-0.6006962,0.3742269,-0.046934012,-0.15940395,0.04108715,0.1863228,0.24055858,-0.0151094645,0.21086916,0.03046781,-0.2213719,-0.26058537,-0.25373593,0.20829968,0.21675268,-0.35969168,0.25693524,0.17806469,0.12852314,0.21519373,-0.15257299,-0.092890345,-0.10841673,0.40445364,-0.022680543,-0.16353713,0.281755,-0.22153845,-0.29590234,-0.14257918,-0.44333413,-0.009051954,0.108196855,-0.24689499,0.13479282,-0.020344336,-0.47467038,-0.15811875,0.27395767,-0.1717103,0.027078366,0.34786627,-0.4232774,0.5493791,0.1774868
Toussaint::0.13886838,-0.17852458,0.19125462,-0.19911222,0.010104222,-0.43939397,0.14485869,0.15497446,-0.36563057,0.15625854,0.06306909,-0.18277512,0.25554708,0.04098117,0.14532135,0.0038812798,-0.16926993,0.13786893,-0.34677008,-0.03756319,-0.17037387,-0.065442875,0.04412098,0.2245552,0.22966062,-0.032585114,-0.25528407,0.1787688,-0.11964296,-0.24700433,0.33806348,0.17059705,-0.12891595,-0.044431917,-0.046695832,-0.16642661,-0.013617391,-0.24365515,-0.09152977,0.14187127,0.1595339,-0.027618542,0.07902679,0.21353771,-0.14068674,0.31081977,-0.039949358,-0.016221995,0.3216574,0.023274506
Child1::-0.22776352,0.17205968,-0.28174284,-0.0778477,-0.6385606,-0.65783465,0.14142056,0.5282199,-0.35509902,-0.26770163,0.43195328,-0.14338213,-0.07781212,0.53975195,0.060135752,-0.06434268,0.054168064,-0.8288321,-0.35177895,0.29033455,-0.26800665,0.05017603,-0.17890899,-0.13469811,-0.42242575,-0.45384806,-0.3237184,-0.2185495,0.7297823,0.21355203,-0.4815397,0.03453211,-0.6389558,-0.23422934,0.1975823,-0.5009272,0.19271757,0.33589834,0.04719654,-0.17825168,0.2529857,-0.9734394,0.12574556,0.22735693,-0.46886325,-0.5243462,0.3316252,-0.754257,0.6785966,0.11770452
Child2::-0.23507422,0.17072143,-0.23099941,-0.07402765,-0.61209375,-0.61919975,0.1955388,0.5401919,-0.33164594,-0.3418507,0.49116653,-0.2215362,-0.07245545,0.519445,0.09900226,-0.06841616,0.024288492,-0.83564615,-0.39546782,0.25400582,-0.20139703,-0.028012477,-0.25707263,-0.19908896,-0.4284427,-0.37680736,-0.3376065,-0.16743799,0.74388254,0.1427868,-0.4789261,-0.011588565,-0.6005905,-0.29932767,0.17679942,-0.47795987,0.1898073,0.36058503,0.05115182,-0.19562753,0.23882116,-0.9495892,0.08357542,0.29594353,-0.5397563,-0.48770523,0.29615346,-0.754768,0.62309986,0.112010576
Brujon::0.21903832,-0.016110716,-0.19162135,-0.0045687137,0.06612786,-0.5545519,0.44295645,0.04960931,-0.16088547,-0.11270144,0.25285226,0.19570911,-0.04908844,0.20051916,0.05910281,-0.2671002,-0.2766149,-0.11570196,0.15505889,0.060067303,-0.2809585,0.29085273,0.19539665,0.026079714,0.2797466,-0.28744915,-0.06830785,0.022536475,0.15149975,-0.09894911,-0.25922108,0.35839978,-0.24832805,-0.3518631,-0.078009576,-0.34142244,-0.049878784,0.086235836,-0.22445911,0.10994362,-0.12120531,-0.42796877,-0.054215625,0.25812036,-0.22211885,0.11637255,0.30115622,-0.2980129,0.6064574,0.13371763
MmeHucheloup::-0.28232005,0.17108783,0.17507721,-0.09417775,-0.22702456,-0.35810503,0.121832915,0.33753586,-0.28122306,-0.5049194,0.612037,-0.42201576,0.22902143,0.075801,0.32573643,0.13984121,-0.2699799,-0.14559396,-0.1738202,0.044329617,-0.0070470017,-0.12749234,-0.08705608,-0.029598646,-0.2651339,0.00048568507,-0.3752351,0.0020538874,0.32693473,-0.013585983,-0.30740547,-0.021210408,-0.36235788,-0.2830807,-0.16019742,-0.467501,0.09258183,-0.12895048,-0.039756846,-0.12875712,0.010344655,-0.38357985,-0.24717031,0.19795746,-0.49215883,0.08720107,0.011596988,-0.30587438,0.3122138,0.1451886
