Napoleon::-0.21111804,-0.5505087,0.29387113,0.15566012,-0.2828465,-0.65465856,0.39753067,0.18076365,-0.3367848,0.50924444,0.1800585,0.20129584,0.29199842,0.13784228,0.24065165,-0.5349836,-0.05918845,0.016601037,-0.2375142,0.058664866,0.009074043,-0.13087007,0.17007874,0.06652446,0.17965025,-0.71424943,0.11612263,0.016975561,0.05321011,-0.08962753,-0.030978186,0.2763391,-0.0517741,0.14950055,0.22647089,-0.05381453,0.41290507,0.1376477,0.073408104,-0.035974786,-0.017408675,-0.1162248,0.34703362,-0.14410712,0.32267275,-0.3520027,-0.0092205675,-0.17235,0.16657855,0.074387,0.077118576,0.27818838,-0.011849294,-0.026157446,0.011167663,0.085423484,0.36607623,-0.16320542,-0.43457827,-0.042088654,0.12868045,0.07054005,0.20975235,-0.065493,-0.031238759,-0.2208444,0.040964764,-0.124556415,0.4610597,0.018108187,0.34376493,0.1581083,-0.079487905,-0.19780608,0.1388359,-0.15209907,0.09436445,0.09540322,-0.04035213,-0.246644,-0.14610307,0.34878427,-0.019902878,0.026091801,0.009287349,0.34597224,0.49773616,-0.20104133,-0.24455938,0.31060803,0.01796094,-0.0066127083,-0.071108975,-0.050107703,-0.0888938,-0.25771403,-0.16992986,-0.05391432,0.018730903,0.116996095
Myriel::-0.06958048,-0.47314668,0.24640593,0.13818139,-0.24453652,-0.7045448,0.44188547,0.08397872,-0.3804434,0.48526186,0.11583869,0.2488164,0.21198158,0.10523904,0.24722236,-0.42378366,-0.14083281,0.102724895,-0.22747958,0.049468894,-0.027138323,-0.14656231,0.13296276,0.113486044,0.19687761,-0.5922852,0.17950633,0.09738509,-0.036688205,-0.14551654,-0.022583101,0.28799137,0.051499326,0.16939214,0.15775457,-0.053538114,0.32099885,0.15386228,0.081087865,0.023143113,-0.011506282,-0.11703055,0.29455152,-0.14087343,0.20096646,-0.30312347,-0.110637836,-0.13493943,0.17703769,0.08771685,0.059449703,0.22465919,0.0571328,0.03542468,-0.080291234,0.10448662,0.49270433,-0.16989788,-0.3963014,-0.024833508,0.027204588,0.07990181,0.2936309,-0.016346456,-0.06288722,-0.3169327,0.0015796572,-0.18074147,0.38321325,0.008079527,0.37896475,0.14896344,-0.077275306,-0.1011801,0.053167064,-0.13255589,0.095366284,0.07027438,-0.014630055,-0.2383558,-0.11898209,0.33189797,-0.11151861,-0.0040309723,0.017405067,0.29375002,0.46982765,-0.14677979,-0.19682784,0.29002464,-0.037437204,0.07950889,-0.08594802,-0.054311477,-0.21378663,-0.19264603,-0.19361666,-0.09268712,0.043628614,0.2552406
MlleBaptistine::-0.14864694,-0.4613743,0.25626117,0.12084234,-0.23177303,-0.6668842,0.40852448,0.11876657,-0.35169253,0.36295512,0.23656857,0.22973762,0.19625178,0.13395144,0.1299097,-0.3835787,-0.11640955,0.052574642,-0.17791648,0.06586253,-0.016781261,-0.113474235,0.023227362,0.0848117,0.19591129,-0.624744,0.16928227,0.015146462,0.025972676,-0.045665015,-0.051917512,0.28198004,-0.011738329,0.1599621,0.20154552,-0.046810422,0.31434026,0.07051748,0.066134594,-0.012997071,-0.10006248,-0.06951636,0.22057016,-0.15177761,0.21602695,-0.28893623,-0.10638595,-0.12606351,0.19467375,0.10652453,0.03381868,0.27864242,0.023371302,0.080018885,-0.091237776,0.07302728,0.397589,-0.15974589,-0.376327,-0.056397505,0.07673323,0.032794323,0.25454223,-0.07687335,-0.06979654,-0.2584419,-0.030832063,-0.14106615,0.38823923,0.036393248,0.33935001,0.08352454,0.021990864,-0.08404229,0.023008687,-0.13703547,0.16688807,0.06050844,-0.044875495,-0.18219352,-0.06786385,0.30200797,-0.11080192,-0.012036927,-0.0094238445,0.20783834,0.42767772,-0.19824807,-0.19445646,0.20978011,-0.063781515,0.09849403,-0.03613617,-0.099698365,-0.17025259,-0.13530079,-0.18533531,-0.024506101,0.030483138,0.13867335
MmeMagloire::-0.13205007,-0.4557798,0.25366315,0.1326286,-0.23132743,-0.6071614,0.4060427,0.102770515,-0.39283186,0.45734742,0.08899499,0.20775051,0.2517294,0.12207337,0.20806076,-0.3636193,-0.08719193,0.07929155,-0.20279156,0.08806739,-0.010326001,-0.13953339,0.10255851,0.103663765,0.17116086,-0.6374558,0.13890396,0.056788735,0.0075447406,-0.10820375,-0.059207607,0.2785091,0.00031748196,0.1812728,0.20375605,-0.07305208,0.34320432,0.11496898,0.03581934,-0.026282605,-0.018693049,-0.09371315,0.23416725,-0.13368836,0.27359203,-0.3224879,-0.12476808,-0.11547307,0.1784021,0.061131865,0.07097778,0.24621253,0.011272046,0.024047494,-0.05166832,0.07975093,0.42267385,-0.1478717,-0.42413282,-0.094585784,0.0674266,0.08182668,0.25095233,-0.028582131,-0.039163984,-0.26992926,-0.0025073865,-0.16060627,0.37291133,0.053050194,0.36592942,0.13023105,-0.05027188,-0.1054618,0.07844831,-0.15425779,0.07810497,0.05710702,-0.025953231,-0.22699596,-0.13164033,0.33224696,-0.10233649,-0.0003718672,-0.016335191,0.28787038,0.47391698,-0.16466753,-0.20367907,0.28985596,-0.066809684,0.053184208,-0.08126415,-0.0456443,-0.16507493,-0.2227074,-0.19791904,-0.051586684,0.026273154,0.17066665
CountessDeLo::-0.18142468,-0.5118112,0.30735776,0.09964443,-0.29467353,-0.6207549,0.34214956,0.14037411,-0.35224432,0.44103485,0.17786823,0.17776597,0.25251228,0.14124696,0.13860421,-0.4604464,-0.104512446,0.0076154303,-0.18907855,0.04925803,0.039647896,-0.1368231,0.06238585,0.046870396,0.2108899,-0.6605899,0.12489505,-0.025887415,0.026190303,-0.093291976,-0.025403792,0.17090388,-0.08652243,0.17282197,0.21239655,-0.08117893,0.45112994,0.1683259,0.14586751,-0.09271731,-0.02437653,-0.12604316,0.29153818,-0.14833932,0.29545826,-0.38670096,-0.04242482,-0.18508978,0.13571946,0.014194284,0.08705752,0.2407265,-0.043863844,0.10686129,-0.0033636163,0.06973593,0.34035534,-0.19660506,-0.4489835,-0.11933348,0.16111135,0.07469342,0.19347604,-0.07196642,-0.022904277,-0.2018651,0.0013959529,-0.11171969,0.43344876,0.08431517,0.29703146,0.13693932,-0.043608095,-0.13816962,0.07424211,-0.114338,0.06093108,0.15832527,-0.06724681,-0.2480717,-0.13373743,0.32567626,0.042767383,0.12176428,0.048230432,0.3448283,0.46984556,-0.15230384,-0.21468246,0.3901412,-0.022810092,0.012106257,-0.14147918,-0.03424397,-0.1924572,-0.2597368,-0.14133188,-0.12897013,0.056375124,0.19254692
Geborand::-0.17053042,-0.4998747,0.2730902,0.13531251,-0.2798948,-0.6533612,0.396689,0.12682062,-0.37457958,0.5096973,0.18094239,0.21476182,0.25475156,0.13310608,0.20402974,-0.45001456,-0.08915988,0.05805926,-0.21112622,0.066411875,0.029318757,-0.12838356,0.11311614,0.10558383,0.18469618,-0.6655447,0.13502903,0.02270374,0.053093735,-0.05755529,-0.023800546,0.29753125,-0.01346291,0.16482125,0.22297555,-0.06780258,0.36571792,0.08947732,0.06315809,-0.018550288,-0.055860806,-0.11166726,0.30419213,-0.15553664,0.27485788,-0.33925208,-0.046388768,-0.17552568,0.15605009,0.08072687,0.083763234,0.26579106,0.004849837,0.046041712,-0.020863967,0.10401282,0.3995276,-0.1764967,-0.45208263,-0.038428545,0.101952896,0.05245066,0.24278222,-0.06824995,-0.041443408,-0.26328808,-0.033977706,-0.12736978,0.41336232,0.018894618,0.35450685,0.12238944,-0.054972004,-0.14675282,0.06909499,-0.15009773,0.112247854,0.09711694,-0.054554496,-0.21815188,-0.100197494,0.3606764,-0.09280712,0.027659932,-0.0023893467,0.26677063,0.4750555,-0.19902703,-0.20769678,0.27799937,-0.03948151,0.061202914,-0.09399486,-0.07888504,-0.12766813,-0.21133178,-0.20855443,-0.05324497,0.0366358,0.08077512
Champtercier::-0.14780462,-0.49545094,0.27902523,0.13492608,-0.29998675,-0.65590775,0.35070932,0.12921458,-0.3763153,0.48278,0.19914639,0.19789542,0.24671432,0.12749949,0.1754815,-0.44098482,-0.11874081,0.06455162,-0.21735178,0.036121562,0.06625062,-0.13964203,0.09929521,0.088743754,0.20424286,-0.6683078,0.14436474,0.020102449,0.041829728,-0.076777115,-0.02870625,0.24759203,-0.04696418,0.1789737,0.21320562,-0.071018755,0.4001573,0.12280468,0.12977819,-0.058063786,-0.06249055,-0.11328269,0.30306095,-0.18592285,0.26688275,-0.3658759,-0.06997704,-0.18924679,0.14557195,0.062471002,0.08302888,0.2379174,0.0038778812,0.08889268,-0.039934393,0.077371135,0.42850628,-0.18704683,-0.4477175,-0.072598256,0.10392128,0.034625687,0.22678874,-0.050705027,-0.0457767,-0.26954606,-0.020451661,-0.14701594,0.39755765,0.06524635,0.34401464,0.13799226,-0.029085282,-0.13426046,0.05169808,-0.10753236,0.10222969,0.1231576,-0.06715577,-0.25041655,-0.10276672,0.36881188,-0.054204796,0.032381836,0.015385498,0.27646598,0.47936517,-0.19308311,-0.19217157,0.31022823,-0.053285822,0.05557739,-0.14001371,-0.07804463,-0.18413177,-0.22974531,-0.21397656,-0.0723519,0.05229253,0.12729152
Cravatte::-0.17220075,-0.5184855,0.2799628,0.1432267,-0.288732,-0.6684623,0.3558329,0.15742056,-0.38248765,0.57793796,0.17683743,0.19236077,0.28655946,0.1246417,0.26716942,-0.49038675,-0.09098255,0.07301143,-0.27017272,0.02721341,0.05048557,-0.13826974,0.18177684,0.109022416,0.18264237,-0.6576597,0.11886654,0.028670466,0.06309398,-0.08370595,0.014069341,0.28567985,-0.005176042,0.1710447,0.22193803,-0.048820693,0.36636263,0.092177086,0.09123678,-0.01670402,-0.028064927,-0.10439292,0.37153807,-0.19082698,0.29794016,-0.3429601,-0.023081027,-0.181573,0.12255701,0.07158553,0.076773375,0.24618764,0.011381515,0.014191714,0.015928607,0.10341067,0.39272234,-0.16442169,-0.45568693,0.008603331,0.09318671,0.044379193,0.2478105,-0.05054294,-0.0336808,-0.26671112,-0.0018273931,-0.14947918,0.39571342,0.012325162,0.34963578,0.13936432,-0.07999243,-0.1816698,0.086997285,-0.14446293,0.07338486,0.124876656,-0.050250094,-0.2117556,-0.11266289,0.38322732,-0.07098538,-0.00093492586,-0.012610521,0.30189508,0.5017546,-0.18370005,-0.20380777,0.28984803,-0.008993442,0.0032319955,-0.12443342,-0.06490899,-0.09632949,-0.257947,-0.23823205,-0.034736115,0.0141205285,0.055303916
Count::-0.17566064,-0.531869,0.24579363,0.19590011,-0.22593346,-0.6558518,0.3374448,0.14859112,-0.2650539,0.52340543,0.19737095,0.25413677,0.217811,0.13350594,0.2276839,-0.50028133,-0.041945145,0.092927076,-0.20782565,0.03077255,0.043178637,-0.09406046,0.26152113,0.08379259,0.19013841,-0.64766145,0.14754774,0.034709793,0.07205475,-0.05772057,-0.008439056,0.32583228,-0.0668153,0.15350343,0.1954665,-0.045116104,0.37160173,0.10657008,0.051049225,-0.019932747,-0.041274782,-0.113395356,0.3474498,-0.18971276,0.3033118,-0.31766576,-0.0039869905,-0.16257492,0.12270625,0.09969397,0.0034411321,0.2333148,0.07728058,-0.08373191,-0.031946804,0.082355,0.3806052,-0.10471181,-0.35382438,0.03415958,0.10406798,0.02094613,0.19931811,-0.032088183,-0.07005151,-0.2484151,0.08266829,-0.16871437,0.47893107,0.016679186,0.32892513,0.1568682,-0.00067004655,-0.1673931,0.11644184,-0.15988179,0.16799916,0.07295294,-0.05712753,-0.21207932,-0.11276388,0.3665066,-0.04238526,-0.07832045,-0.06920288,0.30924416,0.46412843,-0.18950473,-0.23491868,0.25586402,0.020869303,-0.027492587,-0.039874583,-0.086289644,-0.06303046,-0.23496462,-0.14805658,-0.01978129,0.016033432,0.07273271
OldMan::-0.1730477,-0.48322418,0.29373807,0.16139431,-0.31891653,-0.61467034,0.3804443,0.15507464,-0.39264938,0.47638777,0.19197923,0.19045778,0.27785864,0.11241638,0.21698345,-0.44829705,-0.08255714,0.060277984,-0.2426596,0.03830276,0.07033289,-0.16150069,0.11281338,0.09699435,0.13348696,-0.70621127,0.16228126,0.031647462,0.070135914,-0.0329464,-0.05400851,0.27947688,-0.010108137,0.18994464,0.2308436,-0.05370761,0.3989818,0.09267145,0.11158027,-0.05382893,-0.075646214,-0.10636826,0.3119439,-0.20113266,0.28686976,-0.36746064,-0.08848205,-0.17164186,0.13908209,0.10442212,0.11187711,0.25814193,-0.018235274,0.07591552,-0.034591436,0.062854335,0.45188347,-0.17934106,-0.49147087,-0.06809367,0.076641925,0.0039261696,0.22975339,-0.06523923,-0.05903994,-0.2488887,-0.058261223,-0.12833433,0.3750149,0.02201406,0.36698413,0.114367165,-0.05004188,-0.14940241,0.06235102,-0.10131355,0.111255065,0.09859436,-0.063989736,-0.26434708,-0.1028106,0.35769975,-0.09903102,0.019535962,0.0076454002,0.239247,0.48186713,-0.25231135,-0.2043034,0.24301997,-0.058147535,0.11398478,-0.12468287,-0.098471045,-0.1332197,-0.19435099,-0.23516658,-0.032990567,0.03553014,0.073171586
Valjean::0.003819155,-0.026749745,0.02598486,-0.013189006,-0.063567266,-0.2574711,0.21272683,-0.011419556,-0.24452198,0.2869031,0.010347242,-0.009294702,0.19465129,0.059050955,0.3404136,-0.081499584,-0.134073,0.06060534,-0.07858382,0.062287305,-0.116371274,-0.0584779,0.12478101,0.10132978,0.09333625,-0.088500865,-0.06730074,0.110497795,0.05538679,-0.1595435,-0.019942204,0.13653935,0.111423284,-0.08350473,0.0836925,-0.3151807,0.043280832,0.06533723,-0.10080658,0.15224893,0.16884607,-0.18371238,0.23099177,0.20878112,-0.110484764,-0.09928304,0.09593802,-0.29278463,0.15301186,0.054593127,0.011429245,0.13631447,-0.027975837,0.07455387,0.11020058,0.22179675,0.24003108,-0.014729998,-0.16168796,-0.042072885,-0.014660772,0.1541914,0.16162014,0.034971073,0.07979311,-0.11364243,0.072734416,0.017472956,0.09170444,0.08341827,0.085727714,0.116547234,-0.0133088725,-0.06396814,-0.124596566,-0.010979898,-0.07352535,0.09450147,0.044655997,-0.030105464,-0.020406708,0.14977925,-0.08378283,0.05813036,0.027485976,0.17200655,0.19810751,0.087980345,0.052968476,0.2040352,0.062287703,-0.08831259,-0.16271128,0.1053322,-0.07489154,-0.12926242,0.012343266,-0.274449,-0.033727415,0.14463645
Labarre::-0.016517479,-0.072500214,0.037190422,-0.10360338,-0.1638563,-0.37222055,0.15201649,0.06523095,-0.30213878,0.20115107,0.12021966,-0.029765898,0.11206078,0.08686519,0.094616845,-0.072944514,-0.1584991,-0.055079103,-0.11236436,0.068182126,-0.06726503,-0.06299515,-0.14681625,0.07133077,0.15480487,-0.12842998,-0.0226952,-0.031464703,0.04718829,-0.066781916,0.0125518935,0.08595851,0.039907478,0.026485201,0.10987234,-0.12379436,0.00039505144,-0.0126114525,0.025082529,0.07573059,0.07073695,-0.101204276,0.14389831,0.06793053,-0.06573874,-0.1012715,0.056342524,-0.21428858,0.15107346,0.02349681,0.075021274,0.17331982,-0.0888778,0.2285461,0.0804926,0.12156101,0.21806476,-0.10991879,-0.15568015,-0.033890374,0.05429375,0.1100923,0.15766947,-0.0038993221,0.14672151,-0.17939167,-0.003076629,0.039558403,0.11928986,0.103283875,0.17669097,0.09837343,-0.003459877,-0.11032176,-0.21192256,-0.024184145,0.041368954,0.09373276,0.022797983,0.012864969,-0.008049198,0.1617368,-0.15947984,-0.018282192,0.08627833,0.08000773,0.2889362,0.004910644,0.053328957,0.19450821,0.030656012,-0.040926598,-0.21562234,0.045468226,-0.08017082,-0.08339609,-0.16859019,-0.12179259,-0.06334647,0.005967754
Marguerite::-0.0764651,0.041291088,-0.09780408,-0.028864829,-0.014502931,-0.21595371,0.16082749,0.106591724,-0.19380395,0.2325603,0.052857094,-0.0422651,0.1725235,0.044728134,0.3380671,-0.03285858,0.0032028058,-0.06482538,-0.14419053,0.12385939,-0.15601632,-0.018979762,0.10525545,0.09998573,-0.04415993,-0.009736154,-0.054443613,0.040366862,0.11269637,0.0023255507,-0.022718985,0.21353991,0.1348578,-0.07479675,0.07379737,-0.15125613,-0.17794031,-0.1514445,-0.22238876,0.25190023,0.2091471,-0.0987479,0.14788616,0.2030504,-0.14192621,0.03463834,0.1432359,-0.21406102,0.23228852,0.21885146,-0.007869691,0.24152972,-0.10439795,-0.002121823,0.18867838,0.124634184,0.21443942,0.10774329,-0.011960018,0.10470279,-0.075682946,0.07441487,0.19415845,0.031733125,0.18675847,-0.12867703,0.16747256,0.1449723,0.05624697,0.034199394,0.17484055,0.11392911,0.017794436,-0.20437373,-0.21659808,-0.054770526,0.15415096,-0.048703868,0.13677736,0.103633404,0.016770061,0.10936801,-0.30095738,-0.29067457,-0.019857965,0.03719554,0.2915287,-0.063604824,0.08376199,-0.044629175,0.18095948,-0.18829782,-0.12487883,0.04819555,0.2250741,0.01080606,-0.14730401,-0.000115476796,-0.22823618,-0.21493821
MmeDeR::-0.043767154,-0.09638342,0.025342576,-0.050664745,-0.13889478,-0.37868032,0.11994463,0.12650988,-0.25309435,0.19464399,0.14033923,-0.026333591,0.1299551,0.06715486,0.16168389,-0.16065225,-0.12918663,-0.05893626,-0.15949152,0.02187469,-0.077615015,-0.056804236,-0.030303966,0.032533657,0.15679684,-0.15332586,-0.034150608,-0.0028476897,0.04946162,-0.0882822,0.021415016,0.10773023,0.025352582,-0.016050467,0.10742235,-0.07186419,-0.017406605,0.010903665,0.024185322,0.07986032,0.0800469,-0.08656354,0.18348043,0.036200464,-0.048524953,-0.07080254,0.08282153,-0.1786677,0.1514204,0.043545827,0.046819855,0.14611205,-0.04167727,0.11298872,0.07718018,0.08313261,0.21099998,-0.0542597,-0.09610929,0.031742666,0.033904165,0.0905233,0.12135058,0.02607156,0.12593935,-0.15874623,0.06306567,0.007463744,0.13386768,0.07080288,0.16692846,0.12785791,-0.031219918,-0.14695601,-0.11288087,-0.03118942,0.04695068,0.07849292,0.036056526,-0.0040905275,-0.04294984,0.16017608,-0.12347372,-0.09240433,0.06152927,0.11345166,0.28983957,-0.0026237452,0.040039692,0.15729488,0.087193534,-0.09619739,-0.15297818,0.047469374,-0.024488633,-0.110277295,-0.16005833,-0.06997228,-0.08299503,0.0015887322
Isabeau::-0.06492013,-0.11079302,0.044430524,-0.033418283,-0.09239051,-0.36112767,0.13238998,0.13146406,-0.21649435,0.15646255,0.13996555,-0.036868647,0.151499,0.062780745,0.18506525,-0.16506654,-0.11711426,-0.04333952,-0.14553046,0.030348033,-0.109127834,-0.05725397,-0.0065719583,0.019908126,0.1770698,-0.17133985,-0.06213206,0.020021824,0.03401117,-0.120855056,0.015197842,0.11787766,0.0028247063,-0.028705634,0.110038,-0.09238281,-0.009963036,0.012673845,0.01617908,0.09045665,0.077056475,-0.0607948,0.16774024,0.07772549,-0.04865438,-0.034562424,0.090991706,-0.18552332,0.17751579,0.060685594,-0.0021827123,0.16919714,-0.030174162,0.043792654,0.07233081,0.07963818,0.19331045,-0.037750985,-0.08286531,0.018473398,0.028173974,0.11106433,0.11397701,0.046622615,0.10920171,-0.13497621,0.1146023,-0.023702923,0.14007157,0.06052948,0.12925129,0.1315724,-0.0011045568,-0.125938,-0.07482133,-0.031683978,0.037673295,0.071239926,0.05034241,0.013301174,-0.07044361,0.13715431,-0.08713956,-0.0963639,0.05224814,0.1549313,0.26015496,0.018297574,0.017733917,0.16377768,0.100531906,-0.12641776,-0.13687111,0.0589724,-0.033576664,-0.120986946,-0.12719513,-0.08584453,-0.073893175,0.047924805
Gervais::-0.05770977,-0.12439933,0.04618296,-0.07946705,-0.10773507,-0.38255838,0.15577976,0.106815144,-0.23802508,0.18518141,0.107054554,-0.011794537,0.13766818,0.08212103,0.14641178,-0.14637753,-0.11981787,-0.054827973,-0.11561728,0.058798335,-0.111649126,-0.045221996,-0.03928683,0.04093153,0.18359731,-0.15232614,-0.049098954,-0.0011305034,0.028046299,-0.10919028,0.025694316,0.10359824,0.017977051,-0.008732888,0.09553771,-0.10342332,-0.0072372817,0.011818512,-0.005015804,0.08973221,0.08902326,-0.06830104,0.1445575,0.09125652,-0.028718399,-0.062953405,0.07784976,-0.17165986,0.17519185,0.0244107,0.009866821,0.1657709,-0.056339793,0.0784307,0.079833634,0.117370844,0.16241951,-0.06085695,-0.09536305,0.002222356,0.051303905,0.13069978,0.14352809,0.027003873,0.12549603,-0.15624359,0.09063105,-0.008277376,0.1558127,0.0607971,0.16132985,0.12845846,-0.014229087,-0.13587354,-0.10699707,-0.064069346,0.021093309,0.07109015,0.06120557,0.02331121,-0.060709123,0.15345675,-0.09680657,-0.07315505,0.05033676,0.1571592,0.28542912,0.034143478,0.014925876,0.2010867,0.08690453,-0.13885981,-0.13470672,0.07610147,-0.024402788,-0.13523245,-0.13759229,-0.08802221,-0.08022539,0.050267976
Listolier::-0.19290513,0.15266156,-0.013540351,0.14595015,0.039517447,-0.124231175,0.30545503,0.17378196,-0.2625721,0.14310208,0.028019601,-0.10665609,0.32901746,-0.06079384,0.57717067,-0.002448768,0.0885777,0.021733826,-0.29970968,0.14855544,-0.2226349,-0.14340009,0.21374376,0.14244385,-0.1995959,-0.20766722,-0.1283885,0.27895477,0.16449298,0.014386462,-0.13681948,0.46914822,0.245366,-0.15166456,0.15726005,-0.13979761,-0.24887395,-0.26783064,-0.31517586,0.36099282,0.11788422,-0.0003713997,0.097465456,0.20164576,-0.18373702,0.14282416,-0.0076020616,-0.2352569,0.3716375,0.46616888,0.0075544985,0.35086113,-0.058963295,-0.19414566,0.086686715,0.02170893,0.4632753,0.23924746,-0.08395106,0.08086802,-0.3018059,-0.026089499,0.2396502,0.16020404,0.13774365,-0.12891842,0.22839925,0.054606553,-0.058443908,-0.040176243,0.25742036,0.17715706,0.05698577,-0.24902558,-0.1876221,-0.026721919,0.26971334,-0.18866102,0.2675851,0.029326368,-0.12069792,0.17173809,-0.6124492,-0.56631684,-0.05146304,-0.016056664,0.3810252,-0.28506225,0.13471682,-0.32360473,0.19933566,-0.13137178,-0.1164246,-0.0064284843,0.3433276,0.07516291,-0.32585725,0.18935628,-0.29014686,-0.33686942
Tholomyes::-0.18430372,0.08052577,-0.04875497,0.11690487,-0.013185468,-0.19947194,0.2727788,0.23728763,-0.24112964,0.1473348,0.060787614,-0.11001179,0.3150865,-0.047278058,0.5633461,-0.09689201,0.10094273,-0.03443509,-0.3047199,0.12523599,-0.21669361,-0.121845715,0.2162235,0.09028904,-0.15840247,-0.22021276,-0.09157423,0.20084786,0.14598073,0.03440795,-0.12446375,0.40762043,0.23116942,-0.13130035,0.15493998,-0.0636044,-0.2644597,-0.24232826,-0.28229874,0.33785465,0.15130061,0.017457403,0.15692085,0.16225003,-0.14186315,0.13367744,0.03526962,-0.18479069,0.35921693,0.42493856,0.003987123,0.32259628,-0.07340745,-0.21757734,0.14036563,0.015038956,0.41797793,0.20173074,-0.069055766,0.1070467,-0.28434205,-0.037129693,0.21739729,0.11457976,0.14884166,-0.12872253,0.20425199,0.063011214,-0.034597788,-0.085543886,0.27474642,0.16347283,-0.0054816264,-0.2582535,-0.12220096,-0.0311101,0.22922692,-0.19739795,0.21670602,0.0126388585,-0.080388896,0.10675343,-0.51656896,-0.5396772,-0.04881097,-0.0036848364,0.3350448,-0.27444112,0.09955875,-0.29455036,0.19267519,-0.1126088,-0.060846034,-0.0076487004,0.3473855,0.073141,-0.2921696,0.2131246,-0.30718118,-0.31280172
Fameuil::-0.16317426,0.16194661,-0.028110899,0.09433775,0.070295066,-0.13408457,0.3188299,0.1461847,-0.303029,0.14665687,0.014801722,-0.103892475,0.31522793,-0.02276952,0.5405153,0.096117236,0.08081399,0.053334117,-0.24090403,0.19984356,-0.24533233,-0.08880773,0.14254877,0.16271663,-0.17228253,-0.12847252,-0.08924692,0.2174763,0.14734825,0.048648138,-0.13704395,0.4283352,0.23502743,-0.11732434,0.15227212,-0.20090587,-0.27365324,-0.30526623,-0.36811635,0.36943206,0.15233526,-0.011118665,0.060004897,0.23792084,-0.22881246,0.158738,-0.032752395,-0.24436298,0.4140342,0.47679842,-0.06392309,0.36462772,-0.087740615,-0.14041977,0.11351422,0.06506968,0.45843273,0.24983034,-0.073624775,0.053830937,-0.27872893,-0.015702646,0.30836484,0.13767684,0.15985014,-0.16190928,0.24881811,0.06847438,-0.040950287,0.021461183,0.30002782,0.14226852,0.14823365,-0.22974895,-0.26693082,-0.047393195,0.2675407,-0.19656597,0.2689641,0.11913104,-0.079203516,0.13959768,-0.6491554,-0.5938223,-0.1090058,-0.019645054,0.39272565,-0.23575258,0.15251502,-0.29872957,0.1598134,-0.16645412,-0.12915158,-0.017934056,0.33888376,0.07610031,-0.34225267,0.20831841,-0.30686408,-0.35568535
Blacheville::-0.15503033,0.14769647,-0.04733756,0.093691126,0.07958636,-0.13928159,0.28867835,0.17338891,-0.26376513,0.10519181,0.040872,-0.12815733,0.31732348,-0.041599162,0.57203597,0.01966687,0.065028794,0.035545032,-0.28880143,0.16205525,-0.23475006,-0.11387647,0.19701308,0.10961027,-0.18153243,-0.17345239,-0.10257024,0.23966248,0.117400184,-0.0209345,-0.15745226,0.4098842,0.23116067,-0.14836244,0.13535792,-0.18079361,-0.2812615,-0.26151186,-0.35655293,0.36973825,0.16179802,0.018548323,0.09633111,0.26728675,-0.19877806,0.15051515,-0.030557709,-0.20551647,0.42915466,0.44847006,-0.065576985,0.35313246,-0.08442344,-0.20480888,0.08479398,0.06373942,0.43774244,0.271262,-0.052018434,0.030890772,-0.33408073,-0.0030109354,0.27716658,0.15295047,0.16424161,-0.13269494,0.27945185,0.020406159,-0.056385983,-0.011331055,0.3033091,0.17603227,0.123298444,-0.23160738,-0.21789734,-0.031335283,0.2389173,-0.21488482,0.26718298,0.062319934,-0.0961889,0.15175666,-0.5774246,-0.5898303,-0.084984034,-0.0058751213,0.3727825,-0.22891133,0.14779133,-0.27446258,0.14856766,-0.17659386,-0.064206265,0.016661847,0.32569155,0.08274359,-0.30245873,0.20429143,-0.31183085,-0.26843825
Favourite::-0.16468428,0.10753084,-0.012562459,0.09787178,0.05243064,-0.1143572,0.26415715,0.15380897,-0.24794894,0.1421201,0.045211498,-0.10767913,0.30083287,-0.027908763,0.5157073,0.014765985,0.07929686,0.061269753,-0.26887032,0.16052805,-0.19575894,-0.11959868,0.17159376,0.1390966,-0.16084735,-0.17768346,-0.07750034,0.21083283,0.116136506,0.058795445,-0.1254796,0.40753213,0.20208767,-0.09987048,0.16832668,-0.16274989,-0.24789916,-0.29094118,-0.31536737,0.3544215,0.124228396,0.0038269148,0.10775593,0.2005896,-0.20693894,0.13924865,-0.027070403,-0.23785567,0.39588305,0.47604418,-0.07132793,0.36002815,-0.06396966,-0.15696298,0.09983102,0.05212419,0.45337352,0.23388305,-0.10072791,0.0575059,-0.2988924,-0.054560985,0.288304,0.1300708,0.13439481,-0.14046396,0.24194501,0.049391184,-0.052687716,-0.0038240799,0.28858295,0.14547713,0.117664725,-0.19705953,-0.2224847,-0.026262725,0.27503386,-0.18127066,0.21743515,0.05945532,-0.075733684,0.12933227,-0.5559075,-0.53449875,-0.076367676,-0.0077859885,0.35826263,-0.25547087,0.112589866,-0.28085008,0.13996229,-0.14132923,-0.09244197,-0.04433108,0.30459228,0.096437804,-0.30360094,0.21320227,-0.2751143,-0.31896853
Dahlia::-0.18832654,0.15238592,-0.051910885,0.0896825,0.032729436,-0.215934,0.29428643,0.18775944,-0.3205062,0.16135836,0.029641053,-0.121330254,0.33899286,-0.033677507,0.5997119,0.034058306,0.069161534,0.0107101435,-0.29523596,0.17535369,-0.25021094,-0.115303025,0.19177805,0.16445094,-0.17096362,-0.16867627,-0.14213915,0.23603909,0.1713528,0.017316762,-0.09607486,0.4493996,0.25747386,-0.13861744,0.13530327,-0.16717577,-0.28095955,-0.2917619,-0.35339442,0.37103963,0.17658284,0.010042825,0.09253249,0.22930089,-0.19725636,0.15806228,-0.007434016,-0.22344716,0.39525488,0.45487404,-0.026614213,0.3597462,-0.0857172,-0.17783865,0.11691816,0.051109407,0.41876352,0.27350003,-0.05689007,0.067498975,-0.28055054,-0.021055661,0.2945648,0.1439038,0.18418835,-0.16015637,0.24140671,0.061852533,-0.07825948,-0.021014232,0.2689849,0.15215555,0.100203104,-0.26094502,-0.2339402,-0.043484297,0.2497105,-0.19009663,0.2573973,0.10338699,-0.07312989,0.14464763,-0.61253786,-0.59625226,-0.12009661,-0.033635788,0.37007976,-0.21745467,0.15944555,-0.29179388,0.18249172,-0.20720206,-0.10141113,0.015481811,0.36682564,0.052367125,-0.32260132,0.19378282,-0.3213913,-0.33796662
Zephine::-0.16308483,0.14659795,-0.03367343,0.090940535,0.09428112,-0.19813171,0.28519815,0.16061334,-0.26432717,0.107696824,0.0454436,-0.09892045,0.2981385,-0.027749877,0.5075086,0.0460608,0.05870899,0.040930595,-0.25222567,0.1733314,-0.23770119,-0.06513458,0.13185264,0.124411575,-0.14259654,-0.16106243,-0.11346108,0.20897873,0.124540284,-0.01206393,-0.12024433,0.4107967,0.19920067,-0.13053341,0.15251105,-0.18212341,-0.2613257,-0.25421777,-0.31653553,0.34922367,0.13397016,0.012731918,0.0668715,0.2497897,-0.18631247,0.13918108,-0.02591326,-0.22928122,0.39752692,0.4276818,-0.06551697,0.36360115,-0.080054276,-0.17270674,0.10535531,0.028134774,0.40412405,0.2514956,-0.035932958,0.05716656,-0.27895653,0.005800241,0.27833876,0.14034106,0.1370954,-0.16092327,0.26005346,0.026299573,-0.036877856,0.0052245245,0.29537845,0.15397422,0.1295955,-0.22932322,-0.20225777,-0.058502972,0.25708172,-0.19623579,0.265589,0.11258532,-0.08929494,0.15815122,-0.5760936,-0.58751625,-0.108817786,-0.017598053,0.396769,-0.2118417,0.12926939,-0.26920903,0.17111981,-0.19998656,-0.08781337,0.009690903,0.3392403,0.06588537,-0.33696643,0.20439447,-0.31893378,-0.3181582
Fantine::-0.12395041,0.058784407,-0.0022541513,0.041352276,0.03016007,-0.16170076,0.15405296,0.071667865,-0.1720141,0.18063058,0.013271196,-0.047162596,0.17700087,0.018692542,0.38148472,0.016840467,0.018328529,0.048000883,-0.17828435,0.11323761,-0.15836655,-0.07692653,0.13642071,0.1405881,-0.096928544,-0.1039499,-0.13590544,0.16251184,0.10777891,-0.050654113,-0.0169499,0.29663795,0.17275144,-0.11869373,0.09188738,-0.16851345,-0.18452303,-0.17855218,-0.23367108,0.3055005,0.14681053,-0.02351958,0.12807016,0.19320469,-0.14743388,0.05916305,0.028957555,-0.20312254,0.2832654,0.2862409,-0.032863297,0.29435906,-0.07319744,-0.115900144,0.07240679,0.08735393,0.27688637,0.18557896,-0.06965727,0.044656582,-0.14429055,0.011732872,0.23896813,0.10684556,0.1552307,-0.10301533,0.2041539,0.06464571,0.0065934593,-0.0019174103,0.14501527,0.12424577,0.07744636,-0.19584276,-0.19778413,-0.091865875,0.21905303,-0.08945787,0.20121136,0.07264574,-0.069930166,0.17636886,-0.38754117,-0.37538844,-0.054225568,0.03119613,0.3450616,-0.11538622,0.097262956,-0.075672336,0.15330617,-0.22654644,-0.093135774,0.040838275,0.23006298,-0.0055451286,-0.2098536,0.05867994,-0.2385818,-0.22403425
MmeThenardier::-0.014444672,-0.043250103,0.020070914,-0.038095176,0.055026546,-0.49327102,0.14046496,0.056641627,-0.1307931,0.071007475,0.22586614,0.02176071,0.055437077,0.070366114,0.14787135,-0.117860764,-0.16881508,0.07183858,-0.022958515,0.039107293,-0.18425308,-0.012486749,0.033816453,0.05047504,0.29190126,-0.056137916,-0.093590684,0.06630126,0.09884186,-0.13118711,0.0455295,0.24274436,-0.031525742,-0.09955466,0.0032693418,-0.1996571,-0.076501094,-0.012659971,-0.02577465,0.1715911,0.029744608,-0.054301597,0.103818715,0.18314326,-0.20733352,0.0817619,0.10859566,-0.2783485,0.22016296,0.14901018,-0.21354838,0.16035922,0.12478379,-0.012781675,-0.051233534,0.13097647,0.19230881,0.061094373,0.12206394,0.04009965,0.0017528278,0.067809805,0.11199667,0.100498624,0.021388015,-0.12668863,0.2795511,-0.07989325,0.21626565,0.0776351,0.05293474,0.1598212,0.24405445,-0.017718116,-0.18828315,-0.0382692,0.18554308,0.042393666,0.05058676,0.1606387,-0.033204176,0.13027965,-0.07949949,-0.20186493,-0.05576583,0.16677877,0.14048643,0.13009642,0.0070159906,0.13532276,0.11756286,-0.22815035,-0.08653295,0.077567086,-0.091951974,-0.05031919,0.021738447,-0.16127159,0.018913198,0.1464359
Thenardier::-0.053503636,-0.06613672,-0.030759828,-0.016417446,0.111583285,-0.43446535,0.12089492,0.10445757,-0.0138689885,-0.065061525,0.29568952,0.094824076,-0.013449052,0.08156925,0.12127949,-0.14626127,-0.09958771,0.0076515586,0.05389001,0.05360595,-0.17006136,0.07896445,0.087823085,-0.042774893,0.20815413,0.0103518395,-0.022635652,0.002179869,0.067829676,-0.0813066,-0.03524365,0.165403,-0.098604985,-0.07747614,-0.0732798,-0.25473097,-0.064728305,-0.049990922,-0.08695499,0.15246072,0.0805053,-0.094444,0.08782007,0.2185432,-0.17912985,0.05882431,0.12735455,-0.23921621,0.24302927,0.16364755,-0.29021603,0.22165263,0.026058324,-0.037582204,0.0036793763,0.13373557,0.19296813,0.13374998,0.16279131,0.047859956,0.03741961,0.07289563,0.14416023,0.089047514,0.05033034,-0.105635926,0.38034254,-0.07635976,0.27669248,0.09883883,0.060653936,0.0788649,0.30799437,-0.04828293,-0.19074583,-0.025240267,0.29531193,0.0050395187,0.105960324,0.16174546,0.045758158,0.13365932,-0.08413192,-0.30969366,-0.17293255,0.15636492,0.2177696,0.10931736,0.021958485,0.0988891,0.19397803,-0.29126912,-0.026302706,0.05836968,0.048648234,-0.061674915,0.065834865,-0.09813402,-0.13968246,0.14907934
Cosette::0.024548896,0.01696348,-0.03167685,-0.093296394,-0.13210982,-0.43059352,0.08100416,0.22235772,-0.21737806,0.0054468634,0.24277946,-0.08202569,0.09247258,-0.008957308,0.17562935,-0.19732556,-0.18303011,-0.1058284,-0.14120997,-0.060516194,-0.10126659,-0.041380253,-0.064804174,-0.082268685,0.19722085,-0.023542197,-0.0606388,0.0029354803,0.11212316,-0.13794841,-0.020814262,0.045592695,0.041082777,-0.06795886,-0.048101123,-0.0792346,-0.12226459,0.022760976,0.1094208,0.04786125,0.052202117,-0.10141681,0.18464187,0.12393845,-0.13842772,0.0020751157,0.14754689,-0.21667272,0.1678031,0.045794424,0.017229497,0.10197368,-0.05989966,0.14157067,0.07995666,0.11980339,0.26269904,-0.064844504,0.036853656,0.07249502,0.01804012,0.11305247,0.07205392,0.06878247,0.09775871,-0.10654018,0.13509476,-0.075889364,0.12681226,-0.0065921997,0.14175737,0.12454586,-0.0069335564,-0.15591948,-0.081118986,0.07580062,0.023695491,0.08503818,0.044506554,0.07499112,0.009150313,0.14983812,-0.11222539,-0.16754034,0.035807338,0.09302484,0.20111987,0.09731652,0.06768772,0.12281387,0.11741765,-0.080800116,-0.1673041,0.09785357,-0.059937574,-0.10460327,-0.17733206,-0.07283524,-0.065448195,0.089266226
Javert::-0.03767558,-0.10265671,-0.015833875,-0.046023767,0.023692636,-0.3016279,0.13864563,0.027357932,-0.13117868,0.20877038,0.06750578,0.033488158,0.1040197,0.10542972,0.17178935,-0.08398398,-0.07902749,-0.022280505,-0.04517898,0.10363739,-0.14505094,-0.013992166,0.075757965,0.054574512,0.12750755,-0.0724626,-0.069116965,0.022082692,0.05723985,-0.101213925,0.02308565,0.1521325,-0.020416396,-0.08189092,0.027362885,-0.18090457,0.011203079,0.0018265257,-0.10020946,0.11007737,0.17373025,-0.12310761,0.102048494,0.19916676,-0.10366542,-0.03765475,0.13844495,-0.22740737,0.19928595,0.10277931,-0.080514394,0.17985669,-0.05256694,0.03482075,0.070056036,0.09865118,0.13432431,0.061695646,0.015113063,-0.038442694,0.038652487,0.12519252,0.12160409,0.017826635,0.11785514,-0.064701185,0.24288625,0.07895277,0.18901716,0.12673804,0.07392267,0.1465949,0.111235924,-0.12336497,-0.17675155,-0.05742972,0.13706937,0.02042306,0.088682264,0.0583711,-0.012811277,0.1256989,-0.09256238,-0.15767314,0.0075980998,0.17751867,0.2536596,0.019146547,0.015180538,0.11578505,0.12962407,-0.24713196,-0.10621963,0.09363756,0.05771813,-0.055762324,0.003675546,-0.10132228,-0.089193285,-0.0023131121
Fauchelevent::-0.15882891,-0.19026634,0.05001816,-0.10804026,-0.02003263,-0.31070805,0.17507736,0.2231212,-0.17323211,0.11588559,-0.038607333,-0.16755621,0.2833211,0.090906315,0.24900347,-0.2864833,-0.015421328,-0.28194973,-0.15531628,0.13548052,-0.27729785,-0.031182008,0.001252307,-0.055678558,0.17886582,-0.14912598,-0.22753984,-0.017860908,-0.087164186,-0.24270941,0.0368072,-0.01191777,-0.05397408,-0.15296759,0.110519074,-0.08321172,0.018446414,0.12589617,-0.07256894,0.13568152,0.30742794,-0.09070674,0.16025092,0.33339506,0.0459969,0.034562405,0.2087956,-0.15149197,0.25490633,-0.035243515,-0.0146309,0.21675691,-0.17565544,-0.15569997,0.25151607,0.106313206,-0.07426878,-0.072419256,0.02417647,-0.07026799,0.121579565,0.34370208,0.020348197,0.056590766,0.25046965,-0.00293473,0.3016654,0.05834041,0.23063841,0.08350522,0.11846265,0.27587593,-0.22608,-0.26733217,0.111171894,-0.072000444,-0.17066638,0.008587797,0.18110628,-0.00016661882,-0.2519841,0.07822758,0.065648474,0.010028129,0.17729653,0.39086956,0.2833482,0.16184634,-0.023958495,0.35829931,0.29622892,-0.38435736,-0.1237122,0.28698435,0.110289335,-0.3134073,-0.008908102,-0.19692883,-0.18501528,0.17167558
Bamatabois::-0.025379935,0.007416714,0.030646998,-0.21749716,-0.0738072,-0.42653894,0.41180092,-0.06486667,-0.48485577,0.20848922,-0.020314414,-0.077004164,0.19543844,0.11471417,0.11800911,0.14519493,-0.21617645,-0.03288888,-0.035806898,0.28368464,-0.2851925,-0.054975275,-0.37236142,0.22582841,0.23807853,-0.06641059,-0.088875666,0.011184957,-0.04459523,-0.074350126,-0.00058015255,0.22835355,0.18954825,0.0047650547,0.20447029,-0.27157372,-0.22655489,-0.18173248,-0.22031642,0.31799912,0.10244689,-0.051857404,-0.0068636746,0.30308384,-0.20622464,0.089575015,-0.023249058,-0.18737957,0.3137808,0.06765469,0.026288657,0.2925313,-0.10185403,0.2428626,0.07333733,0.3127458,0.18376945,-0.17281997,-0.20228976,-0.12209704,-0.014446867,0.21480447,0.35091487,-0.029394839,0.23161715,-0.28541633,-0.075008996,0.11739583,0.05780538,0.08219342,0.26948744,0.0671273,0.009723086,-0.047919616,-0.37413123,-0.16997248,0.02746244,0.013333322,0.14608563,0.16628408,-0.031900473,0.11107895,-0.42929226,-0.018655399,0.08025174,0.022284519,0.28562802,0.09580375,0.12017694,0.18858105,-0.043764267,-0.002686915,-0.1626866,0.09692241,-0.1152682,-0.006282223,-0.26308396,-0.12878928,-0.110073306,0.0014820216
Perpetue::-0.24420619,-0.058362376,0.04947785,-0.023089813,-0.02894148,-0.08193758,-0.19955043,0.15976544,-0.24975897,0.662034,-0.066508874,-0.1338473,0.3038191,0.083352506,0.6092836,0.023308879,0.05178696,0.19909045,-0.2796056,0.032328397,0.09717816,-0.07060851,0.44873878,0.26149705,-0.26519388,0.057073392,-0.14634557,-0.009040292,0.2782138,0.008283942,0.20876282,0.068186514,0.114481695,0.041280627,-0.043851037,-0.30595878,0.1418135,-0.14294836,-0.1945745,0.10374207,0.39600986,-0.16311172,0.3426622,0.0064077065,0.06360559,-0.24244174,0.061809454,-0.36766383,0.021237837,0.24829528,-0.1250645,0.2320296,-0.22753794,0.023678038,0.28645498,0.0870013,0.14264327,0.42776304,-0.13385439,0.071783096,-0.014556209,-0.08952633,0.2986086,0.04546234,0.23751508,-0.0010868126,0.3973687,0.12363345,-0.04561537,0.23909189,0.08738164,0.08549917,0.23219472,-0.37266412,-0.31179532,0.00485629,0.005097224,0.19888559,0.072742276,0.16964132,0.05967947,0.3205894,-0.13694225,-0.31698722,-0.28062463,0.21550308,0.5305857,-0.021507913,0.11232699,0.13612944,0.16371466,-0.73323286,-0.40766972,0.0452527,0.42404717,-0.26330775,-0.2762571,0.0501696,-0.22203691,-0.44156906
Simplice::-0.08641368,0.0051245587,-0.015418395,-0.100856565,-0.021886507,-0.1809684,-0.14278723,0.07952289,-0.2669168,0.511482,0.05161175,-0.09044103,0.20635204,0.10982622,0.4014761,0.06330036,-0.0346533,0.13371381,-0.20144641,0.027381558,0.07017347,-0.030561691,0.22575758,0.21486285,-0.14084165,0.10103977,-0.13031875,-0.04448211,0.21644193,-0.019348344,0.15894161,0.053750657,0.12901865,0.059745524,-0.030950334,-0.25746047,0.018002244,-0.13736245,-0.10776282,0.14100578,0.30861354,-0.1527021,0.25161418,0.023119656,-0.05660608,-0.16343561,0.06712754,-0.3570493,0.020958783,0.18540445,-0.086817205,0.21855736,-0.18163069,0.14729999,0.22955841,0.12951668,0.15785797,0.2812743,-0.12193833,0.09270082,-0.00026151515,-0.048892234,0.27126813,0.037212208,0.22650799,-0.06938223,0.2506438,0.105627686,-0.0401403,0.21751729,0.097890235,0.055793565,0.21134005,-0.22461893,-0.36051053,-0.023710506,0.054652836,0.17385902,0.05046881,0.19142938,0.07326763,0.25809914,-0.17857991,-0.24306273,-0.20580536,0.10972033,0.4118905,0.03292718,0.1079551,0.14108191,0.13375258,-0.5087514,-0.33737046,0.05510941,0.24025384,-0.15865684,-0.23301193,-0.03707104,-0.15902878,-0.34208024
Scaufflaire::-0.037912358,-0.07692244,0.027434547,-0.08998543,-0.104206815,-0.377417,0.15597324,0.102457225,-0.27265853,0.166749,0.12992126,-0.04489271,0.13508326,0.07058526,0.14762446,-0.092916824,-0.13408315,-0.0478199,-0.11717724,0.0636372,-0.10502855,-0.041892394,-0.10881735,0.05527772,0.17371875,-0.109828606,-0.04710185,-0.009781861,0.036839567,-0.072278105,0.014922127,0.11570262,0.041216083,0.0032089937,0.098071404,-0.11034168,-0.06640139,-0.047647186,0.0023531618,0.114468105,0.073697254,-0.065592974,0.12873417,0.09311805,-0.0740705,-0.025852107,0.06618401,-0.17935711,0.17271812,0.06536105,0.0074988813,0.1858824,-0.07190066,0.12833329,0.08656554,0.12190351,0.19168945,-0.07085772,-0.110315025,0.009654714,0.025560627,0.10725908,0.16380283,0.01625013,0.13006917,-0.16688055,0.047377944,0.0179654,0.109267935,0.053362567,0.16973867,0.088456474,-0.00049638853,-0.113773085,-0.14777152,-0.048670456,0.05879361,0.06358634,0.050823122,0.0574286,-0.022472695,0.15374231,-0.15969895,-0.08356394,0.040845785,0.09059749,0.26325762,0.023118496,0.036992796,0.1614632,0.06585005,-0.07719555,-0.16939548,0.054708697,-0.038465086,-0.07768779,-0.18758194,-0.07477304,-0.088458255,0.002364123
Woman1::-0.022660311,-0.102782644,0.051121507,-0.041019943,-0.079577446,-0.36170787,0.09845151,0.102178805,-0.20699362,0.18892299,0.10702678,-0.016397815,0.12608592,0.07224656,0.20777006,-0.12395561,-0.15080813,-0.007997045,-0.129514,0.035468567,-0.102618285,-0.04301028,0.04416619,0.020880058,0.19434842,-0.11943286,-0.06415051,0.029891664,0.018840484,-0.18277737,0.038620315,0.06912695,0.01967223,-0.042096693,0.063489266,-0.13737743,0.0076573803,0.051828273,-0.014587871,0.08545179,0.13813467,-0.09420759,0.18879686,0.103862,-0.03260728,-0.081759475,0.075873695,-0.16110569,0.17486258,0.0069549526,-0.01831017,0.13726108,-0.014299429,0.019011028,0.07293209,0.124601156,0.18581755,0.009921858,-0.057057023,0.013953062,0.06359538,0.16234308,0.12051345,0.08021569,0.1255955,-0.12520312,0.16678345,-0.030449638,0.16111834,0.10902584,0.11677654,0.15372823,-0.005294375,-0.11323825,-0.06831907,-0.051936127,0.014426666,0.10344765,0.073109664,0.011015013,-0.053595275,0.19953509,-0.038814336,-0.07404471,0.011331037,0.18929477,0.2838311,0.08622676,0.028068708,0.25279132,0.09489186,-0.20951977,-0.14791532,0.11057509,-0.056205772,-0.19953652,-0.093191415,-0.15260918,-0.09136491,0.10508946
Judge::0.006917271,0.011534845,-0.002996803,-0.27702808,-0.1123339,-0.52609605,0.43782982,-0.049661946,-0.5630855,0.17946437,0.047026474,-0.06975264,0.1885147,0.15640603,0.040407334,0.13903981,-0.26984665,-0.12337982,-0.018688869,0.28330427,-0.29771748,-0.05734336,-0.50211865,0.17942563,0.30202207,-0.08941267,-0.10367462,-0.02221474,-0.060044155,-0.11127747,-0.012524191,0.19339974,0.15605141,-0.0009705961,0.24028601,-0.24197105,-0.22696619,-0.13385254,-0.13676167,0.2545608,0.103926465,-0.0601414,-0.03778781,0.3060588,-0.21677877,0.04199743,0.015064281,-0.2040456,0.32366788,-0.010619267,0.09134132,0.2826567,-0.14295664,0.36577582,0.075423144,0.27495977,0.16293481,-0.23722865,-0.20758413,-0.16873759,0.037862543,0.282365,0.30278367,-0.05652049,0.26756123,-0.3273364,-0.13635582,0.1352125,0.057273958,0.13791318,0.2514408,0.06305226,-0.026512813,-0.052429225,-0.41063216,-0.17072463,0.019433655,0.046855554,0.12718347,0.15662296,-0.02811601,0.11700797,-0.38517657,0.03037422,0.15529494,0.018114299,0.32017937,0.1046692,0.12912805,0.26757494,-0.027478317,0.060660098,-0.21185982,0.14204839,-0.19060811,-0.012022302,-0.2510606,-0.2204711,-0.11902288,0.06852682
Champmathieu::-0.014508075,-0.00086307933,0.011326218,-0.26499134,-0.11226149,-0.47782576,0.38972345,-0.049961686,-0.53277606,0.15520862,0.039190233,-0.07100764,0.16580456,0.16423598,0.0047079716,0.14243962,-0.25356084,-0.11189377,-0.020608164,0.29392794,-0.25747237,-0.06094224,-0.49942753,0.19448476,0.24471262,-0.077052325,-0.08691583,-0.045670863,-0.035955496,-0.083062224,-0.010961448,0.16770034,0.12765673,0.020173164,0.1889801,-0.25885984,-0.1571883,-0.13453127,-0.120737135,0.21117534,0.089010336,-0.07401914,-0.053024963,0.290487,-0.19399413,-0.007975761,-0.019864498,-0.20821945,0.32337266,0.023589473,0.08647126,0.3048157,-0.17020994,0.40104753,0.06633649,0.2615175,0.16655217,-0.20692791,-0.20883694,-0.2235458,0.072040156,0.24129237,0.31306738,-0.089649774,0.23936133,-0.24211049,-0.102881916,0.15854944,0.06847576,0.15899536,0.22991976,0.03792114,0.03377874,-0.045032065,-0.41932532,-0.1310897,0.04502713,0.064191245,0.09586699,0.13565774,0.007853688,0.11279944,-0.35180035,0.07175276,0.14645106,0.025318334,0.3133458,0.0835747,0.094527446,0.25250962,-0.04973747,0.029365428,-0.20657475,0.10996321,-0.1831271,0.008889114,-0.21264942,-0.21544427,-0.08926117,0.06662429
Brevet::-0.0077282814,-0.04273577,0.036336288,-0.26169282,-0.13914418,-0.5436987,0.48388898,-0.077221915,-0.5569308,0.20001635,0.06038934,-0.03135802,0.15452614,0.18407652,-0.008844504,0.11224992,-0.27468884,-0.11236267,0.010833142,0.3169659,-0.29244718,-0.05271213,-0.5206794,0.21165475,0.29051298,-0.1396935,-0.044204373,-0.047256906,-0.060183242,-0.083352596,-0.03145071,0.21454363,0.14888254,0.036093544,0.25977844,-0.2885039,-0.15301596,-0.12560861,-0.1617077,0.28066796,0.074478276,-0.10568135,-0.017187005,0.30694184,-0.18706398,0.0031836096,-0.018122135,-0.20422032,0.337304,-0.00089620496,0.11093606,0.3341839,-0.1366865,0.3934452,0.07249803,0.32442048,0.18590601,-0.2932572,-0.26740205,-0.19251381,0.07887101,0.26748538,0.36017352,-0.10322118,0.23925586,-0.32521102,-0.18480003,0.15984352,0.124583684,0.112130426,0.27747947,0.04619353,-0.0075867744,-0.01849448,-0.41820034,-0.19585676,0.0475208,0.032090794,0.09041729,0.12090384,-0.008973952,0.10052496,-0.39196604,0.11405161,0.15459137,0.023855818,0.31734243,0.090503454,0.08953691,0.27356783,-0.066596374,0.097689554,-0.17230281,0.09723784,-0.21403821,0.02067695,-0.2234117,-0.24477702,-0.08488818,0.07741015
Chenildieu::0.02117317,0.010071736,0.019904375,-0.26542267,-0.115250565,-0.54794645,0.4178607,-0.05120509,-0.5576387,0.1419203,0.048931047,-0.073885895,0.16016753,0.13704765,0.011675482,0.17049184,-0.28162786,-0.071144104,-0.03885096,0.273069,-0.25978845,-0.054360088,-0.52100736,0.19086382,0.31414726,-0.08450563,-0.083952606,-0.022767002,-0.06415192,-0.098022915,0.0011689941,0.18319224,0.1510187,0.032024246,0.20266898,-0.25445524,-0.2149346,-0.15701136,-0.13499315,0.25576264,0.07635553,-0.046247404,-0.036673468,0.28129584,-0.22297837,0.040330306,-0.055830903,-0.18938728,0.31466702,-0.01678596,0.059739873,0.27364483,-0.123063184,0.37012383,0.049837437,0.2895662,0.1930364,-0.24041273,-0.20925865,-0.18041593,0.02121028,0.25199497,0.33890748,-0.04064996,0.23897654,-0.34234422,-0.1318644,0.08404827,0.070894085,0.15178537,0.28519562,0.058110625,0.012764664,-0.013738375,-0.42354983,-0.16706747,0.026404485,0.0494643,0.11711962,0.15448162,-0.008541532,0.14492671,-0.4178898,0.013974844,0.10551154,-0.0077454774,0.32368034,0.12791085,0.12989143,0.2797162,-0.08664691,0.038820423,-0.20931382,0.12418004,-0.21755359,-0.028444428,-0.29027605,-0.17913552,-0.11834219,0.07909229
Cochepaille::-0.00035194447,0.0008525637,0.0006426045,-0.30020344,-0.13214242,-0.5532389,0.42410868,-0.059350006,-0.5841287,0.15222102,0.0552106,-0.07130819,0.16054745,0.16880487,-0.0034016385,0.17550658,-0.30412304,-0.11061229,-0.029121686,0.31025785,-0.30757293,-0.04516782,-0.56313795,0.19500898,0.3177711,-0.09766272,-0.08822547,-0.0668873,-0.057897326,-0.09781585,-0.008955038,0.18507113,0.1437701,0.009657802,0.24194498,-0.2540693,-0.23038417,-0.15744826,-0.14946906,0.24578133,0.091388695,-0.06378971,-0.054392487,0.29571566,-0.22449268,0.03512484,-0.024458224,-0.1893607,0.35905093,-0.00823273,0.09440859,0.31880665,-0.15637498,0.4087347,0.054657497,0.27526864,0.1717727,-0.24036308,-0.19986627,-0.18417904,0.06408658,0.27394122,0.3396392,-0.074635476,0.28179508,-0.33276772,-0.13365956,0.152311,0.07860958,0.1653737,0.28474346,0.06451379,0.014631276,-0.043534484,-0.4332151,-0.18604709,0.045572933,0.036652774,0.12492131,0.1658667,0.0032359357,0.114485405,-0.41509673,0.027086005,0.14586784,-0.003295063,0.35788,0.10624427,0.12336433,0.25833094,-0.075773954,0.04426159,-0.1961448,0.112933986,-0.19852671,0.0070883734,-0.29035425,-0.16882639,-0.11417948,0.039707992
Pontmercy::-0.063411385,0.07721166,0.11706082,0.07430475,-0.038070414,-0.4719472,-0.00011776621,0.39250138,-0.14717397,-0.14437936,0.634672,-0.27477273,0.22715381,-0.034061346,0.3799866,-0.3111557,-0.20536582,-0.06330964,-0.20046873,-0.15433092,-0.12608038,-0.10547795,-0.00010757917,-0.21258458,0.49117565,-0.13448018,-0.24241692,0.12577112,0.019033302,-0.07735262,-0.031854384,0.10975081,-0.16357973,-0.21096902,0.23415107,-0.0088169575,-0.2493288,-0.10436025,0.2684048,0.26470044,0.0040473016,0.056343094,0.28293863,0.10245704,-0.36321986,0.24584423,0.31075647,-0.40953004,0.23348631,0.24122635,-0.20805046,0.15008068,0.21536775,-0.0456176,0.08653387,-0.060538944,0.24875009,-0.016673326,0.11063004,0.20967281,-0.059429873,0.020665761,-0.16384998,0.32604665,0.07546715,-0.09230775,0.23582871,-0.02372506,-0.009501397,0.03705702,-0.13689466,0.16650191,0.0015416802,0.09099392,0.1030884,0.07584891,0.23524284,0.13175622,-0.0041697286,0.103115976,-0.17501982,0.091735214,0.06476221,-0.19574784,0.052699458,0.055778287,-0.08495831,0.016334163,0.04465118,0.0949057,0.27147716,-0.028640209,-0.24198087,0.075846374,-0.1292336,-0.09235878,-0.017661626,-0.1738806,-0.05753318,0.09131606
Boulatruelle::0.00086216885,-0.12168761,0.01633279,0.009598111,0.07766185,-0.5416681,0.24145593,0.028847976,-0.07606124,0.0020438852,0.27983284,0.15834339,-0.031362962,0.13001657,0.043500863,-0.1482719,-0.13876311,0.009724769,0.10525183,0.09224678,-0.21412443,0.042862687,-0.0011239289,-0.008673369,0.3216669,-0.10247603,-0.027207801,0.04789027,0.055851698,-0.11575372,-0.055685844,0.2475307,-0.131674,-0.10138841,0.04082565,-0.21948087,-0.025076116,0.047537588,-0.027037121,0.16905288,-0.00821644,-0.12822936,0.05060246,0.21838121,-0.21169044,0.048701834,0.15222378,-0.2854086,0.2860303,0.18087225,-0.21849623,0.24743417,0.1138301,0.010991064,-0.07270473,0.12651816,0.23781419,0.020375606,0.12214586,0.017035913,0.094400145,0.12128133,0.09692923,0.06505083,-0.022147993,-0.12575807,0.2586002,-0.02482337,0.35603637,0.09282073,0.031279314,0.11861071,0.25266448,0.05423336,-0.13931538,-0.080227844,0.3373434,0.00084495725,0.02433497,0.10218253,-0.028489053,0.118758105,-0.025419816,-0.12380161,-0.020377742,0.18248805,0.12690493,0.07900576,-0.087660626,0.17984018,0.14609928,-0.08920993,-0.040333617,0.05023787,-0.14064747,-0.010455302,0.15618241,-0.26313084,0.015198434,0.2593598
Eponine::-0.046410587,0.003970899,-0.008017356,0.0037323688,0.092443235,-0.43648428,0.122195564,0.16610911,-0.07653446,-0.20783222,0.36333334,0.0107983425,0.012600057,0.058094475,0.15850012,-0.1259305,-0.1483852,-0.0071071074,0.026686989,0.013388554,-0.23226324,-0.004089051,0.023722388,-0.13370965,0.26354405,-0.083820716,-0.061282087,0.05192287,0.102862716,-0.14651538,-0.12951382,0.16411984,-0.120197505,-0.14216156,-0.020465719,-0.18683335,-0.053198792,0.061811786,0.015644496,0.08884391,0.014213744,-0.09837317,0.057584092,0.20133574,-0.2632961,0.07366343,0.09417638,-0.28277412,0.3181375,0.20741789,-0.2525898,0.2233941,0.077978455,-0.006276667,-0.10552902,0.022545973,0.30811146,0.117818736,0.1853574,-0.022520017,0.012875864,0.065302216,0.0367316,0.12594646,-0.012276338,-0.040966127,0.36816853,-0.10757044,0.24226552,0.09053435,0.01417548,0.12392993,0.29944727,0.04243892,-0.10361237,0.022627011,0.23701541,0.011847148,0.04307315,0.09001552,-0.0023418022,0.04139292,-0.014130068,-0.24531102,-0.07564698,0.15742968,0.09404094,0.08484596,-0.019688198,0.060707245,0.13210611,-0.13769561,-0.030051703,0.06440405,-0.12593086,-0.022663359,0.11934481,-0.17075893,0.010283271,0.28253612
Anzelma::-0.02401676,-0.0030010487,0.0044049765,0.0069257636,0.14736459,-0.50530964,0.1984461,0.062360927,-0.061999224,-0.13729745,0.29500604,0.060517967,0.024692504,0.069220714,0.14625232,-0.16335681,-0.1759756,0.012454613,0.07737673,0.072912924,-0.24935834,0.035339706,0.054887448,-0.056925766,0.30343494,-0.024358299,-0.11381669,0.104203805,0.04966417,-0.16103564,-0.057053376,0.22794187,-0.09832681,-0.17702752,-0.02765092,-0.26925108,-0.10318105,0.013770383,-0.08556433,0.2193445,0.029621612,-0.07825532,0.03655573,0.3125984,-0.2657895,0.1325029,0.12616254,-0.28854075,0.32262862,0.1681144,-0.29260808,0.19465603,0.14445706,-0.07662343,-0.09257037,0.1262864,0.20445842,0.13453904,0.21272391,-0.0178437,-0.011630295,0.13817051,0.06712084,0.15496962,0.0031204403,-0.07559305,0.4036494,-0.10215394,0.2616551,0.11275793,-0.0027866997,0.18025509,0.31048062,0.021312483,-0.12599531,-0.027143613,0.25913832,-0.023008684,0.09259154,0.13129668,-0.08203606,0.12878151,-0.058948215,-0.23088166,-0.0843026,0.1902321,0.09239524,0.17655498,-0.006357557,0.17067447,0.1726738,-0.21524477,0.003292325,0.118123665,-0.09306725,-0.062015638,0.15834166,-0.21064219,-0.03280579,0.30706286
Woman2::-0.035369102,-0.09716337,0.045104783,-0.0918808,-0.08940299,-0.3631857,0.10366465,0.097907595,-0.2016493,0.1602128,0.101793885,-0.040641617,0.12405467,0.06289775,0.15361474,-0.12839262,-0.15575613,-0.0443944,-0.1345169,0.028395278,-0.120113134,-0.05412537,-0.017708244,0.032707356,0.173579,-0.11550895,-0.081544764,0.0077431784,0.025705658,-0.17358944,0.057612292,0.0688252,0.03108673,-0.050404787,0.03738007,-0.12127497,0.0051554833,0.045545947,0.015212628,0.065923184,0.13066515,-0.08361171,0.16208081,0.12096304,-0.054621685,-0.06654861,0.081785366,-0.17282623,0.16094272,-0.0005571395,0.0014847998,0.12893179,-0.0630356,0.07745972,0.060321476,0.10806477,0.14915639,-0.023294244,-0.047908813,-0.027255569,0.04086401,0.12782872,0.12539776,0.04385792,0.13789696,-0.10708873,0.17494391,-0.012717823,0.14851432,0.09261885,0.12733455,0.16924277,0.012088158,-0.16291678,-0.12315493,-0.024538018,-0.004587561,0.10494005,0.08443023,0.01625298,-0.0542112,0.1471245,-0.0591233,-0.08823394,0.060293883,0.18592224,0.3019528,0.07261199,0.057856254,0.21597958,0.09447898,-0.2184609,-0.1524484,0.120855406,-0.056015033,-0.14739501,-0.12893814,-0.0975954,-0.06464719,0.0820202
MotherInnocent::-0.22808298,-0.23220482,0.07380384,-0.16487917,-0.041955747,-0.27668422,0.24036388,0.1968538,-0.10496607,0.114560455,-0.12386724,-0.12406303,0.2895145,0.11767849,0.26214775,-0.3297718,-0.022835357,-0.32814044,-0.10613892,0.15619701,-0.3857146,-0.03663181,0.0199942,-0.10736305,0.24779171,-0.20377226,-0.23124997,-0.029034488,-0.13061394,-0.35040978,0.050707757,-0.04693798,-0.039002385,-0.17313837,0.122486584,-0.10877098,-0.0023112516,0.17825589,-0.1162231,0.11264989,0.34647235,-0.044941768,0.16368383,0.38607457,0.06299852,-0.012697524,0.2793242,-0.058032796,0.3156728,-0.12550336,0.03424117,0.18452774,-0.17394179,-0.22230144,0.2693899,0.11465978,-0.15277524,-0.019955792,0.013831411,-0.092514366,0.12945315,0.4335915,0.057362415,0.05636855,0.2983848,0.019575553,0.35977414,0.10157147,0.26941228,0.02296521,0.048606224,0.29756895,-0.23410457,-0.3405458,0.107215606,-0.17050712,-0.17078097,0.06706685,0.27237353,0.006367171,-0.30516604,0.031167233,0.13808237,-0.013659972,0.19449641,0.5200054,0.3523241,0.17563786,-0.010681319,0.4359486,0.33688,-0.4871903,-0.044251148,0.32092914,0.121161476,-0.35163245,0.01697658,-0.14158243,-0.22485484,0.25519195
Gribier::-0.2936573,-0.19984213,0.093810484,-0.13857195,-0.03082024,-0.18939443,0.16966587,0.25051945,-0.13344416,0.18085559,-0.1334408,-0.19924934,0.38579828,0.09206944,0.43364933,-0.32515728,0.023800746,-0.27507034,-0.19498016,0.11738225,-0.34536642,-0.05750413,0.14142102,-0.08380319,0.14914404,-0.19871524,-0.27682334,-0.0065400093,-0.08751498,-0.33232853,0.07168599,-0.06798706,-0.007369415,-0.17204954,0.12659977,-0.13016096,0.012363257,0.13477719,-0.13209821,0.113797866,0.39720708,-0.029125292,0.21711674,0.35059065,0.092249274,-0.027594863,0.26481777,-0.08683698,0.28385273,-0.07905831,0.022725413,0.19541998,-0.19879024,-0.26542363,0.32602295,0.08332275,-0.14121778,0.07865409,-0.03177534,-0.07241854,0.07056184,0.38898507,0.06873479,0.086796656,0.32623678,0.04587044,0.39140096,0.09218393,0.15680447,0.03150867,0.038390543,0.27475166,-0.22587559,-0.38212657,0.11881176,-0.13718265,-0.23552668,0.08817311,0.27932104,0.016412364,-0.315875,0.056916382,0.120478615,-0.07061253,0.122782335,0.5211609,0.38102168,0.1377464,0.015449122,0.39090273,0.35531217,-0.57496697,-0.095816255,0.32168904,0.2360337,-0.39203197,-0.044200525,-0.076391764,-0.26896006,0.14575438
MmeBurgon::-0.30375475,-0.10880617,0.1957928,0.042805146,-0.24616264,-0.16209987,0.26783583,0.33057213,0.13519557,-0.21707717,0.43865797,0.05718722,0.14334287,-0.044713452,0.039957266,-0.62115836,0.121964514,-0.3825809,0.07223309,-0.058937993,0.0047868276,-0.11472462,-0.042614385,-0.18270262,-0.27356136,-0.28877828,0.11100805,-0.0955424,0.34889024,0.23053826,-0.25885218,0.032928694,-0.16380352,-0.069786996,-0.13229348,-0.24480549,0.3219521,0.011020396,0.31492934,-0.020513063,-0.08067556,-0.28181776,0.15400673,0.24872632,-0.15161839,-0.16516012,0.30863783,-0.5381656,0.24286799,0.5028996,0.07773556,0.4521006,-0.45981082,0.33849764,0.18303312,-0.06901465,0.38977292,-0.15884154,-0.20895232,-0.17502868,0.09363328,-0.2500019,0.06705388,-0.21212621,-0.10639006,0.37958765,0.23620178,0.34313205,0.38196686,-0.21434651,-0.02299186,-0.0012280182,0.19907151,-0.30742326,-0.2208564,0.32853344,0.4614356,0.103300765,-0.008191629,-0.17462642,0.006603125,-0.063619755,0.08470486,0.031069228,0.33362597,0.22451974,0.15293911,-0.41840708,-0.18167235,-0.12207482,0.3392393,0.1736335,-0.27836213,-0.1631659,0.11790579,0.28295332,0.10754143,-0.14210695,0.06646978,0.05165298
Jondrette::-0.39769456,-0.13751401,0.28139517,0.102436535,-0.25594682,-0.19842714,0.2273926,0.4584069,0.13388893,-0.3707035,0.62104344,0.07103871,0.18332799,-0.021488797,0.0784223,-0.7365247,0.11125119,-0.40574595,0.04036076,-0.10552423,0.0099899005,-0.1552076,-0.0066105253,-0.30853906,-0.26266855,-0.4579412,0.110481046,-0.098309435,0.4049865,0.19536147,-0.35725355,-0.021127831,-0.32525817,-0.10922082,-0.13272728,-0.3039534,0.5013129,0.122023754,0.45835957,-0.13074891,-0.09664626,-0.33710933,0.1656428,0.24066345,-0.16462621,-0.2906597,0.30832455,-0.69901973,0.38265842,0.6095707,0.040720537,0.5538033,-0.5245541,0.4258371,0.15635638,-0.24055798,0.5833395,-0.05818363,-0.20802386,-0.2834699,0.15125974,-0.29731518,0.016655406,-0.15430863,-0.11078822,0.4741557,0.45498493,0.34331813,0.4931655,-0.072822876,-0.04208393,0.06687883,0.3578031,-0.3432122,-0.2282034,0.43829918,0.5875882,0.15184169,-0.015845124,-0.2756195,-0.026703456,-0.022395516,0.16624425,-0.029900905,0.37890157,0.36813697,0.2962726,-0.5097013,-0.23352692,-0.10184026,0.39845654,0.11004237,-0.37879944,-0.16103774,0.07009944,0.25439775,0.16595162,-0.19084424,0.074086726,0.13345858
Gavroche::-0.07797168,0.12627491,0.018545955,-0.04389519,-0.116903424,-0.12017247,0.0029167999,0.21583687,-0.09885058,-0.30647406,0.37252033,-0.10609626,0.05870042,0.056657422,0.05695153,-0.1581567,-0.1202438,-0.27159587,-0.07530358,-0.009685208,-0.0964781,-0.09023944,-0.12622246,-0.21475695,-0.010110173,-0.16009265,-0.038208038,-0.030221295,0.15124771,-0.037975304,-0.19896841,-0.064578705,-0.15995923,-0.17907996,0.043982107,-0.15846574,0.1272358,0.1236319,0.15968896,-0.041187033,0.07640485,-0.20901176,0.039306417,0.1937803,-0.26569244,-0.12340282,0.12482464,-0.37044272,0.29365298,0.19414179,0.107491165,0.23898606,-0.22944647,0.32331944,0.039676882,-0.17552173,0.31923684,0.05700182,0.026903521,-0.1908346,0.076262064,0.013556092,-0.06646111,0.048757933,0.13509901,0.14990073,0.26234624,0.24091467,0.11380198,0.21914338,-0.036178403,0.17405035,0.1928461,-0.11275052,-0.2502734,0.21914503,0.24091382,0.044540863,0.028484408,-0.16974127,-0.029800529,-0.040402167,-0.0045436355,-0.08249977,0.27754083,0.09271076,0.197599,-0.19039984,0.06324119,-0.018529424,0.18396835,-0.0018687854,-0.24664003,0.030680418,-0.028469844,0.12065361,0.116310015,-0.18559685,-0.05815533,0.0849498
Gillenormand::0.0769652,0.11904001,-0.05918697,-0.058475643,-0.19074382,-0.42339006,-0.0559266,0.33577636,-0.29316515,-0.031543646,0.39811844,-0.20228033,0.14888497,-0.06943205,0.3353769,-0.2533629,-0.2556938,-0.051558666,-0.29047605,-0.20706381,-0.04907146,-0.06797279,0.020711623,-0.19208601,0.27244595,0.0116610415,-0.11143936,0.08304631,0.17605448,-0.1741263,-0.059406377,0.021865834,-0.0017136602,-0.109752096,0.055835877,0.01429337,-0.2133439,0.056393243,0.27331567,0.0017667036,-0.05347315,-0.10586145,0.29274905,-0.023399418,-0.23842727,0.022358302,0.18666393,-0.33992133,0.1326017,0.085570365,0.06378416,0.038827308,0.0318338,0.20814167,0.0840113,0.011518927,0.43098763,-0.022536954,0.03598866,0.1942798,-0.043482643,0.050549626,-0.04995334,0.17704329,0.075461306,-0.1428167,0.09616685,-0.17060442,-0.04093884,0.01202195,0.10081137,0.13962029,-0.04925843,-0.12066437,0.013184624,0.21329764,-0.071481295,0.16129126,-0.039789196,0.054428354,-0.013695443,0.14332797,-0.08030766,-0.17778465,0.07591799,0.054777816,0.13188165,0.077328846,0.1424656,0.020643441,0.13390131,0.028191864,-0.28317332,0.028424207,-0.10227691,-0.12313145,-0.24695714,-0.060546923,0.0065077185,0.03318681
Magnon::0.026155693,0.039916478,-0.06636803,-0.036025416,-0.08534827,-0.50636196,-0.050596513,0.25067163,-0.17875542,0.04795948,0.37038222,-0.14020494,0.118212536,0.0003146777,0.34562722,-0.25022942,-0.25459373,-0.0060483455,-0.20840856,-0.15553392,-0.11980021,-0.042892706,0.13098231,-0.08457539,0.33861277,0.052582238,-0.11660229,0.090990186,0.14829428,-0.21320264,0.064351775,0.117648125,-0.01752348,-0.14700858,0.033730414,-0.087333865,-0.19942223,0.056655012,0.13263877,0.11813978,0.035768397,-0.07589495,0.29470873,0.05001348,-0.24995148,0.084357075,0.2271037,-0.29148892,0.17397612,0.08011016,-0.10246594,0.07087914,0.14661491,0.02294956,0.035182897,0.08689265,0.31506062,0.07870121,0.14560509,0.20808648,-0.030774834,0.08594508,0.015651975,0.20667408,0.10045627,-0.18089503,0.24844383,-0.18537596,0.043307234,0.025384558,0.03399557,0.18848912,0.054065906,-0.11176716,-0.027658356,0.10868048,-0.046676688,0.13296108,0.010234752,0.116939396,-0.0338098,0.14671837,-0.0032599715,-0.23356977,-0.016913684,0.14010797,0.10852483,0.20873079,0.12510587,0.106214345,0.18967858,-0.21226978,-0.14208919,0.07307171,-0.053864773,-0.15648693,-0.11361656,-0.11609783,-0.01538824,0.14910781
MlleGillenormand::-0.006331634,0.060424257,0.0015418727,-0.06955082,-0.2734791,-0.45954204,-0.08152966,0.34378007,-0.2681629,0.00661082,0.43683583,-0.28231692,0.18266131,-0.027918365,0.2829797,-0.27277827,-0.27339947,-0.11120093,-0.30519202,-0.20231174,-0.022633564,-0.13973373,-0.0847617,-0.09277805,0.31676656,-0.0636422,-0.111152954,0.036981974,0.12315418,-0.13425468,0.059035294,0.024374617,-0.0286192,-0.10844578,0.16323689,0.009815703,-0.15541731,0.02799145,0.29662806,0.06522709,-0.0044191997,-0.039590117,0.32056126,-0.046509176,-0.21775304,0.03400953,0.21022621,-0.29604715,0.13420351,0.040979482,0.090604305,0.058106687,0.03238981,0.2021088,0.09771458,-0.013464958,0.3183364,-0.101520635,-0.02724358,0.15459186,-0.039441917,0.017776534,-0.03909836,0.16797432,0.15054904,-0.18424776,0.029319903,-0.10676183,-0.11271623,0.00061101804,0.06274985,0.17079346,-0.11139428,-0.14711528,-0.031498037,0.17584789,-0.117198765,0.15535693,-0.01980906,0.016194707,-0.057522897,0.110573605,-0.016935334,-0.11711955,0.17010653,0.05342968,0.13689469,0.07386355,0.15466525,0.06331965,0.13714403,-0.04469579,-0.27702036,0.030071892,-0.08249559,-0.09374278,-0.27251956,-0.08171167,-0.034749206,0.026501482
MmePontmercy::-0.052984685,0.08947983,0.08342235,0.044356223,-0.11939959,-0.52845216,-0.10595672,0.39521977,-0.23879306,-0.06763728,0.7099687,-0.3577487,0.2972691,-0.06909377,0.4591544,-0.3684842,-0.3122155,-0.08586233,-0.32330653,-0.26540032,-0.09053759,-0.10797162,0.050316032,-0.2377732,0.5722779,-0.12393374,-0.25315738,0.12139882,0.053102873,-0.15044153,-0.0049140924,0.07892069,-0.120772436,-0.182593,0.25392857,0.052527465,-0.2799636,-0.10827905,0.38348964,0.22729388,-0.0028390312,0.06758642,0.38076788,-0.00059044093,-0.41860285,0.2651053,0.35014883,-0.4309759,0.16181967,0.19051857,-0.19657843,0.04433548,0.22069167,-0.013085961,0.07387837,-0.11505871,0.31197852,-0.027879912,0.10080487,0.29903397,-0.060428258,0.029751884,-0.21576683,0.41761902,0.13219786,-0.15927309,0.23892243,-0.10017831,-0.09794077,0.09519287,-0.1166849,0.21299414,-0.060683984,0.040913276,0.0709732,0.16760883,0.11284003,0.23184139,0.02717588,0.09919454,-0.17817782,0.14076495,0.09261448,-0.2532961,0.061091367,0.06725522,-0.05527831,0.05965509,0.11592469,0.10299882,0.30827925,-0.05371018,-0.35093343,0.07644442,-0.17745638,-0.17731589,-0.11833435,-0.19190732,-0.056759786,0.05782531
MlleVaubois::0.028279394,0.10318508,0.019954767,-0.060531482,-0.23610485,-0.41606423,-0.09749816,0.29996043,-0.33825058,0.051904157,0.44188437,-0.29033145,0.22382873,-0.05505109,0.3484828,-0.22825067,-0.30308425,-0.04421632,-0.3251531,-0.21636495,0.017666053,-0.12186324,-0.009094775,-0.12188733,0.33442238,-0.053032473,-0.13023336,0.073011406,0.12794174,-0.1384304,0.019403163,0.006313221,-0.0016808686,-0.09347657,0.15860876,-0.034814432,-0.17315704,0.00403776,0.31182146,0.05862997,-0.0150873335,-0.05415512,0.34201437,-0.065562285,-0.2643284,0.02296011,0.18047224,-0.38020673,0.112251915,0.06688733,0.054180652,0.03615285,0.068584904,0.23019867,0.10507484,0.0052279998,0.38487908,-0.059728466,-0.05940207,0.16978075,-0.04865339,0.022568109,-0.028533427,0.23670442,0.1462614,-0.1954522,0.045131322,-0.11266983,-0.12651509,0.07157776,0.04711759,0.16541162,-0.06439527,-0.073088735,-0.06646336,0.21046883,-0.10099025,0.23889978,-0.042920776,0.02988065,-0.056750707,0.16561669,-0.05249779,-0.10790846,0.104837745,0.037658647,0.106858134,0.08558876,0.19652542,0.10116061,0.12760316,0.00787715,-0.35887384,0.03764235,-0.16965237,-0.15836492,-0.25817898,-0.109792806,0.0127848135,0.025129193
LtGillenormand::0.07220366,0.092115484,-0.0616861,-0.07100946,-0.23396876,-0.50131613,-0.061989564,0.3401748,-0.24130398,-0.021831391,0.4792466,-0.20274456,0.098058656,-0.050136626,0.26255998,-0.28999022,-0.26398686,-0.11902692,-0.26743096,-0.230561,-0.036507294,-0.086079404,-0.02310617,-0.16945323,0.32540652,-0.0050409283,-0.08025581,0.05280329,0.17966482,-0.13199136,-0.018201593,0.04512867,-0.029932434,-0.10892578,0.09618408,0.025939599,-0.22362253,0.044598956,0.31753427,0.05749971,-0.06038473,-0.094970435,0.34172723,-0.049530324,-0.2910294,0.05676488,0.24457568,-0.36118194,0.13854837,0.101788595,0.06251944,0.06519622,0.06274762,0.21655382,0.09515165,0.018177109,0.4275798,-0.0920305,0.053474907,0.23762892,-0.01639081,0.016795957,-0.044797134,0.1879762,0.111218974,-0.19254658,0.048514675,-0.13103828,-0.004954947,-0.02369801,0.070665784,0.1671249,-0.0644276,-0.11867158,-0.051273707,0.20815445,-0.010890056,0.16990116,-0.05657486,0.050578013,-0.016096724,0.1182706,-0.062572666,-0.16893946,0.13890706,0.027171165,0.10089551,0.076606624,0.16183802,0.0434865,0.20041503,0.05019111,-0.2977082,0.023578923,-0.13220365,-0.08130403,-0.22009575,-0.122765325,0.0023302308,0.061054472
Marius::-0.058942042,0.03257445,0.04922445,-0.05345788,-0.14203331,-0.26749882,-0.002140414,0.14447264,-0.15468995,-0.04927533,0.25856823,-0.18860056,0.1818036,-0.027105877,0.11361778,-0.21903938,-0.19296494,-0.07861793,-0.17634887,-0.090755686,-0.04354098,-0.10467722,-0.061507538,-0.059577867,0.22042644,-0.13866697,-0.08300613,0.042832848,0.065736,-0.07861861,0.049588524,0.038793825,-0.10495617,-0.09291351,0.1288015,-0.119391605,0.010598612,0.03331992,0.20760737,0.02978363,-0.00511691,-0.015730726,0.16451518,0.044934433,-0.19435956,0.019583128,0.107892744,-0.29978147,0.1559597,0.06775599,-0.004504813,0.07392106,0.008882345,0.16041498,0.0534391,-0.045184623,0.22662687,-0.046410847,-0.05015146,-0.036054343,-0.070408,-0.00085442583,0.019829204,0.145977,0.11057023,-0.11258573,0.15111938,-0.061951477,-0.009465488,0.11660026,0.060749996,0.22641546,0.10331123,-0.13637482,-0.20676975,0.19953218,-0.0153389955,0.117988616,0.03923186,-0.023025824,-0.11837889,0.06847904,-0.041533556,-0.13901067,0.18709852,0.14797862,0.17674315,5.5901644e-05,0.16206725,0.059297483,0.14546165,-0.14032233,-0.24217641,0.030671608,-0.058135707,-0.046778727,-0.12567954,-0.055133857,-0.018419102,0.07545658
BaronessT::0.013280244,0.08349378,-0.036954258,-0.06508481,-0.24072994,-0.4508111,-0.10422508,0.31718644,-0.22896919,-0.02166821,0.46942672,-0.21275298,0.1255062,-0.019836806,0.24734557,-0.2844413,-0.2752394,-0.12064236,-0.23100804,-0.2170489,-0.015534674,-0.09885867,-0.018580223,-0.14900523,0.27902496,-0.026919227,-0.070974775,0.01943815,0.19111252,-0.12433932,0.0074584344,0.0026187128,-0.06528544,-0.1025556,0.08220485,-0.03409551,-0.105650395,0.08475587,0.3040794,0.017698072,-0.0134259695,-0.121419996,0.31573856,-0.05054511,-0.2562204,-0.013435329,0.23180625,-0.37863314,0.1323197,0.079424314,0.04147829,0.07686467,0.020784432,0.2568383,0.081067555,-0.02068508,0.38248706,-0.05114706,0.028506123,0.14664353,0.018905949,0.012667091,-0.050435144,0.15718605,0.107869804,-0.1415057,0.096700944,-0.10159486,-0.017281922,0.044774573,0.023480054,0.16160999,-0.00858561,-0.12640657,-0.07764991,0.2154024,-0.053624284,0.19233593,-0.06922373,0.013949413,-0.0104753245,0.10554629,0.03012,-0.11206132,0.13176274,0.0811351,0.11567489,0.08533659,0.14152896,0.09317155,0.17383522,-0.03206808,-0.29138854,0.016558066,-0.120521866,-0.093038864,-0.16217509,-0.15490632,0.02232475,0.095352225
Mabeuf::-0.21309502,0.19204888,0.11028411,-0.033150725,-0.026549943,-0.08046416,-0.054293387,0.39362672,-0.10836578,-0.55866134,0.32547992,-0.23470002,0.16602534,0.035547238,0.1071711,-0.13547626,-0.034011867,-0.1909892,-0.09415821,-0.050019376,-0.16785784,-0.12456378,-0.18804139,-0.32364532,0.008849802,-0.19910428,-0.12711784,0.013869329,0.12693936,-0.042813748,-0.19439712,-0.13606305,-0.28660247,-0.13247795,0.028919257,-0.21945906,0.12695163,0.13752313,0.22391683,-0.09468584,0.05293587,-0.02375255,-0.072931655,0.14442143,-0.20083973,-0.08137913,-0.015465633,-0.40448466,0.37041768,0.2035978,-0.16772307,0.2539562,-0.20896077,0.2441349,0.05253926,-0.3016381,0.27381882,0.2530572,0.10154729,-0.33371451,-0.008509188,-0.043556374,-0.105345786,0.17051418,0.07714144,0.16798584,0.43415526,-0.028895551,0.060579017,0.33986396,-0.061820153,0.19490695,0.4209619,-0.10939239,-0.2895863,0.2797394,0.1366416,0.10379057,0.014460974,0.012071837,-0.15874119,-0.07669478,0.086055405,-0.26985464,0.11849741,0.24929726,0.23111561,-0.103321575,0.10417109,0.09644986,0.19337007,-0.25390276,-0.2929161,0.09934759,-0.018084247,-0.082346246,0.08410303,-0.07088688,-0.09069619,0.28456476
Enjolras::-0.05273819,0.12133245,0.056911193,-0.04344325,-0.069916904,-0.07973077,-0.033784464,0.23062229,-0.12977213,-0.34167027,0.2209658,-0.17476916,0.07960003,-0.058783874,0.037406433,-0.017182086,-0.100350484,-0.16380453,-0.078022,-0.023451895,0.0067467582,-0.071329914,-0.13629434,-0.20287398,0.012162493,-0.13939416,-0.04673388,0.002272281,0.0410706,-0.093511775,-0.17860952,-0.14692521,-0.18792051,-0.07279758,-0.013753099,-0.16453797,0.15073486,0.12073113,0.22423196,-0.13419984,0.04758597,-0.11599391,-0.032579746,0.13305345,-0.15532985,-0.12385936,-0.04681563,-0.29019806,0.31706014,0.16956104,0.018167747,0.20302595,-0.25094628,0.2584057,0.028473476,-0.19193146,0.3873096,0.0863221,0.0015906976,-0.2367474,-0.016938234,0.037806742,0.028062282,0.15433547,0.11229502,0.04026717,0.2913276,-0.0113540795,0.043716963,0.27005246,0.095546216,0.17699361,0.21493055,-0.13089193,-0.21857843,0.2576203,0.15816586,0.04993669,0.09451232,-0.11279059,-0.07644965,0.11279635,-0.06528453,-0.17661886,0.14121981,0.14210305,0.32526597,-0.09938068,0.12364823,0.10225625,0.12797973,-0.13050005,-0.39154446,0.08108642,-0.09726298,-0.059205014,-0.11369988,-0.08299445,-0.09200708,0.1606697
Combeferre::-0.09958463,0.19297358,0.076980054,-0.03501344,-0.09184675,-0.0514655,-0.055735886,0.2452182,-0.19691074,-0.39885566,0.30297855,-0.17950636,0.1152537,0.003557286,0.05595586,-0.018472204,-0.14815289,-0.18722157,-0.09876663,-0.001592003,-0.04950544,-0.10416937,-0.17450118,-0.23007251,-0.06467093,-0.17007765,-0.06779814,-0.018256258,0.13950175,-0.061859593,-0.20885889,-0.13339709,-0.19507927,-0.12515683,-0.010055038,-0.18662201,0.19026525,0.1130645,0.19859399,-0.15029445,0.069270305,-0.16710679,-0.04273365,0.14271288,-0.24284573,-0.17718329,-0.02750266,-0.35682696,0.33938965,0.18588704,0.03874117,0.2069112,-0.24951282,0.3814912,-0.024350997,-0.2749525,0.39877042,0.18146987,0.028061958,-0.34150365,0.05110941,-0.021287592,-0.054547925,0.10888529,0.12664594,0.15160574,0.36390895,0.11067466,0.034569107,0.33947876,0.020878583,0.19090015,0.3056435,-0.13355666,-0.25571382,0.24886233,0.16898693,0.081985235,0.056356136,-0.13522935,-0.04896377,0.049061988,-0.034003463,-0.15875602,0.15450755,0.13826704,0.29996935,-0.14040516,0.11012243,0.030702282,0.076112166,-0.12719393,-0.299675,0.037085816,-0.07640305,0.00636807,-0.033496853,-0.081875265,-0.027756745,0.10304334
Prouvaire::-0.114074096,0.14651312,0.13156489,0.014355902,-0.054770265,-0.023064056,0.0050131455,0.13787426,-0.18807234,-0.35563836,0.25947005,-0.14937901,0.1738667,-0.01961181,0.098187156,-0.027570797,-0.16405934,-0.087776065,-0.10643085,0.01273701,-0.05321219,-0.13348633,-0.099784054,-0.17177138,-0.020556299,-0.23372658,-0.069159836,0.06250248,0.08220922,-0.092350625,-0.19265531,-0.07226511,-0.16970654,-0.1264057,0.024177147,-0.2317302,0.2225147,0.107138395,0.17708346,-0.11999372,0.03233948,-0.10832872,-0.0682756,0.14462772,-0.22620565,-0.15155113,-0.098665334,-0.34733626,0.33567667,0.18712509,-0.0027590496,0.17312112,-0.17816876,0.29025823,-0.106606364,-0.25956213,0.4088825,0.1814864,-0.032307334,-0.38499805,-0.026294261,-0.035928976,-0.026703974,0.15404701,0.07999518,0.12930751,0.3792216,0.037873082,0.0068414295,0.3482367,0.0048554363,0.22188753,0.33796644,-0.08453386,-0.24518974,0.27508008,0.1317949,0.09982766,0.09358737,-0.18750238,-0.10695687,0.0638527,-0.03014992,-0.13482139,0.15681413,0.16922808,0.2680287,-0.1344724,0.12621844,0.016878787,0.037278526,-0.11276165,-0.2827727,0.041208856,-0.14573205,-0.009373571,-0.0015619159,-0.089514166,0.023084575,0.19341123
Feuilly::-0.11888602,0.21014753,0.09972778,-0.020016873,-0.039067406,0.08426226,-0.009686665,0.19061911,-0.15258172,-0.47440296,0.19662014,-0.24316901,0.13088283,-0.075935945,0.04622682,0.07189142,-0.11102492,-0.15855242,-0.06839382,0.03253851,-0.04108264,-0.120679446,-0.21107827,-0.1841221,-0.07695278,-0.15608138,-0.06506379,0.025174024,0.01628544,-0.05818189,-0.21655254,-0.13505568,-0.14897795,-0.101748146,0.007748674,-0.23091021,0.1508513,0.04816779,0.16631405,-0.08999177,0.052283835,-0.08040931,-0.105392426,0.17632645,-0.21553665,-0.08475014,-0.13367008,-0.2854648,0.3836904,0.20564224,-0.011041035,0.24026532,-0.26537326,0.2555991,-0.027282028,-0.2208849,0.40732747,0.12884049,-0.018996984,-0.36755365,-0.05362553,0.0015628331,0.029215094,0.18256879,0.13522622,0.0873043,0.337318,0.026379412,-0.025893118,0.30937794,0.07796291,0.20447895,0.28824693,-0.12299341,-0.30244586,0.27782953,0.1517286,0.04385903,0.15173662,-0.13569033,-0.113416575,0.06615352,-0.123119906,-0.19092067,0.15766928,0.14209881,0.3318487,-0.12682605,0.16526042,0.03713539,0.08716616,-0.12831315,-0.3596686,0.071545824,-0.11808742,-0.017972711,-0.09660457,-0.0630771,-0.057866953,0.20219593
Courfeyrac::-0.08755643,0.16141577,0.047266684,-0.021348562,-0.0888766,-0.0033625804,-0.04664146,0.1774298,-0.13651969,-0.33252642,0.17522962,-0.18645748,0.111559175,-0.046532307,0.09925898,0.014350687,-0.09115962,-0.14370528,-0.105066024,-0.011083127,-0.033413086,-0.114550196,-0.078039214,-0.16040844,-0.059796177,-0.15339673,-0.08972736,0.047567617,0.08824442,-0.102214515,-0.1894135,-0.10660528,-0.119258866,-0.119051546,0.014443016,-0.17204727,0.16328476,0.16102533,0.17898811,-0.12141308,0.06497373,-0.14164355,-0.017677136,0.1284551,-0.19830954,-0.1492558,-0.052251924,-0.33434922,0.3216811,0.18291402,0.06557681,0.20042744,-0.24871653,0.2699011,-0.020581884,-0.24309285,0.42139065,0.13111418,-0.021174297,-0.30712125,-0.023634536,0.006579885,-0.031073008,0.14020552,0.1189753,0.0894913,0.30860323,0.040573277,0.024039682,0.29088533,0.04641997,0.23538332,0.18538739,-0.12188185,-0.19459626,0.25329402,0.092990294,0.07327153,0.07456216,-0.18988384,-0.10709864,0.06989376,-0.05745873,-0.10576666,0.17949544,0.1629402,0.29902834,-0.09681831,0.11710907,0.10822863,0.106727496,-0.10885301,-0.34992674,0.098067105,-0.13473436,-0.07055397,-0.049190983,-0.15607792,-0.02532534,0.18659355
Bahorel::-0.16485523,0.15409912,0.09929567,-0.06481646,-0.046382908,-0.033137638,0.01768413,0.23750669,-0.1645025,-0.42150655,0.23129012,-0.20212923,0.17134847,-0.0066319923,0.08957363,-0.016374085,-0.07689212,-0.1804173,-0.06177278,0.038487382,-0.1025422,-0.10457057,-0.16437072,-0.18719468,-0.034333207,-0.18537249,-0.094607435,-0.0030297844,0.08610461,-0.07677531,-0.20432499,-0.12121128,-0.18795156,-0.1026872,0.008581381,-0.23236239,0.19270086,0.1229546,0.17047018,-0.13769591,0.07416067,-0.102215834,-0.0949748,0.1914978,-0.18748717,-0.12206733,-0.08247396,-0.3230255,0.35135067,0.20400482,-0.0077284114,0.2561028,-0.27722663,0.28664225,0.0049653286,-0.2387111,0.34115523,0.15170872,-0.014157442,-0.3732866,-0.013811624,0.005352607,0.0035652868,0.10163556,0.102307424,0.15548842,0.37756804,0.056878563,0.019865328,0.31866705,0.013878593,0.17316101,0.32603407,-0.10206497,-0.27624345,0.28359935,0.11921311,0.07445299,0.08383057,-0.1209592,-0.093918756,-0.017851751,0.0038272336,-0.12164301,0.15775202,0.20926853,0.2612593,-0.104882486,0.106457576,0.07122874,0.11710322,-0.17176028,-0.33398017,0.09047111,-0.10095483,-0.022118375,0.02219015,-0.11526038,-0.036185015,0.2423968
Bossuet::-0.104691565,0.13735005,0.049727403,-0.035338547,-0.07371747,-0.028061248,-0.02549216,0.19116975,-0.16506676,-0.33996356,0.22077666,-0.14563906,0.119313754,-0.011367374,0.07732599,0.026825204,-0.0893094,-0.17414996,-0.113627076,0.025373785,-0.05704278,-0.097419135,-0.12542881,-0.17098269,-0.10661882,-0.16136298,-0.07546253,0.011550894,0.11773348,-0.07878459,-0.2049256,-0.10443402,-0.16518383,-0.11215869,-0.008313277,-0.16699614,0.16859381,0.112693444,0.17945047,-0.14212038,0.079427,-0.15413062,-0.07462224,0.16437969,-0.2385033,-0.16780911,-0.043908425,-0.35550693,0.36234972,0.23749577,0.056275673,0.25170374,-0.31718314,0.33586803,-0.0122872535,-0.31091836,0.404539,0.18114878,-0.00036281714,-0.32606044,0.01814478,-0.02886254,-0.023313215,0.10454697,0.12726149,0.15684281,0.3364644,0.10630347,0.0011903455,0.3049542,0.03501787,0.16892213,0.22936754,-0.13312533,-0.19918704,0.24444333,0.14386441,0.04921599,0.095572814,-0.15927646,-0.05824158,0.048500266,-0.0515516,-0.14917415,0.15971206,0.13358639,0.3107249,-0.15507632,0.095372334,0.013548769,0.077243224,-0.13165559,-0.31512177,0.045493267,-0.042146813,-0.00095067715,-0.07785576,-0.06711683,-0.06042948,0.073369525
Joly::-0.08010883,0.19127458,0.06804733,-0.026109224,-0.05965539,-0.011889693,-0.07187015,0.17622504,-0.19162835,-0.37228766,0.25920916,-0.22197013,0.1367002,-0.042306375,0.0892813,0.0409363,-0.17104144,-0.13343868,-0.12792479,-0.004142121,-0.029984737,-0.10308731,-0.12827018,-0.1867901,0.0036056365,-0.14548592,-0.10049104,0.039778523,0.06376555,-0.108476326,-0.18952796,-0.114277564,-0.16533914,-0.1390038,0.04997379,-0.18672195,0.13487352,0.09853249,0.18909177,-0.11578306,0.036627118,-0.11864823,-0.060217805,0.11463684,-0.25162762,-0.115842395,-0.08086842,-0.33442843,0.3282621,0.17525731,0.034636647,0.18463725,-0.19700803,0.3173199,-0.060722593,-0.26112562,0.42970592,0.1660829,-0.002742843,-0.3215406,-0.033050045,0.006414725,-0.013873382,0.18755464,0.14944291,0.078613676,0.3540924,0.047079083,-0.040211167,0.36264616,0.030540347,0.23062977,0.2887591,-0.08985732,-0.26655594,0.28358158,0.12386972,0.0885893,0.09168544,-0.16961093,-0.0927184,0.08001479,-0.08254829,-0.15894389,0.18308692,0.13697927,0.29787004,-0.100563265,0.18319853,0.04774907,0.091744564,-0.1168168,-0.36015788,0.06285222,-0.15981841,-0.026113797,-0.071021385,-0.08533126,-0.018780243,0.14797927
Grantaire::-0.1364439,0.1627831,0.10021345,-0.026772158,-0.07663422,0.024720723,0.0072248704,0.23062737,-0.19048958,-0.42382455,0.23227094,-0.1857368,0.1593689,-0.015581765,0.09659251,-0.0097626345,-0.11645332,-0.19266315,-0.111238405,0.031720407,-0.06961712,-0.12673207,-0.1555775,-0.24081822,-0.0660492,-0.20794877,-0.064602055,0.00949864,0.050915327,-0.10601917,-0.23821986,-0.16366324,-0.16586329,-0.11691751,0.0014578637,-0.18560547,0.18827708,0.12878008,0.1880447,-0.16723642,0.08016071,-0.13408814,-0.08637611,0.19258194,-0.20110855,-0.17272599,-0.07373963,-0.29596707,0.3837231,0.16710457,0.071549855,0.22290735,-0.3033425,0.29311764,-0.03291651,-0.28201544,0.39059418,0.17198488,-0.018119344,-0.37630886,0.010318446,0.02811174,-0.034554217,0.14799035,0.150012,0.17110345,0.3859416,0.10134516,0.013512584,0.32451692,0.03198235,0.19907157,0.2709762,-0.1514716,-0.23305653,0.27372393,0.15134192,0.08188159,0.13308467,-0.1960972,-0.10653909,0.04028925,-0.045406144,-0.16787986,0.18186928,0.16275704,0.3299072,-0.17156677,0.11571751,0.028608197,0.08009516,-0.12413736,-0.32782108,0.065401234,-0.080984615,-0.024498168,-0.036723237,-0.048435666,-0.06291476,0.16978091
MotherPlutarch::-0.31747916,0.07854711,0.1591217,0.021798467,0.024468454,-0.07299101,-0.05895039,0.45667836,-0.0028713918,-0.6461292,0.37393403,-0.2899689,0.238072,-0.023045408,0.12824628,-0.23236836,0.06802388,-0.21419187,-0.18090996,-0.11813868,-0.18997933,-0.115713365,-0.11462658,-0.33061895,0.021914106,-0.35841244,-0.19882882,0.0060121394,0.1576496,-0.07149283,-0.18607092,-0.11573265,-0.37122363,-0.10370959,0.052266806,-0.14727364,0.26713267,0.17351457,0.3247139,-0.18168217,0.016524225,0.045066487,-0.014754445,0.08607932,-0.1616431,-0.023270898,-0.060045376,-0.3978091,0.3521325,0.30832055,-0.21940948,0.35431904,-0.22908773,0.13190326,0.09086914,-0.42099565,0.28940728,0.2206213,0.05290446,-0.31266826,-0.05216771,-0.09757684,-0.06900989,0.13129406,0.001189598,0.22356202,0.52767354,-0.11364939,0.12124647,0.3259012,-0.012569599,0.18428807,0.4183548,-0.075755544,-0.15600349,0.3084171,0.17193854,0.055118486,0.011385793,-0.015922405,-0.22329937,-0.13197744,0.13353027,-0.3059064,0.09139721,0.36017367,0.24854118,-0.12746535,0.02466171,0.06491855,0.2802128,-0.37525657,-0.24118333,0.12041296,-0.0065963236,-0.0834866,0.054943476,-0.036352832,-0.08980749,0.30925056
Gueulemer::-0.012416531,-0.08086675,-0.04072222,0.008133332,0.13423605,-0.47894725,0.17592257,0.025459485,-0.0015708436,0.005590239,0.28058827,0.2059783,-0.09163701,0.14218251,0.07203245,-0.09510511,-0.09515267,0.03235587,0.15775725,0.12341011,-0.21892904,0.089947395,0.100405954,0.0034305688,0.21105249,0.01832913,-0.000651067,0.029014703,0.12614451,-0.080673665,-0.06861251,0.24239287,-0.15713717,-0.1274599,-0.019794216,-0.28775924,-0.029358342,0.03674213,-0.09477538,0.17460881,0.03607107,-0.202066,0.032196112,0.24513073,-0.2442655,0.030186774,0.1914665,-0.34377638,0.30784506,0.26740322,-0.26892874,0.30178422,0.07052486,0.016058836,-0.040559724,0.112766206,0.26204336,0.1534313,0.19779176,0.052914377,0.11482533,0.06982107,0.10373691,0.056136522,0.00020671939,-0.06398859,0.34565812,0.031342503,0.36316863,0.1242713,-0.0012641659,0.08687261,0.3457172,0.012163022,-0.21535903,-0.051600102,0.3864899,-0.012621946,0.03674579,0.14230894,0.04218719,0.11571797,-0.03446619,-0.17017259,-0.043838695,0.19865732,0.16780679,0.08141138,-0.054982163,0.1203679,0.1971015,-0.18264797,-0.07171395,0.0061380616,-0.021584356,0.030172015,0.19268174,-0.24604581,-0.021142794,0.17110007
Babet::-0.018533602,-0.11589361,-0.020934379,0.042373072,0.16085574,-0.5150308,0.15588038,0.055144206,0.023123832,-0.00916076,0.312612,0.19647148,-0.10721076,0.16814703,0.058778398,-0.12966816,-0.08979341,0.035395283,0.13808402,0.095365256,-0.23802806,0.06643961,0.06841801,-0.030164054,0.26735628,-0.08642854,-0.020852797,0.047709573,0.124417916,-0.111878596,-0.07979099,0.2898662,-0.17591162,-0.11598163,0.035245255,-0.21207337,-0.015514393,0.05003518,-0.05966183,0.18850833,-0.010603704,-0.15644923,0.0416927,0.18868333,-0.24278158,0.054071713,0.18639398,-0.32983232,0.31482726,0.2956353,-0.29617512,0.33707696,0.117833644,-0.025055354,-0.09375441,0.056013938,0.2751509,0.13137484,0.20135887,0.05218286,0.13262342,0.081785165,0.108625256,0.045409705,-0.04668412,-0.055137374,0.34174782,0.00011923006,0.38601768,0.0943273,-0.010297199,0.08612995,0.35674366,0.058074515,-0.15432286,-0.108024485,0.4682644,-0.048037015,0.013489899,0.13814619,0.016221443,0.09080084,-0.00084302446,-0.21589334,-0.058469653,0.21739171,0.15477304,0.034866925,-0.13633576,0.075679325,0.2098493,-0.18003692,-0.0009982691,0.0021615627,-0.06422179,0.073256806,0.2211015,-0.26223212,0.020619348,0.21647571
Claquesous::0.0072889747,-0.0809595,-0.011687148,-0.0006962419,0.14339706,-0.46589056,0.1777438,-0.021583065,-0.06871413,-0.0022923085,0.24830256,0.17167903,-0.09931135,0.16109726,0.024952197,-0.016419867,-0.17082839,0.06870635,0.15281963,0.14614794,-0.216854,0.0787196,0.021029321,0.015832406,0.2749019,-0.02782172,-0.029704837,0.038325105,0.07026186,-0.14684546,-0.069400586,0.24270135,-0.15349504,-0.12418544,0.0358688,-0.28748676,-0.004212918,0.046538685,-0.100424305,0.16628717,0.013773768,-0.20931497,0.0050538364,0.2323792,-0.24011019,0.018427525,0.121394515,-0.31532967,0.32296526,0.19443518,-0.23936595,0.29847836,0.09069117,0.058854293,-0.12773012,0.11337227,0.27570698,0.111345746,0.15440007,-0.019476585,0.132948,0.12712361,0.14352503,0.062759906,0.007609796,-0.09821507,0.3284428,-0.0075107575,0.34958658,0.1622034,0.01631868,0.1069578,0.35731477,0.046912655,-0.1924362,-0.10565973,0.35351804,-0.006301333,0.04200078,0.10348018,0.015343198,0.15272447,-0.07077739,-0.14534545,-0.046161205,0.19880302,0.22235768,0.12190349,-0.048598204,0.16020297,0.12122605,-0.1776876,-0.038465336,0.024088753,-0.132605,0.010940466,0.13574548,-0.24164978,0.03954074,0.20467249
Montparnasse::0.0016407695,-0.06822421,-0.010711609,0.00054371264,0.11579122,-0.44399297,0.14770047,0.01790436,-0.0033123326,-0.028852625,0.28150374,0.17164098,-0.0963795,0.11086115,0.018615225,-0.089152955,-0.11867401,0.05127389,0.15277903,0.078064874,-0.16911137,0.07011955,0.015967406,0.0025552472,0.23230508,0.010675456,0.0052289367,0.039800756,0.09708431,-0.09697696,-0.060754843,0.20827587,-0.16106285,-0.08359065,-0.0076477174,-0.28057724,-0.007212932,0.030621612,-0.02239827,0.157105,-0.033683307,-0.16721494,0.035394832,0.19531444,-0.24034989,0.021825945,0.15148011,-0.3465985,0.28152102,0.24270427,-0.2614151,0.3041922,0.06440431,0.083347365,-0.06468923,0.103276365,0.302835,0.08583623,0.13151337,0.00010513664,0.11467061,0.06382791,0.15526402,0.047006782,-0.018179068,-0.08968177,0.31100625,-0.026656847,0.33470407,0.11707616,0.01611526,0.06375961,0.37205407,0.019634057,-0.22696932,-0.02295318,0.3862177,0.029785383,0.031227445,0.13771655,0.036046866,0.13456018,-0.03718402,-0.1531148,-0.04174482,0.21248738,0.19530983,0.08814307,-0.053291257,0.12783419,0.18660569,-0.15558411,-0.09876435,-0.00013124972,-0.10682967,0.037571628,0.14371303,-0.2720695,0.01388756,0.25265625
Toussaint::-0.05113205,-0.074285746,0.031115724,-0.06326828,-0.055426963,-0.39051527,0.14117002,0.11958165,-0.15917717,0.07538453,0.16214092,-0.042596534,0.13216521,0.049975432,0.18003814,-0.17319196,-0.12241454,-0.06010418,-0.08527358,0.026236264,-0.14229186,-0.0455001,0.005271523,-0.00055139395,0.1969626,-0.1172426,-0.07940313,0.03241056,0.056406707,-0.13092071,0.010247102,0.1122143,-0.0009024514,-0.07033555,0.043605078,-0.14655884,-0.026325002,0.031651452,0.0011907888,0.109835304,0.090617165,-0.069281295,0.15904856,0.16661078,-0.10462173,0.0029264858,0.117057316,-0.21244745,0.19675183,0.069055416,-0.06838875,0.14503013,-0.014377465,0.021075265,0.061535154,0.121961914,0.16171245,-0.021170767,-0.009063703,-0.0055526136,0.0069942162,0.115625955,0.10329134,0.054388575,0.08841957,-0.10790448,0.1764875,-0.041543387,0.1626181,0.0465626,0.09332178,0.15124473,0.04359371,-0.101549916,-0.10525901,-0.0138228275,0.030742953,0.05553559,0.06586273,0.043953273,-0.059696987,0.10735251,-0.063044935,-0.1142867,0.024712835,0.1708806,0.19221164,0.08605579,0.028712012,0.16903159,0.12355755,-0.17670012,-0.11088289,0.10205308,-0.036601584,-0.1055571,-0.045193847,-0.13967767,-0.05941392,0.13321593
Child1::0.01100927,0.2263322,-0.2083754,-0.1793185,-0.17241746,-0.08640855,-0.058681034,0.17151283,-0.01947107,-0.292014,0.2692595,-0.013521121,-0.15653735,0.14696886,-0.17006159,-0.07692315,0.0022907928,-0.53886396,0.1113426,0.08360197,-0.09287147,0.031432524,-0.2136939,-0.25690576,-0.1633872,-0.038032647,0.003097463,-0.16246997,0.21499957,0.06843157,-0.28460222,-0.14910996,-0.26510838,-0.18146549,0.041869752,-0.25329202,0.1302411,0.23723991,0.13248837,-0.004600089,0.23116414,-0.42723835,0.06218986,0.3147719,-0.3698871,-0.25645867,0.36522228,-0.5978625,0.4227336,0.27931628,0.22647062,0.38462344,-0.4862401,0.5832668,0.2799999,-0.19231462,0.38691527,0.024561405,0.104275145,-0.1970688,0.24929224,0.11111566,-0.088403836,-0.019935263,0.29361606,0.12075988,0.22830492,0.5144236,0.31901327,0.35570905,-0.0010398647,0.26235986,0.14567669,-0.24508514,-0.51658374,0.24331492,0.4832752,-0.017575944,0.009241541,-0.16463144,0.046103396,-0.039257467,-0.046054505,-0.037048228,0.43786412,0.092899896,0.38319328,-0.2571966,0.100769825,0.17152868,0.4408349,-0.035670947,-0.47573256,0.08589821,0.10665689,0.16294143,0.2606461,-0.47895372,-0.25634918,0.0023669794
Child2::0.0688718,0.29524478,-0.26309162,-0.1890325,-0.19304465,-0.12970957,-0.05083724,0.21521838,-0.054770038,-0.33258227,0.36914626,-0.048214898,-0.20325008,0.16097993,-0.12590525,-0.040855896,-0.044730276,-0.584416,0.05649,0.037931815,-0.07188743,0.0004895461,-0.25700974,-0.2980535,-0.1687942,0.052701917,-0.008610868,-0.13116372,0.28484002,0.043632075,-0.29231718,-0.13645992,-0.21346977,-0.24204119,0.04983723,-0.22756332,0.03197248,0.22762726,0.1457053,0.012225487,0.23916598,-0.47347486,0.09076713,0.36068052,-0.47687724,-0.25110582,0.38418922,-0.6177834,0.38967234,0.26381487,0.2954408,0.37449566,-0.47195274,0.65325516,0.28857198,-0.14580977,0.4152033,0.05094508,0.17480403,-0.1374157,0.2283535,0.1269128,-0.11064008,-0.03884352,0.3254695,0.09020413,0.17472671,0.5476989,0.25940055,0.35864738,-0.025962837,0.24444392,0.14154416,-0.24024378,-0.5564188,0.23506391,0.49731496,-0.021837752,-0.022238528,-0.13250253,0.09126409,-0.06441312,-0.09869002,-0.07572837,0.44932488,0.02280536,0.3647346,-0.24012448,0.13773052,0.13504024,0.4268545,0.01514305,-0.48223573,0.0820874,0.09744634,0.22876397,0.24161115,-0.50593245,-0.27133027,-0.017271308
Brujon::-0.015794529,-0.06371312,-0.042479526,0.006924777,0.14011803,-0.49823633,0.16793044,0.06889583,0.014015856,-0.115104444,0.3128991,0.16997688,-0.10500265,0.14852665,0.014660682,-0.12584318,-0.09771516,-0.016816135,0.15438296,0.093411036,-0.23357926,0.07591438,0.035120185,-0.061115082,0.24469927,-0.055848792,-0.029279843,0.050728194,0.11837504,-0.11168937,-0.09858004,0.24778388,-0.22351204,-0.13200755,0.0130059235,-0.24140245,0.017177505,0.09946653,-0.028144073,0.13320601,-0.014252967,-0.17330872,0.002374745,0.22014341,-0.25222403,0.036907896,0.1639562,-0.3573214,0.3233634,0.26893994,-0.26927215,0.3061242,0.076935485,0.031539135,-0.08707865,0.021096837,0.27420422,0.13223112,0.23178595,-0.01702083,0.11014197,0.06818863,0.06622312,0.063475735,-0.04108361,-0.057144135,0.36484504,-0.028037885,0.38272002,0.13547811,-0.015365957,0.12616305,0.39394727,0.032201342,-0.18805334,-0.025861083,0.42301673,-0.050315477,0.016283583,0.1162826,0.0021821558,0.06388844,0.0053594788,-0.20842884,-0.03032409,0.22093293,0.15231887,0.060454905,-0.07297784,0.09547829,0.22245374,-0.18639436,-0.039846998,0.019350376,-0.07396073,0.05558677,0.23989964,-0.26119405,0.012086133,0.25662005
MmeHucheloup::-0.16114259,0.15890592,0.09406808,-0.020347519,-0.07742437,0.047076266,-0.00029629152,0.24190187,-0.11239015,-0.4463124,0.22789615,-0.20455162,0.15823314,-0.031263396,0.05317915,-0.08846736,-0.061228875,-0.26383042,-0.08585152,-0.00040913446,-0.06549787,-0.11517985,-0.15927763,-0.2591519,-0.08831457,-0.21386667,-0.09369264,0.006632147,0.07225161,-0.07545451,-0.22578235,-0.16083674,-0.20536096,-0.1521572,0.015241743,-0.21459395,0.2137885,0.13924955,0.20395118,-0.11852201,0.08999877,-0.13251758,-0.041023135,0.20876777,-0.21141978,-0.15196235,0.0025091497,-0.3588844,0.3672415,0.18726161,0.047754593,0.23695566,-0.3015901,0.2870667,0.039827544,-0.2655912,0.3485352,0.1381218,-0.006459598,-0.37456024,0.02050041,0.017748836,-0.043195523,0.13999702,0.14664584,0.1827201,0.39073035,0.119918026,0.04870457,0.30350175,-0.00440628,0.23245566,0.2461178,-0.17922007,-0.23220253,0.28257906,0.15540001,0.07527255,0.11358483,-0.17961326,-0.14268214,0.013039969,-0.0014392552,-0.13755178,0.24361332,0.21469966,0.3046612,-0.15674141,0.108174,0.08010039,0.17696145,-0.14020689,-0.33276153,0.09060171,-0.062241066,-0.026645133,0.009237315,-0.10982211,-0.07320724,0.20191969
