Napoleon::0.22165954,-0.5234219,0.16999249,0.026041266,-0.17466855,-0.29717296,0.31876004,-0.071125016,-0.1304501,0.6463565,-0.18485457,0.35150215,0.11531836,0.21824448,-0.025577845,-0.22980492,-0.055853445,0.16985403,-0.085336186,-0.10654039,-0.111841135,0.08823161,-0.044353716,0.3917262,0.46555582,-0.42600358,0.15925291,0.08782913,-0.23797907,0.06106734,0.33991653,0.17167948,0.19856682,0.20774068,0.27031064,0.15831698,0.20276631,0.0007540791,0.20786704,0.14346848,-0.06769351,0.030800126,0.3142706,-0.19794554,0.3074014,-0.25384766,-0.010871252,-0.0056417645,0.0408525,0.042438067,-0.054506943,-0.04071162,0.048159417,0.08492466,0.07126401,0.086882174,0.30676714,-0.27923006,-0.5200667,0.2569646,-0.010704911,0.2513177,0.23672768,-0.2528681,-0.2774416,-0.336273,-0.2099958,-0.38213217,0.22502883,-0.008591349,0.39270553,0.03559471,-0.2717769,-0.25881717,0.12848897,-0.01310701,-0.1217044,0.13434874,0.017252093,0.13493888,-0.11582695,0.37097746,0.0050605703,0.23250356,-0.084432565,0.16878231,0.3558651,-0.04993596,-0.07683734,0.26443955,-0.017079009,-0.03907137,0.038755376,-0.034984127,-0.02584107,-0.3236682,-0.4408526,-0.023266353,0.038386036,0.15330958
Myriel::0.22363591,-0.46525028,0.2251124,0.020698735,-0.13780443,-0.27022654,0.3270176,-0.0958159,-0.14882523,0.50180674,-0.23829132,0.31591222,0.112596914,0.16291498,0.033037316,-0.06293549,-0.013398577,0.2258106,-0.05397178,-0.099712476,-0.052024033,0.0006444224,-0.020684818,0.37819588,0.21541038,-0.3625227,0.16128023,0.15120277,-0.27629107,0.01238979,0.24467538,0.096969515,0.24528305,0.14734155,0.18826747,0.087745555,0.23344366,0.001794668,0.1521078,0.15182012,0.03217005,0.014726881,0.24341366,-0.16956705,0.27064043,-0.26340145,-0.1460569,0.041711755,0.08042598,0.12628329,-0.053137667,0.012961936,-0.033964325,0.1381674,-0.03752828,0.017818144,0.39719814,-0.2171815,-0.57914174,0.097863175,-0.08158931,0.20716411,0.3546123,-0.24096248,-0.22817327,-0.3093075,-0.16936307,-0.314689,0.16324222,0.05479513,0.36744496,-0.0012408154,-0.19624008,-0.24341947,0.082833156,-0.0036286653,-0.07318078,0.07942894,0.06931065,0.001219048,-0.13643233,0.3709054,-0.073171064,0.15463045,-0.09620773,0.14270937,0.4202579,-0.13412622,-0.058507316,0.22151361,-0.06441962,-0.025783734,0.036681745,-0.031902656,-0.06528334,-0.27008918,-0.4627168,0.038310837,0.053991243,0.16035724
MlleBaptistine::0.19115226,-0.45721945,0.20044802,-0.021191705,-0.17728096,-0.2601252,0.32223445,-0.044032227,-0.22447382,0.5366679,-0.16135965,0.33343986,0.18723218,0.21896866,-0.045849748,-0.10710524,0.010033081,0.15431511,-0.10397072,-0.11680085,-0.07695556,0.08196124,-0.10266579,0.41274494,0.36007625,-0.46579787,0.19990678,0.09183805,-0.24212752,0.052982144,0.27151963,0.11780869,0.1936119,0.14841756,0.23691429,0.17034969,0.25057152,0.034200486,0.18299171,0.045269545,-0.09149257,0.035492,0.245831,-0.17603582,0.29829538,-0.31961083,-0.09837043,-0.0020284986,0.09793687,0.09347412,0.0114281215,0.020369913,-0.03776221,0.15872422,0.011150625,-0.015003033,0.3556546,-0.238642,-0.5759938,0.1366848,-0.08275998,0.19787855,0.2829659,-0.26405066,-0.24616608,-0.28949758,-0.24152532,-0.31630716,0.1882219,-0.0024366842,0.3285062,-0.061098274,-0.1359551,-0.22846042,0.10028699,0.0068417545,-0.10867462,0.111128,0.024986615,-0.025565373,-0.12013569,0.3366217,-0.07229333,0.18525751,-0.054495275,0.12496105,0.33544388,-0.16751711,-0.0809191,0.21845375,-0.062506236,0.039814,0.040597145,-0.098202534,-0.09229775,-0.2286492,-0.39344886,0.07804852,0.04106027,0.124428906
MmeMagloire::0.17119941,-0.4830918,0.17273714,0.00958877,-0.15750378,-0.23712839,0.27814874,-0.057604823,-0.16010162,0.5205355,-0.1987034,0.32111883,0.10810236,0.2008016,-0.043104753,-0.13222417,-0.008423934,0.17939097,-0.07268922,-0.108515136,-0.03871276,0.02759883,-0.03500759,0.3400982,0.33431855,-0.43872276,0.19386394,0.084421255,-0.24085005,0.04907723,0.22177547,0.12125502,0.14973788,0.17828016,0.25684777,0.14434431,0.26590228,0.039162014,0.17112625,0.05844401,-0.022165019,0.00118711,0.30346966,-0.19463636,0.2912535,-0.30801457,-0.08682745,0.03197844,0.073159225,0.060664117,-0.0017164485,-0.015888583,-0.0014045103,0.16147257,0.018694064,-0.01745609,0.35935363,-0.23860094,-0.54841846,0.12684187,-0.06396051,0.22379206,0.25526246,-0.23099099,-0.21941048,-0.32864502,-0.22691737,-0.33055612,0.20002256,0.04532996,0.371342,0.026972583,-0.1851247,-0.23448065,0.13140519,0.0008515746,-0.12286102,0.105655804,0.021823933,0.013275973,-0.13534057,0.34420165,-0.027979648,0.19008811,-0.083021216,0.16479371,0.4010313,-0.09978852,-0.062647164,0.24682556,-0.06298599,-0.0025759437,0.017693898,-0.05354408,-0.05926595,-0.29277992,-0.44027323,0.038320765,0.03891006,0.16288905
CountessDeLo::0.13640448,-0.47694004,0.23607697,0.015565538,-0.19521895,-0.15868591,0.31295505,-0.07338218,-0.1558284,0.58090335,-0.23942298,0.31142238,0.1544577,0.18409134,-0.060102973,-0.14521596,0.0302618,0.16126451,-0.10223395,-0.10755625,-0.0016614941,0.015251293,-0.07089122,0.40465444,0.2522704,-0.45119196,0.24059096,0.06989528,-0.23815773,0.102017045,0.23765945,0.088245824,0.19434474,0.17114054,0.2704766,0.14536713,0.3477908,0.005835134,0.19107229,0.0596479,-0.018871557,0.01594461,0.35009128,-0.17041406,0.32189533,-0.34564543,-0.093153045,-0.0022849939,0.074953094,0.11018557,0.05706357,0.028352616,-0.07847996,0.21384202,0.048898254,-0.044765186,0.335884,-0.2908343,-0.67947227,0.08852504,-0.0811833,0.17359008,0.30553034,-0.3186425,-0.22360839,-0.30301127,-0.26214072,-0.2785608,0.22661905,0.019692194,0.39159828,-0.02995398,-0.14657584,-0.32845852,0.059900053,0.033901326,-0.13568324,0.16268937,0.061562207,-0.00864206,-0.15784793,0.382021,-0.120383695,0.20876014,-0.0673706,0.15314893,0.45381448,-0.18553907,-0.012946173,0.22726724,-0.032740526,0.008639088,-0.007118496,-0.0848507,-0.018031042,-0.29845887,-0.5125113,0.06365934,-0.013767467,0.07426331
Geborand::0.1973383,-0.5630845,0.2348492,-0.016688742,-0.1760988,-0.28103328,0.3449174,-0.07296849,-0.16863257,0.64006484,-0.2337662,0.3539475,0.14350551,0.23322643,-0.08495561,-0.21458712,-0.025705485,0.16970372,-0.048565317,-0.09653336,-0.091076046,0.07054868,-0.11309015,0.40082806,0.4382405,-0.48645258,0.18035908,0.04773294,-0.28434643,0.07771419,0.33283377,0.107425444,0.2075306,0.19990389,0.2859294,0.16731364,0.29419312,0.041547533,0.2269082,0.10272921,-0.04755335,0.021671657,0.31967887,-0.16535972,0.33194914,-0.31584904,-0.05537441,-0.0020394744,0.071574114,0.038853005,-0.043433484,-0.023189861,-0.019518778,0.13934329,0.0808228,0.027262805,0.3041768,-0.31127945,-0.6150979,0.16560526,-0.03785151,0.28294066,0.26999128,-0.31258827,-0.28576016,-0.32273299,-0.22552311,-0.36748186,0.276868,0.02435483,0.43637726,0.026531555,-0.25596407,-0.2730009,0.12330672,-0.01155615,-0.1546924,0.17503262,0.027758945,0.07488899,-0.15099294,0.36456463,0.026071003,0.30248222,-0.07192612,0.20646426,0.406791,-0.06655067,-0.075257644,0.3192536,-0.047332726,-0.05201178,0.030590119,-0.014841033,-0.06606576,-0.35710996,-0.45190468,-0.0084086945,0.05433604,0.18465587
Champtercier::0.1528974,-0.43182358,0.18024321,-0.029123735,-0.17190844,-0.18674454,0.33008224,-0.0946643,-0.19667709,0.56343615,-0.25242382,0.2982228,0.14192422,0.22167991,-0.09244972,-0.07885591,0.022241415,0.13451125,-0.05859318,-0.050142944,-0.04609829,0.039044023,-0.1440386,0.41425085,0.28650942,-0.41945753,0.20211437,0.054719817,-0.2457122,0.09362748,0.25467366,0.1116483,0.1966544,0.18638864,0.2784555,0.1145173,0.25762802,0.0017007422,0.14542535,0.08557966,-0.04596001,0.03193868,0.25108388,-0.12162186,0.28528467,-0.31467694,-0.0917475,0.0060880785,0.07572097,0.049412515,0.05884862,0.03157178,-0.05815663,0.18286006,0.04238848,0.014909605,0.25302616,-0.2991844,-0.6158712,0.08389203,-0.055072084,0.2111719,0.28465918,-0.3175123,-0.20871021,-0.29870278,-0.28206667,-0.2395754,0.1857526,0.008658528,0.35778308,-0.061815023,-0.17499094,-0.24251725,0.028198633,-0.015884165,-0.13243076,0.1275556,0.030978655,0.016655557,-0.11936169,0.32589552,-0.10902642,0.23827933,-0.049477007,0.10180895,0.37466216,-0.15483986,-0.039897915,0.25253913,-0.05860974,0.022133822,0.009728593,-0.08106804,-0.026254164,-0.24816899,-0.44129288,0.028090993,-0.008278424,0.09445425
Cravatte::0.19538611,-0.5367993,0.23640628,0.023903972,-0.17536584,-0.2633898,0.33140296,-0.045757554,-0.18097246,0.6248925,-0.21776429,0.33770335,0.15991339,0.20757015,-0.010605933,-0.22095977,-0.023105526,0.1672412,-0.07079065,-0.11611355,-0.07510118,0.05196963,-0.030067638,0.37489748,0.35095987,-0.45976627,0.17516269,0.075437486,-0.25834948,0.05457438,0.29056573,0.097061805,0.20560399,0.15992032,0.23679143,0.16312027,0.30546126,0.029484076,0.19223541,0.10317777,0.01059112,0.013926019,0.34294975,-0.17523211,0.33478034,-0.2910929,-0.054538775,0.030194158,0.07935894,0.08167726,-0.050309654,-0.02381916,-0.032324042,0.1004813,0.06386655,-0.0038696157,0.31778896,-0.25859106,-0.582663,0.15201095,-0.06141226,0.23849767,0.2868144,-0.27950305,-0.25065854,-0.28697342,-0.17656167,-0.33650467,0.26503295,0.022327654,0.38728148,0.03793114,-0.2208933,-0.30443442,0.14457019,-0.007249103,-0.13526347,0.13477452,0.055895697,0.028334623,-0.15771057,0.35536104,0.008960615,0.22869278,-0.08836077,0.21214269,0.41285932,-0.088159196,-0.055007115,0.254796,-0.028481182,-0.06756873,0.041989155,-0.011895291,-0.023925502,-0.34803626,-0.4445537,0.036960013,0.019286748,0.13689102
Count::0.13319848,-0.44170755,0.20198877,0.006917471,-0.18973085,-0.1318288,0.3468484,-0.07343939,-0.21211578,0.6032647,-0.2950829,0.28831813,0.18152736,0.20251544,-0.023641156,-0.059444316,0.05880433,0.1805299,-0.11678841,-0.07435793,-0.036219683,0.030798446,-0.09090652,0.46017188,0.24276845,-0.43101233,0.23241852,0.0871523,-0.2640222,0.09045647,0.2662656,0.115403704,0.2148768,0.19341147,0.3063354,0.13726889,0.28971976,-0.009689497,0.12384788,0.08112573,-0.045025952,0.0723331,0.28430578,-0.18107451,0.35315582,-0.34119508,-0.15037516,0.031522293,0.082826555,0.08005587,0.07429174,0.037192237,-0.07037519,0.15473346,0.028703276,-0.038773265,0.29290044,-0.2961326,-0.6977332,0.08539983,-0.096537955,0.1889248,0.33686244,-0.30884188,-0.20496085,-0.3199849,-0.30658582,-0.2819453,0.17106164,0.015058034,0.38743612,-0.08579181,-0.16036177,-0.29013664,0.050113924,-0.01563741,-0.18076898,0.11218364,0.058124866,-0.0008051383,-0.16065057,0.37617034,-0.17540558,0.19169174,-0.0753216,0.09606032,0.42426735,-0.19861886,-0.018052317,0.22222683,-0.07155654,0.030401781,0.02742931,-0.104727335,-0.00046716817,-0.27651078,-0.51679987,0.105909005,-0.040614583,0.044218723
OldMan::0.17396618,-0.46947706,0.16590095,-0.031539325,-0.17928547,-0.21713087,0.30832028,-0.07903236,-0.19432953,0.5880285,-0.25426638,0.28614137,0.13557576,0.20503877,-0.0636058,-0.1391475,-0.02327275,0.14670278,-0.0859986,-0.05790659,-0.08721627,0.0484453,-0.13508527,0.39308116,0.38944507,-0.39552698,0.17719871,0.045640007,-0.25224277,0.05790967,0.3030501,0.11870144,0.20891322,0.21788082,0.29243785,0.15034531,0.20913492,0.0012673211,0.16997303,0.10817718,-0.055996787,0.049958166,0.2705117,-0.1625514,0.30235097,-0.28760144,-0.07085126,0.023693478,0.02966958,0.005991876,0.029825624,-0.032276858,-0.023402784,0.1465635,0.080355115,0.05420305,0.2508055,-0.30646494,-0.57512355,0.15988314,-0.03326287,0.2561322,0.27258524,-0.27742338,-0.21471287,-0.32288596,-0.2954621,-0.30557704,0.16910583,-0.008751605,0.40264845,-0.025174383,-0.26370353,-0.24213716,0.09775738,-0.03129869,-0.19140343,0.14243338,0.041223027,0.08984938,-0.11820808,0.3317484,-0.047022693,0.27027994,-0.053885136,0.11791669,0.35209057,-0.06942063,-0.051818687,0.2596228,-0.07362197,0.009334893,0.031736493,-0.04137707,-0.029708173,-0.28455263,-0.45173562,0.020625768,0.010690976,0.11351842
Valjean::0.12868176,-0.14268379,0.01021739,-0.04062042,-0.042925082,-0.35919198,0.073951416,0.0061198655,-0.18183216,0.19743071,0.024690103,0.06566804,-0.054211468,0.13099185,0.01977708,-0.10495467,-0.2850562,0.054183792,0.050489053,0.06614951,-0.12401074,0.0037415277,-0.084971555,-0.035645526,0.3239209,-0.11876593,-0.12824374,0.008736922,-0.08049149,-0.07179875,0.06822549,0.09195949,0.08583249,0.16768363,0.18927105,-0.12132906,-0.02755753,-0.0941198,-0.06022662,0.20797338,0.21175393,-0.03724433,0.24673067,-0.058300395,-0.00032457063,-0.06056491,0.032609936,-0.009210143,-0.034297038,-0.042828407,-0.044344477,-0.07655599,0.028299537,0.13799919,0.12649326,0.07029851,0.10480565,-0.015800048,-0.100843534,-0.0064673303,0.044572387,0.22498706,0.1488618,-0.043289717,0.06732946,-0.14003047,0.0035317359,-0.0680569,-0.02901106,0.1711497,0.18292174,0.14333819,-0.1125274,-0.13234441,-0.042100452,-0.045097306,-0.10724762,0.047687378,0.083517745,0.1833436,0.060460843,0.0959069,-0.040714987,0.036053084,-0.1675084,0.05170413,0.23423238,0.20414367,0.20675035,0.086482346,0.0031921885,-0.17462383,0.002348801,0.1481472,0.13206078,-0.25567752,-0.3002473,-0.11313668,-0.17589495,0.07039889
Labarre::0.10197179,-0.13626274,0.028943704,0.02965517,-0.1389133,-0.24397495,0.13233449,0.09531173,-0.26260555,0.29205382,0.073023476,0.06426797,0.15778157,0.110393085,0.17904828,-0.17247567,-0.09375015,0.008099651,-0.15179016,-0.025798153,-0.1359414,0.032542218,-0.03560845,0.1279034,0.23544729,-0.14106376,-0.018244805,0.05585694,-0.019390816,-0.076279685,0.1413778,0.114102155,0.050034158,0.09746467,0.12742588,-0.0258875,0.042252827,-0.049369577,0.012592698,0.1499286,0.08308962,0.0028087348,0.17795974,-0.07275268,0.11013864,-0.06843042,0.024704907,-0.08671181,0.016756166,0.057241328,0.012643335,0.010926582,-0.0008616221,0.07892681,0.13133176,0.06003782,0.16802293,-0.05422928,-0.16034642,0.13106984,0.027978813,0.12934285,0.13551603,-0.013175971,0.0017841195,-0.14535105,-0.024827197,-0.16538012,0.0033336976,0.05091747,0.18806155,0.035702087,-0.09274171,-0.1770308,0.0043830364,0.028539976,-0.13035469,0.033335496,0.082224585,0.14061171,-0.05149484,0.17847724,-0.089133,-0.026478026,-0.021735515,0.08800963,0.14907368,0.06929626,0.06079278,0.06361902,-0.00558684,-0.068586,-0.0038713026,0.027931876,0.050943617,-0.14053705,-0.23364827,0.012517781,-0.070807375,-0.017020682
Marguerite::0.12551849,-0.06432359,-0.04260411,-0.0011238832,-0.07488185,-0.23798594,0.2916825,0.018902386,-0.39454353,0.4399698,-0.14143474,0.076905005,0.1913229,0.1893171,0.22045897,0.09322617,-0.05034139,0.027990313,-0.07242162,0.15054734,-0.21101576,0.050650652,-0.036430743,0.30304137,0.12664804,-0.092417836,-0.033034325,0.13084126,-0.08810502,-0.020886429,0.17987254,0.22496651,0.16781732,0.12380153,0.21661733,-0.13912308,-0.064657986,-0.1677956,-0.25480723,0.27246675,0.17787926,0.056281414,0.065661915,0.025516717,0.14548275,-0.046092607,-0.02790758,0.017256849,0.090346254,0.07898114,0.056686584,0.11081093,-0.022939555,0.028238807,0.061410442,0.10346957,0.04992378,-0.04408645,-0.27676305,0.026904041,-0.0014962424,0.18091595,0.2503583,-0.08877991,0.09318206,-0.16637053,-0.032627016,-0.021021755,-0.059162743,0.06364822,0.15910426,-0.044700224,-0.07766611,-0.14503273,-0.13314132,-0.08096804,-0.1183856,-0.09250747,0.10842413,0.17074853,-0.034999706,0.18364966,-0.3107065,-0.09371162,-0.09419403,-0.015138884,0.18229212,0.013441204,0.13115889,0.029427119,-0.010173226,-0.12867396,0.05074501,-0.0022522593,0.21446277,-0.10128508,-0.35117456,0.05688588,-0.22573267,-0.1300335
MmeDeR::0.11239023,-0.07104057,-0.011319145,-0.0749756,-0.11783763,-0.30363572,0.090251334,0.05838473,-0.28944594,0.17934862,0.12095396,0.010363781,0.096396714,0.10430057,0.04063369,-0.13752079,-0.18739507,-0.043375686,-0.111159794,0.031461947,-0.14516976,0.04014765,-0.22602966,0.06117402,0.35956913,-0.08613551,-0.080462374,-0.004657807,-0.028877549,-0.092867024,0.14279664,0.102347195,0.034221537,0.14547269,0.1662164,-0.07191758,-0.075790755,-0.063324146,0.044689164,0.16716991,0.030014593,-0.019170608,0.10002124,-0.025569791,-0.0024722954,-0.02658509,0.042837143,-0.13128074,-0.039644066,-0.045373656,0.056870885,-0.014352858,0.004742363,0.20520058,0.17467824,0.15131502,0.11790551,-0.12018302,-0.093943015,0.104174785,0.10085114,0.18162581,0.10559787,-0.01790961,0.01789873,-0.15227793,-0.0758132,-0.12149071,-0.06729968,0.073805764,0.20556565,0.031340666,-0.14074637,-0.086726494,-0.071771234,0.016341811,-0.15035723,0.10540683,0.047020104,0.2073426,0.015387401,0.10760133,-0.067378685,0.0751821,0.036961485,0.04850564,0.073990576,0.17779098,0.06615161,0.11546033,-0.04565994,-0.008548644,-0.054937076,0.06453447,-0.04020297,-0.09788971,-0.20330524,-0.08478614,-0.035674635,0.047708016
Isabeau::0.14678471,-0.10981662,0.014538574,-0.0844545,-0.07548289,-0.3336487,0.15957192,0.021213444,-0.305085,0.22718328,0.059999272,0.04888043,0.11199922,0.14940004,-0.0067267786,-0.06231386,-0.16458516,-0.019047074,-0.048752587,0.07392892,-0.16957535,0.071464024,-0.24472101,0.13591604,0.3689069,-0.13550793,-0.08821114,0.011182997,-0.08122055,-0.06536275,0.18831149,0.120570205,0.04840607,0.13637929,0.1823063,-0.0784674,-0.05545519,-0.050305087,0.03835944,0.16613345,0.014001151,-0.010857688,0.03649733,0.022485038,0.021942232,-0.019860454,0.029535774,-0.11484401,0.0041968524,-0.05696258,0.005559789,0.024967387,0.008189193,0.16236573,0.13466345,0.16465391,0.08129048,-0.13691594,-0.12590438,0.07022687,0.10473794,0.23236744,0.093237095,-0.058376506,-0.027456975,-0.15964805,-0.041525614,-0.14073126,-0.0052673356,0.09225107,0.19940619,0.028085697,-0.1379635,-0.042441946,-0.08617418,-0.012470363,-0.13157515,0.08649648,0.019470518,0.19048718,-0.0061412724,0.1112293,-0.04542821,0.13194971,0.0285971,0.06654189,0.07054144,0.18169259,0.026176723,0.1916713,-0.05907284,-0.037154786,-0.03968142,0.07014828,-0.07821731,-0.12088214,-0.15612693,-0.11170513,0.0009811122,0.098901644
Gervais::0.13360462,-0.14718868,0.04157448,-0.058270402,-0.10272622,-0.30294552,0.14664032,0.026766289,-0.26552585,0.2575364,0.050874624,0.08488209,0.11295417,0.14686438,0.025451394,-0.08545432,-0.1280757,0.009529176,-0.057008144,0.025085496,-0.12889102,0.056933332,-0.15560926,0.14980201,0.3130076,-0.16160655,-0.043937676,0.033369906,-0.06647532,-0.039438505,0.16713041,0.1005409,0.05490621,0.114944756,0.15124172,-0.05279778,0.018988503,-0.0341968,0.048558928,0.1373318,0.048721835,-0.020174798,0.104267,-0.011965933,0.050460886,-0.072219394,0.01893785,-0.10317138,0.020901237,-0.013943574,-0.010467493,0.024655981,-0.014427723,0.16949438,0.12236671,0.11031186,0.13599503,-0.113768026,-0.17467764,0.06270288,0.07259856,0.19846582,0.121951915,-0.062387656,-0.037263673,-0.16377112,-0.035874143,-0.14248316,0.021962866,0.09943843,0.20487012,0.041636243,-0.11156174,-0.0855185,-0.056878366,-0.0020604907,-0.121311955,0.07786032,0.031040283,0.13279448,-0.025455741,0.13663042,-0.020565426,0.10413119,-0.0012677023,0.083280765,0.10773205,0.12674001,0.016534233,0.17812872,-0.048694484,-0.055013075,-0.01894232,0.06272961,-0.053197656,-0.1505926,-0.15498178,-0.06691085,0.0014023667,0.08749437
Listolier::0.14300583,0.24810323,-0.14931758,0.19261317,-0.18144564,-0.2953662,0.4490486,0.18866968,-0.547568,0.40338576,0.11492864,0.047964234,0.3317385,0.14260048,0.5483301,-0.009155682,-0.050275795,-0.13498959,-0.29742497,0.09762064,-0.29016155,0.04515213,0.1259097,0.2826696,-0.03401551,-0.11487463,-0.03718644,0.36226842,0.21629027,-0.077575855,0.033982694,0.4913347,0.10430377,-0.020642899,0.22780529,-0.30458695,-0.11318703,-0.27398977,-0.31296268,0.3859136,0.16214314,-0.03899919,0.163043,0.08514857,0.05641834,0.04723525,0.07448035,-0.20785068,0.16777351,0.37730262,0.24553613,0.31510532,-0.04348881,0.10426244,0.059723683,0.10812864,0.29117987,0.0033194637,-0.26851088,0.063480295,0.023917262,0.021271111,0.23199236,-0.058590356,0.16420652,-0.15203309,0.08640096,0.0042943684,-0.10566228,0.010016385,0.10698353,-0.069658786,0.08948048,-0.4108054,-0.38556534,0.09668505,0.036039602,-0.20516826,0.20822886,0.21128644,-0.044491597,0.36787024,-0.822151,-0.53880763,-0.0028966751,-0.07576462,0.3185556,-0.20817368,0.3617598,-0.22068648,0.2560938,-0.027124608,-0.123711824,-0.093123555,0.4643733,0.035492625,-0.5331623,0.027611155,-0.48241228,-0.33401054
Tholomyes::0.09119286,0.2005578,-0.11156201,0.14797238,-0.18769588,-0.24760418,0.3508087,0.15777615,-0.4775135,0.36433014,0.1079223,0.012612849,0.29525435,0.11586489,0.48132917,-0.048196908,-0.06751336,-0.11757739,-0.2542873,0.095965765,-0.24906373,0.033737503,0.074206315,0.24376838,-0.020332584,-0.063732296,-0.05311673,0.26523575,0.19989352,-0.05233811,0.03843321,0.41209787,0.14644799,0.01925424,0.21299364,-0.2999321,-0.14220923,-0.32508364,-0.3011217,0.4188265,0.20169352,-0.018488709,0.19091949,0.06319098,0.048791625,0.04601864,0.07800814,-0.20078085,0.12503393,0.34501418,0.23879658,0.27084008,-0.050868686,0.09905558,0.097602054,0.13727616,0.26290447,-0.0033468008,-0.27090737,0.08157329,0.05298775,-0.0048612193,0.2943549,-0.07085218,0.19698107,-0.13224252,0.06474346,0.06532272,-0.14985824,-0.017923841,0.11167728,-0.08525122,0.07576951,-0.43860745,-0.3706322,0.07271302,0.013146887,-0.16005883,0.2410217,0.24423766,0.0033018477,0.32966578,-0.79482245,-0.5094532,-0.040418528,-0.0752862,0.30936915,-0.18624073,0.35700217,-0.27118778,0.22856456,-0.0412922,-0.09815328,-0.09980846,0.47956645,0.035469014,-0.5828294,0.050704606,-0.49243048,-0.40589347
Fameuil::0.14015816,0.22664072,-0.13335101,0.17251036,-0.19098106,-0.2646438,0.4338804,0.15693878,-0.51376045,0.40393284,0.08147272,0.054752037,0.27937052,0.1580065,0.4751393,0.023133906,-0.055949572,-0.116790004,-0.29534566,0.106886305,-0.27092505,0.03780956,0.080450386,0.30672032,-0.049970422,-0.09449496,0.0029023408,0.34265184,0.18539435,-0.04024856,0.03786692,0.47028974,0.12260256,0.02755687,0.25638923,-0.29420593,-0.10498759,-0.30464035,-0.3103271,0.38112518,0.1525168,-0.024257734,0.1883502,0.044319384,0.05331495,0.016330218,0.054146156,-0.17030115,0.14215188,0.36410454,0.27218747,0.28263834,-0.056954183,0.13637204,0.053621527,0.09373558,0.27377248,-0.018223595,-0.30224657,0.06897808,0.035483997,0.00026067978,0.27648637,-0.08919523,0.16830498,-0.15825598,0.01568771,0.040450573,-0.12483164,0.012655008,0.12081349,-0.11088326,0.09429753,-0.4346124,-0.40048894,0.09471002,0.026656901,-0.18135777,0.21736325,0.21918038,-0.020676905,0.36805603,-0.87287426,-0.5204784,-0.02135205,-0.110834606,0.35297737,-0.24255365,0.38526267,-0.24846832,0.24170153,0.0013078032,-0.1309392,-0.13576052,0.48952428,0.02662946,-0.6083854,0.049051117,-0.5165895,-0.3855087
Blacheville::0.15495338,0.22327739,-0.17899796,0.18490939,-0.16099107,-0.27923876,0.44320145,0.19464442,-0.53840446,0.45972246,0.091813356,0.02988182,0.32920793,0.17209291,0.6001154,0.047246415,-0.063022554,-0.1102244,-0.32329407,0.101394996,-0.29170027,0.024180334,0.16439416,0.30890298,-0.06824978,-0.04802499,-0.04660903,0.3764692,0.18602736,-0.09567976,0.04855286,0.49825004,0.0852221,0.0075624143,0.22797275,-0.31115022,-0.1186462,-0.3037934,-0.35910586,0.39994717,0.18665959,-0.032256015,0.17958002,0.0713304,0.0570665,0.064612776,0.07554454,-0.17200072,0.16309994,0.3849182,0.2099217,0.31482646,-0.046600632,0.10300813,0.032423403,0.10164192,0.26438352,0.018366452,-0.24975245,0.048243847,0.0102208145,0.013001342,0.22269218,-0.04231088,0.19113047,-0.12832227,0.1433565,0.005385372,-0.10824368,0.046737988,0.107606545,-0.04798028,0.12184894,-0.41388968,-0.39355615,0.1130781,0.016032076,-0.19565943,0.22655196,0.23573418,-0.052041266,0.38263056,-0.7833742,-0.5394582,-0.017849024,-0.042636923,0.31964904,-0.16037896,0.3517583,-0.21661727,0.22959474,-0.07092663,-0.12458438,-0.076961346,0.4464268,0.014526203,-0.5747691,0.04194022,-0.45089635,-0.3178903
Favourite::0.13753067,0.19239521,-0.14319131,0.15470663,-0.17826457,-0.25313154,0.38274768,0.17321396,-0.48549837,0.45014027,0.07628163,0.04674901,0.28803134,0.15509208,0.5219468,-0.0004728507,-0.05815542,-0.10919772,-0.29861397,0.10677833,-0.26622114,0.01944732,0.1298738,0.30545595,-0.047393426,-0.040625818,-0.033378042,0.33752772,0.16985027,-0.057744354,0.0742819,0.44986218,0.13630219,0.05747598,0.21618178,-0.29077345,-0.13953297,-0.31158215,-0.33728626,0.38913903,0.18691835,-0.025449952,0.18029013,0.052766744,0.06415768,0.043944225,0.092825614,-0.15933199,0.1113024,0.35022613,0.22401083,0.25249028,-0.0440524,0.10761881,0.09026187,0.13381505,0.26036164,0.008841372,-0.267174,0.09618696,0.035254356,0.023451665,0.26920804,-0.062256824,0.17812167,-0.14803149,0.091060355,0.015877072,-0.14081563,0.025046665,0.12829399,-0.06897964,0.06466323,-0.43386447,-0.3966019,0.109202504,-0.0050457246,-0.16319367,0.2226607,0.26914537,-0.0097388,0.34868345,-0.7809399,-0.486227,-0.026449073,-0.06719397,0.31446767,-0.1505334,0.35241187,-0.22018942,0.22622019,-0.07190059,-0.114417724,-0.09285256,0.48009342,0.0028221242,-0.61892426,0.04545908,-0.52372646,-0.39693365
Dahlia::0.15456429,0.21686,-0.16155076,0.20471738,-0.17456153,-0.33765244,0.4169348,0.17141663,-0.5842281,0.45330194,0.10355641,0.04963809,0.32883722,0.17357215,0.6127918,0.06950078,-0.07707018,-0.05359412,-0.3078052,0.10354811,-0.30202276,0.048860125,0.17194043,0.34340477,-0.01959566,-0.09777064,-0.06456308,0.37773272,0.18073171,-0.084331304,0.08379423,0.51342064,0.09911725,0.0070046857,0.252951,-0.3396046,-0.105807036,-0.32342994,-0.3651348,0.42311886,0.21472305,-0.0003425808,0.18057552,0.021474639,0.07838366,0.039203744,0.01713605,-0.17824095,0.16912909,0.3791368,0.19394898,0.3149957,-0.021484932,0.092209816,0.018572137,0.09159266,0.28333136,0.062382262,-0.27373627,0.059229128,0.015278245,-0.008322887,0.28085783,-0.014764726,0.19763452,-0.1802868,0.08579079,-0.008462666,-0.16136435,0.062919095,0.08493807,-0.08066501,0.1398972,-0.3843476,-0.3646496,0.06944502,-0.0034280247,-0.22047916,0.22267932,0.22396353,-0.028654847,0.39057392,-0.8145385,-0.5637911,-0.08863266,-0.09074262,0.321163,-0.17156991,0.37238193,-0.22835389,0.19056575,-0.06930588,-0.08997511,-0.10590977,0.45764384,-0.014261606,-0.5521558,0.07381285,-0.45268336,-0.34523067
Zephine::0.08747923,0.25191522,-0.15219782,0.16499051,-0.15294875,-0.25068384,0.3523692,0.15266474,-0.4868003,0.3431961,0.10859135,-0.00010427265,0.2715995,0.123255305,0.5303013,0.022890447,-0.07951479,-0.08503206,-0.27743408,0.100734614,-0.25342092,0.022911217,0.09517639,0.24313527,-0.05926288,-0.042295557,-0.06011499,0.29771557,0.20882636,-0.09033507,0.018757883,0.45116773,0.11542523,0.040482298,0.26030567,-0.34483448,-0.1489699,-0.31871575,-0.32289132,0.42658088,0.1793302,-0.0012306425,0.19185232,0.053624693,0.03238463,0.028714623,0.028309977,-0.22153936,0.12158464,0.34161186,0.24775769,0.30287018,-0.044804342,0.13135031,0.08092002,0.11067856,0.26246545,0.014836037,-0.27551058,0.06708449,0.023198826,0.008228388,0.2898033,-0.054080807,0.19670138,-0.15768468,0.059232045,0.032662794,-0.18036991,0.027921414,0.12148197,-0.083818294,0.11144574,-0.40849334,-0.40205532,0.07843229,-0.009531995,-0.17295633,0.23201936,0.26318026,-0.009240381,0.35832435,-0.8102787,-0.52702016,-0.050043847,-0.10526424,0.35528064,-0.17687158,0.3792317,-0.23980787,0.22832683,-0.035529513,-0.12034455,-0.090159304,0.49070022,0.024858903,-0.6098024,0.022461211,-0.5061845,-0.36767137
Fantine::0.1266237,0.094370745,-0.0840171,0.112714134,-0.13416836,-0.3608669,0.35558432,0.081070125,-0.49819103,0.4732505,0.016867002,0.03288873,0.29315007,0.18937743,0.4040121,0.10013979,-0.052283745,-0.022407923,-0.17934401,0.1492626,-0.2703916,0.085805714,0.05924545,0.35649583,0.020619972,-0.07188508,-0.0952811,0.23650117,0.14393425,-0.059436332,0.15482484,0.37678388,0.049812064,0.0044752522,0.20143832,-0.24097623,-0.073086,-0.20135096,-0.19182755,0.3136157,0.14303711,0.0064982385,0.041834235,0.052603178,0.06861194,0.018237881,-0.032290265,-0.13842249,0.12502603,0.16199324,0.040076878,0.23775226,-0.020200538,-0.02650806,0.01672106,0.13744241,0.11138628,0.015079269,-0.20506883,0.046951808,0.07464402,0.041729424,0.22657321,-0.06947673,0.0922396,-0.14799528,0.047194596,-0.0022939174,-0.09661161,0.06604611,0.061549384,-0.070066296,-0.0010031548,-0.2245891,-0.26029983,-0.08091416,-0.05512003,-0.19704866,0.1455275,0.19816081,-0.03630568,0.2631665,-0.46205658,-0.23159328,-0.06268919,-0.08004811,0.182692,-0.062247906,0.17132248,-0.057101008,0.078582756,-0.123885565,-0.006453452,-0.075601235,0.32517588,-0.03843223,-0.1852393,-0.030953735,-0.21685432,-0.25649703
MmeThenardier::0.23823339,-0.03813295,-0.048673645,-0.017902782,-0.009132547,-0.44132927,0.23046756,0.020660546,-0.18475437,0.15533286,0.16031359,0.16716994,0.021019977,0.18838328,-0.0026453808,-0.098845124,-0.1606783,-0.032945856,0.032578483,0.059320986,-0.19996175,0.11509425,-0.0611493,0.09893144,0.38126287,-0.20804691,-0.09116446,0.12779668,0.008663873,0.009389083,0.15350169,0.28365,0.0066679195,0.050465073,0.1271265,-0.14681026,-0.08881978,-0.031001467,-0.032006253,0.17766252,0.016520556,-0.10551299,0.06185213,0.11512122,-0.03382648,0.051449895,0.16091663,-0.15393057,0.09457845,0.07076671,-0.04629495,0.10761889,0.122300684,0.11792472,0.0794499,0.2014185,0.13523406,-0.074380554,-0.00025732646,0.12317291,0.096291564,0.2182284,-0.06772866,-0.035255123,-0.10683075,-0.16753222,0.15542401,-0.15577371,0.1427439,0.09594992,0.12789106,0.15153739,-0.039407343,-0.022907116,-0.20683037,0.059135187,0.11247859,-0.042946644,-0.06336524,0.22379385,0.008520747,0.17444125,-0.13080381,-0.06214428,0.00029980743,0.11053937,0.12638475,0.13420956,0.057917196,0.21387358,0.11697922,-0.1034714,-0.1161299,0.07316769,0.055983823,-0.10233306,-0.10915467,-0.2378389,-0.10866825,0.15130688
Thenardier::0.1719128,-0.063469626,0.08420839,0.0022820842,0.018671328,-0.4691713,0.2614546,0.013793553,-0.19328901,0.09956282,0.30312794,0.17823501,0.08995301,0.21008413,0.0072487993,-0.16723868,-0.18134232,-0.05053137,0.0851478,0.011722621,-0.24383958,0.17629199,-0.1712313,0.07516293,0.35834798,-0.18802103,-0.15635154,0.035415746,0.03903731,0.036963288,0.1159431,0.23993741,0.029405676,0.02736271,0.12754044,-0.21444996,-0.121544585,-0.13558541,0.102486275,0.26094148,-0.056287445,-0.11841708,0.019146992,0.11984233,-0.13394837,0.099327035,0.14823948,-0.26578045,0.07709312,0.11483771,-0.17852828,0.1791749,0.12448763,0.11981347,0.034951653,0.2626711,0.16099846,-0.018390888,0.013248147,0.12681068,0.16898184,0.17702177,0.035390526,-0.108639434,-0.1221997,-0.012249572,0.254098,-0.094565965,0.11731602,0.08994815,0.07716064,0.04440673,0.09043838,-0.048020735,-0.20278843,0.03432631,0.19636634,0.05732097,-0.0046635373,0.17059734,0.031471238,0.08273214,-0.08785093,-0.06314454,-0.039504673,0.14431828,0.11566082,0.084788844,0.042214,0.14426395,0.18590811,-0.070169635,-0.07790181,0.09069465,-0.058993828,-0.077386186,-0.08441582,-0.22058219,-0.012779051,0.1951791
Cosette::0.16936597,-0.091518484,-0.06389547,-0.038391095,-0.19398835,-0.43665764,0.052323543,0.08238835,-0.30163795,0.20095456,0.28537622,0.10164232,0.067632295,0.14516427,0.12678918,-0.25523198,-0.24700843,-0.08546874,-0.13874288,-0.02720557,-0.16282144,0.024997843,-0.15056251,-0.023616998,0.32874975,-0.104361504,-0.06520849,0.0010734217,0.10421941,-0.10362814,0.062070113,0.122436225,0.064636275,0.13896723,0.018461986,-0.06296182,-0.095047496,-0.0888085,0.06190948,0.14209457,0.11224498,-0.11119882,0.19434871,-0.038258657,-0.05241123,-0.059598666,0.13292857,-0.15335137,-0.028182179,-0.004534237,0.027403243,-0.03583536,-0.009387864,0.23528253,0.17739856,0.19776495,0.22971849,-0.053519692,-0.0075902683,0.15256968,0.13541487,0.159866,0.11934816,0.0055102734,0.057892032,-0.10664726,-0.0456616,-0.06681185,-0.018182125,0.04830245,0.1569553,0.07824108,-0.12964405,-0.13094193,-0.075001046,0.041242853,-0.020221733,0.059281368,0.020253893,0.1788254,0.12851617,0.08070489,-0.04529375,-0.008559367,-0.0011172544,0.020123594,0.081189975,0.12125909,0.03641443,0.046608914,-0.017733717,-0.00040917975,-0.025230195,0.08317417,-0.019627688,-0.03479309,-0.10370513,-0.13651387,-0.02154329,0.03300406
Javert::0.16852444,-0.0882283,0.0093484465,-0.016312746,0.0072212964,-0.39197102,0.16296375,0.05890834,-0.30237654,0.25727132,0.059458654,0.053388003,0.13000154,0.21181315,0.122624196,0.10989902,-0.14068641,0.04474976,0.03232841,0.11400113,-0.18624672,0.07092547,-0.022795899,0.18762356,0.19200282,-0.112017006,-0.15733834,0.12456804,-0.042792678,-0.03707941,0.16444434,0.17274986,-0.031082608,0.03832677,0.13902955,-0.20357625,0.018723981,-0.067752935,-0.14133155,0.15402524,0.18616113,-0.05370364,0.036557645,0.07679676,0.0133698,0.03636541,0.028533505,-0.085894346,0.122519985,0.054085482,-0.14313893,0.14417067,0.02782312,0.08010522,0.028649598,0.068929225,0.088341504,0.037808575,-0.07921223,-0.10506115,0.064184174,0.20093049,0.051160228,-0.021480909,0.011577392,-0.11901163,0.24668968,-0.0966673,0.060715582,0.2766669,0.10912351,0.12161264,0.041365556,-0.028617261,-0.20933394,0.006186802,-0.061231077,-0.045418635,0.022600459,0.16598648,-0.027635692,0.15845647,-0.065842085,-0.04194411,-0.08376146,0.14577077,0.10387136,0.23539166,0.061468747,0.19869556,-0.037131555,-0.26309678,-0.019512566,0.12707487,0.0075765387,-0.19967417,-0.100047745,-0.09408648,-0.03426359,0.09527011
Fauchelevent::0.15823914,-0.16704187,0.06031731,-0.040245306,-0.10299523,-0.3857304,0.2966749,0.24838665,-0.6104878,0.43689874,-0.030299304,-0.07685549,0.39406428,0.15467934,0.27534798,-0.30263454,-0.092596285,-0.17906745,-0.09313157,0.16768096,-0.31432307,0.06225596,-0.1333962,0.09796189,0.2779005,-0.1407949,-0.20218624,-2.2011998e-05,-0.06547468,-0.17233844,0.21533239,0.025092702,0.07832392,-0.011560802,0.08692178,-0.04681345,0.077039585,0.057996247,-0.15055737,0.25512186,0.38035718,-0.022145608,0.07634681,0.17959452,0.21395299,0.06219945,0.07316977,-0.01604107,0.098405,0.00011131624,-0.0627329,-0.029947735,-0.13925399,-0.1300128,0.3183521,0.116124295,-0.1611775,-0.045437552,0.003078511,0.009506013,0.063090004,0.3220327,0.079657406,-0.006149497,0.1396599,0.009919238,0.16584307,-0.08427144,0.12598734,0.11812376,0.25900242,0.1793857,-0.28686473,-0.2411569,0.13719141,-0.06939748,-0.31691995,-0.07328505,0.17148638,0.16381143,-0.20799352,0.051866934,0.091701835,0.13072208,0.06250866,0.27063385,0.044487543,0.3424365,0.07851324,0.17966144,0.0046746167,-0.3563732,0.13888162,0.29042333,0.15361238,-0.21485484,-0.0063375873,0.011507665,-0.12141952,-0.035599444
Bamatabois::0.14199758,0.09302268,-0.12535185,-0.16633992,-0.038034335,-0.29686415,0.28988358,-0.059006777,-0.49406877,0.2532477,-0.17894472,-0.06519953,0.08677544,0.1800894,0.0018490979,0.27398178,-0.16774437,-0.0025302,-0.055194713,0.285062,-0.2637884,0.06212664,-0.44557145,0.24008079,0.37366444,-0.018501703,-0.12377875,0.04772093,-0.16972399,-0.090763405,0.20199122,0.2226488,0.15264219,0.24589908,0.3866808,-0.16949585,-0.26881972,-0.15196688,-0.19432607,0.30089077,-0.019948171,0.10842151,-0.113539524,0.06818451,0.0011959755,-0.0117717935,-0.11509807,-0.049210813,-0.01217499,-0.18989633,0.19674478,0.07955322,-0.018135587,0.23628305,0.12524806,0.22875042,-0.007927316,-0.22835214,-0.27166802,-0.04918954,0.09671774,0.35834378,0.21188508,-0.081686236,0.12653324,-0.26827648,-0.23779298,-0.087253936,-0.23200122,0.12778555,0.2874554,-0.11011922,-0.21576622,0.04481505,-0.23150767,-0.12715627,-0.26557872,-0.00028549967,0.0533111,0.2672834,0.023106018,0.10919062,-0.3389689,0.12108538,0.018415414,-0.15150915,0.070568755,0.18798737,0.16435379,0.19277395,-0.13632898,0.042988382,-0.023709923,0.06267649,0.013382293,-0.07317413,-0.35077482,-0.06289614,-0.18608923,0.04889416
Perpetue::0.120313786,-0.21013926,-0.08689757,-0.05788662,-0.10648999,-0.42324817,0.053635117,-0.11203602,-0.33365837,0.7171265,-0.04731603,0.16689385,0.08051957,0.37021467,0.24159595,0.22767508,-0.14965422,0.16148981,-0.12717663,0.20420456,-0.19063795,0.11372634,0.08358441,0.5576609,0.12560543,0.08588791,-0.08339398,0.08734349,0.029571468,0.05597838,0.3772073,0.3558821,0.10457781,0.31855503,0.30552158,-0.36000106,-0.06367068,-0.3618699,-0.26281893,0.39962465,0.26338625,0.0039543556,0.16685253,-0.124845825,0.07891293,-0.13783912,-0.0026209,-0.20978679,-0.017253278,0.1338985,-0.06884648,0.2253385,0.035569742,0.18238956,0.06453378,0.23897521,0.07241685,0.08913181,-0.26403314,0.16295256,0.21861608,0.04890757,0.38225314,-0.11214776,0.1221716,-0.26815116,-0.04561836,0.122153215,-0.19199735,0.19890195,0.05850538,-0.11504967,0.061955296,-0.11265651,-0.3939711,-0.11908011,-0.11104671,-0.025400693,0.06473626,0.4468939,0.17893723,0.27750573,-0.34795794,-0.07311004,-0.28628892,-0.09916844,0.19912714,0.07789302,0.09438781,0.034689046,-0.055252798,-0.25942147,-0.041605063,-0.19077949,0.37273863,-0.14288948,-0.31216896,-0.09528455,-0.11935424,-0.3950694
Simplice::0.11066002,-0.16816166,-0.016727746,-0.15216348,-0.06978886,-0.3831114,-0.040253967,-0.08693613,-0.31908497,0.51619655,0.13179226,0.11863091,0.15028849,0.37058637,0.11109246,0.20804225,-0.11316646,0.09140344,-0.09650389,0.17505899,-0.14271188,0.14690666,-0.05146137,0.47445574,0.100075506,0.10273167,-0.13497792,-0.025746396,0.03554366,0.059160326,0.34940246,0.20789512,0.042871628,0.2877157,0.18275145,-0.36770898,-0.06297936,-0.3130862,-0.16255225,0.3121876,0.2329071,-0.04124275,0.03321568,-0.0448636,-0.02582169,-0.07989103,0.036864698,-0.28736633,-0.027258238,0.10385763,-0.13423437,0.28111646,-0.013333715,0.2711689,0.112237684,0.25118437,0.044064905,0.12805885,-0.17170355,0.10295409,0.23475538,0.023581425,0.29842618,-0.066626675,0.12312363,-0.12539162,0.0717368,0.17038554,-0.14651006,0.24621806,0.009404979,-0.10323603,0.19319564,0.019671924,-0.43538028,-0.06856395,-0.062362734,0.06413662,0.029468605,0.35631657,0.16509967,0.12311241,-0.18524118,-0.016434325,-0.1945404,-0.016367571,0.04716579,0.14364593,-0.016034195,0.10200466,-0.076446325,-0.24163388,-0.05516717,-0.11145728,0.11799273,-0.07328551,-0.08011779,-0.08750761,0.048137918,-0.2879209
Scaufflaire::0.14665805,-0.13813624,0.0016858501,-0.08728716,-0.124706425,-0.31449628,0.16220954,0.046138857,-0.31312698,0.2523374,0.02880032,0.051762354,0.10860729,0.14324729,0.0032752475,-0.15979081,-0.15713151,-0.047203545,-0.06373244,0.0452271,-0.16766407,0.05254073,-0.24084102,0.07772492,0.408903,-0.16735938,-0.05039046,-0.010236437,-0.07996907,-0.07586293,0.17097786,0.08756736,0.061714005,0.13693033,0.17182763,-0.0158373,-0.029151568,0.007702662,0.05693434,0.14019942,0.052321136,-0.021004278,0.10956068,0.008222144,0.05281803,-0.064620204,0.055315603,-0.067373894,-0.0014788641,-0.08060236,0.041868366,-0.047623683,-0.008774606,0.15169273,0.1894822,0.1357541,0.085139446,-0.14831047,-0.14058371,0.099309,0.081848316,0.27199733,0.09079358,-0.06083272,-0.015826624,-0.1654331,-0.092692874,-0.14794944,0.015800936,0.060625866,0.24178067,0.067332715,-0.21411708,-0.099630974,-0.00022179724,-0.020076202,-0.1628789,0.08501153,0.03126569,0.16721687,-0.029328229,0.10386868,0.015092026,0.16282202,0.043238223,0.09396946,0.08967585,0.18001911,0.026890317,0.20566237,-0.050510455,-0.038508505,-0.007741048,0.10335219,-0.04342894,-0.13778418,-0.16500223,-0.09425828,-0.039585486,0.12365025
Woman1::0.12558225,-0.018788572,0.004798841,-0.03666067,-0.08130121,-0.38147306,0.16443962,0.0890325,-0.34002316,0.20474704,0.15236521,-0.01875084,0.16383256,0.14061528,0.12269612,-0.07279787,-0.1751656,-0.050822467,-0.046418965,0.09475754,-0.20965305,0.07901628,-0.1729987,0.09068961,0.2812473,-0.04808504,-0.1570106,0.036403563,0.010762896,-0.08416782,0.1596122,0.12728824,0.031241467,0.070784785,0.123747915,-0.16919748,-0.108937435,-0.10694707,-0.042167295,0.23789358,0.116423555,-0.031218799,0.032975074,0.07720762,-0.022852499,0.06788692,0.06972814,-0.14727223,0.039694645,-0.005558958,-0.060189784,0.0857829,-0.001955101,0.094324335,0.15182303,0.18125603,0.06373228,-0.054160893,-0.042968158,0.040841512,0.13881181,0.20667864,0.10004572,-0.008575158,0.038695656,-0.0692816,0.13000818,-0.06835091,-0.015251357,0.13017653,0.14381197,0.06727784,-0.07140843,-0.05820102,-0.14626375,-0.019287981,-0.07791918,0.027328415,0.0664979,0.2180341,0.002783032,0.08703168,-0.067891724,-0.016061815,-0.0032058754,0.075151905,0.020275477,0.21419759,0.06284814,0.11881797,-0.007437662,-0.14130192,-0.0050226124,0.122735076,-0.0025521931,-0.110267825,-0.08940385,-0.10211062,-0.039335467,0.038041927
Judge::0.14867373,0.09365749,-0.13886288,-0.22166215,-0.024641085,-0.36104926,0.3105347,-0.06562038,-0.6062959,0.20078048,-0.14841263,-0.06878608,0.10084078,0.20618431,-0.044433407,0.25286642,-0.21425867,-0.008219862,-0.022670314,0.3002007,-0.32995987,0.046720672,-0.61692417,0.18227217,0.4980105,-0.06658285,-0.17901655,-0.010470694,-0.18193786,-0.14086342,0.21117902,0.21444058,0.16006482,0.28720126,0.44779748,-0.19692689,-0.31598556,-0.13334315,-0.16744581,0.30460742,-0.049442153,0.14754504,-0.16357279,0.08091008,-0.012824742,-0.036212865,-0.15389358,-0.07890198,-0.015996171,-0.28316918,0.20637758,0.05579258,-0.0069620516,0.289191,0.16465893,0.28697166,-0.047807936,-0.26144245,-0.27613434,-0.06290834,0.107509926,0.46829098,0.23595122,-0.090437055,0.13029487,-0.3102837,-0.31675556,-0.14885975,-0.29174313,0.1443467,0.3450987,-0.1405819,-0.27705538,0.1059174,-0.22023188,-0.18506718,-0.3459457,0.017586846,0.03999026,0.3187538,0.023980165,0.07995921,-0.28955367,0.1965243,0.039197415,-0.14806254,0.0863404,0.2688051,0.14940898,0.25945553,-0.19973116,0.0714867,0.010845842,0.12229435,-0.058666322,-0.056252424,-0.33565867,-0.09966171,-0.15226696,0.17368557
Champmathieu::0.107250966,0.13678609,-0.10460943,-0.22663783,-0.044010114,-0.30278915,0.21537636,-0.036321044,-0.5684659,0.10361315,-0.089519136,-0.14270228,0.09191038,0.17788033,-0.07478277,0.30401015,-0.20388067,-0.00488559,-0.077877745,0.27880424,-0.22806738,0.028208217,-0.6190011,0.18442029,0.42296514,-0.042330455,-0.14922564,-0.011635154,-0.18520777,-0.13856287,0.17342325,0.15463807,0.09212371,0.27332318,0.43653718,-0.206601,-0.23413113,-0.12328957,-0.11633553,0.23411244,-0.06413994,0.13334788,-0.13207224,0.045962483,-0.044615604,-0.07042759,-0.19517697,-0.12111586,-0.027871812,-0.23762935,0.24626598,0.09143771,-0.042508367,0.379479,0.15011905,0.19790316,0.0006090525,-0.25527272,-0.30548793,-0.12511006,0.09690726,0.38300103,0.23198786,-0.0700356,0.13051091,-0.2937473,-0.32443297,-0.123087704,-0.31830028,0.20088272,0.31783333,-0.17097238,-0.16362365,0.113996826,-0.28473672,-0.09661583,-0.35686943,0.09271893,0.039368697,0.25090113,0.033371575,0.089257054,-0.32741222,0.19684458,0.057481032,-0.16472352,0.08347854,0.23000176,0.171789,0.2530358,-0.2265332,0.10799402,-0.057142735,0.065231964,-0.12723896,-0.058634948,-0.33394328,-0.06522819,-0.12103304,0.12680791
Brevet::0.12146996,0.07281777,-0.09426371,-0.26877847,-0.06319374,-0.32760748,0.2469141,-0.08200705,-0.55346835,0.15773825,-0.10985438,-0.08991136,0.072517164,0.19606167,-0.14462706,0.26056245,-0.21057746,-0.017969025,-0.040360235,0.28745744,-0.24412857,0.04422195,-0.6744573,0.19103098,0.47044206,-0.061638597,-0.11570166,-0.051031064,-0.19811155,-0.10391665,0.1914514,0.15961552,0.12582384,0.32405004,0.4616451,-0.18578139,-0.25745693,-0.12517202,-0.08403739,0.26444533,-0.09313063,0.10300256,-0.13841029,0.060965918,-0.028473383,-0.076554865,-0.16319637,-0.11224121,-0.046465162,-0.2720374,0.25071087,0.06602887,-0.0404108,0.39334548,0.18112586,0.24816686,-0.017563852,-0.3075322,-0.31818822,-0.072869495,0.13267912,0.41017509,0.24256696,-0.119415306,0.11004782,-0.30947283,-0.3807673,-0.10201503,-0.2906073,0.14954065,0.3519594,-0.16133234,-0.23675542,0.11809368,-0.2719114,-0.1311429,-0.34271488,0.08922306,0.0125880325,0.3020659,0.056524597,0.06474179,-0.31247652,0.26276696,0.06678777,-0.16684262,0.07308531,0.23109277,0.13494468,0.26724824,-0.22905903,0.1368725,-0.056110878,0.0567209,-0.11533642,-0.03654796,-0.349724,-0.11306214,-0.10975486,0.11308442
Chenildieu::0.127498,0.076355815,-0.11841236,-0.23417217,-0.034205135,-0.35909742,0.21852988,-0.073949166,-0.5073886,0.11424027,-0.09981967,-0.09393854,0.044633027,0.1880931,-0.121974334,0.30755347,-0.2159591,0.021285713,-0.044328324,0.27540806,-0.23746945,0.04355481,-0.6095804,0.18946621,0.4970763,-0.05024157,-0.15339829,-0.011787354,-0.1898889,-0.12994789,0.20967162,0.18565455,0.091173045,0.28312388,0.43400964,-0.18416315,-0.27232867,-0.1257491,-0.11143036,0.25796363,-0.0890347,0.10877947,-0.14693485,0.041741498,-0.05116211,-0.05471657,-0.17253077,-0.10147115,-0.035175115,-0.27005512,0.21494402,0.08485999,-0.011268037,0.36862722,0.13220803,0.24545826,0.026367519,-0.28270307,-0.2759946,-0.08198943,0.12049557,0.4134145,0.21911089,-0.075923905,0.09400185,-0.3429948,-0.31826967,-0.15466635,-0.28223318,0.18229376,0.33836716,-0.12876649,-0.22114351,0.13951921,-0.26253,-0.13364056,-0.31998882,0.06861123,0.02091704,0.27838746,0.058428157,0.11252742,-0.2840118,0.2207903,0.052765593,-0.14927332,0.076265685,0.2682499,0.119376786,0.28217775,-0.24706975,0.0997572,-0.05009312,0.07395949,-0.1515837,-0.0648889,-0.32765737,-0.115207694,-0.06634701,0.18719588
Cochepaille::0.11789402,0.044399846,-0.1024062,-0.24852198,-0.03556517,-0.30871126,0.24984027,-0.10438555,-0.52451485,0.16940184,-0.1380228,-0.04622056,0.073575415,0.22107184,-0.13328294,0.33963388,-0.1636799,0.045620684,-0.041244075,0.2656422,-0.23407291,0.052322686,-0.61995065,0.25817552,0.45589226,-0.09897449,-0.091929026,-0.03138477,-0.20944779,-0.072384,0.2164477,0.19549365,0.098146126,0.30912817,0.47371206,-0.18321285,-0.23174116,-0.12600936,-0.09863936,0.2247576,-0.13035618,0.12823285,-0.14773408,0.032692697,-0.0074786246,-0.10604353,-0.20829886,-0.115486115,0.002164111,-0.2417612,0.21653625,0.12802243,-0.008526409,0.37852767,0.10859256,0.23125859,0.01665656,-0.29851127,-0.35471722,-0.06695895,0.104380086,0.40046668,0.2472113,-0.12613063,0.0610894,-0.35148248,-0.36259875,-0.14816839,-0.25881898,0.16549373,0.33467913,-0.17650585,-0.17655209,0.14715114,-0.2765247,-0.13360012,-0.30634707,0.056077078,-0.010211788,0.2857166,0.050222833,0.121779725,-0.3177075,0.2227487,0.03170929,-0.17652842,0.10569865,0.18107663,0.08345826,0.28856808,-0.242757,0.13529055,-0.046837065,0.0050330386,-0.12887686,-0.038718283,-0.3376511,-0.081395075,-0.06260091,0.15716803
Pontmercy::0.19448343,-0.22387211,0.15418102,-0.03141103,-0.19176473,-0.50502735,-0.07745472,0.18223542,-0.16182782,0.009176767,0.5635,-0.0073082503,0.07399968,0.09663312,-0.039127417,-0.5076071,-0.39347705,-0.08613549,-0.12483294,-0.20779349,-0.03963691,0.07837393,-0.2820064,-0.19819114,0.7613948,-0.26118806,-0.16445468,-0.08762847,-0.060448114,-0.09840821,0.14753313,-0.038667697,-0.18197815,0.08964137,0.15315995,0.0013663808,0.06759116,0.016972808,0.41754425,0.16324914,0.046395507,-0.18957229,0.39845315,-0.06520154,-0.14864473,0.021486238,0.25376147,-0.36442336,-0.049676828,-0.04067769,-0.09460222,-0.075254135,0.1006476,0.38546008,0.31318185,0.09618377,0.33771822,-0.1901766,0.038803443,0.24209672,0.20864962,0.24716035,-0.131693,0.11003462,-0.0821091,-0.18704966,0.11405109,-0.26141286,0.08047603,0.23749512,0.18803526,0.27328512,-0.1704675,-0.10749022,0.06484796,0.18589915,-0.024837855,0.30282733,-0.021249916,0.15415877,-0.037795167,0.16934165,0.30581248,0.18171903,0.08455844,0.25390562,0.028601076,0.3418156,0.00012329454,0.33329263,0.0570273,-0.0071443995,-0.24320073,0.2180592,-0.31833452,-0.29942557,-0.07104118,-0.28287923,0.117023714,0.3058925
Boulatruelle::0.22431634,-0.053108208,-0.03394517,-0.01015276,0.030478992,-0.52738583,0.27704307,0.033172984,-0.2663444,0.19660981,0.13661961,0.13549992,0.070095465,0.23133227,0.063343115,-0.027691275,-0.18448684,-0.011825376,0.09783534,0.11740163,-0.29431254,0.14514501,-0.10332222,0.11295623,0.41803524,-0.16328739,-0.198771,0.11514743,0.002812983,-0.031026972,0.18517734,0.29247564,0.00025646042,0.04592031,0.18172878,-0.2116677,-0.1641385,-0.0566571,-0.051503856,0.25888994,0.019426158,-0.08565993,-0.018437173,0.13709041,-0.06618883,0.10880336,0.13435312,-0.17340806,0.1138864,0.03790143,-0.14872946,0.1416806,0.1299225,0.04920478,0.04867065,0.24135016,0.11222899,-0.02791359,0.010861421,0.07074146,0.14652675,0.28403318,-0.009140532,-0.05007736,-0.08818996,-0.124829315,0.2476647,-0.15814033,0.101958774,0.15436101,0.12622353,0.13556518,-0.04250319,0.006087416,-0.20024462,-0.015508956,0.09347423,-0.049811464,-0.036295164,0.27664974,-0.0022991176,0.13682278,-0.068703815,-0.049021218,-0.043670617,0.11535158,0.08649928,0.20854664,0.038705315,0.21719046,0.10049681,-0.18088695,-0.051875796,0.13771978,0.047960937,-0.13359196,-0.09024269,-0.25524157,-0.06366766,0.21907684
Eponine::0.1497813,-0.0021575266,0.020944854,0.031976722,0.012284807,-0.5046105,0.2069378,0.123078205,-0.20869505,-0.07685212,0.40064237,0.16586895,0.062181566,0.18755966,0.10563218,-0.15555997,-0.18098585,-0.0021356773,0.067110375,-0.048809614,-0.23266317,0.12163853,-0.078719564,-0.10068068,0.3780755,-0.290487,-0.13210367,0.06512067,0.119403385,-0.024558298,-0.030594695,0.25724986,-0.11382951,-0.019764781,0.15799053,-0.20005143,-0.06299054,0.017811267,0.09013115,0.11386806,-0.11756564,-0.165486,0.08668722,0.065562405,-0.15257734,0.043506943,0.097840555,-0.3445018,0.1648807,0.19055527,-0.13775042,0.23946917,0.14323792,0.16378236,-0.019622287,0.112957574,0.3478846,0.034039892,-0.0014161626,0.054925334,0.07427274,0.14391603,-0.050329506,-0.027092608,-0.13481298,-0.052952513,0.29866937,-0.20441942,0.17991975,0.14168753,0.07279231,0.10706164,0.23856068,0.005019055,-0.2076313,0.12397738,0.26545897,0.008603482,-0.098937236,0.14188704,0.02292079,0.111075744,-0.12314031,-0.24001811,-0.045924366,0.13230225,0.1890057,0.015015755,0.06870246,0.12855569,0.21950063,-0.033601973,-0.1641086,0.06444452,-0.028522084,-0.05340855,-0.11871478,-0.23975164,-0.051946383,0.2822085
Anzelma::0.24032144,0.05591304,-0.09863757,0.017872708,0.063310295,-0.4958415,0.22251354,0.014501275,-0.12597103,-0.07615062,0.338434,0.25694257,-0.08146975,0.2450854,-0.04126296,-0.13736804,-0.17277749,-0.07539863,0.10107622,0.020039536,-0.23188867,0.15769191,-0.065540284,-0.040616907,0.44408157,-0.31489256,-0.12512937,0.127813,0.09461226,0.052032895,0.026761433,0.4019034,-0.0702774,0.041592475,0.2038487,-0.24016151,-0.16549227,-0.014217273,-0.0017726322,0.20119382,-0.08137817,-0.17484027,0.07522762,0.13907294,-0.16667329,0.056542005,0.18910003,-0.29057428,0.13163497,0.13206321,-0.047818214,0.196356,0.21020642,0.18561259,0.04584634,0.22558127,0.22284147,0.005398154,0.08905686,0.17550997,0.10614191,0.2368615,-0.15902783,-0.055363685,-0.14627847,-0.14876722,0.19377008,-0.17376785,0.15240511,0.14999098,0.085722074,0.15404868,0.098753385,-0.0112534575,-0.29846752,0.12881792,0.29389748,-0.099736646,-0.1372391,0.20072761,0.050061345,0.15727316,-0.22001252,-0.17573425,-0.01579866,0.0680953,0.23137106,0.03279848,0.110444605,0.24196365,0.2889654,-0.016347114,-0.1777162,0.08263003,0.11807582,-0.04967972,-0.067363724,-0.36760512,-0.23854874,0.28076556
Woman2::0.18862349,-0.08179068,0.0073901727,-0.028919484,-0.124701604,-0.42630103,0.12019191,0.071401164,-0.35545087,0.32318428,0.16064705,0.02869476,0.17456254,0.11662319,0.16796696,-0.042075805,-0.22061758,0.028288933,-0.1703407,0.045321997,-0.21346907,0.08779087,-0.11549251,0.22556913,0.33397818,-0.050949708,-0.12724882,0.12814492,-0.03205829,-0.117880516,0.2497173,0.1739874,0.11155364,0.124273576,0.060384,-0.09434722,-0.13853465,-0.1775512,-0.04987573,0.2106179,0.08611558,0.03680577,0.02751752,-0.0509352,0.043753784,0.059179142,0.049044516,-0.059342027,-0.045131564,-0.012399532,-0.08084818,0.0018510494,0.02556656,0.103573985,0.12630782,0.21864462,0.1352291,-0.042417,-0.05349588,0.114009514,0.09593621,0.15546435,0.15844224,0.06469941,0.00680086,-0.16335934,0.046282742,-0.180984,-0.08062873,0.100151934,0.1800744,0.054626375,-0.114834435,-0.034298327,-0.08010689,-0.011440665,-0.1621109,0.04819699,0.071830966,0.23562202,0.054663263,0.13850673,-0.07613871,-0.015242532,-0.034265395,0.055146445,-0.014530912,0.2575541,0.056579623,0.08373234,-0.12016492,-0.110724814,0.025204258,0.09065727,-0.102996096,-0.1336102,-0.17180738,-0.005133078,0.029046899,-0.015863216
MotherInnocent::0.1664416,-0.16270612,0.028680436,-0.0682327,-0.18321133,-0.38810402,0.36731103,0.24923491,-0.6587493,0.5753907,-0.12531249,-0.07148042,0.4110968,0.14955352,0.26829562,-0.34663853,-0.1322259,-0.22447914,-0.03869675,0.18224928,-0.3441787,0.037932154,-0.15275678,0.061854124,0.34808004,-0.13796832,-0.17377368,-0.0010180022,-0.081177875,-0.2065156,0.23999093,-0.007764068,0.10335732,0.0021209263,0.10548375,-0.029828466,0.060132492,0.09135298,-0.14271428,0.25077847,0.41531157,-0.019469654,0.13595258,0.19879626,0.19471899,0.027504683,0.17269343,0.06827426,0.1033601,-0.05303364,0.014937907,-0.13205802,-0.15309003,-0.12214968,0.3425278,0.07892841,-0.19079563,-0.035699505,-0.03845145,0.0021513952,0.069733456,0.36723876,0.121420346,-0.03570837,0.17175616,0.03073411,0.14660926,-0.009728185,0.084804595,0.029418498,0.22305962,0.18257084,-0.37920153,-0.32976735,0.18254581,-0.11597444,-0.35087687,-0.00040361757,0.23247637,0.17603883,-0.2276222,0.0062727914,0.16464715,0.17249236,0.090826415,0.31105235,0.01073448,0.36674526,0.08847327,0.13527131,-0.012931549,-0.37183663,0.16277084,0.28585202,0.18449832,-0.21977781,-0.08579609,0.027526516,-0.15639326,0.008070082
Gribier::0.21918407,-0.20069867,-0.042914495,-0.052346814,-0.1906777,-0.49345958,0.3389592,0.27084187,-0.6914875,0.60045296,-0.086833455,-0.06468322,0.36436212,0.16990082,0.32693982,-0.39907777,-0.19975704,-0.19865566,-0.10741406,0.15891679,-0.4029198,0.063290164,-0.14541763,0.02777471,0.51982665,-0.15017614,-0.21477708,0.014877606,-0.09681323,-0.28401282,0.2729923,0.03813786,0.08697935,0.042054888,0.15456055,0.0050786575,-0.015150987,0.10650329,-0.11282518,0.29123524,0.39402205,-0.01169476,0.17318477,0.12434114,0.20625754,0.0389937,0.17892703,0.06456515,0.06890637,-0.11626734,-0.0012567834,-0.19052778,-0.077815056,-0.14492767,0.38565084,0.13124703,-0.12160928,-0.052504245,0.016836414,0.11036629,0.09430131,0.4669567,0.0999845,0.042663973,0.1767653,-0.06871023,0.09203697,-0.15329117,0.04507097,0.055602178,0.29264656,0.23369895,-0.48495585,-0.29196644,0.26365912,-0.13755843,-0.40455082,-0.026632309,0.20539607,0.25142443,-0.21695966,0.04822577,0.21184953,0.17862944,0.07297812,0.30048665,0.009558324,0.45873335,0.084720664,0.19479795,-0.02791706,-0.36989984,0.18371888,0.33999294,0.1617742,-0.26917312,-0.10507522,-0.0136678815,-0.1520499,0.08016428
MmeBurgon::-0.1221736,-0.09433727,0.6374897,-0.24515216,-0.19610538,-0.101891115,0.388124,0.05072709,-0.21814801,-0.0006274576,0.23848455,-0.08521459,0.4630906,-0.088494025,-0.25403017,-0.4697845,-0.15072756,-0.26194146,0.19109906,0.004091956,0.0531634,-0.10605786,-0.5980171,0.066154316,0.0023698423,-0.15519983,-0.11493112,-0.24790548,0.17254415,0.16940017,0.04211949,-0.22395654,0.09209797,-0.021726204,-0.11799503,-0.26317662,0.36926457,-0.18169573,0.36234695,0.06570128,-0.013869716,-0.18020654,0.14117718,0.47688916,-0.16051409,0.03218829,0.17645465,-0.45898858,0.03747837,0.25646445,0.10996051,0.2758792,-0.41927165,0.6556169,0.25905997,0.14983183,6.839889e-05,-0.44416922,-0.5143746,-0.43039423,0.10352262,-0.07113032,0.21422176,-0.51174325,-0.11811858,0.37418425,0.3668601,0.33096316,0.29536125,-0.119194634,0.23109071,-0.027859792,0.26209348,-0.54247534,-0.46788228,0.3336769,-0.04099168,0.6495014,0.27882618,0.07795251,-0.17758295,0.06598077,-0.13996118,0.317394,0.28022847,0.484821,0.26124465,0.030075919,0.087854736,0.07925148,0.14887777,-0.046090215,-0.40480077,0.13079728,-0.17393632,-0.059193853,-0.38935375,-0.13094246,0.186923,0.06609276
Jondrette::-0.11596315,-0.18906453,0.72809017,-0.35774025,-0.27946004,-0.17204425,0.43586916,0.033295464,-0.32621032,0.040960725,0.26948273,-0.032060746,0.51434714,-0.0048672887,-0.41589123,-0.525624,-0.1591159,-0.3244883,0.20958595,0.010639924,0.083807044,-0.10792947,-0.813862,0.11480412,0.08699712,-0.2960781,-0.06067552,-0.32916453,0.12278661,0.21707997,0.057675518,-0.29275215,0.097163595,0.03245735,-0.042309273,-0.26618907,0.4978767,-0.1355102,0.46541438,0.04596402,0.016394569,-0.24644715,0.22495496,0.5330026,-0.13793127,-0.09639061,0.19926037,-0.534467,0.06267857,0.2537819,0.20567718,0.31803238,-0.5391446,0.9029499,0.3589726,0.12156526,0.05843074,-0.581293,-0.6955641,-0.49856555,0.15856843,0.0031572226,0.27180094,-0.6503083,-0.11417903,0.33548707,0.27930072,0.40124312,0.37802133,-0.055220015,0.33758745,-0.0580863,0.23690268,-0.6176197,-0.5550173,0.39116302,-0.070598625,0.7630811,0.27608883,0.03226362,-0.17456777,0.08576131,-0.15973663,0.49347666,0.36182588,0.5430701,0.3544083,0.010704045,0.064267114,0.20212866,0.1278474,0.014965049,-0.48351792,0.15488754,-0.26268914,-0.09426437,-0.41666406,-0.20854399,0.18971789,0.08441464
Gavroche::-0.0121107865,0.031577375,0.23399992,-0.15492101,-0.1478291,-0.32655653,0.09229913,0.17722408,-0.37970465,-0.18311493,0.37388837,-0.08323139,0.2231431,0.110665396,-0.10086066,-0.14898227,-0.16358794,-0.18938656,0.023896525,0.017463675,0.010725143,-0.015746772,-0.38182402,-0.1107912,0.10519904,-0.24202347,-0.11337123,-0.088466875,0.064203225,-0.016521417,-0.122251585,-0.095539674,-0.115561746,-0.030455658,0.087010436,-0.21943222,0.23261634,0.016950322,0.0984042,0.008562385,0.13930012,-0.22824597,0.16691053,0.2038829,-0.16225876,-0.08100169,0.06194904,-0.3073331,0.123135105,0.1521886,0.12554559,0.2254516,-0.2527309,0.5212586,0.13005671,-0.10984236,0.23985344,-0.076793246,-0.19220537,-0.34905583,0.11034716,0.093903385,0.086125955,-0.1493041,0.10777069,0.089905754,0.19497138,0.18391766,0.093649,0.2649842,0.10916612,0.039674588,0.23916396,-0.19748402,-0.28594497,0.21203175,0.055010416,0.19308612,0.066052206,-0.14103721,-0.014996813,0.013132649,-0.11054992,0.03882112,0.12003941,0.17850666,0.16972782,0.015701847,0.117726214,0.10349038,0.05234962,-0.005486461,-0.24161774,0.13562953,-0.1617536,-0.07050519,-0.09308257,-0.11516879,-0.020836778,0.09977142
Gillenormand::0.066007964,-0.030031843,-0.046228692,-0.041626733,-0.21293615,-0.27877948,-0.108475156,0.1533755,-0.18695949,0.061217647,0.32710028,-0.011479062,0.02297121,0.03899759,0.09382917,-0.36598557,-0.2741053,-0.0931437,-0.25868693,-0.08107037,-0.104114816,0.032997172,-0.11671425,-0.15976995,0.36054948,-0.052404165,-0.06748859,-0.0115144905,0.11318521,-0.14907926,0.016456151,0.086948805,-0.071863756,0.18394424,0.18369633,-0.059858683,-0.056329764,-0.048882566,0.15409335,0.1410839,-0.00050686015,-0.08630621,0.31370667,-0.17223237,-0.033484884,-0.06082489,0.13655105,-0.25284582,-0.15582158,0.017772028,0.111731194,-0.06883152,0.013246846,0.29043323,0.26235396,0.08942299,0.27561247,-0.055454254,-0.03273211,0.19697757,0.16950038,0.065217055,0.061068404,0.04355209,0.053539935,-0.11575195,-0.07563555,-0.123514175,-0.10295274,0.08386277,0.18456149,0.093304396,-0.0565982,-0.19853774,-0.032767773,0.15178321,-0.13834204,0.20984957,0.051767904,0.25054526,0.0866018,0.090502456,-0.07023377,-0.041890763,0.046071857,0.055307392,0.10524062,0.1497301,0.14954638,-0.03836729,0.06769983,0.07197243,-0.18554772,0.048810676,0.015295035,-0.12852894,-0.25438604,-0.13218755,-0.08141966,-0.053978164
Magnon::0.14913252,-0.016033169,-0.15260167,0.055092137,-0.09907023,-0.37011933,0.02502033,0.12216095,-0.16816531,0.15845454,0.29296643,0.030081784,0.014270419,0.089284085,0.18736826,-0.3100957,-0.2638302,-0.08730281,-0.18228479,-0.029088844,-0.20591268,0.08147086,-0.023426168,-0.06839043,0.4632208,-0.012892217,-0.1385262,0.058753267,0.113287546,-0.15657009,0.12817031,0.23632024,-0.05447251,0.1341174,0.18095557,-0.115359955,-0.18728124,-0.08946475,0.08164896,0.27195862,-0.0010722788,-0.07910174,0.19628572,-0.08037224,-0.077388555,0.06953722,0.1890978,-0.24179946,-0.06634421,0.010963985,0.015661273,-0.027635634,0.15231417,0.12964633,0.20310275,0.22387707,0.2055051,-0.023484552,0.13664207,0.31818825,0.1921428,0.16011368,-0.020396102,0.098683074,0.022144051,-0.1785874,0.063780315,-0.22291379,-0.08854033,0.05193062,0.17846923,0.15024902,-0.16515236,-0.15936758,-0.05292069,0.07654848,-0.07944926,0.061645392,0.054781113,0.36329678,0.05032787,0.18750222,-0.08452062,-0.106120065,0.023483533,0.087395,0.08467192,0.26124313,0.12455778,0.038281053,0.11487153,-0.058155265,-0.0976277,0.088776484,0.071228676,-0.11666769,-0.24340902,-0.20332873,-0.091758035,0.06625945
MlleGillenormand::0.02187969,-0.036431815,-0.12906332,0.059495594,-0.222789,-0.2265928,-0.1091319,0.199988,-0.1597198,0.07864586,0.30725342,-0.112736434,0.03258253,0.0127064865,0.19929068,-0.40512347,-0.26667383,-0.115671985,-0.31581858,-0.1174138,-0.075278535,-0.042405564,-0.1172064,-0.16286422,0.4128411,0.0009941389,-0.06840348,-0.02877772,0.120019116,-0.2394928,0.044450425,0.08122325,-0.10728542,0.15023284,0.20385362,-0.036581796,-0.05274416,-0.04183191,0.17900974,0.21508397,0.024566958,-0.082633264,0.34434345,-0.1684983,-0.054667555,-0.041345198,0.11742866,-0.2528229,-0.10016997,-0.03810697,0.1780098,-0.10971122,0.04540684,0.2575243,0.25286722,0.08789754,0.29777953,-0.11432289,0.049891498,0.25814053,0.18376815,0.11363283,0.02271861,0.11717362,0.09834144,-0.20821416,-0.09184827,-0.23619166,-0.18673821,0.043883435,0.2772552,0.13722484,-0.23531239,-0.27307925,0.01971318,0.120769575,-0.24943087,0.16087128,0.14393684,0.29586136,0.014523311,0.23804194,-0.06466857,-0.03434904,0.11875816,0.1258255,0.16234642,0.2666865,0.11341901,-0.016858239,-0.008592823,0.01977477,-0.114372455,0.07851117,-0.035104804,-0.11487042,-0.3536202,-0.14280829,-0.030733068,0.039463043
MmePontmercy::0.17615563,-0.2361929,0.14710501,-0.071602665,-0.27689037,-0.55566573,-0.20184775,0.24351814,-0.23306908,-0.04570502,0.71312845,-0.09730792,0.07129886,0.057450715,-0.040935285,-0.699962,-0.54048324,-0.14936541,-0.27288935,-0.26215145,-0.050590143,0.080686145,-0.40526623,-0.33632082,0.95412284,-0.24588531,-0.20290476,-0.15343201,-0.051396985,-0.22153175,0.13124932,-0.095577225,-0.23481011,0.19230145,0.24272096,0.0016872019,0.072849505,0.017964697,0.56404245,0.20334704,0.027068226,-0.20826502,0.52747226,-0.17401734,-0.19228852,0.0018068252,0.27466983,-0.4665595,-0.18214326,-0.11978304,-0.03156513,-0.18599798,0.085744135,0.54099596,0.4599422,0.105096154,0.4244047,-0.22894478,0.07012266,0.32269612,0.30327326,0.29617447,-0.12841879,0.18925431,-0.0322435,-0.24605022,0.027991055,-0.369706,-0.03507679,0.30485898,0.3131446,0.31128058,-0.25230864,-0.17924178,0.114107504,0.25656602,-0.20447667,0.46643436,0.041201655,0.24621527,-0.024658907,0.1836405,0.35586298,0.23839843,0.1302688,0.2998329,0.030633228,0.5007676,0.06849287,0.33705622,0.023104997,0.05778941,-0.31426403,0.27832076,-0.4220529,-0.39796296,-0.18780044,-0.3134141,0.13040034,0.31811967
MlleVaubois::0.066003755,-0.009525018,-0.09921721,-0.03437989,-0.25017983,-0.27467617,-0.1696888,0.19566365,-0.23794048,0.083829515,0.3942406,-0.14683901,0.054585904,-0.028323708,0.15495695,-0.484132,-0.3674451,-0.16952129,-0.379493,-0.0935178,-0.095168784,-0.0014972707,-0.19574678,-0.20014495,0.5240066,0.04232542,-0.114253424,-0.04423246,0.109350406,-0.25624672,0.08531866,0.043636452,-0.08930935,0.21423772,0.19776502,-0.04658341,-0.10794646,-0.08083204,0.22688897,0.21772534,0.019662235,-0.07274942,0.35445032,-0.18298241,-0.08235205,-0.0003793961,0.18543866,-0.3050995,-0.21257673,-0.07116656,0.19776931,-0.16211376,0.029797794,0.3553411,0.3882507,0.15288502,0.24526942,-0.12493324,0.075187385,0.31062323,0.24267651,0.12122667,0.034883913,0.1684215,0.13273694,-0.1985327,-0.13647956,-0.20504469,-0.2402836,0.043953057,0.26969928,0.13686281,-0.26283476,-0.25255403,0.030145302,0.16168408,-0.31914243,0.2795942,0.13308439,0.36833853,0.04910906,0.1659666,-0.044200435,0.0312812,0.13442703,0.0895319,0.034719236,0.3563185,0.18012224,-0.019630846,-0.0008993707,0.08376419,-0.1891763,0.10300376,-0.061756,-0.16341881,-0.3505201,-0.1251132,-0.040932294,-0.04759204
LtGillenormand::0.07509703,-0.017891997,-0.07938847,0.019276418,-0.19263512,-0.23704666,-0.117347695,0.18702057,-0.20849383,0.04065614,0.35881412,-0.066242054,0.047957283,-0.016477553,0.15111631,-0.4162385,-0.28516528,-0.12358925,-0.34188053,-0.112368375,-0.09297018,0.0028035003,-0.10469841,-0.18278901,0.38218176,-0.045070086,-0.068337075,0.0071028234,0.12135434,-0.22755638,0.0028901384,0.06318238,-0.1129136,0.14769863,0.18210019,-0.033014487,-0.0022437049,-0.021887235,0.21623063,0.12713678,-0.010913059,-0.097356394,0.32933822,-0.18659516,-0.04695637,-0.040357947,0.106049195,-0.2766146,-0.13796687,0.011331118,0.14884005,-0.097245105,0.029359743,0.30134213,0.27181578,0.06930596,0.3044855,-0.049812313,0.06380118,0.23222442,0.1678257,0.06803117,0.011031999,0.13633405,0.06759455,-0.16743456,-0.075280584,-0.25219274,-0.14132445,0.07969693,0.25306556,0.13849299,-0.13336505,-0.24745627,0.039503153,0.17898549,-0.2427982,0.20538256,0.09937616,0.25205982,0.01311013,0.18693666,-0.0805215,-0.042192005,0.10518448,0.116813526,0.118829966,0.25048208,0.17633894,-0.033753917,0.02861705,0.07323208,-0.16443434,0.080199085,-0.06497551,-0.15529224,-0.30522132,-0.08324432,-0.031455208,-0.015341059
Marius::0.09185193,0.04106611,0.016958835,-0.0035401988,-0.09515979,-0.20951006,-0.06230374,0.1451429,-0.23122591,-0.0028524753,0.28869072,-0.081470184,0.10508973,0.006432179,0.010370191,-0.20725024,-0.18908896,-0.13012329,-0.20108297,-0.007698809,-0.009197747,0.034874573,-0.07324583,-0.010583134,0.27707,-0.13682097,-0.08288694,0.10332986,0.039346505,-0.12192779,0.06473186,0.077624574,-0.18107472,0.028782172,0.12819074,-0.14078525,0.14750345,0.019607635,0.11079192,0.05913256,0.124820195,-0.12160109,0.20390636,-0.00089354994,-0.06307719,0.000440054,0.12269769,-0.22291166,-0.038582463,0.08881254,0.12018384,0.008487754,-0.03518452,0.36727542,0.22902857,-0.03555909,0.17492977,0.02434711,0.07260101,0.0279879,0.116228536,0.05650547,-0.07777084,0.118703745,0.03929433,-0.14709306,0.085480615,-0.14169897,-0.07957089,0.22060077,0.15781933,0.1668018,0.007952257,-0.2081437,-0.11026913,0.23593502,-0.21213062,0.14840175,0.10090588,0.10476546,-0.078665376,0.19374484,-0.096775904,0.0006873227,0.13920455,0.2130485,0.083608106,0.26812923,0.19610591,0.1062226,0.003760419,-0.051418237,-0.21206105,0.07327802,-0.06531958,-0.18698382,-0.16161253,-0.06494763,-0.07162179,-0.006972012
BaronessT::0.06017078,0.044958692,-0.12327132,-0.011445222,-0.17033227,-0.30181947,-0.10787911,0.18832822,-0.23601821,-0.019726567,0.38282105,-0.123376556,0.035647847,0.021343451,0.12886047,-0.36204505,-0.31726873,-0.16050352,-0.24884318,-0.055635646,-0.12004928,0.002053127,-0.1986177,-0.23039566,0.46185914,-0.008782312,-0.14477669,-0.045993593,0.122857265,-0.22886938,0.018715013,0.06985004,-0.118955836,0.14423406,0.18440837,-0.09256405,-0.105039045,-0.034969773,0.14941493,0.19401534,0.05124376,-0.115923114,0.26954475,-0.092288196,-0.13324928,0.006996162,0.14318252,-0.30234748,-0.10360647,-0.057707127,0.13734052,-0.07220542,0.032254595,0.32550573,0.2997415,0.11974074,0.25255275,-0.06984026,0.11949692,0.18238977,0.21653652,0.17274152,-0.014679952,0.13406599,0.11912445,-0.1584227,-0.016349431,-0.18120672,-0.17695841,0.12919384,0.22731847,0.15071577,-0.16192518,-0.19130151,-0.03560743,0.1270404,-0.21114965,0.17781654,0.090539925,0.28875092,0.047219418,0.12255467,-0.038936496,-0.025688393,0.09765595,0.102457285,0.0653329,0.3258042,0.1631416,0.044098403,0.018151302,0.022604557,-0.1469233,0.13768078,-0.06809082,-0.12659667,-0.2363993,-0.16732213,-0.054369666,0.073587045
Mabeuf::-0.12350861,0.10356014,0.27472898,-0.014332578,-0.061984416,-0.12281742,0.004648141,0.31216475,-0.25049108,-0.47885582,0.4906839,-0.07910573,0.18084683,0.059835535,0.033889774,-0.26147145,-0.020997005,0.0038380907,-0.07196545,-0.18449724,-0.021929638,-0.052549206,-0.2694795,-0.25207016,0.062144198,-0.34889367,-0.06175179,-0.05829762,0.08680952,-0.04427208,-0.13616341,-0.0890287,-0.23841015,0.005302303,0.24738014,-0.3190247,0.28739363,0.12912118,0.14142765,0.029619796,-0.060931776,-0.04988213,0.19674872,-0.018254988,-0.055339325,-0.15533783,-0.15772444,-0.47444886,0.15022159,0.23421799,0.01173078,0.293458,-0.12165092,0.4328678,0.2068592,-0.1856178,0.33318472,0.050379977,-0.22889298,-0.21602745,-0.031249532,0.011103167,0.06681006,-0.04008906,-0.06849493,-0.0023777564,0.1793136,-0.22859704,0.08790622,0.3723253,0.24221377,0.034770057,0.45945647,-0.19952206,-0.29308322,0.3179513,-0.09439888,0.21363537,0.044100154,0.012773789,-0.16339716,0.117569655,-0.18250161,-0.20655623,0.06192618,0.24789521,0.41213778,-0.018797545,0.21069917,0.15768878,0.084812626,-0.0034842587,-0.24127395,0.11484439,-0.113713615,-0.15951534,-0.22803308,0.0053814454,-0.12224875,0.23777233
Enjolras::0.03042107,0.02761183,0.28154477,-0.08538347,-0.11526126,-0.32679552,0.09022937,0.19617775,-0.4693754,-0.19385883,0.3840315,-0.15232217,0.2612519,0.059229065,0.026062325,-0.036435716,-0.21468778,-0.048678886,-0.014057505,-0.01717314,0.0374588,-0.0132175805,-0.35669386,-0.09758138,0.14315125,-0.26592785,-0.13538127,-0.009106398,-0.0536082,-0.12717968,-0.13753742,-0.12567027,-0.13461062,-0.06781468,0.10577272,-0.21364303,0.25934753,0.014609379,0.14599551,0.0321412,0.1948758,-0.16657753,0.18020202,0.09741916,-0.13389845,-0.08365084,-0.109476395,-0.266239,0.1355058,0.15764627,0.0030171275,0.17282206,-0.20302461,0.455957,0.08191092,-0.1672523,0.32240748,0.006037492,-0.20256324,-0.3202177,0.003230341,0.101949066,0.15839688,-0.017505642,0.07139289,0.026938753,0.20711003,0.0032376947,-0.036666036,0.3671506,0.10974841,0.04224672,0.29299164,-0.16752782,-0.14607301,0.16185622,-0.07725341,0.18345414,0.16425125,-0.1777723,-0.11139073,0.08681077,-0.095469214,-0.025949113,0.0013768905,0.17823718,0.19698955,0.07347281,0.16780403,0.11258468,-0.052838087,-0.018611403,-0.15347636,0.10310448,-0.2308474,-0.14700289,-0.13243726,0.052541785,0.011834134,0.10466692
Combeferre::0.0002502782,0.06157365,0.1553764,-0.027230645,-0.11057375,-0.19984382,0.044824038,0.22456607,-0.46215436,-0.21050788,0.3581825,-0.158813,0.2492279,0.07409158,0.055787332,-0.08295754,-0.14780691,-0.112299554,-0.11914442,-0.06457417,0.022492403,-0.033684935,-0.34500912,-0.150605,0.08412975,-0.25442183,-0.082386725,-0.050282843,0.011409463,-0.13809398,-0.19402897,-0.14810608,-0.20749617,-0.078776605,0.15745436,-0.17293432,0.32745537,0.07804476,0.17163964,-0.049951777,0.13236053,-0.19979288,0.22547787,0.074245766,-0.15543704,-0.12567791,-0.09384674,-0.31821164,0.18269151,0.11320011,0.13681675,0.19271596,-0.19059491,0.52578205,0.1023277,-0.21783973,0.37318614,-0.006515216,-0.17801082,-0.33044842,0.041793462,0.13327804,0.065100595,0.012345969,0.13304438,-0.032239553,0.1580883,-0.05982643,-0.020665813,0.3751,0.19469209,0.050093208,0.226929,-0.18796735,-0.14882183,0.2036709,-0.1155067,0.1504866,0.112707675,-0.19820687,-0.13995576,0.148622,-0.14326584,-0.04580092,0.09274958,0.21887094,0.23491237,0.09505697,0.17102897,0.13033284,-0.058145978,0.009857678,-0.16664392,0.14041956,-0.29748645,-0.15470651,-0.1759475,0.036350336,0.019626133,0.19917317
Prouvaire::0.006179131,0.1406614,0.1771065,-0.08576962,-0.11553965,-0.27348363,0.030976456,0.22466317,-0.52669513,-0.26783785,0.42461827,-0.19597873,0.28511167,0.05773992,0.049865514,-0.02874497,-0.19515981,-0.121663004,-0.10155434,-0.0069965273,0.0011216031,-0.024438413,-0.38895974,-0.12902604,0.13729383,-0.20781459,-0.16964555,-0.008745996,0.026471471,-0.1586313,-0.1512398,-0.101489484,-0.18788342,-0.06736635,0.11962874,-0.2471583,0.21680655,0.010723533,0.0872207,0.008194208,0.16754836,-0.16331206,0.13317841,0.13045165,-0.18727842,-0.060087696,-0.07232058,-0.32802147,0.14619893,0.13123155,0.12659961,0.20847186,-0.2149429,0.56872964,0.1266869,-0.15140659,0.33315846,0.010996406,-0.14160919,-0.37303856,0.062160954,0.11615199,0.08625214,0.035357296,0.16215126,0.0006759063,0.20098685,0.021703742,-0.09171255,0.40064827,0.13094462,0.03704777,0.28041086,-0.1488917,-0.22449426,0.221033,-0.10948069,0.16709772,0.14436865,-0.15967168,-0.09579167,0.09233995,-0.16447653,-0.05846192,0.106105424,0.19591233,0.15887235,0.13571109,0.20014703,0.11190251,-0.07791403,0.0063075367,-0.21940203,0.15835555,-0.29611662,-0.110353075,-0.12479759,0.016560946,0.00040278482,0.14297467
Feuilly::-0.009779955,0.07961191,0.17523818,-0.051375534,-0.11033868,-0.24125391,0.04325902,0.24587624,-0.51555556,-0.21766433,0.4015992,-0.179064,0.2904119,0.07887683,0.08734578,-0.07748561,-0.16301319,-0.11526478,-0.10742563,-0.0355703,0.0027091743,-0.040971674,-0.34803638,-0.133988,0.08005347,-0.24106988,-0.1334133,-0.04036895,0.031507947,-0.14634027,-0.17136821,-0.12668861,-0.20498736,-0.06715932,0.13097611,-0.2303401,0.3113734,0.049407147,0.10407343,-0.030260526,0.17908245,-0.16601644,0.18895826,0.10044439,-0.13291244,-0.105460495,-0.098813355,-0.32847843,0.16068314,0.15199496,0.1009456,0.21607088,-0.22265024,0.50853664,0.11982703,-0.19888021,0.29710954,0.0071993805,-0.16724998,-0.35778534,0.031968705,0.10047827,0.07191467,0.01755522,0.14309286,0.01657543,0.2086665,-0.0056020487,-0.030443521,0.39815986,0.15470636,0.042620678,0.28882504,-0.16507293,-0.20051931,0.22559294,-0.1329004,0.15361907,0.13484839,-0.16745907,-0.13316864,0.11773033,-0.14173552,-0.047411554,0.090080425,0.23272447,0.21673873,0.11891204,0.18394592,0.12704255,-0.05910606,-0.025948802,-0.19923346,0.14925516,-0.2649347,-0.13339682,-0.111748196,0.034517027,0.0065857084,0.13070402
Courfeyrac::0.014434699,0.050601188,0.1651609,-0.09730667,-0.12965555,-0.32881263,0.014635692,0.21657504,-0.44816378,-0.18214779,0.33243254,-0.15397467,0.22154717,0.073033206,0.03545306,-0.03181968,-0.17359495,-0.101139925,-0.073907085,0.014723949,-0.0039821863,-0.0016406567,-0.30141106,-0.12229815,0.15374325,-0.22805451,-0.14283313,-0.022232369,-0.004545107,-0.14975694,-0.15499318,-0.10768437,-0.15086487,-0.046900984,0.116754696,-0.17462984,0.2295507,0.08433859,0.09193225,-0.031959563,0.2200478,-0.1862918,0.1767404,0.09024593,-0.1404942,-0.08989598,-0.053106707,-0.2829512,0.12227399,0.1185404,0.068842,0.18265454,-0.24939965,0.5244244,0.15232643,-0.19878425,0.3720849,0.0036282404,-0.19275741,-0.37977397,0.054321658,0.17277685,0.119243644,-0.0018907943,0.15390435,-0.030907799,0.16374034,0.0012576797,-0.021103345,0.43176213,0.16502519,0.06937199,0.24734707,-0.124348916,-0.17087093,0.17995237,-0.10210023,0.14595725,0.09174139,-0.1713602,-0.08121015,0.02058387,-0.076444864,-0.011009184,0.047969203,0.17709732,0.14404546,0.1371941,0.19689356,0.1694329,-0.040876757,-0.046461064,-0.17729415,0.1734773,-0.24146351,-0.18240868,-0.101969525,-0.009490171,-0.042837266,0.13007568
Bahorel::-0.012788864,0.067181036,0.2321766,-0.11020418,-0.14078346,-0.24124841,0.0006100405,0.19975178,-0.40265355,-0.23406462,0.37237853,-0.15666963,0.23770916,0.058180086,-0.039116576,-0.01937326,-0.14452499,-0.093575336,-0.08560025,-0.018191488,0.05429835,-0.011352569,-0.34387735,-0.082520515,0.1410261,-0.26129594,-0.10454009,-0.029019224,0.0020989482,-0.08745058,-0.13184962,-0.08222069,-0.19193096,-0.024751026,0.15046914,-0.19188161,0.27198,0.040348396,0.1379475,-0.03191896,0.16999428,-0.15834247,0.19614318,0.08935433,-0.13014391,-0.106750555,-0.0780466,-0.32047978,0.104736015,0.16258554,0.110857725,0.21953806,-0.24406292,0.58131474,0.15645123,-0.2096632,0.3583814,-0.054678854,-0.2612407,-0.3612939,0.03838429,0.092492506,0.108817056,-0.047325388,0.097906776,-0.022847371,0.14361478,0.033940054,-0.029154181,0.41386703,0.13586737,0.024648167,0.34030545,-0.17258924,-0.2543202,0.255451,-0.09888181,0.21566299,0.12003189,-0.17460367,-0.09519415,0.062462065,-0.14316796,-0.016990472,0.067065306,0.18141802,0.18524568,0.05021853,0.19237244,0.15115248,-0.021039262,0.021154856,-0.26412538,0.102044016,-0.24608189,-0.14160109,-0.11987421,-0.0011836805,-0.034965735,0.096227646
Bossuet::0.030967297,-0.008207148,0.22110112,-0.11578204,-0.15059121,-0.31058174,0.067445494,0.22143084,-0.47387052,-0.17967685,0.35784674,-0.11420651,0.28976846,0.108784646,-0.015134817,-0.008495302,-0.16254187,-0.118760265,-0.06363646,-0.03278816,0.013087432,-0.022737084,-0.36619154,-0.11410513,0.16676988,-0.30286944,-0.13218078,-0.027731601,-0.018271694,-0.13383538,-0.14703849,-0.09212651,-0.170481,-0.056307957,0.12797809,-0.13241805,0.23376939,0.046917997,0.1060689,-0.02217029,0.2013223,-0.18013783,0.17427525,0.09667111,-0.13589787,-0.119495794,-0.06261699,-0.25682655,0.16539945,0.11485768,0.06719949,0.15746365,-0.22030918,0.48338252,0.097952835,-0.1898451,0.39366344,-0.016955342,-0.21330026,-0.39524767,0.026457928,0.1418466,0.11153338,-0.04290671,0.13124132,0.016459284,0.20104152,0.053602025,-0.002662322,0.40677962,0.09874098,0.060999107,0.27821496,-0.19323939,-0.1678687,0.17966254,-0.055115305,0.1654657,0.15117611,-0.2196599,-0.09733002,0.07121755,-0.0745807,-0.020331552,0.06219059,0.23549552,0.19965206,0.07165999,0.124392755,0.143023,-0.046909723,-0.01599784,-0.1911457,0.15701126,-0.28871417,-0.11887794,-0.079548225,-0.007873496,0.027407888,0.18496545
Joly::0.0061152084,0.10524953,0.15586689,-0.06504167,-0.11925279,-0.31443876,0.020993318,0.2580058,-0.4566278,-0.26145974,0.41019914,-0.18142945,0.2037589,0.086867966,0.039448846,-0.063221194,-0.17567429,-0.14208847,-0.07218935,-0.0070444113,0.021927053,-0.026173746,-0.31954008,-0.18766177,0.09511083,-0.25623003,-0.1256778,-0.033094477,0.03383723,-0.13792273,-0.21471727,-0.11723634,-0.21103549,-0.06662765,0.16021419,-0.24324559,0.27515683,0.083264105,0.09509673,-0.01637085,0.20258029,-0.21209124,0.22309232,0.10072583,-0.16848293,-0.09798461,-0.046162046,-0.30977958,0.15680914,0.14926274,0.123054296,0.2110123,-0.2336548,0.530999,0.13174531,-0.24478376,0.33873373,0.027081778,-0.14222568,-0.37029397,0.04487582,0.13406302,0.074779175,0.005186748,0.16360359,0.008738273,0.18158872,0.028984176,-0.012818907,0.4171044,0.1569981,0.077874,0.28081816,-0.16073516,-0.2257819,0.21890177,-0.06380176,0.120036654,0.08822588,-0.18446247,-0.08470883,0.0693456,-0.15953103,-0.082795165,0.07546234,0.1666327,0.21184404,0.08269792,0.21998754,0.12209021,-0.0015284322,-0.028649,-0.18216227,0.15424249,-0.19964,-0.13955712,-0.14445996,-0.01871881,-0.07641331,0.13786489
Grantaire::0.0103750685,0.072452664,0.20021902,-0.058282934,-0.15365143,-0.29054603,0.08323691,0.26996502,-0.54631394,-0.21355794,0.38289264,-0.18038245,0.32098934,0.081066936,0.08189592,-0.053772517,-0.15772235,-0.14223225,-0.11751942,-0.031203011,0.027289562,-0.039657064,-0.34191257,-0.14739022,0.058207843,-0.27285597,-0.116285644,-0.014603341,0.026221234,-0.16366932,-0.22846544,-0.15843928,-0.19035117,-0.12371107,0.10510979,-0.17376141,0.33206928,0.09455137,0.122848995,-0.07720722,0.20615137,-0.23052828,0.20803961,0.13271236,-0.15596995,-0.11860026,-0.082462884,-0.3064231,0.20749208,0.14231549,0.13969097,0.21688333,-0.27442247,0.5420189,0.10250189,-0.24960051,0.41902158,0.0013930672,-0.22128469,-0.447924,0.028539976,0.1394698,0.09811039,-0.0035319042,0.1797834,0.005663066,0.216811,0.016816104,-0.0026654482,0.41996208,0.16015522,0.05973465,0.27921936,-0.20919107,-0.17533655,0.21441703,-0.09180905,0.13740009,0.1303038,-0.26995707,-0.13603504,0.10416236,-0.15401672,-0.06147181,0.094687775,0.22124285,0.21235064,0.08014617,0.1870878,0.12556925,-0.053825513,-0.021843474,-0.19070256,0.16630521,-0.29052943,-0.15512267,-0.13531153,0.03429037,-0.009387056,0.16297077
MotherPlutarch::-0.1038571,-0.06698642,0.40949148,0.05246737,-0.0341913,-0.20635264,-0.001961102,0.38129383,-0.15865551,-0.49085748,0.6029167,-0.0023188372,0.21550667,0.07316371,0.02757775,-0.3715138,-0.0021115714,0.0993335,-0.049708877,-0.31932253,-0.029709402,-0.0028184718,-0.16435327,-0.23299433,0.17134157,-0.539841,-0.05376661,-0.052247714,0.07920177,-0.031939078,-0.0944058,-0.09079386,-0.34258226,-0.0044832984,0.29417768,-0.2916926,0.48966047,0.23980474,0.31080136,-0.067217745,-0.14522131,-0.057346333,0.3090582,-0.10989975,0.015339933,-0.17564318,-0.19295627,-0.5542801,0.18998452,0.35795182,-0.1567055,0.3720667,-0.082750835,0.43530086,0.1941553,-0.3075381,0.50849146,0.033414416,-0.35190886,-0.20474505,-0.086659275,0.037263505,0.060647324,-0.093017235,-0.25876963,-0.03168707,0.34956437,-0.46569777,0.28716025,0.50531673,0.3694959,0.096418425,0.6082863,-0.19653888,-0.27200714,0.4476639,-0.067462675,0.28707194,0.0027767357,-0.006090243,-0.26629722,0.20933087,-0.07010568,-0.21898973,0.024234934,0.4459858,0.53330827,0.021726467,0.18490677,0.28366578,0.14406599,-0.11415676,-0.27528605,0.16159171,-0.2543668,-0.31436002,-0.30225906,-0.0025098359,-0.036798723,0.4104175
Gueulemer::0.20951928,-0.031856153,0.04919645,0.027845396,0.028035924,-0.49365932,0.35729828,0.042052303,-0.17658491,0.15976916,0.2065454,0.16999209,0.1377754,0.18330899,0.08567667,-0.043730475,-0.16532123,-0.03129289,0.12531088,0.05384064,-0.29728973,0.16044031,-0.06882475,0.114448726,0.3156709,-0.18896066,-0.16234559,0.15035643,0.10438024,-0.0020395978,0.11632554,0.28819937,-0.05935805,-0.08894096,0.12452085,-0.2311074,-0.07658958,-0.02298564,0.084617294,0.18342681,-0.12542784,-0.179924,-0.061281595,0.20301726,-0.13206968,0.15438262,0.16528666,-0.33839375,0.19138402,0.16234283,-0.20812489,0.28619495,0.119369484,0.06817549,-0.058976874,0.22941124,0.23390238,-0.061364785,-0.027311198,-0.012173708,0.1441134,0.14284994,-0.09245986,-0.11546428,-0.19881341,-0.026524555,0.41669738,-0.18183991,0.24110875,0.11647692,0.08209618,0.11136323,0.10781135,-0.021564672,-0.29982004,0.07870934,0.22924607,0.029369935,-0.050396506,0.21767229,-0.03621997,0.18334506,-0.12082761,-0.11605836,0.05128828,0.20147566,0.0928718,0.12514703,0.015112217,0.18352334,0.20551753,-0.12732688,-0.16068567,0.0825274,-0.045443006,-0.07890259,-0.07384604,-0.3083167,0.056555714,0.26946813
Babet::0.21405613,-0.06576908,0.07628849,0.043128155,0.07985845,-0.5419735,0.31091797,0.005033787,-0.16400589,0.13094282,0.23529053,0.18877745,0.07537856,0.22720468,0.01420096,-0.025515767,-0.19033091,-0.003991742,0.18464307,0.0620511,-0.24872904,0.14558645,-0.095679514,0.10804726,0.325123,-0.20147422,-0.19805357,0.14942998,0.047325846,0.038366105,0.11009098,0.30464754,0.0011806692,-0.033625208,0.12632066,-0.27318826,-0.10991036,-0.1310449,0.046065025,0.2600323,-0.04003109,-0.15398815,-0.0153965,0.18697478,-0.16286981,0.138627,0.16354062,-0.2586258,0.1919802,0.16446231,-0.23637739,0.24338181,0.1289621,0.13146323,-0.10205206,0.2198566,0.25146306,-0.017705357,-0.0062890523,-0.059217233,0.18813285,0.21693605,-0.005182462,-0.14368773,-0.16284461,0.0033953404,0.45824715,-0.105699435,0.18017264,0.16417328,0.078147486,0.14238873,0.101470724,-0.046348713,-0.29429227,0.053464644,0.28880104,-0.0033076939,-0.023031821,0.18968259,0.014220575,0.176582,-0.10067297,-0.11858394,-0.046244636,0.2039639,0.12914464,0.118288256,0.0021409146,0.12857163,0.1657905,-0.1821044,-0.09426041,0.13431932,-0.07685071,-0.10802735,-0.104204886,-0.2847401,0.06848122,0.31335256
Claquesous::0.18859473,-0.04148278,0.096295714,0.06478985,0.07138857,-0.50480884,0.2849293,0.049166184,-0.16347326,0.07589346,0.2571716,0.13593155,0.10555372,0.16392319,0.07652765,-0.05607935,-0.2000944,0.009909871,0.14454177,0.026784146,-0.22726554,0.15932164,-0.038264785,0.07424495,0.33746925,-0.19001652,-0.22239965,0.15709382,0.0400289,-0.01484306,0.08696961,0.26138842,-0.047337275,-0.06900777,0.12878558,-0.23824535,-0.078685366,-0.08673834,0.07677725,0.22732753,-0.041166086,-0.15295687,-0.005503917,0.14520623,-0.14382352,0.1680138,0.14595897,-0.2587912,0.14503048,0.17130157,-0.24415618,0.21246766,0.12736967,0.10658322,-0.061905768,0.16450538,0.2701905,0.008128262,-0.0015093436,-0.022755163,0.13379443,0.17507817,-0.03399789,-0.06865172,-0.1530158,-0.020391008,0.44433174,-0.16694045,0.15780906,0.18373992,0.06420267,0.1509337,0.13496886,-0.04959206,-0.21198519,0.07811173,0.20617376,0.019546973,0.003910243,0.1531054,-0.04312897,0.1738662,-0.076480724,-0.12681593,-0.038859397,0.22775362,0.12300156,0.15982488,0.06335601,0.14733596,0.18055284,-0.16846159,-0.13449171,0.13559215,-0.084025286,-0.1596904,-0.13725634,-0.2510698,0.040163893,0.28149897
Montparnasse::0.18869053,-0.08189008,0.095231965,0.033566676,0.059911814,-0.4511047,0.30176198,0.01721464,-0.15183239,0.15028915,0.15735324,0.16526707,0.10038455,0.19163439,-0.008169433,-0.06630593,-0.13546301,-0.029877476,0.1722457,0.053109944,-0.21759024,0.14369644,-0.083593264,0.108729355,0.3155361,-0.22467113,-0.16042176,0.12911752,0.0024324304,0.027611474,0.122335166,0.23371245,-0.023044042,-0.0611151,0.14034271,-0.2163588,-0.01801305,-0.048711438,0.054975577,0.23353629,-0.016799448,-0.15082042,0.0066123274,0.19495164,-0.08635019,0.11426842,0.17037542,-0.22697115,0.19706345,0.16527554,-0.1985902,0.22447534,0.093411535,0.092401884,-0.05721237,0.14940222,0.2015469,-0.03990073,-0.048614264,-0.046388973,0.16748072,0.20617421,-0.03201918,-0.1423519,-0.16362372,-0.0089025125,0.41603348,-0.108842626,0.21824296,0.15272123,0.09348381,0.13942489,0.06820855,-0.08683798,-0.21723041,0.057334464,0.21433337,0.024050856,-0.001394974,0.15434194,-0.0645873,0.1798925,-0.05723849,-0.05940449,-0.0044504073,0.25351298,0.12334045,0.12593362,-0.006282957,0.16942656,0.1656308,-0.18319039,-0.09776107,0.11926533,-0.06026897,-0.13961832,-0.09883439,-0.2554979,0.044514395,0.28038836
Toussaint::0.16860338,-0.1127288,0.0105719315,0.0028517006,-0.12155052,-0.35918546,0.07485247,0.04684535,-0.21449172,0.25490266,0.18644676,0.077369,0.08651688,0.10665357,0.090398185,-0.14627916,-0.20439257,8.163879e-05,-0.14884034,-0.021487404,-0.14431866,0.07446507,-0.08053352,0.1356079,0.34121665,-0.11409498,-0.07342333,0.09431885,-0.012415055,-0.07387919,0.18694444,0.1712419,0.050225955,0.13046266,0.12784874,-0.07010287,-0.06077794,-0.122447796,0.06710536,0.19892251,0.05445231,-0.020735212,0.15204158,-0.08104123,0.018333456,0.0034824861,0.08484904,-0.118312255,-0.051862482,0.020680122,-0.048280943,-0.0125861475,0.05217978,0.15740438,0.14207695,0.16546771,0.185439,-0.0694137,-0.065794416,0.16425584,0.10571342,0.13522287,0.10185095,0.018149305,-0.03211799,-0.18927757,-0.0042229793,-0.18687935,-0.02828357,0.10247795,0.17785591,0.08084078,-0.11515505,-0.09533163,-0.07161903,0.036430806,-0.10400241,0.088208385,0.05154733,0.20546524,0.03321314,0.16669264,-0.061323546,0.008339893,-0.01880262,0.07411935,0.07923759,0.1846251,0.074521594,0.10528173,-0.018728752,-0.048183367,-0.051855043,0.06345479,-0.06145083,-0.15348189,-0.19642532,-0.0912385,-0.0064731976,0.017403245
Child1::0.0766489,-0.014618458,0.09004317,-0.33447036,-0.27607355,-0.3712302,0.080169335,0.050098456,-0.41875657,-0.033595264,0.26452765,0.027949732,0.0714923,0.31365514,-0.5051274,-0.12157614,-0.073878296,-0.46106687,0.07522565,0.1546037,0.063751675,0.00046982223,-0.6336931,-0.061095145,0.07067027,-0.3859096,0.05173114,-0.2607829,0.08244207,0.13504468,-0.13146086,-0.12331745,-0.15304478,0.082441874,0.2236799,-0.24919817,0.39026946,0.15531592,0.16976863,-0.005700275,0.33834636,-0.4561593,0.3136906,0.3439788,-0.19331753,-0.33391696,0.22236986,-0.43315575,0.15421669,0.10523859,0.3811676,0.3126576,-0.43882334,0.88288254,0.33741924,-0.111418806,0.1614776,-0.27101395,-0.31619155,-0.37519586,0.3028711,0.24178386,0.057998106,-0.40231737,0.1664055,0.019649167,-0.09154216,0.48178613,0.22870377,0.36331105,0.18958335,0.028132431,0.07527304,-0.2574427,-0.56921667,0.23930225,0.115657836,0.22264013,-0.03938086,-0.1771813,0.07250644,-0.039152797,-0.16173401,0.35784832,0.29220346,0.096260145,0.23550141,-0.10005366,0.099265546,0.3503827,0.12234166,0.074542664,-0.34636956,0.110762954,-0.06967087,-1.4593839e-05,0.1340425,-0.39726204,-0.13550454,0.033256494
Child2::0.08879375,0.010502363,0.05353562,-0.2599654,-0.26898292,-0.34020635,0.13398962,0.05621198,-0.32783008,0.020844353,0.2575058,0.044169452,0.040796943,0.3115475,-0.43061072,-0.1452839,-0.046922993,-0.50156826,0.046268053,0.13968179,0.09194635,-0.022619227,-0.52001595,-0.06363728,-0.02261313,-0.34012967,0.06430299,-0.17994586,0.16713828,0.14001851,-0.14642906,-0.06324926,-0.12822878,-0.0059137424,0.19082583,-0.25068513,0.38594884,0.14866553,0.1498089,0.018175632,0.37718582,-0.51143056,0.35282487,0.4020129,-0.23921973,-0.30843014,0.29634622,-0.47054034,0.1553296,0.17290689,0.3884266,0.3490109,-0.42239404,0.85222954,0.32842046,-0.09622341,0.17853743,-0.21907373,-0.26068914,-0.36693835,0.30627483,0.19399774,0.01608993,-0.43319273,0.17166457,0.0478645,-0.009527755,0.5149413,0.27359098,0.34310165,0.12705041,0.063009374,0.12722833,-0.3346508,-0.625838,0.24220832,0.1845799,0.21329202,-0.048473313,-0.14976296,0.068959184,-0.040181234,-0.2177764,0.25443047,0.29475918,0.13459866,0.25012863,-0.12958457,0.12784924,0.30155286,0.20219,0.036202412,-0.35404232,0.09273126,0.011207241,0.018337928,0.12022398,-0.43682668,-0.19647616,-0.015606196
Brujon::0.2020342,-0.06388064,0.078999124,0.043001954,0.104021005,-0.51346564,0.34179893,0.010538347,-0.117081255,0.12447829,0.18553442,0.19663611,0.08949308,0.2157415,0.029147578,-0.0013748264,-0.17525806,-0.011346885,0.22308102,0.07586806,-0.23929471,0.16334142,-0.023125617,0.11247523,0.2811955,-0.21143219,-0.22094509,0.17123193,0.055260744,0.025848174,0.07961244,0.3031285,-0.043396626,-0.079269886,0.14875275,-0.2693239,-0.045186326,-0.07026578,0.034308277,0.23267353,-0.02983835,-0.20870647,-0.019156583,0.22090751,-0.13521464,0.16083711,0.18160152,-0.28281403,0.20258659,0.2212084,-0.2533951,0.2875399,0.10706518,0.09823928,-0.108204275,0.17200215,0.26845294,-0.019320933,-0.037008144,-0.105259895,0.16336548,0.17450254,-0.07302413,-0.14502066,-0.17468166,-0.0050309803,0.5197498,-0.11616728,0.26645482,0.19158033,0.07016236,0.17683478,0.16394614,-0.06872174,-0.29739785,0.08496374,0.2876265,0.008252094,-0.013313042,0.18386994,-0.043283217,0.20456842,-0.103436165,-0.123787165,-0.035888076,0.27576223,0.1699417,0.14131045,0.030218506,0.16732763,0.22405113,-0.2153218,-0.17202206,0.12654984,-0.04618554,-0.1502451,-0.12513769,-0.32693186,0.051856875,0.28367302
MmeHucheloup::0.025445333,0.042823896,0.24537656,-0.022610867,-0.09281613,-0.2980658,0.12940177,0.2475047,-0.51389223,-0.17844236,0.38237825,-0.15089221,0.33657303,0.07297895,0.08818161,-0.073331736,-0.1522403,-0.107172616,-0.050479,-0.04259787,0.0034888994,-0.014051483,-0.31403896,-0.10133468,0.08546474,-0.28186566,-0.15196379,0.01404899,-0.0034943467,-0.1453411,-0.15978368,-0.13847867,-0.181485,-0.14580823,0.08250394,-0.22107747,0.34411344,0.07170624,0.13374291,-0.024335012,0.19911806,-0.19465953,0.171145,0.14333709,-0.14413688,-0.07234405,-0.071501955,-0.31373373,0.21287715,0.18525004,0.01855078,0.22362554,-0.23377304,0.48823357,0.08100592,-0.20992883,0.349751,0.022888027,-0.18607269,-0.41435453,0.029664597,0.12953302,0.09219377,-0.0017306217,0.10342487,0.040931806,0.31736845,-0.03131965,0.030644622,0.41691622,0.14116807,0.0793442,0.28434736,-0.19066945,-0.15191746,0.20586891,-0.0809354,0.14878194,0.14912342,-0.22003967,-0.18051697,0.12754762,-0.09120543,-0.05021107,0.0784076,0.28133225,0.19794382,0.12736137,0.16521868,0.15367019,-0.03879692,-0.07789664,-0.17138754,0.18607141,-0.30727902,-0.18834385,-0.11031515,0.04332127,0.039315265,0.19784687
