Napoleon::0.28055286,-0.5908026,0.22833958,0.24390401,-0.43667462,-0.37749586,0.39000586,-0.058143713,-0.23526233,1.0074363,-0.04583971,0.29992467,0.26458523,0.28131947,0.15633261,-0.45616308,-0.21318085,0.2722596,-0.3454516,-0.06986154,0.12917998,-0.10773824,0.16709144,0.33678243,0.4360714,-0.6011118,0.31495598,0.28173906,-0.17672895,0.109128356,0.11313227,0.31436315,-0.009098523,0.30248696,0.24063611,0.08945575,0.17720386,-0.19170207,0.22524601,0.21440887,0.15944833,0.02671099,0.54086345,-0.14529163,0.22124833,-0.5041985,0.011080077,-0.19729581,0.3593144,0.24625482
Myriel::0.35308743,-0.50913423,0.21806201,0.19896816,-0.45465058,-0.4802819,0.45388272,-0.07506897,-0.27618796,0.8088224,-0.080860585,0.38138762,0.21806571,0.2768321,0.2246483,-0.43043736,-0.2529391,0.29039064,-0.32435358,-0.08536396,0.021807797,-0.1368344,0.0836958,0.30938947,0.37242094,-0.5251697,0.3350076,0.4073201,-0.28024703,0.005033418,0.0998418,0.32760474,-0.0026703016,0.29515925,0.15533409,-0.091653824,0.085291974,-0.092645265,0.2415907,0.28579322,0.26408228,-0.006786018,0.3405727,-0.116000116,0.18833858,-0.4562829,-0.089014456,-0.01681128,0.21880458,0.09819495
MlleBaptistine::0.2850499,-0.49371016,0.20401146,0.19376361,-0.29737562,-0.37902325,0.37587625,-0.04395946,-0.24111222,0.9005861,-0.013230387,0.2758415,0.26684076,0.23328991,0.18304972,-0.3602313,-0.25378224,0.28643596,-0.27372584,-0.054251075,0.08742775,-0.07956838,0.1823511,0.28623936,0.43605354,-0.5026934,0.22645651,0.289544,-0.17782463,0.05770309,0.08168603,0.27388495,0.0070364135,0.20499805,0.21437527,0.118259765,0.086216405,-0.19974531,0.16497579,0.21833812,0.08240865,0.015317733,0.42389572,-0.10301666,0.15828468,-0.39042598,-0.04430863,-0.16553251,0.33325398,0.212423
MmeMagloire::0.22068025,-0.53547794,0.22839324,0.17780887,-0.29764754,-0.40906322,0.35763592,-0.02587209,-0.2841084,0.7868875,-0.07838442,0.2870924,0.26007324,0.2187271,0.2696001,-0.3570088,-0.23471998,0.28848752,-0.2683473,-0.05954565,0.0015907073,-0.08368146,0.22775699,0.3211712,0.42014697,-0.44005778,0.21511556,0.28463972,-0.22338642,-0.048395235,0.12485959,0.25960308,-0.011576041,0.25973257,0.18423982,-0.044297565,0.13783026,-0.15330265,0.12327334,0.24011663,0.17985798,0.010769386,0.38863194,-0.11019319,0.23612265,-0.4039255,-0.04086143,-0.052849714,0.29621932,0.21422787
CountessDeLo::0.1757019,-0.54594874,0.15772791,0.22364897,-0.38208354,-0.2967985,0.34020597,-0.05086604,-0.2427111,0.9789688,-0.2383591,0.30557707,0.2598031,0.19729798,0.29069138,-0.44537154,-0.10680978,0.24298391,-0.4696919,-0.11101905,0.029183917,-0.11268655,0.30276445,0.35873818,0.3932753,-0.48423028,0.25807765,0.32595786,-0.19549023,0.019755,0.23832272,0.30368832,0.08248688,0.2867328,0.22125374,0.0625583,0.11320511,-0.20831674,0.11555474,0.28605998,0.21865904,0.06305277,0.5226543,-0.18408956,0.27678156,-0.4543022,-0.0027320737,-0.09944489,0.2538517,0.20039847
Geborand::0.34677958,-0.6316302,0.33967358,0.23649953,-0.436099,-0.45078054,0.49883482,-0.06919108,-0.33918327,0.98080313,-0.034250975,0.36837384,0.31935972,0.33406428,0.17007016,-0.46188104,-0.26867676,0.37381917,-0.2826334,-0.015023549,0.09089085,-0.1292729,0.089755364,0.33372626,0.45209524,-0.72761166,0.36196968,0.31010836,-0.22953361,0.08195459,0.003809454,0.321286,-0.023491483,0.30180776,0.22110708,0.03346116,0.24096991,-0.14876358,0.22904833,0.17850998,0.1462264,0.039334897,0.44484323,-0.1256389,0.27444005,-0.6121045,-0.17400412,-0.1548943,0.4521217,0.24781477
Champtercier::0.32324687,-0.62943673,0.28636163,0.2008551,-0.44153038,-0.46685076,0.4637939,-0.104601406,-0.36792284,1.0431457,-0.084504925,0.34682494,0.3469809,0.33587188,0.15674531,-0.39450553,-0.2961493,0.28869176,-0.26473978,0.019325923,0.08278715,-0.10347138,0.06947675,0.40052772,0.4795021,-0.6259169,0.30755746,0.27667642,-0.21438378,0.028395144,0.06888704,0.26022425,0.017154336,0.33894795,0.2246412,-0.007245345,0.20803739,-0.19748236,0.21169114,0.23198785,0.20248878,0.020704597,0.43685123,-0.08261216,0.22521888,-0.576257,-0.07390731,-0.1781024,0.40517798,0.26862228
Cravatte::0.2577821,-0.632299,0.2478961,0.2378003,-0.3742203,-0.37770665,0.4185614,-0.09532479,-0.27462468,1.0775071,-0.14724292,0.36975816,0.2811035,0.28507262,0.3017744,-0.45237955,-0.21181235,0.33222848,-0.308298,-0.033726856,0.08013447,-0.068146355,0.33798763,0.41520932,0.35857046,-0.5449327,0.2791829,0.31006622,-0.19623582,0.06358638,0.14698546,0.3176917,0.027150173,0.29515746,0.18811451,0.03001468,0.2136507,-0.23286703,0.1283148,0.27437934,0.20187208,-0.007561253,0.5011981,-0.13675655,0.31322706,-0.48332557,-0.019196538,-0.11042806,0.34295171,0.27807948
Count::0.2151987,-0.5274055,0.2191489,0.17687996,-0.44742665,-0.39137575,0.3523164,-0.023343649,-0.42631838,0.95680827,-0.1826216,0.22622384,0.36850786,0.25276065,0.23213607,-0.36101684,-0.22839005,0.22521062,-0.49804318,-0.04415323,0.011134972,-0.15089075,0.06574885,0.37829882,0.5097926,-0.54086196,0.19170432,0.33543056,-0.19465646,-0.07025431,0.2373225,0.24155392,0.05704417,0.36645654,0.30558082,-0.012391585,0.11558881,-0.19100294,0.19894496,0.26193294,0.19269767,0.11556674,0.42420116,-0.22218838,0.22414282,-0.5767909,-0.12414426,-0.14230575,0.26647463,0.13105993
OldMan::0.22978678,-0.51830065,0.22896242,0.18231831,-0.4413164,-0.3030486,0.39853483,-0.05531185,-0.3783625,0.9358393,-0.17893122,0.2310895,0.34052262,0.273848,0.19026001,-0.3348409,-0.17424059,0.20418742,-0.34194005,0.035616428,0.08118848,-0.13140726,0.05326076,0.38811138,0.3094842,-0.5728743,0.26849002,0.22117755,-0.15291496,0.09586054,0.106650874,0.2247859,0.063475594,0.31960633,0.23772617,-0.011452873,0.22274438,-0.23475476,0.14661433,0.23979874,0.27732545,0.04309155,0.42484897,-0.11174191,0.23753083,-0.5696216,-0.10769835,-0.165429,0.31766787,0.23893157
Valjean::0.0875213,-0.13125722,-0.05075724,-0.093953796,-0.009308458,-0.26515767,0.18570611,-0.08330095,-0.34720385,0.46409056,0.02095748,0.016560324,0.16673297,0.19027351,0.28879198,-0.09795213,-0.3464517,-0.12607607,-0.23933801,0.08253749,-0.24651985,-0.10101075,0.06862529,0.16844682,0.32952508,-0.113060065,-0.18351363,0.29500598,0.06465872,-0.13873589,0.12950523,0.27867004,-0.04568505,0.0939382,0.08169176,-0.21795686,-0.0639863,-0.16415264,-0.14143978,-0.0047519137,0.090729915,-0.05021737,0.20348708,0.14171919,-0.14950584,0.13216813,0.29029772,-0.045446496,0.03846452,0.12914653
Labarre::0.014608589,-0.122700386,-0.07012613,0.030866189,-0.049166445,-0.26851425,0.17829216,-0.004702474,-0.21964413,0.34425846,-0.07848891,0.022897722,0.15958817,0.09844566,0.2661861,-0.10373977,-0.13553217,-0.076775156,-0.19712189,0.09427901,-0.2016702,-0.026389685,0.03215038,0.17200428,0.29446286,-0.05793406,-0.09967638,0.19318125,-0.08821054,-0.10980048,0.24946637,0.16449651,0.02841692,0.114380084,0.17060442,-0.18469599,-0.105621375,-0.16778629,-0.095450856,0.3977664,0.28715456,0.007505905,0.095413096,0.1421836,-0.07288773,0.055869594,0.2451294,-0.18837848,0.10437397,0.17530093
Marguerite::-0.028335543,0.028179336,-0.19571903,0.103113525,-0.057689063,-0.05928308,0.17880225,-0.030927772,-0.14494976,0.31557995,-0.10221756,0.01561592,0.08027358,0.028783118,0.45645866,-0.020352544,-0.063795805,0.03359344,-0.25960532,0.10297021,-0.09336717,-0.07444183,0.30699962,0.20964243,-0.1859478,0.050865144,-0.017489808,0.30426416,0.06299925,0.13855578,0.08281484,0.34448385,0.005087481,0.052033305,0.0029720543,-0.27408695,-0.14782552,-0.4232945,-0.3294291,0.40750214,0.38629875,-0.03563329,0.0063096066,0.123884976,-0.11543005,0.10611272,0.12257276,-0.23574004,0.11940856,0.32828477
MmeDeR::0.059077967,-0.051863454,-0.07105978,0.040681645,-0.06390562,-0.3421074,0.0986361,0.045535035,-0.22550604,0.27191496,0.11043389,-0.043106098,0.11312019,0.09037478,0.18283421,-0.077107586,-0.23459737,-0.07862721,-0.22836135,0.033059306,-0.13280064,-0.05929122,-0.03912585,0.100904465,0.31429064,-0.036875565,-0.09597303,0.22878762,-0.026394716,-0.09299153,0.20080233,0.18841238,-0.05608147,0.09622886,0.17219147,-0.19291747,-0.18325281,-0.18417479,0.008758161,0.33109915,0.21217503,-0.009279642,0.06021512,0.096965306,-0.22567019,0.090781614,0.24276252,-0.25366104,0.077986114,0.17096658
Isabeau::-0.0272658,-0.04830315,-0.055839807,0.057732474,-0.056279466,-0.15617764,0.14034449,0.09817621,-0.2432829,0.24813746,-0.045664288,-0.088418685,0.1825176,0.044460393,0.29613245,-0.15534212,-0.0802951,-0.1305091,-0.32193452,0.048008725,-0.1880592,-0.06777192,0.019272778,0.099312946,0.16734095,-0.12895255,-0.11440249,0.19033091,-0.048727125,-0.06673035,0.21485966,0.14276035,-0.005297886,0.079655975,0.17592113,-0.19564663,-0.051651586,-0.15123662,-0.041630425,0.33012864,0.28118816,0.040449623,0.13118505,0.094230846,-0.08388177,0.059845664,0.15594536,-0.23797795,0.10773714,0.20904306
Gervais::0.046235554,-0.00411128,-0.009943266,0.06713004,-0.01049116,-0.19455582,0.20501764,0.036007926,-0.18468411,0.13450333,0.066764645,-0.009648137,0.14842007,0.053898305,0.28800508,-0.064912096,-0.16161093,0.030088259,-0.13718507,0.10742973,-0.16524239,-0.06827132,0.034887757,0.06589483,0.13420188,-0.11144711,-0.048025183,0.25677416,-0.02146223,-0.0068849046,0.029941674,0.22252034,-0.05866427,0.023563968,0.089048594,-0.2112554,-0.115959644,-0.22139785,-0.116925955,0.3422311,0.21193683,0.019136658,-0.03602281,0.16165823,-0.13496625,0.08056829,0.06559254,-0.21751374,0.21496913,0.22768259
Listolier::-0.09375281,0.25491524,-0.23933217,0.28429627,-0.08590458,0.26173925,0.3987418,-0.044307847,-0.045174643,0.2885299,-0.294671,0.046631813,0.070185214,-0.09412921,0.76318043,-0.13399872,0.113439165,0.19937505,-0.5012806,0.12009649,-0.10061376,-0.26958382,0.55108935,0.21671174,-0.5928895,-0.14701307,0.10332562,0.6245255,0.12212408,0.40955904,-0.05960647,0.73463506,0.010877421,-0.06501046,-0.091859356,-0.2895885,-0.19119634,-0.6547496,-0.5656637,0.5357234,0.45561942,-0.015345576,0.052259993,0.18482989,-0.12236814,0.096037105,-0.07621251,-0.3121583,0.3058271,0.4632834
Tholomyes::-0.115997836,0.19423875,-0.19991948,0.20018333,-0.033764236,0.27472726,0.28648615,-0.004029392,-0.09602735,0.20067045,-0.23505153,-0.053523675,0.13193423,-0.107997954,0.6984567,-0.063791566,0.08201738,0.07781794,-0.42855462,0.12624241,-0.13295534,-0.20219381,0.46517262,0.14995842,-0.51218075,-0.0755978,0.013044929,0.500422,0.12288792,0.28417543,-0.07034784,0.55044717,-0.03197405,-0.093636,-0.045109484,-0.2860453,-0.10200913,-0.62274826,-0.52233195,0.47118524,0.4791436,0.0032283042,0.031242704,0.1939328,-0.12065019,0.1666853,-0.029512415,-0.27509978,0.30523738,0.48684284
Fameuil::-0.10732936,0.24477331,-0.2492188,0.19970107,-0.07204898,0.32019424,0.39393127,-0.060761966,-0.102853894,0.3073745,-0.37211666,-0.008570244,0.13848567,-0.048727367,0.735152,-0.047242388,0.18344603,0.07713057,-0.45644066,0.22392355,-0.16336636,-0.19606888,0.46263933,0.25210392,-0.6126489,-0.04145539,0.030638058,0.5341762,0.11378649,0.3793075,-0.0017500016,0.6136719,0.030122953,-0.0416508,-0.037374347,-0.31854406,-0.15069264,-0.61292636,-0.53725076,0.5306167,0.5623356,-0.0322298,0.030494144,0.25995472,-0.12459575,0.15712509,0.054119915,-0.28636274,0.28349945,0.42962858
Blacheville::-0.062450103,0.22085232,-0.18176493,0.25433904,-0.11917629,0.28605857,0.41166192,-0.046749055,-0.05162038,0.2726842,-0.23868524,0.012914183,0.11371044,-0.09305115,0.741748,-0.092298016,0.05112711,0.22577794,-0.48304293,0.11253737,-0.07039664,-0.26929662,0.5284171,0.18669397,-0.60149395,-0.13587755,0.15149508,0.6089536,0.10317517,0.36822516,-0.17058587,0.6702885,-0.031742275,-0.057473864,-0.14553066,-0.26122138,-0.1675342,-0.70046055,-0.5437207,0.4781083,0.4489707,3.5243953e-05,0.025131162,0.18726897,-0.12719353,0.09978222,-0.094196126,-0.26935446,0.37176687,0.4967738
Favourite::-0.031063061,0.25388908,-0.16014868,0.2954498,-0.07005448,0.24341348,0.39985254,-0.02457408,-0.06376553,0.28703222,-0.27966458,0.02931586,0.13870504,-0.102431506,0.71984977,-0.117357835,0.12512997,0.21854691,-0.4788271,0.17450486,-0.09994313,-0.23767021,0.47778228,0.20028587,-0.58518106,-0.13942105,0.07656808,0.62590134,0.06719784,0.38392136,-0.05231277,0.651019,0.030025281,-0.047339223,-0.07353448,-0.24657907,-0.16775067,-0.6589671,-0.49202064,0.5658493,0.46513158,-0.036134854,0.0121111125,0.22858776,-0.121849254,0.09397066,-0.10652546,-0.3019097,0.33445403,0.4596856
Dahlia::-0.07736349,0.19784497,-0.16919696,0.26404136,-0.06626114,0.26961428,0.395389,-0.04084161,-0.08173289,0.26662993,-0.25933087,0.013410805,0.16273645,-0.10651042,0.73782754,-0.09615272,0.07784512,0.14382628,-0.47571927,0.13992552,-0.09809674,-0.24579242,0.5192654,0.18999004,-0.55044705,-0.15643175,0.08639755,0.5776587,0.08892057,0.3348284,-0.08399611,0.6366743,-0.012798049,-0.07837776,-0.10086127,-0.25945657,-0.09848517,-0.6704706,-0.5621241,0.50435454,0.52051675,-0.010531993,0.00075222255,0.21611156,-0.091187805,0.1297597,-0.085577264,-0.25584066,0.33611766,0.5185457
Zephine::-0.078740716,0.25659287,-0.15621436,0.24755962,-0.067115806,0.2581994,0.40018034,-0.06972311,-0.12683961,0.26096883,-0.23970823,-0.016838627,0.13751653,-0.06939723,0.7860716,-0.030672241,0.062501445,0.25917777,-0.40101182,0.19600978,-0.09181551,-0.22969945,0.46931535,0.24513026,-0.64988536,-0.12110883,0.06085922,0.57549894,0.12974986,0.39989904,-0.13682124,0.6677015,-0.027333753,-0.06572524,-0.092202775,-0.34181812,-0.13683732,-0.6890941,-0.5609038,0.5367715,0.43742856,0.003462105,-0.014972765,0.2118946,-0.12556194,0.10126116,-0.14278509,-0.28439152,0.34891638,0.46361205
Fantine::-0.08347596,0.1637147,-0.14099035,0.12994212,-0.043374803,-0.019245742,0.19235303,-0.07466294,-0.16256091,0.2973382,-0.0856265,-0.07168362,0.07261629,-0.023862287,0.64013326,0.031547744,-0.1316048,0.22462335,-0.26314604,0.16152154,-0.17622995,-0.17518213,0.39211124,0.26082504,-0.28444406,0.022417242,-0.09479195,0.4616068,0.17191747,0.16143003,0.06273299,0.47356245,-0.061882406,0.0023208668,-0.09583951,-0.37459007,-0.17908327,-0.52458274,-0.3952621,0.38354924,0.2560693,-0.0011211525,-0.01767803,0.07297255,-0.14482637,0.13996598,0.01002809,-0.13867353,0.17132255,0.24992125
MmeThenardier::0.052674074,-0.080382705,-0.13461505,0.0015393852,0.12184116,-0.37320626,0.10594561,-0.032271195,0.036489494,0.1385333,0.27155155,0.070991285,-0.054345697,0.113031454,0.21972655,-0.18897118,-0.22966278,0.17568071,-0.033149164,-0.027620686,-0.13228936,-0.06982638,0.288457,0.017944215,0.34741268,-0.05847413,-0.04683577,0.30093175,0.04466723,-0.01674062,0.12981881,0.44693714,-0.15813594,-0.027866239,0.070294626,-0.18437314,-0.2257093,-0.09886647,-0.20750327,0.357879,0.03353332,4.932772e-07,0.057212792,0.20646778,-0.19988336,0.2709641,0.31477854,-0.3471173,0.2782245,0.28855518
Thenardier::0.064204045,-0.14023824,-0.0894804,0.09625376,0.07145873,-0.35831058,0.2395887,-0.063801356,0.085835636,0.010045401,0.32805467,0.15717685,-0.10198535,0.15798253,0.26169044,-0.13655949,-0.2728326,0.15453191,0.06914031,-0.018561753,-0.16927145,0.015340594,0.21926557,-0.007804233,0.26398635,-0.10089591,0.11701227,0.21113834,-0.053595103,0.03747037,-0.105463296,0.39807275,-0.19928943,-0.021496544,0.0030641358,-0.23698314,-0.23685771,-0.17980118,-0.14917749,0.3211407,0.05631286,-0.064537086,0.09958422,0.25428152,-0.29809782,0.29594862,0.38083273,-0.2940267,0.38282272,0.37817022
Cosette::0.086804025,0.018172352,-0.09726898,0.14555687,-0.09365614,-0.3720071,0.03161413,0.1571201,-0.16195431,0.138271,0.14975183,-0.059081506,0.05275801,-0.023377704,0.1951746,-0.13966599,-0.20664327,-0.06649173,-0.3750715,-0.03650576,-0.14661005,-0.086254336,0.04386167,-0.051565092,0.2582573,-0.028858798,-0.040651705,0.34256896,0.032525215,-0.16007125,0.16413394,0.2097198,-0.034632362,0.082769655,0.080539964,-0.13290563,-0.25290635,-0.20865324,0.06539085,0.30839682,0.2112164,-0.02175241,0.06908444,0.009158327,-0.23025216,0.03790111,0.19270676,-0.26368487,0.075119875,0.14651571
Javert::0.016966615,-0.17848398,0.02284858,-0.0014237602,0.09911186,-0.2255376,0.09563718,-0.014889633,-0.17209378,0.1828755,0.1529631,-0.026522268,0.20602031,0.069256656,0.3362684,0.029142953,-0.27011475,0.032896046,0.030134466,0.11560969,-0.10899642,-0.04714887,0.19839932,0.08059561,0.17495045,0.061069448,-0.16675825,0.21725602,-0.06582832,-0.069155395,0.09370654,0.11586192,-0.1775036,-0.010316191,0.09523056,-0.31205043,-0.0029808856,-0.24258982,-0.10131667,0.28832296,0.2900717,-0.061548475,-0.043052793,0.24479645,-0.15649864,0.27045307,0.2695954,-0.23337454,0.23324865,0.37185165
Fauchelevent::-0.063967995,-0.2730812,-0.047527675,0.021257399,0.25916362,-0.31705287,0.2883248,0.19706762,-0.32397965,0.29191998,-0.2683912,-0.028709402,0.3358098,0.07951313,0.5386714,-0.42057082,0.055279292,-0.41045126,-0.2669691,0.24685247,-0.5783706,0.15510382,0.2313437,0.04059434,0.34765902,-0.17500225,-0.36695093,0.1738966,-0.1901,-0.3681568,0.35698003,0.0341924,0.019221278,-0.08094608,0.22358377,-0.21459228,0.15042996,0.21501249,-0.15294334,0.42626074,0.43513203,-0.13324602,0.1731812,0.34804967,0.24528629,0.25008705,0.30718008,-0.057217315,0.12631688,0.24265349
Bamatabois::0.08516593,0.16918258,-0.1378133,-0.103533104,-0.14689282,-0.16745625,0.40235063,-0.1976325,-0.5022789,0.31614316,-0.16741884,-0.061054125,0.25670993,0.2045456,0.15880704,0.2417342,-0.26058477,-0.15229948,-0.12901919,0.36490542,-0.20985568,-0.13626589,-0.49826884,0.3115806,0.19148949,-0.118788384,-0.06582044,0.20437704,-0.0302856,0.14454319,0.06282256,0.2855504,0.10206286,0.14604458,0.191072,-0.34669375,-0.26127788,-0.41030887,-0.318483,0.47054976,0.3822658,0.04437216,-0.10513046,0.37162387,-0.33052766,0.075547576,0.18104888,-0.27634442,0.21127826,0.16436423
Perpetue::-0.23450881,-0.17274442,0.06405711,0.04594575,-0.028503425,-0.40677097,-0.10627662,-0.0105038155,-0.3754007,0.59209746,0.10294961,-0.121373355,0.12988725,0.0014812876,0.8811128,0.10643716,-0.3929222,0.3484948,-0.094268374,0.07614151,0.0103473915,-0.03064399,0.76573473,0.6160461,-0.19274203,0.39906287,-0.31056982,0.25382116,0.22393957,0.051562663,0.37996683,0.2572516,-0.1349795,0.12635015,-0.14579092,-0.65775096,0.0912838,-0.618917,-0.42457366,0.5093635,0.36226627,-0.052740537,-0.08144053,-0.16269219,0.061492562,0.21089828,0.048321128,-0.11243626,-0.19755909,0.45687526
Simplice::-0.056134652,-0.116836675,0.063019335,-0.0037141037,0.030333608,-0.32514203,0.011452199,-0.024656892,-0.3483814,0.51882416,0.11031235,-0.11576766,0.28043252,0.09431233,0.70405567,-0.014762521,-0.2631884,0.17206702,-0.14939494,0.14642502,-0.007703472,-0.035163134,0.54457724,0.47701782,-0.26838115,0.2802668,-0.32291114,0.20773548,0.10706135,-0.08820769,0.32006288,0.111238025,-0.00950782,0.17095007,-0.17202109,-0.5899987,0.13212684,-0.44141886,-0.2818793,0.5037233,0.431927,-0.013709661,-0.16499792,-0.081374966,0.0721254,0.12747103,0.0022933912,-0.14602862,-0.1477098,0.3861553
Scaufflaire::0.06740467,0.024629945,-0.12694547,0.06015243,-0.05352021,-0.27646917,0.14227459,-0.0032760897,-0.1921299,0.18001412,0.070310354,-0.02053007,0.07455231,0.07716467,0.21710932,-0.012754553,-0.21442388,0.046234824,-0.22081146,0.045176372,-0.1541215,-0.09756288,-0.038576894,0.122619055,0.27193147,-0.04791444,-0.03628247,0.2832885,-0.014572102,-0.011181202,0.15616216,0.30864003,-0.047011696,0.090703934,0.13470267,-0.2204309,-0.26466247,-0.25317326,-0.1087039,0.39525527,0.18535067,0.06720458,-0.005325428,0.09206898,-0.23420018,0.10248902,0.14957382,-0.2650149,0.16171241,0.18924889
Woman1::0.10228473,-0.14754474,-0.0060506947,0.082228,0.022818599,-0.46274352,0.10985134,0.07644467,-0.13762751,0.282293,0.16555133,0.024611931,0.10338883,0.07680145,0.2560715,-0.14227362,-0.2286111,0.014627532,-0.10929033,0.061666775,-0.15343684,0.05258378,0.18774816,0.044851262,0.30809265,-0.026457557,-0.11269015,0.25361934,-0.063286245,-0.19127394,0.21005923,0.11082011,-0.061771963,0.06166751,0.10219,-0.20446354,-0.14022526,-0.07502037,0.017119804,0.37326774,0.22382985,-0.07614749,0.00877324,0.15157649,-0.099115215,0.1477976,0.27108544,-0.21018098,0.13124101,0.23061368
Judge::0.15678184,0.17573105,-0.203577,-0.113326415,-0.22189963,-0.3164397,0.4176101,-0.16022749,-0.62812054,0.28239393,-0.1332385,-0.051331043,0.26888046,0.2833709,0.00743102,0.23121975,-0.3060217,-0.24084839,-0.19918329,0.3772579,-0.2993782,-0.21039434,-0.7614618,0.2434768,0.35543653,-0.27712297,-0.04577957,0.18969639,-0.0038999831,0.07734058,0.04793785,0.2992726,0.0827715,0.21375823,0.35071856,-0.41392493,-0.32049835,-0.2916927,-0.15928438,0.4317447,0.4196574,0.111498654,-0.09996185,0.31951272,-0.39885426,-0.12279148,0.1290661,-0.362287,0.26769835,0.062468205
Champmathieu::0.18531136,0.16037302,-0.21350531,-0.10988445,-0.15328987,-0.3722849,0.41818276,-0.14988224,-0.6335882,0.27320537,-0.11917407,-0.04784688,0.20002492,0.3068146,0.036368076,0.24889627,-0.30744794,-0.13055187,-0.15746963,0.37309703,-0.3329834,-0.1729967,-0.6910275,0.29960784,0.43087867,-0.20824915,-0.05096546,0.23008886,-0.038050074,0.04263614,0.093775146,0.33542863,0.09023709,0.21718328,0.29883042,-0.41352397,-0.34279516,-0.3176727,-0.24535085,0.48051912,0.3610659,0.14715858,-0.1225313,0.28703225,-0.37954444,-0.04538407,0.124865,-0.31409904,0.2612038,0.101275966
Brevet::0.16897194,0.14436483,-0.17758663,-0.1414274,-0.14843032,-0.37816465,0.39389715,-0.15144685,-0.69756776,0.3062028,-0.09851978,-0.117568456,0.28304642,0.28154817,0.053104766,0.32563233,-0.3604585,-0.20474498,-0.17809364,0.40900224,-0.30991605,-0.17418525,-0.72314584,0.3018739,0.40527833,-0.14154154,-0.116987646,0.23498179,-0.04758997,-0.027060358,0.103902966,0.2656288,0.09714223,0.2110945,0.31567124,-0.41701776,-0.30746588,-0.32681724,-0.21979527,0.46721724,0.40258428,0.09776721,-0.18464531,0.32442528,-0.37559795,-0.005825907,0.12210813,-0.28034762,0.20849586,0.08877851
Chenildieu::0.14684388,0.16453338,-0.19588657,-0.10524339,-0.19329894,-0.3485221,0.4580425,-0.13580008,-0.7185344,0.34101018,-0.26564547,-0.04944714,0.28390974,0.2653199,0.10504861,0.31053424,-0.285794,-0.18895191,-0.22287618,0.44440854,-0.33076754,-0.14907183,-0.72406566,0.31339678,0.4023411,-0.16510956,-0.10290716,0.27445915,-0.06750246,-0.009282872,0.14750338,0.25724867,0.100000046,0.22439519,0.34988752,-0.40526855,-0.33959,-0.361731,-0.3031456,0.56695336,0.4277296,0.10657757,-0.13948254,0.32252234,-0.39057717,-0.103343636,0.091424786,-0.32391775,0.23021604,0.04843134
Cochepaille::0.19035397,0.10916688,-0.21309294,-0.11894328,-0.17102805,-0.40443048,0.43031773,-0.22190534,-0.6487574,0.35346344,-0.12677576,-0.018180529,0.24101856,0.28348744,0.044650447,0.33734584,-0.4109429,-0.1285094,-0.100066334,0.40148786,-0.26892707,-0.16071276,-0.708459,0.3428881,0.42650107,-0.16844763,-0.061129946,0.18241742,-0.05947093,0.086838976,0.05267874,0.31934476,0.038903285,0.17834015,0.32235485,-0.43669453,-0.35864347,-0.39809301,-0.23625706,0.45478773,0.3823761,0.090286866,-0.12702003,0.29852834,-0.3880947,-0.048549265,0.09850162,-0.29471633,0.26086074,0.09612708
Pontmercy::-0.027582712,0.013224344,0.15532461,0.22498775,-0.09267382,-0.19265673,-0.1076006,0.23863469,0.20429523,0.16872226,0.5997814,-0.30242512,0.118487306,-0.119902804,0.28330755,-0.3242025,-0.2469301,0.03599074,-0.3441172,-0.32949978,0.17938128,-0.22205994,0.12847243,-0.055188984,0.46346813,-0.08143547,-0.13147847,0.31472024,-0.18949099,0.19086479,0.40838096,0.2324325,-0.21674167,-0.043206677,0.23538464,0.08875702,-0.33346316,-0.33402193,0.2756321,0.51082474,0.015247442,0.16587405,0.36255762,0.058409367,-0.33545575,0.50710136,0.5250738,-0.4111753,0.0083999885,0.18646464
Boulatruelle::0.06577611,-0.0531112,-0.14910717,0.02530814,0.15900192,-0.37826487,0.22742221,-0.06535459,0.0009851209,0.09541139,0.25127977,0.07718429,-0.03611293,0.15698634,0.23092702,-0.0969117,-0.25867012,0.07628116,0.11457904,0.10886173,-0.22419022,-0.02284231,0.14210582,0.03833985,0.32609877,-0.051164903,-0.077595964,0.27937916,0.009422229,0.041677587,0.049674593,0.42907372,-0.15880397,-0.08068799,0.05613162,-0.23349689,-0.3081604,-0.1430984,-0.26077583,0.3796963,0.071350425,-0.073232904,0.0073252143,0.36880538,-0.2656816,0.443521,0.46956408,-0.27414778,0.30080464,0.29645234
Eponine::0.028858986,-0.12800835,-0.005261156,0.06370087,0.1585977,-0.51237184,0.09333181,0.12935849,-0.07819443,-0.06592964,0.50003606,-0.008688559,-0.1013685,0.16201828,0.28310788,-0.21838728,-0.29477808,0.21815695,0.024724362,-0.027597511,-0.28451398,-0.027337778,0.18589818,-0.12559885,0.4017701,-0.22764465,-0.035262838,0.16384527,0.12428119,-0.0357534,-0.067672655,0.38444343,-0.3202372,-0.07274032,0.103338666,-0.25461975,-0.15881678,0.017318891,-0.08904432,0.24208792,-0.12776093,0.016540095,0.097881354,0.06506606,-0.21460547,0.25996095,0.19997595,-0.38621363,0.38994616,0.36373407
Anzelma::0.009770899,-0.03122042,-0.111449465,0.010776436,0.24323326,-0.4703176,0.188904,-0.038464148,0.0846135,-0.18989444,0.43622145,0.06552403,-0.1465019,0.12756258,0.28404328,-0.28697476,-0.3539272,0.27736405,0.045768548,-0.05647122,-0.24995483,-0.15125297,0.24948092,-0.06383349,0.4251393,-0.18098056,-0.06932807,0.36208847,0.043547016,0.026688186,0.0054410044,0.64726585,-0.30548927,-0.13583975,0.017489841,-0.30654564,-0.32836184,-0.034996033,-0.3508117,0.3405096,-0.17939185,0.09306909,0.0537298,0.24649265,-0.25361001,0.46467158,0.26320067,-0.29118028,0.41021994,0.24505042
Woman2::0.070970386,-0.08655141,-0.048196733,0.020627648,-0.028271979,-0.36757743,0.11370055,0.038777802,-0.13946593,0.3476112,0.11593133,-0.0074294866,0.111435175,0.06006238,0.24699837,-0.10336929,-0.26880315,-0.14583428,-0.15678954,0.07621439,-0.15695612,-0.005061709,0.12896952,0.10132926,0.23700745,0.015437509,-0.14049958,0.2370763,-0.004824247,-0.14021492,0.20303378,0.14097936,-0.0119113345,0.058614857,0.040144768,-0.20321004,-0.15179645,-0.17137262,-0.0344971,0.2660899,0.2675948,-0.1321865,0.07339718,0.207003,-0.17381608,0.16095911,0.4000865,-0.18108195,0.051217485,0.20789972
MotherInnocent::-0.16264664,-0.2516917,-0.12758721,-0.075349934,0.12373485,-0.06719127,0.31266078,0.14591359,-0.20991777,0.33775768,-0.42097807,0.016598083,0.32465205,0.1039078,0.6417388,-0.4299789,0.13097279,-0.49629945,-0.29324588,0.18780969,-0.6070004,0.12967932,0.32398227,-0.019682754,0.22566962,-0.18888411,-0.29030055,0.17013592,-0.1593908,-0.3986535,0.343375,-0.034625363,0.09098773,-0.017088296,0.26808706,-0.24027188,0.12606028,0.19259745,-0.21135661,0.38582265,0.49686545,-0.15212153,0.29458484,0.39107117,0.16346714,0.14356911,0.47167075,-0.016579878,0.21601556,0.25535676
Gribier::-0.16786455,-0.3342783,-0.049194556,-0.13718392,0.22634834,-0.2753997,0.3108475,0.15579672,-0.32468688,0.31114808,-0.3394193,-0.008968813,0.37012893,0.15120913,0.70876384,-0.4050004,-0.013112192,-0.44182497,-0.21488163,0.18942621,-0.7390416,0.15611239,0.2693161,0.040108692,0.5288782,-0.18000971,-0.4526887,0.19232471,-0.24480969,-0.55636346,0.48534694,-0.06494428,0.058284502,0.010545613,0.36553898,-0.36265782,0.07994015,0.24267532,-0.20053074,0.4967568,0.44223467,-0.079801135,0.22437699,0.39133713,0.16667813,0.24799098,0.5041669,0.013707923,0.16884679,0.24125127
MmeBurgon::-0.11600194,-0.17524418,0.26974255,-0.003305345,-0.4062119,-0.18966,0.055864863,0.25187373,0.09630597,0.22591916,0.45295238,-0.24398479,0.29704523,0.024701592,-0.07197352,-0.8116319,-0.09630467,-0.6643409,-0.32788566,0.009348389,0.061379712,-0.15266468,-0.084714614,-0.24657027,-0.13564007,-0.40460402,0.08208404,-0.1243924,0.38844487,0.1906309,0.05911747,-0.017987682,-0.22687979,0.112468,0.049325466,-0.21310212,0.47711158,0.04120339,0.57251656,0.07629293,0.45846623,-0.3220098,0.50529444,0.4283914,-0.23656686,-0.15076534,0.6286107,-0.76352173,0.22051269,0.4605623
Jondrette::-0.05936974,-0.29761228,0.22272925,0.013381265,-0.47302562,-0.40059987,0.077491164,0.3348943,-0.007841585,0.34731665,0.5948474,-0.2085312,0.2840612,0.18300544,-0.030902216,-0.95906806,-0.14396271,-0.72233546,-0.45700225,-0.016545273,0.017335754,-0.16870956,-0.11317907,-0.3059433,-0.017529124,-0.55992407,0.113919586,-0.08080151,0.4076875,0.11688426,0.04961173,-0.021850152,-0.3156573,0.14525253,0.1454519,-0.25671753,0.50049174,0.16812794,0.70868516,0.05255068,0.5004715,-0.3725219,0.6540404,0.41083992,-0.2201455,-0.28696603,0.7004567,-0.8485185,0.32465956,0.4910555
Gavroche::-0.0018449501,-0.100645594,0.044481758,0.05389878,-0.17849003,-0.34077954,0.034739953,0.23998569,-0.11174373,-0.0045340965,0.55369836,-0.22879724,0.124837026,0.18214324,0.15932623,-0.26088318,-0.16728543,-0.25601348,-0.17991398,0.11339641,0.023480326,-0.1348957,-0.030469561,-0.27806368,-0.19673575,-0.29733318,0.029868519,0.13416198,0.23603792,0.0035212692,-0.20194072,0.033655502,-0.3851047,-0.01511628,0.10979363,-0.31604216,0.25512788,0.08743481,0.28313673,0.021469912,0.29316825,-0.25892735,0.07213468,0.28974578,-0.27380157,-0.019798046,0.25877446,-0.5796483,0.3598064,0.43559363
Gillenormand::0.0046815625,0.097074,-0.19759223,0.026708437,-0.14760697,-0.257304,-0.17133877,0.18209544,-0.12856029,0.16463709,0.21655734,-0.13729137,0.05179412,-0.062148243,0.23353921,-0.26196265,-0.19227561,-0.17871585,-0.66749907,-0.22538674,-0.1639368,-0.115412235,0.11466007,-0.13794672,0.33995953,0.018236708,-0.16013712,0.38483164,0.16597974,-0.17256458,0.2888787,0.24243535,-0.11980896,0.10180795,0.24362716,-0.07020349,-0.3275338,-0.19523846,0.25493976,0.24606045,0.018571427,0.017974332,0.29829764,-0.07137464,-0.39697012,0.072435655,0.29386717,-0.43255275,-0.009247044,0.08027662
Magnon::-0.041822366,-0.029392742,-0.250949,0.16337211,-0.05438792,-0.38026914,-0.024724927,0.11681682,0.105011396,0.12594339,0.28103882,-0.010513892,-0.1359059,-0.004997088,0.22654593,-0.23326975,-0.23211241,-0.02890955,-0.42052677,-0.21270919,-0.09766253,-0.108729556,0.27607822,-0.0016278648,0.36319447,0.07155353,-0.002826062,0.38162848,0.0861735,-0.084386416,0.2903409,0.47857898,-0.15058586,0.060435224,0.08748179,-0.107155636,-0.40130126,-0.1972903,-0.05019099,0.33007652,-0.011296555,0.017475735,0.1920258,-0.02596544,-0.31635743,0.26485166,0.44921032,-0.29742643,0.05169412,0.17419046
MlleGillenormand::-0.09233974,0.089518964,-0.16765147,0.21593545,-0.27205956,-0.28475845,-0.1890768,0.3305833,-0.04364109,0.16661146,0.28245085,-0.30850667,0.047812983,-0.09176065,0.19636759,-0.2324664,-0.19759583,-0.27666414,-0.79673624,-0.23295306,-0.005665584,-0.25964254,-0.011005758,-0.05681686,0.2945704,0.035919733,-0.086516924,0.38600078,0.11548364,-0.1406083,0.45001367,0.2544023,-0.11653138,0.12875998,0.19921826,-0.023499232,-0.3048067,-0.25271875,0.15838371,0.34470066,0.13491729,0.10141733,0.20310625,-0.16135179,-0.3510401,0.06013139,0.3127341,-0.3777321,-0.11216708,0.04233708
MmePontmercy::-0.14626679,0.07535688,0.0667256,0.18076648,-0.15010713,-0.121768385,-0.22669536,0.24458294,0.0023858286,0.23115693,0.46758273,-0.3958686,0.22257501,-0.18018734,0.41291377,-0.26339456,-0.2582503,-0.10287797,-0.72932094,-0.47050694,0.031169368,-0.2111087,0.13902076,-0.02044077,0.57905763,0.026465539,-0.22001387,0.43031123,-0.1563304,-0.053596362,0.5594457,0.22380763,-0.12906793,0.122424394,0.36975417,0.06637958,-0.38242912,-0.45955887,0.38209298,0.5522468,-0.007877558,0.26776642,0.38309315,-0.12652466,-0.47539556,0.49868873,0.50866044,-0.42689005,-0.1972382,0.18168463
MlleVaubois::-0.09602592,0.106252305,-0.058251787,0.07198575,-0.18504012,-0.27751485,-0.21377544,0.27959588,-0.20540084,0.093348555,0.3246003,-0.33284786,0.12148618,-0.07804071,0.27163807,-0.22923678,-0.23069982,-0.20249496,-0.75465494,-0.2462024,-0.10004224,-0.20925304,0.008531143,-0.08981654,0.30780807,-0.050612807,-0.18207258,0.34338808,0.15125403,-0.1710926,0.35754713,0.19274142,-0.18276347,0.12621887,0.24547398,-0.1694997,-0.21295978,-0.18959412,0.2709166,0.26101348,0.04416622,0.14355782,0.24042554,-0.20504569,-0.36214626,0.056091018,0.17886677,-0.43763694,-0.05762421,0.11764755
LtGillenormand::-0.046709515,0.06414775,-0.18325508,0.058699578,-0.16403212,-0.32131195,-0.1616686,0.21043167,-0.09731958,0.12244169,0.33473137,-0.22843234,0.047639996,-0.030250246,0.16869143,-0.23613393,-0.26736936,-0.29129204,-0.6836969,-0.21418747,-0.13133185,-0.20602277,-0.013257094,-0.1211705,0.40543875,0.0043937573,-0.14969417,0.3657644,0.14411731,-0.19484548,0.35046154,0.26741466,-0.18535185,0.1276844,0.24532996,-0.1028732,-0.30747494,-0.16652901,0.22129615,0.2448394,0.040567823,0.06992367,0.24243791,-0.08280805,-0.4275593,0.13488567,0.35735244,-0.4089986,-0.0538416,0.08616543
Marius::-0.056379434,-0.031877175,-0.10031066,0.08374932,-0.009403549,-0.17615399,-0.057154823,0.17292817,-0.110824965,0.036114294,0.25098604,-0.19426341,0.11911181,-0.05699217,0.24169187,-0.12490477,-0.25293592,-0.13479152,-0.4674856,-0.11586607,-0.07684524,-0.13920996,0.14146546,-0.116339825,0.21923205,-0.034386706,-0.11602865,0.30727315,0.044844113,-0.22674976,0.13951582,0.18150787,-0.2769399,0.032935016,0.17361939,-0.12712587,-0.033678234,-0.14394806,0.080919124,0.12699386,0.09533594,0.017966865,0.10719059,0.013935677,-0.30672473,0.13171731,0.15087076,-0.4120033,0.18244302,0.36106333
BaronessT::-0.10103097,0.07614462,-0.13374624,0.17478351,-0.1366703,-0.33286387,-0.15054724,0.3180261,-0.027208243,0.04069104,0.37051034,-0.2557444,0.033628274,-0.04786688,0.26613942,-0.33897394,-0.19946043,-0.21533102,-0.68490326,-0.22519061,-0.137811,-0.20425826,0.120918356,-0.15190001,0.27589193,-0.04040983,-0.11665997,0.39122632,0.17791735,-0.18615554,0.347554,0.28932384,-0.2052797,0.08392328,0.15559286,-0.1191403,-0.22808126,-0.09140618,0.13725615,0.26982597,0.039830323,0.07527939,0.17214283,-0.15385714,-0.2989274,0.11758456,0.27269584,-0.38413405,-0.03938567,0.10758874
Mabeuf::-0.098232344,-0.011938627,0.2852447,0.1087644,-0.0028489141,-0.2849159,0.0650273,0.49286455,-0.24997452,-0.30321577,0.5468061,-0.34177572,0.22152452,0.085738055,0.44564,-0.5760421,-0.14827903,-0.032074843,-0.41473803,-0.04213022,-0.33384964,-0.2195115,0.024519257,-0.4542277,0.03786724,-0.53024954,-0.12858471,0.23526962,0.15077586,-0.105079465,-0.09185245,0.104922816,-0.4676186,-0.09124172,0.19393377,-0.3898904,0.26835033,0.26709428,0.20240282,0.05457567,0.009850478,0.10616469,0.117597714,-0.0147429,-0.05376499,-0.0381791,-0.13269882,-0.50196296,0.44598076,0.3365297
Enjolras::0.062234133,-0.010161538,0.29273185,0.058821443,-0.09565405,-0.31634456,0.11283981,0.28899467,-0.26818007,-0.0132018225,0.5612966,-0.31034902,0.2580439,0.06289142,0.3547424,-0.25309676,-0.36245212,-0.19380714,-0.22611058,0.09662458,-0.083867215,-0.15345323,-0.05372235,-0.19404098,-0.062788345,-0.3139448,-0.13296114,0.20035519,0.12239835,-0.08189728,-0.18446463,0.022074819,-0.3277915,-0.050817538,0.024082132,-0.30457217,0.2271485,-0.06437294,0.20858017,0.029959414,0.18077353,-0.1265814,0.050833244,0.17174059,-0.19896656,0.050853424,0.04880116,-0.29070303,0.2030671,0.29956028
Combeferre::0.060555838,0.015384066,0.250034,0.024117853,-0.051798966,-0.2662356,0.09402742,0.32158896,-0.3470106,-0.052920043,0.5477429,-0.33526835,0.2922952,0.011190343,0.40476137,-0.29739377,-0.36928096,-0.1548939,-0.31962717,0.054140203,-0.12743638,-0.08649683,-0.05898233,-0.2683308,-0.023842147,-0.34906587,-0.16965154,0.14140683,0.15346007,-0.116276234,-0.24349616,-0.0028902548,-0.40944228,-0.07384627,0.065546446,-0.23056713,0.21741362,-0.09046275,0.21939668,-0.013913413,0.06348869,-0.14391667,0.16606697,0.15137175,-0.28063902,0.03646221,-0.06540516,-0.35498986,0.35092634,0.32680747
Prouvaire::0.010537828,0.10481237,0.28799832,0.085712545,-0.11561356,-0.21778506,0.08229697,0.32026315,-0.33650216,-0.17990538,0.5210941,-0.39520013,0.3620764,0.00016353864,0.33834112,-0.1533052,-0.31491953,-0.19420245,-0.3619257,0.13316733,-0.07742911,-0.25252205,-0.1697685,-0.2806295,-0.091712065,-0.3390261,-0.15841444,0.27112672,0.1681235,-0.07151597,-0.19460328,0.05040748,-0.37724924,-0.06948141,0.13193801,-0.31112427,0.20649797,-0.07370773,0.1971342,0.04918326,0.2347623,-0.047256924,-0.090434514,0.18344294,-0.27366555,-0.0047469814,-0.106442265,-0.39716625,0.2582228,0.27727196
Feuilly::0.036217812,0.010404374,0.23595005,0.093449466,-0.09068703,-0.32209194,0.091177806,0.3451027,-0.32111758,-0.11014031,0.55792034,-0.3323373,0.24364851,0.03696772,0.364371,-0.24399205,-0.34477922,-0.15604733,-0.30501762,0.10035189,-0.06828181,-0.15375097,-0.03316267,-0.26720008,-0.13676377,-0.3306389,-0.12363106,0.20158175,0.1775989,-0.08483566,-0.23774046,0.036565002,-0.45736006,-0.057872523,0.06382255,-0.33049086,0.2733337,-0.010452575,0.1900755,-0.015548134,0.16363294,-0.15070894,0.04333811,0.11948304,-0.22548582,-0.024164341,-0.05884179,-0.35937512,0.2995227,0.32842362
Courfeyrac::-0.05225425,-0.06544302,0.3206217,0.13029563,-0.08418045,-0.2822844,0.021232048,0.3163153,-0.21977755,-0.18321057,0.5408501,-0.35018945,0.37999254,-0.032730795,0.29703826,-0.18406129,-0.3288486,-0.10917448,-0.3318371,0.099100925,-0.017952098,-0.22765797,-0.009936231,-0.27096117,0.020173067,-0.31526545,-0.13118985,0.24563695,0.10264228,-0.15349457,-0.14359315,0.038875382,-0.4276942,-0.01944255,0.1574588,-0.2747451,0.27471942,-0.03446931,0.23775002,0.076938204,0.2212513,-0.052128688,-0.077194855,0.131919,-0.20401634,-0.026618607,-0.048399255,-0.40893143,0.35456878,0.37890366
Bahorel::0.035890304,0.058068253,0.3219832,0.08332183,-0.09907959,-0.27136713,0.12773678,0.325794,-0.30348554,-0.18127522,0.6064614,-0.34970793,0.3069527,0.05908121,0.33144268,-0.23038818,-0.3464019,-0.17843659,-0.27847034,0.14500897,-0.10997853,-0.20170061,-0.11118997,-0.29837608,-0.09858332,-0.40145105,-0.08772754,0.22340798,0.19647652,-0.047257017,-0.30662903,0.10127981,-0.42399538,-0.0485432,0.06468584,-0.3101532,0.28108597,-0.052626252,0.17540511,0.009251566,0.18924226,-0.077809274,-0.02154324,0.15734765,-0.22329485,-0.028842025,-0.082318015,-0.37504354,0.31269753,0.33910185
Bossuet::0.048916746,0.068443164,0.24159303,0.07074071,-0.11850608,-0.28936034,0.07141681,0.32558987,-0.3036806,-0.1601145,0.5562861,-0.3216378,0.304203,0.019961182,0.31924573,-0.21351272,-0.3603232,-0.18626069,-0.38632864,0.0909319,-0.12178422,-0.21722314,-0.1002553,-0.2718206,-0.088065915,-0.3062015,-0.1265127,0.28003484,0.20798878,-0.13220449,-0.2334931,0.09613601,-0.37296456,-0.01670069,0.054889783,-0.29045346,0.15594201,-0.08067539,0.22268704,0.00013430818,0.14224571,-0.09153463,-0.05185134,0.1326871,-0.28448808,-0.03378739,-0.08146822,-0.3507937,0.2755431,0.2704606
Joly::0.016365046,0.067937344,0.28206638,0.091525696,-0.055926517,-0.23501053,0.09684805,0.34139737,-0.33419356,-0.13059625,0.52019596,-0.3967909,0.32445553,0.016559917,0.3764422,-0.21251719,-0.3159713,-0.1806655,-0.35025802,0.15607768,-0.13735242,-0.18237147,-0.1430603,-0.2803257,-0.09448758,-0.38440388,-0.1808504,0.22287138,0.18320803,-0.08843704,-0.2386107,0.04380297,-0.38894546,-0.07933127,0.124776155,-0.30499715,0.22000927,-0.07587317,0.18826224,-0.004990276,0.099988654,-0.076817036,0.03230933,0.117851906,-0.23675989,-0.03507679,-0.12079724,-0.38454893,0.3505608,0.32564798
Grantaire::-0.007305921,0.011422298,0.2938559,0.06443315,-0.10605496,-0.16946311,0.117859274,0.28544158,-0.29533824,-0.11509909,0.43781748,-0.32658666,0.39427197,-0.0023103051,0.33745345,-0.20147493,-0.2953404,-0.17589058,-0.36767617,0.095097356,-0.07511767,-0.21110174,-0.090605006,-0.28278652,-0.021249574,-0.37210572,-0.11182493,0.24690014,0.115861714,-0.16038717,-0.2228768,0.01927059,-0.34575745,-0.03948296,0.11367487,-0.2216308,0.24681035,-0.04340789,0.20789054,-0.011668399,0.16990814,-0.06316929,0.021260174,0.18914577,-0.23525822,-0.04550131,-0.07641884,-0.38297486,0.38247567,0.33743948
MotherPlutarch::-0.12415838,-0.08614515,0.11194147,0.1851209,0.049732663,-0.47255328,0.08631468,0.5549204,-0.13438943,-0.39772058,0.6802408,-0.35544997,-0.018891653,0.20494503,0.34035248,-0.69334316,-0.009713256,-0.09946578,-0.3566759,-0.09552894,-0.44507995,-0.11707119,0.039857615,-0.49288937,0.14787601,-0.7349432,-0.081277885,0.116800845,0.26871395,-0.05807717,-0.042299412,0.19771422,-0.59346026,-0.0764822,0.33382267,-0.5107571,0.35449407,0.5230567,0.23612855,0.1438555,-0.011385826,0.09764528,0.2632569,-0.040770676,-0.05279461,0.0074535413,-0.016750846,-0.6295787,0.5010962,0.46735722
Gueulemer::0.18886675,-0.20396963,0.035695896,0.19642794,0.1048551,-0.3863608,0.28840664,-0.051013157,0.20922418,0.14636827,0.42067888,0.24963388,-0.047104392,0.16827819,0.17267363,-0.15426867,-0.31242675,0.2082962,0.28468537,0.0998806,-0.09878971,0.066092834,0.30788934,-0.039903086,0.2774169,-0.14611845,0.17434964,0.25438285,-0.047199674,0.09549091,-0.18409824,0.37008962,-0.2270783,-0.039423324,-0.019143816,-0.095161125,-0.16090268,-0.19651139,-0.09540921,0.3421136,0.052346308,-0.17272246,0.012188191,0.34697884,-0.21808666,0.31026438,0.5153129,-0.33586702,0.49612558,0.5076066
Babet::0.25012553,-0.14722162,0.05741118,0.115679115,0.14887433,-0.5084782,0.28903022,-0.028772505,0.050381854,0.20993775,0.43176675,0.18654998,0.008288823,0.19859439,0.22625162,-0.23892029,-0.3431552,0.1583282,0.21527405,0.13849455,-0.10298243,0.043268137,0.21541318,-0.05247675,0.23900242,-0.15248914,-0.0067429785,0.3371328,-0.01567094,0.02365914,-0.117388755,0.3514652,-0.13555719,-0.07596015,-0.038064357,-0.11923592,-0.21635912,-0.11935997,-0.09677342,0.32099843,0.042039324,-0.19296081,-0.069934204,0.41616088,-0.18039957,0.33837873,0.35602733,-0.18458107,0.27942657,0.2763932
Claquesous::0.18397729,-0.18992658,0.112006664,0.089126,0.1367289,-0.49869043,0.31344756,0.008949002,-0.013831389,0.16783707,0.4510967,0.12236399,0.02524796,0.22189517,0.2543831,-0.17307255,-0.3827827,0.17370984,0.23888575,0.07664465,-0.13275243,0.07968867,0.15216641,0.014279172,0.34992152,-0.14572337,-0.011831142,0.23813252,-0.08223989,-0.014954768,-0.10347482,0.2993494,-0.2135634,-0.06653834,0.014127211,-0.14303829,-0.15134674,-0.07180356,-0.07378448,0.30117863,-0.041453157,-0.1916242,0.007123385,0.37429112,-0.21556361,0.414432,0.4294501,-0.2359514,0.33444488,0.3700433
Montparnasse::0.22439994,-0.107720934,0.02485627,0.1093059,0.15526505,-0.39370957,0.36493015,-0.06734956,0.07352064,0.0994605,0.35755208,0.19924264,0.026893836,0.20147923,0.1666905,-0.14042844,-0.34834695,0.07851127,0.27420866,0.20419289,-0.20943671,0.074916005,0.07906442,-0.047945287,0.2789748,-0.16442849,0.07370096,0.2587663,-0.069828615,0.010698923,-0.22662666,0.331045,-0.20170258,-0.048306804,0.0081127975,-0.1378949,-0.15753116,-0.13815762,-0.12583357,0.31022003,0.044310614,-0.17884454,-0.059092656,0.469622,-0.26843175,0.28500545,0.43817258,-0.31206262,0.47409877,0.4205799
Toussaint::0.08792445,-0.070876226,0.00862293,0.036567677,-0.035128318,-0.35278097,0.063459724,0.031675678,-0.17985836,0.29155967,0.17546317,-0.011782782,0.11165574,0.04311975,0.20841768,-0.08345603,-0.30992812,-0.008289646,-0.21421339,0.008680874,-0.08946738,-0.062190518,0.10685526,0.09934756,0.2695001,-0.04444076,-0.10041921,0.26153997,0.034968387,-0.13116193,0.13653238,0.20184931,-0.05910483,0.08446461,0.050907217,-0.16150357,-0.14522845,-0.18570706,0.0011207967,0.16948378,0.113523014,-0.026916036,0.08927743,0.09535027,-0.21301006,0.08336872,0.22356823,-0.26494682,0.11844944,0.25265986
Child1::0.08951887,0.0041933083,-0.16568182,-0.072811194,-0.31060636,-0.53907573,0.1242235,0.23674837,-0.23653714,0.095777005,0.5315388,-0.17515813,-0.032487776,0.3656503,-0.0036372547,-0.43825355,-0.16815363,-0.71295667,-0.16281933,0.33829558,-0.13408807,-0.01188295,-0.18907194,-0.31774592,-0.351165,-0.47096887,0.073143534,-0.10399453,0.46675792,0.2177646,-0.3228356,0.07019543,-0.4537874,0.044900946,0.092397995,-0.5266933,0.3714772,0.19754726,0.20231004,-0.009210723,0.62643975,-0.54360396,0.3443677,0.49621522,-0.31557906,-0.21611227,0.61183685,-0.65248984,0.37674472,0.3796702
Child2::0.12669927,-0.06428622,-0.1782694,-0.029665096,-0.3133121,-0.5095263,0.14238437,0.20688163,-0.15519096,0.13108788,0.52896166,-0.14715463,-0.050522324,0.38800412,-0.044521205,-0.3738596,-0.1363579,-0.72665715,-0.14667095,0.31199458,0.0010996052,-0.042016834,-0.20654719,-0.33437207,-0.39956495,-0.38019282,0.12117507,-0.050652623,0.45400628,0.19173601,-0.29138118,0.04488388,-0.3576061,0.014459325,0.13425292,-0.46341884,0.35446104,0.17749016,0.24280025,0.02364402,0.71588475,-0.57616115,0.29217017,0.5777493,-0.36575374,-0.27031362,0.628579,-0.6807824,0.31809175,0.39965114
Brujon::0.20818311,-0.10256483,0.045667462,0.15070151,0.13823135,-0.35303685,0.3290379,-0.009741178,0.15990531,0.0586739,0.46904802,0.14905225,-0.031791873,0.1512793,0.19881728,-0.26555088,-0.32417747,0.22313353,0.19592872,0.069404945,-0.087560475,-0.024361234,0.18831182,-0.11009929,0.23124795,-0.23288569,0.0933593,0.3576626,-0.050488487,0.12385806,-0.21652831,0.46588588,-0.27083898,-0.12021112,0.013171247,-0.07781341,-0.19006902,-0.1475272,-0.0995346,0.30102882,-0.061449498,-0.14382035,0.027566757,0.39931267,-0.24066065,0.3692606,0.35210782,-0.2995397,0.46371245,0.38849896
MmeHucheloup::-0.010982869,0.071649514,0.2528324,0.07166814,-0.11591425,-0.25431845,0.05762741,0.36256704,-0.2971316,-0.19278704,0.55984086,-0.37599733,0.29382256,-0.050452597,0.35429642,-0.29520622,-0.33839917,-0.23097998,-0.40651032,0.08139047,-0.05007733,-0.2133709,-0.06742558,-0.31946236,-0.16998993,-0.31049198,-0.13227719,0.22779323,0.19356154,-0.10898333,-0.24517025,0.04806302,-0.4042863,-0.073176585,0.023749309,-0.30716464,0.2404158,-0.08268658,0.20389888,0.011495278,0.2150399,-0.1358876,0.059198182,0.1490359,-0.2913215,-0.051194225,-0.062351376,-0.42007396,0.30775142,0.33286896
