Napoleon::0.07186255,-0.7060189,0.21132454,-0.021686371,0.033811152,-0.5350592,0.6041228,-0.060795493,-0.15840746,0.74478996,0.17149681,0.60776776,0.27026474,0.3199994,0.16713542,-0.28383324,-0.076137766,0.24557707,-0.061781295,-0.22645621,-0.20838985,0.060584262,0.12407147,0.3719335,0.47572196,-0.6539421,-0.0060426584,0.14100362,-0.19904983,-0.027955428,0.21868362,0.28877246,0.07769295,0.031338986,0.4208607,-0.10606398,0.2907532,-0.13220923,0.12216738,0.1743816,-0.13024014,-0.11609923,0.64728963,-0.043852247,0.08320739,-0.32237568,0.08320949,-0.30392194,0.43140984,0.46159202
Myriel::0.1299204,-0.55253774,0.203725,-0.03169567,-0.015741544,-0.4932895,0.5164971,-0.11933666,-0.23369162,0.6551838,0.05691435,0.50944245,0.24106169,0.17690879,0.1774734,-0.18495487,-0.053722486,0.29303068,-0.22329694,-0.21305543,-0.2248112,-0.056530472,0.067092314,0.3605526,0.3148475,-0.5718513,0.07887046,0.23078252,-0.21949321,-0.11475732,0.18987185,0.27907738,0.11364172,0.0931549,0.3685468,-0.123388566,0.26344284,-0.06748713,0.14979087,0.2867911,-0.010139317,-0.06502574,0.50208527,-0.12685037,0.025256237,-0.29932263,-0.16131662,-0.30938628,0.40204516,0.43410525
MlleBaptistine::0.023902018,-0.5576829,0.1683114,-0.07890801,-0.089179605,-0.44607753,0.5019567,-0.043154117,-0.23252629,0.70425504,0.08526898,0.40694153,0.31049132,0.18063979,0.19230984,-0.2006602,-0.071686916,0.1415294,-0.22954008,-0.21425948,-0.17275551,-0.06776677,0.05338237,0.36167756,0.33611175,-0.5318345,0.06737089,0.16466339,-0.1808039,-0.04313156,0.27382582,0.17756104,0.16835898,0.04455478,0.36133274,-0.06136634,0.24943452,-0.10733188,0.13449365,0.21511963,-0.0625957,-0.068306416,0.49741778,-0.10804678,0.090552665,-0.34801677,-0.04393796,-0.25856856,0.3688551,0.40919933
MmeMagloire::-0.012892493,-0.51843184,0.19960818,-0.009315283,-0.059146248,-0.38573045,0.4882931,-0.008276013,-0.30431783,0.6384766,0.081936024,0.37117,0.3253964,0.18516308,0.17783944,-0.15347882,-0.021936912,0.14293814,-0.21590477,-0.16573253,-0.1612653,-0.10017187,0.06259854,0.31254703,0.25892466,-0.64337504,0.027079472,0.18956025,-0.12236684,-0.03614233,0.18323141,0.26619792,0.06855646,0.101518705,0.43335927,-0.13270979,0.29952863,-0.1715186,0.06527921,0.109333135,-0.03778799,-0.05828023,0.4702985,-0.11402776,0.0732762,-0.33525807,-0.06291799,-0.22780213,0.37693235,0.39855355
CountessDeLo::-0.015399453,-0.5543986,0.1998538,0.03035341,-0.06528828,-0.41803098,0.5725639,-0.113379695,-0.23407444,0.83674574,0.033183027,0.5373942,0.3161918,0.20533282,0.26732957,-0.14655297,0.00012093461,0.3336086,-0.2617122,-0.23811784,-0.13988027,-0.1163194,0.16346309,0.49456435,0.22989985,-0.6119148,0.106866695,0.2549114,-0.14457674,0.07893467,0.3130965,0.32531622,0.24256305,0.09641339,0.3962957,-0.12332876,0.2792716,-0.30407873,0.01672296,0.23340166,-0.12457207,-0.011076104,0.5538058,-0.1668854,0.077439755,-0.39474738,-0.09188413,-0.26421422,0.37120628,0.5213294
Geborand::0.068968296,-0.7225364,0.21893059,-0.08724399,-0.04263233,-0.56730986,0.6103344,-0.04151542,-0.267758,0.7589678,0.18197252,0.5468727,0.27725556,0.30253395,0.06459452,-0.25284106,-0.10709292,0.13845074,-0.106019914,-0.21616861,-0.20718136,0.027212115,-0.0068826587,0.3159949,0.5624553,-0.7604045,0.05921101,0.09958611,-0.23992191,-0.05561038,0.17433311,0.24389477,0.06806622,0.06561525,0.52226985,-0.038598236,0.32264683,-0.107309625,0.17724964,0.11217448,-0.15044014,-0.12563336,0.648201,-0.09599548,0.08257284,-0.39785707,0.04772396,-0.27808338,0.45992345,0.42332694
Champtercier::0.050851516,-0.7208713,0.20666388,-0.115027465,-0.117556654,-0.55337405,0.5610589,-0.058806416,-0.3505286,0.87904334,0.06752555,0.44264787,0.35383877,0.26475835,0.11671655,-0.206883,-0.09259441,0.14728795,-0.24742128,-0.21332501,-0.19675192,-0.06419366,-0.0032767819,0.4410601,0.50661534,-0.7097583,0.038729016,0.17706448,-0.24524805,-0.04490305,0.31918657,0.25818306,0.13838576,0.1328093,0.54723096,-0.042713154,0.31059772,-0.16579375,0.16243747,0.15211767,-0.10289943,-0.048906803,0.599272,-0.18797064,0.13030793,-0.38176474,-0.028142394,-0.24400578,0.39073285,0.42849422
Cravatte::0.06545562,-0.6874266,0.19597101,-0.109759465,-0.045870356,-0.5672307,0.64230937,-0.15280272,-0.33328092,0.86401004,0.104428336,0.5523924,0.2928975,0.3031338,0.062487654,-0.1422492,-0.108650796,0.18406813,-0.13144118,-0.14930347,-0.23888625,-0.0193831,-0.070788816,0.46787694,0.47029528,-0.67643,0.08569732,0.09306219,-0.22796834,0.0020709317,0.24855652,0.27558988,0.14828229,0.11311739,0.5157302,-0.108669974,0.28238592,-0.2057115,0.15195377,0.22246318,-0.12323335,-0.08467706,0.5593197,-0.09927449,0.07092561,-0.37814307,-0.04247902,-0.3017466,0.46181267,0.40702495
Count::0.008391915,-0.5816815,0.19631906,0.0064230016,-0.07361439,-0.4382078,0.5081929,-0.021038324,-0.22740683,0.71023226,0.1421712,0.46264812,0.29901773,0.22410665,0.19694321,-0.21939023,-0.03381465,0.23092237,-0.22739083,-0.2465446,-0.13412106,-0.055971295,0.116458215,0.34097975,0.3341379,-0.6689905,0.0572716,0.19411753,-0.14619575,0.010735912,0.23392081,0.25716636,0.10763043,0.07199442,0.43080458,-0.10151297,0.30358854,-0.16612092,0.1171627,0.14681411,-0.11985486,-0.061001573,0.58233434,-0.1738899,0.08321188,-0.3923781,-0.040198024,-0.30253077,0.39386058,0.460003
OldMan::0.03328236,-0.6122411,0.1753703,-0.071305774,-0.08850701,-0.4333556,0.5938472,-0.10453453,-0.31317586,0.79872155,0.0013405861,0.4768718,0.30942672,0.26117754,0.1408451,-0.12785096,-0.043630663,0.19269215,-0.1877155,-0.16979235,-0.21734492,-0.067563854,-0.0073526255,0.45673925,0.37811112,-0.66330665,0.09741279,0.15471648,-0.19130033,0.022822924,0.24590315,0.27561083,0.18778063,0.11092771,0.48814178,-0.08817139,0.278372,-0.20518424,0.069656,0.19934249,-0.09554212,-0.06744953,0.5551798,-0.11774149,0.091436915,-0.37699056,-0.05095565,-0.23793875,0.40624973,0.42278764
Valjean::0.13608399,-0.070814274,0.11605206,-0.1483128,-0.040093936,-0.3022494,0.101711735,0.097436965,-0.30874932,0.2081806,0.047291003,-0.0627836,0.15193619,0.17781164,0.14912769,0.02450755,-0.20790301,0.018681085,-0.07262,-0.048753124,-0.15686043,0.015533121,-0.0010183804,0.2652817,0.26157287,-0.05932033,-0.35911378,0.18847388,0.008613475,-0.08818184,0.27795005,0.13237062,0.07563091,-0.01358549,0.23437428,-0.17895532,0.0012341203,-0.25120774,-0.11576091,0.17332372,0.1410553,-0.118818335,0.3659108,0.1455828,-0.15708381,0.20407833,0.25022665,-0.05166554,0.067047425,0.30756974
Labarre::0.060016815,-0.020241853,0.034579143,-0.08598836,-0.07897024,-0.44950402,0.18590541,0.03516272,-0.30613372,0.24633919,0.2973486,-0.06012939,0.20690554,0.084231034,0.17046121,-0.014423076,-0.3335656,-0.0557652,-0.09514884,0.041546784,-0.19620487,-0.05102179,-0.1914827,0.11803637,0.28554723,0.030901846,-0.16136643,0.0499199,0.059291,-0.09983919,0.18866196,0.10223454,-0.023311717,0.016574595,0.07576925,-0.20697214,-0.12358531,-0.19258086,0.015417848,0.2222953,0.06683262,-0.026297612,0.013053455,0.13999711,-0.16349775,0.1108755,0.07818291,-0.17967607,0.17816819,0.05428187
Marguerite::0.024469415,0.120996736,-0.06377882,0.04152076,-0.019916002,-0.25383356,0.20871374,-0.056929875,-0.25737464,0.3347489,0.06306599,0.051693525,0.2490127,0.082754165,0.4728569,0.12969488,-0.17596024,0.15979676,-0.20335999,0.011253644,-0.17921808,-0.105588146,0.10045131,0.32464615,-0.06423996,0.11287219,-0.16772445,0.25687212,0.0724252,0.03699786,0.3034149,0.22099406,0.16307566,-0.0008910681,0.009335783,-0.29306462,-0.21992111,-0.3663235,-0.2831968,0.38627353,0.13212708,0.0019038371,0.00762339,0.17728655,-0.18085983,0.13509984,0.022291422,-0.12508395,0.20015144,0.16880164
MmeDeR::0.12463421,-0.057395928,-0.05681964,-0.015235771,0.008853896,-0.44886088,0.23957005,-0.016576828,-0.18042506,0.28387678,0.22302334,0.13576959,0.11511972,0.15656444,0.21406497,-0.030247068,-0.27057037,0.07024941,-0.09376544,-0.0811861,-0.17524736,0.008590516,0.034211192,0.1505394,0.27401868,-0.040643647,-0.13651383,0.17398575,0.010402976,-0.07455987,0.17951345,0.24222042,0.0046911794,-0.0414691,0.11435126,-0.16692758,-0.18839806,-0.177255,-0.09736831,0.2263304,-0.005084652,-0.062407006,0.123843506,0.10537343,-0.19878207,0.11725528,0.123087145,-0.10752465,0.17889822,0.13343453
Isabeau::0.099529915,-0.13462289,-0.08826331,-0.084786326,-0.019512365,-0.4082666,0.2562669,-0.0044848872,-0.20657696,0.34985498,0.13224924,0.11764774,0.1402238,0.19630088,0.20886758,-0.064360656,-0.22324628,-0.09718773,-0.056194056,0.024508737,-0.22154477,0.02692793,-0.014249976,0.18885641,0.25258607,0.011408488,-0.1548876,0.10108668,-0.02437732,-0.061357632,0.22685632,0.17644273,0.018537084,-0.03683405,0.11287781,-0.17043805,-0.17942779,-0.1620739,-0.12002137,0.2691375,0.1241865,-0.13260558,0.11917147,0.23564117,-0.10085525,0.14311138,0.2500873,-0.094761804,0.17001207,0.057715487
Gervais::0.07448698,-0.032849498,-0.0039734836,-0.09916763,-0.12093338,-0.43264565,0.109479815,0.06859304,-0.30972615,0.2956231,0.24934168,-0.058508947,0.21229455,0.07010927,0.2508792,-0.0024133767,-0.29312938,-0.03534605,-0.19756639,-0.037821356,-0.1448676,-0.06442899,-0.035416782,0.13829477,0.2368234,0.024175297,-0.1659399,0.15541635,0.049432497,-0.080409765,0.25182375,0.12328891,0.00942755,0.026535435,0.09829771,-0.15019716,-0.1466982,-0.19302358,-0.014248747,0.19546233,0.08663653,-0.031378448,0.053571936,0.07354215,-0.1242681,0.097638786,0.080707826,-0.09295494,0.11340168,0.059627935
Listolier::-0.083317675,0.4065031,-0.13333687,0.28849483,-0.23692293,-0.15628104,0.35584933,-0.04294433,-0.29847163,0.47731128,-0.0072433553,0.07077988,0.3014537,-0.08237453,0.78055924,0.16097784,-0.15286428,0.12023932,-0.56142586,-0.06722735,-0.023237899,-0.3676391,0.31141844,0.34095004,-0.48011816,0.060660325,0.05237979,0.5808328,0.2012874,0.10980674,0.30745837,0.29455483,0.29640782,-0.084593005,-0.13627392,-0.3795187,-0.16835512,-0.5145583,-0.4709728,0.5132787,0.22584005,-0.13474064,-0.032260433,0.17402332,-0.32026613,-0.07910818,-0.10048403,-0.2627034,0.34191728,0.40082434
Tholomyes::-0.07168214,0.37896505,-0.12899382,0.23249324,-0.16658975,-0.104397185,0.23648208,0.028702369,-0.33396766,0.33209643,-0.043946162,-0.10634589,0.3293727,-0.08299427,0.75494075,0.1287271,-0.03885064,0.14310002,-0.5482289,-0.047583245,-0.1403667,-0.3340356,0.22242461,0.31846145,-0.46219793,-0.05336037,-0.121274434,0.505715,0.23393093,0.0892843,0.3157675,0.32065883,0.2731322,-0.1547074,-0.043980807,-0.3910716,-0.20376712,-0.48368663,-0.45427927,0.51934665,0.23456971,0.017609837,0.021906164,0.123465076,-0.25820053,0.016868299,-0.14780544,-0.19398881,0.28319636,0.37087837
Fameuil::-0.057160866,0.4657245,-0.11555013,0.29340777,-0.13576722,-0.157527,0.2683215,0.01776147,-0.32184562,0.31605208,0.061437763,-0.01728189,0.32039943,-0.037640322,0.83493453,0.22529599,-0.079183355,0.2031325,-0.54414994,-0.025953263,-0.13065845,-0.3032903,0.3171204,0.3352894,-0.5077592,0.07598567,-0.10350333,0.5702659,0.23965259,0.10613848,0.33726954,0.31145144,0.23991638,-0.14068826,-0.09838284,-0.44459018,-0.22178018,-0.5273547,-0.50631005,0.4955076,0.21654831,-0.031704664,-0.05390338,0.15434016,-0.33176607,0.054930273,-0.098274276,-0.26101995,0.3594004,0.42584112
Blacheville::-0.051127084,0.45012975,-0.110984705,0.3142324,-0.13189737,-0.15663302,0.28319296,0.0038385123,-0.275331,0.32218704,0.096135154,-0.013431441,0.3161068,-0.07312711,0.8329862,0.13188522,-0.11733816,0.24238329,-0.5482241,-0.12440847,-0.06455638,-0.3032384,0.3454317,0.3086439,-0.5064786,0.0033085812,-0.09521595,0.5676034,0.26716444,0.094622195,0.28832492,0.34948686,0.26982877,-0.13618837,-0.13814297,-0.38629216,-0.18122399,-0.5358811,-0.4838536,0.51031697,0.18643671,0.0048429877,0.055547282,0.16758658,-0.33379737,0.05679141,-0.121167794,-0.18148975,0.29211605,0.46812704
Favourite::-0.048555855,0.44306335,-0.13471833,0.31744173,-0.20067893,-0.14021982,0.3114969,0.050132662,-0.35085973,0.35705426,0.06537078,-0.0051226453,0.3203223,-0.085270524,0.8197801,0.174546,-0.08340069,0.17937906,-0.60018545,-0.11302236,-0.062113278,-0.3961908,0.23929784,0.29939649,-0.5001713,-0.008800641,-0.019671869,0.5472,0.21552163,0.16316614,0.29956907,0.32623798,0.30387622,-0.12530845,-0.108453326,-0.3667283,-0.21777502,-0.5621216,-0.4820662,0.49418277,0.18605419,-0.029195437,0.015954578,0.14250498,-0.31561103,-0.025712648,-0.14193575,-0.18481292,0.33243054,0.38602483
Dahlia::-0.073189236,0.46353146,-0.1753809,0.28844815,-0.184169,-0.20398884,0.25097424,-0.040191695,-0.3027912,0.3208466,0.06961567,0.038247023,0.2529003,-0.03601704,0.8316666,0.20396002,-0.11062125,0.25404328,-0.53786033,-0.09348288,-0.15465654,-0.32623243,0.33725566,0.3579032,-0.49650246,-0.009504552,-0.061341535,0.5862421,0.31250668,0.16160592,0.32217976,0.36951357,0.25619322,-0.10458549,-0.100214265,-0.47579697,-0.21090595,-0.5770455,-0.49165973,0.5499139,0.17090721,0.015695104,0.007100833,0.0826451,-0.37927556,0.03650387,-0.1401413,-0.20256992,0.2901031,0.4135069
Zephine::-0.04685808,0.40326655,-0.18996018,0.26027784,-0.1300251,-0.17631222,0.25129837,-0.068285584,-0.25712723,0.41506165,-0.07140958,-0.009337919,0.29322246,-0.060574245,0.7926827,0.15032266,-0.10276291,0.19828741,-0.5309978,-0.07097505,-0.14446594,-0.26555806,0.34024012,0.33922598,-0.5098145,-0.027929509,-0.09619905,0.57920676,0.23107804,0.04174024,0.33130294,0.37615404,0.2791868,-0.15480387,-0.030971633,-0.43352872,-0.27865636,-0.4700154,-0.50569683,0.54409647,0.24585822,0.014285316,0.086821444,0.21046726,-0.31126395,0.013698622,-0.08096461,-0.19502185,0.36211517,0.3699326
Fantine::-0.12083269,0.26217824,-0.024580231,0.10673031,-0.110019594,-0.25230855,0.21393524,-0.12360712,-0.13916625,0.36287847,0.064900786,-0.023629287,0.21394093,-0.020272648,0.5958253,0.075567365,-0.2575254,0.21537937,-0.21996318,0.008470832,-0.1193765,-0.17277622,0.26414457,0.3348859,-0.271283,0.108404316,-0.15842707,0.42547455,0.2341339,0.007182919,0.30634812,0.23903215,0.19601583,-0.08220664,-0.15964101,-0.40196812,-0.19605339,-0.4831611,-0.3303886,0.44560453,0.1732959,0.013475103,0.021133594,0.22553213,-0.331884,0.088521294,-0.046862245,-0.12941481,0.13664137,0.28244016
MmeThenardier::0.18265723,-0.0025857955,-0.26530164,0.0033063232,0.1137542,-0.44711396,0.29295218,-0.02340487,-0.032166626,0.10177337,0.2799488,0.16214341,-0.008645769,0.26082027,0.19080192,-0.1526265,-0.2772165,0.03350569,-0.04566954,-0.14261584,-0.19212869,0.04683252,0.1260481,-0.05412043,0.31629807,-0.10673677,-0.19562516,0.20132433,0.081522055,-0.11420485,0.06383127,0.3443941,-0.08943074,-0.16217381,0.09083617,-0.25647482,-0.29873818,-0.060753424,-0.28450245,0.224287,-0.045804597,-0.092537105,0.17519163,0.18550976,-0.3400053,0.16631617,0.2760237,-0.20425016,0.2864821,0.11264844
Thenardier::0.12889455,0.044927724,-0.0650039,0.07553857,0.14225933,-0.5879568,0.1685351,0.07745516,-0.09370394,-0.011784344,0.5838244,0.25307623,-0.026341468,0.24638166,0.32664654,-0.0134020625,-0.29062685,0.08540502,0.09229451,0.027419807,-0.27835408,0.17068383,0.1361999,-0.044878606,0.23516244,0.074043095,-0.19945216,0.115511976,0.15028414,-0.04174237,0.015096921,0.23624581,-0.21566154,-0.1388194,0.018567301,-0.27813745,-0.23953398,-0.24716236,-0.10913052,0.27630243,0.022791127,-0.1421222,0.09729959,0.24411206,-0.32698402,0.21760264,0.19461161,-0.15701139,0.1101023,0.11701426
Cosette::0.102719694,-0.084042564,-0.04900346,-0.041605685,-0.13068824,-0.49295354,0.049787655,0.18591677,-0.32485408,0.26925182,0.3073048,-0.053795245,0.17134622,0.07444459,0.2675147,-0.07960815,-0.2473035,-0.013975306,-0.27397287,-0.10305617,-0.19755886,-0.068493426,-0.0003391473,0.06630977,0.2946852,-0.043290492,-0.1147256,0.12923436,0.106562816,-0.07033065,0.27159992,0.16140212,-0.06621895,0.06656307,0.093028106,-0.12889928,-0.06683723,-0.12595806,0.028913947,0.1987912,0.104764335,-0.015979404,0.17117128,-0.0514778,-0.04604199,0.069062315,0.032021716,-0.06251961,0.12150846,0.07193435
Javert::0.071424104,-0.1060331,0.02484423,0.01796766,0.11832271,-0.22423002,0.19275202,0.025269805,-0.17675233,0.22525163,0.084512986,0.08053152,0.28163028,0.12443108,0.312789,-0.03172303,-0.20370324,0.045347016,0.0019928082,-0.0046651163,-0.1567684,0.047163922,0.06496606,0.13833354,0.2025707,0.006831497,-0.31059143,0.122261286,-0.06532084,-0.12445633,0.2216387,0.11579759,0.019972272,-0.08438983,0.058414225,-0.24157114,-0.12633745,-0.22021164,-0.14755847,0.21393354,0.13700128,-0.07415834,0.17638958,0.26827452,-0.11411316,0.17612162,0.25925738,-0.16606176,0.2852129,0.12107523
Fauchelevent::0.07546415,-0.31968915,-0.037217878,-0.06928551,0.17786185,-0.4668603,0.30148438,0.21620294,-0.33615085,0.42619655,-0.17532104,-0.0052276114,0.2991929,0.30460182,0.3880409,-0.12037271,-0.07492119,-0.36546335,-0.13268676,0.25999853,-0.4680078,0.1498304,0.036213744,0.29751894,0.27604023,0.023125837,-0.5128971,0.17143856,-0.16650067,-0.23406728,0.4668349,0.17679478,-0.04748585,-0.18626916,0.14454858,-0.06704718,-0.018201098,0.0920761,-0.1944066,0.23153794,0.46767092,-0.29513407,0.13042319,0.44326037,0.28030843,0.27270886,0.31320924,0.07807381,0.09502753,-0.026649414
Bamatabois::0.02664801,0.09153875,-0.08701503,-0.23968597,-0.15261939,-0.39262694,0.39780572,-0.20933662,-0.5820147,0.4437529,-0.021453438,-0.11733559,0.2450363,0.15446179,0.069392405,0.351728,-0.3428176,-0.08534549,-0.08295754,0.27569038,-0.38428512,-0.117480315,-0.54297096,0.363705,0.2891641,0.012540924,-0.029828133,0.008325093,-0.017321618,-0.00070464524,0.17153578,0.14440039,0.11152491,0.12592222,0.29912123,-0.31372452,-0.28298163,-0.3037785,-0.17391938,0.40866235,0.08581033,0.04129322,-0.19551693,0.19509527,-0.2422353,0.10643232,-0.09866187,-0.14300434,0.33357316,-0.0931858
Perpetue::-0.14643794,0.01816951,0.12468535,-0.07672487,0.012442238,-0.24159616,-0.015205268,-0.025039133,-0.21249129,0.4051415,0.13176313,0.035458148,0.26111886,0.12426894,0.54882514,0.09926986,-0.1489138,0.32409593,0.048630252,0.10092458,-0.18333839,-0.0786903,0.15356104,0.55194455,-0.19428156,0.4383406,-0.32546648,0.08906715,0.2560704,0.19905427,0.5588562,0.09784584,0.17268918,0.021131197,-0.16635056,-0.6302433,-0.114223644,-0.52960336,-0.2327185,0.49492615,0.23718205,0.051918603,0.04394751,0.24784441,-0.07768826,0.17230323,0.11790774,-0.3152362,0.11791132,0.34269562
Simplice::0.007316365,-0.056644917,0.10656704,-0.16132125,0.07425305,-0.26532036,-0.040218838,-0.0697701,-0.19725996,0.38602385,0.18474706,0.0005594623,0.39127126,0.15452017,0.4266906,0.006998246,-0.1071031,0.20389016,-0.02296984,0.081411846,-0.11399149,-0.023292987,0.103895344,0.52253175,-0.2056985,0.36901096,-0.46530986,0.013431201,0.14115237,0.030854262,0.56427634,-0.036111753,0.29149744,0.026749246,-0.21473944,-0.5114507,-0.08159112,-0.39037067,-0.010908904,0.41861445,0.3142663,0.020068932,-0.03687827,0.19197984,-0.09540261,0.16889684,0.14722145,-0.3763915,0.052747313,0.29453626
Scaufflaire::0.049864665,-0.16002478,-0.024991892,-0.083956726,-0.06743053,-0.36221054,0.2651034,-0.02573535,-0.21360289,0.4033023,0.11298126,0.1293626,0.16517994,0.1757093,0.19895752,-0.07713067,-0.15320855,0.025432497,-0.13042386,-0.041579086,-0.21727672,-0.0488888,-0.05488281,0.2586128,0.21526596,-0.057886556,-0.058394987,0.11327598,0.028291766,0.039768364,0.27942035,0.21301423,0.08319077,0.04230298,0.13520798,-0.21284579,-0.09907215,-0.21395057,-0.056628242,0.29395175,0.059441857,-0.031258516,0.14887385,0.078915745,-0.08274396,0.037456997,0.10458266,-0.15653263,0.16938162,0.14838797
Woman1::0.096806735,-0.112831116,-0.021284562,-0.1014442,0.032149695,-0.46899205,0.21722107,0.04416815,-0.22952846,0.267612,0.21619123,0.0794835,0.1820828,0.20658383,0.24090703,-0.016933259,-0.29524386,-0.06657393,0.020132339,0.047470775,-0.24041483,0.07296292,-0.018580584,0.13954662,0.31053838,0.047637146,-0.25420836,0.08406884,-0.018620986,-0.13563582,0.22200264,0.099674456,-0.013934971,-0.06577226,0.085039414,-0.18238443,-0.17266504,-0.11003838,-0.09164071,0.17614041,0.1277233,-0.12980095,0.10756502,0.27975583,-0.081585035,0.15460256,0.24728154,-0.05022727,0.18299013,0.030337615
Judge::0.062299363,0.08181406,-0.07450581,-0.26992667,-0.13131319,-0.39472678,0.41382462,-0.18071093,-0.6322032,0.39896366,0.052685544,-0.13171168,0.23827186,0.18030336,-0.04076945,0.37474224,-0.35085863,-0.13613334,-0.030587189,0.26972395,-0.4395061,-0.11731063,-0.68780994,0.34266216,0.4057868,-0.028884629,-0.032094803,-0.0656106,-0.01876055,-0.017239079,0.14569503,0.15975256,0.100590535,0.13750248,0.43129143,-0.33359912,-0.30687258,-0.32115766,-0.121862404,0.43734834,0.06876052,0.065678835,-0.1698201,0.18153505,-0.264042,0.15261449,-0.05479677,-0.16187418,0.38359135,-0.10316255
Champmathieu::0.12155128,0.051278975,-0.15756716,-0.27354556,-0.13949907,-0.4373483,0.33441535,-0.1857872,-0.62609714,0.41725746,-0.004091329,-0.19472197,0.20435524,0.19406113,-0.07097803,0.4008311,-0.36257374,-0.15150464,-0.104122765,0.26037216,-0.39284125,-0.13751565,-0.6277233,0.355496,0.39247566,-0.06000226,-0.085822135,-0.019058997,-0.062105995,-0.05695742,0.1707547,0.15496692,0.08928901,0.11931632,0.40654665,-0.28330663,-0.31103882,-0.32358062,-0.12472731,0.3674769,0.12206382,0.062470272,-0.10101328,0.1411475,-0.31797472,0.12055493,-0.043420415,-0.13970295,0.4003544,-0.05316155
Brevet::0.10472557,0.0941343,-0.11978141,-0.28659806,-0.12067929,-0.4452384,0.45535767,-0.21754746,-0.6586592,0.4237447,0.052047793,-0.15813953,0.2186292,0.20246439,-0.03681085,0.4306335,-0.36773095,-0.11809615,-0.039776407,0.2898678,-0.48900443,-0.12625326,-0.7273789,0.35665554,0.39457718,-0.07943924,-0.015044492,-0.058081053,-0.02233174,-0.065326355,0.07215765,0.18146847,0.087992266,0.1143214,0.4283088,-0.3015792,-0.3110887,-0.2547699,-0.14256603,0.43841276,0.049106296,0.035203293,-0.17143959,0.22846748,-0.2827833,0.14684765,-0.14143696,-0.12170096,0.47257587,-0.119398184
Chenildieu::0.08724527,0.040469263,-0.0977798,-0.3363428,-0.22379501,-0.46307427,0.4687143,-0.21862566,-0.6860036,0.45806012,0.00075534126,-0.17775078,0.21063715,0.19976728,-0.18431988,0.38483986,-0.37880847,-0.23763677,-0.084680535,0.33032495,-0.39863613,-0.126758,-0.76031536,0.31370863,0.4833063,-0.079734266,-0.0146221565,-0.0015115673,-0.05828665,-0.0038424134,0.13237219,0.17622148,0.03852128,0.17132787,0.51659316,-0.26584637,-0.2886841,-0.33033893,-0.12503012,0.39588085,0.053059228,-0.01208382,-0.14814956,0.16544288,-0.33585414,0.13049972,-0.004488132,-0.21667068,0.35502234,-0.112440884
Cochepaille::0.0826241,0.0152982725,-0.11599417,-0.30415034,-0.13938616,-0.51601756,0.43358642,-0.21539895,-0.6957348,0.44816607,0.038734727,-0.14650124,0.23423237,0.2220472,-0.034508985,0.37186736,-0.37462407,-0.09727836,-0.11241222,0.27734464,-0.50290215,-0.120062776,-0.71437484,0.37467566,0.4253659,-0.15868895,-0.03586227,-0.06723364,-0.04972826,-0.03990064,0.11617395,0.17672785,0.052578535,0.14014283,0.44114175,-0.29229447,-0.25403085,-0.2722247,-0.09982577,0.38976339,0.08233172,0.082211375,-0.1368002,0.110331684,-0.24992165,0.09482212,-0.23354898,-0.103586435,0.3996294,-0.11620482
Pontmercy::0.22062148,0.02965312,-0.035331193,0.16207115,-0.1335841,-0.60844916,-0.011974971,0.36857194,0.038123723,0.049890883,0.77408415,-0.06472536,0.092592835,0.10449497,0.4174689,-0.34628427,-0.4564113,0.08105578,-0.21661974,-0.402935,0.014588194,-0.02600687,0.20180286,-0.24530856,0.52099496,0.12268258,-0.23780262,0.23837714,0.089522384,-0.010201314,0.24323626,0.20909898,-0.29502475,-0.12755367,-0.01909909,-0.044033032,-0.42356956,-0.16351108,0.036327988,0.2857082,-0.014960426,-0.048925836,0.3269716,0.04742711,-0.32739982,0.34768566,0.41804534,-0.09258022,0.037785538,0.02190906
Boulatruelle::0.17789082,-0.035554375,-0.12687322,0.02890073,0.11367129,-0.4699197,0.30613112,-0.009208653,-0.009148855,0.15917125,0.29855785,0.27938858,0.02970993,0.26367462,0.23731148,-0.1590119,-0.2696767,0.03602009,0.11291348,-0.08480246,-0.22235502,0.13254559,0.10875792,0.075904526,0.28078982,0.07477136,-0.19243416,0.12702781,0.09916383,-0.048446402,0.09822489,0.2797,-0.05372654,-0.1556241,-0.035175595,-0.25236693,-0.29197353,-0.13126312,-0.1665526,0.31613648,-0.0044879606,-0.18305117,0.14740175,0.3646013,-0.24376899,0.23299216,0.34715435,-0.14527471,0.20534557,0.09970172
Eponine::0.12816057,0.05416555,-0.1781576,0.12400487,0.19476093,-0.47487783,0.28198934,0.16610944,-0.08116642,-0.116566114,0.5774685,0.11971913,-0.01063709,0.27863264,0.29083443,-0.18234783,-0.25814494,0.08157612,0.04248374,-0.10423307,-0.33809963,0.06707955,-0.009180664,-0.23215817,0.3636746,-0.17848161,-0.17569405,0.07596014,0.17826423,-0.123459645,-0.11657322,0.29037234,-0.24774854,-0.21601726,0.0343594,-0.2439296,-0.24163833,-0.017060691,-0.19658151,0.24941099,-0.054275304,-0.063634984,0.20744261,0.21648721,-0.34824625,0.21791913,0.142158,-0.1505466,0.3056668,0.09680611
Anzelma::0.18494181,0.12903532,-0.236371,0.12362381,0.15082613,-0.462309,0.19609499,0.1456749,0.048250727,-0.1469066,0.40732455,0.19596659,-0.07149727,0.29354355,0.32251742,-0.20341414,-0.23115148,0.076279745,0.021087361,-0.15534224,-0.2920095,0.11174236,0.2278049,-0.1452465,0.25625706,-0.016214697,-0.23206401,0.24359591,0.19781947,-0.056270603,-0.0042047394,0.3918902,-0.22404575,-0.20756993,0.016328085,-0.33589587,-0.35844737,-0.0153985135,-0.27279255,0.3412634,-0.03117296,-0.13772841,0.15303776,0.24409813,-0.36549747,0.30975494,0.32103127,-0.22061726,0.2971378,0.12518449
Woman2::0.03979474,-0.14766094,-0.007928487,-0.086242594,-0.06562292,-0.4350655,0.15336609,0.11215333,-0.15232989,0.2918596,0.2016326,-0.005085763,0.17732939,0.1365306,0.24356012,-0.16913794,-0.22893137,-0.16532923,-0.11397283,-0.004981531,-0.19709434,0.02025085,0.02229862,0.106514156,0.24600023,0.023066012,-0.23450299,0.1290338,0.0144110415,-0.09341754,0.30484143,0.12664819,-0.024904111,-0.06484057,0.08660959,-0.16560932,-0.13171908,-0.122127846,-0.012682674,0.21333951,0.18171795,-0.10535381,0.13221607,0.19635035,-0.052466188,0.14280076,0.30327934,-0.093472466,0.066480964,0.0525059
MotherInnocent::-0.024788525,-0.2970385,-0.038230177,-0.21949251,0.09269342,-0.30143654,0.24352603,0.19597216,-0.2898191,0.3834012,-0.23238038,-0.0018276491,0.35834333,0.2818647,0.5681721,-0.08017447,-0.10339068,-0.25246084,-0.059555728,0.16151586,-0.5581858,0.11055782,0.17826222,0.20443223,0.3430047,-0.051663343,-0.4593134,0.197166,-0.17254756,-0.41640896,0.40831873,0.051364873,0.00051235565,-0.14627345,0.28752425,-0.16058062,-0.12615329,0.17857493,-0.2732112,0.17743509,0.3330971,-0.11030622,0.18739754,0.346749,0.26107606,0.13452357,0.39422604,0.13934077,0.27370256,-0.025247613
Gribier::-0.03367941,-0.3809417,-0.04541258,-0.23871785,0.120236635,-0.30191797,0.21737306,0.27699196,-0.35630763,0.40250754,-0.31165454,-0.05527422,0.3801155,0.34200436,0.6031511,-0.103520066,-0.06012085,-0.37253487,-0.11485979,0.19188972,-0.5886135,0.14755203,0.21080315,0.22976659,0.3747558,-0.08081059,-0.5904311,0.22794832,-0.2153621,-0.4552684,0.51828766,0.032249123,-0.039588075,-0.18090487,0.36000025,-0.1755011,-0.03742104,0.21055049,-0.3010345,0.16846225,0.4874769,-0.20152816,0.28471547,0.3871889,0.31525034,0.17561029,0.499687,0.15894283,0.259956,-0.005653578
MmeBurgon::-0.22219476,0.0794454,0.5169335,0.05037073,-0.10403306,0.091431364,0.47703823,0.17624891,-0.059922434,-0.046769463,0.44200844,-0.053747077,0.52121365,-0.20223132,0.0950682,-0.66372156,-0.14507347,-0.39014322,0.25916785,0.07915619,-0.010031421,-0.07362767,-0.45822802,-0.060699366,-0.16231395,-0.04220296,-0.13582507,-0.2669688,0.36418727,0.07742057,-0.06902945,-0.20845798,0.0971551,-0.2670408,-0.24113792,-0.5944741,0.3516063,-0.3389386,0.38467005,0.3948925,0.1882371,-0.30174148,0.21943387,0.821804,-0.26093256,-0.038641237,0.39552495,-0.89662606,0.49379948,0.56022865
Jondrette::-0.30916274,0.13468027,0.5559134,0.040685777,-0.12322418,0.1277654,0.48357865,0.1614119,-0.09231491,-0.054135945,0.5238696,-0.045214295,0.5971346,-0.22161092,0.18293151,-0.72926056,-0.14131218,-0.38338256,0.29529613,0.06896875,0.028910741,-0.10598857,-0.49203607,-0.012537866,-0.24178141,0.01283056,-0.14987595,-0.2852218,0.40874255,0.11290211,-0.05412827,-0.3102748,0.15353294,-0.33234128,-0.3334801,-0.70109093,0.3430764,-0.40016368,0.42365366,0.51606935,0.26401109,-0.32190695,0.23218097,0.93863714,-0.26854622,-0.046195034,0.4537019,-0.9856361,0.5682351,0.67764145
Gavroche::-0.10029356,0.088930294,0.02332917,-0.037527602,-0.16609801,-0.32747117,0.18576632,0.24609075,-0.26624596,0.0012503506,0.49260622,-0.18825687,0.23151718,0.045762803,0.184529,-0.34767264,-0.24732798,-0.4616265,-0.033767704,0.035765287,-0.075946,-0.047483727,-0.23280826,-0.19048361,-0.051492345,-0.19770887,-0.13008605,-0.087569155,0.2486593,-0.09854906,-0.09677832,-0.16787654,-0.061611883,-0.2533888,-0.06927113,-0.27478123,0.16346544,0.014418029,0.069477394,0.032600485,0.23694089,-0.3797357,0.22842969,0.45341164,-0.20424479,-0.050130628,0.31367487,-0.38875833,0.37265182,0.34931386
Gillenormand::0.12623589,-0.054882836,-0.0054595997,-0.12172132,-0.2866858,-0.43562868,-0.053992637,0.32237533,-0.3167894,0.19730446,0.33466482,-0.24156092,0.21513823,-0.029403191,0.24370952,-0.381644,-0.30492544,-0.14255303,-0.40007848,-0.24379143,-0.106019594,-0.12355477,0.026602777,-0.14871843,0.3801972,-0.003954724,-0.18164708,0.2484232,0.1471824,-0.06864479,0.32531747,0.13681439,-0.12522116,0.032387644,0.1449179,-0.07326532,-0.15854883,-0.092440076,0.07393173,0.13342802,0.036192086,-0.025008649,0.2541039,-0.11258062,-0.07786405,0.17242187,0.26560262,-0.18745841,0.032836977,0.1483042
Magnon::0.18358429,-0.062466316,-0.13676691,-0.007878164,-0.19610932,-0.6230246,0.07656812,0.25510895,-0.20388317,0.21261822,0.50736713,-0.006314847,0.046563327,0.11381692,0.16605684,-0.26895237,-0.33790046,-0.23184706,-0.27786505,-0.20228228,-0.07063995,-0.022065906,0.045806848,-0.07861096,0.41415152,0.07382325,-0.061401285,0.18711258,0.14304198,-0.001115561,0.27611887,0.264127,-0.1312175,0.026096264,0.09206544,-0.04887326,-0.17694697,-0.17594,0.05539676,0.16485299,0.044700842,-0.14000592,0.20845239,-0.0017997372,-0.18267518,0.17837214,0.31099,-0.061384607,-0.02709726,0.11641499
MlleGillenormand::0.080500685,-0.032613322,-0.028133113,0.04131282,-0.33334947,-0.5040695,0.027040942,0.45166382,-0.31293628,0.25062877,0.44914052,-0.29429945,0.21077834,0.004104219,0.31904787,-0.3807829,-0.3568214,-0.20671594,-0.47946557,-0.29647657,-0.045844648,-0.20794693,-0.06530469,-0.087084696,0.4780968,0.06825246,-0.09311335,0.1842137,0.09886049,-0.051077638,0.45144036,0.174844,-0.06648461,0.060277995,0.052344006,0.037934594,-0.09894738,-0.19748066,0.059641875,0.16971822,0.1363223,0.010021146,0.29274133,-0.11555931,-0.041850593,0.18533908,0.28779522,0.03853393,-0.07584452,0.043404303
MmePontmercy::0.18541352,-0.062123585,-0.055650707,0.0934395,-0.22371042,-0.7292155,-0.10722424,0.37982875,-0.063120194,0.14553376,0.77943707,-0.17654485,0.13766314,0.08045013,0.47724265,-0.39985532,-0.52232677,-0.03370522,-0.38103342,-0.44865835,-0.03052874,-0.00016991192,0.31197518,-0.23634715,0.6498333,0.16993178,-0.2663728,0.3427931,0.0651868,-0.08997828,0.4212279,0.26377422,-0.2976593,0.0012363495,0.055397104,-0.020765487,-0.41111988,-0.22689955,0.098474786,0.26285797,0.0052984357,0.03283335,0.3277366,-0.11355743,-0.31225586,0.46623468,0.49567428,-0.010198367,-0.15236269,0.016470017
MlleVaubois::0.16144702,-0.28014678,0.06485653,-0.16218056,-0.23665322,-0.6453457,0.008438544,0.28558317,-0.28555787,0.36718595,0.40585196,-0.16827668,0.21892822,0.06280371,0.1521368,-0.36098632,-0.38761014,-0.19067001,-0.3696642,-0.24934757,-0.092908636,-0.033449758,0.021090684,-0.029333906,0.6588665,-0.03495972,-0.18981124,0.20509364,-0.02232792,-0.14224382,0.46107945,0.16446371,-0.12235257,0.0898502,0.24741033,0.022053577,-0.12608044,-0.1015402,0.2026535,0.11292947,0.013660013,0.005601418,0.30516815,-0.161067,-0.028365063,0.19441757,0.33670115,-0.07639122,-0.05196344,0.10942709
LtGillenormand::0.16237783,-0.06719086,0.011611841,-0.069883585,-0.29319152,-0.5987668,-0.04922269,0.31356087,-0.25477266,0.24781302,0.45639086,-0.18854053,0.17193195,-0.033600263,0.21612607,-0.34587428,-0.38317248,-0.21864599,-0.42941964,-0.24894327,-0.03721948,-0.086877905,0.09305418,-0.124674544,0.4371808,0.032904897,-0.15341882,0.248179,0.13328491,-0.115710266,0.3580402,0.15002805,-0.14714867,0.04633271,0.107706435,-0.016558005,-0.12921892,-0.12162285,0.1671841,0.11801511,0.036754783,-0.06501573,0.22674681,-0.116786174,-0.12087657,0.169281,0.29198033,-0.1256025,-0.034917623,0.1378547
Marius::0.026835077,-0.001740808,0.0006564534,0.016313473,-0.09088079,-0.31535622,0.027199896,0.15536419,-0.18028443,0.059212293,0.2939378,-0.22660407,0.18340366,-0.0037332578,0.08895047,-0.23477694,-0.2684505,-0.21224989,-0.2599299,-0.026536316,-0.008835416,-0.04023213,-0.041695997,-0.14358193,0.26282987,-0.015837016,-0.24361177,0.20711121,0.043067835,-0.06878966,0.2674817,0.13043734,-0.1530832,-0.047027357,0.19096549,-0.2731275,-0.08501194,-0.20081502,0.06484649,0.15224631,0.18842621,-0.015897524,0.11330419,-0.0033330414,-0.295307,0.16277345,0.2474366,-0.41330054,0.10972819,0.21846704
BaronessT::0.10336566,-0.021605944,-0.023367884,-0.072538905,-0.28601393,-0.5644501,-0.006885337,0.39578328,-0.28656617,0.15387759,0.51592237,-0.27998918,0.18170744,0.040940765,0.17796448,-0.4016206,-0.3854874,-0.3212929,-0.32486302,-0.19948103,-0.10780126,-0.10422803,-0.12536533,-0.15060091,0.47467622,0.09700814,-0.14657219,0.09523611,0.16760577,-0.08584641,0.34820548,0.094628036,-0.14790544,0.024716217,0.033020042,-0.05851162,-0.11142175,-0.068474635,0.14421313,0.15774988,0.14599851,-0.098077305,0.2027316,0.0089096045,-0.109639294,0.21615818,0.34143397,-0.11336526,-0.019107841,0.045390297
Mabeuf::-0.25617,0.19708672,0.20898698,0.13088346,-0.048515733,-0.19475964,0.12530304,0.5239322,-0.33353424,-0.35157296,0.5003425,-0.33259785,0.30282187,0.102001056,0.3234256,-0.3166494,-0.055376984,0.036993653,-0.2112287,0.06524538,-0.42275277,-0.20984292,-0.4136027,-0.43722987,0.080048844,-0.38980243,-0.16820343,0.06129019,0.23732689,-0.08109571,-0.020773338,-0.012482365,-0.33004835,-0.11654283,0.22422513,-0.5704547,0.080445416,0.16102003,0.15673932,0.24287868,0.09259536,0.17777212,0.025998363,-0.061575923,-0.2275642,-0.09501906,-0.13758136,-0.6712226,0.5594335,0.14656037
Enjolras::-0.048035927,0.11209588,0.24212356,-0.0034085712,-0.13615103,-0.31918693,0.07140359,0.3120591,-0.3539852,-0.14491789,0.51644164,-0.33808357,0.32678545,-0.0660971,0.23284334,-0.12501077,-0.32579374,-0.19370922,-0.10769317,0.06976955,-0.071108006,-0.10126468,-0.20780623,-0.26160306,0.06696877,-0.20076424,-0.30651549,0.06617824,0.15672044,-0.25048375,-0.041169446,-0.17732006,-0.27820134,-0.18200894,0.06851469,-0.35104275,0.14326209,0.018902214,0.18318729,0.12975504,0.2174315,-0.15014671,0.09814996,0.1645835,-0.26253942,-0.06539589,0.006782725,-0.406184,0.31967893,0.21971054
Combeferre::-0.08630939,0.160768,0.21226671,0.09780314,-0.07322912,-0.21487033,0.10383941,0.31382778,-0.40657377,-0.15133877,0.48545516,-0.23711048,0.40344432,-0.06219997,0.27259684,-0.14886002,-0.25595897,-0.20666663,-0.1562468,0.0417239,-0.07969208,-0.059985604,-0.19293417,-0.26647502,0.045958262,-0.27701977,-0.26283556,0.020573154,0.17911741,-0.22425833,-0.06645306,-0.16098121,-0.20673358,-0.16076432,0.08413703,-0.38103056,0.26758185,-0.041798294,0.18678091,0.08977411,0.29056275,-0.16176485,0.13055022,0.19271,-0.22621062,-0.128098,-0.015185909,-0.44276989,0.4474197,0.24526088
Prouvaire::-0.0634029,0.1619582,0.18650785,0.077592455,-0.16806366,-0.24393983,0.014678541,0.29161084,-0.41188043,-0.15782113,0.54731375,-0.30293256,0.37659127,-0.1359287,0.2219695,-0.10584394,-0.30783278,-0.29212007,-0.21306898,0.026881007,0.008398568,-0.09842098,-0.19104701,-0.33957264,0.0358877,-0.27687907,-0.2274589,0.043415815,0.18916714,-0.23829302,-0.10840667,-0.19614516,-0.27929294,-0.17829895,0.13151757,-0.35248277,0.23922977,-0.022093162,0.24200189,0.058383357,0.30440077,-0.24409975,0.15804435,0.19414322,-0.31314406,-0.16683877,0.017293435,-0.5317448,0.5043834,0.28129354
Feuilly::-0.075621255,0.08746398,0.13698618,0.08386715,-0.099305995,-0.28806555,0.07146799,0.3316301,-0.42750737,-0.14898884,0.54924816,-0.26148677,0.36977768,-0.07139825,0.28443184,-0.10137966,-0.30551162,-0.3120456,-0.14243963,0.05050506,-0.074633315,-0.0821143,-0.19486143,-0.33640438,0.04457648,-0.3151761,-0.2656315,0.0067818477,0.16168562,-0.2582239,-0.14140098,-0.19492818,-0.3063936,-0.18931945,0.0816848,-0.32010636,0.25798383,0.0013926137,0.18171717,-0.016921697,0.30145878,-0.26215264,0.18907869,0.22687341,-0.2634597,-0.12780808,0.04862088,-0.42507878,0.54778665,0.24037205
Courfeyrac::-0.047351535,0.08790644,0.15507771,-0.024934234,-0.13799809,-0.39399248,-0.0027620918,0.2844531,-0.35476592,-0.11698905,0.5512024,-0.30081916,0.33168936,-0.08873299,0.27733916,-0.06815386,-0.32316482,-0.14616953,-0.2293179,0.0093089,-0.11575293,-0.12952323,-0.18546894,-0.25444263,0.11301128,-0.2521115,-0.21473986,0.034860775,0.16385655,-0.36784998,-0.097563684,-0.17507319,-0.2417632,-0.1881122,0.056032736,-0.28693545,0.15798128,0.18306725,0.27168483,0.052127894,0.16064487,-0.19049795,0.06958308,0.15841667,-0.25438008,-0.14391129,-0.05395749,-0.532677,0.54210865,0.22433084
Bahorel::0.012681974,0.12778343,0.20445298,0.023334535,-0.08234556,-0.3132891,-0.0053026504,0.33485755,-0.422748,-0.18411109,0.5694827,-0.2738244,0.2881946,-0.02363467,0.13315435,-0.03256218,-0.24183434,-0.24461217,-0.12232438,0.052511003,-0.12161331,-0.039027706,-0.24189521,-0.269817,0.10270756,-0.35098818,-0.2556288,-0.036303688,0.24597248,-0.21514633,-0.16448794,-0.12641855,-0.31894675,-0.15450075,0.20816897,-0.35002875,0.21959348,0.021249989,0.22975045,0.074486814,0.21618944,-0.2315271,0.19962311,0.19416586,-0.26620325,-0.105590634,-0.03821853,-0.4778354,0.51930386,0.30049536
Bossuet::-0.063185595,0.19902788,0.14468355,0.11263521,-0.0510698,-0.32978868,0.022765078,0.34095436,-0.43774936,-0.17185639,0.58454055,-0.27705812,0.33631212,-0.03766954,0.24969947,-0.04382357,-0.3302229,-0.28628904,-0.13593797,0.09728362,-0.09060981,-0.06971147,-0.24279535,-0.29144666,0.027682038,-0.25322863,-0.26878476,-0.048545625,0.22434472,-0.18284951,-0.09654339,-0.14216168,-0.24973814,-0.13679443,0.040002197,-0.34518322,0.1924485,-0.11025672,0.15913633,-0.022632834,0.27227792,-0.19118851,0.0856014,0.23765193,-0.2711844,-0.092628084,-0.011645084,-0.38363537,0.46849313,0.20095944
Joly::-0.04392742,0.16374886,0.13950235,0.055092465,-0.12339815,-0.3193264,-0.05582374,0.35492897,-0.39015743,-0.123986065,0.5204926,-0.36738467,0.30157435,-0.07057759,0.275179,-0.034309328,-0.2748894,-0.28057948,-0.20699432,0.064134695,-0.08128574,-0.102545366,-0.18035346,-0.26212928,0.010306378,-0.21464434,-0.25511548,0.011055882,0.22041373,-0.22566313,-0.037427705,-0.15542015,-0.27509394,-0.1810904,0.10040737,-0.35301214,0.12888859,0.03193171,0.17915955,0.07141554,0.25527993,-0.20126496,0.09337555,0.18536794,-0.23797418,-0.07814289,0.026375681,-0.4721657,0.498325,0.25186756
Grantaire::-0.042053267,0.2407099,0.10299194,0.09380064,-0.06941562,-0.3699111,0.028681839,0.28072998,-0.4584882,-0.18772954,0.6041217,-0.26874158,0.3548302,-0.05520538,0.28799525,0.04508459,-0.3720729,-0.2592734,-0.15917692,0.117249034,-0.08835355,-0.058186095,-0.19643767,-0.32021835,0.051776282,-0.22440383,-0.2647464,0.015800022,0.16915128,-0.30886975,-0.15259391,-0.1887873,-0.28253144,-0.15562862,0.07530964,-0.36045238,0.16504963,0.01687552,0.17373134,0.0066906437,0.30283296,-0.24197163,0.016273865,0.26557273,-0.33733082,-0.116420604,-0.03506267,-0.4482614,0.5550672,0.15656538
MotherPlutarch::-0.21191613,0.19895643,-0.025118373,0.15251127,-0.0018734584,-0.0691385,0.097521685,0.4924197,-0.30532035,-0.45440704,0.4785831,-0.51893336,0.21076553,0.11387932,0.25788137,-0.22472832,0.074380584,-0.08096354,-0.35058913,-0.01906708,-0.571926,-0.18148841,-0.3807429,-0.35851142,0.14415064,-0.60270274,-0.22199753,0.05664647,0.41431728,-0.08686246,-0.084395215,0.1803002,-0.48592523,-0.15195334,0.4347961,-0.6264926,0.14499846,0.15677035,-0.0021277391,0.36938947,0.10819091,0.27848792,0.20354344,-0.22878356,-0.31112298,0.07364963,-0.2380443,-0.5874443,0.5678433,0.29273537
Gueulemer::0.18318148,0.049711805,-0.103498496,0.1367721,0.26363814,-0.4634417,0.41018328,-0.024484944,-0.01507003,0.021483557,0.4345087,0.33858216,0.03560581,0.2615758,0.27553803,-0.109782964,-0.31569207,0.080202065,0.20580766,5.374227e-05,-0.29592732,0.16384174,0.0684431,-0.09686384,0.3358361,-0.035168074,-0.14964469,0.08324441,0.08106109,-0.1946631,-0.113497235,0.258496,-0.11883437,-0.21550031,-0.06775173,-0.3126473,-0.28087658,-0.0293326,-0.21336944,0.30461988,-0.059103478,-0.14464872,0.054909404,0.44879994,-0.36274314,0.20026392,0.25927168,-0.24843936,0.40287364,0.059593394
Babet::0.19119067,0.09064142,-0.11461488,0.10362589,0.26870015,-0.57927513,0.3328296,-0.070420906,-0.052229423,0.015917132,0.48993728,0.33993843,-0.05030154,0.30963525,0.25093028,-0.03648942,-0.39515403,0.11170808,0.23214345,0.046494592,-0.30612302,0.20433861,0.002069973,-0.09158153,0.3374786,-0.013684029,-0.18141998,0.075286925,0.1060539,-0.13395257,-0.13279155,0.2734011,-0.13845949,-0.2119409,-0.030396052,-0.30800304,-0.3206202,-0.12026256,-0.14614418,0.26075897,-0.060478453,-0.17270927,0.057837613,0.43577296,-0.42272362,0.19579463,0.20801248,-0.26140767,0.3431586,0.06692099
Claquesous::0.17926642,0.10217317,-0.08165345,0.10515246,0.24106058,-0.56667256,0.3736771,0.0018934145,-0.049914084,-0.013650183,0.49372733,0.25946355,0.035450604,0.26985788,0.30981612,0.00345662,-0.3733362,0.10634633,0.2456147,-0.006811509,-0.28325617,0.22950006,0.101039834,-0.019271692,0.25886658,-0.044974796,-0.27242616,0.11820821,0.13105161,-0.20858221,-0.13616303,0.24952361,-0.16520947,-0.28209955,-0.033803795,-0.28006405,-0.27446622,-0.08460407,-0.19053333,0.2471182,-0.074934706,-0.22463515,0.0475897,0.44184524,-0.32233626,0.23933129,0.24206166,-0.1227404,0.3176698,0.12331518
Montparnasse::0.16844751,0.092294365,-0.03486429,0.11809998,0.2047766,-0.41326442,0.35382158,-0.029626971,0.017188916,-0.029048456,0.42057538,0.32538363,0.013241559,0.20677015,0.22032781,-0.15490946,-0.30013078,0.066075735,0.242007,-0.007128837,-0.26253816,0.19001152,0.028379528,-0.096271895,0.30120626,-0.0016365253,-0.1591089,0.072189964,0.11101065,-0.13923986,-0.13375369,0.21461828,-0.15404747,-0.22932237,-0.028157393,-0.33683193,-0.23973277,-0.10903796,-0.11811407,0.3612953,-0.039541967,-0.18450674,0.13460456,0.46814057,-0.3702579,0.20780732,0.34805378,-0.33796594,0.38520455,0.13224666
Toussaint::0.078717984,-0.118340395,0.046847034,-0.09954683,-0.0819587,-0.3861009,0.15493777,0.111269265,-0.21521315,0.26974887,0.16762827,-0.03234173,0.2163382,0.10414072,0.22745487,-0.11193431,-0.20242602,-0.050282422,-0.17278318,-0.0899764,-0.166694,-0.03970582,0.021751437,0.16191815,0.25559598,-0.06370225,-0.23521322,0.19957958,0.02040563,-0.07727902,0.29438853,0.1689287,0.01548479,-0.036565814,0.15582016,-0.1115703,-0.09051866,-0.14189301,-0.023995876,0.17088653,0.06957531,-0.05336714,0.20177862,0.09998879,-0.068031624,0.15697557,0.21230726,-0.07659488,0.10610598,0.1743404
Child1::0.008712435,0.10367565,-0.24458931,-0.041703608,-0.44725013,-0.3606222,0.1433339,0.26904926,-0.2933506,0.07281055,0.40333816,0.0024141478,-0.001956587,0.172921,-0.058378708,-0.30517972,-0.0766971,-0.87345266,-0.029145533,0.1815851,-0.067938484,0.021704596,-0.25486365,-0.27021044,-0.17570582,-0.18899275,0.11626188,-0.20061372,0.30217674,0.20933738,-0.23225321,-0.18030809,-0.35522282,-0.25668785,0.091966145,-0.4875238,0.23937033,0.024609651,0.06716451,0.34299666,0.67279917,-0.8310928,0.37390488,0.57103807,-0.28815576,-0.2399852,0.6097457,-0.69344145,0.6687074,0.27402005
Child2::0.023204174,0.009792124,-0.23599607,0.006686448,-0.42803407,-0.31784165,0.21978495,0.27388388,-0.25449413,0.10134333,0.44666374,-0.04630687,-0.014115063,0.18370785,-0.022464352,-0.31386673,-0.07300741,-0.8819425,-0.14325483,0.07527256,0.077998154,-0.11131962,-0.28538382,-0.32385656,-0.20518753,-0.1437843,0.09328474,-0.10213686,0.35491607,0.17884132,-0.1717785,-0.15875141,-0.24564439,-0.3270741,0.108068965,-0.40641847,0.20028466,-0.021258125,0.093707174,0.2960906,0.6567242,-0.794531,0.38082635,0.54607457,-0.40839842,-0.28479487,0.56020546,-0.7292085,0.52820003,0.28539932
Brujon::0.13510765,0.119652465,-0.02400943,0.11690237,0.21276844,-0.42881277,0.3890866,-0.001439327,0.007390578,-0.10729516,0.50059026,0.25670108,0.058738142,0.21764097,0.222814,-0.14320467,-0.3655454,0.12908417,0.2664088,-0.034027305,-0.2317417,0.18067515,-0.024622686,-0.124599226,0.25809506,-0.054752413,-0.22398426,0.085362926,0.13938315,-0.17349066,-0.18827368,0.20943317,-0.18713732,-0.24925928,-0.0414903,-0.3700115,-0.2241225,-0.08862215,-0.08683899,0.31616858,-0.104874015,-0.18357296,0.1092773,0.416292,-0.40663117,0.2012717,0.25397733,-0.32043156,0.35183877,0.14449403
MmeHucheloup::-0.10656191,0.055244844,0.15330997,0.023224885,-0.10781876,-0.32402903,0.06836978,0.3328504,-0.41708356,-0.14572,0.58239985,-0.28874037,0.3814378,-0.047862906,0.24033609,-0.12591872,-0.30631012,-0.28992775,-0.13849373,0.07975699,-0.13096246,-0.071270965,-0.28329358,-0.34426153,0.1530885,-0.26715475,-0.2424094,-0.046129134,0.13309872,-0.29395828,-0.10158317,-0.2206832,-0.33288231,-0.17682382,0.12327927,-0.36368382,0.22042714,0.10429268,0.2668733,0.068652906,0.2899777,-0.19933471,0.10849154,0.18824048,-0.23696171,-0.15788001,0.024008011,-0.4964636,0.51030624,0.13079165
